{
  "fc1.weight": [
    [
      0.061023980379104614,
      0.09072476625442505,
      0.12412675470113754,
      0.001665639691054821,
      -0.24297790229320526,
      -0.08071904629468918,
      -0.1125393882393837,
      0.2770877778530121,
      -0.17544791102409363,
      0.14398372173309326,
      0.1671147495508194,
      0.04423265531659126,
      0.014431940391659737,
      -0.14458990097045898,
      0.13050180673599243,
      -0.015089056454598904,
      0.21694302558898926,
      0.4555022716522217,
      -0.09293518960475922,
      0.2201666235923767,
      -0.23096948862075806,
      0.044974494725465775,
      -0.09496506303548813,
      -0.05728612095117569,
      0.0917787253856659
    ],
    [
      -0.031095147132873535,
      0.44622543454170227,
      -0.05347028747200966,
      0.047894444316625595,
      -0.007197686471045017,
      -0.025829611346125603,
      0.13544157147407532,
      0.06616298109292984,
      0.060489434748888016,
      0.064918652176857,
      0.043461114168167114,
      -0.05266699939966202,
      0.18640942871570587,
      -0.05209829658269882,
      0.3233785331249237,
      -0.08671467751264572,
      0.255770206451416,
      0.38491231203079224,
      -0.22351548075675964,
      0.04231769219040871,
      -0.15173295140266418,
      -0.1504630297422409,
      -0.07150638848543167,
      0.07150085270404816,
      -0.26278313994407654
    ],
    [
      0.07956267148256302,
      -0.07350573688745499,
      0.1736549586057663,
      -0.10282222926616669,
      0.05030724033713341,
      0.3130921721458435,
      -0.14145028591156006,
      0.14267729222774506,
      -0.026236439123749733,
      -0.02775152400135994,
      0.022994069382548332,
      0.05097634345293045,
      -0.09376106411218643,
      0.07438421249389648,
      -0.08503036946058273,
      0.2252359688282013,
      -0.07128829509019852,
      -0.45763587951660156,
      -0.2870683968067169,
      0.09954149276018143,
      -0.19927838444709778,
      -0.11894950270652771,
      0.017064714804291725,
      0.07562797516584396,
      0.1474796086549759
    ],
    [
      0.23496806621551514,
      0.07111771404743195,
      0.14969980716705322,
      -0.05136490240693092,
      -0.1662084013223648,
      0.028516151010990143,
      -0.04501338675618172,
      -0.11298631876707077,
      0.18445119261741638,
      0.1110122799873352,
      -0.04975762963294983,
      0.0860634446144104,
      -0.012759563513100147,
      0.5696786642074585,
      -0.15027908980846405,
      0.07662514597177505,
      -0.06675633043050766,
      -0.4156191051006317,
      0.11273221671581268,
      0.02918749302625656,
      -0.06411107629537582,
      -0.05120095610618591,
      -0.06656516343355179,
      0.03775687888264656,
      -0.0034801987931132317
    ],
    [
      0.19953837990760803,
      0.04014673829078674,
      0.049293141812086105,
      0.00751865329220891,
      0.18737831711769104,
      -0.174700528383255,
      0.0320693701505661,
      0.09153596311807632,
      0.1691916435956955,
      0.04287555813789368,
      -0.17120081186294556,
      0.24427731335163116,
      -0.1416206806898117,
      -0.010945911519229412,
      -0.04141943156719208,
      -0.06724932044744492,
      0.06917919218540192,
      0.39151531457901,
      0.06568830460309982,
      0.10339491069316864,
      0.09987253695726395,
      -0.17589187622070312,
      -0.07308059185743332,
      -0.19353312253952026,
      -0.054225854575634
    ],
    [
      0.23150497674942017,
      -0.3316786587238312,
      0.032001838088035583,
      0.1563044637441635,
      -0.32198989391326904,
      0.007681239861994982,
      0.0736105665564537,
      0.26440852880477905,
      0.034213874489068985,
      0.16032849252223969,
      0.010351107455790043,
      0.16819210350513458,
      -0.043098047375679016,
      0.04305529594421387,
      0.04607785493135452,
      0.23611532151699066,
      0.0700264498591423,
      0.162314772605896,
      0.2528080344200134,
      -0.05675136297941208,
      -0.09413107484579086,
      -0.12935295701026917,
      -0.020462889224290848,
      0.08082182705402374,
      -0.23464654386043549
    ],
    [
      0.028873149305582047,
      0.04840106517076492,
      0.05444842576980591,
      0.035742707550525665,
      0.08182813972234726,
      -0.19452162086963654,
      -0.14213873445987701,
      0.19763381779193878,
      0.12031953781843185,
      -0.011857777833938599,
      0.0015692058950662613,
      0.1449936032295227,
      -0.009205857291817665,
      0.0026952701155096292,
      -0.09605113416910172,
      -0.026605047285556793,
      0.18667054176330566,
      0.010186414234340191,
      -0.012481807731091976,
      0.011508065275847912,
      -0.280756413936615,
      0.2400752753019333,
      -0.009254292584955692,
      0.2586660385131836,
      0.13965941965579987
    ],
    [
      -0.11918579041957855,
      -0.07775217294692993,
      0.026928795501589775,
      0.024566680192947388,
      0.286537766456604,
      0.2216992974281311,
      -0.043207984417676926,
      0.12355848401784897,
      0.06490316987037659,
      0.1715659350156784,
      0.12199574708938599,
      0.005168071016669273,
      -0.06759440898895264,
      0.0038579213432967663,
      -0.17434152960777283,
      0.2914195954799652,
      -0.20439279079437256,
      0.04575284197926521,
      0.07099731266498566,
      0.034440454095602036,
      0.038615621626377106,
      -0.16948626935482025,
      -0.06375521421432495,
      0.04415694251656532,
      -0.006201925687491894
    ],
    [
      -0.13693758845329285,
      -0.028309861198067665,
      0.19460605084896088,
      0.05558948218822479,
      0.24491539597511292,
      -0.1585962474346161,
      -0.03255843743681908,
      0.023355059325695038,
      0.28469371795654297,
      -0.1287664920091629,
      0.19354812800884247,
      -0.12177365273237228,
      -0.2693805694580078,
      0.08083990216255188,
      -0.18921804428100586,
      0.00813742820173502,
      -0.03626314923167229,
      -0.33146125078201294,
      -0.0030542199965566397,
      0.2566121220588684,
      0.15627063810825348,
      0.036129180341959,
      -0.0023356222081929445,
      -0.06224454566836357,
      -0.16713692247867584
    ],
    [
      0.19200851023197174,
      0.29974424839019775,
      -0.06604389101266861,
      0.12788094580173492,
      0.2917739748954773,
      -0.194283589720726,
      -0.04568306729197502,
      -0.44249072670936584,
      0.1090124249458313,
      -0.03387445956468582,
      0.020824292674660683,
      -0.18544799089431763,
      0.01996985636651516,
      -0.13608668744564056,
      -0.1264539510011673,
      -0.04127373546361923,
      0.12100345641374588,
      -0.09596734493970871,
      0.051889196038246155,
      -0.06076350808143616,
      0.2866973578929901,
      -0.1264072209596634,
      0.11436142772436142,
      -0.11292731761932373,
      -0.15810056030750275
    ],
    [
      0.18727785348892212,
      -0.03988154977560043,
      0.17789055407047272,
      -0.1782415360212326,
      0.21171385049819946,
      -0.09742596000432968,
      0.24022004008293152,
      0.09534227102994919,
      -0.06530529260635376,
      0.1308513730764389,
      -0.052221015095710754,
      -0.10737510770559311,
      0.08566426485776901,
      0.08485818654298782,
      0.19694970548152924,
      0.01813136413693428,
      -0.11702274531126022,
      0.09166531264781952,
      0.080617755651474,
      0.23963011801242828,
      0.10047154873609543,
      -0.08431829512119293,
      0.19224710762500763,
      0.1184803768992424,
      -0.10564623773097992
    ],
    [
      0.07920917868614197,
      0.019822383299469948,
      -0.049639493227005005,
      0.2423916459083557,
      0.3551536202430725,
      -0.06501466780900955,
      -0.047982342541217804,
      -0.3652611970901489,
      -0.026125317439436913,
      -0.2979218363761902,
      0.1516793817281723,
      -0.08738505840301514,
      0.1779118776321411,
      0.10404837131500244,
      -0.24799148738384247,
      -0.014676653780043125,
      -0.03199515864253044,
      0.06037217006087303,
      -0.07298729568719864,
      0.02502044290304184,
      0.0637931376695633,
      0.1790151596069336,
      -0.06533677875995636,
      0.021223219111561775,
      -0.07600458711385727
    ],
    [
      0.1433132141828537,
      -0.013399749994277954,
      -0.01777750998735428,
      0.0621333122253418,
      0.06840941309928894,
      0.08692455291748047,
      0.06101924926042557,
      -0.1261591613292694,
      0.05809016525745392,
      -0.04445383697748184,
      -0.16102491319179535,
      -0.03606605902314186,
      -0.11737291514873505,
      -0.025301847606897354,
      0.3142387270927429,
      0.23969711363315582,
      0.11567926406860352,
      -0.009073100052773952,
      0.09758477658033371,
      0.08455824106931686,
      0.010437693446874619,
      -0.1357005089521408,
      -0.18590648472309113,
      0.008917046710848808,
      -0.019381776452064514
    ],
    [
      0.1374298334121704,
      0.051364146173000336,
      -0.045214153826236725,
      0.18660351634025574,
      0.330704927444458,
      -0.06012190505862236,
      0.18639996647834778,
      -0.23198865354061127,
      0.14309264719486237,
      0.022633472457528114,
      -0.1269247829914093,
      -0.007405547890812159,
      0.15883970260620117,
      0.359243243932724,
      -0.2342642843723297,
      0.18700279295444489,
      0.14630632102489471,
      -0.297760933637619,
      -0.037018273025751114,
      0.06825049966573715,
      0.06448111683130264,
      0.13448093831539154,
      0.08358346670866013,
      -0.186842143535614,
      0.001437818631529808
    ],
    [
      0.014639794826507568,
      0.18435005843639374,
      -0.06108613312244415,
      0.1477341502904892,
      0.3108581602573395,
      0.04692180082201958,
      -0.18486586213111877,
      -0.3303490877151489,
      -0.009097590111196041,
      -0.07987730205059052,
      -0.1458631306886673,
      0.06106974557042122,
      0.0009295081254094839,
      -0.05267971381545067,
      -0.2130110263824463,
      0.22136332094669342,
      0.16110943257808685,
      -0.1323317438364029,
      -0.08006668835878372,
      0.15316705405712128,
      0.25515004992485046,
      -0.11160391569137573,
      0.08077913522720337,
      -0.12681612372398376,
      -0.2793993055820465
    ],
    [
      -0.011205905117094517,
      -0.05139806494116783,
      0.04100688919425011,
      0.048516031354665756,
      -0.12777364253997803,
      0.004458997864276171,
      0.21498733758926392,
      -0.1196676567196846,
      -0.007589873857796192,
      0.2446788251399994,
      -0.07096841931343079,
      0.01595200225710869,
      0.10240591317415237,
      0.010917620733380318,
      0.24752925336360931,
      -0.05324936285614967,
      -0.09464970231056213,
      0.14321748912334442,
      -0.16798502206802368,
      0.04849061742424965,
      -0.06867838650941849,
      0.06600604951381683,
      0.016336172819137573,
      0.00966344028711319,
      0.04789571836590767
    ],
    [
      0.08740486204624176,
      0.17420175671577454,
      0.2269469052553177,
      -0.08777976781129837,
      0.3596949279308319,
      0.08887339383363724,
      -0.35164517164230347,
      -0.25597572326660156,
      0.2316366285085678,
      0.1929420828819275,
      -0.029971102252602577,
      0.25044795870780945,
      0.1734006404876709,
      -0.08309721946716309,
      -0.03508557006716728,
      0.17905829846858978,
      0.0632220208644867,
      -0.37827298045158386,
      0.01659671775996685,
      0.07178999483585358,
      0.23095515370368958,
      -0.01944444514811039,
      -0.10606874525547028,
      0.14802122116088867,
      -0.18793709576129913
    ],
    [
      -0.12603121995925903,
      0.1424357146024704,
      -0.014944716356694698,
      -0.07065125554800034,
      0.05037356913089752,
      0.34084874391555786,
      0.26206541061401367,
      0.23476542532444,
      -0.03147523105144501,
      0.07329589873552322,
      -0.12312571704387665,
      -0.19408276677131653,
      0.012565731070935726,
      0.06957831978797913,
      0.2248685210943222,
      0.22062824666500092,
      0.3117336332798004,
      -0.263411283493042,
      0.1467323750257492,
      0.0897214487195015,
      -0.0681772455573082,
      0.09886294603347778,
      -0.08190906047821045,
      -0.009658852592110634,
      0.06582566350698471
    ],
    [
      -0.1197572723031044,
      -0.025586217641830444,
      0.17070774734020233,
      0.1857064813375473,
      -0.25098803639411926,
      0.06993646919727325,
      -0.22005142271518707,
      0.2823297679424286,
      -0.24424847960472107,
      -0.011891219764947891,
      0.08699951320886612,
      0.07847727090120316,
      -0.100113645195961,
      -0.02269773557782173,
      -0.21172979474067688,
      0.014837019145488739,
      -0.03731324523687363,
      -0.39656707644462585,
      -0.06073106452822685,
      -0.08239520341157913,
      0.09525471180677414,
      -0.19250304996967316,
      -0.09011422097682953,
      0.2281452864408493,
      -0.10937169939279556
    ],
    [
      0.11341053247451782,
      -0.2391767054796219,
      0.11066097021102905,
      -0.07477976381778717,
      -0.046774253249168396,
      0.24010682106018066,
      -0.043953873217105865,
      0.06749609112739563,
      -0.05926087126135826,
      0.17131201922893524,
      0.07350899279117584,
      -0.15507210791110992,
      0.07299932837486267,
      -0.306524395942688,
      0.09461133927106857,
      0.10607282817363739,
      0.12480011582374573,
      -0.11879575252532959,
      -0.030953656882047653,
      0.0021519328001886606,
      -0.03052739053964615,
      0.04493715986609459,
      0.2491631656885147,
      0.10795080661773682,
      -0.16692033410072327
    ],
    [
      0.069501131772995,
      0.1478523463010788,
      0.0889384001493454,
      -0.06215622276067734,
      0.2135680466890335,
      0.11241832375526428,
      -0.09581752121448517,
      0.0329439677298069,
      0.005951050668954849,
      -0.2411753535270691,
      -0.29039305448532104,
      0.006361635867506266,
      0.06604986637830734,
      0.034180235117673874,
      -0.045902375131845474,
      0.07438371330499649,
      -0.10062847286462784,
      0.10648878663778305,
      -0.013600362464785576,
      0.3450786769390106,
      0.10242162644863129,
      0.13001154363155365,
      -0.1735178381204605,
      -0.02408052235841751,
      -0.1753053069114685
    ],
    [
      0.08948644995689392,
      -0.011462063528597355,
      0.06136229261755943,
      0.045849498361349106,
      -0.11856355518102646,
      -0.14793305099010468,
      -0.011365391314029694,
      0.05399464815855026,
      0.24547117948532104,
      0.12490902096033096,
      -0.1716407686471939,
      0.09942746162414551,
      0.0034549240954220295,
      0.027758222073316574,
      0.24207676947116852,
      0.1704028695821762,
      -0.03677193447947502,
      0.3938388526439667,
      0.024284249171614647,
      -0.027333498001098633,
      0.21201784908771515,
      0.02771022543311119,
      -0.09918727725744247,
      0.014543321914970875,
      0.21489368379116058
    ],
    [
      0.12123879045248032,
      0.01928332820534706,
      -0.03120051696896553,
      0.031299788504838943,
      -0.09861452132463455,
      0.1362486034631729,
      -0.17368869483470917,
      0.6652871966362,
      0.07160155475139618,
      0.003901126328855753,
      0.13859982788562775,
      -0.00012541661271825433,
      0.18903736770153046,
      -0.07287806272506714,
      -0.13782499730587006,
      -0.12794151902198792,
      0.09231202304363251,
      -0.023739391937851906,
      -0.10133666545152664,
      0.1847628951072693,
      0.06865537911653519,
      0.28554314374923706,
      -0.13102436065673828,
      0.09295792132616043,
      -0.13652151823043823
    ],
    [
      0.11793787032365799,
      -0.12014218419790268,
      0.18926292657852173,
      -0.11555346846580505,
      0.0628349781036377,
      0.04169992357492447,
      -0.25371110439300537,
      0.09201011061668396,
      0.03628292679786682,
      0.02784167416393757,
      0.06888284534215927,
      0.18492096662521362,
      -0.022416528314352036,
      0.14409206807613373,
      -0.1216774731874466,
      0.11031696945428848,
      -0.12164594233036041,
      0.04115719348192215,
      -0.1514456570148468,
      0.31510576605796814,
      -0.010294717736542225,
      -0.03125963360071182,
      -0.020870305597782135,
      -0.2563936114311218,
      0.08027058094739914
    ],
    [
      0.12648268043994904,
      -0.08327863365411758,
      -0.08157876133918762,
      0.0975082516670227,
      0.28305262327194214,
      0.26825881004333496,
      0.10709215700626373,
      -0.17391398549079895,
      -0.08297089487314224,
      0.08243560045957565,
      -0.15843035280704498,
      0.10578987002372742,
      0.02774077095091343,
      -0.18132631480693817,
      -0.1317880004644394,
      -0.06999177485704422,
      0.13556046783924103,
      0.030436182394623756,
      -0.07339345663785934,
      -0.059475041925907135,
      0.07655718177556992,
      -0.08320270478725433,
      -0.08894778043031693,
      -0.18460814654827118,
      0.1265154778957367
    ],
    [
      0.08210673928260803,
      0.24577336013317108,
      0.018160995095968246,
      0.13107150793075562,
      0.4414934515953064,
      0.1585903912782669,
      -0.036363475024700165,
      -0.2843656539916992,
      0.26922398805618286,
      -0.024800144135951996,
      -0.0620848722755909,
      0.004758854396641254,
      0.13355715572834015,
      0.19947093725204468,
      -0.09820066392421722,
      0.19370868802070618,
      -0.11551516503095627,
      -0.04918514937162399,
      0.045633114874362946,
      0.005980069283396006,
      -0.009727043099701405,
      0.023521969094872475,
      0.1896897256374359,
      -0.0315571166574955,
      -0.09231388568878174
    ],
    [
      0.002382958075031638,
      0.1345522701740265,
      -0.03017680160701275,
      0.005009612534195185,
      0.01987636461853981,
      0.03400333970785141,
      -0.06611824035644531,
      0.0024218810722231865,
      -0.23712453246116638,
      -0.2316560447216034,
      -0.14574848115444183,
      -0.12925629317760468,
      -0.09823790192604065,
      0.24093064665794373,
      0.1888805776834488,
      0.3104203939437866,
      -0.24275124073028564,
      0.28830304741859436,
      -0.024318620562553406,
      0.1679893136024475,
      -0.12567000091075897,
      0.12754184007644653,
      -0.03623043745756149,
      -0.03854616731405258,
      0.11828991025686264
    ],
    [
      -0.0818493515253067,
      0.17906801402568817,
      0.1630895882844925,
      0.020873963832855225,
      -0.05069612339138985,
      0.40770062804222107,
      0.14268875122070312,
      -0.25616100430488586,
      0.20332521200180054,
      -0.07902742177248001,
      -0.1846741884946823,
      -0.023235272616147995,
      0.16809962689876556,
      0.09023090451955795,
      0.35320931673049927,
      -0.05048496648669243,
      -0.03871828690171242,
      0.17442384362220764,
      0.17342866957187653,
      0.038093723356723785,
      -0.03174286335706711,
      0.0061709037981927395,
      -0.09437135607004166,
      0.24610882997512817,
      0.07018838077783585
    ],
    [
      -0.1220100000500679,
      0.019554272294044495,
      0.10717178136110306,
      0.1975773721933365,
      -0.14772796630859375,
      0.07163157314062119,
      -0.07102606445550919,
      -0.006730009336024523,
      0.06012329086661339,
      -0.10629911720752716,
      0.09664926677942276,
      0.1267557591199875,
      0.18896785378456116,
      0.08499711751937866,
      -0.3213198184967041,
      -0.12181249260902405,
      0.02547506056725979,
      -0.3677963316440582,
      0.12335110455751419,
      0.1423325389623642,
      -0.1627611517906189,
      -0.043135955929756165,
      -0.14932580292224884,
      0.31040242314338684,
      0.03803711012005806
    ],
    [
      -0.01659321039915085,
      0.25106099247932434,
      0.1598062962293625,
      0.07161585986614227,
      -0.11603882163763046,
      0.10783742368221283,
      -0.1691635251045227,
      0.037164002656936646,
      0.1304965317249298,
      0.038301195949316025,
      0.2714008688926697,
      0.1720498502254486,
      -0.1846521943807602,
      -0.3065810203552246,
      -0.2561807632446289,
      -0.010818617418408394,
      0.16678553819656372,
      -0.2056557834148407,
      0.1526739001274109,
      0.3148297369480133,
      0.18764445185661316,
      0.22203315794467926,
      0.18537753820419312,
      -0.07516833394765854,
      0.10064737498760223
    ],
    [
      0.0007823818596079946,
      -0.00643915357068181,
      -0.10291589051485062,
      0.07991302758455276,
      0.1415354609489441,
      0.19772687554359436,
      -0.027078179642558098,
      0.09366738796234131,
      -0.09216038137674332,
      0.17313143610954285,
      0.03133390098810196,
      -0.08593395352363586,
      0.02866191230714321,
      0.0442415215075016,
      -0.12173144519329071,
      0.2556259334087372,
      0.01940096914768219,
      0.04033127799630165,
      -0.08305255323648453,
      -0.006235162261873484,
      -0.24260850250720978,
      -0.04119352251291275,
      0.05979980155825615,
      0.01869252137839794,
      0.08101455122232437
    ],
    [
      0.22626064717769623,
      0.010150521993637085,
      -0.02756170555949211,
      0.040931690484285355,
      0.24374476075172424,
      -0.1307802051305771,
      0.14167173206806183,
      -0.1130591556429863,
      0.10588493943214417,
      0.037419646978378296,
      -0.020885083824396133,
      -0.031095292419195175,
      -0.11547986418008804,
      -0.05798252299427986,
      -0.16347302496433258,
      0.03419112414121628,
      0.08474847674369812,
      -0.026679903268814087,
      0.056923773139715195,
      0.14613261818885803,
      0.028811780735850334,
      -0.1417514979839325,
      0.0075129978358745575,
      0.04907554015517235,
      0.16549921035766602
    ],
    [
      0.06849836558103561,
      -0.020412467420101166,
      -0.1445888876914978,
      0.1429973542690277,
      0.30069467425346375,
      -0.031994644552469254,
      -0.3201048672199249,
      -0.05193030461668968,
      0.16712148487567902,
      -0.11249140650033951,
      -0.1013842523097992,
      -0.08377383649349213,
      0.30126848816871643,
      0.06859467178583145,
      -0.12384885549545288,
      0.07698813825845718,
      -0.002911729970946908,
      0.018996577709913254,
      -0.06176258623600006,
      -0.012839277274906635,
      0.03406224027276039,
      0.0343785397708416,
      0.08231277763843536,
      -0.0010099719511345029,
      0.09897106140851974
    ],
    [
      0.16199135780334473,
      0.11303774267435074,
      0.1263943314552307,
      -0.12296399474143982,
      -0.14446473121643066,
      0.3263542056083679,
      -0.07952260226011276,
      0.13956134021282196,
      0.10246815532445908,
      0.09984960407018661,
      0.03263187035918236,
      -0.1618536114692688,
      0.23688969016075134,
      0.27945345640182495,
      -0.17428642511367798,
      0.25700512528419495,
      -0.08645345270633698,
      0.15496236085891724,
      -0.04322362691164017,
      0.11831014603376389,
      0.06800580024719238,
      0.005276739131659269,
      0.3139362633228302,
      0.2525707483291626,
      0.08950144797563553
    ],
    [
      0.05136489495635033,
      -0.039047181606292725,
      0.09971749782562256,
      0.03449883684515953,
      0.32731783390045166,
      0.31051456928253174,
      0.002306449692696333,
      -0.09477446228265762,
      0.19378316402435303,
      0.1763409674167633,
      -0.02255159243941307,
      -0.07470804452896118,
      0.1153777539730072,
      0.03859990835189819,
      -0.07235199958086014,
      0.026619618758559227,
      0.02489408664405346,
      0.30319952964782715,
      -0.13737572729587555,
      -0.06935437023639679,
      -0.058481696993112564,
      -0.29419195652008057,
      -0.19338752329349518,
      0.08243178576231003,
      -0.22662542760372162
    ],
    [
      0.13441599905490875,
      0.22051705420017242,
      -0.0795883759856224,
      -0.132584810256958,
      -0.17723031342029572,
      0.08148280531167984,
      0.08065406233072281,
      0.1966819167137146,
      -0.13951659202575684,
      0.11149439960718155,
      0.18784008920192719,
      0.26718470454216003,
      0.2689315676689148,
      0.004816792905330658,
      0.07839656621217728,
      0.04725796356797218,
      0.10595065355300903,
      0.20602382719516754,
      0.07429426908493042,
      0.022257301956415176,
      0.013324445113539696,
      0.06155773252248764,
      -0.07828086614608765,
      -0.0989210456609726,
      -0.04851102828979492
    ],
    [
      0.14026027917861938,
      0.0288782250136137,
      0.11244607716798782,
      -0.08099371939897537,
      -0.18149226903915405,
      0.28313663601875305,
      0.020561179146170616,
      0.38707733154296875,
      0.23084895312786102,
      0.028556982055306435,
      -0.013957055285573006,
      0.21247485280036926,
      0.15483219921588898,
      0.32258254289627075,
      0.12389520555734634,
      -0.10184619575738907,
      0.16488556563854218,
      -0.08802828192710876,
      -0.11554484814405441,
      0.060231685638427734,
      0.23405170440673828,
      -0.11696189641952515,
      -0.09940170496702194,
      0.047089844942092896,
      -0.02062695100903511
    ],
    [
      0.06524799764156342,
      -0.08128412067890167,
      0.09092719107866287,
      0.07508707791566849,
      -0.038512587547302246,
      -0.31709298491477966,
      0.18123844265937805,
      0.0813724622130394,
      -0.14920079708099365,
      -0.018141597509384155,
      -0.040932364761829376,
      0.033323582261800766,
      0.09744958579540253,
      -0.2503865957260132,
      0.006197646260261536,
      -0.016547054052352905,
      0.2256506085395813,
      0.16536609828472137,
      -0.14332269132137299,
      0.16233062744140625,
      0.0037199361249804497,
      -0.13608421385288239,
      -0.09064244478940964,
      -0.02270727977156639,
      0.07715395092964172
    ],
    [
      0.10111895948648453,
      0.2518618106842041,
      -0.018078798428177834,
      0.013912700116634369,
      -0.039169665426015854,
      -0.0603618361055851,
      0.16839449107646942,
      0.20733916759490967,
      -0.04970895126461983,
      0.1268361657857895,
      0.18095813691616058,
      0.15375559031963348,
      0.08586054295301437,
      -0.06323082000017166,
      0.145541712641716,
      -0.14984442293643951,
      -0.17451372742652893,
      0.1732366681098938,
      0.03356596454977989,
      0.13323137164115906,
      -0.06250667572021484,
      0.15329256653785706,
      0.13655734062194824,
      -0.02487967349588871,
      0.048991307616233826
    ],
    [
      0.04135865345597267,
      0.08422567695379257,
      0.10183534771203995,
      -0.02260350063443184,
      0.05617515742778778,
      -0.24072284996509552,
      0.013021928258240223,
      0.07163127511739731,
      0.15220582485198975,
      -0.0268463846296072,
      0.1132979542016983,
      -0.004244369454681873,
      -0.009284362196922302,
      0.17879223823547363,
      -0.04298563674092293,
      0.03186403214931488,
      -0.002570865675806999,
      0.039592109620571136,
      -0.15304909646511078,
      -0.10622775554656982,
      -0.29911476373672485,
      0.1540210247039795,
      -0.22650600969791412,
      -0.04688164219260216,
      -0.030369726940989494
    ],
    [
      0.29373452067375183,
      0.03598999232053757,
      0.06135230511426926,
      -0.06430394947528839,
      -0.031047288328409195,
      0.08616115152835846,
      0.17034299671649933,
      0.2911846339702606,
      0.022690894082188606,
      -0.0008189263753592968,
      0.04299597442150116,
      -0.06845673173666,
      -0.11414927989244461,
      0.048868611454963684,
      0.0166263896971941,
      -0.09890928119421005,
      0.003182925982400775,
      0.1274404227733612,
      -0.07981346547603607,
      0.07190453261137009,
      0.11181049048900604,
      -0.005454312544316053,
      -0.0297686830163002,
      0.19882765412330627,
      0.018102090805768967
    ],
    [
      -0.12714925408363342,
      -0.022551704198122025,
      0.005104948300868273,
      0.13213326036930084,
      0.07536584883928299,
      -0.1690717190504074,
      0.09811379760503769,
      -0.21381482481956482,
      -0.051772892475128174,
      -0.18370911478996277,
      -0.14623239636421204,
      0.12421849370002747,
      -0.14841029047966003,
      -0.06884179264307022,
      -0.03409340977668762,
      0.116745725274086,
      -0.009843056090176105,
      0.17527653276920319,
      -0.08388382941484451,
      0.10123714804649353,
      -0.3962286412715912,
      -0.046394385397434235,
      -0.0971037894487381,
      0.016723768785595894,
      -0.2755737900733948
    ],
    [
      0.11127828806638718,
      -0.12863759696483612,
      0.1224786788225174,
      0.2015843540430069,
      -0.33301031589508057,
      -0.14557671546936035,
      -0.19373077154159546,
      0.22555625438690186,
      0.016982780769467354,
      0.1571674793958664,
      -0.30706945061683655,
      0.12239469587802887,
      -0.06400838494300842,
      -0.25974541902542114,
      -0.2789098024368286,
      -0.05394606292247772,
      -0.00988535862416029,
      -0.14424832165241241,
      -0.053570281714200974,
      0.052569735795259476,
      0.050968851894140244,
      0.09603912383317947,
      0.023385442793369293,
      -0.006437438540160656,
      -0.19574972987174988
    ],
    [
      0.2577335834503174,
      -0.10069400072097778,
      0.14140187203884125,
      -0.12301585078239441,
      0.07512350380420685,
      -0.17855620384216309,
      -0.05449894443154335,
      0.2428426295518875,
      0.21169380843639374,
      0.07807472348213196,
      -0.12422516942024231,
      -0.1407489776611328,
      -0.08318442851305008,
      0.08430436998605728,
      0.061163049191236496,
      -0.03420347720384598,
      0.06646179407835007,
      0.07875186949968338,
      -0.02724834345281124,
      -0.045828863978385925,
      0.050690509378910065,
      0.18728852272033691,
      -0.0755104273557663,
      0.12226352840662003,
      0.1650485247373581
    ],
    [
      0.01741437427699566,
      -0.0011616769479587674,
      0.26149341464042664,
      0.008597908541560173,
      -0.3573770225048065,
      -0.12093321233987808,
      0.04037917032837868,
      0.4576479494571686,
      -0.21613651514053345,
      0.012387429364025593,
      -0.17671725153923035,
      0.02539372444152832,
      -0.06004685163497925,
      -0.1397034078836441,
      -0.1995263248682022,
      0.09362083673477173,
      -0.0485522486269474,
      -0.3224638104438782,
      0.041114356368780136,
      -0.0013007072266191244,
      0.1319551020860672,
      -0.045433733612298965,
      -0.059488698840141296,
      -0.1204773560166359,
      0.04887349531054497
    ],
    [
      0.19670672714710236,
      0.1753358393907547,
      -0.02397294156253338,
      -0.12936058640480042,
      -0.046191561967134476,
      -0.11944503337144852,
      0.0526704378426075,
      0.43061017990112305,
      0.1279127150774002,
      -0.08519675582647324,
      0.1274232566356659,
      0.13835223019123077,
      0.21704323589801788,
      0.12792231142520905,
      0.053120698779821396,
      -0.0462748259305954,
      0.44142234325408936,
      0.32173487544059753,
      0.16395726799964905,
      -0.01081795059144497,
      -0.11315392702817917,
      -0.10152491927146912,
      0.08753392100334167,
      0.0358552411198616,
      -0.051104143261909485
    ],
    [
      0.030250951647758484,
      -0.07394109666347504,
      -0.11374834179878235,
      0.17557400465011597,
      0.05863754078745842,
      0.06065772846341133,
      -0.1658911406993866,
      0.04062682390213013,
      0.09907891601324081,
      -0.06784490495920181,
      -0.03129526227712631,
      0.07478472590446472,
      -0.0205844696611166,
      -0.03885180875658989,
      -0.007839513011276722,
      0.055953770875930786,
      0.08884086459875107,
      0.039699114859104156,
      0.17324267327785492,
      0.1962917000055313,
      -0.10352007299661636,
      -0.07447975128889084,
      -0.0910319834947586,
      -0.03302183747291565,
      -0.09607300162315369
    ],
    [
      0.3572576940059662,
      -0.1520911604166031,
      -0.052570391446352005,
      0.2033698856830597,
      -0.27958449721336365,
      -0.015860114246606827,
      -0.09053150564432144,
      0.48306551575660706,
      0.17143431305885315,
      0.019604332745075226,
      -0.0353175513446331,
      -0.09257038682699203,
      0.020039591938257217,
      -0.23946703970432281,
      0.06417564302682877,
      0.13401593267917633,
      0.10651780664920807,
      0.04395369812846184,
      -0.1027800440788269,
      -0.08688908070325851,
      -0.04698009043931961,
      0.027669431641697884,
      0.1379491090774536,
      0.14719697833061218,
      0.13204644620418549
    ],
    [
      0.05102218687534332,
      0.07824406027793884,
      0.020151548087596893,
      0.12297949939966202,
      -0.4366646707057953,
      0.11886665225028992,
      0.10703878849744797,
      0.16493810713291168,
      -0.26795363426208496,
      0.022048696875572205,
      0.15820997953414917,
      -0.06467551738023758,
      -0.05615847185254097,
      -0.0919981598854065,
      -0.06582881510257721,
      0.11316454410552979,
      0.11745620518922806,
      -0.29510247707366943,
      0.035111844539642334,
      0.17663151025772095,
      0.0504242405295372,
      0.11958032101392746,
      -0.13890670239925385,
      -0.1279129683971405,
      0.13530085980892181
    ],
    [
      0.06302405893802643,
      0.1737508922815323,
      0.015138234943151474,
      0.06652449071407318,
      0.005449136719107628,
      0.07278498262166977,
      0.14453981816768646,
      -0.20896810293197632,
      0.20798903703689575,
      -0.1403488665819168,
      -0.01795007660984993,
      0.10600623488426208,
      -0.16704198718070984,
      -0.08642968535423279,
      0.06805866211652756,
      -0.052105970680713654,
      0.01384043600410223,
      -0.17634494602680206,
      -0.1495419293642044,
      0.0641699954867363,
      -0.06713932752609253,
      0.13872404396533966,
      0.11503594368696213,
      -0.04298074170947075,
      0.02550722286105156
    ],
    [
      -0.05332549661397934,
      -0.01475453656166792,
      0.35075610876083374,
      -0.04550537094473839,
      -0.5194916725158691,
      -0.06280979514122009,
      0.016943510621786118,
      0.37158843874931335,
      0.2639029026031494,
      0.09633895754814148,
      -0.03054165281355381,
      -0.14539135992527008,
      -0.1267528533935547,
      0.14094024896621704,
      -0.24428872764110565,
      0.09441405534744263,
      -0.0906120017170906,
      -0.07936450093984604,
      -0.1140969842672348,
      0.053612854331731796,
      -0.23224742710590363,
      -0.057031601667404175,
      0.10705982148647308,
      -0.14639359712600708,
      -0.02220088802278042
    ],
    [
      0.047277677804231644,
      0.15650229156017303,
      -0.15435908734798431,
      0.1854536384344101,
      0.032058343291282654,
      0.035646162927150726,
      0.1714213341474533,
      0.11975275725126266,
      0.01808321103453636,
      -0.00970580242574215,
      0.03974282369017601,
      0.06871698051691055,
      -0.04738937318325043,
      -0.010850779712200165,
      0.2991127371788025,
      0.12572991847991943,
      0.10667342692613602,
      0.34569022059440613,
      -0.11338119208812714,
      0.044156018644571304,
      0.024734390899538994,
      0.20174935460090637,
      0.05218784883618355,
      -0.06698169559240341,
      -0.08462362736463547
    ],
    [
      0.008309134282171726,
      0.0021101117599755526,
      0.05988447368144989,
      0.002152132336050272,
      0.03128688037395477,
      -0.017302751541137695,
      0.0034220970701426268,
      0.010766454972326756,
      0.06987516582012177,
      0.06870193779468536,
      -0.04551718011498451,
      0.2247176468372345,
      0.06994175910949707,
      0.22980068624019623,
      -0.09081898629665375,
      -0.02332119829952717,
      0.13737733662128448,
      0.032131701707839966,
      -0.1576467603445053,
      0.06344110518693924,
      0.022331800311803818,
      0.03941933438181877,
      0.09595056623220444,
      -0.05022134259343147,
      -0.10821349918842316
    ],
    [
      -0.00693206861615181,
      -0.06726136803627014,
      0.0570233091711998,
      0.22610405087471008,
      0.25945547223091125,
      -0.09637376666069031,
      -0.21608787775039673,
      -0.11189732700586319,
      0.006539734546095133,
      -0.005141620524227619,
      -0.02751518413424492,
      -0.08621951192617416,
      -0.20229187607765198,
      0.04325475916266441,
      -0.17497363686561584,
      -0.03045990690588951,
      -0.10441116988658905,
      -0.20531947910785675,
      -0.03922766074538231,
      0.21790871024131775,
      -0.09112901985645294,
      0.15609262883663177,
      0.16657017171382904,
      0.11611580103635788,
      0.12071115523576736
    ],
    [
      0.08563742786645889,
      -0.1241980716586113,
      0.045626215636730194,
      0.1449950784444809,
      0.22623421251773834,
      0.12650185823440552,
      0.0833396315574646,
      -0.33110272884368896,
      -0.18128719925880432,
      -0.0009189854608848691,
      -0.041187699884176254,
      -0.058668315410614014,
      -0.024571731686592102,
      -0.12432055920362473,
      0.1409713476896286,
      -0.23587597906589508,
      0.026304082944989204,
      -0.07958739250898361,
      0.11481018364429474,
      0.2775571644306183,
      -0.13812950253486633,
      -0.05514125898480415,
      -0.04138413816690445,
      -0.07820671796798706,
      -0.059722110629081726
    ],
    [
      0.0588841587305069,
      0.05428561940789223,
      0.01627562753856182,
      0.0547499805688858,
      -0.09954599291086197,
      5.321460776031017e-05,
      0.2603650987148285,
      -0.11752602458000183,
      0.10136773437261581,
      0.15787839889526367,
      0.13096006214618683,
      0.1003078743815422,
      0.16518332064151764,
      0.11403362452983856,
      -0.02740343287587166,
      0.15377525985240936,
      0.08683525770902634,
      -0.2739804685115814,
      -0.17406876385211945,
      0.05803025886416435,
      -0.0014360391069203615,
      -0.11184537410736084,
      -0.11545973271131516,
      0.018695872277021408,
      -0.042803213000297546
    ],
    [
      0.1167927086353302,
      -0.04012580215930939,
      -0.12437506765127182,
      0.06176017224788666,
      -0.14501452445983887,
      0.16177234053611755,
      0.15820780396461487,
      0.058833252638578415,
      -0.02176492288708687,
      0.16055472195148468,
      -0.14330212771892548,
      0.023797547444701195,
      -0.08750700205564499,
      -0.049723658710718155,
      0.09422162920236588,
      0.20523031055927277,
      0.13258329033851624,
      0.015741810202598572,
      -0.23257344961166382,
      0.12916256487369537,
      -0.07277987152338028,
      0.12650412321090698,
      0.16299571096897125,
      0.006013066973537207,
      -0.2222028374671936
    ],
    [
      -0.0038863851223140955,
      -0.13004574179649353,
      0.07733359187841415,
      -0.08794739097356796,
      -0.08608565479516983,
      0.10939652472734451,
      0.009520825929939747,
      -0.10791655629873276,
      -0.10534383356571198,
      0.07594224065542221,
      0.08792128413915634,
      -0.024777526035904884,
      0.15578320622444153,
      -0.007318228017538786,
      -0.013231698423624039,
      0.1393195241689682,
      0.10172523558139801,
      0.08704878389835358,
      -0.24894700944423676,
      0.15404121577739716,
      0.048232562839984894,
      0.04118053987622261,
      -0.13796858489513397,
      -0.018920211121439934,
      -0.10102138668298721
    ],
    [
      -0.09055913239717484,
      0.12478113174438477,
      -0.05924645811319351,
      0.1937519609928131,
      -0.04551835358142853,
      0.0988401472568512,
      0.022027961909770966,
      0.10671862959861755,
      0.2718515992164612,
      0.11895589530467987,
      -0.1480960100889206,
      0.1652400642633438,
      0.2950587272644043,
      0.20833832025527954,
      -0.011075844056904316,
      0.07213247567415237,
      0.12450582534074783,
      -0.12030289322137833,
      0.1474146693944931,
      -0.02677580900490284,
      0.13319867849349976,
      0.2006286084651947,
      -0.025845453143119812,
      -0.05876433849334717,
      0.0376192182302475
    ],
    [
      -0.021533126011490822,
      0.049057792872190475,
      0.1310373693704605,
      0.08953426033258438,
      0.009539341554045677,
      0.002348830457776785,
      0.045756105333566666,
      -0.25570255517959595,
      -0.21347163617610931,
      -0.1397879272699356,
      0.23477977514266968,
      0.16458643972873688,
      -0.05721312016248703,
      -0.018294161185622215,
      0.0084428321570158,
      0.10100970417261124,
      -0.27217602729797363,
      0.033329159021377563,
      0.030440030619502068,
      0.29367220401763916,
      -0.003978542052209377,
      -0.05458083748817444,
      0.017558787018060684,
      -0.07571183145046234,
      -0.05591386929154396
    ],
    [
      0.08993715792894363,
      0.032767485827207565,
      0.23285336792469025,
      -0.12813395261764526,
      0.0025409706868231297,
      -0.2900178134441376,
      -0.12914420664310455,
      0.39273372292518616,
      0.0564517043530941,
      -0.16071251034736633,
      -0.011669638566672802,
      0.032561805099248886,
      0.1871519386768341,
      -0.11459769308567047,
      -0.04776245728135109,
      0.1856459230184555,
      -0.03813596069812775,
      -0.11231589317321777,
      0.029865961521863937,
      0.10318976640701294,
      -0.10370169579982758,
      0.12908531725406647,
      0.0033369548618793488,
      -0.15030711889266968,
      -0.06565221399068832
    ],
    [
      0.00794623140245676,
      -0.04356798529624939,
      -0.05275702849030495,
      -0.003857393516227603,
      -0.005204307846724987,
      0.03846375644207001,
      -0.0761491060256958,
      0.3105611503124237,
      0.48069578409194946,
      -0.12323714047670364,
      0.07164347916841507,
      0.11681300401687622,
      0.05751512944698334,
      0.2600644528865814,
      0.15460267663002014,
      0.11216544359922409,
      0.07834784686565399,
      0.027707232162356377,
      0.06919476389884949,
      0.13802184164524078,
      -0.2661581337451935,
      -0.038614653050899506,
      0.26213163137435913,
      -0.020688524469733238,
      0.025612544268369675
    ],
    [
      0.05602419003844261,
      0.07168660312891006,
      0.0737786516547203,
      0.07768143713474274,
      -0.33814170956611633,
      0.024766705930233,
      -0.08967554569244385,
      0.3101681172847748,
      0.025772379711270332,
      0.0538812093436718,
      -0.06910820305347443,
      0.26453688740730286,
      0.014553443528711796,
      0.3715060353279114,
      -0.15153369307518005,
      0.026754798367619514,
      -0.08593440055847168,
      -0.008836714550852776,
      0.114484041929245,
      0.0606059767305851,
      0.07469303905963898,
      0.10150238126516342,
      -0.16548365354537964,
      -0.08875327557325363,
      0.021807106211781502
    ],
    [
      0.07226652652025223,
      0.31628185510635376,
      0.056821685284376144,
      -0.12868037819862366,
      -0.10973241180181503,
      0.1173509955406189,
      -0.15839596092700958,
      0.11036305129528046,
      0.6802049279212952,
      0.1631297916173935,
      -0.0760604739189148,
      -0.1361873745918274,
      0.17782939970493317,
      0.2319847047328949,
      -0.051662787795066833,
      0.08925189077854156,
      -0.03212781995534897,
      0.23607411980628967,
      -0.10382277518510818,
      -0.002870820928364992,
      -0.04251279681921005,
      0.1770194172859192,
      -0.08148611336946487,
      -0.19761230051517487,
      -0.017978083342313766
    ],
    [
      0.1315198838710785,
      0.18944048881530762,
      -0.11240097880363464,
      0.0073829335160553455,
      0.17013779282569885,
      0.05959728732705116,
      0.0074933976866304874,
      0.1885826140642166,
      0.25855904817581177,
      0.13468888401985168,
      0.06458625942468643,
      0.05086987093091011,
      0.12067454308271408,
      0.133465975522995,
      0.08758522570133209,
      -0.002360809361562133,
      -0.11310677975416183,
      0.02127956785261631,
      0.3325035870075226,
      0.08115898817777634,
      0.03240382671356201,
      0.09146185219287872,
      0.03970852494239807,
      -0.20822465419769287,
      -0.057238973677158356
    ],
    [
      0.12259913980960846,
      -0.1239740327000618,
      -0.11486770957708359,
      0.03093155287206173,
      0.07336468249559402,
      0.14006508886814117,
      0.09333155304193497,
      -0.12959955632686615,
      0.16987939178943634,
      0.032013945281505585,
      0.07394829392433167,
      0.031404048204422,
      0.194982647895813,
      0.10534346103668213,
      0.2859674096107483,
      0.002024275716394186,
      -0.013479591347277164,
      -0.12184388935565948,
      -0.21132536232471466,
      0.1263943612575531,
      -0.164738267660141,
      -0.12283770740032196,
      0.12223318964242935,
      -0.18934732675552368,
      -0.047361038625240326
    ],
    [
      0.25700098276138306,
      0.3168577551841736,
      -0.2616441249847412,
      0.10011076927185059,
      -0.17732387781143188,
      -0.13268621265888214,
      0.28236305713653564,
      0.4074919521808624,
      0.014113535173237324,
      0.01216738112270832,
      0.06150326132774353,
      0.35457390546798706,
      -0.057575151324272156,
      0.4076961576938629,
      0.055514778941869736,
      -0.08984831720590591,
      0.36612194776535034,
      0.1725078821182251,
      -0.031036630272865295,
      -0.01436862163245678,
      -0.029021255671977997,
      -0.06785105168819427,
      0.2741597592830658,
      0.08597008883953094,
      0.012449095956981182
    ],
    [
      0.03763154149055481,
      0.004846601746976376,
      -0.002738161478191614,
      -0.010947656817734241,
      -0.2672223746776581,
      0.05538838729262352,
      0.2520955502986908,
      0.18857453763484955,
      0.32460132241249084,
      0.23888903856277466,
      0.03730692341923714,
      0.01730705238878727,
      0.08023276180028915,
      0.17980660498142242,
      0.40929779410362244,
      0.09436582028865814,
      -0.0022020365577191114,
      0.4174136221408844,
      0.030554668977856636,
      0.2736998200416565,
      -0.2347692996263504,
      0.18528927862644196,
      -0.1447945535182953,
      0.01449953019618988,
      -0.11877749860286713
    ],
    [
      -0.09708390384912491,
      -0.13911212980747223,
      0.04097438603639603,
      -0.00770585797727108,
      -0.10643499344587326,
      0.15724237263202667,
      0.09747026860713959,
      0.004175679292529821,
      -0.034207310527563095,
      0.20019365847110748,
      0.1591290831565857,
      -0.15282908082008362,
      -0.05537373572587967,
      -0.08028731495141983,
      0.010081619955599308,
      0.21594056487083435,
      -0.007635748945176601,
      -0.08928978443145752,
      0.19434162974357605,
      -0.03720614314079285,
      0.050341084599494934,
      0.11823882907629013,
      0.11043760925531387,
      0.0748843252658844,
      -0.19036586582660675
    ],
    [
      -0.13366363942623138,
      0.01412232220172882,
      0.12660114467144012,
      0.11968986690044403,
      -0.17364895343780518,
      -0.10514069348573685,
      -0.0909886285662651,
      0.11300380527973175,
      -0.01746332459151745,
      0.08863906562328339,
      0.023840948939323425,
      -0.0971217006444931,
      0.006855504587292671,
      -0.046041540801525116,
      -0.08394906669855118,
      0.04449346289038658,
      -0.1889640837907791,
      -0.09679468721151352,
      -0.0647938996553421,
      0.1735960841178894,
      0.07461433857679367,
      -0.23749014735221863,
      0.23932456970214844,
      -0.14439986646175385,
      -0.08137384802103043
    ],
    [
      -0.011546808294951916,
      0.04796887934207916,
      0.028464065864682198,
      0.18180739879608154,
      -0.6457135081291199,
      0.02773590199649334,
      0.056762389838695526,
      0.24598732590675354,
      -0.04157572612166405,
      -0.03430812060832977,
      0.09869898110628128,
      -0.01578161120414734,
      0.2746882438659668,
      0.09676577150821686,
      0.18586647510528564,
      -0.15238672494888306,
      -0.12246748805046082,
      0.11838781088590622,
      -0.14336876571178436,
      -0.0510515533387661,
      0.19676141440868378,
      0.07235092669725418,
      0.15630272030830383,
      0.004548716824501753,
      0.24314716458320618
    ],
    [
      -0.06165233254432678,
      0.04687657579779625,
      -0.06167230010032654,
      0.024681059643626213,
      0.13220936059951782,
      0.08802838623523712,
      0.2606654167175293,
      0.17683543264865875,
      0.2167532742023468,
      0.10387489944696426,
      -0.2866242527961731,
      0.2816075086593628,
      0.13221964240074158,
      0.07138656079769135,
      0.08756323903799057,
      0.03717181831598282,
      0.022456176578998566,
      0.11134421080350876,
      -0.23614279925823212,
      0.07211758196353912,
      -0.06531268358230591,
      -0.11707842350006104,
      -0.00017937237862497568,
      0.09935306757688522,
      -0.05385202169418335
    ],
    [
      0.09017974883317947,
      -0.009759076870977879,
      0.09021871536970139,
      0.045541729778051376,
      -0.17481330037117004,
      0.1521892249584198,
      0.28609853982925415,
      -0.1446561962366104,
      -0.04415556415915489,
      0.012035270221531391,
      0.27341699600219727,
      0.1679035872220993,
      0.015222620218992233,
      -0.05963420122861862,
      0.25310438871383667,
      -0.10373396426439285,
      -0.1696041226387024,
      0.07395792752504349,
      0.04101153463125229,
      -0.21187648177146912,
      -0.12596088647842407,
      0.05552949011325836,
      0.01881220005452633,
      -0.2520814538002014,
      -0.16579687595367432
    ],
    [
      -0.10196009278297424,
      0.14737145602703094,
      0.03912915661931038,
      -0.06789886951446533,
      -0.14555734395980835,
      -0.08048009127378464,
      -0.3573342561721802,
      0.18642708659172058,
      0.28256484866142273,
      0.11686228960752487,
      0.1965242177248001,
      0.16190853714942932,
      0.13305386900901794,
      0.38446977734565735,
      -0.09156627207994461,
      0.005928045604377985,
      0.24493245780467987,
      0.040905024856328964,
      0.03304677829146385,
      0.12754417955875397,
      -0.006435266695916653,
      -0.22172042727470398,
      -0.25590407848358154,
      0.05712312459945679,
      -0.009998658671975136
    ],
    [
      0.19771261513233185,
      -0.06670841574668884,
      -0.05299322307109833,
      0.008710942231118679,
      -0.02478770911693573,
      0.05489005520939827,
      0.38106879591941833,
      0.025781137868762016,
      0.14976778626441956,
      0.049989957362413406,
      -0.03950323909521103,
      0.22515085339546204,
      0.14679017663002014,
      -0.08152902126312256,
      0.4311649203300476,
      0.07509979605674744,
      0.0115211745724082,
      0.36435723304748535,
      0.09727687388658524,
      0.02477048523724079,
      0.13565275073051453,
      0.008301857858896255,
      -0.16314063966274261,
      0.09646763652563095,
      0.02203676477074623
    ],
    [
      0.2158450037240982,
      -0.08194492757320404,
      0.05282393842935562,
      -0.009070735424757004,
      0.19680649042129517,
      -0.03633589297533035,
      0.09797892719507217,
      -0.23962579667568207,
      0.21013060212135315,
      -0.10473661869764328,
      0.24548906087875366,
      -0.18454037606716156,
      0.21962442994117737,
      0.17424608767032623,
      0.12603846192359924,
      0.1275712102651596,
      0.12732501327991486,
      0.1155196875333786,
      -0.036413051187992096,
      0.07834883034229279,
      0.18942616879940033,
      0.0027406502049416304,
      -0.004538857378065586,
      0.15717053413391113,
      -0.15004673600196838
    ],
    [
      -0.08795137703418732,
      0.0885525718331337,
      0.010646909475326538,
      -0.01855984702706337,
      -0.11584252119064331,
      0.2552599310874939,
      -0.2592768371105194,
      0.03035370074212551,
      0.16512300074100494,
      -0.2447413206100464,
      -0.07401236891746521,
      0.006601042114198208,
      0.20549973845481873,
      0.252837598323822,
      0.09580030292272568,
      0.22555655241012573,
      -0.07196026295423508,
      0.15686269104480743,
      0.1201317310333252,
      -0.11966883391141891,
      -0.0770120769739151,
      -0.20507368445396423,
      -0.07226695865392685,
      -0.12035270780324936,
      0.04300420731306076
    ],
    [
      -0.1559581309556961,
      -0.07221529632806778,
      -0.004406501539051533,
      0.22346507012844086,
      0.002491998253390193,
      0.1114710345864296,
      0.04729761928319931,
      -0.2908819317817688,
      0.26446595788002014,
      -0.19205215573310852,
      0.10357153415679932,
      0.1360326111316681,
      -0.06538520008325577,
      0.2742791175842285,
      0.22087092697620392,
      0.0382937528192997,
      0.1607656627893448,
      0.15080395340919495,
      -0.1869460791349411,
      -0.1136399433016777,
      0.2161378264427185,
      -0.06461609154939651,
      0.048922132700681686,
      -0.022090263664722443,
      0.149221733212471
    ],
    [
      -0.03696607053279877,
      -0.2076794058084488,
      0.042444709688425064,
      0.23779164254665375,
      0.24415922164916992,
      0.041833892464637756,
      0.059548866003751755,
      -0.03682659938931465,
      0.05305347591638565,
      0.05330914631485939,
      0.041826628148555756,
      0.18880480527877808,
      -0.2881665527820587,
      0.1027846485376358,
      0.35740765929222107,
      -0.10068129748106003,
      0.0028059515170753,
      0.31755828857421875,
      -0.10100100189447403,
      0.18214699625968933,
      0.10997193306684494,
      0.22795265913009644,
      0.22440488636493683,
      0.17609882354736328,
      0.05020590499043465
    ],
    [
      0.15202173590660095,
      -0.020026974380016327,
      0.04515844210982323,
      0.12473686784505844,
      0.4054081439971924,
      0.10787823796272278,
      -0.2898610532283783,
      -0.21315070986747742,
      -0.013906360603868961,
      -0.023971915245056152,
      0.10837212949991226,
      -0.1727813333272934,
      -0.05142226442694664,
      -0.06898850947618484,
      -0.1321728527545929,
      -0.043453238904476166,
      -0.03860204294323921,
      -0.06708899140357971,
      0.10552576929330826,
      0.2371571660041809,
      -0.14953088760375977,
      -0.03225645422935486,
      -0.015478200279176235,
      -0.17449800670146942,
      0.0010872003622353077
    ],
    [
      0.10724497586488724,
      -0.19038408994674683,
      0.06395312398672104,
      -0.09024982154369354,
      -0.10210883617401123,
      0.004631702322512865,
      0.005936941597610712,
      0.18667052686214447,
      -0.06689035147428513,
      0.03447839617729187,
      -0.030159875750541687,
      0.20050404965877533,
      0.2344275861978531,
      0.017113637179136276,
      -0.024036645889282227,
      0.017567696049809456,
      0.03941897302865982,
      -0.09369602054357529,
      0.11460041999816895,
      0.11689769476652145,
      0.007490776479244232,
      0.010695272125303745,
      0.14033642411231995,
      -0.12970730662345886,
      -0.17630454897880554
    ],
    [
      0.027029763907194138,
      -0.048588238656520844,
      -0.01492680236697197,
      0.04620492085814476,
      0.122500479221344,
      -0.07447680830955505,
      -0.16111353039741516,
      -0.24278704822063446,
      -0.1702776402235031,
      0.21000121533870697,
      -0.05669092386960983,
      -0.31077840924263,
      0.014170251786708832,
      0.0453796312212944,
      0.09859182685613632,
      0.0003697795036714524,
      0.21012859046459198,
      0.09811921417713165,
      -0.19029651582241058,
      -0.05802500247955322,
      0.08744712173938751,
      0.10666342824697495,
      -0.08775386959314346,
      -0.25021371245384216,
      0.14642304182052612
    ],
    [
      0.2010757476091385,
      0.14402543008327484,
      0.08356299996376038,
      -0.06391987204551697,
      0.13758821785449982,
      -0.15870705246925354,
      0.3944905400276184,
      0.4198249578475952,
      -0.2044513076543808,
      0.16298039257526398,
      0.18918797373771667,
      0.2315904051065445,
      0.17970524728298187,
      0.013195227831602097,
      0.29874733090400696,
      0.10456772148609161,
      -0.14223501086235046,
      0.2349466234445572,
      -0.07523388415575027,
      -0.011860795319080353,
      0.03737759590148926,
      0.029119057580828667,
      -0.04812656715512276,
      -0.06406352669000626,
      0.1548941284418106
    ],
    [
      -0.28279656171798706,
      -0.13843926787376404,
      0.13201597332954407,
      0.18103070557117462,
      -0.21663561463356018,
      0.2584289014339447,
      0.45860815048217773,
      0.42475181818008423,
      0.10622882843017578,
      -0.2521185278892517,
      -0.039596688002347946,
      -0.2802058458328247,
      0.022786814719438553,
      0.05185883119702339,
      0.20159690082073212,
      0.008119093254208565,
      0.030952945351600647,
      0.0012404127046465874,
      0.08089650422334671,
      -0.11619643867015839,
      -0.042615700513124466,
      0.008090208284556866,
      0.013538653962314129,
      -0.12902025878429413,
      0.0689876601099968
    ],
    [
      -0.04772152379155159,
      0.2985483407974243,
      0.011230865493416786,
      -0.04441241919994354,
      -0.0016871915431693196,
      0.17777478694915771,
      -0.09772896021604538,
      0.22299812734127045,
      -8.00388734205626e-05,
      0.2776271104812622,
      -0.11219704896211624,
      0.03586868941783905,
      -0.12836602330207825,
      -0.020796045660972595,
      -0.09840904176235199,
      -0.11926284432411194,
      -0.05315501242876053,
      0.16945242881774902,
      -0.03148640692234039,
      0.10919921845197678,
      -0.0053079938516020775,
      -0.008735757321119308,
      -0.007706704083830118,
      -0.14770479500293732,
      -0.1181548610329628
    ],
    [
      -0.045350492000579834,
      0.03246795013546944,
      -0.028745880350470543,
      0.18010330200195312,
      0.34119683504104614,
      0.053814519196748734,
      -0.19880101084709167,
      -0.17475828528404236,
      -0.13884666562080383,
      -0.08886253833770752,
      -0.200954869389534,
      0.001068811397999525,
      0.04606440290808678,
      -0.027977649122476578,
      -0.0791303962469101,
      -0.05984141305088997,
      -0.1656261682510376,
      0.1942741870880127,
      -0.18597804009914398,
      0.006707645952701569,
      -0.07738844305276871,
      0.16825903952121735,
      -0.11180105805397034,
      0.09470666199922562,
      -0.16611897945404053
    ],
    [
      0.19463548064231873,
      -0.053865667432546616,
      -0.09448619931936264,
      0.20895607769489288,
      0.11221154034137726,
      -0.07553094625473022,
      -0.24977204203605652,
      -0.13346105813980103,
      0.17692774534225464,
      0.0483391173183918,
      0.16861659288406372,
      0.16176052391529083,
      0.09443975239992142,
      -0.0673067644238472,
      -0.02210909314453602,
      -0.048759110271930695,
      -0.08852779120206833,
      0.012391912750899792,
      0.14111508429050446,
      0.01501650270074606,
      -0.1527726948261261,
      -0.06893451511859894,
      -0.21967598795890808,
      -0.16149473190307617,
      0.2127867490053177
    ],
    [
      0.2826831340789795,
      -0.08039449155330658,
      -0.058771077543497086,
      0.008981475606560707,
      -0.04012542590498924,
      0.21625512838363647,
      0.19927971065044403,
      0.09517215192317963,
      0.09085685759782791,
      -0.20593203604221344,
      -0.01220733392983675,
      -0.07629038393497467,
      0.061181649565696716,
      0.06295780092477798,
      0.08820181339979172,
      0.14264130592346191,
      -0.14342373609542847,
      -0.17185088992118835,
      0.013987177051603794,
      0.1807517558336258,
      -0.09585680067539215,
      -0.04118737578392029,
      0.10375295579433441,
      -0.08952908217906952,
      -0.04124945029616356
    ],
    [
      -0.0888267233967781,
      -0.09240765869617462,
      0.16665023565292358,
      0.04307010769844055,
      0.1321754902601242,
      -0.016645003110170364,
      0.17988036572933197,
      -0.22719672322273254,
      -0.05087486654520035,
      -0.004823219962418079,
      0.2328771948814392,
      0.0676259770989418,
      0.12057162076234818,
      -0.2025979906320572,
      0.23554028570652008,
      0.14456138014793396,
      -0.052874352782964706,
      0.32126468420028687,
      0.053218547254800797,
      -0.12643982470035553,
      0.18012486398220062,
      0.2736283242702484,
      -0.2626042366027832,
      0.05449264124035835,
      -0.31982165575027466
    ],
    [
      0.10851885378360748,
      0.13466444611549377,
      0.09691473096609116,
      -0.12027721852064133,
      -0.18330413103103638,
      0.2342410683631897,
      -0.10712052881717682,
      0.12869814038276672,
      0.10514725744724274,
      0.2771289050579071,
      -0.17463254928588867,
      0.17626360058784485,
      0.15239571034908295,
      0.0344424806535244,
      -0.029284587129950523,
      0.08793168514966965,
      0.024478984996676445,
      0.1174432784318924,
      0.10654124617576599,
      0.15901418030261993,
      0.049794457852840424,
      0.004921277519315481,
      0.18941132724285126,
      0.05913734436035156,
      0.0013537886552512646
    ],
    [
      0.14512072503566742,
      0.009798017330467701,
      -0.11100509762763977,
      0.05109129101037979,
      0.05583815649151802,
      0.03996848315000534,
      -0.11567220091819763,
      -0.0724148377776146,
      0.1723102331161499,
      0.02092546410858631,
      -0.08117733150720596,
      0.01808788813650608,
      -0.02580750733613968,
      0.18612438440322876,
      -0.009487069211900234,
      0.07917968183755875,
      0.06245172768831253,
      -0.06100250035524368,
      -0.17868444323539734,
      0.016720421612262726,
      0.07931960374116898,
      0.0955897644162178,
      0.004959425888955593,
      -0.038888514041900635,
      0.09220771491527557
    ],
    [
      0.016663027927279472,
      -0.2050553560256958,
      0.023339344188570976,
      0.09176579862833023,
      0.08904270827770233,
      -0.035809487104415894,
      -0.2405698299407959,
      -0.05357211083173752,
      0.20054499804973602,
      -0.08507642894983292,
      0.2940780818462372,
      -0.1553521454334259,
      -0.13341625034809113,
      -0.14244773983955383,
      0.06133817881345749,
      -0.1731553077697754,
      0.07634509354829788,
      0.145623579621315,
      -0.04050951823592186,
      0.07739643007516861,
      0.009200429543852806,
      -0.1576724648475647,
      -0.03698194399476051,
      -0.12631937861442566,
      0.18339528143405914
    ],
    [
      -0.07816839963197708,
      -0.14283980429172516,
      -0.18155282735824585,
      0.16101795434951782,
      0.04922895506024361,
      0.1444351226091385,
      -0.005833939183503389,
      0.3073672652244568,
      -0.04407259076833725,
      0.19564703106880188,
      0.12648393213748932,
      0.12056371569633484,
      0.11345143616199493,
      0.3962705433368683,
      0.011192390695214272,
      -0.05966613069176674,
      0.05701611563563347,
      -0.004057092126458883,
      0.017450107261538506,
      0.08559555560350418,
      -0.0438045933842659,
      -0.05173797905445099,
      0.17607390880584717,
      0.0061094132252037525,
      -0.19306164979934692
    ],
    [
      0.24544206261634827,
      0.12145338207483292,
      0.09913081675767899,
      0.0836535170674324,
      -0.2966740131378174,
      -0.10966157913208008,
      -0.189974844455719,
      0.4659866690635681,
      0.18525363504886627,
      0.0103862090036273,
      0.05239327251911163,
      -0.09640134125947952,
      0.26078400015830994,
      0.3435555100440979,
      -0.0889318510890007,
      0.028458815068006516,
      -0.036076489835977554,
      0.11482290178537369,
      -0.16617392003536224,
      -0.03306971490383148,
      -0.04905998334288597,
      0.0027717577759176493,
      0.05948261171579361,
      -0.11754953116178513,
      -0.1497931331396103
    ],
    [
      0.07655146718025208,
      0.02110229805111885,
      0.024749591946601868,
      0.12149608880281448,
      -0.22891107201576233,
      -0.04138900712132454,
      -0.3009486496448517,
      0.40731897950172424,
      -0.16902229189872742,
      -0.05741516128182411,
      -0.014195109717547894,
      -0.07244019210338593,
      -0.06508757919073105,
      -0.014001072384417057,
      -0.06005730852484703,
      0.03831285238265991,
      0.1268833428621292,
      -0.08404280990362167,
      0.31951504945755005,
      0.2307458370923996,
      0.04717047140002251,
      -0.12248122692108154,
      -0.06491761654615402,
      0.052352212369441986,
      -0.06676149368286133
    ],
    [
      -0.16916346549987793,
      -0.057968512177467346,
      0.012954558245837688,
      0.09349628537893295,
      0.032675061374902725,
      0.14603427052497864,
      -0.02329101972281933,
      0.09939074516296387,
      -0.2652234137058258,
      0.207973912358284,
      -0.09020214527845383,
      -0.10660231858491898,
      0.1308315247297287,
      -0.018997933715581894,
      0.25697624683380127,
      0.20527130365371704,
      -0.03636728227138519,
      0.4519742727279663,
      0.08838610351085663,
      0.05491046980023384,
      -0.09735129773616791,
      -0.11685619503259659,
      -0.04995402321219444,
      0.019718913361430168,
      0.12768928706645966
    ],
    [
      0.09026818722486496,
      0.07469955086708069,
      -0.10381169617176056,
      0.19787390530109406,
      -0.1482509821653366,
      0.0028637689538300037,
      0.07767657935619354,
      0.30264371633529663,
      -0.026800798252224922,
      0.03644910827279091,
      0.03948022052645683,
      0.028017155826091766,
      0.11783120781183243,
      -0.03325580060482025,
      0.11080963164567947,
      0.06878869235515594,
      -0.03896300494670868,
      0.1680065244436264,
      -0.241690531373024,
      -0.03703715652227402,
      -0.047249842435121536,
      -0.07562198489904404,
      -0.159890815615654,
      -0.14944835007190704,
      -0.02072254568338394
    ],
    [
      0.14207810163497925,
      0.04103408753871918,
      -0.019934559240937233,
      -0.0659518614411354,
      0.03664560616016388,
      -0.07337645441293716,
      -0.1422974020242691,
      0.05351684242486954,
      -0.023552900180220604,
      0.23481488227844238,
      -0.1782144010066986,
      0.11926857382059097,
      0.08042369037866592,
      -0.017294010147452354,
      0.07642924785614014,
      -0.04462505877017975,
      0.011551247909665108,
      -0.01176023855805397,
      0.17372311651706696,
      0.09265028685331345,
      0.044930387288331985,
      -0.017175663262605667,
      -0.03792169317603111,
      -0.12519606947898865,
      -0.018167631700634956
    ],
    [
      -0.2341099977493286,
      -0.0184495709836483,
      0.11699815839529037,
      -0.07968375086784363,
      0.1577083021402359,
      -0.05025572329759598,
      0.004903558641672134,
      0.004292828030884266,
      -0.06538271903991699,
      0.2748468220233917,
      -0.08719632029533386,
      0.04331513121724129,
      -0.04458510875701904,
      0.042640332132577896,
      0.013008013367652893,
      0.12207257747650146,
      0.040846582502126694,
      0.13994473218917847,
      -0.026315705850720406,
      0.06665170192718506,
      -0.0726359635591507,
      0.16935203969478607,
      0.017180126160383224,
      -0.21624089777469635,
      0.17086288332939148
    ],
    [
      0.09178406745195389,
      0.15405333042144775,
      0.1325402706861496,
      0.04627779498696327,
      0.3226120173931122,
      -0.061863724142313004,
      0.10414847731590271,
      0.014658563770353794,
      -0.12325083464384079,
      0.09215860813856125,
      0.1563614159822464,
      -0.10748698562383652,
      -0.007060125004500151,
      -0.16721376776695251,
      -0.26813673973083496,
      -0.16937553882598877,
      -0.057420555502176285,
      -0.03304668143391609,
      0.08528291434049606,
      0.2695387005805969,
      -0.13500045239925385,
      -0.053748127073049545,
      0.030715228989720345,
      -0.0486222580075264,
      -0.0685822144150734
    ],
    [
      0.18771500885486603,
      0.20877118408679962,
      0.055736102163791656,
      -0.018169112503528595,
      -0.23537324368953705,
      -0.07540254294872284,
      0.03888788819313049,
      0.2997959554195404,
      -0.09417539089918137,
      0.03224625438451767,
      -0.15684272348880768,
      0.16773945093154907,
      0.06701204180717468,
      -0.040707387030124664,
      -0.14202016592025757,
      0.20255722105503082,
      0.10018442571163177,
      -0.21585926413536072,
      0.002386203035712242,
      0.13036656379699707,
      -0.021892571821808815,
      0.09932022541761398,
      0.13629095256328583,
      0.015093998052179813,
      -0.11370159685611725
    ],
    [
      0.16315476596355438,
      -0.008542495779693127,
      0.20291444659233093,
      -0.11427567899227142,
      0.3680974245071411,
      -0.03092026896774769,
      0.004084672778844833,
      -0.3471246659755707,
      -0.07137469202280045,
      -0.0320771224796772,
      -0.07390327006578445,
      0.11462672799825668,
      0.02455432340502739,
      -0.06397656351327896,
      0.05250940099358559,
      -0.13285088539123535,
      0.20761606097221375,
      0.07317059487104416,
      -0.05384931340813637,
      0.10187187790870667,
      -0.13788823783397675,
      -0.08510823547840118,
      0.19918151199817657,
      0.07458742707967758,
      -0.08602072298526764
    ],
    [
      0.12168576568365097,
      0.031730636954307556,
      0.034235984086990356,
      0.0294407419860363,
      -0.21983696520328522,
      0.0005066161975264549,
      0.2281685620546341,
      -0.1657150238752365,
      0.17248447239398956,
      0.05452316999435425,
      -0.07193799316883087,
      -0.08753439784049988,
      0.18864288926124573,
      0.2406541407108307,
      0.27796170115470886,
      -0.10139092057943344,
      0.026515468955039978,
      0.07030735909938812,
      -0.10857292264699936,
      -0.006690029986202717,
      -0.0914941057562828,
      0.05504769831895828,
      -0.027762731537222862,
      0.06061890348792076,
      -0.21592813730239868
    ],
    [
      0.07552974671125412,
      -0.16368919610977173,
      0.4010138511657715,
      -0.08823267370462418,
      0.29453086853027344,
      -0.029080769047141075,
      -0.07579949498176575,
      -0.3473191261291504,
      -0.2691922187805176,
      -0.435359388589859,
      -0.06557151675224304,
      0.15586653351783752,
      0.07567568123340607,
      -0.0802229717373848,
      0.14361277222633362,
      -0.001701118191704154,
      0.03684527054429054,
      0.11401014029979706,
      0.09023108333349228,
      -0.037943724542856216,
      -0.14496003091335297,
      0.08109233528375626,
      0.12437412887811661,
      0.05655025318264961,
      0.014105785638093948
    ],
    [
      0.030210481956601143,
      0.07224401831626892,
      0.04116281867027283,
      0.18925710022449493,
      -0.3905641734600067,
      -0.05577591806650162,
      -0.1780107170343399,
      0.332210898399353,
      -0.06354885548353195,
      0.14010854065418243,
      -0.06612329930067062,
      0.06254806369543076,
      0.34680473804473877,
      -0.23978377878665924,
      -0.22319434583187103,
      -0.0961981937289238,
      -0.13369454443454742,
      -0.183445006608963,
      0.06424639374017715,
      0.03130431845784187,
      -0.0502491220831871,
      -0.08446510881185532,
      0.146220400929451,
      -0.0074621704407036304,
      0.20621705055236816
    ],
    [
      0.09141233563423157,
      -0.0035803732462227345,
      -0.0892917737364769,
      0.05008295550942421,
      -0.08613059669733047,
      -0.10987164825201035,
      0.12296701967716217,
      0.44361233711242676,
      0.10998394340276718,
      0.3264712393283844,
      0.011957334354519844,
      0.41136249899864197,
      0.28835615515708923,
      0.010780627839267254,
      0.018116340041160583,
      0.1007888913154602,
      0.18910957872867584,
      0.37812477350234985,
      0.007711794227361679,
      0.11234495788812637,
      0.001023065997287631,
      0.09694712609052658,
      -0.08835143595933914,
      0.1062779352068901,
      0.004200292751193047
    ],
    [
      0.004016753286123276,
      -0.1212947741150856,
      0.07251277565956116,
      -0.23001311719417572,
      0.06948219984769821,
      0.039943620562553406,
      -0.14904241263866425,
      0.08656684309244156,
      0.16950196027755737,
      -0.08158417791128159,
      0.11782559752464294,
      0.08964577317237854,
      0.040896300226449966,
      0.27252209186553955,
      -0.028803829103708267,
      0.2331160455942154,
      0.15845075249671936,
      0.44446825981140137,
      -0.2362435758113861,
      0.023473668843507767,
      0.20532384514808655,
      0.013917569071054459,
      0.004142655059695244,
      -0.12250771373510361,
      -0.03645452857017517
    ],
    [
      -0.04110441729426384,
      0.23877379298210144,
      -0.09985553473234177,
      0.27549538016319275,
      -0.13429947197437286,
      -0.1365804523229599,
      -0.16628320515155792,
      0.5623999238014221,
      0.25019675493240356,
      0.09406976401805878,
      -0.004635130055248737,
      0.12241602689027786,
      0.037249185144901276,
      -0.09408300369977951,
      -0.10591650009155273,
      0.19218222796916962,
      -0.28920283913612366,
      0.01637914404273033,
      -0.08508773893117905,
      -0.043285224586725235,
      -0.10153026133775711,
      -0.07872583717107773,
      0.0010299267014488578,
      0.2901785373687744,
      0.016616256907582283
    ],
    [
      -0.005508250091224909,
      0.032379597425460815,
      0.04844256117939949,
      -0.08781487494707108,
      -0.25290557742118835,
      0.18074560165405273,
      0.05758117884397507,
      0.24556812644004822,
      -0.10541224479675293,
      0.22800152003765106,
      0.08356354385614395,
      0.05895615741610527,
      0.0803614929318428,
      -0.011376513168215752,
      -0.06913454085588455,
      0.005585594568401575,
      0.05677666515111923,
      0.010203821584582329,
      -0.17805132269859314,
      0.017827628180384636,
      0.04661739617586136,
      0.007092637475579977,
      0.03823164105415344,
      -0.1455737203359604,
      0.0866466760635376
    ],
    [
      0.2080027014017105,
      0.1688365638256073,
      0.07800902426242828,
      -0.05343703180551529,
      0.3792628049850464,
      0.17057405412197113,
      0.1468249410390854,
      -0.2824392020702362,
      -0.01317506656050682,
      0.15920890867710114,
      0.15307237207889557,
      0.312180757522583,
      0.014813637360930443,
      0.0012208253610879183,
      0.41782793402671814,
      0.0316619947552681,
      -0.07165990024805069,
      0.16932153701782227,
      0.07655484229326248,
      -0.06678452342748642,
      0.03484426438808441,
      0.25275105237960815,
      0.1394815295934677,
      0.07929012179374695,
      -0.12870466709136963
    ],
    [
      0.21288712322711945,
      0.16910524666309357,
      0.05940399318933487,
      -0.003844191785901785,
      0.20819763839244843,
      0.26082849502563477,
      0.27110379934310913,
      -0.19464409351348877,
      -0.10003834217786789,
      0.06754004210233688,
      -0.10890745371580124,
      0.2318858951330185,
      -0.11312723159790039,
      -0.04753648117184639,
      0.2885892391204834,
      0.10089896619319916,
      0.06679326295852661,
      0.2255859524011612,
      -0.1031864807009697,
      0.1426207423210144,
      -0.0673372894525528,
      -0.042397741228342056,
      -0.11066259443759918,
      0.16044317185878754,
      0.030225001275539398
    ],
    [
      -0.22035633027553558,
      0.046930309385061264,
      0.003379323985427618,
      0.09789557009935379,
      -0.05398615449666977,
      -0.24379152059555054,
      -0.11804275959730148,
      0.1844823658466339,
      -0.09580320864915848,
      0.1910644918680191,
      0.06712325662374496,
      0.10672768205404282,
      0.22743386030197144,
      0.08998052030801773,
      -0.08906006813049316,
      0.14450672268867493,
      0.09463491290807724,
      0.44833558797836304,
      0.06788191199302673,
      0.1731559932231903,
      0.07411757856607437,
      -0.13001517951488495,
      0.307587206363678,
      0.04671318084001541,
      -0.11479616910219193
    ],
    [
      -0.017964575439691544,
      -0.013290595263242722,
      0.016447294503450394,
      -0.003489907830953598,
      0.2742351293563843,
      0.1109674945473671,
      0.11238344013690948,
      -0.13594816625118256,
      0.08548512309789658,
      0.08729902654886246,
      -0.027194341644644737,
      -0.03840119019150734,
      0.16664883494377136,
      0.2033056914806366,
      -0.032786086201667786,
      0.056666091084480286,
      -0.07902321219444275,
      0.10192237794399261,
      -0.09461906552314758,
      0.008771335706114769,
      0.11338920146226883,
      -0.05215331166982651,
      -0.15556815266609192,
      0.20347777009010315,
      0.11230389773845673
    ],
    [
      -0.03659265115857124,
      -0.053797341883182526,
      -0.015534359961748123,
      -0.04127524048089981,
      -0.0740463137626648,
      0.08178015798330307,
      0.10710801929235458,
      -0.1432136595249176,
      0.10674288123846054,
      -0.1689377725124359,
      0.05307270586490631,
      0.043990541249513626,
      0.2558780312538147,
      -0.06382793188095093,
      -0.08015099912881851,
      0.1948322206735611,
      -0.11297386139631271,
      0.19657418131828308,
      -0.08972220122814178,
      0.09663402289152145,
      0.04375944286584854,
      0.015378877520561218,
      0.12777642905712128,
      0.1857622265815735,
      0.2987832725048065
    ],
    [
      -0.05934843048453331,
      -0.013422963209450245,
      0.0572371706366539,
      0.07027818262577057,
      -0.2444378286600113,
      0.047095391899347305,
      0.2916294038295746,
      0.2800559997558594,
      0.07074073702096939,
      -0.1044815331697464,
      -0.01092446781694889,
      -0.14333456754684448,
      -0.0013480223715305328,
      0.23169860243797302,
      0.13402986526489258,
      0.053214311599731445,
      -0.06822206825017929,
      -0.0554855652153492,
      0.08298403024673462,
      0.26804664731025696,
      0.21138787269592285,
      -0.11992871016263962,
      -0.004790011793375015,
      0.0880904272198677,
      0.011575896292924881
    ],
    [
      -0.05743754282593727,
      -0.009989805519580841,
      0.1246594786643982,
      -0.004944671411067247,
      0.02174132876098156,
      0.33183494210243225,
      -0.21671055257320404,
      0.28536906838417053,
      -0.13766473531723022,
      -0.11276498436927795,
      -0.056414518505334854,
      -0.11841149628162384,
      0.06427434086799622,
      -0.09580286592245102,
      -0.142088383436203,
      -0.10405507683753967,
      -0.027603045105934143,
      0.12442827969789505,
      -0.005537595134228468,
      0.01723615825176239,
      -0.09496675431728363,
      0.08866334706544876,
      0.05011945590376854,
      -0.1667538732290268,
      -0.19818875193595886
    ],
    [
      0.06544382125139236,
      -0.008686748333275318,
      0.15143337845802307,
      -0.0010988619178533554,
      0.2992801368236542,
      0.2574579417705536,
      0.15037359297275543,
      0.1294449418783188,
      0.15816672146320343,
      0.061049871146678925,
      -0.0892690047621727,
      0.1809827983379364,
      0.04702528938651085,
      -0.133006751537323,
      -0.13283157348632812,
      -0.0651906207203865,
      -0.016026731580495834,
      -0.12926657497882843,
      0.03686820715665817,
      0.009553705342113972,
      0.0008359079947695136,
      -0.19688980281352997,
      0.1345406174659729,
      -0.14179867506027222,
      0.1008894145488739
    ],
    [
      -0.11073486506938934,
      0.041317980736494064,
      0.055300869047641754,
      0.057019565254449844,
      -0.1332235187292099,
      -0.010312188416719437,
      0.20322221517562866,
      0.018152030184864998,
      -0.0833575427532196,
      0.05559135600924492,
      -0.17885108292102814,
      -0.09763368964195251,
      -0.036211080849170685,
      -0.03946133330464363,
      0.3724782466888428,
      0.2793724536895752,
      -0.16753262281417847,
      0.47434523701667786,
      0.03968764469027519,
      0.13355585932731628,
      0.12977488338947296,
      -0.0455017052590847,
      0.06479205191135406,
      0.019696079194545746,
      -0.101681649684906
    ],
    [
      -0.061005137860774994,
      -0.07389360666275024,
      -0.014390124939382076,
      -0.01830367185175419,
      0.410260409116745,
      -0.1471969187259674,
      0.20303933322429657,
      -0.16116727888584137,
      -0.14198365807533264,
      0.11422818154096603,
      0.07858530431985855,
      -0.17671038210391998,
      -0.09175236523151398,
      -0.03130175545811653,
      0.08080222457647324,
      0.1676795333623886,
      0.20601782202720642,
      0.11537490040063858,
      0.25802817940711975,
      -0.08999687433242798,
      -0.19857434928417206,
      0.10273399204015732,
      -0.009309002198278904,
      -0.060874514281749725,
      0.03658071532845497
    ],
    [
      -0.06919080764055252,
      -0.006443406920880079,
      0.10493659973144531,
      -0.012479321099817753,
      0.27170130610466003,
      0.0011205726768821478,
      0.27377912402153015,
      0.008991596288979053,
      0.1667826622724533,
      -0.02060169354081154,
      -0.23434704542160034,
      0.1996157318353653,
      0.3231271505355835,
      -0.15810009837150574,
      -0.07374294847249985,
      -0.09297538548707962,
      0.24635173380374908,
      -0.05243536829948425,
      0.13744959235191345,
      0.24103336036205292,
      -0.1681392639875412,
      0.06858976185321808,
      0.09165790677070618,
      -0.08212465047836304,
      0.08607204258441925
    ],
    [
      -0.01775951124727726,
      0.11102773994207382,
      0.12497185915708542,
      -0.054344821721315384,
      -0.050653863698244095,
      0.17299959063529968,
      -0.2813502848148346,
      -0.010743369348347187,
      -0.04334530606865883,
      0.162019282579422,
      -0.06431067734956741,
      0.182134747505188,
      0.23107601702213287,
      -0.005052483640611172,
      -0.07938867062330246,
      0.2891610562801361,
      0.13981902599334717,
      0.18219801783561707,
      0.015659796074032784,
      -0.01582847163081169,
      -0.07782243192195892,
      0.05686613544821739,
      0.15693393349647522,
      0.05950574204325676,
      0.01610436663031578
    ],
    [
      0.14583882689476013,
      -0.18295806646347046,
      -0.06883858889341354,
      0.14674489200115204,
      -0.09449359774589539,
      0.0871361494064331,
      0.23214519023895264,
      0.052792176604270935,
      -0.10226338356733322,
      0.11523134261369705,
      0.018787195906043053,
      -0.07521558552980423,
      0.13416817784309387,
      -0.05748575180768967,
      -0.2986752688884735,
      0.15422461926937103,
      -0.06275860220193863,
      -0.17143911123275757,
      0.12304193526506424,
      0.042533647269010544,
      0.024054454639554024,
      0.2624097466468811,
      -0.261703759431839,
      0.11776415258646011,
      0.009464383125305176
    ],
    [
      -0.240718275308609,
      -0.0851530209183693,
      0.05450029298663139,
      0.051974497735500336,
      -0.05972082540392876,
      -0.09612496942281723,
      -0.13863588869571686,
      -0.029883356764912605,
      0.3577612340450287,
      -0.06796490401029587,
      -0.04549079015851021,
      -0.1550540030002594,
      0.005335886962711811,
      0.42327842116355896,
      0.3959553837776184,
      0.13164761662483215,
      0.02835531160235405,
      -0.036436598747968674,
      -0.01974456012248993,
      0.043395254760980606,
      0.08622779697179794,
      -0.043865907937288284,
      0.10312747955322266,
      0.010511726140975952,
      0.04528911039233208
    ],
    [
      0.36566805839538574,
      -0.10867705941200256,
      -0.0429176464676857,
      0.13980333507061005,
      0.5043874979019165,
      0.16943229734897614,
      -0.19841131567955017,
      0.15328046679496765,
      -0.041128989309072495,
      -0.010499078780412674,
      -0.15160278975963593,
      0.080221988260746,
      0.07992083579301834,
      0.29762256145477295,
      -0.06688502430915833,
      0.07550284266471863,
      -0.05192452296614647,
      0.3446351885795593,
      0.09064931422472,
      0.1135459691286087,
      0.07651058584451675,
      -0.10648255795240402,
      -0.040053486824035645,
      -0.24306657910346985,
      0.028961339965462685
    ],
    [
      0.3047521710395813,
      0.2627781331539154,
      0.031288210302591324,
      -0.040098465979099274,
      -0.1977771520614624,
      -0.11887060105800629,
      0.10197808593511581,
      0.176149383187294,
      -0.03214595094323158,
      0.18583184480667114,
      0.11541137844324112,
      -0.04193109646439552,
      0.06606175005435944,
      -0.10358983278274536,
      0.07557336986064911,
      -0.0010174966882914305,
      -0.08839955180883408,
      0.4501037299633026,
      -0.07385070621967316,
      -0.07458804547786713,
      -0.07485394179821014,
      -0.2987617254257202,
      -0.05258564651012421,
      0.24143171310424805,
      -0.04488493502140045
    ],
    [
      -0.061418160796165466,
      -0.20124277472496033,
      -0.012034200131893158,
      0.05102128908038139,
      -0.07492581754922867,
      0.3684059977531433,
      -0.09908309578895569,
      0.1842406690120697,
      -0.00959804654121399,
      0.0171197596937418,
      -0.04139159619808197,
      0.16530576348304749,
      0.03701699897646904,
      -0.02865314856171608,
      -0.09418553858995438,
      0.1729689985513687,
      -0.1090255081653595,
      -0.09666865319013596,
      -0.18859411776065826,
      -0.021031633019447327,
      0.08185949176549911,
      0.16880834102630615,
      -0.03710728511214256,
      -0.07459768652915955,
      -0.16395314037799835
    ],
    [
      -0.015363503247499466,
      0.18369951844215393,
      0.2886826992034912,
      -0.15006454288959503,
      0.4660641551017761,
      -0.13951431214809418,
      0.09259648621082306,
      -0.10233201831579208,
      0.04446405917406082,
      -0.053960565477609634,
      0.028454037383198738,
      0.1834440380334854,
      0.049321118742227554,
      -0.06996048241853714,
      -0.19398947060108185,
      -0.049764566123485565,
      0.18326322734355927,
      -0.24556668102741241,
      -0.12939335405826569,
      0.08086716383695602,
      0.06758414208889008,
      -0.054089952260255814,
      -0.13149003684520721,
      -0.05756236985325813,
      0.18709120154380798
    ],
    [
      0.2238137274980545,
      0.13507528603076935,
      0.09571370482444763,
      -0.013922217302024364,
      -0.3068505823612213,
      0.15284746885299683,
      -0.07922399789094925,
      -0.08707892149686813,
      -0.0564393624663353,
      0.1085386574268341,
      -0.13658884167671204,
      -0.12970472872257233,
      -0.12914974987506866,
      0.32596054673194885,
      -0.05654844269156456,
      -0.1277397722005844,
      0.15428613126277924,
      0.03195861354470253,
      0.08510394394397736,
      -0.10257772356271744,
      -0.004486840218305588,
      0.21185682713985443,
      -0.04354783147573471,
      0.20691031217575073,
      0.02930224873125553
    ]
  ],
  "fc1.bias": [
    0.04890528321266174,
    0.06483055651187897,
    -0.02671106718480587,
    0.05618339404463768,
    0.05154881626367569,
    0.02306942455470562,
    0.08106813579797745,
    -0.019147979095578194,
    0.04954523965716362,
    0.03938860446214676,
    0.021708538755774498,
    0.013040399178862572,
    0.015668587759137154,
    -0.002198377624154091,
    -0.02431209571659565,
    0.04474697262048721,
    0.07908604294061661,
    0.025609605014324188,
    0.04252772033214569,
    -0.07329316437244415,
    0.03356047719717026,
    0.04603199660778046,
    0.10808875411748886,
    -0.012118881568312645,
    0.07072341442108154,
    0.059078581631183624,
    -0.0493987575173378,
    0.026283102110028267,
    0.011114000342786312,
    -0.0025088863912969828,
    0.04133538901805878,
    0.012511307373642921,
    -0.002475888002663851,
    -0.0035889840219169855,
    0.031789179891347885,
    0.08017906546592712,
    0.1253964602947235,
    0.02784029021859169,
    0.050075650215148926,
    0.026523645967245102,
    0.03882976993918419,
    -0.0055088079534471035,
    0.024462003260850906,
    0.01586197316646576,
    0.029904227703809738,
    0.13390253484249115,
    0.048146530985832214,
    -0.004181312397122383,
    0.0028724810108542442,
    -0.024319596588611603,
    0.01327855046838522,
    0.0533963218331337,
    0.0850963294506073,
    -0.024740952998399734,
    -0.016048846766352654,
    0.05011735111474991,
    -0.0032304185442626476,
    -0.044369395822286606,
    0.06520415842533112,
    -0.008433700539171696,
    0.07111044228076935,
    0.08680656552314758,
    -0.0020504777785390615,
    0.09577861428260803,
    0.07348209619522095,
    -0.001498082303442061,
    0.20029675960540771,
    0.09631133824586868,
    0.00018615322187542915,
    -0.05609016865491867,
    0.045376405119895935,
    0.07161340117454529,
    0.02029462903738022,
    0.017987823113799095,
    0.07405274361371994,
    0.07891453057527542,
    -0.10164221376180649,
    0.010330388322472572,
    -0.013185328803956509,
    0.06516064703464508,
    0.1144087165594101,
    -0.024749066680669785,
    0.0722854882478714,
    -0.06834861636161804,
    0.08154122531414032,
    0.02964210696518421,
    0.06235933303833008,
    0.06015573441982269,
    -0.008673327974975109,
    0.08572542667388916,
    0.13583369553089142,
    -0.0009185313829220831,
    0.05700058862566948,
    0.003486618399620056,
    -0.0015669014537706971,
    0.03196639567613602,
    0.061273228377103806,
    0.14814341068267822,
    0.06585206091403961,
    0.044208280742168427,
    0.06960263103246689,
    0.022711889818310738,
    0.050477638840675354,
    -0.02247818186879158,
    0.06837067008018494,
    0.15905435383319855,
    0.10949406027793884,
    0.03989193215966225,
    0.015603769570589066,
    0.07834698259830475,
    0.03530283644795418,
    0.0661153569817543,
    0.044545721262693405,
    0.043929893523454666,
    0.06596704572439194,
    -0.04692567512392998,
    0.08936187624931335,
    -0.011796858161687851,
    0.003393390914425254,
    0.14807547628879547,
    -0.037035197019577026,
    -0.02889953926205635,
    0.023682866245508194,
    0.026810042560100555,
    0.1522483378648758,
    -0.0021734756883233786,
    0.06668597459793091,
    0.07088521867990494
  ],
  "fc2.weight": [
    [
      0.008688298054039478,
      -0.2702055275440216,
      0.24918138980865479,
      -0.006679292768239975,
      0.05596716329455376,
      -0.003415856510400772,
      -0.07684819400310516,
      0.08888482302427292,
      0.0020206477493047714,
      -0.14384156465530396,
      -0.36767104268074036,
      -0.10128292441368103,
      0.08994214981794357,
      -0.2606850266456604,
      -0.017757922410964966,
      -0.002812389750033617,
      -0.014400298707187176,
      0.11217857897281647,
      0.4615890085697174,
      0.13558241724967957,
      -0.37220296263694763,
      -0.3262265622615814,
      0.03797042369842529,
      -0.019513994455337524,
      -0.06141669675707817,
      -0.07563143223524094,
      -0.11896997690200806,
      -0.05934978649020195,
      -0.010412080213427544,
      0.12215815484523773,
      -0.048599109053611755,
      0.0017328789690509439,
      -0.20091071724891663,
      -0.032063499093055725,
      -0.143901988863945,
      -0.08953975141048431,
      0.25415775179862976,
      0.1889403611421585,
      0.0688985288143158,
      -0.006610217969864607,
      0.09796632081270218,
      0.04829200729727745,
      0.35332801938056946,
      0.04534253850579262,
      0.4007520079612732,
      0.10855735838413239,
      -0.03693082556128502,
      -0.0010592520702630281,
      0.20634518563747406,
      -0.06973128020763397,
      0.11543473601341248,
      -0.16468091309070587,
      -0.15272121131420135,
      0.19069388508796692,
      -0.008128203451633453,
      0.10342486202716827,
      0.14744141697883606,
      0.04890692979097366,
      0.35853689908981323,
      0.14036691188812256,
      0.2607940435409546,
      -0.405994713306427,
      0.39135757088661194,
      -0.17104890942573547,
      -0.039409421384334564,
      -0.1166515201330185,
      0.09675934910774231,
      -0.2617799937725067,
      0.27085793018341064,
      0.10439040511846542,
      0.036165736615657806,
      0.03381776064634323,
      -0.19417765736579895,
      -0.18703950941562653,
      -0.11654912680387497,
      -0.24907517433166504,
      0.025852451100945473,
      -0.061712540686130524,
      -0.3633231222629547,
      0.05979029834270477,
      -0.27189043164253235,
      -0.04043623059988022,
      -0.17012225091457367,
      0.1516520380973816,
      0.15447698533535004,
      -0.38980820775032043,
      0.09514754265546799,
      -0.08669576793909073,
      -0.09804808348417282,
      -0.22362348437309265,
      -0.051399774849414825,
      0.02098851278424263,
      -0.06567782908678055,
      0.12672822177410126,
      0.09517262130975723,
      -0.011844928376376629,
      0.21691086888313293,
      -0.011766074225306511,
      -0.0781414806842804,
      0.1844717413187027,
      0.32836946845054626,
      -0.19026997685432434,
      -0.37712499499320984,
      -0.03898070752620697,
      0.42987093329429626,
      0.026309864595532417,
      0.10171878337860107,
      0.2096417248249054,
      0.2822796404361725,
      -0.270603746175766,
      -0.17914529144763947,
      -0.09872136265039444,
      -0.16389746963977814,
      0.011884300969541073,
      -0.0723353922367096,
      0.15011808276176453,
      0.12477734684944153,
      -0.03587634861469269,
      -0.199666365981102,
      0.10914740711450577,
      0.11675982177257538,
      0.11137017607688904,
      -0.2927021384239197,
      -0.32432106137275696,
      0.10605974495410919,
      0.09269052743911743,
      -0.19758228957653046,
      -0.29094624519348145
    ],
    [
      -0.16872450709342957,
      -0.1474473774433136,
      -0.28257954120635986,
      -0.04809236899018288,
      -0.09002026915550232,
      -0.04700348153710365,
      0.21222853660583496,
      0.05806933343410492,
      -0.26146847009658813,
      0.3803863525390625,
      -0.19320744276046753,
      0.37118685245513916,
      -0.16893872618675232,
      -0.06040805205702782,
      -0.008686546236276627,
      -0.1593862771987915,
      0.15565165877342224,
      -0.11294123530387878,
      -0.005133229773491621,
      -0.027254533022642136,
      0.18035519123077393,
      -0.16299393773078918,
      -0.20726370811462402,
      0.06602809578180313,
      0.23930035531520844,
      0.20186646282672882,
      -0.12969078123569489,
      0.087394580245018,
      0.10507547110319138,
      0.16190238296985626,
      0.10349589586257935,
      0.0016052909195423126,
      0.05214652419090271,
      -0.20916350185871124,
      -0.061957936733961105,
      -0.07065054029226303,
      -0.12156225740909576,
      0.1169230118393898,
      -0.0169126708060503,
      -0.006668437737971544,
      0.1689714640378952,
      0.14936384558677673,
      0.16308943927288055,
      0.0001825353829190135,
      -0.06363774091005325,
      -0.07173699140548706,
      0.061744287610054016,
      -0.10024268925189972,
      -0.44833776354789734,
      0.12384340167045593,
      -0.1164543405175209,
      -0.12929533421993256,
      0.12390320003032684,
      0.03749345242977142,
      0.25892454385757446,
      0.0576203316450119,
      -0.1088254526257515,
      -0.3114214241504669,
      -0.45367565751075745,
      -0.05604226514697075,
      -0.13426059484481812,
      -0.2944096624851227,
      -0.13791421055793762,
      -0.2791126072406769,
      0.03193837031722069,
      -0.14491023123264313,
      -0.29677814245224,
      -0.20578324794769287,
      -0.3057250380516052,
      -0.0665312334895134,
      -0.17081986367702484,
      -0.1615549772977829,
      -0.3094640374183655,
      0.04881031811237335,
      0.008150005713105202,
      -0.20982971787452698,
      0.04528459161520004,
      0.15225927531719208,
      0.09981634467840195,
      0.2416744828224182,
      -0.02712910994887352,
      0.061180632561445236,
      -0.2807542681694031,
      -0.124859519302845,
      -0.04455413669347763,
      0.26363369822502136,
      0.015432186424732208,
      -0.22939737141132355,
      -0.023096393793821335,
      0.036239173263311386,
      0.05734474956989288,
      0.13039931654930115,
      -0.15634304285049438,
      0.10850844532251358,
      -0.17598064243793488,
      -0.05350969731807709,
      -0.04769124463200569,
      -0.021457171067595482,
      0.13777832686901093,
      0.2349579781293869,
      0.08429233729839325,
      0.28723907470703125,
      -0.1559700071811676,
      0.4456571638584137,
      -0.12420352548360825,
      0.09228558093309402,
      -0.10742258280515671,
      0.06572709232568741,
      0.003795505966991186,
      -0.10114467889070511,
      0.06581805646419525,
      -0.09332751482725143,
      0.1574161946773529,
      -0.07749325782060623,
      -0.44125887751579285,
      -0.1981508582830429,
      0.142122283577919,
      -0.4019639194011688,
      0.24194465577602386,
      -0.11106684803962708,
      0.0867355465888977,
      0.2107384353876114,
      -0.1727505475282669,
      0.05668611451983452,
      0.07689516246318817,
      0.039180487394332886,
      0.14972949028015137,
      -0.09058168530464172
    ],
    [
      0.28308913111686707,
      -0.08749654144048691,
      -0.2742689549922943,
      -0.28964516520500183,
      0.13702687621116638,
      -0.1804136484861374,
      0.1259690523147583,
      0.06592831760644913,
      0.26496949791908264,
