{
  "fc1.weight": [
    [
      -0.10924209654331207,
      -0.13470758497714996,
      0.05767029523849487,
      0.07440106570720673,
      -0.4917055070400238,
      0.08926492184400558,
      0.18043901026248932,
      -0.27442365884780884,
      0.13829998672008514,
      -0.38056638836860657,
      0.18209217488765717,
      -0.4581610858440399,
      -0.08044695854187012,
      0.2669152319431305,
      0.2596105933189392,
      -0.15682892501354218,
      -0.18314366042613983,
      0.19177795946598053,
      -0.21477921307086945,
      0.006620659958571196,
      -0.1558363437652588,
      -0.0817013829946518,
      -0.03379172459244728,
      -0.23503461480140686,
      0.057070694863796234
    ],
    [
      0.06301674991846085,
      0.125871479511261,
      0.14555774629116058,
      -0.005932364612817764,
      -0.6344437599182129,
      -0.027265548706054688,
      -0.06528329849243164,
      0.13269896805286407,
      0.010267077013850212,
      -0.045371685177087784,
      -0.06135153770446777,
      -0.22036893665790558,
      0.28517046570777893,
      0.1821696162223816,
      0.0017136302776634693,
      -0.04941971227526665,
      -0.2874409854412079,
      0.05896715074777603,
      -0.02049490250647068,
      -0.0434228852391243,
      -0.02676992304623127,
      -0.11790411174297333,
      -0.14449121057987213,
      0.1488897055387497,
      0.16520628333091736
    ],
    [
      -0.10586679726839066,
      0.16181333363056183,
      -0.004937814082950354,
      0.060564618557691574,
      0.7469662427902222,
      0.11892616003751755,
      0.05640925094485283,
      -0.04611959680914879,
      0.11996620893478394,
      0.0146914292126894,
      0.16636408865451813,
      0.4757639467716217,
      -0.06035086140036583,
      0.07868771255016327,
      0.01976713165640831,
      0.07872288674116135,
      0.23123799264431,
      0.18718330562114716,
      0.07343098521232605,
      0.17658337950706482,
      -0.18683426082134247,
      0.02691292203962803,
      -0.10519963502883911,
      0.14670948684215546,
      0.015722477808594704
    ],
    [
      0.3063918352127075,
      0.12575523555278778,
      -0.0380399152636528,
      0.050039757043123245,
      -0.35199639201164246,
      -0.045411862432956696,
      -0.019830111414194107,
      0.5946891903877258,
      0.1555296629667282,
      0.2478862702846527,
      -0.06564930081367493,
      0.1569128930568695,
      0.15154339373111725,
      0.49942106008529663,
      -0.014638627879321575,
      -0.0816534236073494,
      -0.10020238906145096,
      -0.2292858064174652,
      0.1313115358352661,
      0.04465872421860695,
      0.04320017248392105,
      -0.1508331298828125,
      -0.03775651752948761,
      0.14987793564796448,
      -0.11656899005174637
    ],
    [
      0.19712331891059875,
      0.11764350533485413,
      -0.06348956376314163,
      0.03861858695745468,
      0.008190462365746498,
      0.15603694319725037,
      0.03053567372262478,
      -0.14916275441646576,
      0.142634779214859,
      0.18184876441955566,
      0.15177549421787262,
      0.1688900589942932,
      0.24001827836036682,
      0.1074489876627922,
      -0.01995367743074894,
      -0.06492447108030319,
      0.04550084099173546,
      0.44364306330680847,
      0.1606476753950119,
      -0.05839007347822189,
      0.07297118753194809,
      -0.04771588370203972,
      0.025754202157258987,
      0.0698884055018425,
      -0.19981472194194794
    ],
    [
      0.01717146299779415,
      -0.07359208166599274,
      0.1306242197751999,
      0.0811816155910492,
      -0.6246586441993713,
      -0.03113582544028759,
      0.23747792840003967,
      0.26757729053497314,
      -0.07672268152236938,
      -0.12131311744451523,
      -0.03900706022977829,
      -0.1044151782989502,
      -0.006999390199780464,
      -0.147544726729393,
      0.01575031317770481,
      -0.0665554329752922,
      -0.0010253554210066795,
      0.06246021389961243,
      0.355701744556427,
      0.09091155976057053,
      -0.03288476541638374,
      -0.04028420150279999,
      0.06288189440965652,
      -0.02490825206041336,
      -0.025748347863554955
    ],
    [
      0.23862722516059875,
      0.11553798615932465,
      0.007237973622977734,
      0.046437524259090424,
      0.6179325580596924,
      0.07979873567819595,
      0.14970329403877258,
      -0.08866202086210251,
      0.23643642663955688,
      0.1116858422756195,
      -0.06615827232599258,
      0.4026215672492981,
      -0.0015185140073299408,
      0.042281586676836014,
      -0.06125965714454651,
      0.0012617344036698341,
      0.1261960119009018,
      -0.32499074935913086,
      -0.005482720211148262,
      -0.012332733720541,
      -0.24700114130973816,
      0.006521028932183981,
      -0.15977627038955688,
      -0.16397133469581604,
      0.17459093034267426
    ],
    [
      -0.20104217529296875,
      0.034547820687294006,
      0.26560544967651367,
      0.14325354993343353,
      0.12551076710224152,
      0.41127628087997437,
      -0.330791711807251,
      -0.4693528711795807,
      -0.13204988837242126,
      0.019251996651291847,
      0.00907371286302805,
      -0.048124320805072784,
      0.05645226687192917,
      -0.30407312512397766,
      0.1819276660680771,
      0.11520417034626007,
      0.04480614513158798,
      0.06243382766842842,
      0.11996164917945862,
      0.010189976543188095,
      -0.08198730647563934,
      0.1070120558142662,
      -0.018645230680704117,
      0.0008242105832323432,
      -0.23191922903060913
    ],
    [
      0.0851312205195427,
      -0.09308502078056335,
      0.02142702229321003,
      0.0144991809502244,
      0.1278264820575714,
      0.07578345388174057,
      -0.09493371844291687,
      0.11278402805328369,
      0.14718984067440033,
      0.06874833256006241,
      -0.10646513104438782,
      0.05681866779923439,
      0.1327477991580963,
      0.0674741193652153,
      0.028795888647437096,
      -0.12486551702022552,
      0.01678968220949173,
      0.03634079545736313,
      -0.04523375630378723,
      0.11804234981536865,
      -0.007280704565346241,
      -0.13453681766986847,
      -0.05913219228386879,
      -0.16914427280426025,
      0.05625176057219505
    ],
    [
      0.06159542500972748,
      0.04466079920530319,
      -0.10454709082841873,
      0.26289352774620056,
      0.04126724600791931,
      0.05157426744699478,
      0.1800110936164856,
      0.21130797266960144,
      -0.037429969757795334,
      0.23389515280723572,
      0.21766048669815063,
      -0.005050544627010822,
      0.10368143767118454,
      -0.26605671644210815,
      -0.20364615321159363,
      0.044654976576566696,
      -0.033131107687950134,
      0.2502182722091675,
      -0.03447549045085907,
      -0.11622736603021622,
      -0.04338053986430168,
      -0.06626158952713013,
      -0.10204292088747025,
      -0.03106418065726757,
      -0.15127046406269073
    ],
    [
      0.01336350291967392,
      -0.024067465215921402,
      -0.06273473799228668,
      0.1244560033082962,
      0.01321496907621622,
      0.17576804757118225,
      0.10059487074613571,
      -0.03347407281398773,
      -0.04588138684630394,
      0.12566591799259186,
      0.17312422394752502,
      -0.1329403519630432,
      0.17764310538768768,
      -0.06056038662791252,
      0.24689577519893646,
      0.07715865224599838,
      0.09681127220392227,
      0.30592477321624756,
      0.018207645043730736,
      -0.03205366060137749,
      0.0026020160876214504,
      0.15005315840244293,
      0.07254116982221603,
      -0.018899768590927124,
      -0.05165671929717064
    ],
    [
      0.18928319215774536,
      0.14723633229732513,
      -0.022524870932102203,
      -0.06788221746683121,
      0.5896685123443604,
      0.08059998601675034,
      -0.04094533249735832,
      -0.3744702935218811,
      0.10274869203567505,
      0.08833682537078857,
      -0.17304682731628418,
      0.01954955793917179,
      0.10000494122505188,
      -0.068147212266922,
      -0.03654135763645172,
      0.2173566371202469,
      0.21875539422035217,
      -0.03288114815950394,
      -0.11081592738628387,
      0.39261919260025024,
      0.31602242588996887,
      -0.0878528356552124,
      0.036504440009593964,
      -0.008173972368240356,
      0.18570783734321594
    ],
    [
      -0.05689435452222824,
      0.25556641817092896,
      0.20117971301078796,
      0.05537814274430275,
      0.5513322353363037,
      0.05658716335892677,
      -0.11765237152576447,
      0.17318589985370636,
      -0.05062489211559296,
      0.05360707640647888,
      -0.10058296471834183,
      0.47440603375434875,
      -0.14515668153762817,
      -0.05531520023941994,
      -0.0022245340514928102,
      0.07045771181583405,
      0.00903644785284996,
      -0.36711442470550537,
      0.06955436617136002,
      0.12810227274894714,
      -0.11329785734415054,
      -0.1070474162697792,
      0.27031946182250977,
      0.11442326754331589,
      -0.0463445782661438
    ],
    [
      -0.0477023608982563,
      0.24141262471675873,
      -0.03773263096809387,
      -0.04467621445655823,
      0.14366436004638672,
      0.12571267783641815,
      0.1155504509806633,
      0.6743926405906677,
      0.0389014333486557,
      0.29465240240097046,
      -0.25736677646636963,
      0.17985981702804565,
      0.036935195326805115,
      0.06627273559570312,
      0.014044004492461681,
      0.12900814414024353,
      0.16358064115047455,
      0.06982634961605072,
      -0.08548268675804138,
      0.10163994878530502,
      0.019425401464104652,
      0.053229834884405136,
      0.1440388262271881,
      -0.12400580197572708,
      -0.09545457363128662
    ],
    [
      0.45230749249458313,
      -0.016676509752869606,
      0.07538031786680222,
      0.13261935114860535,
      0.4116799831390381,
      0.23800812661647797,
      0.028106341138482094,
      -0.29322510957717896,
      -0.02755829133093357,
      0.23159818351268768,
      0.022790098562836647,
      0.09719453006982803,
      -0.1744232326745987,
      -0.059788867831230164,
      -0.11160032451152802,
      -0.1290045976638794,
      0.21338242292404175,
      -0.14956285059452057,
      -0.10816598683595657,
      0.07975213974714279,
      -0.05674434453248978,
      -0.12020967155694962,
      -0.05157572031021118,
      -0.031741052865982056,
      -0.003284967504441738
    ],
    [
      0.06052067503333092,
      0.4638815224170685,
      0.16290436685085297,
      -0.011272532865405083,
      0.7423275113105774,
      -0.13159920275211334,
      -0.007092585787177086,
      -0.39212340116500854,
      -0.27637967467308044,
      0.13808149099349976,
      -0.03101491369307041,
      0.12463610619306564,
      -0.020491542294621468,
      -0.1577969789505005,
      0.12905950844287872,
      0.15032270550727844,
      0.09306269139051437,
      0.19202955067157745,
      -0.04356982186436653,
      0.0191019419580698,
      0.0638735294342041,
      -0.051152247935533524,
      -0.13033543527126312,
      0.10725697129964828,
      -0.0789479985833168
    ],
    [
      0.15796056389808655,
      0.1554979532957077,
      0.02734941430389881,
      0.18283186852931976,
      0.13388286530971527,
      0.03765817731618881,
      0.24987536668777466,
      -0.2465045005083084,
      -0.035370033234357834,
      0.09237512201070786,
      -0.13840197026729584,
      0.04714705049991608,
      -0.019259093329310417,
      -0.24043096601963043,
      0.23842889070510864,
      -0.1662357896566391,
      0.0730493813753128,
      0.23187249898910522,
      -0.18877676129341125,
      -0.05013788118958473,
      -0.027838287875056267,
      0.10547038167715073,
      0.18824133276939392,
      0.22104358673095703,
      0.13365676999092102
    ],
    [
      -0.11719372123479843,
      0.1552698165178299,
      0.22327549755573273,
      -0.07850844413042068,
      0.5010764598846436,
      -0.08661714941263199,
      -0.14791417121887207,
      -0.46668949723243713,
      0.05039476603269577,
      0.10423170030117035,
      0.18054446578025818,
      0.1303107887506485,
      0.10664881765842438,
      -0.17565812170505524,
      0.17551319301128387,
      0.10548952221870422,
      -0.1565771847963333,
      0.14535172283649445,
      -0.040395647287368774,
      -0.04791204258799553,
      0.09814301133155823,
      0.07635055482387543,
      0.040697574615478516,
      -0.06152641028165817,
      -0.1161089837551117
    ],
    [
      0.2772640287876129,
      0.13323064148426056,
      0.08337769657373428,
      -0.1727009117603302,
      -0.016345523297786713,
      0.3015170097351074,
      0.05155135318636894,
      0.11933505535125732,
      0.12261100113391876,
      0.21085341274738312,
      -0.09759222716093063,
      -0.11151441186666489,
      0.14573349058628082,
      0.08093231916427612,
      -0.04832717403769493,
      0.11973889917135239,
      0.047894638031721115,
      0.02084995247423649,
      -0.012632722966372967,
      0.0560319721698761,
      0.14274148643016815,
      -0.20586256682872772,
      -0.1622433364391327,
      0.02296571433544159,
      0.10819556564092636
    ],
    [
      0.1982973963022232,
      0.03868665546178818,
      -0.08278967440128326,
      0.07805513590574265,
      0.189820796251297,
      0.18007928133010864,
      -0.001233779708854854,
      -0.1042947918176651,
      -0.15895874798297882,
      -0.03787669539451599,
      -0.013678543269634247,
      -0.1289546936750412,
      -0.1254282146692276,
      -0.020214758813381195,
      -0.025206271559000015,
      0.2373296618461609,
      -0.03603137657046318,
      0.0718207061290741,
      0.08531947433948517,
      -0.08440763503313065,
      -0.1535186767578125,
      0.14238806068897247,
      0.037984803318977356,
      0.10955256223678589,
      0.13676366209983826
    ],
    [
      0.013044389896094799,
      0.07051651179790497,
      0.053882110863924026,
      -0.011793010868132114,
      0.03495575487613678,
      0.1803654581308365,
      -0.0868096798658371,
      -0.09154608100652695,
      -0.09502770006656647,
      -0.056233424693346024,
      0.13345445692539215,
      0.170087069272995,
      0.04175550863146782,
      -0.015522506088018417,
      -0.08574194461107254,
      0.35778242349624634,
      0.21357494592666626,
      -0.341206818819046,
      -0.3369133174419403,
      0.19586637616157532,
      0.022059241309762,
      0.13032740354537964,
      -0.04886193200945854,
      0.10355117172002792,
      0.24465441703796387
    ],
    [
      0.0709189623594284,
      0.020576048642396927,
      0.041008882224559784,
      -0.06062979996204376,
      0.27019405364990234,
      0.11878013610839844,
      0.1948339343070984,
      0.23627419769763947,
      0.23862946033477783,
      0.26575303077697754,
      -0.027054283767938614,
      0.17913950979709625,
      0.2471948266029358,
      0.07039763033390045,
      -0.019954347983002663,
      0.11800651252269745,
      0.09825150668621063,
      -0.14448541402816772,
      0.07081419974565506,
      -0.18607944250106812,
      0.04704853519797325,
      -0.1854027807712555,
      -0.06402615457773209,
      0.13963165879249573,
      -0.35333484411239624
    ],
    [
      0.09247741103172302,
      0.18218934535980225,
      0.15985897183418274,
      0.15603256225585938,
      0.5390582084655762,
      0.04712828993797302,
      -0.05499868839979172,
      -0.0013739526038989425,
      -0.41855621337890625,
      0.153480663895607,
      0.045995522290468216,
      0.19640186429023743,
      0.05559496581554413,
      -0.06947476416826248,
      0.0311118233948946,
      0.0693897232413292,
      0.003018568968400359,
      -0.21571923792362213,
      0.04916141554713249,
      0.12028438597917557,
      0.10242241621017456,
      -0.2617507874965668,
      -0.18265320360660553,
      -0.11119755357503891,
      0.0299003254622221
    ],
    [
      -0.003337331349030137,
      0.11355788260698318,
      -0.06616192311048508,
      -0.04201875999569893,
      0.22479362785816193,
      0.17714738845825195,
      -0.21414174139499664,
      0.05959590896964073,
      -0.10617586970329285,
      0.09640420973300934,
      -0.06243220344185829,
      0.27247390151023865,
      -0.005716042127460241,
      0.02291247621178627,
      -0.032230526208877563,
      0.3862420618534088,
      -0.07844241708517075,
      -0.06993380188941956,
      -0.07126200199127197,
      -0.11440318077802658,
      -0.027971558272838593,
      0.08281907439231873,
      0.1418931931257248,
      -0.13053587079048157,
      0.06415922194719315
    ],
    [
      0.15118351578712463,
      0.02296443283557892,
      0.1773085743188858,
      -0.10109464824199677,
      -0.44865450263023376,
      0.11331479996442795,
      0.14133377373218536,
      0.09513140469789505,
      -0.13819696009159088,
      0.07159143686294556,
      -0.07818877696990967,
      -0.1533111035823822,
      0.1320488005876541,
      -0.06436249613761902,
      0.2038062959909439,
      0.24712738394737244,
      0.1843128502368927,
      0.38641494512557983,
      0.011281504295766354,
      0.07757821679115295,
      -0.1227598786354065,
      -0.003515732241794467,
      -0.020905040204524994,
      0.026047028601169586,
      -0.05021997168660164
    ],
    [
      -0.19212780892848969,
      0.12634210288524628,
      0.09093425422906876,
      0.19116923213005066,
      -0.4146716594696045,
      0.2826665937900543,
      -0.038205184042453766,
      0.15672792494297028,
      0.04925358295440674,
      0.14029191434383392,
      -0.2514915466308594,
      0.1342698633670807,
      -0.14616800844669342,
      -0.016451552510261536,
      0.07665133476257324,
      0.0076402220875024796,
      -0.06636058539152145,
      -0.11511410772800446,
      0.0008374394383281469,
      0.010408139787614346,
      -0.026044771075248718,
      0.026850419119000435,
      0.09482529014348984,
      0.11556033790111542,
      0.02240181900560856
    ],
    [
      0.01717478781938553,
      0.5207781791687012,
      -0.06928784400224686,
      -0.04847383126616478,
      0.40734320878982544,
      0.029442477971315384,
      0.010507837869226933,
      0.18207280337810516,
      0.10089657455682755,
      -0.06470268964767456,
      -0.00694695021957159,
      0.33896151185035706,
      0.2460872232913971,
      0.21825064718723297,
      0.006021308246999979,
      0.11874204874038696,
      0.07048887759447098,
      -0.18397825956344604,
      0.020390594378113747,
      -0.018091032281517982,
      0.03834136947989464,
      -0.09741587191820145,
      0.08722028136253357,
      -0.12262995541095734,
      0.16762341558933258
    ],
    [
      0.11965902149677277,
      0.08033791184425354,
      0.283176451921463,
      -0.04373275116086006,
      0.5422313809394836,
      -0.15314069390296936,
      -0.03754037246108055,
      0.2773810625076294,
      0.09832677990198135,
      0.1155456155538559,
      0.22865602374076843,
      0.20265276730060577,
      -0.17875473201274872,
      0.14846760034561157,
      -0.11702311038970947,
      -0.18562093377113342,
      0.0994151383638382,
      -0.0704236775636673,
      0.05980793014168739,
      0.29394230246543884,
      0.12346361577510834,
      -0.19456890225410461,
      0.08284817636013031,
      -0.022654281929135323,
      -0.059207163751125336
    ],
    [
      0.030139485374093056,
      0.10067277401685715,
      0.1704747974872589,
      0.045421890914440155,
      0.3696487843990326,
      0.14185568690299988,
      -0.07561663538217545,
      0.037796854972839355,
      -0.20875847339630127,
      0.2283492535352707,
      -0.1697196513414383,
      0.13300637900829315,
      0.02458016946911812,
      0.005508032161742449,
      0.061916861683130264,
      -0.01521163061261177,
      -0.20717215538024902,
      -0.08635100722312927,
      -0.0514606311917305,
      0.0898895263671875,
      -0.0033284148667007685,
      0.02871224842965603,
      0.24208837747573853,
      0.03461455926299095,
      0.11031272262334824
    ],
    [
      0.26780766248703003,
      0.12623880803585052,
      -0.08556986600160599,
      0.21543365716934204,
      0.16995912790298462,
      -0.08413083106279373,
      -0.024148188531398773,
      0.6053416728973389,
      0.135750412940979,
      -0.021137146279215813,
      0.17053282260894775,
      0.22996629774570465,
      0.1254926323890686,
      0.032066330313682556,
      0.06615392118692398,
      0.13947978615760803,
      -0.13852103054523468,
      0.2051631659269333,
      -0.24519114196300507,
      0.002339434577152133,
      0.0734778344631195,
      0.2629760503768921,
      -0.08851704001426697,
      -0.12184345722198486,
      -0.08040142804384232
    ],
    [
      0.24739861488342285,
      0.2693870961666107,
      -0.004559721797704697,
      0.0567418709397316,
      -0.8243088722229004,
      0.10041061043739319,
      0.14818158745765686,
      0.3904765248298645,
      -0.17431503534317017,
      0.03716534376144409,
      -0.074722059071064,
      -0.12604376673698425,
      0.18752039968967438,
      -0.14128001034259796,
      0.014728674665093422,
      0.17329809069633484,
      0.009702607989311218,
      -0.08678015321493149,
      -0.11326415091753006,
      -0.09344736486673355,
      -0.26415762305259705,
      -0.07782634347677231,
      -0.08347807824611664,
      0.07399646937847137,
      -0.127494215965271
    ],
    [
      -0.14609698951244354,
      -0.07657655328512192,
      0.026902448385953903,
      0.024378249421715736,
      -0.6291873455047607,
      0.02864457480609417,
      0.182682067155838,
      -0.3529328405857086,
      0.02154363878071308,
      -0.23825359344482422,
      -0.17834869027137756,
      -0.0054138582199811935,
      0.384498655796051,
      0.25373297929763794,
      0.1385103166103363,
      0.3702869415283203,
      0.06100909411907196,
      0.09927685558795929,
      -0.04673147574067116,
      -0.06500881910324097,
      0.06244773045182228,
      0.0031209629960358143,
      0.12014880776405334,
      -0.1204705461859703,
      -0.07009895890951157
    ],
    [
      -0.1121959239244461,
      0.08047965168952942,
      -0.06724356859922409,
      0.15546070039272308,
      -0.10757102817296982,
      0.14746218919754028,
      0.16513192653656006,
      0.14609086513519287,
      0.3438785970211029,
      0.12402714043855667,
      -0.03184022009372711,
      0.14343412220478058,
      -0.12959493696689606,
      0.039329346269369125,
      -0.011563193053007126,
      0.027687061578035355,
      -0.08681635558605194,
      0.0390750952064991,
      0.054978467524051666,
      0.08157037943601608,
      0.06112474575638771,
      0.16324420273303986,
      0.07420789450407028,
      0.03795180469751358,
      0.07465886324644089
    ],
    [
      -0.08265038579702377,
      0.03508749231696129,
      -0.21867361664772034,
      0.22953736782073975,
      0.10639769583940506,
      -0.08380499482154846,
      0.08598733693361282,
      -0.07129951566457748,
      0.3311512768268585,
      0.046276215463876724,
      -0.1403152495622635,
      0.011616473086178303,
      0.015520334243774414,
      0.6103828549385071,
      -0.005234862677752972,
      0.1284971684217453,
      0.16655491292476654,
      -0.06212323158979416,
      -0.04728969931602478,
      0.03878359496593475,
      0.07597450911998749,
      -0.226972758769989,
      -0.16835498809814453,
      0.04273640736937523,
      0.06676077842712402
    ],
    [
      -0.042973216623067856,
      0.06750422716140747,
      -0.03626992553472519,
      -0.027965914458036423,
      0.30981263518333435,
      0.17381250858306885,
      0.2899487614631653,
      0.1645459085702896,
      0.051399752497673035,
      0.15841765701770782,
      0.015069893561303616,
      0.08650629222393036,
      -0.12540298700332642,
      -0.03551890701055527,
      -0.1514691263437271,
      0.1003342792391777,
      0.1988452523946762,
      0.3000932037830353,
      -0.04185972362756729,
      0.06487320363521576,
      -0.18571709096431732,
      -0.13746757805347443,
      0.06031429395079613,
      -0.06263988465070724,
      -0.052803926169872284
    ],
    [
      0.11146990954875946,
      0.111137256026268,
      -0.022147299721837044,
      0.16840723156929016,
      0.1752186417579651,
      0.07588004320859909,
      -0.15480929613113403,
      -0.04870280250906944,
      -0.06339823454618454,
      0.09753470122814178,
      -0.1281585842370987,
      0.3376249074935913,
      -0.1172487884759903,
      -0.12393113970756531,
      -0.07352446764707565,
      -0.034616999328136444,
      0.382915198802948,
      0.19092951714992523,
      0.024530800059437752,
      0.06893743574619293,
      -0.11393631994724274,
      0.3572039306163788,
      -0.07816030830144882,
      -0.06638779491186142,
      -0.089719757437706
    ],
    [
      0.15681231021881104,
      0.02619682252407074,
      -0.11942046880722046,
      0.14143110811710358,
      -0.17967970669269562,
      0.01863733120262623,
      -0.04315482825040817,
      0.2930755615234375,
      0.30074408650398254,
      0.09619394689798355,
      -0.11247046291828156,
      0.30997422337532043,
      0.14373096823692322,
      0.39775988459587097,
      -0.038558270782232285,
      0.2703530192375183,
      0.011805574409663677,
      -0.08207309246063232,
      -0.18634647130966187,
      0.023542391136288643,
      0.03249885514378548,
      0.04913879930973053,
      0.3265087604522705,
      -0.007689506746828556,
      0.03936212509870529
    ],
    [
      0.21517835557460785,
      0.20912587642669678,
      -0.05387531593441963,
      -0.007622022647410631,
      0.9454536437988281,
      0.25106602907180786,
      0.0008406683336943388,
      0.3171146512031555,
      0.1898643523454666,
      0.0849718451499939,
      0.07811634987592697,
      0.30652105808258057,
      0.035570308566093445,
      0.1989039182662964,
      0.16726328432559967,
      -0.04186653718352318,
      -0.01925431564450264,
      -0.19066599011421204,
      -0.06841474026441574,
      -0.09528370946645737,
      0.04820472002029419,
      0.11178147047758102,
      -0.1047573834657669,
      0.011529726907610893,
      -0.12347710132598877
    ],
    [
      -0.1396314650774002,
      -0.13536736369132996,
      0.08323409408330917,
      -0.064506396651268,
      -0.5016425251960754,
      -0.039379771798849106,
      0.3061252534389496,
      -0.48444274067878723,
      0.020036684349179268,
      -0.08063161373138428,
      -0.042116932570934296,
      -0.37614136934280396,
      0.3123176395893097,
      -0.16159939765930176,
      0.2294415980577469,
      0.021213939413428307,
      0.012954065576195717,
      0.20570321381092072,
      -0.2707503139972687,
      -0.0798189714550972,
      -0.09937673807144165,
      -0.12322305142879486,
      -0.08911395817995071,
      0.059798602014780045,
      -0.09581230580806732
    ],
    [
      0.13992279767990112,
      0.05768515542149544,
      0.10763389617204666,
      -0.08981909602880478,
      0.2217647284269333,
      0.21143420040607452,
      0.24777047336101532,
      0.3350191116333008,
      0.04879717156291008,
      -0.13290837407112122,
      -0.0026408417616039515,
      0.0430736243724823,
      -0.10853252559900284,
      0.00564142782241106,
      0.10399936139583588,
      0.16204360127449036,
      0.15803132951259613,
      -0.3021310865879059,
      -0.29483821988105774,
      -0.1314346343278885,
      0.0970231294631958,
      0.19545800983905792,
      -0.17114470899105072,
      0.015371591784060001,
      0.020590202882885933
    ],
    [
      0.16417694091796875,
      -0.04701720178127289,
      -0.04638238996267319,
      -0.12825779616832733,
      -0.2960719168186188,
      -0.18374751508235931,
      -0.034285079687833786,
      -0.45193472504615784,
      -0.016209669411182404,
      0.33955997228622437,
      0.14299894869327545,
      -0.23419323563575745,
      0.20975558459758759,
      -0.03856296092271805,
      0.40561792254447937,
      0.07344941794872284,
      0.19740034639835358,
      0.38070517778396606,
      0.0313272550702095,
      0.07257246226072311,
      -0.08049376308917999,
      -0.07121333479881287,
      0.08859002590179443,
      0.05278740078210831,
      0.03987904638051987
    ],
    [
      0.14292362332344055,
      0.32328882813453674,
      0.06961090862751007,
      0.1818252056837082,
      0.1793968379497528,
      0.04030679911375046,
      0.06518194824457169,
      -0.48937147855758667,
      -0.12644636631011963,
      0.2337159663438797,
      -0.16404752433300018,
      -0.15792110562324524,
      -0.07366964221000671,
      -0.1434294730424881,
      -0.22976920008659363,
      0.14224882423877716,
      -0.0667581707239151,
      -0.20463573932647705,
      0.06350228935480118,
      0.19275227189064026,
      -0.05817091092467308,
      0.13921193778514862,
      -0.12828363478183746,
      -0.01676931045949459,
      0.07043830305337906
    ],
    [
      0.06587280333042145,
      0.10562632977962494,
      0.30528998374938965,
      -0.1567954123020172,
      0.6253738403320312,
      -0.03997425362467766,
      0.27785196900367737,
      -0.4101921021938324,
      0.018195349723100662,
      -0.01690511777997017,
      0.1259300410747528,
      0.22167682647705078,
      -0.06448093056678772,
      -0.08296078443527222,
      0.11383641511201859,
      -0.10049387812614441,
      -0.08472604304552078,
      -0.0945088267326355,
      0.008820545859634876,
      -0.25128892064094543,
      0.15895378589630127,
      -0.0761146992444992,
      -0.03231382369995117,
      -0.09083371609449387,
      0.10135733336210251
    ],
    [
      -0.09197548031806946,
      0.20592091977596283,
      0.1840689480304718,
      0.01589358039200306,
      0.296295702457428,
      0.22997494041919708,
      -0.06215187534689903,
      -0.3029089868068695,
      -0.05197399854660034,
      0.08708913624286652,
      0.03951409086585045,
      0.0016162851825356483,
      -0.241664320230484,
      -0.027578895911574364,
      0.08048810064792633,
      0.3736397922039032,
      -0.15034747123718262,
      -0.10239259153604507,
      0.10927507281303406,
      -0.036323726177215576,
      -0.046047549694776535,
      -0.09372861683368683,
      0.08863264322280884,
      -0.1313859224319458,
      0.02458946220576763
    ],
    [
      0.12922513484954834,
      -0.149012953042984,
      0.03039838932454586,
      0.04613514244556427,
      -0.40448659658432007,
      0.04242176190018654,
      0.03241972252726555,
      -0.2520371973514557,
      0.06953369081020355,
      0.20900098979473114,
      0.1355966478586197,
      -0.09039829671382904,
      0.35042718052864075,
      -0.16775301098823547,
      0.12707601487636566,
      0.19830644130706787,
      0.05836343765258789,
      0.04491359367966652,
      -0.05270446464419365,
      0.03957725688815117,
      0.09272921830415726,
      -0.04281851276755333,
      -0.0994371771812439,
      -0.08080393821001053,
      -0.03579777106642723
    ],
    [
      -0.059082139283418655,
      -0.03620221093297005,
      0.07415476441383362,
      0.0424821674823761,
      -0.43899983167648315,
      -0.15118345618247986,
      0.04335949569940567,
      0.3982676863670349,
      -0.1013081818819046,
      -0.02302464470267296,
      -0.03810502588748932,
      -0.05016055330634117,
      0.21099983155727386,
      -0.18058675527572632,
      0.0796329453587532,
      -0.15839232504367828,
      0.08348651975393295,
      -0.21801228821277618,
      0.095257468521595,
      -0.20308731496334076,
      -0.014478604309260845,
      0.0892632007598877,
      -0.07260875403881073,
      -0.2646647095680237,
      0.0007810731185600162
    ],
    [
      0.0798143520951271,
      -0.06869097799062729,
      0.028448624536395073,
      -0.03759196773171425,
      -0.5465571284294128,
      -0.13825827836990356,
      0.10921711474657059,
      -0.5417538285255432,
      0.15816208720207214,
      -0.2389477640390396,
      -0.058176662772893906,
      -0.29437950253486633,
      0.2780986428260803,
      -0.17519788444042206,
      0.2304781973361969,
      0.0023274216800928116,
      0.013417726382613182,
      0.20612996816635132,
      0.005545932333916426,
      0.05325235053896904,
      0.027038952335715294,
      0.006053002551198006,
      0.010193217545747757,
      0.03575057536363602,
      0.09615867584943771
    ],
    [
      0.03721277415752411,
      0.30416232347488403,
      0.05221777409315109,
      0.12737183272838593,
      0.7537891268730164,
      0.017599603161215782,
      -0.18411558866500854,
      -0.13249778747558594,
      -0.18397743999958038,
      -0.08019253611564636,
      -0.06634554266929626,
      0.04138711839914322,
      -0.140403151512146,
      0.06376582384109497,
      -0.14247511327266693,
      -0.13144420087337494,
      -0.04077885299921036,
      -0.1734771728515625,
      -0.02908475697040558,
      -0.08930768817663193,
      0.07734562456607819,
      0.1199883371591568,
      -0.014038431458175182,
      -0.08792398869991302,
      -0.03239249065518379
    ],
    [
      0.18774808943271637,
      0.20695418119430542,
      0.08451201766729355,
      -0.08490873128175735,
      0.12828335165977478,
      0.10643663257360458,
      -0.11322445422410965,
      0.13170909881591797,
      -0.11782067269086838,
      0.106100894510746,
      -0.050835806876420975,
      0.4258740246295929,
      -0.016417348757386208,
      0.06498440355062485,
      0.008601916953921318,
      0.09165448695421219,
      0.03210270032286644,
      0.016623100265860558,
      0.15613919496536255,
      0.07397128641605377,
      -0.08685564994812012,
      -0.0637902021408081,
      -0.3673016130924225,
      -0.03250977769494057,
      -0.14264483749866486
    ],
    [
      -0.1120753288269043,
      0.19236372411251068,
      0.03284502774477005,
      0.1628003865480423,
      -0.1738857924938202,
      -0.16144631803035736,
      -0.21615640819072723,
      0.19713997840881348,
      -0.118516705930233,
      0.022968469187617302,
      0.022164545953273773,
      -0.05326412618160248,
      0.07258626073598862,
      -0.2626070976257324,
      0.15912595391273499,
      -0.14011795818805695,
      0.092164047062397,
      0.19927482306957245,
      -0.12368069589138031,
      0.0710044801235199,
      0.1561042219400406,
      0.053920671343803406,
      -0.17195427417755127,
      0.14089202880859375,
      0.18944495916366577
    ],
    [
      0.1556413769721985,
      -0.11911186575889587,
      -0.006611037068068981,
      -0.01687229983508587,
      0.2422155886888504,
      0.40747055411338806,
      -0.05831010639667511,
      0.010235840454697609,
      -0.2720017731189728,
      -0.18507015705108643,
      0.289089173078537,
      0.17176982760429382,
      0.1257457435131073,
      0.03397602215409279,
      0.03410706669092178,
      0.19542591273784637,
      -0.34557855129241943,
      -0.06131986156105995,
      -0.12795160710811615,
      0.043798282742500305,
      -0.009219931438565254,
      -0.021366428583860397,
      0.009500852786004543,
      0.0569770485162735,
      0.02380678616464138
    ],
    [
      -0.19113963842391968,
      -0.22408300638198853,
      -0.05325387418270111,
      0.27394548058509827,
      0.3578031361103058,
      0.25296369194984436,
      0.13278615474700928,
      -0.5047236084938049,
      0.11750025302171707,
      -0.049296364188194275,
      -0.021022608503699303,
      0.05036348104476929,
      0.022105537354946136,
      0.2051517516374588,
      0.12589766085147858,
      -0.13050970435142517,
      -0.0013601633254438639,
      0.1201775074005127,
      -0.04028654098510742,
      0.1805189698934555,
      -0.03323955833911896,
      -0.1837669014930725,
      -0.06677193939685822,
      -0.1253068596124649,
      0.16621845960617065
    ],
    [
      0.07260408997535706,
      0.5244931578636169,
      -0.07345134019851685,
      0.11065873503684998,
      0.1103590875864029,
      0.21574145555496216,
      0.021532736718654633,
      0.4443313181400299,
      0.28589755296707153,
      0.04086973890662193,
      0.26804426312446594,
      0.2943595051765442,
      0.0012516812421381474,
      0.10425971448421478,
      -0.020161593332886696,
      -0.002530135214328766,
      0.23563535511493683,
      -0.38593393564224243,
      -0.07039766758680344,
      0.2102852463722229,
      0.21833473443984985,
      -0.07844462990760803,
      -0.019312789663672447,
      0.03700524568557739,
      -0.12302716821432114
    ],
    [
      -0.05038145184516907,
      0.17725932598114014,
      0.04566952586174011,
      0.046831026673316956,
      0.08428794145584106,
      0.35323724150657654,
      -0.03336362913250923,
      0.0781591385602951,
      0.08141697943210602,
      -0.0939018577337265,
      -0.17837031185626984,
      -0.020235637202858925,
      -0.041960544884204865,
      0.12385334819555283,
      0.05127233639359474,
      0.07249955832958221,
      -0.013205787166953087,
      0.060333847999572754,
      -0.3394771218299866,
      0.09334047883749008,
      -0.17750293016433716,
      -0.013096046634018421,
      -0.04531947895884514,
      0.06816962361335754,
      -0.029664967209100723
    ],
    [
      -0.07397937774658203,
      -0.35186585783958435,
      0.06540589034557343,
      0.014961229637265205,
      -0.22798830270767212,
      0.13247433304786682,
      0.2639128863811493,
      -0.3283343017101288,
      -0.16614751517772675,
      -0.10364935547113419,
      0.024866938591003418,
      -0.24512380361557007,
      0.05286120995879173,
      -0.0612550713121891,
      0.3770953118801117,
      -0.03865519165992737,
      0.1168689876794815,
      0.2377612590789795,
      -0.05483301728963852,
      0.11610772460699081,
      0.02818405255675316,
      0.10366468131542206,
      -0.17414790391921997,
      -0.06958320736885071,
      -0.03385070338845253
    ],
    [
      0.15931375324726105,
      0.055944815278053284,
      -0.06186949089169502,
      0.07691697031259537,
      0.3563991189002991,
      -0.08632232993841171,
      -0.07576309889554977,
      -0.015354342758655548,
      0.33068761229515076,
      -0.19462716579437256,
      6.845175084890798e-05,
      0.058137793093919754,
      0.3110435903072357,
      0.4467010796070099,
      0.011877169832587242,
      0.14536431431770325,
      0.19742506742477417,
      0.1384873390197754,
      0.15955592691898346,
      -0.04921649768948555,
      -0.033565521240234375,
      -0.036253876984119415,
      0.16963917016983032,
      -0.06992747634649277,
      -0.17568886280059814
    ],
    [
      -0.17455297708511353,
      0.03575492650270462,
      0.054863594472408295,
      0.09597215801477432,
      -0.1592162847518921,
      0.1616566926240921,
      0.015890315175056458,
      0.09037186205387115,
      0.1839759200811386,
      0.15276764333248138,
      -0.15769316256046295,
      -0.03289628401398659,
      0.09034396708011627,
      0.41287514567375183,
      0.047717899084091187,
      0.09232836216688156,
      -0.1845986396074295,
      0.07815258204936981,
      -0.13757392764091492,
      -0.07300593703985214,
      0.05023575946688652,
      0.01965772546827793,
      0.06875454634428024,
      0.050692833960056305,
      -0.034407131373882294
    ],
    [
      -0.14220334589481354,
      -0.001065086224116385,
      0.05811428278684616,
      0.0028896781150251627,
      0.11933083087205887,
      0.09604731947183609,
      0.18735943734645844,
      -0.16380974650382996,
      0.15813583135604858,
      -0.03145167604088783,
      0.09280344843864441,
      0.2794753909111023,
      0.2218254804611206,
      0.29519927501678467,
      0.018117044121026993,
      0.10174690932035446,
      -0.043465785682201385,
      -0.111009381711483,
      -0.14951106905937195,
      0.024585247039794922,
      0.05295827239751816,
      0.09615616500377655,
      0.11682000011205673,
      -0.11020509153604507,
      0.025135861709713936
    ],
    [
      -0.14935821294784546,
      -0.11837522685527802,
      0.15031316876411438,
      0.0634501501917839,
      -0.5363448262214661,
      -0.035625286400318146,
      0.15458174049854279,
      0.45006924867630005,
      0.1095726490020752,
      -0.048994094133377075,
      0.04582161083817482,
      -0.14290134608745575,
      0.20012597739696503,
      0.04096246510744095,
      -0.04145455360412598,
      0.003910368774086237,
      0.2000744342803955,
      0.013999717310070992,
      0.01342688873410225,
      0.09977846592664719,
      0.11402509361505508,
      -0.002226360375061631,
      -0.18422235548496246,
      0.16448339819908142,
      0.013639801181852818
    ],
    [
      -0.001146436668932438,
      0.01566382311284542,
      -0.2000233232975006,
      0.24879243969917297,
      0.2746872901916504,
      0.24210059642791748,
      -0.25017887353897095,
      0.14815488457679749,
      0.0032637787517160177,
      0.15345241129398346,
      0.13466310501098633,
      -0.030775319784879684,
      0.21840938925743103,
      0.24350957572460175,
      0.042643554508686066,
      0.07087603956460953,
      0.1391635686159134,
      -0.14094629883766174,
      0.1291305422782898,
      -0.0750453770160675,
      0.059655189514160156,
      -0.02999812364578247,
      -0.1466848999261856,
      -0.0175214484333992,
      0.22485651075839996
    ],
    [
      0.15390393137931824,
      0.11848743259906769,
      -0.034887149930000305,
      -0.03894737362861633,
      0.0043097371235489845,
      0.06934715807437897,
      0.09572947025299072,
      0.14761246740818024,
      0.32550105452537537,
      -0.18467363715171814,
      0.08369538187980652,
      0.09232505410909653,
      -0.06995461136102676,
      0.328850120306015,
      0.0942908227443695,
      0.09953001141548157,
      0.04744178056716919,
      -0.09065575897693634,
      0.2644365727901459,
      0.03287831321358681,
      0.021942829713225365,
      0.2224540114402771,
      -0.16278421878814697,
      0.21789710223674774,
      0.1122688427567482
    ],
    [
      -0.18270528316497803,
      0.033163316547870636,
      0.1520264446735382,
      -0.04185730591416359,
      -0.22148732841014862,
      -0.11341451108455658,
      -0.15507081151008606,
      -0.0775325745344162,
      0.10067597031593323,
      0.051208723336458206,
      -0.07445095479488373,
      -0.1900438815355301,
      -0.020397435873746872,
      0.46300584077835083,
      -0.07542245835065842,
      -0.0931549221277237,
      0.31576007604599,
      -0.06902395933866501,
      0.025851400569081306,
      0.004001241642981768,
      -0.05764678865671158,
      -0.09530264139175415,
      -0.028896626085042953,
      -0.09158100187778473,
      0.03248559311032295
    ],
    [
      0.07520800828933716,
      0.22327983379364014,
      -0.011187480762600899,
      0.00500269141048193,
      -0.5732563734054565,
      0.03630885109305382,
      -0.12182880192995071,
      0.4070431888103485,
      -0.03206361085176468,
      0.07862892746925354,
      -0.040665850043296814,
      0.15684953331947327,
      -0.07562799006700516,
      0.03455323353409767,
      -0.051718953996896744,
      -0.1135881170630455,
      0.09494304656982422,
      -0.12876282632350922,
      -0.14233170449733734,
      -0.1293145716190338,
      0.13930191099643707,
      -0.00037471577525138855,
      0.0002637113502714783,
      0.030027223750948906,
      -0.04758593067526817
    ],
    [
      -0.0048651667311787605,
      0.16457107663154602,
      -0.08853668719530106,
      0.1727616935968399,
      0.020693469792604446,
      -0.11142679303884506,
      0.15608975291252136,
      0.570903480052948,
      0.04371672496199608,
      0.006907225586473942,
      0.18378031253814697,
      0.08183787763118744,
      -0.062493931502103806,
      -0.24809741973876953,
      -0.1055416390299797,
      -0.06578191369771957,
      -0.03515934199094772,
      0.1535773128271103,
      -0.007821489125490189,
      0.19081483781337738,
      -0.22133617103099823,
      -0.05239063873887062,
      0.21784080564975739,
      -0.10769345611333847,
      0.04045407474040985
    ],
    [
      0.030585279688239098,
      0.05055464059114456,
      0.20211005210876465,
      0.08432317525148392,
      0.24160946905612946,
      -0.19478856027126312,
      -0.09046242386102676,
      -0.13561321794986725,
      -0.00116717629134655,
      0.14764459431171417,
      -0.022333743050694466,
      0.04059329628944397,
      -0.022137828171253204,
      -0.03632958233356476,
      0.02581395022571087,
      0.2967851758003235,
      -0.0634511187672615,
      -0.28054630756378174,
      0.04587035998702049,
      0.08401903510093689,
      -0.1672688126564026,
      0.09787158668041229,
      0.016437016427516937,
      -0.13711659610271454,
      -0.2384154051542282
    ],
    [
      0.03200438246130943,
      0.13267245888710022,
      0.09986031800508499,
      0.12458615005016327,
      0.6260640025138855,
      0.23253782093524933,
      -0.10731600970029831,
      -0.34961777925491333,
      0.08359603583812714,
      -0.2094651460647583,
      -0.23357310891151428,
      0.1279386281967163,
      -0.038719143718481064,
      0.07581879198551178,
      -0.007967937737703323,
      0.13455069065093994,
      -0.03231620788574219,
      0.14898204803466797,
      0.007364040706306696,
      -0.08715606480836868,
      -0.0760924220085144,
      -0.13353465497493744,
      -0.03361837565898895,
      0.02251550927758217,
      -0.05232960358262062
    ],
    [
      -0.05101117864251137,
      0.25813567638397217,
      -0.03969697281718254,
      0.17759455740451813,
      -0.09957093745470047,
      -0.029349086806178093,
      0.29566940665245056,
      -0.23537597060203552,
      -0.04914168268442154,
      -0.126191183924675,
      -0.05511397495865822,
      -0.03759380057454109,
      0.35399794578552246,
      0.41163384914398193,
      -0.08352954685688019,
      0.0050156558863818645,
      0.03824996203184128,
      -0.025215810164809227,
      0.30867815017700195,
      0.06486397236585617,
      0.020368631929159164,
      0.21246866881847382,
      0.027260733768343925,
      0.03892560675740242,
      0.06393950432538986
    ],
    [
      0.10692906379699707,
      0.1491139531135559,
      0.003815373405814171,
      -0.1091914102435112,
      0.04386618733406067,
      0.06509638577699661,
      0.14446766674518585,
      0.1511789858341217,
      -0.05990682914853096,
      0.20857372879981995,
      0.07928374409675598,
      0.17597711086273193,
      -0.10701379925012589,
      0.14591915905475616,
      0.15325863659381866,
      0.006425975821912289,
      0.2648962140083313,
      0.017858194187283516,
      -0.12482686340808868,
      0.06964873522520065,
      -0.11434775590896606,
      0.03146253898739815,
      0.20908214151859283,
      -0.033962901681661606,
      -0.0701313242316246
    ],
    [
      0.10774189978837967,
      0.14317840337753296,
      0.09461572021245956,
      0.07393244653940201,
      0.4993121027946472,
      -0.16039901971817017,
      -0.005711414851248264,
      -0.5916628837585449,
      0.0767451822757721,
      0.34456250071525574,
      -0.03273487463593483,
      0.1467648148536682,
      0.059799376875162125,
      -0.12633317708969116,
      0.11232443153858185,
      0.006477758288383484,
      -0.12454403191804886,
      0.25738415122032166,
      0.1179037094116211,
      0.027382487431168556,
      -0.06119583174586296,
      0.10658770054578781,
      -0.06857026368379593,
      -0.25886785984039307,
      0.12802313268184662
    ],
    [
      0.24686004221439362,
      0.19403322041034698,
      -0.10532494634389877,
      0.2401851862668991,
      -0.5084049701690674,
      -0.08125359565019608,
      0.07337493449449539,
      0.3973607122898102,
      -0.03896108269691467,
      -0.017258409410715103,
      0.0555247887969017,
      0.4881230294704437,
      -0.16553544998168945,
      -0.033293090760707855,
      -0.08833926916122437,
      -0.1743680089712143,
      0.08089913427829742,
      -0.022936388850212097,
      0.144176185131073,
      0.031828492879867554,
      0.30081474781036377,
      -0.13495126366615295,
      0.00425970321521163,
      0.05284954607486725,
      -0.05531805753707886
    ],
    [
      0.11064253747463226,
      0.01986716128885746,
      0.08203393220901489,
      0.13155128061771393,
      0.21001005172729492,
      -0.1316678524017334,
      -0.005230098031461239,
      0.7570456862449646,
      -0.25248974561691284,
      0.141710564494133,
      0.08603669703006744,
      0.2139897644519806,
      -0.3779963552951813,
      -0.09404578059911728,
      -0.07742319256067276,
      0.3659417927265167,
      0.1002022922039032,
      -0.14487062394618988,
      -0.13300469517707825,
      -0.09410937875509262,
      -0.1285349428653717,
      -0.24834728240966797,
      -0.005270198453217745,
      0.07443755865097046,
      0.09190545976161957
    ],
    [
      0.22000913321971893,
      0.10129965096712112,
      0.15474434196949005,
      -0.17529994249343872,
      0.3464227318763733,
      -0.06432321667671204,
      -0.057988230139017105,
      -0.3362206220626831,
      0.04920037463307381,
      0.2504156827926636,
      -0.2708108127117157,
      0.040848180651664734,
      0.2407975196838379,
      0.041068851947784424,
      0.22518087923526764,
      -0.06442446261644363,
      0.10667204856872559,
      0.4720516502857208,
      -0.12768436968326569,
      -0.1287810504436493,
      -0.08310450613498688,
      0.05468809977173805,
      -0.04353238269686699,
      0.027290502563118935,
      0.042913250625133514
    ],
    [
      0.10690560191869736,
      -0.012030404061079025,
      -0.04506440460681915,
      0.05532563105225563,
      -0.2119751125574112,
      0.1888265162706375,
      0.08028305321931839,
      -0.3600131571292877,
      0.07431962341070175,
      -0.029111763462424278,
      -0.1756691187620163,
      -0.13316208124160767,
      0.15834717452526093,
      -0.11479900032281876,
      0.20288731157779694,
      -0.044239647686481476,
      0.2992919981479645,
      0.100270114839077,
      0.16381260752677917,
      -0.20242826640605927,
      0.10212442278862,
      -0.062789686024189,
      -0.06312870979309082,
      0.3683803379535675,
      -0.15032806992530823
    ],
    [
      0.09197801351547241,
      0.0020863423123955727,
      0.07559069246053696,
      -0.01273104827851057,
      -0.10916539281606674,
      -0.01137207169085741,
      -0.17077316343784332,
      0.17269651591777802,
      0.2775118947029114,
      0.0024338397197425365,
      -0.16699594259262085,
      0.20862387120723724,
      0.14738406240940094,
      0.07592087239027023,
      -0.020850028842687607,
      -0.05711034685373306,
      0.0672403872013092,
      -0.10686574131250381,
      0.06839840859174728,
      -0.09314203262329102,
      -0.027032414451241493,
      0.01725463941693306,
      -0.08905406296253204,
      -0.020931744948029518,
      0.01923404633998871
    ],
    [
      0.1989586353302002,
      -0.1669321358203888,
      -0.06995029002428055,
      0.027569741010665894,
      -0.4308323562145233,
      0.0615161657333374,
      0.07512860745191574,
      -0.5658626556396484,
      -0.08311502635478973,
      -0.06711364537477493,
      0.01747502014040947,
      -0.1427668035030365,
      -0.016151797026395798,
      0.15735122561454773,
      0.18968220055103302,
      0.02889416739344597,
      0.21050678193569183,
      0.11414426565170288,
      0.08512776345014572,
      -0.20055407285690308,
      0.10717085748910904,
      0.07997448742389679,
      0.23153766989707947,
      -0.1776508241891861,
      0.011732853017747402
    ],
    [
      0.1885339766740799,
      0.06382077932357788,
      0.0518050491809845,
      0.1804535984992981,
      0.4297640919685364,
      -0.15246190130710602,
      -0.09393532574176788,
      0.6530842781066895,
      -0.0028704539872705936,
      -0.12628355622291565,
      0.13879135251045227,
      0.19403362274169922,
      0.10475995391607285,
      -0.06229490414261818,
      -0.02880607545375824,
      -0.1573151797056198,
      0.031376250088214874,
      -0.07424793392419815,
      -0.004642929881811142,
      0.19425414502620697,
      -0.02737463265657425,
      -0.14498287439346313,
      0.26455944776535034,
      0.01612131856381893,
      0.04876188933849335
    ],
    [
      -0.0038361577317118645,
      0.05116601660847664,
      0.1213151291012764,
      0.039851702749729156,
      -0.5626410841941833,
      -0.03584009036421776,
      -0.16858023405075073,
      0.5080059170722961,
      -0.17620298266410828,
      0.23727349936962128,
      0.08787569403648376,
      0.2931577265262604,
      -0.01781437359750271,
      -0.1416945606470108,
      -0.014247753657400608,
      -0.1961950957775116,
      0.0885787084698677,
      0.11565013229846954,
      -0.04949302226305008,
      -0.15486647188663483,
      0.00042520769056864083,
      0.028744904324412346,
      -0.1271626204252243,
      0.2819553017616272,
      -0.05088728666305542
    ],
    [
      -0.008615730330348015,
      -0.06526472419500351,
      0.019273707643151283,
      0.07872078567743301,
      -0.4761393070220947,
      0.1443689614534378,
      -0.10429633408784866,
      0.5479020476341248,
      0.21448758244514465,
      -0.108254574239254,
      -0.10517078638076782,
      0.0291052907705307,
      0.22500082850456238,
      -0.0003320738615002483,
      -0.16271530091762543,
      0.2338145673274994,
      0.07056169211864471,
      -0.3702170252799988,
      -0.13787780702114105,
      -0.0719403401017189,
      -0.045823391526937485,
      -0.010695863515138626,
      -0.03893579915165901,
      0.20816557109355927,
      0.001659585628658533
    ],
    [
      -0.09605719894170761,
      0.062455687671899796,
      -0.0700482502579689,
      -0.011730676516890526,
      0.03858800232410431,
      0.013894847594201565,
      -0.10820814222097397,
      0.11985049396753311,
      0.26191118359565735,
      -0.08850978314876556,
      -0.017740517854690552,
      0.06355062127113342,
      0.08865424990653992,
      0.16148433089256287,
      0.04557781666517258,
      0.11629851162433624,
      0.07197890430688858,
      0.07569532841444016,
      0.07626013457775116,
      0.04016529396176338,
      0.11297880113124847,
      -0.03126784414052963,
      -0.17829197645187378,
      -0.02675599604845047,
      -0.00995382945984602
    ],
    [
      0.03449622541666031,
      0.2036893367767334,
      0.15371975302696228,
      -0.008502817712724209,
      0.43231892585754395,
      0.21097096800804138,
      -0.026513781398534775,
      -0.22684326767921448,
      0.21910148859024048,
      0.13599613308906555,
      0.24188944697380066,
      0.2619018256664276,
      0.07462178170681,
      0.2576328217983246,
      0.030987298116087914,
      -0.1268063634634018,
      0.09041424095630646,
      -0.06116572767496109,
      -0.05308282747864723,
      -0.02724406309425831,
      -0.17708127200603485,
      -0.2218485176563263,
      0.1680474430322647,
      0.1325726956129074,
      0.026219135150313377
    ],
    [
      0.02582983672618866,
      -0.2609882652759552,
      0.25946006178855896,
      -0.10183635354042053,
      0.5308953523635864,
      0.12832415103912354,
      0.14344170689582825,
      -0.28384271264076233,
      -0.005773845128715038,
      0.14966773986816406,
      -0.293407678604126,
      0.04493899270892143,
      0.015095768496394157,
      -0.025130800902843475,
      0.05029808357357979,
      0.08585299551486969,
      -0.016695449128746986,
      -0.13838371634483337,
      0.036405544728040695,
      0.19932620227336884,
      0.06715647131204605,
      0.10852707177400589,
      0.14550718665122986,
      0.2833874523639679,
      -0.0007961015799082816
    ],
    [
      0.03847144916653633,
      0.08394410461187363,
      0.01402564812451601,
      0.13023048639297485,
      -0.05086671561002731,
      0.19703803956508636,
      -0.11058353632688522,
      0.7026936411857605,
      0.055571042001247406,
      0.1677136868238449,
      -0.13425302505493164,
      -0.055123887956142426,
      0.003473378252238035,
      -0.08019878715276718,
      -0.06471872329711914,
      0.04828787222504616,
      -0.006006288342177868,
      -0.18203377723693848,
      -0.005744519177824259,
      -0.07038440555334091,
      -0.01907668076455593,
      -0.04121384769678116,
      0.07381085306406021,
      -0.12354046106338501,
      0.017893141135573387
    ],
    [
      0.02158886007964611,
      0.24807128310203552,
      0.1433815062046051,
      -0.12217231839895248,
      -0.08797232806682587,
      -0.04111282154917717,
      0.021481869742274284,
      0.6172952055931091,
      0.223576158285141,
      0.045180801302194595,
      0.04018423333764076,
      0.16011926531791687,
      -0.1330350786447525,
      -0.11988334357738495,
      -0.03878587484359741,
      0.07754687964916229,
      -0.13387265801429749,
      -0.19653543829917908,
      -0.050129808485507965,
      -0.04949814826250076,
      0.0792895182967186,
      0.1445666253566742,
      -0.03888402134180069,
      -0.16692937910556793,
      -0.22070550918579102
    ],
    [
      0.06330817192792892,
      -0.1391686350107193,
      0.09198108315467834,
      -0.02812538854777813,
      0.4344848692417145,
      0.08094699680805206,
      -0.1672936975955963,
      -0.06297875195741653,
      0.12442942708730698,
      -0.03327121585607529,
      -0.09330395609140396,
      0.20076507329940796,
      0.046327922493219376,
      -0.1613367795944214,
      -0.05837737396359444,
      -0.00596242630854249,
      0.07657841593027115,
      0.10971590876579285,
      -0.19041480123996735,
      -0.15138627588748932,
      0.05546405538916588,
      0.03834593668580055,
      -0.11652533710002899,
      -0.1329679638147354,
      0.17636272311210632
    ],
    [
      0.10933902114629745,
      -0.013754267245531082,
      0.0762375071644783,
      0.00813845545053482,
      -0.018075350672006607,
      -0.07017815113067627,
      0.1082247868180275,
      -0.36740389466285706,
      0.014150867238640785,
      -0.0033166224602609873,
      -0.0873921737074852,
      0.25683140754699707,
      0.0057576377876102924,
      0.25160494446754456,
      -0.20174598693847656,
      -0.05426103249192238,
      0.10387465357780457,
      0.15492302179336548,
      -0.20808623731136322,
      -0.043707478791475296,
      0.10865872353315353,
      -0.1461622267961502,
      0.1898203343153,
      -0.04084007814526558,
      -0.030802376568317413
    ],
    [
      -0.06567207723855972,
      0.08277015388011932,
      -0.1266682893037796,
      0.05704634264111519,
      0.0851433053612709,
      -0.075477235019207,
      0.22122851014137268,
      0.1884659230709076,
      0.42937996983528137,
      0.034790344536304474,
      0.026581162586808205,
      -0.06065494194626808,
      0.0561634786427021,
      0.1438647359609604,
      0.13874845206737518,
      0.1375434696674347,
      0.1005290299654007,
      0.10989852994680405,
      0.15247119963169098,
      -0.03702903911471367,
      -0.20715947449207306,
      0.037496160715818405,
      -0.04149952530860901,
      0.0021539409644901752,
      0.15526647865772247
    ],
    [
      0.13781549036502838,
      -0.14586083590984344,
      -0.21126218140125275,
      0.13653776049613953,
      0.10207831114530563,
      0.0911731868982315,
      0.10393676161766052,
      0.11132046580314636,
      0.23259471356868744,
      0.04282298684120178,
      -0.17943264544010162,
      0.34403902292251587,
      0.12314992398023605,
      0.16298072040081024,
      0.08429808169603348,
      0.12912768125534058,
      0.08779345452785492,
      -0.06858689337968826,
      0.02162337675690651,
      0.10877460986375809,
      -0.024405311793088913,
      -0.16758382320404053,
      0.06729068607091904,
      -0.21133479475975037,
      -0.4154224693775177
    ],
    [
      0.14431467652320862,
      0.1795351654291153,
      -0.037169668823480606,
      0.058427583426237106,
      -0.04449918121099472,
      -0.13780276477336884,
      -0.011671802960336208,
      -0.024298205971717834,
      0.04992637410759926,
      -0.026609616354107857,
      -0.22024188935756683,
      -0.01344455499202013,
      0.08344974368810654,
      -0.036065492779016495,
      0.1745535135269165,
      0.10658878087997437,
      0.08503297716379166,
      0.6344280242919922,
      -0.05900297313928604,
      -0.15280303359031677,
      -0.01886751689016819,
      -0.14414657652378082,
      0.04381141811609268,
      -0.03207912668585777,
      0.14739476144313812
    ],
    [
      -0.01283716969192028,
      0.22190317511558533,
      0.014439413323998451,
      0.14983472228050232,
      0.7806076407432556,
      -0.23829059302806854,
      0.06719214469194412,
      -0.20662130415439606,
      -0.08258992433547974,
      0.23545745015144348,
      -0.0632147341966629,
      0.09435271471738815,
      0.1659637689590454,
      -0.1689908802509308,
      -0.07891064137220383,
      -0.05899239704012871,
      0.2625061869621277,
      0.05909300595521927,
      -0.10222277790307999,
      0.1306065320968628,
      -0.2289968878030777,
      -0.14055369794368744,
      -0.07552064210176468,
      -0.004764047916978598,
      -0.04540447145700455
    ],
    [
      0.1346321552991867,
      0.1923251450061798,
      0.13691748678684235,
      -0.08592628687620163,
      0.5842058658599854,
      -0.12961925566196442,
      0.05396077036857605,
      0.1618710607290268,
      0.08313371241092682,
      -0.021676180884242058,
      0.19736890494823456,
      0.3002990782260895,
      -0.1379832774400711,
      0.21642917394638062,
      0.07453005015850067,
      0.14384862780570984,
      -0.11873806267976761,
      -0.07340896129608154,
      -0.01955176331102848,
      0.058049384504556656,
      -0.032424911856651306,
      -0.14179347455501556,
      -0.08594260364770889,
      0.1393304467201233,
      -0.0006823373842053115
    ],
    [
      0.39543697237968445,
      0.19646678864955902,
      -0.03154316172003746,
      0.08840440213680267,
      0.19000984728336334,
      0.2678883969783783,
      -0.08607865869998932,
      0.10601893067359924,
      0.01563039980828762,
      -0.02805788628757,
      0.00906467530876398,
      0.07144208252429962,
      0.11453621834516525,
      -0.19962887465953827,
      -0.007045450154691935,
      0.05974067002534866,
      -0.03619027137756348,
      -0.06351365149021149,
      0.045781560242176056,
      0.1338597685098648,
      -0.07084988057613373,
      0.14396657049655914,
      -0.018940137699246407,
      -0.029589088633656502,
      -0.12730760872364044
    ],
    [
      -0.009692108258605003,
      -0.10444726049900055,
      0.11726202815771103,
      -0.1291995793581009,
      0.27417632937431335,
      0.16466474533081055,
      -0.048744674772024155,
      -0.2936129570007324,
      0.07375020533800125,
      0.1126752644777298,
      0.004651420749723911,
      0.05784762278199196,
      0.06771036982536316,
      -0.07231105864048004,
      -0.20821280777454376,
      0.40814945101737976,
      0.025318525731563568,
      -0.011166483163833618,
      0.04691974073648453,
      0.17331039905548096,
      0.06334017217159271,
      -0.04542351886630058,
      0.2081076204776764,
      0.02900129370391369,
      0.21928800642490387
    ],
    [
      0.07460599392652512,
      0.021171974018216133,
      0.0601542666554451,
      0.04541207104921341,
      0.0021916022524237633,
      -0.024225780740380287,
      -0.195725679397583,
      0.5561375617980957,
      0.06576758623123169,
      -0.016137778759002686,
      0.08347847312688828,
      0.47708696126937866,
      0.03423962742090225,
      -0.09524635225534439,
      -0.05351611226797104,
      0.020099308341741562,
      0.12241721153259277,
      -0.11465536057949066,
      0.052488408982753754,
      -0.07677857577800751,
      -0.3128323554992676,
      -0.1890324503183365,
      -0.11387879401445389,
      0.10998782515525818,
      0.23003847897052765
    ],
    [
      0.10173644870519638,
      0.16570597887039185,
      0.04727736487984657,
      0.03957335278391838,
      0.33387747406959534,
      -0.024328425526618958,
      0.3654427230358124,
      -0.44558385014533997,
      -0.03707960620522499,
      -0.09631089866161346,
      0.13841819763183594,
      -0.21515733003616333,
      0.1197328194975853,
      -0.1859775334596634,
      0.14779919385910034,
      0.01728639379143715,
      0.19870372116565704,
      0.2141871154308319,
      -0.026835279539227486,
      0.026716483756899834,
      0.003228357993066311,
      -0.10090901702642441,
      0.0653199777007103,
      0.14058588445186615,
      -0.0228155218064785
    ],
    [
      -0.10330554097890854,
      -0.097614586353302,
      0.2948368191719055,
      -0.020785164088010788,
      0.45200657844543457,
      0.15776774287223816,
      0.07131344079971313,
      -0.16132842004299164,
      -0.14207002520561218,
      -0.040568046271800995,
      0.06571127474308014,
      -0.059821851551532745,
      0.3266621530056,
      -0.2528304159641266,
      -0.16445137560367584,
      0.14546696841716766,
      -0.12149909883737564,
      -0.18261176347732544,
      0.05399608612060547,
      0.276691734790802,
      0.11961539834737778,
      -0.13607257604599,
      -0.026605729013681412,
      0.005636462476104498,
      0.045773956924676895
    ],
    [
      0.3749682307243347,
      -0.16478411853313446,
      0.11022181063890457,
      -0.10470206290483475,
      -0.16281543672084808,
      0.15924790501594543,
      -0.2634831666946411,
      0.2988470494747162,
      0.0823543444275856,
      -0.11648806929588318,
      0.013967215083539486,
      -0.15780623257160187,
      0.06793011724948883,
      0.11814019829034805,
      -0.02017289400100708,
      0.2494903802871704,
      0.16357766091823578,
      -0.34235337376594543,
      0.12001422047615051,
      -0.040555667132139206,
      0.07503432035446167,
      0.3254711329936981,
      0.07568233460187912,
      -0.08299671858549118,
      0.13276316225528717
    ],
    [
      -0.06367834657430649,
      0.21678365767002106,
      -0.10377230495214462,
      0.10598521679639816,
      0.07435650378465652,
      -0.06357938796281815,
      0.0851573497056961,
      0.4444097578525543,
      -0.19265525043010712,
      0.2937842309474945,
      0.08186643570661545,
      0.1647322177886963,
      0.1865357756614685,
      0.02670898847281933,
      0.11734173446893692,
      0.12164242565631866,
      0.18214009702205658,
      -0.243636816740036,
      -0.17325465381145477,
      0.20486469566822052,
      0.023000523447990417,
      0.06768995523452759,
      -0.19242683053016663,
      0.17288678884506226,
      -0.149067685008049
    ],
    [
      0.012706526555120945,
      0.021706661209464073,
      0.03921910747885704,
      -0.03421040624380112,
      -0.20086640119552612,
      0.21071341633796692,
      0.3202928602695465,
      -0.10728619992733002,
      0.02018946409225464,
      0.18538855016231537,
      0.2507634460926056,
      0.10141316056251526,
      0.1966589391231537,
      0.02055647410452366,
      0.0789698138833046,
      0.18880781531333923,
      0.09366103261709213,
      -0.019169455394148827,
      -0.050611793994903564,
      -0.0725734531879425,
      0.03808175027370453,
      0.06245163828134537,
      -0.05575113743543625,
      -0.09285366535186768,
      0.22770072519779205
    ],
    [
      -0.0018196938326582313,
      0.10739503055810928,
      0.027873316779732704,
      0.0025710007175803185,
      0.05442044138908386,
      0.10879102349281311,
      0.027799926698207855,
      -0.06941453367471695,
      0.01600010134279728,
      0.05175493285059929,
      0.04509994015097618,
      0.14447274804115295,
      0.012781891040503979,
      -0.029490558430552483,
      0.041997358202934265,
      0.09043673425912857,
      0.07956147193908691,
      -0.03627535700798035,
      -0.14105398952960968,
      -0.1299937665462494,
      0.11286507546901703,
      -0.12940724194049835,
      0.002770158927887678,
      0.13658763468265533,
      0.08134912699460983
    ],
    [
      -0.12490963190793991,
      0.17385320365428925,
      0.13719281554222107,
      -0.10324322432279587,
      0.21358895301818848,
      0.05612045153975487,
      0.10447321832180023,
      -0.16583800315856934,
      -0.07441481202840805,
      0.07425928115844727,
      -0.09821924567222595,
      0.19976899027824402,
      0.1699410378932953,
      0.0009719398804008961,
      0.01895744539797306,
      0.10208164900541306,
      0.24215026199817657,
      0.1269230842590332,
      0.24380512535572052,
      -0.040949415415525436,
      0.06805659085512161,
      -0.09841585904359818,
      0.041648104786872864,
      -0.025289291515946388,
      -0.0013398462906479836
    ],
    [
      -0.000992792658507824,
      -0.07053667306900024,
      0.05068042501807213,
      -0.10094816237688065,
      0.6825438737869263,
      0.14929811656475067,
      0.004708269611001015,
      -0.3746017515659332,
      0.2455073893070221,
      0.08719362318515778,
      -0.06764617562294006,
      0.06025166064500809,
      0.23236288130283356,
      0.5522456765174866,
      0.01617419719696045,
      0.04712466523051262,
      0.14915183186531067,
      -0.02448992431163788,
      0.1326199620962143,
      -0.2873198390007019,
      -0.018214570358395576,
      0.02209486998617649,
      0.03851393237709999,
      -0.07068316638469696,
      -0.000158224836923182
    ],
    [
      0.10776908695697784,
      0.015900827944278717,
      -0.0495433583855629,
      0.017073599621653557,
      0.12526783347129822,
      0.1158260703086853,
      -0.0028049310203641653,
      -0.05671962723135948,
      -0.15063230693340302,
      0.009030016139149666,
      0.06359033286571503,
      -0.08565335720777512,
      0.16062621772289276,
      0.03185659646987915,
      0.10021380335092545,
      0.1399286687374115,
      -0.1796126663684845,
      0.04289897158741951,
      0.22485731542110443,
      0.09561532735824585,
      -0.27976250648498535,
      0.04864544793963432,
      0.21953897178173065,
      0.16300185024738312,
      -0.041368622332811356
    ],
    [
      -0.07322992384433746,
      0.036637697368860245,
      -0.02213776484131813,
      0.3199525475502014,
      0.36393171548843384,
      -0.17315348982810974,
      -0.2576647400856018,
      0.21035441756248474,
      -0.20606718957424164,
      0.20219331979751587,
      0.12013989686965942,
      0.17158177495002747,
      -0.07941552251577377,
      -0.10756807029247284,
      -0.012369109317660332,
      0.15078693628311157,
      0.23916007578372955,
      -0.15362092852592468,
      -0.161135733127594,
      0.2970350980758667,
      0.13557294011116028,
      0.14554598927497864,
      0.08521102368831635,
      0.11631715297698975,
      0.03642653673887253
    ],
    [
      0.061369262635707855,
      -0.10161435604095459,
      -0.12758572399616241,
      0.06870811432600021,
      -0.2988013029098511,
      0.07806248217821121,
      -0.2736821472644806,
      -0.1358489990234375,
      -0.01593738980591297,
      0.011352947913110256,
      0.06876000761985779,
      -0.22430463135242462,
      0.09060315787792206,
      2.5908542738761753e-05,
      0.2659010887145996,
      0.14184638857841492,
      0.04047028347849846,
      0.12873315811157227,
      0.10903848707675934,
      -0.07077495008707047,
      0.07763253897428513,
      -0.32085198163986206,
      0.08251052349805832,
      0.01972469687461853,
      0.20692384243011475
    ],
    [
      0.013974005356431007,
      0.1133076474070549,
      0.01350299920886755,
      0.04208749532699585,
      -0.059849321842193604,
      0.15186333656311035,
      0.03725580871105194,
      -0.033946506679058075,
      0.19110150635242462,
      0.046539489179849625,
      -0.07850205153226852,
      0.08501533418893814,
      -0.13034583628177643,
      0.34737586975097656,
      -0.019913747906684875,
      0.3891584873199463,
      -0.08553874492645264,
      0.027810992673039436,
      0.19009606540203094,
      0.027605924755334854,
      0.2540813088417053,
      0.055570464581251144,
      -0.3028188645839691,
      0.0045011513866484165,
      0.13003280758857727
    ],
    [
      0.13621197640895844,
      -0.06642033159732819,
      0.08862820267677307,
      0.030273038893938065,
      -0.17738404870033264,
      0.24296174943447113,
      -0.03502297401428223,
      -0.29541489481925964,
      0.17468057572841644,
      0.07607513666152954,
      0.07642753422260284,
      0.0013412468833848834,
      0.07100438326597214,
      0.0716230645775795,
      -0.14529961347579956,
      0.337477445602417,
      0.011700584553182125,
      -0.024748370051383972,
      0.05745227634906769,
      -0.055192843079566956,
      -0.1393832564353943,
      -0.05520651116967201,
      -0.05494873225688934,
      0.10471781343221664,
      -0.020211530849337578
    ],
    [
      0.1207251250743866,
      0.03710252791643143,
      -0.014486424624919891,
      0.04575090855360031,
      -0.13236172497272491,
      0.21212761104106903,
      0.17470702528953552,
      0.134810671210289,
      0.11160551756620407,
      -0.09326906502246857,
      -0.20834998786449432,
      0.02299448475241661,
      0.03490526229143143,
      -0.07625856250524521,
      0.24269221723079681,
      0.048772335052490234,
      0.10309946537017822,
      -0.0025510378181934357,
      0.1060163676738739,
      -0.061422329396009445,
      -0.029955467209219933,
      -0.23563933372497559,
      0.03267857804894447,
      0.03671266511082649,
      0.06994424015283585
    ],
    [
      -0.01642386056482792,
      0.12995409965515137,
      0.005817745812237263,
      0.009463268332183361,
      0.1500808149576187,
      0.350463330745697,
      0.19978176057338715,
      0.01836898922920227,
      0.166828453540802,
      0.051184192299842834,
      -0.18920211493968964,
      0.41688060760498047,
      0.2570275664329529,
      0.04602879285812378,
      -0.004769866354763508,
      0.03390023484826088,
      0.04390263557434082,
      0.030273759737610817,
      0.03503609076142311,
      0.155463308095932,
      -0.1381429135799408,
      0.15327148139476776,
      -0.08285437524318695,
      0.006175275892019272,
      0.06408925354480743
    ],
    [
      -0.011842409148812294,
      -0.13499265909194946,
      0.13465586304664612,
      0.020979538559913635,
      -0.25165507197380066,
      -0.13624796271324158,
      0.18516819179058075,
      0.25964972376823425,
      0.19521288573741913,
      -0.12518224120140076,
      0.017197921872138977,
      -0.0757005363702774,
      0.010804719291627407,
      0.14013460278511047,
      -0.039271920919418335,
      -0.08289436250925064,
      0.017327571287751198,
      0.17170073091983795,
      -0.06888318806886673,
      0.1400717943906784,
      0.37770020961761475,
      0.022264638915657997,
      0.0799986943602562,
      0.08466805517673492,
      -0.0255222599953413
    ],
    [
      -0.05351393669843674,
      -0.12274771183729172,
      0.05638624727725983,
      -0.0013362444005906582,
      -0.23955374956130981,
      0.10037720203399658,
      0.3376578688621521,
      -0.24728327989578247,
      0.1022195816040039,
      -0.18162758648395538,
      -0.002335325116291642,
      0.003951269667595625,
      0.25414249300956726,
      0.18833160400390625,
      0.11073668301105499,
      0.24865618348121643,
      -0.054917484521865845,
      0.1440480500459671,
      -0.14864566922187805,
      -0.11702308058738708,
      -0.14563420414924622,
      0.059006597846746445,
      -0.04219333827495575,
      0.3687296509742737,
      0.09304828941822052
    ],
    [
      -0.1527169942855835,
      0.10701776295900345,
      0.030174262821674347,
      0.18416139483451843,
      -0.2970556914806366,
      0.09947365522384644,
      -0.019861791282892227,
      -0.0032124267891049385,
      0.12255990505218506,
      -0.22162027657032013,
      0.0857912078499794,
      -0.2121705412864685,
      0.2352294921875,
      -0.11964987963438034,
      0.15505394339561462,
      -0.025199370458722115,
      0.12853020429611206,
      0.017818164080381393,
      -0.115162692964077,
      0.0017558899708092213,
      0.01533450186252594,
      -0.179585799574852,
      0.060429055243730545,
      -0.173575758934021,
      -0.198116272687912
    ],
    [
      0.03625638037919998,
      0.009075784124433994,
      -0.04650789499282837,
      0.10792188346385956,
      -0.07558538764715195,
      0.1739475280046463,
      0.13632123172283173,
      0.30027127265930176,
      -0.10481338948011398,
      0.1268102377653122,
      0.11070550978183746,
      0.07923150062561035,
      0.03873264044523239,
      -0.01843026839196682,
      -0.07809678465127945,
      0.2048971801996231,
      -0.1059323251247406,
      -0.17363913357257843,
      0.046168964356184006,
      -0.04257458448410034,
      0.12139616906642914,
      0.2977316677570343,
      0.09038048982620239,
      0.2260851263999939,
      -0.1480443924665451
    ],
    [
      0.15585842728614807,
      0.12494409829378128,
      0.018909765407443047,
      0.13623787462711334,
      0.5402032732963562,
      0.020384712144732475,
      0.009636015631258488,
      -0.1751832515001297,
      -0.07740111649036407,
      0.27497556805610657,
      0.05372317135334015,
      0.3627086877822876,
      0.1667063683271408,
      0.011090789921581745,
      -0.05464598536491394,
      0.10089625418186188,
      0.05012853071093559,
      -0.24901624023914337,
      -0.14880508184432983,
      0.09100040048360825,
      -0.17429672181606293,
      0.04364676773548126,
      0.024338219314813614,
      -0.10105384141206741,
      0.05924341455101967
    ],
    [
      0.23715703189373016,
      0.08451847732067108,
      -0.11209290474653244,
      0.13106869161128998,
      0.6791450381278992,
      -0.20085884630680084,
      0.15964104235172272,
      -0.3241018056869507,
      -0.10424241423606873,
      0.14980295300483704,
      -0.16642940044403076,
      0.05187452584505081,
      0.030415257439017296,
      -0.18374356627464294,
      -0.05373750254511833,
      -0.10448732227087021,
      -0.1605037897825241,
      -0.004683377221226692,
      -0.03775562718510628,
      -0.07717902213335037,
      -0.134714737534523,
      0.04039420187473297,
      -0.14661885797977448,
      0.1320553421974182,
      0.18648351728916168
    ],
    [
      -0.12975217401981354,
      0.07239823788404465,
      -0.03078341670334339,
      0.1696055829524994,
      -0.2272370606660843,
      0.07095946371555328,
      0.14835277199745178,
      0.46759018301963806,
      0.35351264476776123,
      0.04971212521195412,
      0.07116805016994476,
      -0.023951539769768715,
      0.009387575089931488,
      0.016757190227508545,
      0.10258849710226059,
      -0.0028004127088934183,
      -0.03222166746854782,
      0.22413504123687744,
      0.2108004242181778,
      -0.14964020252227783,
      0.10163310170173645,
      -0.02866155281662941,
      0.32218244671821594,
      0.29542580246925354,
      0.2659890949726105
    ],
    [
      0.07573769241571426,
      -0.21099065244197845,
      0.1470775455236435,
      0.17465515434741974,
      0.5369635820388794,
      -0.25071245431900024,
      -0.08417307585477829,
      -0.5228021740913391,
      0.12101422995328903,
      -0.3027178943157196,
      -0.08341919630765915,
      0.1670851856470108,
      -0.29769477248191833,
      -0.2042759656906128,
      0.1298915147781372,
      0.32088324427604675,
      -0.12307475507259369,
      -0.21006080508232117,
      0.03031550906598568,
      0.1638459414243698,
      -0.057562731206417084,
      -0.1509704440832138,
      -0.09330999851226807,
      0.178444966673851,
      -0.2567845582962036
    ],
    [
      0.09212309867143631,
      -0.020410116761922836,
      0.03751072660088539,
      0.10645443201065063,
      0.1883281171321869,
      -0.004011084791272879,
      -0.21371154487133026,
      -0.07095528393983841,
      0.0667082667350769,
      0.17135745286941528,
      0.10451298952102661,
      0.3014187514781952,
      0.00984719954431057,
      0.07670623809099197,
      0.004891340620815754,
      0.06682563573122025,
      0.09771184623241425,
      -0.25053563714027405,
      0.029858125373721123,
      0.09721427410840988,
      -0.11195097118616104,
      0.004880716558545828,
      0.004569566808640957,
      0.053869087249040604,
      0.12275129556655884
    ],
    [
      -0.02256249263882637,
      0.01614910177886486,
      0.17645263671875,
      -0.10457700490951538,
      0.09397155791521072,
      0.05908731743693352,
      -0.007330616936087608,
      0.3263421654701233,
      0.07630449533462524,
      -0.08554114401340485,
      0.040362171828746796,
      0.2723601460456848,
      0.11451031267642975,
      0.25439804792404175,
      -0.003665466094389558,
      -0.09348998963832855,
      0.2748109996318817,
      0.0801476314663887,
      0.04556037858128548,
      -0.1260332316160202,
      -0.15837977826595306,
      0.0953310877084732,
      -0.014114096760749817,
      0.047683894634246826,
      0.11055701971054077
    ],
    [
      -0.035775721073150635,
      -0.03539974242448807,
      -0.049069955945014954,
      0.10801529139280319,
      0.19550645351409912,
      0.06889509409666061,
      0.03261001780629158,
      -0.7504616975784302,
      0.21672062575817108,
      0.10814366489648819,
      0.03415084630250931,
      -0.22254323959350586,
      0.07888595759868622,
      0.0865049958229065,
      0.213483065366745,
      0.14466199278831482,
      0.02075747214257717,
      -0.013518155552446842,
      -0.014836404472589493,
      -0.12116491794586182,
      -0.29676318168640137,
      0.022282812744379044,
      -0.10477407276630402,
      0.02241360954940319,
      -0.01629447750747204
    ],
    [
      -0.10173121094703674,
      -0.3151288628578186,
      -0.09213937073945999,
      0.2652522325515747,
      -0.33680662512779236,
      -0.1814441829919815,
      0.1412922739982605,
      -0.22898484766483307,
      -0.1843460500240326,
      -0.003252338618040085,
      -0.18475227057933807,
      -0.06323837488889694,
      0.06856996566057205,
      -0.20091886818408966,
      0.167364701628685,
      0.033963900059461594,
      -0.16791953146457672,
      0.03771942853927612,
      -0.04037966579198837,
      -0.23980599641799927,
      0.15713147819042206,
      -0.0137489577755332,
      -0.08290747553110123,
      0.13758394122123718,
      -0.10022982954978943
    ],
    [
      -0.07166101783514023,
      -0.05147048830986023,
      0.2688642144203186,
      0.07413138449192047,
      -0.1940753012895584,
      0.16911831498146057,
      0.09525303542613983,
      0.6513530611991882,
      0.2636543810367584,
      0.1814260184764862,
      0.08948284387588501,
      0.20614424347877502,
      -0.01272047683596611,
      0.28650233149528503,
      -0.10932230204343796,
      0.018807001411914825,
      -0.0003530920948833227,
      -0.21826423704624176,
      0.09409034252166748,
      -0.006340464111417532,
      -0.09949307888746262,
      0.046605851501226425,
      -0.248062402009964,
      -0.030573025345802307,
      0.05069075524806976
    ],
    [
      0.1872314214706421,
      0.11534949392080307,
      0.0003913195396307856,
      0.14470002055168152,
      0.29826998710632324,
      0.10940543562173843,
      0.004443400539457798,
      0.5924728512763977,
      -0.025983497500419617,
      0.05195830762386322,
      -0.16317591071128845,
      0.23110276460647583,
      -0.02419186383485794,
      -0.1864955872297287,
      0.021276211366057396,
      -0.12317962944507599,
      -0.09018010646104813,
      -0.14124205708503723,
      -0.020177334547042847,
      0.1509721577167511,
      0.07056304067373276,
      -0.09490659087896347,
      -0.0029624493326991796,
      -0.1009068414568901,
      0.18295137584209442
    ],
    [
      0.021615276113152504,
      -0.028669871389865875,
      -0.0508582666516304,
      -0.00972701795399189,
      0.060235485434532166,
      -0.021379761397838593,
      -0.04537580907344818,
      0.13837052881717682,
      0.36007875204086304,
      0.3252137303352356,
      0.10686155408620834,
      0.2100328654050827,
      0.11611819267272949,
      0.19813938438892365,
      0.11540114879608154,
      0.08842644840478897,
      0.09240422397851944,
      0.32667431235313416,
      0.14210990071296692,
      -0.013053836300969124,
      0.018417034298181534,
      0.055774133652448654,
      -0.055811814963817596,
      -0.017896974459290504,
      0.15032173693180084
    ],
    [
      0.009352512657642365,
      0.3017648756504059,
      -0.0012222762452438474,
      -0.07117870450019836,
      0.1999778151512146,
      0.2581343352794647,
      -0.009607275016605854,
      0.35273587703704834,
      0.421847939491272,
      0.2631677985191345,
      0.054328083992004395,
      0.2968534827232361,
      0.04193704575300217,
      -0.14239801466464996,
      0.14179223775863647,
      0.15161117911338806,
      0.06727944314479828,
      0.18162643909454346,
      0.057620126754045486,
      0.13308309018611908,
      0.16490773856639862,
      0.015794984996318817,
      0.10040890425443649,
      0.023071587085723877,
      -0.01423310860991478
    ],
    [
      0.08701290935277939,
      -0.07573926448822021,
      -0.04793278127908707,
      0.020414840430021286,
      0.2312425822019577,
      0.2782348692417145,
      -0.10213062167167664,
      -0.10116162896156311,
      0.02675754576921463,
      0.2050349861383438,
      0.03751658275723457,
      -0.04986145719885826,
      -0.02528650499880314,
      0.37070512771606445,
      0.15431658923625946,
      -0.01722165010869503,
      -0.086156465113163,
      0.10789866745471954,
      -0.11173565685749054,
      -0.002472616033628583,
      0.03827892988920212,
      -0.02101578377187252,
      -0.012384312227368355,
      0.2313382476568222,
      -0.2569328844547272
    ],
    [
      0.2725294232368469,
      0.238851398229599,
      0.08384744077920914,
      -0.1205499991774559,
      0.3761047422885895,
      0.0698704868555069,
      0.05674247071146965,
      0.35747942328453064,
      0.19891878962516785,
      0.18300165235996246,
      -0.008298425003886223,
      0.2722199559211731,
      -0.07944192737340927,
      0.07565044611692429,
      0.1527366042137146,
      -0.004143512807786465,
      0.04696106165647507,
      -0.14166735112667084,
      -0.21100039780139923,
      0.09854207932949066,
      -0.031769219785928726,
      0.06682699918746948,
      0.19822388887405396,
      0.1723635345697403,
      -0.03724255785346031
    ],
    [
      0.05445702001452446,
      0.2170078158378601,
      0.07499250024557114,
      -0.16504299640655518,
      0.057415612041950226,
      0.2256125658750534,
      0.001772853545844555,
      0.03574318811297417,
      0.01383908186107874,
      -0.08422067016363144,
      0.10997431725263596,
      0.05276098474860191,
      0.11770319938659668,
      0.07945180684328079,
      0.05085021257400513,
      0.20351432263851166,
      0.19163452088832855,
      0.13846337795257568,
      0.06509365886449814,
      0.06362605839967728,
      -0.25476181507110596,
      0.1376669704914093,
      0.09822244197130203,
      0.16240115463733673,
      -0.09346859157085419
    ],
    [
      -0.019504494965076447,
      -0.15059511363506317,
      0.10088013112545013,
      0.1708196997642517,
      -0.6118679642677307,
      0.051147837191820145,
      0.02119613066315651,
      -0.0763978362083435,
      -0.19175149500370026,
      0.03461344167590141,
      0.06070666387677193,
      -0.17209462821483612,
      -0.03258410096168518,
      -0.15941661596298218,
      0.06606928259134293,
      -0.05407353490591049,
      -0.17506468296051025,
      -0.024410586804151535,
      0.02233068272471428,
      -0.10764750838279724,
      -0.09433221071958542,
      -0.002335973549634218,
      0.03644850477576256,
      0.02118879370391369,
      0.09058541804552078
    ]
  ],
  "fc1.bias": [
    -0.04736746475100517,
    0.014964004047214985,
    0.07424819469451904,
    -0.013780568726360798,
    0.11917046457529068,
    0.04566573724150658,
    0.17266684770584106,
    0.03231798857450485,
    0.07288949191570282,
    -0.016125844791531563,
    0.0795726552605629,
    0.0581657700240612,
    0.023046210408210754,
    0.11491341143846512,
    0.10725118219852448,
    0.08486607670783997,
    0.0551384873688221,
    0.03506996110081673,
    0.11480272561311722,
    0.030140124261379242,
    -0.04888642579317093,
    0.07514389604330063,
    0.0367099866271019,
    -0.023354483768343925,
    0.08237157016992569,
    -0.04633375629782677,
    0.2152518630027771,
    0.07860193401575089,
    0.05415474250912666,
    0.07717161625623703,
    -0.03649609535932541,
    0.06470051407814026,
    0.043432965874671936,
    0.025523588061332703,
    0.11073377728462219,
    0.05831127241253853,
    0.026760827749967575,
    0.12395023554563522,
    0.02543095126748085,
    0.07063762843608856,
    0.0489727221429348,
    0.01398180890828371,
    0.015493766404688358,
    -0.025112416595220566,
    0.04121112823486328,
    -0.027898836880922318,
    -0.028372520580887794,
    -0.003747754031792283,
    0.1170736625790596,
    -0.0028519637417048216,
    -0.007756803650408983,
    -0.02239798754453659,
    0.08427737653255463,
    0.029818348586559296,
    0.0010024348739534616,
    0.11039624363183975,
    0.046158477663993835,
    0.060519732534885406,
    -0.010077046230435371,
    0.13117799162864685,
    0.04684077948331833,
    0.02983417734503746,
    0.022022945806384087,
    0.0152670843526721,
    0.027467386797070503,
    0.02607915736734867,
    0.0030466250609606504,
    0.051260367035865784,
    0.05018521845340729,
    0.0726582258939743,
    0.046401627361774445,
    0.17981860041618347,
    0.05180397257208824,
    0.008435436524450779,
    0.04403770714998245,
    0.016017228364944458,
    0.07573127746582031,
    0.0073263137601315975,
    0.03612460941076279,
    0.041874438524246216,
    0.0021830531768500805,
    0.06467778980731964,
    0.048773184418678284,
    0.02516685426235199,
    -0.019455432891845703,
    0.0797359049320221,
    0.06834699958562851,
    0.11028583347797394,
    0.10954069346189499,
    0.09505628049373627,
    0.003940792288631201,
    0.03409178927540779,
    0.03228406235575676,
    0.06875453144311905,
    0.05488916486501694,
    -0.06740707159042358,
    0.1549607217311859,
    0.04596862569451332,
    0.05715731903910637,
    0.055846329778432846,
    0.06314025819301605,
    0.0073383464477956295,
    0.041888121515512466,
    0.027389604598283768,
    0.036202434450387955,
    0.042466986924409866,
    0.044283248484134674,
    0.12889131903648376,
    -0.015564441680908203,
    0.09206058830022812,
    0.017048021778464317,
    0.026919420808553696,
    0.12400607764720917,
    0.026768600568175316,
    0.035537343472242355,
    -0.025784822180867195,
    0.11184575408697128,
    -0.029100779443979263,
    0.014578726142644882,
    0.010541259311139584,
    -0.022057944908738136,
    0.05322447791695595,
    0.1523929387331009,
    0.11640653014183044,
    0.08503801375627518,
    0.11360276490449905,
    0.07067772001028061,
    0.010822632350027561
  ],
  "fc2.weight": [
    [
      -0.18460054695606232,
      -0.12318889796733856,
      -0.04379543662071228,
      0.1330753117799759,
      0.2395666241645813,
      0.06286674737930298,
      -0.11428900808095932,
      -0.2221115529537201,
      -0.1796349287033081,
      0.07432474195957184,
      0.09906439483165741,
      -0.23508580029010773,
      0.13197453320026398,
      0.18524502217769623,
      0.025779761373996735,
      0.004483210388571024,
      -0.0415026918053627,
      -0.3821231722831726,
      -0.17625091969966888,
      -0.01198244746774435,
      -0.22380667924880981,
      -0.08297017216682434,
      -0.05461220443248749,
      0.0005006745341233909,
      0.11350010335445404,
      0.19708654284477234,
      -0.058654844760894775,
      -0.046117715537548065,
      0.08103153109550476,
      0.1272641122341156,
      0.2942364513874054,
      -0.0007159217493608594,
      0.003763669403269887,
      -0.17155657708644867,
      0.02667737379670143,
      -0.06148518621921539,
      -0.391622394323349,
      0.09927409887313843,
      -0.3082001209259033,
      -0.051326338201761246,
      -0.08109216392040253,
      -0.0005234278505668044,
      -0.05555424466729164,
      -0.14226269721984863,
      0.016374439001083374,
      0.08085401356220245,
      -0.11886323243379593,
      0.0630328580737114,
      0.10268007218837738,
      0.12136578559875488,
      -0.16293665766716003,
      -0.0906134620308876,
      -0.034058041870594025,
      -0.026344813406467438,
      0.09149344265460968,
      -0.21772877871990204,
      -0.11973773688077927,
      -0.22557705640792847,
      0.1959950178861618,
      -0.09795717895030975,
      -0.33874404430389404,
      -0.022467905655503273,
      0.528119683265686,
      0.30668583512306213,
      0.022754954174160957,
      -0.11552949994802475,
      0.1614104062318802,
      0.08318712562322617,
      -0.3109866976737976,
      0.16907818615436554,
      0.12315932661294937,
      -0.07338131964206696,
      0.035233814269304276,
      0.1609063595533371,
      -0.26146042346954346,
      0.08410666137933731,
      0.24858325719833374,
      -0.06768842041492462,
      -0.1683678925037384,
      -0.028402918949723244,
      -0.1412564516067505,
      0.40688347816467285,
      0.17036350071430206,
      -0.1509017050266266,
      -0.054165069013834,
      -0.08738701790571213,
      -0.03411582112312317,
      -0.1226799413561821,
      0.011445699259638786,
      -0.08889596909284592,
      -0.03154809772968292,
      -0.14177502691745758,
      0.48148804903030396,
      -0.18179285526275635,
      0.002270997269079089,
      0.013771889731287956,
      0.27689799666404724,
      -0.019990582019090652,
      -0.06954627484083176,
      -0.24540285766124725,
      -0.10098239779472351,
      -0.3290216326713562,
      0.21748793125152588,
      -0.2579314410686493,
      0.057033441960811615,
      -0.12893301248550415,
      -0.009947980754077435,
      0.18081283569335938,
      0.0023704140912741423,
      -0.016746455803513527,
      0.02037348784506321,
      -0.17462095618247986,
      -0.08389991521835327,
      -0.11997400969266891,
      0.4493645429611206,
      -0.2654055655002594,
      0.01361820101737976,
      0.07742634415626526,
      -0.22586846351623535,
      -0.08773765712976456,
      0.20916889607906342,
      0.19444096088409424,
      0.04606331139802933,
      0.03606826439499855,
      -0.30010825395584106,
      -0.07060534507036209,
      -0.18847304582595825,
      -0.0932050496339798
    ],
    [
      0.27723047137260437,
      0.16355113685131073,
      -0.04804022237658501,
      0.07180357724428177,
      0.3282926380634308,
      0.0397491492331028,
      -0.3452589511871338,
      0.02751469798386097,
      0.17458875477313995,
      0.08891420811414719,
      0.27886515855789185,
      -0.12627072632312775,
      -0.23745767772197723,
      0.007637941278517246,
      -0.1256054937839508,
      0.08204882591962814,
      0.209631085395813,
      -0.3367292284965515,
      0.03814820200204849,
      0.04252227395772934,
      -0.13898663222789764,
      -0.14562350511550903,
      -0.15164895355701447,
      0.09846377372741699,
      0.12541015446186066,
      0.005260322708636522,
      -0.14647772908210754,
      -0.03891652822494507,
      0.1900334656238556,
      0.06340058892965317,
      -0.12679876387119293,
      0.07060059159994125,
      -0.02813294716179371,
      0.008587606251239777,
      0.19850298762321472,
      0.041406165808439255,
      0.10363969951868057,
      -0.26930108666419983,
      0.48653140664100647,
      -0.08591701835393906,
      0.08898557722568512,
      0.05066962167620659,
      0.08589509129524231,
      0.05733141303062439,
      0.3376219868659973,
      -0.01626364327967167,
      0.1160067468881607,
      -0.1406608521938324,
      0.2671053111553192,
      0.1407267451286316,
      -0.07594070583581924,
      -0.13388656079769135,
      -0.17785942554473877,
      -0.03271752968430519,
      0.2460273653268814,
      0.19396549463272095,
      -0.044984884560108185,
      -0.13453316688537598,
      0.12491125613451004,
      -0.09723978489637375,
      -0.041600629687309265,
      0.07413459569215775,
      -0.03355373442173004,
      -0.21810051798820496,
      -0.1028168648481369,
      0.1649932563304901,
      0.04170450195670128,
      -0.0889660194516182,
      0.02640634961426258,
      0.16301268339157104,
      -0.10528364777565002,
      0.12502802908420563,
      -0.0004985315026715398,
      -0.16216342151165009,
      0.18724431097507477,
      0.025931434705853462,
      0.17839600145816803,
      -0.17319205403327942,
      0.29039710760116577,
      -0.040038738399744034,
      -0.10018739849328995,
      -0.2546140253543854,
      -0.2957164943218231,
      -0.17991656064987183,
      -0.06210445240139961,
      -0.23737823963165283,
      0.039263106882572174,
      0.19441676139831543,
      0.0743441954255104,
      -0.14936776459217072,
      -0.043970685452222824,
      0.147184818983078,
      -0.01639118604362011,
      0.032635223120450974,
      -0.27980491518974304,
      -0.12242629379034042,
      -0.02628287300467491,
      -0.13146327435970306,
      -0.1730629801750183,
      0.021795008331537247,
      0.04170402139425278,
      0.057129040360450745,
      -0.007591226138174534,
      0.09425787627696991,
      0.059704262763261795,
      -0.07866957038640976,
      0.10283087939023972,
      0.05809391289949417,
      0.013632220216095448,
      -0.000850061303935945,
      -0.03303239867091179,
      -0.28026318550109863,
      -0.2862853407859802,
      -0.014234044589102268,
      -0.11541755497455597,
      -0.17598721385002136,
      -0.14387938380241394,
      0.23875926434993744,
      0.2340768575668335,
      0.10448024421930313,
      -0.22776222229003906,
      -0.24070169031620026,
      0.03176752105355263,
      -0.07573125511407852,
      -0.15270297229290009,
      -0.07201505452394485,
      0.01898588240146637,
      0.10171070694923401
    ],
    [
      -0.05056853964924812,
      -0.17959189414978027,
      -0.09989383071660995,
      -0.1611195057630539,
      -0.22698946297168732,
      -0.2046281099319458,
      -0.14565391838550568,
      0.07318247854709625,
      0.3323158323764801,
      0.1606501340866089,
      0.07927139848470688,
      0.1174500361084938,
      -0.07100724428892136,
      0.003338805865496397,
      -0.1625782698392868,
      0.13850563764572144,
      0.12846337258815765,
