{"version": 2, "weights": {"fc1.weight": [[-0.011507038958370686, -0.02343360148370266, -0.053537484258413315, -0.030524203553795815, -0.014305618591606617, 0.01486304309219122, 0.08139123767614365, -0.05497611686587334, -0.0175826083868742, -0.010108000598847866, -0.04930216819047928, 0.00028158779605291784, 0.018770180642604828, 0.03779447078704834, -0.027310041710734367, 0.0523487813770771, 0.03487284854054451, 0.03606602922081947], [-0.020129920914769173, -0.04203703626990318, -0.004226355347782373, 0.05582064017653465, 0.050964415073394775, 0.02976924180984497, 0.06618843972682953, -0.06012452766299248, -0.012972009368240833, 0.024978792294859886, -0.030678972601890564, 0.07035733759403229, 0.01187988743185997, -0.023970091715455055, -0.011999394744634628, 0.0023379011545330286, -0.008246549405157566, -0.07934047281742096], [0.020381420850753784, 0.08305690437555313, -0.01034476887434721, -0.029970793053507805, -0.13343320786952972, -0.01790366694331169, 0.03689250349998474, 0.04243457317352295, -0.010083389468491077, 0.0049448381178081036, -0.08962491899728775, 0.049238260835409164, 0.11287100613117218, 0.029865184798836708, -0.04844796285033226, -0.06655976176261902, -0.05241939425468445, 0.06973802298307419], [-0.03770483657717705, 0.014349028468132019, -0.04084879159927368, 0.0112084886059165, 0.010394803248345852, 0.07207400351762772, -0.04468921944499016, 0.0007575122290290892, -0.12187375873327255, 0.0358579084277153, 0.04449012130498886, -0.042942892760038376, 0.03929726406931877, 0.009222972206771374, 0.10365422815084457, -0.01950964145362377, -0.07407859712839127, -0.011462649330496788], [0.12067943066358566, -0.01649477705359459, -0.01642146147787571, 0.03162242844700813, -0.0007877022144384682, -0.035965487360954285, -0.07661181688308716, 0.15677079558372498, 0.012873157858848572, 0.0052971928380429745, 0.0985201820731163, -0.09567126631736755, 0.017912065610289574, 0.012320525012910366, 0.01720036379992962, 0.10697396844625473, -0.03486926853656769, 0.050723638385534286], [-0.0002784226380754262, 0.04574534669518471, 0.0051650432869791985, 0.07987158745527267, -0.01201711781322956, -0.1077503189444542, -0.03135135397315025, -0.0696573480963707, -0.06506403535604477, -0.03620673716068268, -0.03175950422883034, 0.07538115978240967, -0.08166377991437912, -0.020779630169272423, -0.04471082612872124, -0.011097948998212814, 0.03609376773238182, -0.008286422118544579], [-0.03412275388836861, 0.08975819498300552, -0.006888424511998892, 0.022210918366909027, -0.0001975541963474825, 0.04928186908364296, 0.026850704103708267, -0.05789601802825928, 0.01772714965045452, 0.034029629081487656, 0.01753634586930275, 0.06175658106803894, -0.07864507287740707, -0.02297729253768921, -0.05682532116770744, 0.05792906880378723, 0.04864675924181938, 0.033518459647893906], [0.028919532895088196, 0.009924475103616714, -0.138299360871315, -0.05206814408302307, -0.058410342782735825, 0.08124028891324997, -0.04420843720436096, -0.04764924570918083, -0.002556934952735901, 0.0013604832347482443, 0.02995857037603855, -0.03699324280023575, -0.032116200774908066, -0.032780542969703674, 0.006234162021428347, 0.044193852692842484, -0.06197233125567436, -0.02044757455587387], [0.04256480559706688, -0.052323658019304276, -0.13637451827526093, 0.06273669749498367, 0.13878774642944336, 0.013790354132652283, 0.018468698486685753, -0.004354115575551987, 0.10607492923736572, 0.09887153655290604, 0.0023045872803777456, -0.004725383594632149, -0.10904783010482788, 0.01268264651298523, 0.04655885323882103, -0.018504289910197258, 0.03254072740674019, 0.09201440960168839], [-0.05021904781460762, -0.062192048877477646, 0.05463019758462906, -0.009468991309404373, 0.011367234401404858, -0.08167919516563416, -0.010627700947225094, -0.01342978235334158, 0.021970974281430244, -0.0005654027336277068, 0.014308947138488293, 0.059586700052022934, 0.0072366297245025635, -0.005970438476651907, 0.1198117733001709, -0.02946680784225464, 0.03227407857775688, 0.024554045870900154], [0.030802607536315918, 0.1009320542216301, 0.04699036478996277, -0.041636716574430466, 0.12790422141551971, -0.06136123463511467, 0.08897029608488083, -0.026170436292886734, -0.04903543367981911, -0.035158418118953705, -0.03310961648821831, -0.05516762658953667, -0.0634240210056305, 0.004123648162931204, -0.06862243264913559, -0.013399573974311352, -0.039919741451740265, 0.04611450061202049], [-0.13413509726524353, 0.0754942074418068, -0.04050254076719284, -0.03691060468554497, -0.06210556626319885, -0.002967119449749589, -0.002718511736020446, 0.05194791033864021, -0.0709911584854126, -0.0034745228476822376, 0.027646297588944435, -0.06216956302523613, -0.04061330854892731, -0.0009294985211454332, 0.06324690580368042, 0.03789980337023735, 0.0340244397521019, -0.03519172966480255], [-0.06977289170026779, 0.038699738681316376, 0.04394882917404175, 0.04092585667967796, -0.05472036078572273, -0.008848401717841625, -0.031892240047454834, 0.030238015577197075, -0.009314658120274544, -0.08280836790800095, -0.014733195304870605, 0.09355739504098892, -0.010777552612125874, -0.02856099046766758, -0.013227476738393307, 0.034182142466306686, -0.1076027899980545, -0.030165404081344604], [0.039146389812231064, -0.006850437726825476, 0.04417398199439049, -0.022134672850370407, -0.026173366233706474, -0.044832296669483185, -0.017586108297109604, -0.0373074896633625, -0.005463158246129751, 0.0565546452999115, -0.06980647891759872, 0.09451104700565338, -0.02667519450187683, -0.09623312950134277, -0.05835207179188728, 0.02831742726266384, -0.03392139822244644, -0.05364563688635826], [0.030244961380958557, 0.12570080161094666, 0.04923390597105026, -0.024964123964309692, 0.03995535150170326, 0.027476752176880836, 0.059741344302892685, -0.06912313401699066, -0.020497383549809456, -0.06309761106967926, -0.028349677100777626, -0.041333649307489395, 0.03960518538951874, -0.04015617072582245, 0.06165609881281853, 0.018034553155303, 0.011043100617825985, 0.017696179449558258], [0.04789847880601883, -0.003342995187267661, 0.010082555934786797, -0.08408348262310028, -0.04595166817307472, 0.11330699920654297, -0.06836190819740295, 0.050663240253925323, 0.0869649201631546, -0.1200537458062172, 0.03769047558307648, 0.012967133894562721, 0.06439246982336044, -0.05974823981523514, 0.06760495901107788, 0.05180695652961731, 0.012798856012523174, -0.06614267826080322], [0.06558137387037277, 0.0475449301302433, 0.001951624290086329, -0.016806375235319138, 0.032391928136348724, -0.06187986955046654, 0.009568145498633385, -0.027644235640764236, -0.02349511906504631, 0.011952160857617855, 0.05019182711839676, -0.08430767804384232, 0.028432348743081093, 0.11229505389928818, -0.02055530995130539, -0.008411596529185772, 0.01613238826394081, 0.07121720165014267], [0.01575254090130329, -0.07278851419687271, -0.009038649499416351, -0.0012032006634399295, -0.07594463974237442, -0.03217809274792671, 0.016513865441083908, -0.018828241154551506, 0.039020340889692307, 0.009018502198159695, -0.0656043216586113, 0.09456020593643188, -0.027272840961813927, 0.014422490261495113, 0.014975592494010925, -0.055344391614198685, -0.05278331786394119, 0.04483787342905998], [0.011107469908893108, 0.08108764886856079, 0.025049129500985146, 4.557066495181061e-05, -0.03605298325419426, -0.018669970333576202, 0.009994841180741787, 0.012002796865999699, -0.06081688031554222, 0.09102752804756165, -0.025568887591362, 3.078541112699895e-06, -0.10416892915964127, -0.12456098943948746, 0.0012423696462064981, 0.05428270623087883, 0.03637286648154259, 0.030398353934288025], [0.0019070468842983246, -0.027460331097245216, 0.07840331643819809, -0.01507690828293562, 0.00011676384747261181, 0.036000292748212814, -0.07852839678525925, -0.014203432016074657, 0.04286503419280052, 0.030514603480696678, -0.05430832505226135, 0.034094106405973434, 0.009361797012388706, -0.03694817051291466, 0.005561522673815489, 0.035050228238105774, -0.005898050963878632, -0.024906862527132034], [-0.05943865701556206, 0.01175866648554802, 0.008269513957202435, -0.05586222931742668, 0.028101442381739616, 0.013222168199717999, 0.03378080576658249, 0.049064911901950836, -0.02612251043319702, -0.021448418498039246, 0.036115679889917374, -0.040651798248291016, 0.0022442408371716738, 0.1072443500161171, 0.052403416484594345, 0.07027929276227951, -0.03087780810892582, -0.07719670981168747], [0.10276080667972565, 0.02786400355398655, -0.05207766965031624, 0.06556569784879684, 0.0010157638462260365, -0.10928662121295929, 0.03154677525162697, 0.03347507864236832, -0.08674314618110657, -0.0214103814214468, -0.007774823345243931, -0.05758973956108093, -0.007603721227496862, -0.10290660709142685, -0.07404528558254242, 0.0184861458837986, 0.03870764002203941, -0.01964532397687435], [-0.02941162884235382, 0.008281268179416656, 0.02839110791683197, 0.019802173599600792, -0.0004305480688344687, 0.11402200907468796, 0.01736670918762684, -0.04032868891954422, 0.03817944601178169, 0.08226712048053741, -0.00849381648004055, -0.030159926041960716, 0.028892522677779198, 0.004336089827120304, 0.03017103485763073, 0.08175554871559143, 0.0815461128950119, -0.011726346798241138], [0.04914925992488861, 0.007766384165734053, 0.026950815692543983, 0.07395607978105545, 0.01009590458124876, -0.05657116323709488, -0.02178061753511429, 0.0065314508974552155, 0.00484379380941391, 0.003082053968682885, 0.01977006159722805, 0.027714762836694717, 0.04063631221652031, 0.040724098682403564, 0.09007687121629715, -0.027543574571609497, 0.03427331894636154, -0.00902690552175045], [-0.03331338241696358, -0.005375112872570753, 0.012729269452393055, 0.1196306124329567, 0.032288115471601486, 0.055316489189863205, 0.027795463800430298, -0.0015635568415746093, -0.008418898098170757, 0.10261853039264679, -0.08286061137914658, -0.03380059823393822, -0.03498304262757301, -0.01987527310848236, 0.05269711837172508, -0.04319433495402336, 0.0381321981549263, -0.004078849218785763], [-0.03358842059969902, -0.0034655691124498844, -0.02391280047595501, 0.01048349030315876, -0.02054581418633461, -0.07710161805152893, -0.09943687170743942, 0.04296288266777992, 0.00684277294203639, -0.02697768248617649, -0.027299372479319572, 0.03808067739009857, -0.05596913769841194, 0.05802454426884651, 0.004811931401491165, 0.00905773788690567, 0.0007592336041852832, -0.02804388478398323], [-0.011283096857368946, -0.039374593645334244, 0.03313758596777916, 0.007630892097949982, 0.003633854677900672, 0.08617845922708511, 0.006414051633328199, -0.03921956941485405, 0.037083860486745834, 0.02544427290558815, 0.08141481131315231, -0.0328063927590847, 0.03996310010552406, -0.02463599108159542, -0.06236765906214714, 0.10008683055639267, 0.002087729750201106, 0.009025593288242817], [0.023377705365419388, 0.015682434663176537, 0.03825122490525246, -0.04111083969473839, -0.0014878730289638042, 0.025669142603874207, 0.10694173723459244, 0.021971605718135834, 0.02311246655881405, 0.026188863441348076, 0.10358955711126328, -0.04144364595413208, -0.034618549048900604, -0.029267359524965286, 0.030416026711463928, -0.0041287443600595, 0.003692584577947855, 0.05512329563498497], [0.028017833828926086, 0.028370363637804985, -0.013116623274981976, -0.0004453095607459545, -0.005047931335866451, 0.03191383555531502, -0.10604535788297653, -0.013776387088000774, -0.04861016198992729, -0.015210412442684174, -0.004642023239284754, 0.026036739349365234, 0.041558507829904556, 0.03325025737285614, 0.004818227142095566, 0.00446264399215579, 0.007480408530682325, -0.0777096375823021], [0.021200215443968773, 0.044080477207899094, -0.10070369392633438, 0.011751516722142696, -0.08781047910451889, -0.031665559858083725, -0.06621560454368591, -0.044489577412605286, -0.06261177361011505, 0.018511952832341194, 0.005361568182706833, -0.06785932928323746, -0.0173456110060215, 0.09398289769887924, 0.053049635142087936, -0.041899632662534714, -0.02003706805408001, 0.007121454458683729], [0.011130708269774914, 0.028815655037760735, -0.013326133601367474, -0.022059587761759758, 0.0011722514173015952, -0.027828067541122437, -0.039489954710006714, 0.05337655544281006, 0.04688355326652527, 0.03469410166144371, -0.0528222918510437, -0.06843846291303635, 0.05350254848599434, -0.010539810173213482, 0.0692419484257698, 0.05461062118411064, -0.01171823125332594, -0.02777787111699581], [-0.0211626123636961, -0.029059050604701042, -0.052354175597429276, 0.037476569414138794, 0.01298526395112276, -0.018471939489245415, -0.03162052482366562, -0.03234836086630821, 0.005311399232596159, 0.01463377382606268, -0.0843060240149498, 0.06662575900554657, -0.019973192363977432, -0.02886250615119934, -0.05145062133669853, -0.00033474285737611353, 0.013250532560050488, 0.06475796550512314], [-0.045290157198905945, 0.021840756759047508, 0.03468978777527809, -0.041839148849248886, -0.08366788178682327, 0.013049686327576637, -0.0705999955534935, 0.016073128208518028, 0.048513736575841904, 0.05584029480814934, -0.03207109123468399, -0.10394328087568283, -0.003990589641034603, 0.020239992067217827, 0.11184898763895035, 0.02925202250480652, 0.08193077147006989, -0.023823076859116554], [0.12808887660503387, 0.004967676475644112, 0.041611846536397934, -0.10002042353153229, 5.493020944413729e-05, -0.042646389454603195, -0.026129519566893578, -0.0016998167848214507, -0.07636314630508423, 0.034265901893377304, -0.031235305592417717, 0.0136561319231987, -0.009594826959073544, -0.07959315180778503, -0.041282545775175095, 0.022816576063632965, -0.10640966147184372, 0.0013589682057499886], [-0.040511567145586014, -0.05675014853477478, 0.035697028040885925, -0.038906220346689224, -0.08437471836805344, 0.044779811054468155, 0.031084546819329262, 0.05754639580845833, 0.03709623962640762, -0.0884808674454689, 0.007769732270389795, 0.06244998052716255, -0.05197151377797127, 0.028775224462151527, -0.034671418368816376, -0.07607193291187286, 0.06941971182823181, -0.06466002762317657], [0.05183656886219978, -0.06252419203519821, -0.0540202260017395, 0.004867570009082556, 0.05920829251408577, -0.0019911015406250954, 0.021049266681075096, 0.028314733877778053, -0.06588561087846756, 0.10251425951719284, 0.03343549743294716, 0.004718999844044447, -0.029945790767669678, 0.05456128343939781, -0.018470659852027893, -0.0765201672911644, -0.029484538361430168, 0.034749019891023636], [0.10683649778366089, -0.04654085263609886, -0.01185618620365858, -0.021326599642634392, 0.03583946079015732, -0.04610390216112137, 0.05747766047716141, -0.03913090005517006, 0.03302435204386711, -0.03184407204389572, 0.028164023533463478, -0.005728278774768114, -0.0010853152489289641, 0.1335221379995346, -0.047632720321416855, -0.0484069399535656, -0.06758945435285568, 0.023877259343862534], [-0.011816099286079407, 0.07926943898200989, -0.02329830825328827, 0.03987863287329674, -0.018935298547148705, -0.11040856689214706, -0.008436665870249271, -0.025429148226976395, -0.0031467464286834, 0.0011051067849621177, 0.033827055245637894, -0.05272448807954788, -0.0003992546407971531, 0.02187958173453808, 0.028264308348298073, -0.037302594631910324, -0.07039878517389297, -0.040017738938331604], [0.0280038770288229, -0.023336444050073624, -0.016199249774217606, -0.03853844106197357, 0.07313775271177292, -0.1386159509420395, 0.07626304030418396, 0.06573104858398438, -0.007763916160911322, 0.015493650920689106, -0.0022252879571169615, 0.015287036076188087, 0.03436680883169174, -0.030842576175928116, -0.010404817759990692, 0.02632319927215576, -0.0067266556434333324, 0.046141479164361954], [-0.05331878736615181, 0.06043194606900215, -0.006797035224735737, 0.03482992202043533, 0.08778088539838791, -0.012556101195514202, 0.06412439793348312, -0.04637306556105614, -0.030886709690093994, 0.038119181990623474, -0.007544441614300013, 0.08611138164997101, -0.0198513250797987, 0.0222350861877203, 0.015000581741333008, 0.049140360206365585, -0.011917176656425, -0.07163026183843613], [-0.0011647266801446676, 0.041392695158720016, -0.01931742951273918, -0.0282857995480299, 0.013712743297219276, 0.029958117753267288, 0.023518042638897896, -0.02406267076730728, 0.008976922370493412, 0.058267991989851, 0.026792896911501884, 0.03692645579576492, -0.029524503275752068, -0.019982807338237762, 0.11854946613311768, -0.0025344998575747013, 0.05634889751672745, -0.04081130400300026], [-0.0031900794710963964, -0.0539073720574379, -0.04235754907131195, -0.09251264482736588, 0.04464155435562134, 0.017268946394324303, -0.012016850523650646, 0.061295200139284134, -0.0019808991346508265, -0.00263705151155591, -0.060989122837781906, -0.040799494832754135, 0.0018977475119754672, -0.03387083485722542, 0.05814822390675545, 0.017267560586333275, -0.030524855479598045, 0.03711551055312157], [0.16063207387924194, 0.0018401079578325152, 0.08108148723840714, -0.010252966545522213, -0.0167226679623127, 0.020717430859804153, 0.019228054210543633, 0.032237641513347626, 0.07104875147342682, 0.04411058500409126, 0.022663049399852753, 0.014219112694263458, 0.02972424402832985, -0.04182908684015274, 0.0035109040327370167, -0.056357741355895996, 0.028237048536539078, 0.037330325692892075], [-0.011664948426187038, -0.05465765669941902, 0.028797311708331108, -0.020828304812312126, -0.07342315465211868, 0.07496215403079987, -0.0202329158782959, -0.0438016839325428, 0.04950697720050812, -0.014718787744641304, -0.02853589691221714, 0.001338750938884914, -0.010479770600795746, -0.025358963757753372, 0.027134273201227188, -0.02592952363193035, 0.045199207961559296, 0.025516873225569725], [-0.10753399133682251, -0.005494238343089819, -0.03363843262195587, 0.06053730472922325, -0.03702687844634056, -0.14247000217437744, -0.0446554534137249, -0.02526181749999523, 0.014892778359353542, -0.06400015205144882, -0.04956359043717384, -0.010337084531784058, 0.05600392818450928, 0.10345067083835602, 0.03749385103583336, -0.024136509746313095, 0.08868340402841568, 0.07226049154996872], [-0.023132629692554474, 0.008618912659585476, 0.02329886518418789, 0.004479240160435438, -0.08571329712867737, -0.007335580885410309, 0.06935817748308182, 0.03437970206141472, 0.033946096897125244, -0.07662723958492279, -0.01624518632888794, -0.026212114840745926, 0.04681453853845596, -0.013400931842625141, -0.05159725621342659, 0.04480651393532753, 0.012824052944779396, -0.016717834398150444], [-0.022645367309451103, -0.03466539457440376, -0.04773029312491417, 0.0038363595958799124, 0.0025061469059437513, 0.07998122274875641, 0.0732235461473465, 0.09178531914949417, 0.03848881646990776, 0.026654107496142387, -0.027154868468642235, 0.06169476732611656, 0.0017256414284929633, 0.03698520362377167, -0.023973405361175537, 0.01959029585123062, -0.012480596080422401, -0.07330388575792313], [0.00819405633956194, 0.08319234848022461, 0.01747465878725052, 0.07456757873296738, -0.04189157858490944, -0.03538307920098305, 0.025690117850899696, 0.015207690186798573, -0.0008669777889735997, 0.04655002802610397, 0.012408683076500893, -0.008313062600791454, 0.0702945813536644, 0.023144764825701714, 0.03380223736166954, -0.03588561341166496, -0.03239331766963005, 0.03545498102903366], [-0.03361586481332779, 0.02951681986451149, 0.00786320399492979, -0.06892148405313492, -0.0853688195347786, 0.01809704303741455, -0.061421819031238556, 0.019596440717577934, 0.09788914769887924, 0.020243417471647263, 0.013083080761134624, 0.04494580253958702, 0.01676536723971367, -0.08074027299880981, -0.06901522725820541, -0.058689940720796585, 0.016751212999224663, -0.06886305660009384], [0.03850292041897774, -0.00045828038128092885, -0.014139734208583832, -0.030495861545205116, 0.14358960092067719, 0.029158979654312134, 0.0061507392674684525, 0.09900154918432236, 0.15263748168945312, 0.01182708702981472, -0.07021030783653259, 0.023669816553592682, -0.09048484265804291, 0.024649210274219513, -0.06149107962846756, -0.11735190451145172, -0.04081152379512787, 0.022354809567332268], [0.0487728975713253, -0.0380849614739418, -0.011485259048640728, 0.028917551040649414, 0.0659310594201088, 0.03576504811644554, -0.031055886298418045, -0.01873820088803768, -0.08341904729604721, -0.07504280656576157, 0.07936684042215347, 0.029839662835001945, -0.031341876834630966, 0.03601163998246193, -0.040833402425050735, 0.09390884637832642, -0.005566480103880167, -0.03865828365087509], [0.010827830992639065, 0.0746215358376503, -0.00570904603227973, -0.0452926903963089, -0.032801833003759384, -0.07967104017734528, 0.006828237324953079, 0.057834457606077194, -0.07295506447553635, 0.003804517909884453, -0.06404119729995728, -0.004353916738182306, 0.0488877072930336, -0.027943775057792664, -0.08608585596084595, 0.11490925401449203, 0.005517936777323484, -0.020073844119906425], [-0.007040289230644703, -0.004201269708573818, 0.07520229369401932, -0.01823471486568451, 0.027672136202454567, -0.07507596164941788, -0.006971410010010004, -0.026950029656291008, 0.026327386498451233, -0.06536600738763809, -0.11068238317966461, -0.05425281450152397, -0.026229867711663246, 0.0533302016556263, 0.06478303670883179, -0.0026761656627058983, 0.03830832988023758, 0.05863172560930252], [3.730400203494355e-05, 0.05326541140675545, 0.021354136988520622, 0.03667331859469414, 0.025631263852119446, -0.013500377535820007, 0.03177553787827492, -0.029116937890648842, 0.022170204669237137, -0.004428401123732328, -0.06355061382055283, -0.024704042822122574, 0.051940616220235825, -0.03763744235038757, -0.0271683968603611, 0.0636037215590477, -0.06179940700531006, 0.06127214431762695], [-0.019426744431257248, -0.021664148196578026, 0.1073518767952919, -0.020911816507577896, 0.027832765132188797, -0.06552663445472717, 0.02124216966331005, 0.10653401911258698, -0.07937080413103104, 0.04759614169597626, -0.09635940194129944, 0.05288228392601013, -0.02847759984433651, 0.057856298983097076, -0.038446180522441864, -0.050832536071538925, 0.0026299175806343555, 0.04897880181670189], [-0.05197940394282341, 0.08499171584844589, 0.005901612341403961, 0.044046878814697266, 0.10167788714170456, -0.019692784175276756, 0.02158563770353794, -0.020507000386714935, 0.027195660397410393, -0.04305462911725044, -0.06512905657291412, 0.0971684679389, -0.062174465507268906, -0.0846453383564949, -0.05844276770949364, -0.035829808562994, 0.02524644136428833, 0.04576477035880089], [0.000853398465551436, 0.05262385681271553, 0.04474460706114769, -0.022185934707522392, 0.03325886279344559, -0.052808728069067, 0.038800198584795, -0.009565803222358227, -0.07293271273374557, 0.020627673715353012, -0.033250171691179276, 0.044692523777484894, 0.08133097738027573, -0.0339757539331913, -0.027826741337776184, -0.02144836075603962, -0.002440658863633871, -0.006067842245101929], [-0.0470912829041481, -0.02188834547996521, -0.11828839033842087, 0.047348473221063614, 0.005500352010130882, -0.08971522748470306, -0.04658697172999382, -0.023955829441547394, -0.11048351973295212, 0.07753074914216995, 0.025475353002548218, -0.03780253976583481, -0.02839619293808937, 0.001441851374693215, -0.06614814698696136, -0.049076154828071594, -0.04700596258044243, -0.023326072841882706], [0.01726933754980564, -0.03572879359126091, 0.01213853806257248, 0.009211479686200619, 0.05962755158543587, -0.004682870116084814, 0.03619328886270523, 0.013111717998981476, 0.10644862800836563, -0.02108040452003479, 0.0512528121471405, -0.009479871951043606, 0.0024967414792627096, 0.02618497982621193, -0.04516129568219185, -0.00765242800116539, 0.013880393467843533, -0.0072466223500669], [0.008171268738806248, 0.06941985338926315, -0.024683183059096336, -0.028153741732239723, 0.04850161448121071, -0.05679785832762718, 0.009019779972732067, -0.047992054373025894, -0.007806719746440649, 0.01455814391374588, 0.024620136246085167, -0.019447026774287224, 0.06293601542711258, 0.03317290171980858, 0.06333313882350922, 0.042622752487659454, -0.01598883420228958, 0.0221828892827034], [0.07541492581367493, -0.1321718990802765, 0.015238501131534576, -0.019037997350096703, 0.07021763920783997, -0.0020839169155806303, 0.07696884125471115, 0.09870865941047668, -0.01882043667137623, 0.001525954925455153, 0.008333845064043999, -0.0007156997453421354, -0.022656289860606194, -0.00967202614992857, -0.015778036788105965, -0.03186201676726341, -0.015563197433948517, -0.05026831105351448], [-0.010875502601265907, 0.08800680190324783, -0.043768394738435745, -0.0011604073224589229, -0.057374436408281326, 0.009571227245032787, 0.03676508367061615, -0.08931467682123184, -4.38827664765995e-05, 0.052379827946424484, -0.04346563667058945, 0.035321272909641266, 0.029775170609354973, 0.07346712797880173, 0.031239494681358337, -0.00206153211183846, -0.018804481253027916, 0.016355453059077263], [0.01782131753861904, 0.04811915010213852, 0.04505801200866699, -0.0200246199965477, -0.05289214849472046, -0.08916614949703217, 0.06390517204999924, 0.03550850227475166, 0.010425178334116936, -0.0036794492043554783, 0.045257411897182465, -0.02209872379899025, 0.04681652784347534, -0.051130425184965134, 0.05424577742815018, -0.01466458011418581, -0.06375016272068024, 0.05861836299300194], [-0.014132804237306118, -0.04946913942694664, -0.00781951006501913, -0.026081416755914688, -0.03017677739262581, -0.015879526734352112, 0.03400062024593353, 0.06903167814016342, 0.09687979519367218, -0.03971047326922417, -0.03189268335700035, 0.04167339950799942, -0.08404532819986343, -0.057400334626436234, -0.031219199299812317, 0.02156986854970455, -0.020720910280942917, 0.13215011358261108]], "fc1.bias": [-0.014086894690990448, -0.06566571444272995, 0.003184946021065116, -0.04771449789404869, 0.0019626410212367773, 0.07146202772855759, 0.018605997785925865, -0.04946180060505867, 0.052275367081165314, -0.018849311396479607, -0.005968866404145956, -0.04734070599079132, -0.012024372816085815, 0.05772468075156212, 0.052769195288419724, -0.05250424146652222, -0.08385439962148666, -0.0977664366364479, -0.08442019671201706, -0.004413542803376913, -0.0014223277103155851, -0.00321716140024364, 0.022746194154024124, 0.10796835273504257, 0.0028414863627403975, -0.07601629942655563, -0.021621467545628548, 0.04658130928874016, 0.0818140059709549, -0.005720410030335188, -0.07156994193792343, 0.07283394783735275, -0.045523542910814285, 0.033963967114686966, -0.006399919278919697, 0.012197955511510372, 0.02161143161356449, -0.014127800241112709, -0.03275002911686897, 0.04093712195754051, -0.003946883603930473, 0.0883350595831871, 0.04021625220775604, 0.04520535096526146, -0.024406159296631813, -0.029509902000427246, -0.028530314564704895, -0.05773661658167839, 0.021357521414756775, -0.0492355041205883, -0.09426279366016388, -0.028181079775094986, 0.02522692084312439, 0.039449725300073624, -0.02662997879087925, -0.01812516711652279, -0.013513102196156979, -0.016836781054735184, 0.05795871093869209, 0.010592684149742126, -0.014013883657753468, 0.0827290415763855, -0.07152410596609116, -0.022106699645519257], "fc2.weight": [[0.00014222813479136676, 0.06430307775735855, -0.00579391373321414, 0.024483617395162582, -0.0083005977794528, 0.028384333476424217, -0.07089509814977646, -0.07302319258451462, -0.01367112249135971, -0.07072284072637558, -0.05532391741871834, 0.08265382051467896, 0.007097786758095026, -0.10368392616510391, 0.006070668343454599, -0.03339783847332001, -0.012178786098957062, -0.012888843193650246, 0.009475192055106163, 0.01578213833272457, 0.03584447130560875, -0.045349325984716415, -0.07505404204130173, 0.025360479950904846, -0.015580184757709503, 0.11927938461303711, 0.022556176409125328, -0.0586090087890625, -0.025982758030295372, 0.05645039305090904, -0.011729191057384014, -0.033467069268226624, -0.004585654940456152, 0.04290611669421196, -0.005049640778452158, 0.06850438565015793, 0.06878422945737839, -0.09471210837364197, -0.010126924142241478, -0.009524645283818245, 0.1454647034406662, -0.06197337061166763, -0.019562220200896263, -0.021976133808493614, 0.05061900615692139, 0.00557322334498167, -0.067915178835392, -0.025350604206323624, 0.03289793059229851, -0.02798338606953621, 0.004188945051282644, -0.021571213379502296, 0.00016841669275891036, 0.016791919246315956, 0.019424064084887505, -0.017214909195899963, 0.06291680783033371, -0.008092576637864113, -0.06478528678417206, 0.02531014382839203, 0.01622958853840828, 0.005461429711431265, 0.0754755288362503, -0.022009514272212982], [-0.06307027488946915, -0.11205442249774933, -0.009387057274580002, -0.016592789441347122, -0.020780382677912712, 0.054780811071395874, -0.04732401296496391, -0.015981117263436317, 0.0321267694234848, -0.007884732447564602, -0.03086788021028042, -0.02149518020451069, 0.025264183059334755, 0.07051926106214523, -0.037432823330163956, -0.06601532548666, -0.05276775360107422, -0.03624839708209038, -0.08096902817487717, -0.050254981964826584, -0.02922278642654419, 0.09763085097074509, -0.018879791721701622, 0.0554390624165535, -0.06782736629247665, -0.030937140807509422, 0.010718806646764278, 0.024215098470449448, -0.01808718405663967, -0.05166313797235489, 0.03769910708069801, 0.05676199868321419, -0.05867154151201248, -0.09095607697963715, -0.039420269429683685, -0.06590350717306137, -0.019761648029088974, -0.09008770436048508, -0.021916456520557404, 0.060762178152799606, -0.12912343442440033, 0.08002152293920517, 0.06837861239910126, -0.032966259866952896, 0.012861998751759529, -0.052527111023664474, -0.04803227260708809, 0.00932138692587614, 0.03914618119597435, -0.05048351362347603, -0.013167530298233032, 0.00848450418561697, -0.03822098299860954, 0.04852000251412392, 0.011367198079824448, 0.0919133797287941, -0.16154025495052338, 0.0285579152405262, -0.07884518057107925, 0.04663993790745735, -0.0662810355424881, -0.03124518133699894, -0.011575393378734589, 0.03469180688261986], [-0.0031405806075781584, 0.03001033142209053, -0.029930977150797844, -0.09311816096305847, 0.026483654975891113, 0.018343722447752953, 0.0839758962392807, -0.03128113970160484, -0.05427272245287895, 0.05797929689288139, -0.07456651329994202, -0.0014407746493816376, -0.04208207130432129, 0.037860460579395294, -0.0546223409473896, 0.028133800253272057, 0.06628905236721039, 0.027883609756827354, 0.07018942385911942, -0.04131942614912987, -0.03317518159747124, 0.0709998682141304, 0.049457743763923645, 0.017163662239909172, 0.04699375852942467, 0.01803133822977543, 0.05229669436812401, 0.011524450965225697, -0.06739359349012375, -0.11513066291809082, -0.0112986508756876, 0.014340353198349476, -0.04230538383126259, -0.09852819889783859, -0.04658116027712822, 0.023475682362914085, -0.008772769942879677, 0.04732569307088852, -0.02840522490441799, 0.012875816784799099, -0.019983505830168724, -0.10700905323028564, 0.034167900681495667, -0.005340235773473978, 0.014574544504284859, -0.05560934171080589, -0.03402574732899666, 0.0579526424407959, -0.014970703981816769, -0.06482674926519394, -0.0030343669932335615, 0.0985933318734169, 0.009690244682133198, -0.04145800322294235, 0.011253340169787407, -0.018323756754398346, 0.014023405499756336, 0.04801514744758606, 0.005494482349604368, -0.07545757293701172, -0.11209019273519516, -0.009633864276111126, 0.010199923068284988, -0.02705858089029789], [-0.061644066125154495, 0.04106907546520233, 0.06834176927804947, 0.04613408073782921, 0.03760017454624176, 0.05352499708533287, -0.032657112926244736, -0.04816170781850815, 0.03914494439959526, 0.007591779809445143, -0.04925227910280228, -0.07975906133651733, -0.015715844929218292, -0.034549444913864136, 0.02422174997627735, 0.014414377510547638, -0.08590999990701675, 0.006426288280636072, -0.037035971879959106, 0.0966866984963417, -0.04002542421221733, 0.025057334452867508, -0.058088283985853195, 0.04990869387984276, 0.027661805972456932, 0.0009139177273027599, -0.07894604653120041, 0.04189717397093773, 0.041561778634786606, -0.019949762150645256, -0.0017138993134722114, -0.003416946856305003, -0.010794168338179588, -0.07820429652929306, -0.04134015366435051, 0.004174656700342894, -0.05065538361668587, -0.017978200688958168, 0.05055464059114456, -0.0026159908156841993, -0.013834740035235882, 0.07409214228391647, 0.10138916969299316, 0.07969625294208527, -0.04737531393766403, -0.020506354048848152, 0.12969422340393066, -0.0008125187014229596, 0.06233919784426689, 0.020061032846570015, -0.09437575191259384, 0.0006971734692342579, 0.09417073428630829, 0.05603262782096863, -0.03160108998417854, 0.03367435559630394, 0.012572811916470528, -0.013538180850446224, 0.031160978600382805, 0.03177323937416077, -0.013546674512326717, -0.028584523126482964, 0.027793362736701965, -0.003704303177073598], [-0.042916856706142426, 0.024323901161551476, 0.024766655638813972, -0.016387449577450752, -0.012937270104885101, -0.051493462175130844, -0.010079868137836456, -0.058737754821777344, -0.0438886359333992, 0.001960873370990157, 0.057021498680114746, -0.06146315485239029, 0.0556136853992939, -0.07001089304685593, -0.01410708762705326, 0.020717620849609375, 0.03720932826399803, -0.09273331612348557, 0.03399954363703728, -0.004180505406111479, -0.039336059242486954, -0.022559931501746178, -0.022119516506791115, -0.007527465466409922, -0.07937856018543243, 0.014638788998126984, -0.007156893145292997, 0.02504689060151577, 0.03574137017130852, -0.10152062028646469, -0.011089290492236614, 0.009938610717654228, 0.06843988597393036, -0.02114741876721382, -0.014340217225253582, -0.042442046105861664, -0.09625246375799179, 0.02484067901968956, -0.04761293902993202, -0.03706616163253784, 0.0024819071404635906, 0.03504246845841408, -0.0012655361788347363, -0.024576645344495773, 0.020657334476709366, -0.053264785557985306, 0.013985405676066875, -0.011032662354409695, -0.01383859571069479, -0.00023562142450828105, -0.017924921587109566, 0.011491439305245876, -0.07769185304641724, 0.035880252718925476, -0.017513899132609367, -0.09675099700689316, -0.00719510018825531, -0.007487246301025152, -0.08859702944755554, -0.025331834331154823, -0.04416549205780029, -0.018412651494145393, 0.0013577367644757032, -0.0026467570569366217], [0.013981135562062263, -0.02317929081618786, -0.04596100375056267, -0.025660080835223198, -0.0988372266292572, 0.018595917150378227, -0.014874580316245556, 0.027241626754403114, 0.023010237142443657, 0.05568063259124756, -0.00041303152102045715, -0.06269174069166183, -0.04145902022719383, -0.021270660683512688, 0.03557310998439789, 0.03179940581321716, 0.05222051218152046, 0.08527933806180954, -0.00553886080160737, 0.04429377242922783, 0.00566260376945138, 0.02403438650071621, 0.015668274834752083, 0.01704310066998005, 0.033342257142066956, -0.03962884098291397, -0.0879586860537529, -0.02587023749947548, -0.033307675272226334, 0.008980382233858109, 0.06382835656404495, 0.0891568660736084, -0.06354295462369919, -0.01573769934475422, -0.011870660819113255, -0.025799352675676346, 0.007881569676101208, 0.03351297974586487, 0.1106024757027626, -0.10216968506574631, -0.03565511852502823, -0.038339730352163315, 0.04590384289622307, 0.07134556025266647, -0.05128353834152222, 0.03413575887680054, -0.04032371938228607, -0.025019317865371704, -0.10846342146396637, 0.01698356121778488, -0.0948018953204155, -0.0038048401474952698, 0.018680712208151817, 0.03318425267934799, -0.009803450666368008, -0.08701743930578232, -0.011177093721926212, -0.0011074468493461609, 0.026002148166298866, -0.027859020978212357, 0.04349462315440178, -0.060976333916187286, 0.0023192709777504206, -0.022078005596995354], [0.058134157210588455, 0.04678703099489212, -0.0495179258286953, -0.05731436610221863, 0.0005011911271139979, -0.07389720529317856, -0.008072652854025364, -0.0852465108036995, -0.06460445374250412, -0.052633512765169144, 0.013078971765935421, 0.040110837668180466, -0.045856498181819916, -0.04123703017830849, 0.0017859175568446517, 0.01739952340722084, -0.03565332666039467, 0.040005072951316833, 0.02830788865685463, -0.08599486947059631, 0.0020015030167996883, 0.04301272705197334, -0.045483727008104324, -0.014251838438212872, -0.04144389554858208, -0.048168282955884933, 0.14958779513835907, -0.04479570314288139, -0.017269602045416832, -0.015329256653785706, 8.915687067201361e-05, 0.031210238113999367, -0.10952349007129669, -0.015592793002724648, 0.05144684389233589, 0.005916532129049301, -0.017285695299506187, -0.02068386785686016, 0.03492847457528114, 7.185939466580749e-05, -0.00412024836987257, 0.1117454394698143, 0.05605359002947807, 0.04217911884188652, 0.06253315508365631, -0.0981636568903923, -0.012360023334622383, -0.041849177330732346, 0.012010793201625347, -0.007824675180017948, -0.0403725765645504, -0.04333018884062767, 0.007840222679078579, 0.06304392963647842, -0.0004488574049901217, -0.011495913378894329, 0.044502850621938705, 0.03635961934924126, 0.007879285141825676, 0.05284205824136734, 0.13900254666805267, 0.013625236228108406, -0.07735976576805115, -0.003566851606592536], [0.06474284082651138, -0.011782005429267883, -0.05327028036117554, -0.022648094221949577, 0.04095086827874184, 0.09396300464868546, 0.01379629410803318, -0.05115213990211487, -0.019563375040888786, 0.011036793701350689, 0.027021288871765137, -0.05958985164761543, -0.027805358171463013, 0.022180186584591866, 0.03968209773302078, 0.09764756262302399, 0.022738711908459663, 0.06629163026809692, -0.07394254952669144, -0.0050854766741395, 0.009085825644433498, 0.1058887168765068, -0.05220022797584534, -0.039323627948760986, -0.012363496236503124, 0.008194970898330212, 0.043560877442359924, -0.0741797685623169, -0.049127593636512756, -0.04928837716579437, 0.0018423835281282663, -0.06829949468374252, -0.08485642075538635, 0.09194701164960861, 0.06156330183148384, -0.04758632928133011, 0.08269750326871872, 0.03847933188080788, 0.12216129153966904, -0.07662709802389145, 0.022262459620833397, 0.013439466245472431, -0.02555343508720398, -0.0019485410302877426, 0.0575760118663311, -0.0073202610947191715, -0.06424512714147568, -0.004848288372159004, 0.041219886392354965, -0.02794225886464119, -0.05931995436549187, -0.0744568482041359, 0.005879489239305258, 0.005235303193330765, -0.0111151784658432, 0.08796238154172897, -0.02022290974855423, 0.041733887046575546, 0.14635810256004333, -0.007853278890252113, 0.017028717324137688, -0.027238303795456886, 0.039309777319431305, 0.010028022341430187], [-0.012378307059407234, -0.025371495634317398, -0.04215042293071747, 0.009496205486357212, 0.01763005740940571, 0.013494049198925495, -0.02303369715809822, -0.09142303466796875, -0.005359060131013393, 0.036856796592473984, -0.009373640641570091, 0.02127031795680523, 0.03551001846790314, -0.03169073164463043, 0.011020727455615997, 0.07506079971790314, -0.029111549258232117, -0.009624467231333256, -0.1044403463602066, -0.005269584245979786, 0.003934692125767469, -0.033704791218042374, 0.03257368132472038, -0.011417804285883904, 0.038245078176259995, 0.04948212206363678, 0.0446627251803875, -0.07775800675153732, -0.020656602457165718, 0.07048270106315613, 0.029284758493304253, 0.00839155912399292, 0.10528921335935593, 0.021386578679084778, -0.0647522509098053, 0.03496357426047325, -0.03459998592734337, -0.012033491395413876, -0.033570654690265656, 0.009105324745178223, 0.034807655960321426, -0.0497932992875576, -0.04075450822710991, -0.11614133417606354, 0.016468405723571777, 0.0013344655744731426, -0.10190198570489883, 0.014426830224692822, -0.025110861286520958, 0.009934927336871624, -0.10764864832162857, -0.01847149059176445, -0.027724718675017357, -0.016499362885951996, 0.022171085700392723, -0.0791691392660141, -0.002030212664976716, -0.0015719149960204959, 0.01390838623046875, 0.028758659958839417, -0.025565622374415398, 0.025535965338349342, 0.050495442003011703, 0.004923440981656313], [0.10467550903558731, 0.05724913999438286, -0.02698684111237526, -0.015320916660130024, -0.0008070874027907848, 0.02453511953353882, 0.0799795463681221, 0.013443589210510254, -0.03152523562312126, 0.01698972098529339, 0.04360923543572426, -0.09364201128482819, 0.049209244549274445, -0.07072677463293076, 0.04533033072948456, 0.01830688863992691, 0.04355373606085777, -0.03214194253087044, -0.03145430609583855, 0.048786550760269165, -0.043159257620573044, -0.15858954191207886, 0.032055482268333435, -0.08717767149209976, 0.02066674828529358, -0.007758729159832001, -0.07645656913518906, -0.044285908341407776, 0.06579219549894333, -0.03808305040001869, 0.08983369916677475, 0.04597615823149681, -0.028322095051407814, -0.011935312300920486, -0.03652611002326012, 0.035496652126312256, 0.012706413865089417, -0.028321681544184685, 0.03866813704371452, -0.14086605608463287, -0.03080357424914837, -8.636366692371666e-05, 0.0783003643155098, -0.01612299680709839, 0.011437556706368923, 0.07023932039737701, -0.01023179106414318, -0.0008594989194534719, -0.029270395636558533, 0.1249895691871643, 0.06113136559724808, -0.08525648713111877, 0.02732338383793831, -0.02573489025235176, 0.04464259371161461, 0.02734055556356907, -0.02976294420659542, 0.0612865574657917, -0.04446961358189583, -0.010761759243905544, -0.06416260451078415, 0.11341073364019394, 0.03181881830096245, -0.005205327179282904], [-0.07874437421560287, -0.11201969534158707, -0.06789156049489975, 0.036591943353414536, 0.0384758897125721, 0.08707576245069504, -0.04205764830112457, -0.04493594914674759, 0.040243711322546005, -0.04741673544049263, 0.034708764404058456, 0.046339768916368484, 0.011127471923828125, 0.054894085973501205, -0.017360297963023186, 0.05005958303809166, 0.02566397190093994, 0.00526031106710434, 0.03851884976029396, -0.0010334792314097285, -0.04665210843086243, 0.05842398479580879, 0.020922325551509857, -0.06383232772350311, -0.012459221296012402, -0.041878409683704376, 0.04545772448182106, 0.027292892336845398, -0.0666201189160347, 0.041028764098882675, 0.09459615498781204, 0.00669658649712801, 0.04757796227931976, -0.04655628651380539, -0.011808381415903568, 0.02708613872528076, 0.060502082109451294, -0.04556865617632866, -0.021633891388773918, 0.042165737599134445, 0.029928211122751236, 0.061033524572849274, 0.04125196114182472, 0.032279688864946365, -0.06681089103221893, -0.0636024922132492, -0.04811632260680199, 0.05652398616075516, 0.07054334133863449, 0.0218441691249609, -0.05594630911946297, -0.04805149883031845, 0.0022915254812687635, -0.053244199603796005, -0.007019235286861658, -0.037314701825380325, -0.018477516248822212, -0.0672682672739029, 0.02298068255186081, -0.04332935810089111, -0.008747800253331661, -0.019579822197556496, -0.02939257025718689, -0.0026945790741592646], [-0.09876646846532822, 0.019571831449866295, -0.056102391332387924, 0.11051250994205475, 0.10004996508359909, 0.09877227991819382, -0.012064394541084766, -0.08122674375772476, -0.07496137917041779, 0.03648756444454193, -0.06205171346664429, 0.043605461716651917, 0.030935779213905334, 0.05058225989341736, 0.02858506701886654, 0.011627144180238247, -0.06709422171115875, 0.08369632810354233, -0.04082448035478592, -0.013326209969818592, -0.036542072892189026, 0.07018936425447464, 0.025091717019677162, -0.02794739045202732, 0.008660929277539253, 0.020233778282999992, 0.04299485310912132, -0.10773580521345139, -0.08917073905467987, -0.01016461756080389, 0.0654144138097763, -0.010522140190005302, -0.030116165056824684, -0.02990584634244442, 0.013559955172240734, 0.016720740124583244, -0.015252885408699512, -0.02137300930917263, -0.012892811559140682, 0.10733947902917862, 0.034167636185884476, -0.04284629970788956, 0.052731096744537354, 0.07212682068347931, -0.007058733608573675, -0.015622477047145367, 0.024087999016046524, -0.10013605654239655, -0.0298145841807127, -0.002855735830962658, -0.0671301782131195, 0.009116853587329388, 0.019495930522680283, 0.03321566805243492, 0.05463865399360657, -0.03043046034872532, -0.046524886041879654, -0.023201165720820427, -0.03291196748614311, -0.03012254647910595, -0.0690002292394638, 0.06618601828813553, 0.007483223918825388, 0.020083384588360786], [0.01614067144691944, 0.06638232618570328, -0.04646679386496544, 0.021429436281323433, -0.060956817120313644, 0.00110255042091012, -0.016926849260926247, 0.009977673180401325, 0.0666106715798378, 0.01678263209760189, 0.0934070274233818, -0.017271993681788445, 0.009574699215590954, -0.0007631395710632205, 0.05537896975874901, -0.003094699699431658, 0.03696214780211449, 0.011604208499193192, 0.05184636637568474, -0.02718934416770935, -0.005197302903980017, 0.06719399988651276, 0.040031395852565765, 0.011028917506337166, 0.0605732686817646, -0.01173147652298212, -0.036622848361730576, 0.02497890777885914, 0.0499085895717144, 0.04202215000987053, 0.014195792376995087, -0.07381661236286163, -0.03241897374391556, 0.03481224551796913, 0.019018422812223434, 0.000753610918764025, -0.0831385925412178, -0.03590887412428856, 0.054890990257263184, 0.04659701883792877, -0.05228785425424576, 0.019338948652148247, -0.046694718301296234, 0.0010070890421047807, 0.014831388369202614, -0.009609396569430828, -0.02037087269127369, 0.024396250024437904, 0.018480578437447548, 0.055075753480196, -0.04960310086607933, 0.005624409299343824, -0.03890122100710869, -0.005143627058714628, 0.10677528381347656, 0.039708007127046585, 0.01975809782743454, -0.05644790083169937, 0.05491502210497856, 0.024827463552355766, -0.021137358620762825, -0.037331756204366684, 0.022309407591819763, -0.1083977222442627], [0.03506270423531532, 0.010338596068322659, -0.0430130660533905, -0.08783859014511108, 0.0708814486861229, 0.04130265489220619, 0.0005429693846963346, -0.036666374653577805, -0.03104844130575657, 0.005876991432160139, -0.02371000126004219, 0.04668078199028969, 0.05797052010893822, 0.003085332689806819, 0.02782050333917141, -0.04052845761179924, -0.02454371564090252, 0.035907622426748276, -0.04242198169231415, 0.042267099022865295, 0.004483739845454693, -0.046671003103256226, 0.035115715116262436, 0.04512156918644905, 0.029476270079612732, -0.04605953022837639, -0.03063841722905636, -0.01317599881440401, 0.01579154096543789, 0.10195000469684601, 0.010844438336789608, -0.02428431063890457, 0.03676662966609001, -0.0261634923517704, -0.055393364280462265, -0.012472299858927727, 0.020068569108843803, -0.03681163489818573, 0.0982435867190361, -0.08094712346792221, -0.006261490285396576, -0.04182038456201553, 0.007780347019433975, 0.03890162333846092, 0.028963064774870872, 0.07462024688720703, -0.027197912335395813, -0.043003663420677185, -0.017261255532503128, -0.00922483205795288, -0.011942188255488873, 0.013984741643071175, -0.03322841599583626, 0.010621633380651474, 0.04886559396982193, -0.04535245895385742, -0.015368244610726833, -0.008259914815425873, 0.001896900124847889, -0.034171830862760544, 0.03118017688393593, -0.0408148318529129, -0.043842192739248276, -0.05118734762072563], [-0.0361177921295166, 0.11072131246328354, 0.051879435777664185, 0.005275706760585308, 0.003880442352965474, 0.07461187988519669, -0.01836121268570423, -0.015828002244234085, -0.016444232314825058, 0.05091860890388489, 0.004499613773077726, -0.04698929935693741, 0.02584841661155224, -0.07380285859107971, 0.060049135237932205, -0.004238779656589031, 0.12731055915355682, -0.010335988365113735, -0.031070712953805923, -0.05670299008488655, 0.017061052843928337, -0.014703548513352871, -0.060821712017059326, 0.013811284676194191, -0.014612910337746143, 0.019556816667318344, -0.007147768046706915, 0.08500275015830994, 0.021182557567954063, -0.0776006430387497, 0.03290442004799843, -0.058459874242544174, 0.015064981766045094, -0.0401337556540966, 0.04667546972632408, 0.06229936704039574, 0.14535745978355408, 0.0463433712720871, -0.021171050146222115, 0.01736900582909584, 0.00423859991133213, -0.04673834890127182, 0.013614182360470295, -0.04270600900053978, -0.04549131914973259, -0.03516770899295807, 0.05550363287329674, 0.0392761267721653, -0.03190816938877106, -0.007104117423295975, 0.023385388776659966, 0.0057421098463237286, -0.028187019750475883, 0.049047451466321945, -0.007586881052702665, -0.03437472879886627, -0.113308385014534, -0.06460782885551453, -0.05103030428290367, 0.028725599870085716, 0.027082419022917747, 0.08912544697523117, -0.02870907448232174, 0.046978678554296494], [0.045838676393032074, -0.01636490225791931, -0.01202272530645132, -0.09466331452131271, -0.04626062884926796, 0.03872164711356163, 0.05856211110949516, -0.012454248033463955, -0.06579281389713287, -0.09179530292749405, 0.030769426375627518, 0.054213959723711014, 0.010292010381817818, -0.055108923465013504, -0.05410326272249222, -0.023031147196888924, 0.059505682438611984, -0.0005460493266582489, -0.021999401971697807, -0.046547628939151764, 0.004142081830650568, -0.034483086317777634, -0.06543367356061935, 0.03089923970401287, -0.0062189120799303055, -0.027736088261008263, 0.027462908998131752, -0.015048893168568611, 0.07168368250131607, 0.03692210093140602, -0.04828087240457535, 0.011730129830539227, -0.025645658373832703, -0.07197185605764389, -0.03390832245349884, -0.019469084218144417, -0.018001863732933998, -0.0292979683727026, -0.0014958444517105818, -0.036861296743154526, -0.045612167567014694, 0.0146214310079813, 0.05125284940004349, 0.10217159986495972, 0.028416648507118225, -0.1185174211859703, -0.08469755202531815, 0.04063868150115013, -0.10593932121992111, 0.021103275939822197, -0.13586239516735077, 0.038852058351039886, -0.023241529241204262, 0.04247476905584335, -0.05633416399359703, 0.007790796458721161, 0.03274276852607727, 0.001886737416498363, 0.002497993176802993, 0.061067648231983185, 0.08490331470966339, 0.04534323513507843, -0.07257777452468872, -0.05732528120279312], [0.01387791521847248, 0.09297068417072296, 0.01595884934067726, 0.025508349761366844, 0.016300346702337265, 0.10109782218933105, -0.013163747265934944, 0.012806211598217487, -0.0473928265273571, -0.01404587458819151, 0.01821204088628292, -0.010756190866231918, 0.006157476920634508, -0.0319615863263607, 0.010706432163715363, 0.04213029518723488, 0.0024394753854721785, 0.0710928663611412, -0.04028424620628357, -0.03002564050257206, -0.02644328586757183, -0.05636350065469742, -0.04106610268354416, 0.026791194453835487, -0.04885412007570267, -0.024682193994522095, 0.0014038991648703814, 0.02494773082435131, 0.10068926960229874, 0.053160231560468674, 0.008754349313676357, 0.06932356208562851, 0.04966900497674942, 0.03595583885908127, -0.04271525517106056, 0.03338540717959404, 0.0856010764837265, 0.02801511250436306, -0.008184965699911118, 0.02571253292262554, 0.06926410645246506, 0.03530355915427208, 0.03783943131566048, 0.020104458555579185, -0.02846059575676918, -0.023186160251498222, -0.05818061903119087, -0.04721454158425331, 0.018565254285931587, -0.0029674002435058355, -0.04025610163807869, 0.04038967564702034, -0.06873589754104614, 0.023038795217871666, 0.048837434500455856, -0.01877586916089058, 0.09654351323843002, -0.035804953426122665, 0.015147780068218708, 0.006062651053071022, 0.1004839688539505, 0.038527410477399826, -0.01006131898611784, 0.05402831360697746], [-0.054767906665802, 0.07324585318565369, 0.09702349454164505, -0.005950246471911669, 0.01691126450896263, 0.09026338905096054, 0.02677733264863491, 0.025311395525932312, -0.09038429707288742, 0.13781525194644928, -0.007376339286565781, 0.032208602875471115, -0.011130327358841896, 0.08457265794277191, 0.0498911514878273, 0.0536818765103817, 0.0584874227643013, 0.004489443264901638, -0.04227330908179283, -0.022273702546954155, 0.002753811189904809, 0.039143215864896774, 0.001265965634956956, 0.000725842488463968, 0.013472299091517925, -0.04560156166553497, 0.1361171454191208, 0.12705481052398682, -0.024790866300463676, 0.0582001768052578, 0.05317625403404236, -0.012092209421098232, 0.06194853410124779, 0.04395482316613197, 0.021966328844428062, 0.08116835355758667, 0.009599494747817516, -0.008106141351163387, -0.01447382289916277, -0.06705604493618011, 0.05173536017537117, -0.011955092661082745, -0.045385949313640594, 0.07616806775331497, 0.04826192557811737, -0.036430954933166504, 0.04714007303118706, -0.06984026730060577, 0.027808910235762596, -0.013322107493877411, -0.02504679560661316, -0.12159774452447891, -0.0487794354557991, 0.07430814951658249, 0.010429609566926956, -0.019506026059389114, -0.015731539577245712, -0.020730135962367058, -0.01635771058499813, 0.0010526557452976704, -0.032161206007003784, -0.044570039957761765, -0.04843021556735039, -0.020769959315657616], [-0.02355130761861801, -0.0010718549601733685, 0.007363851647824049, 0.02347835712134838, -0.023111088201403618, 0.06558101624250412, 0.013719387352466583, 0.036755796521902084, -0.02872948721051216, 0.014406566508114338, -0.005169990006834269, -0.048940423876047134, 0.01895173452794552, -0.01552050281316042, -0.053245909512043, 0.05803152918815613, 0.01808941178023815, -0.05034869909286499, 0.01054653711616993, -0.06103281304240227, -4.9397269322071224e-05, -0.060951706022024155, -0.032424625009298325, -0.06085137277841568, -0.13928040862083435, -0.029741380363702774, -0.00675965053960681, -0.0597066693007946, 0.00662590516731143, 0.03515763208270073, -0.0684516504406929, 0.05735808238387108, 0.019059164449572563, 0.06940537691116333, -0.045271214097738266, -0.07360558956861496, -0.00793811958283186, 0.12275493144989014, 0.028896166011691093, 0.013037002645432949, -0.04263528436422348, -0.005201947875320911, 0.03430856391787529, -0.0788605585694313, -0.02859080396592617, 0.008852378465235233, -0.06938387453556061, -0.04472481831908226, -0.006834269966930151, -0.05765962228178978, 0.04113496467471123, -0.020339610055088997, -0.08742578327655792, -0.043956246227025986, -0.021582987159490585, 0.060204993933439255, -0.005977364722639322, -0.040801744908094406, 0.03577138110995293, -0.032768912613391876, -0.013081659562885761, 0.013015403412282467, 0.059684764593839645, 0.002469828585162759], [0.01467424351722002, -0.03433084115386009, -0.012320545502007008, 0.0033070375211536884, -0.005741543602198362, -0.04033292457461357, -0.005739561747759581, 0.003289233660325408, 0.08853580057621002, -0.04232015460729599, 0.0379156731069088, -0.003684359136968851, -0.07180704921483994, -0.11562424898147583, -0.08062468469142914, -0.017081670463085175, -0.030702555552124977, -0.002366472966969013, 0.03373328223824501, -0.016371628269553185, -0.031040150672197342, -0.1428704708814621, 0.08467939496040344, -0.07348620146512985, 0.07491995394229889, -0.025098789483308792, 0.005893135443329811, -5.706010779249482e-05, 0.0031359423883259296, 0.041543472558259964, -0.007512357085943222, 0.014752998016774654, 0.030947966501116753, -0.0696479082107544, -0.060270585119724274, -0.018315833061933517, 0.03930765390396118, -0.017601463943719864, 0.0734248012304306, 0.007580825127661228, -0.04614267870783806, 0.05438807234168053, 0.02212178334593773, 0.03617872670292854, 0.040183525532484055, -0.02776213362812996, -0.03762723132967949, -0.03592267259955406, 0.025391101837158203, 0.05356351658701897, -0.04794500395655632, -0.019440820440649986, -0.06387963145971298, 0.016541030257940292, -0.006234976928681135, 0.004880604799836874, 0.030696237459778786, 0.00810092594474554, -0.019220486283302307, 0.07731009274721146, 0.033374037593603134, -0.08303048461675644, 0.06907641887664795, -0.029838113114237785], [-0.03256897255778313, -0.007359621115028858, -0.060985416173934937, -0.030201682820916176, 0.002594615099951625, -0.0073838322423398495, 0.004833776503801346, 0.04078676924109459, -0.02624897100031376, 0.10494382679462433, 0.02898210845887661, 0.05286607891321182, 0.06610792875289917, 0.0356132946908474, 0.05027738958597183, -0.002279662759974599, -0.06344534456729889, -0.010872852988541126, -0.003997468855232, -0.04358885437250137, 0.004563949536532164, 0.060722168534994125, 0.025548001751303673, -0.04419010132551193, 0.006615877151489258, -0.017669355496764183, 0.06567157804965973, 0.05723663792014122, 0.0017440473893657327, -0.06273772567510605, -0.07386138290166855, 0.038781169801950455, 0.07878759503364563, 0.013165540993213654, -0.09298724681138992, -0.1371784210205078, -0.06145709380507469, -0.0036967855412513018, -0.02481609396636486, 0.07410232722759247, -0.028489768505096436, -0.05375896766781807, -0.014958006329834461, 0.05580073595046997, -0.03145432099699974, 0.04847371578216553, -0.00686712795868516, -0.04139724373817444, 0.0073491609655320644, -0.06597448885440826, 0.03480213135480881, -0.03991575166583061, 0.055334340780973434, -0.0182317104190588, -0.010242889635264874, 0.05558116361498833, 0.021553047001361847, -0.022769801318645477, -0.022808218374848366, 0.04193113371729851, -0.028724897652864456, 0.010520151816308498, 0.0061799040995538235, -0.09907200187444687], [-0.003912531305104494, -0.017470266669988632, 0.008747817948460579, 0.011856993660330772, 0.013619953766465187, 0.09113925695419312, 0.06476601213216782, -0.012270588427782059, 0.012266410514712334, 0.004066581837832928, 0.04889846593141556, -0.028699591755867004, 0.011087588034570217, -0.035681214183568954, -0.03774327412247658, 0.024128952994942665, -0.06457077711820602, 0.04035654291510582, 0.0021590343676507473, -0.005179773550480604, -0.0592813566327095, 0.044986166059970856, 0.01106062438338995, 0.041072916239500046, -0.05313427001237869, 0.11059092730283737, 0.009373970329761505, -0.042030032724142075, 0.06601957231760025, 0.03736511617898941, -0.04650076851248741, 0.02550056017935276, 0.007503229659050703, -0.03301841393113136, -0.042718928307294846, -0.05312761291861534, -0.013560310006141663, -0.09039328992366791, 0.09100848436355591, 0.022067958489060402, -0.014660385437309742, -0.03397652134299278, -0.023635493591427803, -0.0046550496481359005, 0.057678669691085815, -0.03264129161834717, -0.0019339676946401596, 0.1425863355398178, 0.02919679880142212, 0.03233684226870537, 0.013987669721245766, -0.040909212082624435, 0.07749508321285248, -0.06135474517941475, 0.013563130982220173, -0.04305132478475571, -0.03349211439490318, -0.06398249417543411, 0.042057015001773834, -0.023616772145032883, -0.07530038058757782, -0.029976341873407364, 0.09744710475206375, 0.03585440665483475], [-0.07946667075157166, -0.007465552072972059, -0.01359628327190876, 0.0007122887764126062, 0.07016410678625107, 0.05865110829472542, -0.06054595857858658, 0.005427887663245201, 0.09662303328514099, -0.02891218475997448, -0.03296579048037529, -0.030922874808311462, 0.05497900769114494, -0.09223965555429459, 0.07654784619808197, -0.10965465754270554, 0.07132449746131897, 0.07708289474248886, 0.06824752688407898, -0.01924980618059635, 0.04191150888800621, 0.035892799496650696, 0.031139865517616272, -0.03352668508887291, -0.05833197385072708, 0.021627845242619514, -0.05991947278380394, 0.015500168316066265, 0.0473458394408226, -0.023737525567412376, 0.019257385283708572, -0.08297080546617508, 0.03356890380382538, -0.004960560239851475, 0.02871224842965603, -0.058747053146362305, -0.015360589139163494, 0.012729157693684101, 0.03787689656019211, -0.05005664750933647, -0.0006594992591999471, -0.07965066283941269, -0.002251943340525031, 0.0831766426563263, -0.04369094967842102, 0.035488445311784744, 0.12036216259002686, -0.008542184717953205, 0.00657133711501956, -0.07743638753890991, 0.052551962435245514, -0.03417353332042694, -0.07459985464811325, 0.0928732305765152, -0.028391141444444656, -0.004172559827566147, -0.033611055463552475, -0.042247336357831955, 0.06485334038734436, 0.05367831513285637, 0.036731984466314316, -0.06676068156957626, -0.03179846331477165, -0.07656734436750412], [0.0019293219083920121, -0.14726193249225616, -0.05902935191988945, -0.018906522542238235, 0.04764958843588829, -0.035775747150182724, 0.02550107054412365, -0.03518005833029747, 0.023629214614629745, -0.028267676010727882, 0.004434782546013594, -0.04966835677623749, 0.05696228891611099, 0.02615918032824993, 0.05088365077972412, -0.06588715314865112, -0.06610821932554245, 0.007875608280301094, -0.02827434055507183, 0.008038549683988094, -0.08311188220977783, 0.023189987987279892, -0.023269951343536377, 0.018481988459825516, -0.0006659014034084976, 0.08151567727327347, -0.029902398586273193, 0.057447027415037155, -0.08502499014139175, -0.048013847321271896, 0.014077729545533657, 0.011856562457978725, -0.08914875239133835, 0.025728870183229446, 0.07803796976804733, -0.00020550182671286166, 0.014244387857615948, -0.09470105916261673, 0.056869782507419586, 0.07231420278549194, -0.06741701811552048, -0.04009958729147911, 0.04123077914118767, -0.04413379728794098, 0.019820479676127434, 0.0187908336520195, -0.06521175056695938, 0.059758733958005905, -0.09169715642929077, 0.03472354635596275, 0.0016734810778871179, -0.04501688852906227, 0.08935122936964035, 0.02348826639354229, 0.013407115824520588, -0.08964374661445618, -0.04872230812907219, 0.008585344068706036, -0.0791424885392189, -0.11546739190816879, 0.022089645266532898, 0.0402534119784832, -0.012963883578777313, 0.03126586228609085], [-0.0670294389128685, -0.03523090109229088, -0.0143188601359725, -0.01539324875921011, -0.03714681789278984, -0.042064011096954346, -0.045190662145614624, 0.028879377990961075, -0.03335084393620491, -0.0657195895910263, 0.05149463564157486, -0.012522920966148376, -0.001702543580904603, 0.009648718871176243, 0.01184567715972662, 0.05664902552962303, -0.022049037739634514, 0.04444381222128868, -0.08394557237625122, -0.0322873517870903, -0.02979958988726139, -0.02208733931183815, 0.01329123880714178, 0.06524043530225754, -0.07843515276908875, 0.02666581980884075, 0.008958798833191395, 0.035617005079984665, 0.054228197783231735, 0.08887199312448502, 0.05309956148266792, -0.020099934190511703, -0.022547859698534012, -0.011446027085185051, 0.07945947349071503, -0.09475476294755936, 0.017726780846714973, -0.04364064708352089, -0.02147063985466957, -0.06713712215423584, 0.023325247690081596, -0.02457897551357746, 0.04049190506339073, -0.08695032447576523, 0.015562710352241993, 0.00948584359139204, -0.019497498869895935, -0.005037769675254822, 0.0310889333486557, -0.014288896694779396, -0.05354416370391846, 0.1469348818063736, 0.031796861439943314, -0.01858440414071083, 0.08108751475811005, -0.07099185883998871, -0.11836310476064682, 0.02679474651813507, -0.06110509857535362, -0.06870020925998688, 0.010067734867334366, -0.03475039824843407, -0.15126779675483704, -0.004028781782835722], [-0.11825428158044815, -0.03873338922858238, 0.04277869686484337, 0.1293264627456665, 0.003580323653295636, -0.040178511291742325, -0.03521326556801796, -0.040046922862529755, -0.056514590978622437, -0.026416007429361343, -0.02683081105351448, 0.02374274842441082, -0.07041838020086288, 0.031079767271876335, 0.030938977375626564, 0.003326139645650983, -0.06169874593615532, 0.11639442294836044, -0.046251993626356125, 0.01183451246470213, 0.01869632676243782, 0.025284910574555397, 0.0030915851239115, -0.006167663726955652, -0.0023705163039267063, 0.08070099353790283, -0.04561496898531914, -0.09510581940412521, -0.015403925441205502, -0.003323843004181981, -0.02069699577987194, -0.0358876995742321, 0.04609891399741173, -0.0361015610396862, 0.13525639474391937, 0.04179776459932327, 0.010307462885975838, 0.0070508248172700405, -0.03672873601317406, -0.04119804874062538, 0.027408776804804802, 0.06929170340299606, -0.07853452861309052, -0.03596315160393715, -0.02291078306734562, -0.06794486194849014, -0.0707867294549942, 0.02520507015287876, 0.02705516293644905, 0.023246610537171364, -0.01497645117342472, 0.03225954622030258, 0.037805765867233276, 0.019554954022169113, -0.001390336430631578, -0.059693843126297, -0.027405520901083946, -0.03154423460364342, -0.042527083307504654, 0.03819141536951065, 0.04519609361886978, -0.023692583665251732, 0.03360585868358612, 0.11444466561079025], [-0.027212876826524734, 0.014570263214409351, 0.08813925832509995, -0.003571117762476206, -0.021356604993343353, 0.026948440819978714, 0.12474452704191208, -0.027760416269302368, -0.001498255878686905, -0.03167251497507095, 0.06211794167757034, 0.038521163165569305, -0.05020340159535408, 0.03445739671587944, 0.014721862971782684, 0.06397619098424911, 0.031752411276102066, 0.13292467594146729, -0.035057175904512405, 0.05510041117668152, -0.06280644237995148, 0.08997397869825363, -0.008911246433854103, -0.037229981273412704, -0.012533800676465034, -0.023874860256910324, -0.025865355506539345, 0.059697628021240234, -0.04142812266945839, -0.0750502347946167, 0.03432931751012802, -0.07566803693771362, 0.05414316803216934, -0.0072420197539031506, -0.12377213686704636, 0.023060960695147514, 0.0035548813175410032, -0.019540663808584213, 0.040556591004133224, -0.07284801453351974, -0.028175009414553642, -0.12435127794742584, 0.008880299516022205, -0.07506725192070007, -0.0319654606282711, -0.03684081509709358, 0.016791297122836113, -0.008823683485388756, -0.02854086272418499, -1.1839819308079313e-05, -0.013443944044411182, -0.015568087808787823, -0.09284796565771103, -0.02047131210565567, 0.05022216960787773, 0.018701832741498947, 0.0403311550617218, -0.05997922644019127, 0.11474417895078659, 0.10429426282644272, -0.006434454116970301, -0.01928616873919964, 0.00520896865054965, 0.01704729162156582], [-0.05811776593327522, 0.050695206969976425, -0.020575253292918205, -0.04903900623321533, -0.024973437190055847, -0.00673791253939271, -0.011367793194949627, 0.03649917617440224, -0.07186625897884369, 0.03935734182596207, -0.05675520375370979, 0.02823263220489025, 0.013254641555249691, -0.014819331467151642, -0.0006000988068990409, 0.07017475366592407, -0.05556686595082283, 0.029588086530566216, -0.005274828057736158, 0.05182893946766853, -0.07297410070896149, -0.01424061693251133, 0.061229925602674484, 0.1735658496618271, 0.05801151320338249, 0.013422506861388683, -0.05743788555264473, -0.012455621734261513, -0.043871618807315826, 0.04453494772315025, 0.0314384363591671, 0.013717015273869038, -0.07659661024808884, -0.027815138921141624, -0.006734441500157118, 0.02946469560265541, 0.01856147311627865, -0.04294848442077637, -0.05768311023712158, 0.025828322395682335, -0.0013458029134199023, -0.003806058317422867, 0.015903303399682045, 0.039978671818971634, 0.06612446159124374, 0.0022705537267029285, -0.04191819578409195, -0.006294704973697662, 0.010747075080871582, 0.004898469895124435, -0.022328007966279984, 0.01482979953289032, 0.03308236598968506, 0.05119968578219414, -0.03949889913201332, -0.10540914535522461, -0.06890938431024551, -0.05557434633374214, -0.051597028970718384, -0.060188449919223785, -0.07842222601175308, 0.011407336220145226, 0.013615096919238567, -0.010836522094905376], [-0.054662059992551804, -0.05402199178934097, 0.003347326535731554, -0.0018274097237735987, -0.026003701612353325, 0.07844968885183334, -0.02478812448680401, -0.011550509370863438, -0.012982258573174477, -0.06386711448431015, 0.009563826955854893, -0.023729894310235977, -0.026985788717865944, 0.007064464967697859, -0.013386410661041737, -0.11494282633066177, -0.01140590663999319, 0.0692465603351593, 0.010082202963531017, 0.004163321107625961, -0.017848631367087364, -0.01825985498726368, -0.02475328929722309, -0.014029513113200665, -0.002700402168557048, 0.035729676485061646, 0.034639324992895126, -0.03209909424185753, 0.06599848717451096, -0.00812632404267788, -0.003663059091195464, 0.015906577929854393, -0.05117027088999748, 0.05192697048187256, 0.025137299671769142, 0.05953255295753479, 0.04881121963262558, -0.009871155023574829, -0.10525798797607422, 0.03876326605677605, 0.034042228013277054, -0.008326205424964428, -0.004259367939084768, -0.03804461285471916, 0.0026907429564744234, -0.03975501284003258, 0.00840380322188139, 0.019603397697210312, 0.03202400729060173, -0.03783898428082466, -0.09971361607313156, -0.028768464922904968, -0.0273752361536026, 0.03157179802656174, -0.10432680696249008, 0.023688726127147675, 0.04745185747742653, 0.03074321150779724, -0.025445882230997086, 0.08191785216331482, 0.09954927116632462, -0.011639771051704884, 0.038763388991355896, 0.029186276718974113], [-0.0127061503008008, -0.040301188826560974, -0.01892375946044922, 0.0035920569207519293, 0.013147649355232716, 0.005279600154608488, -0.01324587780982256, -0.011913945898413658, -0.02807803265750408, 0.06417127698659897, 0.017603248357772827, -0.012257855385541916, -0.015023467130959034, -0.17072466015815735, -0.05508311465382576, -0.05444147065281868, 0.07697387784719467, 0.06490644067525864, -0.029998743906617165, -0.02976611815392971, -0.006173303350806236, -0.015697522088885307, 0.007397525943815708, -0.023225074633955956, -0.006308017764240503, -0.04369230940937996, -0.04680253192782402, 0.023541918024420738, -0.0425674207508564, -0.03310493379831314, 0.02214079350233078, -0.0190579853951931, 0.0707114189863205, 0.028031794354319572, -0.0275336392223835, -0.07475263625383377, 0.0012356614461168647, -0.026689797639846802, -0.12656353414058685, -0.01345971692353487, 0.06738631427288055, 0.04025848209857941, -0.036355018615722656, -0.03901790454983711, -0.06065666675567627, -0.01764610968530178, -0.038171958178281784, 0.06778383255004883, -0.05879981443285942, -0.00954501610249281, -0.04690805822610855, -0.001585075631737709, 0.05581376701593399, -0.04796406254172325, -0.02612742781639099, -0.008817533031105995, -0.04333217442035675, 0.01902247965335846, -0.049868520349264145, 0.00013780056906398386, -0.006465588696300983, -0.07048812508583069, -0.035203151404857635, -0.025133982300758362], [0.007897411473095417, 0.0342603474855423, -0.013891412876546383, -0.032601725310087204, 0.1072712317109108, 0.0573771670460701, -0.039712220430374146, -0.08943971991539001, -0.1370755136013031, 0.042413387447595596, -0.07853727787733078, 0.01763851009309292, -0.0342915803194046, 0.057960301637649536, 0.037504296749830246, 0.002337751444429159, 0.08750998228788376, -0.05708945915102959, -0.04793243110179901, 0.02720373310148716, 0.022943561896681786, 0.04599244147539139, -0.039213936775922775, 0.023869307711720467, -0.02905472181737423, 0.13535048067569733, 0.049143191426992416, 0.030490217730402946, 0.04056830331683159, 0.038948725908994675, 0.07598502188920975, -0.013186069205403328, -0.02531823329627514, 0.035531941801309586, 0.05491737648844719, -0.04669393226504326, 0.015746843069791794, 0.06309044361114502, -0.04114231839776039, -0.04385782778263092, -0.02662975899875164, -0.030619371682405472, 0.06691063940525055, 0.01666465401649475, 0.06802573055028915, -0.04254346713423729, 0.061782676726579666, -0.09297394007444382, -0.017091061919927597, 0.07804928719997406, 0.0011019919766113162, -0.012304631993174553, 0.022774776443839073, -0.008851051330566406, 0.060869552195072174, -0.009415040723979473, 0.027965260669589043, -0.10326768457889557, 0.05949346348643303, -0.008483494631946087, 0.0587436817586422, 0.04898985102772713, 0.07336262613534927, -0.026016471907496452], [-0.0379105769097805, -0.005252906586974859, -0.0027385500725358725, 0.06002693250775337, 0.08126677572727203, 0.0807715579867363, 0.024531124159693718, -0.03637406975030899, 0.08970579504966736, -0.03367943316698074, 0.11408447474241257, 0.0044532595202326775, 0.013286399655044079, 0.022399863228201866, 0.0628778263926506, -0.08071418851613998, 0.06202102452516556, -0.07099033147096634, 0.09315382689237595, 0.015886900946497917, -0.022382380440831184, -0.010012703016400337, 0.08502614498138428, 0.011563961394131184, 0.03339783474802971, -0.006946679204702377, 0.06975026428699493, 0.014485928229987621, 0.0023541131522506475, 0.014603666961193085, 0.013412266969680786, 0.04999317228794098, -0.022389931604266167, 0.048297688364982605, 0.010490339249372482, -0.07356973737478256, -0.07096932083368301, 0.02413628250360489, 0.059537794440984726, 0.04488000273704529, -0.027893424034118652, 0.00539616122841835, -0.053282540291547775, -0.03358002379536629, -0.05817762017250061, -0.03776092082262039, 0.0009107828955166042, 0.0007720115827396512, -0.06697220355272293, -0.04151477292180061, -0.05638192221522331, -0.009853639639914036, 0.016172410920262337, -0.08390732109546661, 0.033662986010313034, -0.037945251911878586, -0.032113924622535706, 0.00022430460376199335, -0.038739416748285294, 0.029950443655252457, 0.042022157460451126, -0.0006593878497369587, 0.0334835909307003, 0.009737054817378521]], "fc2.bias": [0.04575137421488762, -0.01797642558813095, 0.02823781408369541, 0.05824940279126167, 0.06672360748052597, -0.009555034339427948, 0.04742787405848503, 0.005020651500672102, -0.05036501958966255, 0.01125874649733305, 0.023629462346434593, 0.00942283682525158, 0.08565471321344376, -0.06322275102138519, -0.05411198362708092, -0.059660572558641434, -0.13899101316928864, 0.0841095820069313, 0.02912834659218788, -0.04873277619481087, 0.005322556477040052, 0.007797461934387684, -0.0008353809243999422, 0.011691807769238949, 0.07789089530706406, -0.09316419810056686, 0.00034327126923017204, 0.013129505328834057, -0.03751811757683754, 0.04019451513886452, 0.02071571722626686, -0.04764135181903839], "mode_head.weight": [[0.010669081471860409, 0.03399980068206787, 0.024092277511954308, 0.06103760004043579, -0.025577479973435402, 0.052199896425008774, 0.0328412763774395, -0.011296603828668594, -0.06377271562814713, -0.03352811187505722, -0.005430836696177721, 0.015800494700670242, 0.03366813063621521, 0.007016620133072138, 0.04228106513619423, 0.0598076768219471, 0.035584259778261185, -0.0442349947988987, -0.0734543725848198, -0.01365459244698286, -0.017503680661320686, 0.005862503778189421, -0.06435053050518036, 0.13344962894916534, 0.04800259694457054, -0.015202450565993786, 0.004816619213670492, -0.03257741406559944, -0.016073117032647133, -0.047465648502111435, 0.035599950700998306, 0.06878015398979187], [0.010120203718543053, -0.050284333527088165, 0.005444907583296299, -0.00391821563243866, -0.04333793371915817, 0.05035686120390892, 0.024967031553387642, 0.04297275468707085, -0.0003264244587626308, -0.0043082041665911674, -0.08357777446508408, 0.04242531955242157, 0.05241627246141434, 0.0075328112579882145, 0.032883837819099426, 0.06926373392343521, 0.006632160395383835, -0.054285913705825806, -0.06877881288528442, 0.0076338197104632854, -0.035535845905542374, -0.03466800972819328, -0.006618553306907415, -0.12283533066511154, 0.09642832726240158, 0.019481275230646133, 0.0064973230473697186, 0.026418698951601982, 0.03270526975393295, 0.011635425500571728, -0.020653462037444115, 0.05304604396224022], [-0.03493618592619896, -0.013017584569752216, 0.09033937007188797, 0.02796970307826996, -0.0016769797075539827, 0.02464671991765499, 0.003139048581942916, -0.06464487314224243, 0.055723827332258224, -0.08468008786439896, -0.06472598016262054, 0.006043029483407736, 0.017697229981422424, 0.05480606481432915, -0.14898334443569183, -0.04166809841990471, -0.04221247881650925, 0.07275768369436264, -0.00803766306489706, 0.014158627949655056, -0.10570281744003296, -0.0897490531206131, 0.026967937126755714, -0.06493926793336868, 0.025355486199259758, 0.049451302736997604, 0.06530430167913437, 0.0051734293811023235, 0.013085021637380123, 0.01271729450672865, 0.010948230512440205, -0.009738019667565823], [-0.02949017845094204, 0.028473738580942154, 0.010104023851454258, -0.077848419547081, 0.013377517461776733, -0.046318601816892624, 0.04557346552610397, 0.0728231891989708, 0.03633497655391693, -0.08984321355819702, -0.1088569313287735, -0.0381288044154644, 0.03729543089866638, 0.01135488972067833, 0.039151716977357864, -0.011648199521005154, 0.08580341190099716, 0.0021430831402540207, 0.01193156186491251, 0.04185491427779198, 0.0069559612311422825, -0.061895113438367844, 0.012063504196703434, -0.03775017336010933, -0.031029481440782547, -0.02627537027001381, -0.05184882506728172, -0.002776056295260787, -0.04934699460864067, -0.019958196207880974, 0.04391200467944145, -0.054047729820013046], [-0.009796620346605778, -0.03808162733912468, -0.0027037207037210464, -0.039892058819532394, 0.014965402893722057, -0.01716506853699684, 0.025558967143297195, -0.013288254849612713, -0.03366539999842644, -0.004894382320344448, -0.01306216698139906, 0.03186624124646187, -0.08382179588079453, 0.09395191818475723, 0.010392476804554462, 0.02649259939789772, -0.09034378826618195, -4.383662144391565e-06, -0.06102019175887108, 0.017014944925904274, 0.03453560918569565, 0.026197675615549088, -0.12569555640220642, -0.11603782325983047, -0.01610514335334301, 0.03494297340512276, 0.06778105348348618, -0.03631172701716423, -0.008408640511333942, 0.0034343842417001724, 0.012285917066037655, -0.10835718363523483]], "mode_head.bias": [0.04917708784341812, 0.015858124941587448, -0.010935264639556408, 0.019492467865347862, 0.04537748917937279], "intent_head.weight": [[0.021636560559272766, -0.07833020389080048, 0.09269919991493225, 0.046404290944337845, 0.019138891249895096, -0.061348266899585724, -0.03051045536994934, -0.028539640828967094, -0.03340860456228256, -0.04965662211179733, 0.046599868685007095, 0.004090919625014067, -0.00995967723429203, -0.011489531956613064, 0.021282125264406204, -0.04955034703016281, -0.039610378444194794, -0.044411513954401016, -0.0015291570452973247, -0.023134132847189903, 0.04679795354604721, 0.003197304205968976, 0.011880849488079548, 0.0608779676258564, 0.019729606807231903, 0.06681745499372482, -0.03245990350842476, -0.018893415108323097, 0.00388357974588871, 0.01090316753834486, 0.02385563775897026, 0.09095709770917892], [0.01305299997329712, 0.04201740399003029, 0.06892087310552597, -0.01442530658096075, -0.039400726556777954, 0.010099215433001518, -0.07529959827661514, 0.013435485772788525, -0.027217445895075798, -0.027928469702601433, -0.012855242006480694, -0.07600870728492737, 0.0039652553386986256, -0.021979473531246185, -0.06686343997716904, 0.04730336740612984, -0.001796339056454599, -0.03138848394155502, 0.005523825995624065, 0.03880903869867325, 0.021715238690376282, -0.016705775633454323, 0.033110111951828, 0.003141032299026847, 0.010505881160497665, -0.00670652836561203, -0.014497448690235615, 0.005500074476003647, -0.03176405653357506, -0.06822188943624496, 0.038549814373254776, -0.07269754260778427], [-0.050099052488803864, -0.0018622324569150805, -0.0831342339515686, -0.1404660940170288, -0.018421819433569908, -0.09667256474494934, 0.03410528972744942, 0.00575809134170413, 0.0949251726269722, 0.036425866186618805, -0.000447009049821645, -0.009524243883788586, 0.02416013553738594, -0.00936787948012352, -0.04125385731458664, 0.04389256611466408, 0.0016699964180588722, -0.0899982824921608, 0.0868566632270813, -0.03188009187579155, 0.0030641003977507353, 0.0661965161561966, -0.007051920983940363, 0.057069696485996246, 0.009961793199181557, -0.03600212559103966, -0.005674850195646286, 0.028262827545404434, -0.0005332352593541145, 0.02497783675789833, 0.09555023163557053, -0.03522586077451706], [-0.04226559400558472, 0.04705468937754631, -0.04166220873594284, -0.0014362299116328359, -0.037225011736154556, 0.03612759709358215, 0.08379265666007996, 0.01834627240896225, 0.02007189206779003, -0.01670844480395317, -0.03947339206933975, -0.014836630783975124, 0.03710678964853287, 0.0412432961165905, -0.09424496442079544, -0.11346330493688583, -0.005741533823311329, -0.11263953894376755, 0.04608217254281044, 0.04993095621466637, 0.025652265176177025, -0.01640915684401989, 0.03117903135716915, 0.021975606679916382, -0.08353342860937119, 0.07528918981552124, -0.041880857199430466, -0.013635225594043732, -0.006147101055830717, 0.018987631425261497, -0.013137983158230782, -0.024555375799536705], [-0.018736815080046654, 0.008725954219698906, 0.017228977754712105, -0.08690840005874634, 0.0015193227445706725, 0.09253719449043274, -0.03910987079143524, -0.049759428948163986, 0.004475053399801254, -0.0003949378151446581, -0.008214940316975117, 0.038004349917173386, 0.0026146727614104748, 0.07380031794309616, 0.044839661568403244, 0.0042205024510622025, -0.07073429226875305, 0.035025302320718765, -0.02583051100373268, -0.0783204436302185, -0.017522120848298073, -0.020056795328855515, -0.03312337398529053, 0.03665731102228165, -0.03943076357245445, -0.015827441588044167, -0.022470084950327873, 0.09855632483959198, 0.013592392206192017, -0.024316145107150078, 0.05411360785365105, 0.024318121373653412]], "intent_head.bias": [0.01226935163140297, -0.058183442801237106, 0.06257068365812302, -0.016129789873957634, -0.04884934052824974], "topic_count_head.weight": [[-0.063832588493824, 0.029032034799456596, -0.09478352963924408, -0.07399996370077133, -0.020403115078806877, -0.0011886972934007645, -0.04071551188826561, 0.049565110355615616, 0.016537226736545563, -0.013368613086640835, -0.08093559741973877, -0.03912891075015068, 0.02414967678487301, 0.01102403923869133, 0.007606779225170612, 0.0029485200066119432, -0.011664762161672115, -0.059111692011356354, -0.03838483989238739, 0.07571696490049362, -0.045579925179481506, 0.0391903780400753, -0.022749995812773705, -0.00015350132889579982, -0.024227937683463097, 0.1280393898487091, -0.024267317727208138, -0.023641103878617287, -0.019192470237612724, -0.019397784024477005, 0.10143076628446579, -0.05044122412800789], [-0.006288529373705387, 0.0012537568109109998, -0.05248704180121422, -0.025344690307974815, 0.06126254424452782, -0.0033383227419108152, 0.06311455368995667, 0.06377069652080536, 0.0630723163485527, 0.01677936315536499, -0.007512655109167099, 0.014921069145202637, -0.0005927244783379138, -0.01322703342884779, 0.002507793018594384, 0.08908893167972565, -0.01709100417792797, 0.007798413280397654, -0.009064863435924053, 0.0174765195697546, 0.03308526799082756, -0.015337926335632801, 0.04695109650492668, 0.0024611835833638906, 0.017556551843881607, -0.0051305838860571384, 0.033842310309410095, -0.029819700866937637, -0.013597157783806324, 0.006005283445119858, -0.06703918427228928, 0.016133544966578484], [0.05635421350598335, 0.04714008793234825, 0.012861383147537708, 0.02561297081410885, -0.020880568772554398, -0.013641408644616604, -0.03349969536066055, -0.09945740550756454, -0.0697648823261261, 0.0536591112613678, -0.02387053705751896, 0.03436050936579704, 0.0008850997546687722, 0.019991761073470116, -0.07512139528989792, -0.023737682029604912, 0.09277214854955673, 0.009103330783545971, -0.08933507651090622, 0.03503328189253807, -0.031224489212036133, -0.02269378863275051, -0.0014423411339521408, 0.026061205193400383, 0.007224903907626867, 0.06477075815200806, 0.02233249321579933, 0.07345370948314667, 0.005321967415511608, 0.0209040604531765, 0.04968849942088127, 0.0034714892972260714], [-0.03595506027340889, -0.044069256633520126, 0.06314831972122192, -0.01688898541033268, -0.04908408969640732, 0.12339835613965988, 0.04473743587732315, 0.029065106064081192, -0.10515695810317993, 0.033681999891996384, 0.05659457668662071, 0.002799913054332137, -0.07084473967552185, 0.06191733479499817, -0.06911138445138931, 0.0583297498524189, 0.02733555994927883, -0.03116462007164955, -0.024995924904942513, 0.05279094725847244, -0.015842994675040245, 0.0010328717762604356, -0.017420215532183647, 0.08818777650594711, -0.07488700747489929, -0.008839018642902374, -0.006552810315042734, 0.044253718107938766, -0.04203420504927635, 0.0008501927368342876, 0.03214719146490097, -0.0597412995994091]], "topic_count_head.bias": [-0.054711878299713135, 0.06135174632072449, 0.04759858176112175, 0.08561444282531738], "frag_count_head.weight": [[-0.020455237478017807, -0.059532810002565384, 0.05176088213920593, 0.0027255001477897167, 0.061335086822509766, -0.06929167360067368, -0.037150006741285324, 0.09149127453565598, 0.06647250801324844, 0.03157707676291466, 0.04058103263378143, -0.02525358460843563, 0.07322805374860764, 0.10423344373703003, 0.0331636406481266, -0.05318876728415489, 0.015751438215374947, -0.002539641922339797, -0.04856212064623833, -0.004688525106757879, -0.11292965710163116, 0.016231605783104897, -0.05431899055838585, 0.028012847527861595, 0.07394189387559891, 0.04516705870628357, -0.03388162702322006, 0.12372249364852905, 0.02175845392048359, -0.060258250683546066, -0.031330473721027374, -0.024660449475049973], [0.034841615706682205, -0.05482005700469017, -0.11747051775455475, -0.02567441575229168, -0.003892697859555483, 0.03808503970503807, 0.03685348480939865, -0.022151028737425804, 0.022013060748577118, -0.02378387562930584, 0.0010671195341274142, 0.0537569634616375, -0.02683316543698311, -0.002825208706781268, -0.08203645050525665, -0.01555640995502472, 0.07241307944059372, 0.03407471999526024, 0.013650004751980305, 0.061841607093811035, 0.12542417645454407, -0.025485694408416748, -0.09640573710203171, 0.08444362878799438, -0.019113702699542046, 0.020664013922214508, 0.05355466529726982, -0.027700161561369896, 0.0740920901298523, 0.014437305741012096, 0.014012179337441921, -0.08603274822235107], [0.01478551048785448, 0.013227651827037334, 0.05249856039881706, -0.054016172885894775, -0.0862855464220047, 0.08311217278242111, -0.006327045150101185, -0.03954531252384186, 0.07063784450292587, -0.004119120538234711, -0.0790439248085022, 0.03790200874209404, 0.04252239689230919, -0.10140629857778549, 0.05153023079037666, 0.011606401763856411, 0.01605009287595749, -0.02973954938352108, 0.01850825734436512, 0.0018984506605193019, 0.014945092611014843, -0.03187565505504608, 0.028551680967211723, -0.02726008929312229, 0.006523781921714544, 0.02004636451601982, 0.05575456842780113, 0.026425758376717567, -0.12027984857559204, -0.029215587303042412, 0.023604271933436394, -0.023995457217097282], [0.0011945152655243874, -0.0008187019266188145, -0.06431983411312103, -0.0463097058236599, -0.027573836967349052, 0.0998200923204422, 0.0052742729894816875, -0.011449658311903477, 0.032564323395490646, -0.05848715454339981, -0.0049322801642119884, 0.04121603071689606, -0.0005827595596201718, -0.026409609243273735, 0.00942776259034872, 0.004333355464041233, -0.034866221249103546, -0.013112547807395458, 0.030514970421791077, 0.012771067209541798, 0.016142435371875763, -0.005679277703166008, 0.018010398373007774, 0.05313759669661522, 0.023248014971613884, -0.08526643365621567, 0.0007831547409296036, 0.017957797273993492, 0.06161511689424515, 0.014210683293640614, 0.04544799402356148, 0.006810792721807957]], "frag_count_head.bias": [-0.013690401799976826, 0.004305599257349968, -0.048370614647865295, -0.03785013034939766], "creativity_head.weight": [[-0.022236322984099388, 0.0085713816806674, -0.06303858011960983, 0.04620741307735443, -0.020546583458781242, 0.011920424178242683, -0.019535137340426445, -0.02402087114751339, -0.04248357191681862, -0.043690405786037445, -0.0600171759724617, 0.003569691674783826, -0.06810779869556427, 0.04363265261054039, -0.04308358207345009, 0.04242413863539696, -0.0538330152630806, 0.05558495596051216, 0.039331983774900436, -0.02906738594174385, 0.0020472698379307985, 0.05988091975450516, 0.05512719228863716, 0.037601079791784286, 0.01871424913406372, -0.026429692283272743, -0.021865535527467728, 0.00012722989777103066, -0.036643195897340775, -0.06499220430850983, -0.02903773821890354, -0.0497235432267189]], "creativity_head.bias": [-0.006807266268879175], "tone_head.weight": [[0.049717556685209274, -0.041506122797727585, 0.002978214994072914, -0.05315300449728966, 0.04484459385275841, -0.006625011563301086, 0.043331220746040344, -0.08104152977466583, 0.04086606204509735, -0.09705597907304764, -0.06981459259986877, 0.03658001497387886, -0.10114271938800812, 0.010632121004164219, 0.027694344520568848, 0.029735928401350975, -0.01022172998636961, -0.0407259427011013, 0.013647826388478279, 0.034990519285202026, 0.03722280636429787, 0.0861806571483612, -0.08889904618263245, 0.01954372227191925, -0.05643172934651375, 0.12386275827884674, -0.0021813323255628347, -0.019484704360365868, 0.03276049718260765, 0.029044581577181816, -0.12941251695156097, 0.022520756348967552], [0.0931096076965332, 0.07023852318525314, -0.06396961212158203, -0.03646443411707878, -0.04789750277996063, 0.010069922544062138, 0.12210096418857574, -0.10141968727111816, 0.03133527934551239, -0.01715794764459133, 0.026343462988734245, -0.042556989938020706, 0.023530317470431328, 0.059786077588796616, 0.008627625182271004, -0.042194608598947525, -0.07315728813409805, -0.0268560778349638, 0.07997193187475204, -0.0613505020737648, -0.008717350661754608, 0.04938032105565071, -0.03965281322598457, 0.016710052266716957, 0.04873840510845184, -0.019250821322202682, 0.01753089390695095, -0.03041013889014721, 0.03723739832639694, -0.08449568599462509, -0.08624296635389328, -0.01575355790555477], [0.006015894468873739, -0.017898788675665855, -0.08788799494504929, -0.06356492638587952, -0.05699066072702408, -0.025437265634536743, -0.042226675897836685, 0.0602714978158474, -0.08570405095815659, -0.06964579224586487, -0.014490412548184395, 0.04223683848977089, 0.00944968219846487, -0.10381593555212021, -0.02004019357264042, -0.0879453718662262, 0.03745267912745476, 0.07192383706569672, 0.04894370958209038, 0.018214397132396698, 0.03281053528189659, -0.03748904913663864, 0.09236839413642883, 0.07981693744659424, 0.01722606085240841, 0.05887650325894356, -0.0024718993809074163, -0.01696166768670082, 0.04462246224284172, 0.10418917238712311, -0.0405413918197155, 0.0059842257760465145], [0.08870720118284225, 0.05204764008522034, 0.09611814469099045, -0.0829586610198021, -0.08320477604866028, -0.0819157287478447, -0.013100303709506989, 0.030326789245009422, 0.0060005197301507, 0.02661721408367157, -0.013697396032512188, -0.10196446627378464, -0.008534871973097324, 0.009401338174939156, 0.005880658980458975, 0.016965685412287712, 0.08673045784235, -0.08453401923179626, 0.0013037982862442732, -0.05278954654932022, -0.019449813291430473, 0.08819513767957687, 0.01788300648331642, -0.011082022450864315, 0.031909000128507614, 0.04800630733370781, -0.06122978404164314, -0.034772977232933044, 0.09628137201070786, -0.027746478095650673, -0.07173368334770203, -0.0016977913910523057]], "tone_head.bias": [0.014814150519669056, -0.013876194134354591, 0.05324050784111023, 0.028750572353601456]}}