{
  "fc1.weight": [
    [
      -0.38884156942367554,
      0.2391158640384674,
      0.008321419358253479,
      -0.404257208108902,
      0.25113385915756226,
      0.04430443048477173,
      -0.08708039671182632,
      -0.35599005222320557,
      0.28169503808021545,
      -0.5648900866508484,
      0.34658077359199524,
      0.012678629718720913,
      -0.11891286820173264,
      0.3669153153896332,
      0.4425084590911865,
      0.25070109963417053,
      0.47177428007125854,
      0.17577695846557617,
      -0.21192602813243866,
      0.3847622275352478,
      -0.24756935238838196,
      0.2731153666973114,
      -0.09290742874145508,
      0.4473813772201538,
      0.552496075630188
    ],
    [
      0.00958632118999958,
      0.08982259035110474,
      -0.5803408622741699,
      -0.03282925486564636,
      -0.35538405179977417,
      0.501213788986206,
      -0.26320868730545044,
      0.1995721012353897,
      -0.3507893681526184,
      -0.34641197323799133,
      -0.42676833271980286,
      0.20333144068717957,
      -0.1473451405763626,
      0.27978670597076416,
      0.23928293585777283,
      0.31189441680908203,
      -0.10010536015033722,
      -0.20343106985092163,
      -0.3658389747142792,
      -0.10483704507350922,
      0.30936694145202637,
      -0.23543238639831543,
      0.08675557374954224,
      -0.47872868180274963,
      0.3234717547893524
    ],
    [
      0.4633033871650696,
      0.42942720651626587,
      0.4266732633113861,
      -0.1357576549053192,
      0.18502351641654968,
      -0.11153708398342133,
      -0.22346189618110657,
      -0.0701836571097374,
      -0.36758026480674744,
      -0.2824946343898773,
      -0.36993923783302307,
      -0.07349781692028046,
      -0.14687615633010864,
      -0.10027480125427246,
      -0.2584737241268158,
      -0.35387060046195984,
      0.28810474276542664,
      -0.43567901849746704,
      -0.31466221809387207,
      0.4312252998352051,
      -0.37929198145866394,
      -0.4696193337440491,
      -0.18809671700000763,
      -0.2496137022972107,
      0.18373432755470276
    ],
    [
      -0.4242076277732849,
      -0.2303304821252823,
      0.11710954457521439,
      0.05315857753157616,
      -0.48962655663490295,
      -0.2836487889289856,
      -0.4762219190597534,
      -0.07135207206010818,
      0.35991767048835754,
      -0.07369649410247803,
      0.12649276852607727,
      -0.2753981947898865,
      -0.5164884328842163,
      -0.4471991956233978,
      -0.35127148032188416,
      -0.0052532898262143135,
      0.09831452369689941,
      0.049621131271123886,
      -0.4790094196796417,
      -0.17180639505386353,
      -0.44436782598495483,
      -0.006548561155796051,
      0.41231846809387207,
      -0.40960657596588135,
      -0.2086450308561325
    ],
    [
      0.3214949667453766,
      -0.02671203389763832,
      -0.32458844780921936,
      -0.2968073785305023,
      0.11865779757499695,
      -0.6284367442131042,
      -0.21799609065055847,
      -0.7069236636161804,
      0.1870025098323822,
      -0.3477131426334381,
      -0.19060096144676208,
      0.2182019054889679,
      0.17693351209163666,
      -0.058114808052778244,
      0.0708693414926529,
      0.07617995887994766,
      0.31533241271972656,
      -0.05991434305906296,
      0.22536763548851013,
      0.19506888091564178,
      0.3643074333667755,
      -0.19291380047798157,
      0.06395768374204636,
      -0.06383784860372543,
      0.3694249391555786
    ],
    [
      -0.5343761444091797,
      0.019487304612994194,
      0.19200649857521057,
      0.18790824711322784,
      -0.2874716818332672,
      0.2302129566669464,
      -0.4553884267807007,
      -0.5583642721176147,
      0.01898658461868763,
      0.43452948331832886,
      -0.49168986082077026,
      -0.26929429173469543,
      0.02455141954123974,
      -0.19976738095283508,
      -0.21674495935440063,
      0.46492961049079895,
      0.18311358988285065,
      -0.22080402076244354,
      -0.311219722032547,
      0.01621568389236927,
      0.2524682879447937,
      -0.306164413690567,
      0.06014162674546242,
      -0.3009722828865051,
      -0.242010235786438
    ],
    [
      0.20064754784107208,
      0.3811105787754059,
      -0.1065576896071434,
      -0.3263557255268097,
      -0.26349589228630066,
      0.3954032063484192,
      -0.012268227525055408,
      0.061832282692193985,
      -9.822944412007928e-05,
      0.03343527019023895,
      -0.4249993860721588,
      0.1363772749900818,
      -0.47473210096359253,
      0.36082565784454346,
      -0.11213796585798264,
      0.12329453974962234,
      -0.015748539939522743,
      -0.17509055137634277,
      -0.18186451494693756,
      -0.2911633551120758,
      -0.483377069234848,
      -0.2421087771654129,
      -0.261628121137619,
      0.41813069581985474,
      -0.47128579020500183
    ],
    [
      0.20126250386238098,
      0.09062028676271439,
      0.2577715814113617,
      -0.42411255836486816,
      0.1667248159646988,
      -0.03302796557545662,
      -0.10261025279760361,
      -0.31888845562934875,
      0.23122069239616394,
      0.017381194978952408,
      0.24270950257778168,
      -0.3297266960144043,
      -0.06537473946809769,
      0.4184935688972473,
      0.21795965731143951,
      -0.22468365728855133,
      -0.07005202770233154,
      -0.32033267617225647,
      -0.4541415572166443,
      0.1216258630156517,
      -0.3934994041919708,
      0.14222168922424316,
      -0.18549858033657074,
      -0.12082833051681519,
      -0.3029349148273468
    ],
    [
      -0.027166107669472694,
      0.08918106555938721,
      -0.1784450113773346,
      -0.3057100772857666,
      -0.28534719347953796,
      -0.12368495017290115,
      0.19839264452457428,
      0.46192577481269836,
      0.018561452627182007,
      0.07610668241977692,
      -0.033799633383750916,
      0.20771773159503937,
      0.03872097283601761,
      0.278125524520874,
      0.48686718940734863,
      0.20816612243652344,
      -0.01414504088461399,
      0.20046855509281158,
      0.3598315715789795,
      0.19643634557724,
      -0.39886918663978577,
      -0.36854884028434753,
      0.2731447219848633,
      0.41279810667037964,
      -0.24988538026809692
    ],
    [
      -0.39174067974090576,
      -0.2501599192619324,
      -0.4682982563972473,
      -0.035709381103515625,
      0.289342999458313,
      0.4128185510635376,
      0.20200283825397491,
      -0.44508200883865356,
      0.05104386433959007,
      0.25241294503211975,
      -0.4130803942680359,
      -0.4292351305484772,
      0.21622362732887268,
      -0.13379265367984772,
      0.23985137045383453,
      0.07566085457801819,
      0.4533205032348633,
      -0.46051114797592163,
      -0.1984492987394333,
      -0.13058623671531677,
      0.028291482478380203,
      0.05190252512693405,
      -0.28937798738479614,
      -0.25276702642440796,
      0.02360946498811245
    ],
    [
      -0.03882785141468048,
      -0.19190217554569244,
      0.3235860764980316,
      0.13815273344516754,
      -0.46175727248191833,
      -0.08347319066524506,
      0.4214569628238678,
      0.4678005278110504,
      0.30428507924079895,
      -0.30100128054618835,
      0.3215593695640564,
      0.33618101477622986,
      -0.537202000617981,
      -0.34677284955978394,
      0.21065481007099152,
      -0.17770566046237946,
      -0.16445550322532654,
      -0.06910081952810287,
      -0.3675062954425812,
      -0.25216737389564514,
      -0.3021380603313446,
      -0.011714974418282509,
      -0.4905664026737213,
      -0.4210992455482483,
      -0.03567199409008026
    ],
    [
      0.35374459624290466,
      0.0257558673620224,
      -0.5381088256835938,
      -0.08815371245145798,
      0.2629894018173218,
      0.3140179216861725,
      0.4036834239959717,
      -0.016764240339398384,
      0.3881182074546814,
      0.16922160983085632,
      -0.044278547167778015,
      0.3553844094276428,
      -0.05152194947004318,
      0.43071091175079346,
      -0.4512236714363098,
      -0.003811269998550415,
      0.20704658329486847,
      0.1442137509584427,
      -0.5274893045425415,
      0.06876832991838455,
      -0.4702095687389374,
      0.052369631826877594,
      0.2545901834964752,
      -0.08361169695854187,
      -0.0594019778072834
    ],
    [
      -0.3950600326061249,
      -0.5648941993713379,
      0.19446954131126404,
      0.384015291929245,
      0.6026678085327148,
      -0.39209505915641785,
      -0.2122519612312317,
      -0.34325966238975525,
      -0.49927186965942383,
      -0.5849690437316895,
      -0.5654966235160828,
      -0.4320407807826996,
      0.16912239789962769,
      0.061284735798835754,
      -0.2925913333892822,
      0.498333215713501,
      -0.25066399574279785,
      -0.40036407113075256,
      0.30876147747039795,
      0.39532098174095154,
      0.05965971574187279,
      0.27570223808288574,
      -0.4927055537700653,
      -0.37368959188461304,
      -0.1851721704006195
    ],
    [
      0.29419565200805664,
      -0.2923552393913269,
      0.2500891387462616,
      -0.41163933277130127,
      0.29865485429763794,
      0.3101089894771576,
      -0.22556261718273163,
      -0.3329349458217621,
      -0.3325337767601013,
      -0.10466119647026062,
      0.004824264440685511,
      -0.4448937475681305,
      -0.3615095019340515,
      -0.1961974948644638,
      -0.014796373434364796,
      0.20024223625659943,
      -0.4617120325565338,
      -0.37243902683258057,
      0.1548229157924652,
      0.3763248324394226,
      0.1323574036359787,
      0.04648595675826073,
      0.13118335604667664,
      0.23499992489814758,
      -0.4003601372241974
    ],
    [
      -0.45328009128570557,
      -0.07475192844867706,
      -0.2524315416812897,
      0.03923371434211731,
      0.32074907422065735,
      -0.15650199353694916,
      -0.310167133808136,
      -0.21801529824733734,
      0.19669142365455627,
      0.16479863226413727,
      -0.3895662724971771,
      0.279564768075943,
      0.39713481068611145,
      -0.174737349152565,
      0.24931953847408295,
      0.23785030841827393,
      0.34861257672309875,
      -0.049184709787368774,
      0.217691108584404,
      -0.37134870886802673,
      0.3876023292541504,
      -0.2610644996166229,
      0.33246496319770813,
      -0.6648759841918945,
      0.11805007606744766
    ],
    [
      -0.15897713601589203,
      -0.02821548655629158,
      -0.10324667394161224,
      0.22687332332134247,
      -0.204746276140213,
      0.009391737170517445,
      -0.5738232135772705,
      0.367322713136673,
      0.09901972860097885,
      -0.05293646082282066,
      -0.008456463925540447,
      0.0943484678864479,
      0.2209361493587494,
      -0.5603876113891602,
      -0.4578751027584076,
      0.3585924506187439,
      0.25102922320365906,
      0.11264822632074356,
      -0.2917501628398895,
      -0.24436163902282715,
      0.016350597143173218,
      -0.4633067846298218,
      -0.2843233346939087,
      -0.33556970953941345,
      -0.27815771102905273
    ],
    [
      0.3978515863418579,
      -0.39018458127975464,
      -0.4779583811759949,
      -0.4779891073703766,
      -0.6255130171775818,
      -0.5327136516571045,
      -0.225322425365448,
      0.23875217139720917,
      -0.3847479224205017,
      0.4907708764076233,
      -0.14546646177768707,
      -0.18931804597377777,
      0.19762146472930908,
      0.4458618462085724,
      -0.06993498653173447,
      -0.5810707211494446,
      -0.41404297947883606,
      0.25120067596435547,
      0.3456888794898987,
      -0.46020570397377014,
      0.4510895013809204,
      0.08505339920520782,
      0.3451690375804901,
      0.1344662755727768,
      -0.16864612698554993
    ],
    [
      0.24458901584148407,
      0.19010668992996216,
      -0.5826780200004578,
      -0.2766976058483124,
      0.0685994029045105,
      -0.1858418583869934,
      0.2881045937538147,
      0.028413519263267517,
      -0.4920424520969391,
      -0.20762836933135986,
      0.07637137174606323,
      0.11763941496610641,
      -0.17255404591560364,
      0.20243686437606812,
      0.010069577023386955,
      -0.3285657465457916,
      0.025658108294010162,
      0.2864280641078949,
      0.4109989106655121,
      -0.10656827688217163,
      0.1319030374288559,
      0.00917805265635252,
      0.20475710928440094,
      0.348235160112381,
      -0.0916535034775734
    ],
    [
      0.4942293167114258,
      0.45358067750930786,
      0.013911963440477848,
      -0.041701726615428925,
      -0.20846349000930786,
      0.1364966183900833,
      0.35962602496147156,
      -0.0015590093098580837,
      0.4042596220970154,
      -0.13858547806739807,
      0.03409487381577492,
      -0.6732691526412964,
      -0.2999378442764282,
      -0.36914145946502686,
      -0.36871352791786194,
      -0.27349892258644104,
      0.5407731533050537,
      0.3436349630355835,
      -0.7240039706230164,
      0.1523669809103012,
      0.5921308994293213,
      -0.2515147626399994,
      -0.3594139516353607,
      0.09941023588180542,
      -0.35089758038520813
    ],
    [
      0.3013743758201599,
      0.0480988472700119,
      0.13867591321468353,
      -0.2333737164735794,
      -0.19041743874549866,
      0.09307035803794861,
      0.42767032980918884,
      0.23400023579597473,
      -0.19008350372314453,
      0.06623969972133636,
      0.15084007382392883,
      -0.42002853751182556,
      0.004161786753684282,
      -0.40246233344078064,
      -0.27674582600593567,
      -0.17201191186904907,
      -0.07178154587745667,
      -0.34899604320526123,
      -0.3875606656074524,
      0.17516787350177765,
      -0.4885803163051605,
      0.13899816572666168,
      -0.2763806879520416,
      0.15233734250068665,
      -0.1985992044210434
    ],
    [
      0.02595549449324608,
      0.4373280107975006,
      -0.2674364447593689,
      0.4453023672103882,
      -0.5869227647781372,
      0.07644225656986237,
      -0.039491720497608185,
      0.6474779844284058,
      0.1537339836359024,
      0.036690227687358856,
      -0.33497968316078186,
      0.1414538472890854,
      0.3847249746322632,
      -0.4548371732234955,
      -0.22280427813529968,
      0.34670400619506836,
      0.01442151889204979,
      -0.2733246088027954,
      0.1600853055715561,
      -0.3424496650695801,
      -0.32013145089149475,
      0.047054726630449295,
      0.4208272397518158,
      0.1190948635339737,
      -0.17013095319271088
    ],
    [
      -0.2637447118759155,
      -0.4822709858417511,
      0.20058046281337738,
      0.18029077351093292,
      0.28307926654815674,
      -0.35387471318244934,
      0.16348201036453247,
      0.5574257969856262,
      0.4867854714393616,
      -0.10904152691364288,
      0.06831684708595276,
      -0.49811288714408875,
      -0.050083257257938385,
      -0.45355939865112305,
      -0.3135035037994385,
      -0.5457903146743774,
      -0.007211941760033369,
      0.1891242414712906,
      -0.15378119051456451,
      -0.42131873965263367,
      0.24857234954833984,
      -0.12030664086341858,
      0.33814737200737,
      -0.08815371245145798,
      -0.6105359792709351
    ],
    [
      0.47406458854675293,
      0.04749703407287598,
      -0.4447259306907654,
      -0.4483383595943451,
      0.4008598327636719,
      -0.1294935643672943,
      -0.4247930645942688,
      -0.3682335913181305,
      -0.3881309926509857,
      0.34399309754371643,
      0.3775663673877716,
      -0.33499231934547424,
      0.02019094116985798,
      0.20891885459423065,
      0.19868376851081848,
      -0.16159304976463318,
      -0.33163779973983765,
      -0.08474398404359818,
      -0.0871763601899147,
      0.17355717718601227,
      -0.11387409269809723,
      -0.4331030249595642,
      -0.48800453543663025,
      -0.0341060571372509,
      -0.32164421677589417
    ],
    [
      -0.39093783497810364,
      0.2810015380382538,
      -0.10145482420921326,
      0.31346267461776733,
      0.07688936591148376,
      -0.36825770139694214,
      0.5151969194412231,
      -0.351423978805542,
      -0.10115623474121094,
      0.2124030590057373,
      0.29103556275367737,
      0.38659775257110596,
      0.3836931884288788,
      0.17946946620941162,
      -0.15584981441497803,
      0.4560684859752655,
      0.3376285135746002,
      0.48979514837265015,
      0.3179558217525482,
      -0.11273360997438431,
      -0.3452743887901306,
      -0.0784459188580513,
      -0.23596501350402832,
      -0.08960740268230438,
      0.14877618849277496
    ],
    [
      0.2276860922574997,
      0.08188334852457047,
      -0.09432192891836166,
      0.22044318914413452,
      0.4449497163295746,
      -0.5599009990692139,
      -0.4547020196914673,
      -0.2629680335521698,
      0.10409843921661377,
      -0.5221312046051025,
      0.03683609515428543,
      -0.12343879044055939,
      0.350053608417511,
      0.10637468099594116,
      0.35910019278526306,
      0.2729986011981964,
      -0.2293453961610794,
      0.10446525365114212,
      -0.006146837491542101,
      0.4747318923473358,
      0.21082837879657745,
      -0.3583258092403412,
      -0.056792519986629486,
      -0.42243218421936035,
      -0.013837462291121483
    ],
    [
      -0.45734238624572754,
      -0.09833938628435135,
      -0.20364968478679657,
      0.3422607183456421,
      -0.09953410923480988,
      0.3420243561267853,
      0.3765453100204468,
      0.1582997739315033,
      0.3662757873535156,
      0.003301978576928377,
      -0.22626882791519165,
      -0.20695559680461884,
      -0.5535631775856018,
      0.245690256357193,
      -0.534023106098175,
      0.4467569887638092,
      0.26157209277153015,
      -0.20594288408756256,
      0.1537758708000183,
      -0.04812750220298767,
      0.21293781697750092,
      0.24196752905845642,
      -0.11645171046257019,
      -0.33487197756767273,
      -0.44171348214149475
    ],
    [
      0.06231788173317909,
      -0.28985974192619324,
      -0.035392675548791885,
      -0.4709528386592865,
      -0.4087902009487152,
      -0.39200785756111145,
      0.3404371738433838,
      0.3189500868320465,
      0.10132846236228943,
      0.43615761399269104,
      -0.4053639769554138,
      -0.36220431327819824,
      -0.19034484028816223,
      0.25169679522514343,
      -0.4479985237121582,
      -0.17644992470741272,
      0.4478796720504761,
      0.018146226182579994,
      -0.2845616042613983,
      0.3001837134361267,
      -0.2193593829870224,
      0.44671663641929626,
      -0.42588865756988525,
      0.019610965624451637,
      -0.44583824276924133
    ],
    [
      0.15981565415859222,
      0.21123939752578735,
      0.16926079988479614,
      0.03998000919818878,
      -0.012294135056436062,
      -0.2933695316314697,
      -0.5014823079109192,
      0.21262064576148987,
      0.2773115038871765,
      0.012715805321931839,
      0.25405171513557434,
      -0.0800531804561615,
      -0.48155805468559265,
      -0.08419371396303177,
      -0.4689677655696869,
      0.3781273066997528,
      -0.2941547930240631,
      -0.14812657237052917,
      0.20885556936264038,
      0.2372605800628662,
      0.017598722130060196,
      0.34025701880455017,
      -0.17322996258735657,
      -0.47533565759658813,
      -0.2806381285190582
    ],
    [
      -0.4391336441040039,
      0.20747876167297363,
      -0.5670307278633118,
      -0.5397791862487793,
      -0.5314223170280457,
      0.2597639560699463,
      0.4850631356239319,
      -0.3920467793941498,
      0.4897451102733612,
      -0.09163697808980942,
      0.21166881918907166,
      -0.48097488284111023,
      0.046739671379327774,
      -0.28700780868530273,
      -0.480414479970932,
      -0.08218665421009064,
      -0.3211856782436371,
      -0.2893969714641571,
      -0.06340158730745316,
      0.2729746699333191,
      0.3591867983341217,
      0.056537117809057236,
      -0.593497097492218,
      -0.0039298818446695805,
      0.09585887938737869
    ],
    [
      0.3614882230758667,
      -0.03249099478125572,
      -0.28824007511138916,
      -0.12140914797782898,
      -0.10137302428483963,
      -0.4894024133682251,
      0.38076794147491455,
      -0.20847460627555847,
      -0.02778620272874832,
      0.19079995155334473,
      -0.23403668403625488,
      -0.442939817905426,
      -0.47777122259140015,
      -0.19520071148872375,
      -0.4433075785636902,
      0.014355748891830444,
      0.2521878778934479,
      -0.08038217574357986,
      0.462686151266098,
      -0.4685309827327728,
      -0.26783525943756104,
      -0.30245688557624817,
      0.2586917579174042,
      0.35088610649108887,
      0.3193497657775879
    ],
    [
      0.2291998416185379,
      0.22871240973472595,
      0.2593235373497009,
      -0.16124030947685242,
      -0.15949682891368866,
      -0.03194385766983032,
      -0.31278836727142334,
      -0.6093383431434631,
      0.26256123185157776,
      -0.08722477406263351,
      -0.1620444804430008,
      0.057351693511009216,
      -0.11380261182785034,
      -0.3729602098464966,
      0.5262542366981506,
      0.34899476170539856,
      -0.021726228296756744,
      0.01234231423586607,
      0.13115881383419037,
      -0.11751359701156616,
      0.09408912807703018,
      -0.45856228470802307,
      0.34225597977638245,
      0.4488511383533478,
      0.558009922504425
    ],
    [
      0.3949469029903412,
      0.14302586019039154,
      0.25803929567337036,
      -0.0330151803791523,
      -0.007975544780492783,
      0.3246014416217804,
      0.12434930354356766,
      -0.21725071966648102,
      -0.5073304772377014,
      -0.22964540123939514,
      -0.09411720186471939,
      0.028540024533867836,
      -0.4472992718219757,
      -0.005211457144469023,
      -0.5571279525756836,
      0.4279155433177948,
      -0.14563731849193573,
      0.13012279570102692,
      0.47541654109954834,
      0.006451932247728109,
      0.05878797546029091,
      0.02146678790450096,
      -0.07074339687824249,
      -0.31734606623649597,
      0.30678150057792664
    ],
    [
      -0.18606185913085938,
      0.18485355377197266,
      0.1469995528459549,
      0.38414266705513,
      -0.7129209041595459,
      -0.615787148475647,
      0.3519836962223053,
      0.05282248556613922,
      0.046255480498075485,
      -0.6693271398544312,
      -0.35005179047584534,
      -0.16184936463832855,
      -0.10722698271274567,
      -0.6580889225006104,
      0.28462114930152893,
      -0.5594152808189392,
      -0.19044935703277588,
      0.22219201922416687,
      -0.6090406179428101,
      -0.4152210056781769,
      -0.38623467087745667,
      0.32683539390563965,
      0.021554971113801003,
      0.3439168930053711,
      -0.5361577272415161
    ],
    [
      -0.4279889762401581,
      -0.5685217380523682,
      -0.35105934739112854,
      -0.17291730642318726,
      -0.34964558482170105,
      -0.27779072523117065,
      -0.2874852418899536,
      0.1722206175327301,
      -0.04651987925171852,
      -0.004441991914063692,
      0.17499488592147827,
      0.29121318459510803,
      0.24604389071464539,
      -0.03575943037867546,
      -0.4641963243484497,
      0.15200498700141907,
      -0.44547411799430847,
      0.515421986579895,
      0.18886327743530273,
      -0.47922876477241516,
      0.003992723301053047,
      -0.05499396100640297,
      -0.3509169816970825,
      -0.3336123526096344,
      -0.051236413419246674
    ],
    [
      0.2676898241043091,
      0.0028123960364609957,
      -0.17741936445236206,
      -0.5243718028068542,
      -0.22888988256454468,
      -0.08244820684194565,
      0.30823373794555664,
      0.055288661271333694,
      0.2010062038898468,
      -0.00841364823281765,
      0.20674294233322144,
      -0.42770248651504517,
      -0.2145499885082245,
      -0.11797178536653519,
      -0.35155338048934937,
      -0.3410649001598358,
      0.061476320028305054,
      -0.38697052001953125,
      -0.5072402358055115,
      0.20756937563419342,
      0.2617650032043457,
      -0.1569506824016571,
      0.025207791477441788,
      0.033657193183898926,
      -0.4546768069267273
    ],
    [
      0.30793729424476624,
      -0.11152908205986023,
      -0.10837768018245697,
      -0.218925341963768,
      -0.273919016122818,
      -0.2515298128128052,
      0.25816163420677185,
      0.2332896888256073,
      -0.3130226731300354,
      -0.04114680737257004,
      -0.4142938554286957,
      -0.24172836542129517,
      0.20200569927692413,
      -0.2803341746330261,
      -0.3888024389743805,
      -0.30136024951934814,
      -0.19931326806545258,
      -0.049080152064561844,
      -0.4205701947212219,
      -0.15238143503665924,
      0.41187170147895813,
      -0.2910946309566498,
      0.008585382252931595,
      -0.32680395245552063,
      0.251900315284729
    ],
    [
      -0.4120868444442749,
      0.4171867370605469,
      -0.02579115517437458,
      0.09627018868923187,
      -0.4174961745738983,
      0.010967431589961052,
      -0.3632749915122986,
      -0.4127582907676697,
      0.39017096161842346,
      0.32307711243629456,
      -0.2047935426235199,
      -0.4779427647590637,
      0.4220556914806366,
      0.4358411729335785,
      -0.29668551683425903,
      0.25330233573913574,
      0.03707960993051529,
      0.05416649207472801,
      -0.5089411735534668,
      0.0019861971959471703,
      0.1784714162349701,
      -0.3807981610298157,
      -0.25909534096717834,
      -0.4579712450504303,
      -0.5191638469696045
    ],
    [
      -0.0832957774400711,
      0.20004121959209442,
      0.22452706098556519,
      0.2734074592590332,
      0.4344024062156677,
      0.4926878809928894,
      -0.35605868697166443,
      0.15981218218803406,
      0.2942552864551544,
      0.21143627166748047,
      0.28353992104530334,
      0.1119425818324089,
      -0.055682484060525894,
      0.12689577043056488,
      0.02567145973443985,
      0.27894118428230286,
      -0.5934463739395142,
      -0.31930986046791077,
      -0.10826554894447327,
      0.3793889880180359,
      -0.24552898108959198,
      -0.42980751395225525,
      -0.5086753368377686,
      -0.5634106993675232,
      0.3217301666736603
    ],
    [
      -0.3008303940296173,
      -0.01811423897743225,
      -0.0010175680508837104,
      0.23787663877010345,
      -0.30518439412117004,
      -0.2283865362405777,
      0.08664342015981674,
      -0.08170077204704285,
      0.03192264214158058,
      -0.36884450912475586,
      -0.22471369802951813,
      -0.03876880928874016,
      0.4226483404636383,
      -0.4453867971897125,
      -0.21634554862976074,
      -0.24092836678028107,
      0.3045119643211365,
      -0.27631354331970215,
      0.6581413745880127,
      -0.2762923240661621,
      0.21002860367298126,
      -0.29876619577407837,
      -0.3962908387184143,
      -0.007602567318826914,
      0.04999220371246338
    ],
    [
      0.016467347741127014,
      0.13182735443115234,
      0.31914177536964417,
      -0.549587070941925,
      -0.5778005719184875,
      -0.057549647986888885,
      -0.04024440795183182,
      -0.2899998128414154,
      -0.4825853407382965,
      -0.1471627801656723,
      0.17196685075759888,
      0.3717670142650604,
      -0.31145477294921875,
      -0.45743194222450256,
      -0.10096994787454605,
      0.22680391371250153,
      -0.5858890414237976,
      -0.07840514928102493,
      0.12811161577701569,
      -0.24944880604743958,
      -0.195587620139122,
      0.08891642838716507,
      0.22325216233730316,
      -0.45840689539909363,
      0.3195773661136627
    ],
    [
      -0.3290809094905853,
      0.10485710948705673,
      0.16009338200092316,
      -0.332454115152359,
      -0.6550559401512146,
      0.9411113858222961,
      -0.2207735776901245,
      0.5121942758560181,
      -0.3860052525997162,
      0.24779629707336426,
      0.21837055683135986,
      -0.03205684572458267,
      -0.3951001763343811,
      0.21901056170463562,
      0.11277845501899719,
      0.8781816959381104,
      -0.2728341519832611,
      0.20114021003246307,
      0.05020228400826454,
      0.12247034162282944,
      -0.15357576310634613,
      0.45046499371528625,
      -0.005232708528637886,
      -0.49064645171165466,
      -0.7263236045837402
    ],
    [
      0.03673277050256729,
      -0.4168258309364319,
      -0.049321141093969345,
      -0.27365854382514954,
      -0.4251253306865692,
      -0.4502016603946686,
      -0.2965541183948517,
      0.2443707287311554,
      -0.5253961682319641,
      -0.4865051805973053,
      0.15094470977783203,
      -0.2324947714805603,
      -0.24776142835617065,
      -0.21683737635612488,
      -0.35511332750320435,
      0.11013618856668472,
      0.2841527462005615,
      -0.042345043271780014,
      0.37763988971710205,
      -0.2244800478219986,
      0.05811404064297676,
      0.08258858323097229,
      0.2326238453388214,
      -0.3668454587459564,
      -0.03199167177081108
    ],
    [
      0.4187372922897339,
      0.4555629789829254,
      0.012972100637853146,
      -0.4697655439376831,
      0.5711154341697693,
      0.2941778600215912,
      -0.018221618607640266,
      0.24383822083473206,
      -0.00996525026857853,
      0.18067756295204163,
      0.3825504779815674,
      0.3397617042064667,
      0.31576788425445557,
      -0.3017130196094513,
      0.1666511595249176,
      -0.13875357806682587,
      -0.4218985438346863,
      -0.10352663695812225,
      0.5086274147033691,
      0.04870154708623886,
      0.22177211940288544,
      0.370146244764328,
      0.45807409286499023,
      0.10934976488351822,
      0.3489874601364136
    ],
    [
      0.1593770533800125,
      0.23749712109565735,
      -0.5127825140953064,
      -0.40329208970069885,
      0.029127070680260658,
      -0.13337375223636627,
      -0.10173200815916061,
      -0.5221307873725891,
      0.16602522134780884,
      -0.48175787925720215,
      0.23785066604614258,
      -0.32268351316452026,
      0.054412152618169785,
      0.18272516131401062,
      -0.47520479559898376,
      -0.10649134963750839,
      0.32952556014060974,
      0.12562324106693268,
      0.2991517186164856,
      0.4038015604019165,
      0.05805027112364769,
      -0.3976828157901764,
      -0.5442835092544556,
      -0.3582408130168915,
      -0.37188273668289185
    ],
    [
      -0.0544123649597168,
      0.10178869962692261,
      -0.4354178011417389,
      0.23227770626544952,
      -0.08642422407865524,
      -0.03716235235333443,
      -0.05033446103334427,
      -0.7943275570869446,
      -0.43500515818595886,
      0.23529399931430817,
      -0.4195091426372528,
      -0.34457048773765564,
      -0.3961733877658844,
      -0.3796938955783844,
      0.23878037929534912,
      -0.19245697557926178,
      -0.015892358496785164,
      0.2694484293460846,
      0.1650090515613556,
      -0.051350757479667664,
      -0.008426329120993614,
      0.1980590969324112,
      0.3721931576728821,
      -0.25019195675849915,
      0.06947207450866699
    ],
    [
      -0.25878509879112244,
      -0.4578480124473572,
      -0.5628527402877808,
      0.10468687117099762,
      -0.06114492565393448,
      0.0807712972164154,
      0.14378991723060608,
      0.38710445165634155,
      0.3438733220100403,
      -0.11526560038328171,
      0.29545652866363525,
      0.3156026601791382,
      -0.36939379572868347,
      -0.3378247916698456,
      0.17038820683956146,
      -0.32462507486343384,
      -0.5701082944869995,
      -0.2930818200111389,
      0.2173483669757843,
      0.21706610918045044,
      -0.246829092502594,
      -0.37331411242485046,
      -0.09758975356817245,
      -0.5691826343536377,
      0.21039436757564545
    ],
    [
      -0.33052384853363037,
      -0.48107174038887024,
      -0.25178685784339905,
      -0.022258644923567772,
      -0.265995591878891,
      0.18852421641349792,
      -0.24140404164791107,
      -0.4565525949001312,
      -0.23760195076465607,
      0.11357973515987396,
      -0.18226870894432068,
      0.002785083372145891,
      0.1736581176519394,
      -0.37891411781311035,
      0.27867835760116577,
      -0.40913206338882446,
      0.33185502886772156,
      -0.2655279338359833,
      -0.3385167717933655,
      0.021793875843286514,
      -0.24763555824756622,
      0.08910848945379257,
      0.24742764234542847,
      -0.42622411251068115,
      0.25141680240631104
    ],
    [
      0.4747925102710724,
      -0.30800795555114746,
      -0.2893485724925995,
      -0.08999177813529968,
      0.17914335429668427,
      0.4614449143409729,
      -0.046582017093896866,
      -0.3071642518043518,
      -0.13932259380817413,
      0.36599859595298767,
      -0.19001972675323486,
      -0.3976173996925354,
      0.01910107210278511,
      0.0451568141579628,
      -0.4779927730560303,
      0.1635066568851471,
      -0.31271854043006897,
      0.1690264791250229,
      -0.41341114044189453,
      -0.02957196906208992,
      0.39754536747932434,
      -0.3811183571815491,
      -0.4729216396808624,
      0.2889353334903717,
      0.4803575873374939
    ],
    [
      0.12147880345582962,
      0.09405595064163208,
      0.29926812648773193,
      0.024351205676794052,
      -0.5579532980918884,
      0.13234971463680267,
      -0.5656554698944092,
      0.11895880848169327,
      0.4727911055088043,
      0.49455103278160095,
      0.027032744139432907,
      -0.3003285229206085,
      -0.5310317873954773,
      -0.012601521797478199,
      0.1512140929698944,
      -0.2651250660419464,
      0.01630067266523838,
      -0.26015692949295044,
      -0.30723604559898376,
      0.34729334712028503,
      0.15770921111106873,
      -0.40536731481552124,
      -0.1321539282798767,
      0.15492989122867584,
      -0.3079787492752075
    ],
    [
      -0.3305944800376892,
      -0.35391107201576233,
      0.4028603136539459,
      -0.33997824788093567,
      -0.21955516934394836,
      0.19338858127593994,
      0.29148298501968384,
      0.1084669828414917,
      0.06613247841596603,
      0.08943119645118713,
      0.2643318474292755,
      -0.08784174919128418,
      -0.29351893067359924,
      -0.2223062664270401,
      -0.19551269710063934,
      0.14937107264995575,
      -0.26454341411590576,
      -0.32880449295043945,
      -0.01722359098494053,
      -0.34124600887298584,
      -0.1793968826532364,
      -0.18655946850776672,
      0.03507997468113899,
      -0.024197157472372055,
      0.254011332988739
    ],
    [
      -0.2839535176753998,
      -0.27305567264556885,
      -0.526371419429779,
      -0.17288056015968323,
      0.5753612518310547,
      -0.046159528195858,
      -0.16796477138996124,
      -0.07373518496751785,
      -0.07339736819267273,
      0.40373674035072327,
      -0.24896757304668427,
      0.33210816979408264,
      0.2977754473686218,
      0.5000719428062439,
      0.0025649380404502153,
      -0.20323218405246735,
      -0.3001886308193207,
      -0.0700238049030304,
      0.06853353977203369,
      0.2599661648273468,
      -0.06470653414726257,
      0.28944700956344604,
      0.18915389478206635,
      0.2564701437950134,
      0.3820159137248993
    ],
    [
      0.3121008574962616,
      0.20605424046516418,
      -0.2512286603450775,
      0.1352214366197586,
      -0.6547513604164124,
      -0.20018480718135834,
      0.4151366949081421,
      0.5526765584945679,
      0.0014317482709884644,
      -0.3780314326286316,
      -0.28134456276893616,
      -0.14103816449642181,
      0.03214279189705849,
      -0.09841024875640869,
      -0.22029288113117218,
      0.4658237397670746,
      0.42330530285835266,
      0.13635826110839844,
      -0.037589021027088165,
      -0.10613914579153061,
      0.2585830092430115,
      0.2694864273071289,
      0.38623663783073425,
      -0.1294354945421219,
      0.33179670572280884
    ],
    [
      -0.20038069784641266,
      -0.12985874712467194,
      -0.032368533313274384,
      0.13637933135032654,
      -0.30954742431640625,
      0.251193642616272,
      0.01543798390775919,
      0.06495887041091919,
      0.4693266749382019,
      0.16940028965473175,
      0.4641082286834717,
      0.4704444408416748,
      -0.15476533770561218,
      0.12412925064563751,
      0.21949920058250427,
      0.1916695237159729,
      -0.014054457657039165,
      0.40634918212890625,
      -0.19636960327625275,
      0.0530209019780159,
      -0.36401820182800293,
      -0.10891222208738327,
      0.5420850515365601,
      -0.19343480467796326,
      -0.2738470137119293
    ],
    [
      0.35151544213294983,
      0.1017821878194809,
      0.4583752155303955,
      -0.08477166295051575,
      -0.23178230226039886,
      -0.37420138716697693,
      -0.3738613426685333,
      -0.41221505403518677,
      -0.22672419250011444,
      0.018596412613987923,
      0.1699301153421402,
      0.1197795644402504,
      0.3035058379173279,
      0.3161800801753998,
      0.218722864985466,
      0.11796204745769501,
      -0.1805034875869751,
      0.09759782254695892,
      -0.2154775857925415,
      -0.22577287256717682,
      0.20118868350982666,
      -0.38497114181518555,
      -0.2175932377576828,
      0.05726449564099312,
      0.24723199009895325
    ],
    [
      -0.48866698145866394,
      -0.13219694793224335,
      -0.15253125131130219,
      -0.4797602891921997,
      0.11733916401863098,
      0.15926091372966766,
      0.3495505750179291,
      -0.0526985302567482,
      -0.5681195259094238,
      0.10810907930135727,
      0.4626370370388031,
      0.1825699657201767,
      -0.11055628210306168,
      0.11922867596149445,
      0.2973344624042511,
      -0.5189836621284485,
      0.1864345818758011,
      0.1856735795736313,
      0.2053256332874298,
      -0.41937753558158875,
      -0.4995579123497009,
      0.34079650044441223,
      -0.01754968799650669,
      -0.23818115890026093,
      -0.12261581420898438
    ],
    [
      -0.2731635570526123,
      0.40303316712379456,
      -0.3776467442512512,
      0.09754043072462082,
      -0.4085129201412201,
      0.44806137681007385,
      -0.5087777972221375,
      -0.2454937845468521,
      0.02461230754852295,
      -0.3633118271827698,
      -0.4049423336982727,
      -0.26309630274772644,
      0.17366038262844086,
      -0.47516846656799316,
      -0.49849560856819153,
      0.29176896810531616,
      0.052118029445409775,
      0.2811783254146576,
      0.17739108204841614,
      0.07784350216388702,
      0.38398876786231995,
      0.32726213335990906,
      -0.6236462593078613,
      0.49659642577171326,
      0.03797408565878868
    ],
    [
      0.18369583785533905,
      -0.11822579801082611,
      -0.1130651906132698,
      0.04188825935125351,
      0.17421886324882507,
      0.026939280331134796,
      -0.14110958576202393,
      -0.009391249157488346,
      -0.08701668679714203,
      -0.18248707056045532,
      -0.4516822397708893,
      -0.09239840507507324,
      -0.007642683107405901,
      0.05564400181174278,
      0.08444029837846756,
      -0.4467693567276001,
      0.12029644101858139,
      -0.2582804262638092,
      -0.23012934625148773,
      0.10677734017372131,
      -0.3141181468963623,
      0.21148058772087097,
      0.37021031975746155,
      0.036418188363313675,
      0.2894063889980316
    ],
    [
      -0.2957683503627777,
      0.26306861639022827,
      0.3744770586490631,
      -0.3114768862724304,
      0.3401537239551544,
      0.0034267271403223276,
      -0.19877858459949493,
      0.30708450078964233,
      -0.32257726788520813,
      0.12462359666824341,
      0.18632358312606812,
      -0.14086472988128662,
      0.25525999069213867,
      -0.04929652437567711,
      -0.40386268496513367,
      0.4720010757446289,
      0.15865865349769592,
      -0.2935883402824402,
      -0.022304192185401917,
      -0.4352298378944397,
      -0.17373216152191162,
      -0.3853377401828766,
      0.10425960272550583,
      0.35664695501327515,
      0.5366269946098328
    ],
    [
      -0.19384805858135223,
      -0.22616569697856903,
      0.24108687043190002,
      0.010112774558365345,
      0.1817443072795868,
      0.1983632892370224,
      -0.12234165519475937,
      0.25909894704818726,
      -0.09387609362602234,
      -0.4782024025917053,
      0.288735032081604,
      0.014148983173072338,
      0.19686366617679596,
      -0.5461887121200562,
      -0.18378013372421265,
      0.1293015033006668,
      0.36023443937301636,
      0.3073153793811798,
      -0.17429697513580322,
      0.40397706627845764,
      0.3660639822483063,
      -0.11649645864963531,
      -0.4979335069656372,
      -0.10884585231542587,
      0.046476300805807114
    ],
    [
      -0.22431468963623047,
      -0.24556174874305725,
      -0.08094380795955658,
      0.23616595566272736,
      0.3590433597564697,
      -0.6257573366165161,
      0.2417537271976471,
      0.13388924300670624,
      0.1299012452363968,
      0.18941587209701538,
      0.1792391836643219,
      0.06874802708625793,
      0.15008202195167542,
      -0.6379274129867554,
      -0.3994043171405792,
      -0.126228928565979,
      -0.27027466893196106,
      0.45186981558799744,
      0.43405526876449585,
      0.2663832902908325,
      -0.19246806204319,
      0.1540498584508896,
      0.23663125932216644,
      -0.34801149368286133,
      0.08217132836580276
    ],
    [
      0.07549750804901123,
      0.1699761301279068,
      -0.14259377121925354,
      -0.43234604597091675,
      -0.45449522137641907,
      -0.32535403966903687,
      -0.31387391686439514,
      0.02191929891705513,
      -0.2572178840637207,
      -0.26930758357048035,
      -0.4284793734550476,
      -0.11909514665603638,
      0.2621735632419586,
      0.4835537374019623,
      -0.3225483000278473,
      -0.3764604330062866,
      -0.3830070197582245,
      0.4857352674007416,
      0.06106104701757431,
      0.20940835773944855,
      0.02541666477918625,
      0.31023159623146057,
      0.4355386197566986,
      0.09487457573413849,
      -0.13556376099586487
    ],
    [
      -0.5012326240539551,
      0.0010402504121884704,
      -0.01392867136746645,
      -0.15810510516166687,
      -0.14716090261936188,
      0.017236793413758278,
      -0.2182081788778305,
      0.4600449204444885,
      0.2951160967350006,
      -0.6360390186309814,
      0.3298853933811188,
      -0.5112223625183105,
      0.11362792551517487,
      -0.3493839502334595,
      0.2046951949596405,
      0.2452906221151352,
      0.2053098827600479,
      -0.5968924164772034,
      -0.6116929650306702,
      -0.20661354064941406,
      0.4445491433143616,
      0.02237195521593094,
      -0.3853699564933777,
      -0.08490131050348282,
      -0.09977959096431732
    ],
    [
      0.38554731011390686,
      -0.261213093996048,
      0.28576725721359253,
      -0.39641013741493225,
      -0.3499546945095062,
      -0.14929698407649994,
      -0.10217754542827606,
      0.5149819254875183,
      -0.6565849781036377,
      -0.43413054943084717,
      -0.21501833200454712,
      -0.7889491319656372,
      -0.47812125086784363,
      -0.542076051235199,
      -0.30205222964286804,
      -0.5799041986465454,
      0.329219788312912,
      0.3364904224872589,
      -0.11794056743383408,
      -0.3842261731624603,
      0.03609287366271019,
      0.4217962920665741,
      -0.29990261793136597,
      0.35666385293006897,
      -0.1280224770307541
    ],
    [
      -0.26702097058296204,
      -0.39327988028526306,
      -0.3169046938419342,
      0.03194958716630936,
      -0.30062341690063477,
      -0.39594289660453796,
      0.37363508343696594,
      -0.02906821295619011,
      -0.2303278148174286,
      -0.6309327483177185,
      0.36954358220100403,
      -0.08030498772859573,
      0.27328041195869446,
      0.044972509145736694,
      -0.1369537115097046,
      -0.1806667149066925,
      -0.03836212307214737,
      -0.16463445127010345,
      0.08336791396141052,
      -0.24860548973083496,
      -0.06758332252502441,
      0.04571974277496338,
      -0.3324901759624481,
      0.293011337518692,
      -0.32503122091293335
    ],
    [
      -0.02492961287498474,
      -0.4680221676826477,
      -0.18983685970306396,
      -0.374302476644516,
      -0.28632768988609314,
      0.5620166659355164,
      0.022524695843458176,
      0.40850409865379333,
      -0.3509724736213684,
      0.4893546402454376,
      -0.0002626562782097608,
      0.027264846488833427,
      -0.42719554901123047,
      -0.4231869578361511,
      0.4145071804523468,
      0.3386980891227722,
      0.20533700287342072,
      -0.0077430629171431065,
      0.29996031522750854,
      0.4426378011703491,
      -0.5212016105651855,
      -0.1257910430431366,
      -0.003727339906617999,
      0.20589211583137512,
      0.12236914038658142
    ],
    [
      0.20742514729499817,
      0.15402351319789886,
      0.16920258104801178,
      0.2914382219314575,
      -0.10903670638799667,
      -0.35262975096702576,
      -0.6237948536872864,
      -0.39720797538757324,
      -0.3045317828655243,
      -0.38669392466545105,
      -0.4843261241912842,
      0.05430924519896507,
      0.24334053695201874,
      -0.15587349236011505,
      0.07226463407278061,
      -0.06952786445617676,
      -0.43873298168182373,
      0.27870115637779236,
      0.4567965269088745,
      0.17472313344478607,
      0.21072453260421753,
      0.019509626552462578,
      -0.2815413773059845,
      0.22983157634735107,
      -0.3227790594100952
    ],
    [
      -0.17003478109836578,
      0.033950723707675934,
      0.12823358178138733,
      0.16375403106212616,
      0.1821107119321823,
      0.27351343631744385,
      -0.06421589106321335,
      0.10985755920410156,
      0.14050400257110596,
      0.20788812637329102,
      0.10007894039154053,
      0.0925070121884346,
      -0.10886675864458084,
      -0.17712847888469696,
      0.0964275673031807,
      -0.005246297921985388,
      -0.028442811220884323,
      -0.1159835085272789,
      0.30750343203544617,
      0.5049709677696228,
      -0.0013318915152922273,
      -0.5088834166526794,
      0.008570265956223011,
      -0.09349203109741211,
      0.16421230137348175
    ],
    [
      -0.2429368495941162,
      0.37057334184646606,
      0.13845087587833405,
      0.2823438048362732,
      0.5356206297874451,
      0.03855576738715172,
      -0.4130859673023224,
      -0.17258235812187195,
      0.3843722939491272,
      -0.1900710165500641,
      0.3979381322860718,
      -0.042986512184143066,
      -0.36578673124313354,
      -0.13387471437454224,
      0.38658374547958374,
      0.20261558890342712,
      -0.43580731749534607,
      0.22782406210899353,
      -0.019002025946974754,
      -0.22499214112758636,
      0.02659466676414013,
      -0.17430004477500916,
      -0.3420845866203308,
      -0.12208501249551773,
      0.052669551223516464
    ],
    [
      -0.011228583753108978,
      0.2261401265859604,
      0.04990295320749283,
      -0.3064706325531006,
      0.3532506823539734,
      -0.07953525334596634,
      0.32429787516593933,
      0.46116816997528076,
      0.20434130728244781,
      0.1244300827383995,
      -0.40616533160209656,
      -0.4118629992008209,
      0.1914120465517044,
      0.040471117943525314,
      0.02298954501748085,
      -0.03829260542988777,
      -0.3511054515838623,
      0.39350664615631104,
      0.22505365312099457,
      -0.13497304916381836,
      -0.4377196431159973,
      -0.3833578824996948,
      0.15282990038394928,
      -0.25954192876815796,
      -0.44074034690856934
    ],
    [
      -0.15984855592250824,
      -0.3269557058811188,
      0.5875340700149536,
      0.4836083650588989,
      0.3586433529853821,
      0.3347286880016327,
      -0.11882133781909943,
      -0.03896584361791611,
      0.17210938036441803,
      -0.48989424109458923,
      0.17649739980697632,
      -0.14980092644691467,
      -0.31384727358818054,
      -0.6751037836074829,
      -0.4485631585121155,
      0.37165606021881104,
      0.2628563642501831,
      -0.19089765846729279,
      0.15699580311775208,
      -0.36632829904556274,
      0.13222774863243103,
      -0.2846110165119171,
      -0.1569126695394516,
      -0.22771161794662476,
      0.37879350781440735
    ],
    [
      -0.1749090552330017,
      0.05516423285007477,
      -0.03799661993980408,
      0.25735923647880554,
      -0.31871265172958374,
      -0.4822409152984619,
      0.34474122524261475,
      0.14327304065227509,
      0.5107505321502686,
      -0.03850772976875305,
      0.1811434030532837,
      -0.22602497041225433,
      0.38606858253479004,
      -0.05501387640833855,
      0.1212145984172821,
      0.16022267937660217,
      -0.1084628701210022,
      0.33943259716033936,
      -0.33309751749038696,
      -0.0926525667309761,
      0.0729302242398262,
      0.0984172597527504,
      -0.0021709196735173464,
      0.23017224669456482,
      -0.11841972917318344
    ],
    [
      -0.289032518863678,
      -0.050215814262628555,
      0.010144178755581379,
      0.013927671127021313,
      -0.37331417202949524,
      0.128645658493042,
      -0.22007107734680176,
      0.21348996460437775,
      0.5502006411552429,
      0.1253800392150879,
      -0.11261431872844696,
      -0.643035352230072,
      0.4373750388622284,
      -0.20353472232818604,
      -0.5184416770935059,
      -0.44520801305770874,
      -0.152579203248024,
      -0.4173163175582886,
      -0.6708057522773743,
      0.10982434451580048,
      -0.17124700546264648,
      0.35813474655151367,
      -0.22871269285678864,
      -0.09657871723175049,
      0.17373742163181305
    ],
    [
      -0.540810763835907,
      -0.33119747042655945,
      -0.0014376697363331914,
      0.35549020767211914,
      -0.28187376260757446,
      0.2865312993526459,
      0.13127176463603973,
      0.013605426996946335,
      -0.16976046562194824,
      -0.05405965819954872,
      0.2665857672691345,
      -0.024180790409445763,
      -0.517148494720459,
      -0.16544923186302185,
      -0.42152372002601624,
      0.38965854048728943,
      -0.45546117424964905,
      -0.08658570796251297,
      -0.10093685239553452,
      0.13056765496730804,
      -0.04144146665930748,
      -0.4731638729572296,
      -0.1701870709657669,
      0.09514312446117401,
      -0.5625774264335632
    ],
    [
      0.11742903292179108,
      -0.41197049617767334,
      0.0400175116956234,
      -0.1725086122751236,
      -0.1356835812330246,
      -0.2216435968875885,
      -0.2907811105251312,
      0.35822561383247375,
      -0.2555672228336334,
      0.27847710251808167,
      0.22022978961467743,
      0.3428879678249359,
      0.20336167514324188,
      -0.3894920349121094,
      -0.2589351534843445,
      0.07976526021957397,
      -0.1979539841413498,
      0.041422728449106216,
      -0.5205453038215637,
      0.4239911735057831,
      -0.5384472608566284,
      -0.27851003408432007,
      -0.4241373836994171,
      0.37398600578308105,
      0.34153565764427185
    ],
    [
      -0.3899078071117401,
      -0.30449002981185913,
      -0.03585341200232506,
      0.3050760328769684,
      -0.30197998881340027,
      0.6215258240699768,
      0.1009693294763565,
      -0.3440290689468384,
      0.6469355821609497,
      0.04017383232712746,
      -0.3181222677230835,
      -0.09911704063415527,
      0.2549281716346741,
      0.36587172746658325,
      0.6905928254127502,
      0.48210039734840393,
      -0.34976714849472046,
      0.033650487661361694,
      0.5427544713020325,
      -0.3524067997932434,
      -0.10076898336410522,
      -0.07386302202939987,
      -0.22660928964614868,
      -0.18555982410907745,
      -0.11016213893890381
    ],
    [
      0.4080052971839905,
      -0.26886796951293945,
      -0.2613883316516876,
      -0.4793136715888977,
      0.06064675748348236,
      0.17247794568538666,
      0.33265647292137146,
      -0.06954405456781387,
      0.09206593036651611,
      0.17707610130310059,
      -0.1087530180811882,
      -0.05808589980006218,
      0.058534588664770126,
      -0.3420090079307556,
      -0.42979419231414795,
      -0.27280372381210327,
      -0.10563952475786209,
      -0.12843143939971924,
      -0.03920990228652954,
      0.038462959229946136,
      0.37284785509109497,
      -0.12039653956890106,
      -0.4438794255256653,
      0.3320015072822571,
      -0.4211370348930359
    ],
    [
      0.3309174180030823,
      0.17030294239521027,
      -0.1527642458677292,
      -0.2740361988544464,
      -0.8174863457679749,
      -0.5410640239715576,
      -0.2378462851047516,
      0.18897171318531036,
      0.14293280243873596,
      -0.3696266710758209,
      0.13433216512203217,
      -0.3072766661643982,
      -0.5202006697654724,
      0.47087347507476807,
      -0.08123917877674103,
      0.08712969720363617,
      -0.4594898223876953,
      0.12959694862365723,
      -0.16037152707576752,
      -0.16973905265331268,
      0.2473987340927124,
      0.18478649854660034,
      -0.14675021171569824,
      0.08495805412530899,
      -0.5095078945159912
    ],
    [
      0.18858788907527924,
      0.04311278089880943,
      -0.07017625868320465,
      0.1331218034029007,
      0.5595669746398926,
      0.06361144781112671,
      -0.3996521532535553,
      -0.28698885440826416,
      0.1778387576341629,
      0.26266878843307495,
      0.2928318679332733,
      0.21779102087020874,
      -0.20597206056118011,
      0.2272491306066513,
      0.4413791000843048,
      0.025904390960931778,
      0.3346422016620636,
      -0.06726732850074768,
      0.1505364328622818,
      -0.35390275716781616,
      -0.3166714012622833,
      -0.3974818289279938,
      -0.25541627407073975,
      0.0442272387444973,
      -0.3065888583660126
    ],
    [
      -0.012622087262570858,
      0.15321017801761627,
      0.10216913372278214,
      0.3710014224052429,
      -0.27588558197021484,
      0.04106854647397995,
      0.06480398774147034,
      -0.23073115944862366,
      -0.4559948146343231,
      0.34818699955940247,
      -0.25205865502357483,
      0.31092867255210876,
      -0.18098975718021393,
      -0.3795510530471802,
      -0.3106766641139984,
      0.21270516514778137,
      0.012984410859644413,
      -0.3035391569137573,
      -0.35108205676078796,
      -0.09939196705818176,
      -0.5243757963180542,
      -0.35192787647247314,
      -0.24653317034244537,
      -0.44417649507522583,
      -0.23027531802654266
    ],
    [
      -0.26322081685066223,
      0.15286721289157867,
      0.41547319293022156,
      -0.3076044023036957,
      0.12281758338212967,
      -0.27877160906791687,
      0.05767913907766342,
      -0.15880221128463745,
      0.13925215601921082,
      -0.14138826727867126,
      -0.14117218554019928,
      0.2525630295276642,
      -0.45923516154289246,
      -0.31243476271629333,
      0.007714340463280678,
      -0.2981712222099304,
      -0.39481306076049805,
      0.04557659476995468,
      0.24852417409420013,
      -0.1566217690706253,
      -0.3546362817287445,
      -0.29172733426094055,
      0.4812280535697937,
      0.10566562414169312,
      -0.20299828052520752
    ],
    [
      0.25665754079818726,
      -0.5553357601165771,
      0.24198561906814575,
      -0.19899900257587433,
      0.04442296922206879,
      0.04951430857181549,
      0.06880494207143784,
      -0.652041494846344,
      -0.39011815190315247,
      -0.31954070925712585,
      0.37108659744262695,
      0.11815397441387177,
      0.18950507044792175,
      0.1885741502046585,
      -0.3574029207229614,
      0.3458215892314911,
      0.14401613175868988,
      0.02117273584008217,
      0.010022619739174843,
      0.005286631174385548,
      0.050918098539114,
      -0.6034052968025208,
      -0.2856663763523102,
      -0.31756892800331116,
      0.08896670490503311
    ],
    [
      -0.27230218052864075,
      0.47274094820022583,
      -0.44513940811157227,
      -0.06357665359973907,
      -0.36024925112724304,
      0.059481944888830185,
      -0.16775016486644745,
      -0.5746581554412842,
      0.040613315999507904,
      0.13259491324424744,
      -0.02550804615020752,
      -0.1735166758298874,
      -0.19468717277050018,
      0.3072226643562317,
      0.2279626876115799,
      0.45660239458084106,
      -0.390255868434906,
      0.124869704246521,
      0.0461844727396965,
      0.1389239877462387,
      -0.10158850997686386,
      0.30225566029548645,
      0.0013927619438618422,
      -0.12083665281534195,
      -0.19630596041679382
    ],
    [
      0.05413838475942612,
      -0.30368417501449585,
      -0.2591072618961334,
      -0.30881020426750183,
      0.027935532853007317,
      0.11981107294559479,
      0.11815927922725677,
      -0.23431140184402466,
      0.03874766081571579,
      0.3793603181838989,
      -0.211604043841362,
      0.4028908908367157,
      0.2901057302951813,
      -0.05386606231331825,
      0.3395555019378662,
      0.31738150119781494,
      -0.3406316339969635,
      0.1486615687608719,
      -0.2052145153284073,
      0.4826764464378357,
      -0.3483477234840393,
      -0.1973356008529663,
      -0.33728063106536865,
      -0.2559368312358856,
      0.31080392003059387
    ],
    [
      0.2683863639831543,
      0.19258393347263336,
      -0.05631376430392265,
      -0.44147688150405884,
      0.2434719204902649,
      -0.019873490557074547,
      0.13827896118164062,
      -0.6998221278190613,
      -0.4450375735759735,
      -0.16864044964313507,
      -0.15589803457260132,
      0.46650606393814087,
      0.012165593914687634,
      -0.3304515779018402,
      -0.04646961763501167,
      0.04084688052535057,
      -0.28254273533821106,
      -0.3287122845649719,
      0.295672744512558,
      0.11393602937459946,
      0.1538797914981842,
      0.08252459019422531,
      0.34324702620506287,
      -0.04536190629005432,
      0.00026439374778419733
    ],
    [
      -0.23428335785865784,
      0.018312767148017883,
      -0.33431193232536316,
      -0.46497416496276855,
      -0.5353314280509949,
      -0.07238025218248367,
      -0.600443422794342,
      0.04256102070212364,
      -0.3390178978443146,
      -0.3530906140804291,
      0.40860244631767273,
      -0.498080313205719,
      -0.5105540156364441,
      -0.6885284781455994,
      0.2051662653684616,
      0.2982351779937744,
      0.4325808882713318,
      0.10920697450637817,
      -0.4509590268135071,
      0.3026592433452606,
      0.44798025488853455,
      -0.12702469527721405,
      -0.39555254578590393,
      -0.4451453685760498,
      0.059390559792518616
    ],
    [
      -0.12267550826072693,
      0.2093198299407959,
      0.4357515871524811,
      0.24698537588119507,
      0.2957206964492798,
      -0.6015992164611816,
      0.4603975713253021,
      -0.700859546661377,
      0.05255308374762535,
      -0.12033099681138992,
      0.4376966059207916,
      -0.10345836728811264,
      0.16413983702659607,
      -0.22614091634750366,
      0.4304216504096985,
      -0.4577086865901947,
      0.3626154661178589,
      -0.24668832123279572,
      0.26601555943489075,
      0.12520483136177063,
      0.4006921947002411,
      -0.4637555181980133,
      -0.051625896245241165,
      0.17087970674037933,
      0.37183842062950134
    ],
    [
      0.04651723429560661,
      0.27604472637176514,
      -0.48928961157798767,
      0.1960689127445221,
      -0.28633540868759155,
      -0.41860291361808777,
      0.0999269187450409,
      0.19321411848068237,
      -0.10997115820646286,
      0.2398243099451065,
      -0.07058385759592056,
      -0.5554513335227966,
      -0.0938425064086914,
      -0.5971270203590393,
      0.2498590648174286,
      -0.28825506567955017,
      0.1494576632976532,
      -0.037903860211372375,
      -0.4473053514957428,
      0.09400002658367157,
      0.44292378425598145,
      -0.1819114089012146,
      -0.3642367720603943,
      -0.05192257836461067,
      0.1247151643037796
    ],
    [
      0.026045694947242737,
      -0.1780584454536438,
      -0.27654919028282166,
      -0.26174959540367126,
      -0.43275216221809387,
      -0.3820783793926239,
      0.22614416480064392,
      0.19895614683628082,
      0.28311023116111755,
      -0.05233217775821686,
      0.0009235437028110027,
      -0.015181180089712143,
      0.11030314117670059,
      0.46142634749412537,
      -0.013849067501723766,
      0.13151860237121582,
      -0.4217204451560974,
      -0.27427050471305847,
      -0.010939677245914936,
      0.3239428400993347,
      0.08500783145427704,
      -0.414853036403656,
      -0.24887119233608246,
      -0.29676249623298645,
      0.18255797028541565
    ],
    [
      -0.2242167592048645,
      0.3297078609466553,
      0.43478888273239136,
      -0.03129896521568298,
      -0.5045210719108582,
      0.23910653591156006,
      -0.18501219153404236,
      0.43610188364982605,
      0.5057895183563232,
      0.21019995212554932,
      -0.3073020577430725,
      0.04924141988158226,
      -0.17770180106163025,
      0.3717036843299866,
      -0.12702958285808563,
      0.4818597435951233,
      -0.1612694412469864,
      0.15688666701316833,
      0.14206558465957642,
      0.08739661425352097,
      -0.1685251146554947,
      0.07408594340085983,
      -0.359989196062088,
      0.38955453038215637,
      0.17531563341617584
    ],
    [
      -0.026223594322800636,
      -0.022948414087295532,
      -0.20075854659080505,
      -0.4466950595378876,
      -0.37298399209976196,
      0.07132913172245026,
      0.4304429590702057,
      -0.2897171378135681,
      -0.3781440258026123,
      0.11047828942537308,
      -0.0707196369767189,
      -0.3174859285354614,
      -0.23731549084186554,
      -0.297620564699173,
      -0.21051007509231567,
      -0.11915359646081924,
      -0.07252278178930283,
      -0.11163504421710968,
      -0.3678610324859619,
      0.15462858974933624,
      0.11772140860557556,
      0.28145384788513184,
      -0.3470016121864319,
      0.32388821244239807,
      0.15552587807178497
    ],
    [
      -0.3546254336833954,
      0.08267828077077866,
      -0.08605189621448517,
      -0.5325106978416443,
      0.15298417210578918,
      -0.19941450655460358,
      0.014468812383711338,
      -0.19381920993328094,
      -0.20541733503341675,
      -0.2883072793483734,
      0.23812274634838104,
      -0.5596727132797241,
      -0.4917789399623871,
      -0.35965409874916077,
      -0.4769764542579651,
      0.25545403361320496,
      -0.19703558087348938,
      0.29308345913887024,
      -0.3851824402809143,
      -0.2443060427904129,
      -0.24403832852840424,
      0.11758755147457123,
      0.1589975506067276,
      -0.21196125447750092,
      -0.274410218000412
    ],
    [
      0.12867487967014313,
      -0.11905679851770401,
      -0.22375254333019257,
      0.3365054428577423,
      -0.6676548719406128,
      -0.3392963707447052,
      0.04457787796854973,
      0.029770057648420334,
      0.04048202931880951,
      0.23789535462856293,
      -0.1925889551639557,
      -0.275160014629364,
      0.4654989540576935,
      0.22741654515266418,
      0.16208823025226593,
      -0.5556269288063049,
      -0.037472937256097794,
      0.12942278385162354,
      -0.41904598474502563,
      0.3431188762187958,
      -0.3669615685939789,
      0.36883559823036194,
      0.4306941330432892,
      -0.36834239959716797,
      -0.27739760279655457
    ],
    [
      0.34335771203041077,
      0.41650494933128357,
      0.351584792137146,
      0.016203712671995163,
      -0.42527708411216736,
      -0.21416407823562622,
      0.28136470913887024,
      -0.4167554974555969,
      -0.3131595551967621,
      -0.04200044646859169,
      -0.3221445679664612,
      -0.4302639067173004,
      0.3363592326641083,
      -0.31564608216285706,
      -0.20398198068141937,
      0.18685045838356018,
      -0.025103464722633362,
      -0.46309641003608704,
      0.21309927105903625,
      -0.4230509400367737,
      -0.29285767674446106,
      -0.1864277571439743,
      0.04199151322245598,
      -0.2835826873779297,
      -0.2247927188873291
    ],
    [
      -0.4239560067653656,
      -0.16392503678798676,
      -0.08931930363178253,
      -0.25983893871307373,
      0.7290780544281006,
      -0.0556454174220562,
      0.06735199689865112,
      -0.09470699727535248,
      0.06066848710179329,
      -0.049967773258686066,
      0.24634240567684174,
      -0.3126471936702728,
      0.16570384800434113,
      0.2797400653362274,
      0.1206401139497757,
      0.2532813847064972,
      -0.13445591926574707,
      -0.25038468837738037,
      0.4661339521408081,
      -0.3287609815597534,
      -0.4086945354938507,
      0.1555149406194687,
      -0.27727434039115906,
      0.013568202964961529,
      -0.01870916411280632
    ],
    [
      -0.2428843230009079,
      0.18001620471477509,
      0.21335047483444214,
      -0.22131630778312683,
      0.1652873456478119,
      0.13260804116725922,
      0.006489340681582689,
      -0.1368378847837448,
      -0.3977092504501343,
      0.09683975577354431,
      0.01223413273692131,
      -0.09174785763025284,
      0.1584271788597107,
      0.37523719668388367,
      -0.3189869523048401,
      -0.25692546367645264,
      0.2275458127260208,
      -0.40338513255119324,
      0.3134046494960785,
      -0.46019530296325684,
      -0.18097856640815735,
      0.264365017414093,
      -0.4939349889755249,
      -0.14001964032649994,
      -0.20386217534542084
    ],
    [
      -0.046975504606962204,
      -0.6224963665008545,
      0.25517624616622925,
      0.3373996615409851,
      0.42569470405578613,
      -0.18267890810966492,
      0.2542363107204437,
      -0.06931525468826294,
      0.1304168552160263,
      -0.18027308583259583,
      0.23659765720367432,
      -0.215945765376091,
      -0.15997236967086792,
      0.017280645668506622,
      -0.003810433903709054,
      0.09421322494745255,
      -0.34360769391059875,
      0.031574051827192307,
      0.400762677192688,
      0.16681720316410065,
      -0.09465789049863815,
      -0.6636598706245422,
      0.008036704733967781,
      -0.4958950877189636,
      -0.44530582427978516
    ],
    [
      0.11506939679384232,
      -0.11439253389835358,
      -0.01733897626399994,
      -0.022115597501397133,
      0.24830812215805054,
      0.16321495175361633,
      0.2787915766239166,
      -0.05719223991036415,
      -0.4376668632030487,
      -0.16968144476413727,
      0.1536039113998413,
      0.3642742335796356,
      -0.5350311994552612,
      0.053994785994291306,
      -0.46910467743873596,
      -0.5379726886749268,
      -0.10900728404521942,
      -0.042716603726148605,
      0.3912302553653717,
      0.18729864060878754,
      0.22393113374710083,
      -0.36144956946372986,
      -0.06371258944272995,
      0.36157941818237305,
      0.12748660147190094
    ],
    [
      -0.2677600383758545,
      0.30083146691322327,
      0.22761861979961395,
      0.02266669273376465,
      0.04907631501555443,
      -0.35654884576797485,
      0.20811837911605835,
      0.2581552267074585,
      -0.5490445494651794,
      -0.5509442090988159,
      0.24786794185638428,
      0.3405863344669342,
      -0.1779068410396576,
      -0.5566360950469971,
      -0.3626455068588257,
      -0.6113130450248718,
      -0.05661241337656975,
      -0.12301607429981232,
      -0.008963600732386112,
      -0.48325133323669434,
      -0.02470734342932701,
      0.45617425441741943,
      -0.11782043427228928,
      -0.42468905448913574,
      0.07976414263248444
    ],
    [
      0.12071280926465988,
      -0.4407443404197693,
      -0.25526711344718933,
      -0.46529775857925415,
      -0.24052384495735168,
      -0.4668104946613312,
      -0.06806137412786484,
      0.053134601563215256,
      0.3941519260406494,
      -0.08119229227304459,
      -0.1640225201845169,
      -0.23619960248470306,
      -0.08252765238285065,
      -0.019865702837705612,
      0.3847423195838928,
      -0.1816861778497696,
      0.3271945118904114,
      -0.15447990596294403,
      -0.4471008777618408,
      -0.3097231388092041,
      0.35541832447052,
      0.2714029550552368,
      -0.269010454416275,
      -0.11250747740268707,
      -0.289060115814209
    ],
    [
      0.4513604938983917,
      0.19737465679645538,
      -0.07423459738492966,
      0.22548066079616547,
      0.48400363326072693,
      -0.3168643116950989,
      -0.14308327436447144,
      0.298033744096756,
      0.060622550547122955,
      0.26754042506217957,
      -0.158650204539299,
      0.1518768072128296,
      0.15137039124965668,
      0.35916823148727417,
      -0.26417863368988037,
      -0.06304477900266647,
      -0.13404065370559692,
      0.026767751201987267,
      -0.05830685421824455,
      0.37151575088500977,
      -0.344526469707489,
      -0.3547151982784271,
      0.2270759642124176,
      0.2718113958835602,
      0.12117066234350204
    ],
    [
      0.201201930642128,
      -0.2897357940673828,
      0.014986583031713963,
      -0.038320060819387436,
      0.38801780343055725,
      0.0373908132314682,
      -0.38676273822784424,
      -0.03534645959734917,
      0.3206472098827362,
      0.332589328289032,
      0.012954379431903362,
      -0.5392475724220276,
      -0.17263378202915192,
      -0.27357983589172363,
      -0.20502354204654694,
      0.04171859472990036,
      0.41887837648391724,
      -0.29684847593307495,
      -0.2323758751153946,
      0.40834885835647583,
      0.38642990589141846,
      -0.5629578232765198,
      -0.4798259139060974,
      0.19209228456020355,
      0.3187200427055359
    ],
    [
      -0.3038485050201416,
      0.24171987175941467,
      0.3265206515789032,
      0.23204408586025238,
      0.43899592757225037,
      0.4229963719844818,
      -0.7320533990859985,
      -0.3245887756347656,
      -0.3794275224208832,
      -0.4245893657207489,
      0.03622537851333618,
      0.5419598817825317,
      0.41830193996429443,
      -0.4226481318473816,
      0.032394230365753174,
      0.34668704867362976,
      -0.22182540595531464,
      -0.013373984955251217,
      0.3141593039035797,
      -0.4345313310623169,
      -0.5659418106079102,
      -0.24386991560459137,
      -0.3259842097759247,
      -0.18865415453910828,
      0.3321649134159088
    ],
    [
      -0.5167608857154846,
      0.24237029254436493,
      -0.09460397064685822,
      -0.09941382706165314,
      -0.1590617299079895,
      -0.11338783800601959,
      -0.4541155695915222,
      -0.6688796877861023,
      0.5016676783561707,
      0.44607996940612793,
      0.3221319913864136,
      0.07498504221439362,
      -0.41340625286102295,
      0.5788456201553345,
      -0.3996221423149109,
      -0.3453376889228821,
      -0.20756569504737854,
      -0.2058897316455841,
      0.3434694707393646,
      -0.15370546281337738,
      -0.4979076683521271,
      0.04771316051483154,
      0.30413496494293213,
      -0.5203834176063538,
      -0.15033501386642456
    ],
    [
      -0.3438991904258728,
      -0.09153123944997787,
      0.24679188430309296,
      -0.025585323572158813,
      0.4985969066619873,
      -0.49934446811676025,
      0.2849397659301758,
      -0.6427723169326782,
      -0.5057654976844788,
      -0.40288418531417847,
      -0.2697225511074066,
      0.4594072699546814,
      0.506110668182373,
      -0.25644972920417786,
      -0.13535791635513306,
      -0.7210485935211182,
      0.3314496576786041,
      -0.4345932900905609,
      0.2944287359714508,
      -0.5729256868362427,
      -0.31576013565063477,
      0.09823078662157059,
      -0.20239946246147156,
      0.08312790840864182,
      0.3531685173511505
    ],
    [
      0.20297473669052124,
      0.07127819955348969,
      0.08200038969516754,
      -0.41202351450920105,
      0.15789474546909332,
      -0.2905169129371643,
      -0.18240448832511902,
      0.15691150724887848,
      -0.21784859895706177,
      0.4779079258441925,
      0.05687969923019409,
      -0.42390331625938416,
      -0.13915042579174042,
      0.5320234894752502,
      -0.10052270442247391,
      -0.41882315278053284,
      0.02528836391866207,
      -0.5039739012718201,
      0.23969766497612,
      0.4091328978538513,
      0.23160423338413239,
      -0.3627379238605499,
      -0.37473246455192566,
      0.08982502669095993,
      -0.2958589494228363
    ],
    [
      -0.2959834635257721,
      -0.5522159934043884,
      0.2052198350429535,
      -0.35375189781188965,
      -0.14967939257621765,
      -0.41334107518196106,
      0.02391260303556919,
      -0.6295064687728882,
      -0.4036315381526947,
      0.2903408706188202,
      0.23918823897838593,
      -0.21930086612701416,
      0.2870766520500183,
      0.3842930495738983,
      0.03278178349137306,
      -0.21554537117481232,
      0.20535868406295776,
      -0.2818927764892578,
      0.5055124759674072,
      0.38342297077178955,
      -0.13278914988040924,
      -0.24948784708976746,
      -0.15449880063533783,
      -0.2294716238975525,
      0.38788729906082153
    ],
    [
      -0.05454399436712265,
      -0.2800803780555725,
      0.3936063051223755,
      -0.16587452590465546,
      0.010906335897743702,
      0.5138105154037476,
      -0.14353850483894348,
      0.44105058908462524,
      0.33601316809654236,
      0.47904691100120544,
      -0.464311420917511,
      -0.021789947524666786,
      0.46343132853507996,
      -0.48124709725379944,
      -0.16091066598892212,
      0.192650705575943,
      0.2054225504398346,
      -0.26353591680526733,
      0.18705949187278748,
      0.20308467745780945,
      0.1399945318698883,
      0.017985694110393524,
      -0.1316412389278412,
      0.47481611371040344,
      -0.03569244593381882
    ],
    [
      0.2970730662345886,
      -0.07862213253974915,
      0.011107305996119976,
      0.42909300327301025,
      0.3681962490081787,
      -0.531080961227417,
      -0.4976416528224945,
      -0.3051505386829376,
      -0.12877440452575684,
      0.31692275404930115,
      0.15228445827960968,
      -0.178041473031044,
      0.3185166120529175,
      -0.24057021737098694,
      0.32918092608451843,
      -0.5680546164512634,
      -0.3197852373123169,
      0.22197575867176056,
      0.4708811342716217,
      -0.29753753542900085,
      -0.2356356978416443,
      -0.34495362639427185,
      0.5184040665626526,
      0.4589933753013611,
      -0.03273722529411316
    ],
    [
      -0.22652119398117065,
      -0.4525182545185089,
      -0.11811968684196472,
      0.44320547580718994,
      -0.3200977146625519,
      -0.1578044444322586,
      -0.04283750057220459,
      0.03308539465069771,
      -0.29221203923225403,
      -0.06877171248197556,
      -0.3365522027015686,
      -0.23146028816699982,
      0.024573655799031258,
      0.07635132223367691,
      -0.22836706042289734,
      0.3487609028816223,
      0.07086875289678574,
      0.47205403447151184,
      -0.2357695996761322,
      -0.07360492646694183,
      -0.16649377346038818,
      -0.10552068054676056,
      -0.23136498034000397,
      -0.07351773232221603,
      -0.2200140506029129
    ],
    [
      -0.11468793451786041,
      0.02287214808166027,
      0.18184815347194672,
      0.369899719953537,
      -0.0970383808016777,
      0.5216478109359741,
      0.25078490376472473,
      -0.5451067090034485,
      0.11702621728181839,
      0.02005937695503235,
      -0.24582399427890778,
      0.25794538855552673,
      -0.37001413106918335,
      0.4516262114048004,
      -0.09588944911956787,
      0.34868115186691284,
      -0.3777661919593811,
      -0.12755419313907623,
      0.08688228577375412,
      0.3061445653438568,
      0.10765013098716736,
      -0.23979422450065613,
      -0.01846829615533352,
      -0.34952351450920105,
      0.10300265997648239
    ],
    [
      0.11825311183929443,
      0.24369964003562927,
      -0.3691287040710449,
      0.1837635189294815,
      0.39570751786231995,
      -0.20789295434951782,
      -0.4756340980529785,
      -0.770871102809906,
      0.19812655448913574,
      -0.4316790997982025,
      -0.25460782647132874,
      0.20444203913211823,
      0.06553678214550018,
      -0.20988227427005768,
      -0.2364068478345871,
      -0.40697231888771057,
      0.2587756812572479,
      -0.30024591088294983,
      0.533337414264679,
      0.322634220123291,
      0.0010324256727471948,
      -0.4042990505695343,
      -0.048938095569610596,
      0.18871758878231049,
      0.6054601073265076
    ],
    [
      0.20422086119651794,
      -0.26044443249702454,
      -0.39588192105293274,
      0.051046982407569885,
      0.30931055545806885,
      0.1878557950258255,
      -0.36730873584747314,
      -0.15078245103359222,
      0.35553422570228577,
      0.3269840180873871,
      0.47076869010925293,
      -0.15440671145915985,
      0.5599455833435059,
      -0.2450888752937317,
      -0.43693357706069946,
      0.3308700919151306,
      -0.10690168291330338,
      0.05845759063959122,
      0.2817193865776062,
      0.06536459177732468,
      -0.21645505726337433,
      -0.42199766635894775,
      0.02912324108183384,
      0.4296073913574219,
      0.2795109450817108
    ],
    [
      0.14341425895690918,
      -0.42144152522087097,
      -0.06902699917554855,
      0.024339577183127403,
      -0.11233285069465637,
      0.04079944267868996,
      0.24431520700454712,
      -0.18122567236423492,
      0.43710294365882874,
      0.09835909307003021,
      0.08006778359413147,
      -0.20711608231067657,
      -0.12843970954418182,
      -0.4125524163246155,
      -0.42511340975761414,
      -0.07118779420852661,
      -0.39972326159477234,
      -0.43142005801200867,
      0.043208517134189606,
      -0.1944551169872284,
      0.11041644215583801,
      0.00950542651116848,
      -0.5016465187072754,
      -0.5356226563453674,
      -0.4691643714904785
    ],
    [
      -0.32879838347435,
      -0.2769055664539337,
      -0.08252113312482834,
      -0.30115509033203125,
      -0.5131466388702393,
      0.0033333180472254753,
      -0.35814735293388367,
      -0.28167247772216797,
      -0.3864291310310364,
      -0.38307976722717285,
      0.3540448546409607,
      -0.3407784700393677,
      -0.25957363843917847,
      -0.10452814400196075,
      -0.19499799609184265,
      0.010061224922537804,
      0.11686767637729645,
      -0.384713351726532,
      -0.3675795793533325,
      0.3775482475757599,
      0.38865309953689575,
      -0.42814937233924866,
      0.3033568859100342,
      0.02738375961780548,
      -0.08374279737472534
    ],
    [
      -0.17756883800029755,
      -0.09589540958404541,
      0.45948895812034607,
      -0.368448406457901,
      0.4103056490421295,
      -0.16613051295280457,
      -0.47054123878479004,
      0.3622991740703583,
      0.301216721534729,
      -0.4809780716896057,
      0.10998083651065826,
      0.47005847096443176,
      0.4695071876049042,
      -0.14022420346736908,
      0.02744487300515175,
      -0.4437965750694275,
      -0.14337562024593353,
      -0.3756689727306366,
      0.3697349727153778,
      0.31899330019950867,
      0.42987367510795593,
      -0.20395207405090332,
      -0.33715203404426575,
      0.03621039539575577,
      0.09288909286260605
    ],
    [
      -0.09290536493062973,
      -0.3433231711387634,
      0.3560561537742615,
      -0.4228195250034332,
      0.3357607126235962,
      0.256345272064209,
      0.056884147226810455,
      0.47818413376808167,
      0.09728020429611206,
      0.06662064790725708,
      -0.2333170473575592,
      -0.1728244125843048,
      -0.47011399269104004,
      -0.3622441589832306,
      0.23313258588314056,
      -0.13726696372032166,
      0.35522231459617615,
      0.15050004422664642,
      0.09514954686164856,
      -0.33554670214653015,
      0.014047308824956417,
      -0.2343464493751526,
      -0.004272547084838152,
      0.040201012045145035,
      0.36718693375587463
    ],
    [
      0.1748173087835312,
      -0.19944798946380615,
      0.28389817476272583,
      0.10954361408948898,
      0.11792594939470291,
      0.41851404309272766,
      -0.2952128052711487,
      0.38133999705314636,
      -0.17054256796836853,
      0.15488411486148834,
      -0.03995022550225258,
      -0.06595884263515472,
      0.05559605360031128,
      0.37275704741477966,
      0.07599512487649918,
      -0.4010540544986725,
      -0.42496389150619507,
      -0.16160239279270172,
      -0.017139125615358353,
      -0.11592209339141846,
      0.07147883623838425,
      -0.24392999708652496,
      -0.5618364810943604,
      -0.2896561026573181,
      -0.19729027152061462
    ],
    [
      -0.2759699523448944,
      -0.1120017021894455,
      0.06042242795228958,
      -0.00032659125281497836,
      -0.3412635326385498,
      -0.10439760982990265,
      0.1617899239063263,
      0.32861360907554626,
      0.36892175674438477,
      -0.052842576056718826,
      0.05941722169518471,
      -0.7857745885848999,
      0.33131757378578186,
      0.1909315586090088,
      0.20743153989315033,
      0.2812524437904358,
      -0.3806614577770233,
      -0.2864314913749695,
      0.1301700621843338,
      0.014773392118513584,
      -0.14810097217559814,
      0.3791118264198303,
      -0.4631049633026123,
      -0.3718676269054413,
      -0.7925716638565063
    ],
    [
      0.08654553443193436,
      -0.3816598057746887,
      -0.15621739625930786,
      -0.43310266733169556,
      0.13683576881885529,
      0.006728098727762699,
      -0.34914010763168335,
      -0.41540172696113586,
      -0.4370606541633606,
      0.01154908537864685,
      0.32082515954971313,
      -0.438150018453598,
      -0.3362553119659424,
      -0.3244936764240265,
      -0.46335798501968384,
      0.017378132790327072,
      -0.09350670129060745,
      0.42113539576530457,
      0.1475892812013626,
      0.5039536952972412,
      -0.05276491120457649,
      0.17054292559623718,
      -0.41390737891197205,
      0.21261411905288696,
      -0.016519568860530853
    ],
    [
      0.2240741103887558,
      0.29129254817962646,
      -0.24114102125167847,
      0.23181238770484924,
      0.39125433564186096,
      1.1000365018844604,
      -0.25956639647483826,
      -0.28965064883232117,
      0.18531236052513123,
      0.40050065517425537,
      -0.10990680009126663,
      0.08150946348905563,
      0.26760032773017883,
      0.3718172311782837,
      0.11800935864448547,
      0.7096935510635376,
      -0.2502710521221161,
      0.10183564573526382,
      -0.1864212453365326,
      0.031184984371066093,
      -0.06688564270734787,
      -0.34968873858451843,
      -0.12470921128988266,
      0.05562497302889824,
      -0.30489441752433777
    ],
    [
      -0.37778472900390625,
      0.4049317538738251,
      0.3395194709300995,
      -0.3702501356601715,
      -0.09618064761161804,
      0.026230474933981895,
      0.3134719431400299,
      0.06863587349653244,
      0.3383825719356537,
      0.08048618584871292,
      -0.2312408834695816,
      0.007475190795958042,
      0.1886008381843567,
      0.3122134208679199,
      -0.47637778520584106,
      0.05539066344499588,
      -0.3593505918979645,
      -0.35538169741630554,
      -0.34459200501441956,
      -0.4729207158088684,
      -0.08113402128219604,
      -0.2880752682685852,
      -0.16881145536899567,
      -0.06498356908559799,
      -0.2910838723182678
    ],
    [
      -0.17398418486118317,
      0.27816933393478394,
      0.12290291488170624,
      0.47185081243515015,
      0.6195629835128784,
      0.26748064160346985,
      0.28451240062713623,
      -0.29702842235565186,
      -0.3287609815597534,
      0.1694130301475525,
      -0.3899494707584381,
      0.3003951907157898,
      0.06500548869371414,
      0.24063551425933838,
      0.14638890326023102,
      0.3857043981552124,
      0.2506537437438965,
      -0.2816073000431061,
      0.14125794172286987,
      0.0007695532985962927,
      -0.26558008790016174,
      -0.018405362963676453,
      0.19692552089691162,
      -0.43349647521972656,
      0.3467767536640167
    ],
    [
      0.06507180631160736,
      -0.4399092495441437,
      0.06298340111970901,
      0.11594472080469131,
      0.05102290213108063,
      -0.14242684841156006,
      -0.2509482204914093,
      0.11236639320850372,
      0.3833720088005066,
      0.121920146048069,
      -0.513623833656311,
      -0.026053037494421005,
      -0.42719635367393494,
      -0.3191791772842407,
      0.5348538160324097,
      0.2675151824951172,
      -0.26029258966445923,
      -0.2192341685295105,
      0.10595646500587463,
      0.3598135709762573,
      0.14469535648822784,
      0.002492758445441723,
      0.01730421744287014,
      -0.5666927099227905,
      -0.12777946889400482
    ],
    [
      -0.13002106547355652,
      0.29919081926345825,
      0.09333521127700806,
      0.0018372605554759502,
      -0.1404222697019577,
      0.22676408290863037,
      -0.21225976943969727,
      0.14254789054393768,
      -0.2326563596725464,
      0.41376563906669617,
      0.31240102648735046,
      0.1773848980665207,
      -0.5332559943199158,
      0.26777175068855286,
      0.022092869505286217,
      0.38523954153060913,
      0.04012066870927811,
      -0.4201919734477997,
      -0.24882325530052185,
      -0.2842649817466736,
      -0.3389819860458374,
      0.27956512570381165,
      -0.18722446262836456,
      -0.06192910671234131,
      0.13896837830543518
    ],
    [
      -0.24645690619945526,
      0.1854272484779358,
      -0.05387754365801811,
      0.3272033631801605,
      -0.19221360981464386,
      0.07085821777582169,
      0.1822851598262787,
      0.0855521485209465,
      0.49446728825569153,
      -0.14861749112606049,
      -0.3481329381465912,
      0.4551555812358856,
      0.3708789348602295,
      0.07075753808021545,
      -0.012224389240145683,
      -0.25217047333717346,
      0.03030635043978691,
      -0.2165900617837906,
      0.32920724153518677,
      -0.3828534781932831,
      -0.019342023879289627,
      -0.50388503074646,
      0.34141719341278076,
      0.39544564485549927,
      -0.18605256080627441
    ],
    [
      -0.40320172905921936,
      -0.40177446603775024,
      -0.09743558615446091,
      0.09048531204462051,
      -0.411262571811676,
      0.34251639246940613,
      -0.3398421108722687,
      0.47148624062538147,
      0.2621021270751953,
      -0.22772866487503052,
      0.2504176199436188,
      0.15561915934085846,
      -0.509064257144928,
      0.17983804643154144,
      -0.14920775592327118,
      -0.2908501923084259,
      0.31627070903778076,
      -0.26277509331703186,
      -0.397857129573822,
      0.07089491188526154,
      -0.050053007900714874,
      -0.15540426969528198,
      -0.25596699118614197,
      -0.014370778575539589,
      -0.03776571527123451
    ],
    [
      0.1567588448524475,
      -0.5339426398277283,
      -0.48863837122917175,
      0.2326209545135498,
      -0.3450254201889038,
      -0.051174797117710114,
      -0.32184815406799316,
      0.3956821858882904,
      -0.14624863862991333,
      0.1625089943408966,
      -0.14263854920864105,
      0.10215099900960922,
      -0.16907870769500732,
      -0.390674352645874,
      -0.287089467048645,
      -0.4240554869174957,
      -0.07904469966888428,
      0.17310158908367157,
      0.330207884311676,
      -0.019683383405208588,
      -0.30639341473579407,
      0.06497643142938614,
      -0.23695717751979828,
      -0.07347732037305832,
      -0.4501030147075653
    ],
    [
      -0.17370042204856873,
      -0.05619003251194954,
      -0.07278072088956833,
      0.0338158905506134,
      -0.07591245323419571,
      -0.006912694312632084,
      0.1931764930486679,
      0.3412572145462036,
      0.03677302971482277,
      -0.36209094524383545,
      0.15917634963989258,
      -0.3293912410736084,
      0.08418209850788116,
      -0.39260342717170715,
      0.19742010533809662,
      -0.08676229417324066,
      -0.38860565423965454,
      -0.3690679967403412,
      0.28970807790756226,
      -0.23356881737709045,
      -0.01635630428791046,
      0.33573493361473083,
      -0.3316972553730011,
      -0.1350378394126892,
      -0.3382572531700134
    ]
  ],
  "fc1.bias": [
    0.033727217465639114,
    -0.10625765472650528,
    0.0,
    -0.06005484238266945,
    0.05831661447882652,
    -0.20976398885250092,
    0.0,
    -0.1807931661605835,
    0.0,
    0.0,
    -0.08802971988916397,
    -0.07680217176675797,
    -0.08024626970291138,
    -0.08478662371635437,
    -0.07578979432582855,
    -0.06889968365430832,
    -0.0522586852312088,
    -0.1543121337890625,
    0.06417009979486465,
    0.0,
    0.04614526405930519,
    -0.050648052245378494,
    0.0,
    0.029178302735090256,
    0.03758915513753891,
    -0.15476681292057037,
    0.0,
    -0.10398069769144058,
    -0.13583309948444366,
    0.0,
    0.019815756008028984,
    -0.024534381926059723,
    -0.08945118635892868,
    -0.11123092472553253,
    -0.03732432425022125,
    0.0,
    -0.0323629267513752,
    -0.20448413491249084,
    0.018448732793331146,
    -0.11978556960821152,
    -0.08188479393720627,
    -0.06967602670192719,
    -0.016167540103197098,
    -0.07307001948356628,
    -0.04521050304174423,
    -0.11306681483983994,
    0.0026472494937479496,
    0.0,
    -0.17398028075695038,
    -0.05408119037747383,
    -0.05121516436338425,
    0.10937661677598953,
    0.05807555839419365,
    0.006139162462204695,
    -0.027060173451900482,
    -0.054293304681777954,
    0.0,
    0.11028450727462769,
    -0.12234903126955032,
    0.11219365894794464,
    0.0,
    -0.07303658872842789,
    -0.046422239392995834,
    -0.07631999254226685,
    -0.06275402009487152,
    -0.10612773895263672,
    -0.0043298592790961266,
    0.012795034795999527,
    0.0,
    0.1431335061788559,
    -0.10690014809370041,
    -0.06203712895512581,
    -0.08108468353748322,
    -0.08888139575719833,
    0.03552858904004097,
    0.0,
    -0.14902351796627045,
    -0.016275331377983093,
    -0.08750408887863159,
    0.0,
    -0.10781846195459366,
    -0.10448877513408661,
    0.0,
    -0.04615326225757599,
    -0.05646025761961937,
    0.0028634315822273493,
    -0.10112893581390381,
    0.0,
    -0.05105577036738396,
    -0.1301506757736206,
    -0.04450257495045662,
    -0.00868847407400608,
    0.0,
    -0.10671596974134445,
    -0.11796081811189651,
    -0.10894091427326202,
    -0.12313815206289291,
    0.012991887517273426,
    -0.0694650262594223,
    -0.03403235226869583,
    -0.055647112429142,
    -0.00224524294026196,
    -0.07483747601509094,
    0.043259989470243454,
    -0.15232381224632263,
    -0.0836985781788826,
    -0.07685185968875885,
    0.06402894109487534,
    0.0,
    0.002148741390556097,
    -0.0027368466835469007,
    0.10431872308254242,
    -0.0600549690425396,
    -0.038934823125600815,
    0.06958076357841492,
    -0.09417752921581268,
    -0.1990201622247696,
    -0.08159204572439194,
    0.02435849793255329,
    -0.04927408695220947,
    0.0,
    0.045121584087610245,
    -0.06802008301019669,
    -0.1705641746520996,
    -0.0674363300204277,
    -0.1504134088754654,
    -0.08329951763153076,
    -0.17654889822006226
  ],
  "fc2.weight": [
    [
      -0.08072810620069504,
      -0.1262357085943222,
      0.1970680207014084,
      -0.0021282995585352182,
      0.03520363196730614,
      0.12733857333660126,
      0.2126692682504654,
      0.017631953582167625,
      0.19166117906570435,
      -0.18960480391979218,
      0.10560669004917145,
      -0.17412902414798737,
      -0.03341377526521683,
      -0.2517436742782593,
      -0.0026511885225772858,
      -0.08588556200265884,
      -0.021783988922834396,
      0.10304038971662521,
      0.2570204734802246,
      0.19267363846302032,
      0.04564168304204941,
      -0.11771825700998306,
      -0.05135389044880867,
      -0.1810968518257141,
      -0.2586731016635895,
      -0.026394786313176155,
      0.08175098150968552,
      -0.25722846388816833,
      0.07837440073490143,
      -0.16566269099712372,
      0.05550029128789902,
      -0.08968720585107803,
      0.1190737709403038,
      -0.035130761563777924,
      0.20872533321380615,
      0.001433437573723495,
      0.06588996946811676,
      -0.2502954602241516,
      0.214778333902359,
      0.08135772496461868,
      -0.2914702594280243,
      -0.15889199078083038,
      -0.03355294093489647,
      -0.06330446898937225,
      0.07190476357936859,
      -0.20641151070594788,
      -0.2750789523124695,
      -0.04060392081737518,
      -0.21269111335277557,
      -0.26027289032936096,
      0.12987357378005981,
      0.049168068915605545,
      -0.2789273262023926,
      0.0775570422410965,
      -0.20711682736873627,
      -0.03495004028081894,
      -0.018845681101083755,
      0.027562128379940987,
      -0.0005035096546635032,
      0.23920944333076477,
      -0.05140024423599243,
      -0.09702537953853607,
      -0.005492660216987133,
      -0.14104042947292328,
      -0.14339736104011536,
      -0.2554434537887573,
      -0.24968598783016205,
      0.007119770627468824,
      -0.1971522718667984,
      -0.1035466119647026,
      -0.04159434512257576,
      0.1984885036945343,
      -0.0645846575498581,
      0.019075172021985054,
      -0.18319524824619293,
      0.0532756969332695,
      0.10290271043777466,
      -0.17367984354496002,
      -0.06483597308397293,
      0.19267074763774872,
      0.09864185750484467,
      -0.2104727029800415,
      -0.008548696525394917,
      -0.15516117215156555,
      -0.06313875317573547,
      -0.21182429790496826,
      0.081606425344944,
      0.015875568613409996,
      0.050022054463624954,
      -0.09998050332069397,
      0.124683678150177,
      -0.19614942371845245,
      0.12294039130210876,
      -0.02694677747786045,
      0.10809286683797836,
      0.12867888808250427,
      0.08054753392934799,
      -0.051339540630578995,
      -0.23076555132865906,
      -0.07895731180906296,
      -0.14667169749736786,
      -0.1461525559425354,
      0.05310911685228348,
      -0.0073288846760988235,
      0.017719443887472153,
      -0.28311023116111755,
      -0.1634192168712616,
      -0.0057455492205917835,
      -0.045592524111270905,
      -0.11303480714559555,
      0.03663571923971176,
      -0.002330470597371459,
      0.10419560968875885,
      -0.19441455602645874,
      -0.1225547343492508,
      0.035640519112348557,
      -0.19827471673488617,
      -0.15937204658985138,
      0.20514746010303497,
      0.1301187127828598,
      -0.06748618930578232,
      -0.19456946849822998,
      0.05672774091362953,
      -0.0051320865750312805,
      -0.19261229038238525,
      -0.2597305178642273,
      -0.10419151932001114,
      -0.09602627158164978
    ],
    [
      -0.03906445950269699,
      0.1195637434720993,
      0.10116950422525406,
      -0.0068038408644497395,
      0.1106879711151123,
      -0.07859326153993607,
      -0.09399160742759705,
      -0.07079678028821945,
      -0.2125343382358551,
      0.1210593655705452,
      -0.02665744349360466,
      0.16898377239704132,
      0.23090805113315582,
      0.2540959119796753,
      -0.08562096953392029,
      0.26415205001831055,
      0.036518290638923645,
      -0.12032223492860794,
      0.0492795929312706,
      -0.1105702817440033,
      -0.01717074029147625,
      -0.22624346613883972,
      -0.1495721936225891,
      -0.13993723690509796,
      -0.1834314465522766,
      -0.18989935517311096,
      -0.08172891288995743,
      -0.11998580396175385,
      -0.08278223872184753,
      -0.06021978706121445,
      0.11914622783660889,
      0.25762060284614563,
      -0.021172694861888885,
      -0.20648643374443054,
      -0.08708474040031433,
      -0.114967942237854,
      0.2669568359851837,
      0.22925257682800293,
      -0.2480604201555252,
      0.10060696303844452,
      -0.09955756366252899,
      0.000740271934773773,
      -0.09367052465677261,
      0.06405425071716309,
      -0.1032634899020195,
      -0.01645798422396183,
      -0.07842833548784256,
      0.21570919454097748,
      0.11967509984970093,
      0.11978960782289505,
      0.10976361483335495,
      -0.07916771620512009,
      -0.20012716948986053,
      0.16180485486984253,
      -0.1681884527206421,
      0.08121509104967117,
      -0.12225179374217987,
      0.373831182718277,
      0.06430065631866455,
      0.13269591331481934,
      -0.011903475970029831,
      -0.13749796152114868,
      -0.11209070682525635,
      -0.20885272324085236,
      -0.14116208255290985,
      -0.13662737607955933,
      0.12860818207263947,
      -0.28290748596191406,
      0.17641407251358032,
      0.2819439768791199,
      -0.20711465179920197,
      -0.14739157259464264,
      -0.0493631549179554,
      0.16365943849086761,
      0.3571997284889221,
      0.07003668695688248,
      0.028647147119045258,
      -0.15663400292396545,
      0.2580479085445404,
      -0.029908617958426476,
      0.21378925442695618,
      0.035517219454050064,
      -0.21615278720855713,
      -0.1439928561449051,
      0.08512116968631744,
      0.06395065784454346,
      -0.2190689593553543,
      0.18901918828487396,
      -0.08670622855424881,
      0.2534236013889313,
      0.07443676888942719,
      0.010926859453320503,
      0.1366935670375824,
      -0.03771890327334404,
      -0.06520229578018188,
      0.15751028060913086,
      0.050974808633327484,
      -0.13891956210136414,
      -0.1945580393075943,
      0.21730399131774902,
      0.2810879051685333,
      0.2348577231168747,
      -0.1117144525051117,
      -0.125071719288826,
      -0.06018083170056343,
      0.15259504318237305,
      -0.07445906102657318,
      -0.19846123456954956,
      -0.20158062875270844,
      0.31645384430885315,
      -0.13085608184337616,
      0.23550787568092346,
      -0.17448130249977112,
      0.20068055391311646,
      0.12333449721336365,
      -0.23829761147499084,
      -0.1326376050710678,
      -0.18935321271419525,
      0.1433209329843521,
      -0.0962216779589653,
      0.09238235652446747,
      -0.07641679048538208,
      -0.04662622883915901,
      -0.12227708846330643,
      0.16221235692501068,
      0.17030304670333862,
      -0.06673716008663177,
      0.021494513377547264
    ],
    [
      0.06418708711862564,
      0.27452561259269714,
      0.20498764514923096,
      -0.16218352317810059,
      -0.2594935894012451,
      0.14830662310123444,
      -0.032764315605163574,
      0.1806371808052063,
      -0.07025573402643204,
      0.010332447476685047,
      -0.19176362454891205,
      0.24747280776500702,
      0.18813340365886688,
      0.07664258033037186,
      -0.015410279855132103,
      0.10579563677310944,
      0.20730794966220856,
      -0.26911601424217224,
      0.012952041812241077,
      -0.06722478568553925,
      -0.06319065392017365,
      -0.23317016661167145,
      0.172093003988266,
      0.05306054651737213,
      -0.2698765993118286,
      -0.05528975650668144,
      -0.12173916399478912,
      -0.0009691141895018518,
      -0.11126219481229782,
      0.020198877900838852,
      0.13745065033435822,
      0.15732862055301666,
      -0.22010326385498047,
      0.0021828373428434134,
      -0.20033597946166992,
      -0.20307086408138275,
      0.1825009137392044,
      0.2137170284986496,
      -0.25939202308654785,
      0.23852601647377014,
      -0.007227887399494648,
      0.058855246752500534,
      -0.06291910260915756,
      0.06851981580257416,
      -0.39166730642318726,
      -0.11956340819597244,
      -0.09783121198415756,
      0.05079694464802742,
      -0.1436389684677124,
