{"weights": {"_version": 2, "_inputFeatures": 24, "fc1.weight": [[0.3631213903427124, -0.3705744743347168, 0.40501630306243896, -0.06626594066619873, -0.0979236364364624, 0.2770640254020691, 0.4650663137435913, -0.00887608528137207, -0.3042975664138794, 0.4120692014694214, 0.3691774010658264, 0.1884922981262207, 0.3891814947128296, 0.2822874188423157, -0.23363667726516724, 0.4467999339103699, 0.0625295639038086, -0.12306326627731323, -0.11903798580169678, -0.2812737822532654, -0.012987196445465088, -0.4095926284790039, -0.16123110055923462, -0.15520131587982178], [0.21488285064697266, -0.32456493377685547, -0.4884387254714966, -0.11672568321228027, 0.03950035572052002, -0.443199098110199, 0.18211281299591064, -0.4246770739555359, -0.08886295557022095, -0.12988746166229248, 0.37285327911376953, 0.28028231859207153, -0.05394691228866577, -0.22425144910812378, -0.3214564919471741, 0.23145431280136108, -0.45541495084762573, -0.19618552923202515, -0.1701277494430542, -0.2538624405860901, -0.054657936096191406, 0.08230650424957275, -0.46534985303878784, -0.16776162385940552], [0.048460960388183594, -0.26318275928497314, -0.46174460649490356, 0.30067092180252075, 0.30030643939971924, -0.32980817556381226, -0.02607780694961548, 0.046381235122680664, 0.4469050168991089, 0.3712182641029358, 0.4192501902580261, -0.2316761612892151, 0.3765745162963867, -0.3362913131713867, 0.48952537775039673, -0.355498731136322, -0.3776578903198242, -0.3431409001350403, -0.3847835063934326, -0.42156118154525757, -0.05168116092681885, 0.18504482507705688, 0.3982471227645874, 0.28088128566741943], [-0.044925034046173096, 0.034728169441223145, 0.011623799800872803, 0.24666261672973633, 0.33313965797424316, 0.47211897373199463, -0.1930026412010193, -0.3483096957206726, -0.4464901089668274, 0.4568353295326233, 0.08845639228820801, 0.31320756673812866, -0.13904261589050293, 0.21220844984054565, 0.42076635360717773, 0.1787409782409668, 0.12366378307342529, 0.3314107060432434, -0.4617748260498047, -0.02803272008895874, 0.2123822569847107, 0.3501966595649719, -0.17280924320220947, -0.4968034029006958], [0.26172906160354614, -0.2910470962524414, -0.22747743129730225, 0.09659469127655029, -0.3195033669471741, -0.15810620784759521, 0.2579406499862671, -0.24388843774795532, 0.48889923095703125, 0.23386645317077637, -0.446479856967926, 0.07327550649642944, -0.43903952836990356, 0.1300257444381714, -0.23113572597503662, 0.4850361943244934, 0.4899858832359314, 0.3557894825935364, -0.1467539668083191, 0.03178936243057251, 0.46289879083633423, -0.01550978422164917, 0.3418232202529907, 0.4263695478439331], [-0.4071153998374939, 0.43682998418807983, 0.21022194623947144, 0.08246344327926636, 0.44809919595718384, -0.20560681819915771, 0.23861771821975708, 0.23859047889709473, 0.1986371874809265, 0.14966070652008057, -0.17550182342529297, 0.10052019357681274, -0.48288100957870483, 0.25476568937301636, 0.2463294267654419, 0.12334960699081421, -0.291378915309906, 0.28828370571136475, 0.4593656659126282, 0.09289544820785522, -0.2641115188598633, 0.10510921478271484, -0.35382920503616333, 0.0016644597053527832], [-0.31972116231918335, 0.14217549562454224, -0.34999746084213257, 0.08225780725479126, 0.14453750848770142, 0.11078977584838867, 0.028291046619415283, 0.39242833852767944, -0.08455115556716919, 0.48298180103302, -0.08630126714706421, -0.11371666193008423, 0.4595024585723877, -0.00483858585357666, 0.2614250183105469, 0.3956763744354248, -0.4719591736793518, -0.0778951644897461, 0.4965524673461914, 0.30019813776016235, -0.1811564564704895, 0.29387253522872925, 0.2218901515007019, -0.2011164426803589], [0.4220859408378601, -0.08967584371566772, -0.14924347400665283, 0.45962923765182495, 0.007459282875061035, 0.022282004356384277, -0.22254639863967896, 0.30436646938323975, -0.16937440633773804, -0.05023336410522461, -0.4578821063041687, 0.1929139494895935, -0.47710150480270386, -0.4480677843093872, 0.28656888008117676, 0.21695607900619507, 0.462985634803772, -0.4756050109863281, 0.4369661211967468, -0.40122270584106445, -0.34829050302505493, 0.4523698687553406, 0.2961570620536804, 0.18245971202850342], [-0.41061103343963623, 0.03512972593307495, 0.2632145881652832, -0.3918910622596741, 0.0674581527709961, -0.22810161113739014, -0.05748248100280762, -0.4078700542449951, 0.2523167133331299, 0.03407764434814453, 0.11919397115707397, 0.007127940654754639, -0.32410240173339844, -0.2880127429962158, 0.4580749273300171, -0.019234657287597656, -0.3323010206222534, 0.13995665311813354, 0.31640690565109253, 0.27586430311203003, -0.31798362731933594, 0.43910104036331177, -0.23418593406677246, 0.07952672243118286], [-0.4471544027328491, -0.24134212732315063, -0.15418952703475952, 0.021516919136047363, 0.2340375781059265, -0.3269643187522888, -0.34915691614151, 0.46540433168411255, 0.47546499967575073, 0.1391690969467163, 0.37037765979766846, -0.31825804710388184, 0.4325755834579468, 0.2717365026473999, -0.3316388726234436, -0.08940613269805908, 0.24809402227401733, 0.34837162494659424, -0.08020371198654175, 0.11046403646469116, 0.07452267408370972, -0.003533601760864258, -0.4498864412307739, 0.4643486738204956], [0.07770061492919922, -0.3871226906776428, 0.40205276012420654, -0.3892824053764343, -0.4315427541732788, 0.11444926261901855, 0.21817070245742798, 0.1495717167854309, -0.48815488815307617, 0.28381967544555664, 0.4433242678642273, -0.21141403913497925, -0.44395947456359863, -0.3871292471885681, 0.2962058186531067, 0.26866644620895386, -0.19994086027145386, -0.3006855249404907, 0.0945236086845398, 0.4532407522201538, -0.1972920298576355, 0.48908329010009766, -0.31908535957336426, -0.3039093613624573], [0.22532379627227783, -0.22660201787948608, -0.3067740201950073, -0.04577803611755371, 0.03853046894073486, 0.39748328924179077, -0.03381788730621338, -0.08001935482025146, 0.029976069927215576, 0.09927123785018921, 0.03662872314453125, 0.0555415153503418, 0.06189149618148804, -0.2586667537689209, -0.48279064893722534, 0.2829907536506653, 0.1718713641166687, -0.07307934761047363, 0.07158797979354858, -0.39706122875213623, 0.23918646574020386, -0.09667730331420898, -0.27427053451538086, 0.001222074031829834], [-0.044179320335388184, 0.4434419870376587, -0.07219856977462769, -0.43489837646484375, 0.3122120499610901, 0.382262647151947, 0.12591570615768433, 0.1864306926727295, -0.2707536816596985, 0.09863650798797607, 0.3107696771621704, 0.3389562964439392, -0.3477942943572998, 0.03216230869293213, 0.3546438217163086, -0.1864992380142212, 0.1180034875869751, 0.19314879179000854, 0.3011823296546936, -0.06188589334487915, 0.17508995532989502, 0.31769466400146484, 0.08338749408721924, 0.1271006464958191], [0.19165652990341187, -0.0038336515426635742, 0.3192499279975891, 0.12958407402038574, -0.3013870120048523, 0.47333335876464844, -0.40203821659088135, -0.4283297061920166, 0.18301963806152344, -0.146625816822052, -0.09439074993133545, -0.057662904262542725, -0.4208892583847046, 0.03837615251541138, 0.11954927444458008, 0.2670079469680786, -0.0746811032295227, 0.2591768503189087, -0.1733853816986084, -0.4337499737739563, 0.04569244384765625, 0.11432671546936035, 0.029889285564422607, 0.13912802934646606], [0.10923749208450317, 0.05073857307434082, 0.17349231243133545, -0.20947349071502686, 0.22946345806121826, 0.04426699876785278, -0.11330056190490723, -0.4262089133262634, 0.045945823192596436, -0.19147539138793945, -0.32409828901290894, -0.24147343635559082, 0.377632737159729, 0.16847825050354004, -0.12557178735733032, 0.38625943660736084, 0.274433434009552, 0.17286962270736694, -0.0780191421508789, -0.4713659882545471, 0.0590096116065979, 0.1862613558769226, -0.4813389778137207, 0.33525609970092773], [-0.03669530153274536, -0.010508835315704346, 0.3477931022644043, -0.2099151611328125, -0.27295905351638794, 0.20087027549743652, 0.437008261680603, -0.04440486431121826, 0.06498026847839355, 0.3414185047149658, 0.3386397361755371, -0.19050687551498413, -0.0226554274559021, 0.42466866970062256, 0.0972936749458313, 0.4219854474067688, -0.018630564212799072, -0.4318411350250244, -0.3151724934577942, -0.31627172231674194, 0.1935306191444397, -0.21110886335372925, 0.13600975275039673, 0.17031550407409668], [-0.25923025608062744, -0.0532570481300354, 0.023792803287506104, -0.3802728056907654, 0.12317085266113281, 0.21676939725875854, 0.49245595932006836, 0.2737252712249756, -0.0493893027305603, -0.2179642915725708, -0.25949347019195557, 0.2902640700340271, 0.23633503913879395, -0.47574687004089355, 0.38746458292007446, -0.28066176176071167, 0.27750760316848755, -0.29698342084884644, -0.4296846389770508, -0.3238053321838379, 0.27485960721969604, -0.23601067066192627, -0.19802618026733398, -0.33170539140701294], [0.0016211271286010742, 0.30707311630249023, 0.08279544115066528, 0.3910372853279114, 0.4912737011909485, -0.3398456573486328, -0.467911958694458, -0.16806387901306152, 0.15975457429885864, -0.19055545330047607, -0.49433720111846924, -0.4023136496543884, 0.3428022265434265, -0.36276501417160034, 0.37618327140808105, 0.18722879886627197, -0.04635810852050781, 0.00904005765914917, 0.43180006742477417, 0.4165644645690918, 0.16185033321380615, 0.414109468460083, 0.21211934089660645, -0.12973558902740479], [-0.21979236602783203, -0.4711940288543701, -0.37087327241897583, 0.3082106113433838, -0.36285966634750366, -0.1991254687309265, -0.4014594554901123, -0.3965654969215393, -0.2592596411705017, -0.28340721130371094, 0.008973896503448486, -0.30629491806030273, 0.018384814262390137, -0.49206793308258057, -0.49945729970932007, -0.47564566135406494, -0.1367548108100891, 0.4727572202682495, -0.18258655071258545, -0.0384979248046875, -0.4321478009223938, 0.27828317880630493, 0.10246157646179199, -0.4248006343841553], [-0.10083967447280884, 0.07947361469268799, -0.444347620010376, 0.477189302444458, -0.321128249168396, 0.21731644868850708, -0.28208982944488525, -0.4776049852371216, -0.03824639320373535, -0.09759241342544556, -0.06170278787612915, -0.4191315174102783, -0.2177107334136963, 0.4826167821884155, -0.4593696594238281, 0.09047514200210571, -0.19924336671829224, 0.17249047756195068, 0.43236857652664185, 0.38775670528411865, -0.40342384576797485, -0.04921025037765503, 0.06258052587509155, -0.31532955169677734], [0.33228909969329834, 0.13111013174057007, -0.4770658016204834, 0.35303086042404175, 0.22090691328048706, 0.009613335132598877, -0.4795638918876648, 0.3216196298599243, -0.2834318280220032, 0.07667219638824463, -0.11226487159729004, -0.3608190417289734, 0.20758944749832153, -0.4414602518081665, -0.4172479510307312, 0.3424338698387146, 0.04170060157775879, -0.4523191452026367, 0.3475213646888733, 0.25218719244003296, 0.14969778060913086, 0.2773128151893616, 0.19392967224121094, 0.38478243350982666], [0.02103215456008911, 0.4317968487739563, 0.1902201771736145, -0.08473968505859375, -0.47678399085998535, 0.06269180774688721, -0.10469859838485718, -0.29537755250930786, 0.037030816078186035, 0.4302375912666321, 0.06606441736221313, -0.3246930241584778, 0.04474920034408569, 0.4321046471595764, 0.4450557231903076, 0.28745394945144653, -0.3041989207267761, 0.16464370489120483, 0.05796682834625244, -0.4826730489730835, 0.08069002628326416, -0.06273949146270752, 0.40326666831970215, 0.45433902740478516], [0.03379321098327637, -0.32522428035736084, -0.19771325588226318, 0.12278485298156738, -0.4999849796295166, -0.4213145971298218, -0.10705411434173584, -0.41642212867736816, 0.4259810447692871, -0.012070417404174805, 0.4181627631187439, 0.25525689125061035, 0.20966392755508423, -0.336567759513855, -0.34822750091552734, 0.18217498064041138, -0.12093621492385864, -0.06148165464401245, 0.49471336603164673, -0.09028083086013794, 0.045975446701049805, 0.20300954580307007, -0.12359797954559326, 0.12296044826507568], [-0.2042796015739441, -0.3111547827720642, -0.258430540561676, -0.15867382287979126, -0.17277055978775024, 0.17606616020202637, -0.059153616428375244, 0.27515077590942383, 0.3559030294418335, 0.3429848551750183, -0.10845935344696045, 0.26267749071121216, -0.2991997003555298, 0.49333256483078003, -0.23166584968566895, 0.37347525358200073, 0.18104255199432373, -0.023727118968963623, -0.23365098237991333, -0.16732704639434814, -0.38025712966918945, -0.02241969108581543, -0.14240723848342896, 0.4882187843322754], [-0.4686133861541748, -0.25956761837005615, -0.432592511177063, 0.07770103216171265, -0.27735209465026855, 0.41136622428894043, -0.24043422937393188, 0.3246228098869324, 0.3166636824607849, 0.2804366946220398, -0.025016963481903076, 0.03920811414718628, -0.4039333462715149, -0.14434349536895752, 0.15823721885681152, 0.4254634976387024, -0.1320425271987915, 0.2925608158111572, -0.41020750999450684, 0.11954069137573242, 0.26009804010391235, 0.17355144023895264, -0.4177377223968506, 0.1710382103919983], [0.22555214166641235, -0.4840037226676941, -0.12485969066619873, -0.0422816276550293, 0.23872649669647217, 0.013325929641723633, -0.07602030038833618, 0.39883583784103394, -0.302084743976593, -0.056998491287231445, -0.4696046710014343, -0.01846247911453247, 0.28033745288848877, 0.25532084703445435, -0.326909601688385, -0.41940271854400635, -0.15263837575912476, -0.11681115627288818, 0.16495269536972046, -0.4655155539512634, 0.3536466956138611, -0.04551798105239868, 0.32774537801742554, 0.4186563491821289], [-0.2759770154953003, -0.24093729257583618, -0.3762521743774414, 0.20269536972045898, -0.3494369387626648, 0.22609037160873413, 0.4368763566017151, -0.3552316427230835, -0.45450931787490845, -0.23025673627853394, 0.3040500283241272, -0.2763773202896118, 0.29838311672210693, 0.44303447008132935, -0.017140865325927734, 0.010736942291259766, -0.27341896295547485, 0.3236224055290222, 0.4052428603172302, 0.1618177890777588, -0.11806374788284302, 0.3888283967971802, -0.29730916023254395, -0.4427546262741089], [-0.1755845546722412, 0.2493327260017395, 0.017350614070892334, -0.26159512996673584, 0.26135510206222534, 0.03081732988357544, -0.07251423597335815, 0.020035386085510254, 0.3277283310890198, 0.06478011608123779, -0.4448204040527344, 0.46167367696762085, 0.23900651931762695, -0.3079514503479004, 0.19840514659881592, -0.02988380193710327, -0.272144079208374, 0.46283936500549316, 0.20120126008987427, -0.2593880295753479, 0.08100885152816772, 0.3807896375656128, 0.34570223093032837, 0.21316879987716675], [0.1103716492652893, 0.13586169481277466, -0.4586215615272522, -0.3563677668571472, 0.058999478816986084, 0.46963244676589966, -0.2088634967803955, -0.34444868564605713, 0.2517789602279663, -0.13394564390182495, 0.49146372079849243, -0.4825933575630188, -0.11926299333572388, -0.3838251233100891, 0.4993627071380615, -0.05932241678237915, -0.4858980178833008, -0.1528140902519226, -0.27929049730300903, -0.4557257890701294, 0.37035512924194336, 0.4368080496788025, -0.3262128233909607, -0.3783777952194214], [-0.3822232484817505, -0.4693531394004822, -0.368537962436676, 0.02263355255126953, -0.02069377899169922, -0.46764588356018066, -0.16854381561279297, -0.499872624874115, -0.4298163652420044, -0.028777360916137695, 0.2223096489906311, 0.004583477973937988, -0.2873983383178711, 0.07207202911376953, -0.0036133527755737305, 0.4964531660079956, 0.28051072359085083, -0.0562552809715271, 0.02803206443786621, -0.4447033405303955, -0.2615945339202881, 0.10708439350128174, -0.10564500093460083, -0.16994798183441162], [-0.47326451539993286, 0.4135541319847107, 0.038101911544799805, 0.0812419056892395, -0.13048535585403442, 0.2691062092781067, 0.08384376764297485, -0.4776983857154846, -0.20040971040725708, 0.10173535346984863, -0.21244877576828003, 0.036195456981658936, -0.19980007410049438, 0.3004297614097595, -0.10839521884918213, -0.12060731649398804, -0.33654946088790894, 0.03185480833053589, -0.29736387729644775, 0.2522522807121277, -0.35801565647125244, 0.18836915493011475, -0.17721515893936157, 0.14224308729171753], [0.13402628898620605, 0.33615100383758545, -0.19522958993911743, 0.2988007068634033, 0.0006437301635742188, -0.33575522899627686, 0.1528528928756714, 0.08051091432571411, -0.08058887720108032, 0.3138672113418579, 0.45924538373947144, 0.12828171253204346, 0.20241576433181763, 0.06288301944732666, 0.35590672492980957, -0.3743742108345032, -0.23617476224899292, 0.10785746574401855, -0.3646833896636963, -0.29679006338119507, 0.38762766122817993, -0.32087546586990356, 0.13174337148666382, -0.03359287977218628], [-0.2453177571296692, -0.3690873980522156, -0.14345324039459229, -0.4209476113319397, 0.3386470079421997, -0.3121356964111328, 0.30415111780166626, 0.017659127712249756, -0.05946826934814453, 0.0904054045677185, -0.010282933712005615, 0.15192431211471558, 0.019223272800445557, -0.11478519439697266, -0.4712409973144531, 0.24497663974761963, 0.2930135726928711, -0.2045651078224182, 0.47653311491012573, -0.3787979483604431, 0.05310821533203125, -0.4728049635887146, 0.34922856092453003, 0.3086708188056946], [-0.4550827741622925, 0.36877572536468506, -0.06205517053604126, 0.15874016284942627, -0.02193129062652588, 0.188620924949646, -0.4397152066230774, -0.3922575116157532, -0.18330305814743042, -0.41340315341949463, 0.40023988485336304, -0.35082244873046875, -0.3214206099510193, -0.38740837574005127, 0.02990114688873291, 0.18482178449630737, 0.42839646339416504, 0.08780139684677124, 0.22144877910614014, 0.08045125007629395, 0.32534462213516235, 0.16360092163085938, 0.451318621635437, -0.22406011819839478], [0.05911511182785034, -0.0738171935081482, -0.12070763111114502, -0.38095635175704956, 0.18050408363342285, -0.26449906826019287, 0.21442526578903198, 0.006521880626678467, 0.17056363821029663, -0.2337648868560791, -0.4952448606491089, 0.2776147723197937, -0.34674662351608276, -0.10724461078643799, -0.38194775581359863, -0.4625965356826782, -0.4734349250793457, 0.2676364779472351, -0.20091217756271362, 0.2581760287284851, 0.06497317552566528, -0.37831640243530273, -0.40918469429016113, 0.3306042551994324], [-0.3713703751564026, -0.041179776191711426, -0.45375579595565796, 0.20185112953186035, 0.1252397894859314, -0.15434670448303223, -0.16108089685440063, -0.3223135471343994, 0.43472665548324585, -0.4159128665924072, 0.07356739044189453, -0.0665750503540039, 0.33404070138931274, -0.4971027374267578, -0.41472041606903076, -0.05187910795211792, 0.27949637174606323, -0.4090127944946289, -0.0035533905029296875, 0.16835832595825195, -0.34836745262145996, 0.4743577837944031, 0.007473468780517578, -0.4901323914527893], [-0.12177515029907227, -0.02955186367034912, -0.0021570324897766113, -0.013691425323486328, 0.264321506023407, -0.2531149983406067, -0.06602603197097778, -0.008240163326263428, -0.08593863248825073, 0.09326046705245972, 0.48873645067214966, -0.309533953666687, 0.4636702537536621, 0.06660175323486328, 0.19007116556167603, -0.47499775886535645, 0.4443066120147705, -0.4529014229774475, -0.3162066340446472, 0.2184845209121704, 0.13552641868591309, 0.3523792028427124, 0.17529064416885376, 0.4189954996109009], [-0.3752642273902893, -0.05008167028427124, 0.32794320583343506, -0.2244132161140442, -0.22701936960220337, -0.1347135305404663, 0.24925363063812256, -0.252399206161499, -0.3597942590713501, 0.3493810296058655, 0.08414828777313232, 0.33085232973098755, -0.07625561952590942, 0.08564627170562744, -0.4926024079322815, -0.20704925060272217, -0.4550541639328003, 0.2715543508529663, -0.33486711978912354, 0.07773947715759277, -0.19655752182006836, -0.28276294469833374, 0.22436660528182983, -0.46105462312698364], [-0.3220035433769226, 0.07959133386611938, -0.14917045831680298, -0.470395028591156, 0.43287932872772217, -0.2695428133010864, -0.30369317531585693, 0.4718174338340759, -0.47893232107162476, -0.06949067115783691, -0.3906882405281067, 0.133755624294281, -0.13249289989471436, 0.13432055711746216, -0.1873905062675476, -0.36419248580932617, -0.4075915813446045, 0.45479804277420044, 0.37612247467041016, -0.1411123275756836, -0.48790836334228516, 0.14407753944396973, -0.3627522587776184, -0.3938661217689514], [0.04279470443725586, 0.19682669639587402, -0.3869636058807373, 0.4871217608451843, 0.34338080883026123, -0.45364195108413696, 0.10734492540359497, 0.11565399169921875, 0.13481444120407104, -0.2693628668785095, 0.422254741191864, -0.056080758571624756, -0.17255240678787231, 0.03040456771850586, -0.49713462591171265, -0.17706942558288574, -0.09964698553085327, -0.3402186632156372, 0.4335092306137085, 0.48720782995224, -0.2765634059906006, -0.17168933153152466, -0.07992523908615112, 0.480122447013855], [-0.20956683158874512, -0.37170958518981934, -0.20335662364959717, -0.08261793851852417, -0.37855982780456543, 0.19462990760803223, 0.25560641288757324, -0.14766144752502441, 0.385614275932312, -0.4032776951789856, 0.14783740043640137, -0.29575252532958984, 0.34027957916259766, -0.029901325702667236, 0.3736623525619507, 0.2741925120353699, 0.42646223306655884, -0.018902063369750977, 0.35816192626953125, 0.3395705819129944, 0.13921892642974854, 0.3191288709640503, 0.49494707584381104, -0.0538671612739563], [-0.454842209815979, -0.12038493156433105, 0.41117429733276367, 0.4843335747718811, 0.2649475932121277, 0.2595421075820923, 0.28520113229751587, -0.45614439249038696, 0.4545353055000305, -0.06998997926712036, -0.44093209505081177, 0.0757598876953125, -0.09783589839935303, -0.2061815857887268, 0.07518035173416138, 0.3022913932800293, 0.08965331315994263, -0.1943616271018982, 0.37169766426086426, 0.01057523488998413, -0.23687982559204102, 0.07632225751876831, -0.4704369902610779, 0.19360309839248657], [0.10780900716781616, 0.39051270484924316, 0.43175917863845825, -0.1866304874420166, 0.4655150771141052, -0.2419009804725647, -0.0276680588722229, -0.4403733015060425, -0.36763012409210205, 0.443503201007843, 0.2460078001022339, -0.48146122694015503, 0.3421615958213806, -0.2720479965209961, -0.06810176372528076, 0.073128342628479, 0.014082789421081543, -0.45639944076538086, 0.27696919441223145, -0.12451744079589844, 0.4169868230819702, 0.0984795093536377, -0.3212960958480835, -0.3239665627479553], [0.11773216724395752, -0.13754290342330933, -0.12410032749176025, 0.27635324001312256, 0.44679325819015503, 0.4907526969909668, 0.060076892375946045, -0.16364604234695435, -0.46934258937835693, -0.38980042934417725, 0.19876408576965332, 0.16335541009902954, -0.18015193939208984, -0.42352479696273804, 0.446891725063324, -0.31688958406448364, -0.3001213073730469, -0.10942447185516357, 0.04333120584487915, -0.1402738094329834, -0.13432097434997559, 0.36101871728897095, -0.14880245923995972, -0.443242609500885], [-0.1778358817100525, 0.3473243713378906, -0.30512601137161255, 0.02006983757019043, 0.027014553546905518, -0.2561626434326172, 0.49637842178344727, 0.3332456946372986, -0.2583070993423462, 0.26944631338119507, 0.44048362970352173, -0.312913715839386, -0.4118802547454834, 0.18686914443969727, -0.13425135612487793, 0.12026280164718628, 0.11287671327590942, 0.10610955953598022, 0.1738716959953308, 0.14432990550994873, -0.14095747470855713, -0.4074580669403076, 0.2702289819717407, 0.2190399169921875], [0.007293879985809326, -0.03233307600021362, -0.22848957777023315, -0.16828930377960205, 0.2620847225189209, -0.2774021625518799, -0.12226790189743042, -0.28282642364501953, -0.25105422735214233, -0.19342976808547974, -0.27064865827560425, 0.007964015007019043, 0.24354064464569092, -0.3346105217933655, 0.09800779819488525, -0.014193713665008545, 0.35143405199050903, -0.09884029626846313, 0.3800049424171448, 0.41274577379226685, 0.14952391386032104, -0.16682922840118408, -0.11933737993240356, -0.05362415313720703], [0.034091293811798096, -0.48090511560440063, -0.15583819150924683, -0.25995898246765137, 0.2751545310020447, 0.04414862394332886, -0.46225011348724365, 0.4605678915977478, -0.09620338678359985, 0.02460390329360962, -0.19719260931015015, -0.16892576217651367, -0.17443019151687622, -0.13478034734725952, -0.04133307933807373, -0.044938504695892334, 0.05319732427597046, 0.01878112554550171, -0.26655393838882446, -0.15111106634140015, -0.46742862462997437, -0.20365679264068604, -0.0391843318939209, -0.26633214950561523], [0.202056884765625, 0.29742056131362915, -0.2960657477378845, 0.11007553339004517, -0.16640663146972656, -0.2606738805770874, 0.30152255296707153, 0.11454391479492188, 0.21084797382354736, -0.07660126686096191, 0.22689473628997803, -0.11147928237915039, 0.24623644351959229, 0.04173290729522705, 0.06145530939102173, 0.4704955816268921, 0.42664313316345215, -0.20854419469833374, -0.4894087314605713, -0.35305696725845337, -0.17570209503173828, 0.39295095205307007, 0.49495166540145874, -0.21360492706298828], [-0.375934898853302, 0.3322349190711975, -0.4022427201271057, 0.06026488542556763, 0.12956136465072632, 0.13356786966323853, -0.12802523374557495, -0.37576067447662354, -0.02129518985748291, 0.4914489984512329, -0.23805320262908936, 0.33811116218566895, 0.0291903018951416, 0.16349154710769653, 0.3716900944709778, -0.3321630358695984, -0.46161943674087524, 0.17394888401031494, 0.10963112115859985, -0.3052648901939392, -0.3145921230316162, -0.3209243416786194, 0.039409101009368896, 0.20827490091323853], [0.03698921203613281, -0.40430504083633423, -0.46515166759490967, 0.01691371202468872, -0.4899665117263794, 0.19803667068481445, 0.2356034517288208, 0.424899160861969, -0.11169672012329102, -0.3658035397529602, 0.1881035566329956, 0.1935386061668396, -0.24771082401275635, 0.4329236149787903, -0.35141491889953613, -0.07566338777542114, -0.17494863271713257, -0.47360771894454956, -0.30689799785614014, -0.47101300954818726, -0.22660964727401733, 0.04441958665847778, 0.1133604645729065, -0.3582196831703186], [0.46174925565719604, 0.14305377006530762, 0.3578808903694153, -0.3633018732070923, -0.0022097229957580566, 0.09488499164581299, -0.2127084732055664, -0.3926219344139099, 0.44618648290634155, -0.31373465061187744, -0.27888035774230957, 0.041257619857788086, 0.441272497177124, -0.18558138608932495, 0.4789849519729614, 0.37935125827789307, 0.4671691060066223, -0.21964770555496216, 0.1820535659790039, 0.10636007785797119, 0.24646073579788208, 0.17807072401046753, 0.11990940570831299, 0.2539634704589844], [-0.1499037742614746, 0.3789832592010498, -0.08377104997634888, 0.3217289447784424, 0.23973453044891357, -0.015561699867248535, 0.007209658622741699, 0.042832136154174805, 0.15970540046691895, 0.1741034984588623, -0.3173982501029968, -0.33587348461151123, -0.4077366590499878, 0.3055945634841919, 0.24023526906967163, 0.19689923524856567, -0.2926347851753235, 0.19915693998336792, -0.10546749830245972, -0.08944004774093628, -0.31267911195755005, 0.06588798761367798, -0.3886461853981018, -0.13104373216629028], [0.4434082508087158, -0.3822724223136902, 0.3887999653816223, 0.04631698131561279, -0.040040552616119385, -0.12256664037704468, 0.23925966024398804, 0.2871707081794739, -0.39380794763565063, -0.27556169033050537, 0.1572687029838562, -0.160572350025177, -0.3262154459953308, 0.002473175525665283, -0.34423577785491943, -0.02544468641281128, -0.2033771276473999, 0.22031521797180176, -0.04508894681930542, 0.44073647260665894, -0.35747623443603516, -0.33801162242889404, -0.317018985748291, 0.29826825857162476], [-0.42368143796920776, -0.2079961895942688, -0.4971011281013489, -0.39898598194122314, 0.06739020347595215, -0.24500006437301636, 0.4643837809562683, -0.400607168674469, -0.015368223190307617, -0.4319620728492737, 0.16580426692962646, -0.02951568365097046, 0.2706497311592102, -0.402707576751709, 0.3057416081428528, 0.4225403666496277, 0.44936174154281616, -0.46384644508361816, -0.13409727811813354, -0.3371316194534302, -0.11289137601852417, -0.24854189157485962, 0.016901671886444092, 0.16436153650283813], [-0.007678329944610596, 0.3897777199745178, -0.2752220630645752, -0.23609966039657593, 0.020611584186553955, -0.16958844661712646, 0.2715263366699219, -0.08991760015487671, -0.22304558753967285, 0.3638535737991333, -0.22790008783340454, -0.12924504280090332, 0.27314293384552, 0.4919120669364929, -0.25561589002609253, -0.2457248568534851, 0.29270821809768677, 0.4608989953994751, 0.2455633282661438, -0.4862050414085388, 0.10602480173110962, 0.3407837152481079, -0.45514732599258423, -0.2706540822982788], [-0.30385565757751465, -0.005803585052490234, 0.06523406505584717, -0.342656672000885, 0.2176377773284912, -0.19720834493637085, 0.38296425342559814, -0.20578742027282715, 0.12828177213668823, -0.20335322618484497, -0.0646858811378479, -0.38734257221221924, 0.2696878910064697, 0.34853947162628174, 0.29424428939819336, -0.4410170316696167, 0.20626366138458252, -0.06522196531295776, -0.3375392556190491, 0.24256306886672974, 0.4896509647369385, 0.217199444770813, -0.2670481204986572, -0.47027552127838135], [0.24492424726486206, 0.4023747444152832, 0.16263431310653687, -0.40608876943588257, -0.15023362636566162, 0.31229573488235474, -0.386238694190979, 0.07020986080169678, -0.12823373079299927, 0.031086087226867676, -0.07505369186401367, 0.1361159086227417, -0.4496062994003296, -0.12131297588348389, 0.14543449878692627, -0.36493241786956787, -0.004775822162628174, 0.2081107497215271, 0.16740328073501587, -0.1767127513885498, -0.030503034591674805, -0.05250430107116699, -0.12074607610702515, 0.31454241275787354], [-0.4134458899497986, 0.08567911386489868, -0.23939120769500732, 0.10678344964981079, -0.1723974347114563, 0.07769644260406494, -0.23622643947601318, -0.181249737739563, -0.15752100944519043, -0.06602191925048828, -0.028804302215576172, 0.2642126679420471, 0.38371723890304565, -0.33135825395584106, -0.03432285785675049, -0.439200758934021, -0.4379006028175354, 0.2694239616394043, 0.03397256135940552, 0.0760197639465332, 0.396226167678833, 0.3550695776939392, -0.0820537805557251, 0.4681165814399719], [0.16398274898529053, -0.2067984938621521, -0.14481163024902344, 0.02509438991546631, 0.07083475589752197, -0.3018537163734436, 0.06020689010620117, -0.4139101505279541, -0.38986217975616455, -0.16532307863235474, -0.38102734088897705, -0.03481251001358032, 0.2232920527458191, 0.03618347644805908, -0.009181022644042969, 0.22216272354125977, -0.49372798204421997, 0.45347875356674194, -0.2970714569091797, -0.0710519552230835, -0.4497174620628357, -0.10954642295837402, 0.01836228370666504, 0.30019116401672363], [0.20202553272247314, 0.3433535099029541, -0.3875883221626282, 0.32634806632995605, 0.010204851627349854, -0.47880852222442627, 0.04633045196533203, 0.33939409255981445, -0.13236278295516968, 0.20821428298950195, -0.40922361612319946, -0.41778236627578735, 0.08328896760940552, -0.21221894025802612, 0.4119718074798584, -0.17559611797332764, -0.2766297459602356, 0.17377805709838867, -0.21653437614440918, -0.3066577911376953, 0.17512953281402588, 0.13687103986740112, 0.4401715397834778, -0.3639351725578308], [0.17488521337509155, -0.44810938835144043, -0.28813087940216064, 0.4830637574195862, 0.45792269706726074, -0.31617701053619385, -0.3370435833930969, -0.14944994449615479, -0.41083985567092896, -0.23445051908493042, 0.36950480937957764, 0.27769118547439575, -0.4457666277885437, 0.21830898523330688, 0.4679870009422302, -0.25027400255203247, -0.14223915338516235, 0.3651244044303894, -0.2979496121406555, -0.16053086519241333, 0.4704807996749878, 0.24624711275100708, 0.24504047632217407, 0.4086974859237671], [0.026064932346343994, 0.3212605118751526, -0.055563390254974365, 0.0002842545509338379, -0.03709465265274048, -0.4079212546348572, -0.35489821434020996, -0.12986254692077637, 0.015101909637451172, 0.3098874092102051, 0.003958284854888916, 0.14780104160308838, 0.017369449138641357, -0.3122023344039917, -0.2946733832359314, 0.3815838098526001, 0.44498908519744873, -0.1566852331161499, 0.4316290020942688, 0.018785417079925537, 0.36518311500549316, -0.15281802415847778, -0.48763370513916016, -0.2661375403404236], [-0.43081313371658325, -0.3405228853225708, -0.4452860951423645, -0.17851561307907104, -0.25388777256011963, -0.19578009843826294, 0.20774036645889282, 0.37518996000289917, 0.23496586084365845, -0.28953540325164795, -0.35464274883270264, 0.34968167543411255, 0.2089599370956421, -0.11029118299484253, -0.39899587631225586, -0.10854172706604004, 0.3264552354812622, -0.35849952697753906, 0.17951160669326782, -0.4676578640937805, -0.1336032748222351, -0.3449332118034363, 0.07700222730636597, -0.09714365005493164], [0.21989643573760986, -0.1344470977783203, -0.3782995939254761, -0.4183306097984314, 0.07349610328674316, 0.14219564199447632, -0.11768722534179688, 0.08601558208465576, 0.4538605213165283, -0.4885459542274475, -0.22777658700942993, 0.4439418911933899, -0.0707252025604248, -0.008150875568389893, 0.33025336265563965, -0.3562900424003601, 0.35515040159225464, 0.4522091746330261, 0.11343526840209961, 0.1801583170890808, -0.10943561792373657, 0.09084504842758179, -0.08619308471679688, -0.4142897129058838], [0.06508195400238037, 0.19570577144622803, -0.049340248107910156, -0.40429192781448364, 0.40057408809661865, -0.1519089937210083, -0.14194327592849731, 0.05292391777038574, 0.17384231090545654, -0.3370599150657654, 0.12302166223526001, 0.17136722803115845, -0.29120558500289917, -0.48783308267593384, -0.4188231825828552, -0.3756127953529358, -0.29524266719818115, 0.08514511585235596, 0.18745791912078857, 0.09049642086029053, -0.34632784128189087, 0.1927938461303711, -0.292553186416626, -0.04549473524093628], [-0.46201378107070923, 0.04923015832901001, -0.13254117965698242, 0.19948089122772217, -0.22716563940048218, 0.0627288818359375, 0.2259644865989685, -0.009632110595703125, -0.07569897174835205, 0.36850929260253906, -0.2649136781692505, -0.07869720458984375, 0.17765897512435913, -0.2968418002128601, -0.3694000840187073, -0.12108582258224487, 0.46591997146606445, 0.3708654046058655, -0.07030129432678223, -0.48498815298080444, -0.19839632511138916, -0.30531543493270874, -0.17347753047943115, 0.3328765630722046], [-0.17018795013427734, 0.15410774946212769, 0.2531314492225647, -0.31600677967071533, -0.022015511989593506, 0.2837132215499878, 0.24032843112945557, -0.18578261137008667, 0.4363473057746887, 0.24615031480789185, 0.4999522566795349, 0.2627701163291931, 0.19152158498764038, -0.46646255254745483, 0.0853961706161499, 0.4642704725265503, -0.13199949264526367, 0.25544077157974243, 0.03781116008758545, -0.0013076066970825195, 0.3576478958129883, -0.4006207585334778, 0.11616379022598267, 0.39550358057022095], [0.05109483003616333, 0.46231019496917725, -0.37828320264816284, -0.44494950771331787, 0.3445436358451843, -0.36721140146255493, 0.18131256103515625, -0.2688763737678528, 0.267109215259552, -0.1430109739303589, -0.301117479801178, 0.25217705965042114, -0.017117321491241455, 0.003960013389587402, -0.4710334539413452, -0.012714862823486328, -0.1568194031715393, 0.04200029373168945, -0.3055012822151184, 0.0006687641143798828, 0.41864699125289917, -0.3577346205711365, 0.16614878177642822, -0.12841373682022095], [-0.0928146243095398, 0.4278532862663269, -0.2921949625015259, 0.14822256565093994, 0.15516430139541626, -0.3028854727745056, 0.39083385467529297, -0.12050336599349976, -0.4655933976173401, -0.12322163581848145, 0.4610791802406311, 0.06949388980865479, -0.49218231439590454, 0.17847174406051636, -0.10012632608413696, 0.2490525245666504, 0.25260984897613525, -0.1390467882156372, 0.40976494550704956, 0.1013745665550232, -0.3971021771430969, 0.078360915184021, 0.09019994735717773, -0.1987561583518982], [-0.3044467568397522, 0.21070796251296997, -0.1695980429649353, -0.3333989977836609, 0.10054910182952881, 0.10551118850708008, 0.25296175479888916, 0.3022293448448181, 0.07002401351928711, 0.11665165424346924, 0.23372715711593628, 0.05153733491897583, -0.43619489669799805, -0.47156888246536255, -0.228596031665802, -0.20966649055480957, 0.37849950790405273, 0.016755640506744385, -0.25770384073257446, 0.3192073106765747, -0.15069741010665894, -0.4697093963623047, -0.17503058910369873, 0.18784505128860474], [-0.30841386318206787, -0.3606431484222412, -0.10047656297683716, 0.23484808206558228, 0.11283522844314575, 0.05068767070770264, 0.2572983503341675, 0.4033629894256592, 0.2495695948600769, -0.2016054391860962, -0.14567428827285767, -0.25011640787124634, 0.40515977144241333, 0.19792848825454712, 0.46232283115386963, -0.11173689365386963, -0.03850287199020386, 0.26053500175476074, -0.16490715742111206, 0.14900213479995728, -0.1668902039527893, -0.3886946439743042, 0.2222839593887329, 0.004259705543518066], [-0.49059993028640747, -0.2923644185066223, -0.4001607298851013, -0.2931680679321289, 0.1107950210571289, 0.29960763454437256, -0.37406301498413086, 0.21268486976623535, 0.3814848065376282, -0.023654818534851074, -0.3892127275466919, -0.036464571952819824, -0.27057814598083496, 0.3674592971801758, 0.08416533470153809, 0.23304212093353271, 0.13988298177719116, -0.09970712661743164, -0.1021086573600769, 0.0052773356437683105, -0.08900785446166992, 0.4046890139579773, -0.0472678542137146, -0.3684081435203552], [-0.2838824987411499, 0.2586575746536255, -0.2632041573524475, -0.21711695194244385, 0.4467203617095947, -0.47954851388931274, 0.1369217038154602, -0.44058144092559814, 0.2917999029159546, 0.2763286828994751, -0.18797177076339722, -0.16977941989898682, -0.32745057344436646, 0.47440558671951294, -0.35932791233062744, 0.26364195346832275, -0.3939078450202942, -0.09313714504241943, -0.2274605631828308, -0.3988068699836731, -0.4051535725593567, 0.3568289279937744, 0.2300894856452942, 0.11377131938934326], [0.25151896476745605, -0.12420117855072021, -0.4517797827720642, 0.2783411741256714, -0.03242248296737671, -0.4588538408279419, 0.2423136830329895, 0.2809467315673828, -0.22001641988754272, 0.02565854787826538, -0.2566763162612915, 0.2717866897583008, -0.05968385934829712, 0.4321252107620239, -0.13571125268936157, -0.09956669807434082, -0.4309234619140625, 0.4982450008392334, 0.49258726835250854, -0.4752413034439087, 0.2379283308982849, -0.14089125394821167, -0.13526982069015503, 0.07093542814254761], [-0.0825546383857727, 0.02378898859024048, -0.4198179841041565, -0.3666350245475769, 0.4742710590362549, 0.28965866565704346, -0.4658746123313904, 0.02452629804611206, -0.16965514421463013, -0.20625144243240356, 0.0026627182960510254, -0.13829463720321655, 0.1677154302597046, 0.32898056507110596, 0.25530582666397095, -0.08586764335632324, -0.17247241735458374, -0.45034855604171753, -0.11771798133850098, -0.3109780550003052, -0.1327248215675354, -0.21231842041015625, -0.2583097219467163, -0.32711559534072876], [-0.39986473321914673, -0.40167850255966187, -0.4830671548843384, 0.17664295434951782, 0.11327618360519409, -0.41966837644577026, -0.3745047450065613, 0.2555091381072998, 0.2869808077812195, -0.13128656148910522, 0.3291133642196655, -0.26314306259155273, -0.4818565249443054, -0.05141788721084595, 0.005744993686676025, 0.3405027985572815, -0.02067089080810547, -0.1944255232810974, -0.03940606117248535, -0.09781062602996826, 0.12580299377441406, -0.08674287796020508, 0.21175986528396606, 0.23177587985992432], [0.4123947024345398, 0.19594180583953857, 0.04360097646713257, 0.46772730350494385, 0.1811966896057129, 0.48889267444610596, 0.2239062786102295, -0.20069074630737305, 0.14177531003952026, 0.4858623147010803, -0.19878125190734863, 0.4890452027320862, -0.024898052215576172, 0.3861387372016907, 0.22155845165252686, -0.2515932321548462, -0.17327266931533813, -0.4407622218132019, 0.3453805446624756, -0.04623693227767944, -0.46012789011001587, 0.48713529109954834, -0.3514854907989502, 0.039864540100097656], [-0.15188390016555786, -0.46019309759140015, -0.4379394054412842, 0.07298082113265991, -0.26117801666259766, 0.10043948888778687, -0.36883533000946045, -0.24052298069000244, 0.08094733953475952, 0.2713863253593445, -0.17290395498275757, -0.31769996881484985, -0.34094083309173584, 0.2653195261955261, -0.21611827611923218, 0.48504209518432617, -0.4527420401573181, -0.06268000602722168, -0.2553662657737732, -0.4961366653442383, -0.3560541868209839, -0.19553029537200928, 0.20322251319885254, 0.4652504324913025], [-0.22953122854232788, 0.24699676036834717, -0.160627543926239, 0.23321151733398438, 0.32897353172302246, 0.06390172243118286, -0.4993675947189331, -0.4062007665634155, 0.048747718334198, 0.2857739329338074, -0.3851860761642456, -0.14587193727493286, 0.39492905139923096, -0.3091588020324707, -0.1079142689704895, 0.10894268751144409, -0.29311805963516235, -0.23668700456619263, 0.43057990074157715, 0.21686440706253052, 0.15413475036621094, 0.2599503993988037, 0.3050176501274109, 0.19538146257400513], [0.10901480913162231, -0.26804202795028687, 0.3003888726234436, 0.023604214191436768, -0.36865532398223877, -0.36120784282684326, 0.3399767279624939, 0.13525336980819702, 0.3013080954551697, -0.40918320417404175, -0.2136979103088379, -0.23080962896347046, -0.02667546272277832, -0.17957180738449097, -0.09382355213165283, 0.05979633331298828, -0.020267188549041748, -0.3483036160469055, -0.20558619499206543, -0.4240812063217163, 0.05853462219238281, -0.06462538242340088, 0.23668134212493896, 0.3973392844200134], [-0.08012920618057251, 0.12157392501831055, -0.1673046350479126, 0.09247606992721558, 0.01682966947555542, -0.3071744441986084, 0.420965313911438, -0.028066933155059814, -0.05335366725921631, 0.4241335988044739, 0.4392544627189636, -0.3862321376800537, 0.3951568603515625, -0.11451995372772217, 0.15165728330612183, 0.18071097135543823, 0.3961562514305115, 0.08877784013748169, 0.007204115390777588, 0.2551687955856323, 0.3389257788658142, -0.30851805210113525, -0.07389456033706665, 0.0700613260269165], [-0.46127182245254517, -0.4283837676048279, -0.4115603566169739, 0.2738226652145386, 0.19988709688186646, 0.4257155656814575, -0.04815030097961426, 0.26024186611175537, -0.047764599323272705, -0.15887105464935303, 0.006103813648223877, -0.05138295888900757, -0.3377331495285034, -0.3077229857444763, -0.21779543161392212, -0.12175142765045166, 0.3583752512931824, -0.33136940002441406, -0.4217957854270935, -0.07196074724197388, 0.4520774483680725, -0.4842492341995239, 0.1734110713005066, 0.29545360803604126], [0.043505191802978516, 0.47567218542099, -0.25031715631484985, -0.448908269405365, 0.37964189052581787, -0.019985496997833252, -0.392910361289978, 0.05812430381774902, -0.136305034160614, -0.09173440933227539, -0.35551154613494873, 0.3521350622177124, 0.15019357204437256, 0.08242863416671753, -0.3288547396659851, 0.3131203055381775, 0.1712554693222046, 0.13538587093353271, 0.4009089469909668, -0.4543662667274475, 0.11695367097854614, 0.028571665287017822, -0.0890766978263855, -0.21601349115371704], [0.04984527826309204, 0.06072157621383667, 0.408022403717041, -0.05123937129974365, 0.4575839638710022, -0.48502248525619507, 0.3168782591819763, 0.034001052379608154, -0.29566365480422974, 0.025017261505126953, -0.10772854089736938, 0.4065553545951843, -0.4765910506248474, -0.08331918716430664, -0.3119776248931885, 0.33782243728637695, 0.1967759132385254, -0.36609333753585815, 0.29359573125839233, 0.2287387251853943, -0.3366931676864624, 0.2219257950782776, -0.3011506199836731, 0.32332462072372437], [-0.3519473671913147, -0.26357340812683105, 0.2568328380584717, -0.15813881158828735, 0.26599425077438354, 0.4065067172050476, 0.17693930864334106, -0.08782726526260376, 0.06946587562561035, -0.36914682388305664, -0.201496422290802, -0.024638891220092773, -0.17072898149490356, 0.36720168590545654, 0.032771289348602295, -0.2424764633178711, -0.26130348443984985, -0.3148893713951111, 0.3819282054901123, -0.494779109954834, 0.41622936725616455, 0.011563777923583984, 0.037999510765075684, -0.3211650252342224], [-0.3411445617675781, 0.04750823974609375, -0.2838938236236572, -0.461397647857666, -0.4392801523208618, 0.29709500074386597, 0.10447710752487183, -0.2327052354812622, -0.3114969730377197, -0.02490454912185669, 0.49140751361846924, 0.005162060260772705, -0.007487356662750244, -0.3557925820350647, -0.48131251335144043, 0.05596035718917847, 0.39570027589797974, 0.3186156749725342, 0.4654684066772461, -0.1963329315185547, -0.06945627927780151, 0.0657428503036499, -0.14544254541397095, -0.4871019721031189], [0.06813395023345947, 0.29628294706344604, -0.3487616777420044, 0.10481572151184082, 0.22474467754364014, 0.31781309843063354, 0.4180893301963806, -0.0866047739982605, 0.39813846349716187, -0.13062387704849243, 0.33036214113235474, -0.4479408264160156, 0.47428929805755615, 0.16323214769363403, 0.20502781867980957, -0.4708877205848694, 0.3110526204109192, -0.14642179012298584, -0.2581489682197571, -0.11269122362136841, 0.30956703424453735, -0.1940772533416748, 0.3106270432472229, 0.32105666399002075], [-0.2813866138458252, -0.15227514505386353, 0.037682294845581055, 0.3330932855606079, 0.2550068497657776, 0.06578856706619263, -0.18874919414520264, -0.004708230495452881, 0.28777021169662476, 0.25466084480285645, 0.2796379327774048, -0.12042611837387085, -0.04697304964065552, 0.3982383608818054, 0.13017505407333374, -0.17654967308044434, 0.30886387825012207, 0.14123296737670898, 0.003101944923400879, 0.08050847053527832, -0.06318825483322144, -0.40345126390457153, -0.41399556398391724, 0.1285874843597412], [0.1714785099029541, -0.21549004316329956, 0.24517714977264404, 0.07395046949386597, -0.0622943639755249, -0.305778443813324, 0.17823874950408936, 0.02475184202194214, -0.3183111548423767, -0.4421745538711548, 0.11177128553390503, 0.013462424278259277, 0.24235385656356812, -0.4569864869117737, 0.22189384698867798, -0.2547481656074524, -0.3282191753387451, -0.008242368698120117, -0.37197500467300415, 0.1551055908203125, -0.29609715938568115, 0.256456196308136, -0.24803727865219116, -0.47522228956222534], [-0.2973371744155884, 0.2863754630088806, -0.33632147312164307, 0.0460544228553772, -0.4604595899581909, -0.08593028783798218, 0.16320323944091797, 0.3938521146774292, -0.284170925617218, -0.026370525360107422, 0.12919414043426514, 0.056904375553131104, 0.06021803617477417, -0.43952250480651855, -0.3698050379753113, -0.23284858465194702, -0.3689115643501282, 0.40439361333847046, 0.13930636644363403, 0.20104193687438965, 0.2543289065361023, 0.08214032649993896, 0.014681756496429443, -0.06690394878387451], [-0.13969987630844116, 0.069064199924469, -0.27069348096847534, 0.26896482706069946, 0.040646910667419434, -0.34637367725372314, 0.32446980476379395, 0.2019641399383545, 0.38217729330062866, 0.41518449783325195, -0.4768133759498596, -0.3795512318611145, 0.30025726556777954, 0.03950256109237671, 0.3526434898376465, -0.10071736574172974, -0.09887683391571045, 0.12003636360168457, -0.08815878629684448, -0.2770956754684448, 0.02848297357559204, -0.25308120250701904, 0.27817922830581665, 0.2410433292388916], [-0.294116735458374, 0.1152951717376709, 0.39290517568588257, 0.26172691583633423, -0.11552619934082031, 0.3022574186325073, -0.2986387014389038, -0.1210857629776001, -0.46210867166519165, 0.08692818880081177, -0.4679696559906006, -0.03543633222579956, 0.2976619601249695, -0.14668911695480347, -0.47216057777404785, 0.039527833461761475, 0.3864403963088989, -0.010790824890136719, 0.10679155588150024, -0.018016397953033447, -0.028539717197418213, 0.43144935369491577, 0.44269633293151855, -0.4353342056274414], [0.12718957662582397, 0.26564568281173706, -0.09859323501586914, -0.1021956205368042, 0.27533674240112305, -0.32596200704574585, -0.31285274028778076, -0.29901689291000366, -0.4192037582397461, 0.1433032751083374, 0.3366791605949402, -0.44530534744262695, -0.05549854040145874, 0.2848692536354065, -0.15775716304779053, -0.2602212429046631, 0.49446433782577515, 0.09099918603897095, 0.08962899446487427, -0.30081266164779663, 0.20246809720993042, 0.26509910821914673, -0.2521706223487854, 0.18934983015060425], [0.4625541567802429, 0.2559419274330139, 0.42404431104660034, 0.370819091796875, -0.0379413366317749, -0.023955881595611572, 0.07648742198944092, -0.16843611001968384, 0.17777961492538452, 0.34478598833084106, -0.3422948122024536, -0.29348206520080566, -0.2918984293937683, -0.329121470451355, 0.05184715986251831, -0.2876361012458801, 0.44779258966445923, 0.26285576820373535, -0.30728328227996826, -0.1188933253288269, 0.24583351612091064, -0.39581018686294556, 0.41440629959106445, 0.058756232261657715], [-0.4241917133331299, 0.299278199672699, -0.0254707932472229, -0.20846259593963623, 0.013382434844970703, -0.4537419080734253, -0.36730265617370605, 0.3996089696884155, 0.1467568278312683, -0.04045373201370239, -0.40505486726760864, 0.2688455581665039, -0.23164474964141846, 0.3961302638053894, 0.20869946479797363, 0.006779193878173828, 0.399186909198761, 0.37953972816467285, -0.40398043394088745, -0.3609626889228821, -0.10280293226242065, -0.3925911784172058, 0.4386497139930725, -0.47182345390319824], [-0.12640976905822754, -0.33492279052734375, -0.13280940055847168, -0.33529287576675415, -0.06512331962585449, -0.12757593393325806, 0.23522698879241943, -0.44487082958221436, -0.01104360818862915, -0.48511064052581787, -0.4327743649482727, 0.15459966659545898, -0.2519451379776001, -0.056283533573150635, -0.17691940069198608, 0.4309474229812622, -0.2598884105682373, -0.06090492010116577, -0.11603045463562012, -0.4789005517959595, -0.1985343098640442, 0.2126230001449585, -0.07518905401229858, -0.3724372982978821], [0.24603170156478882, -0.15083181858062744, 0.1657978892326355, 0.3690562844276428, 0.0069152116775512695, -0.4046780467033386, 0.000385284423828125, 0.23451125621795654, 0.4560557007789612, -0.010890722274780273, 0.4436877369880676, -0.08197969198226929, -0.2537055015563965, -0.47798800468444824, 0.24974387884140015, -0.11740922927856445, 0.39324700832366943, 0.2760820984840393, 0.009135425090789795, -0.4398038983345032, -0.20139378309249878, -0.4180476665496826, -0.17371702194213867, -0.3769986629486084], [-0.3837652802467346, 0.31021296977996826, -0.24873024225234985, -0.04501146078109741, 0.3307914137840271, 0.16675090789794922, -0.1857609748840332, 0.20256000757217407, -0.47387439012527466, -0.37323129177093506, 0.3307274580001831, 0.2941265106201172, -0.11313885450363159, 0.42845815420150757, -0.13539719581604004, -0.0882636308670044, 0.0915413498878479, -0.30554258823394775, 0.22980982065200806, 0.3290194272994995, -0.3554491400718689, -0.38451123237609863, 0.1629643440246582, -0.2286713719367981], [-0.3054198622703552, 0.20665156841278076, -0.2815268635749817, 0.3006792664527893, -0.32863909006118774, -0.0019291043281555176, 0.03577309846878052, 0.39051127433776855, 0.35407817363739014, 0.03882938623428345, -0.09997296333312988, 0.13245666027069092, 0.42363035678863525, -0.07529020309448242, -0.4226239323616028, 0.020820021629333496, -0.11547261476516724, -0.4754886031150818, -0.0750473141670227, -0.29646700620651245, 0.3404390215873718, 0.04564809799194336, 0.42289048433303833, -0.02943897247314453], [-0.2220035195350647, 0.4167305827140808, 0.48131513595581055, -0.3403385877609253, -0.05640101432800293, -0.2622371315956116, 0.276978075504303, 0.34884190559387207, 0.21580272912979126, -0.3727801442146301, -0.33724725246429443, 0.16478663682937622, -0.009767591953277588, 0.18933290243148804, 0.39609968662261963, 0.24407100677490234, -0.3416931629180908, -0.38599008321762085, 0.27215731143951416, 0.1175737977027893, 0.13880866765975952, 0.42495423555374146, -0.2696508765220642, 0.42121243476867676], [0.2554693818092346, -0.31191784143447876, 0.3218812942504883, 0.36655139923095703, 0.4747064709663391, 0.02631986141204834, 0.03808176517486572, -0.14162635803222656, -0.35478442907333374, 0.0594293475151062, 0.39524340629577637, 0.4650189280509949, 0.08153802156448364, -0.36086541414260864, 0.1590021252632141, -0.22929728031158447, -0.3890179991722107, -0.40738916397094727, 0.19122135639190674, 0.1745377779006958, -0.1680305004119873, -0.4385285973548889, 0.3369952440261841, 0.3878942131996155], [-0.35135769844055176, -0.2095344066619873, -0.28327274322509766, 0.19694477319717407, 0.456633985042572, -0.31973254680633545, 0.09816598892211914, -0.2672659158706665, 0.19349873065948486, 0.37298572063446045, 0.40805554389953613, -0.30636996030807495, 0.16910630464553833, -0.454006552696228, 0.24735963344573975, -0.4472386837005615, -0.19623756408691406, 0.15881311893463135, 0.4758228659629822, 0.3490856885910034, 0.3832286596298218, -0.3332647681236267, -0.15945976972579956, -0.42743802070617676], [0.4770811200141907, -0.31704646348953247, 0.02195984125137329, 0.46120625734329224, 0.34114205837249756, 0.06176203489303589, 0.30891478061676025, 0.04506826400756836, 0.40233057737350464, -0.036095499992370605, 0.053945720195770264, -0.45996201038360596, -0.4297791123390198, 0.020637989044189453, 0.3468935489654541, -0.43107640743255615, 0.23070406913757324, -0.4602630138397217, 0.2901548743247986, 0.18066740036010742, 0.06143122911453247, -0.47068989276885986, -0.2896706461906433, 0.13716238737106323], [0.27675509452819824, -0.1575552225112915, -0.31720679998397827, -0.46337270736694336, 0.12635928392410278, -0.10053473711013794, 0.1326984167098999, -0.4030865430831909, 0.09471499919891357, -0.019581913948059082, -0.44048547744750977, -0.25558435916900635, 0.2711520195007324, 0.041610658168792725, 0.25897371768951416, 0.33053165674209595, 0.4349706172943115, -0.08725494146347046, -0.040791332721710205, 0.2813985347747803, -0.24595582485198975, -0.2284502387046814, -0.13008391857147217, -0.23462355136871338], [0.2085813283920288, -0.35918116569519043, 0.10538005828857422, 0.10973495244979858, -0.49786704778671265, -0.16813522577285767, -0.36395758390426636, -0.2514353394508362, 0.36572742462158203, 0.3361474871635437, 0.14538037776947021, -0.14482682943344116, 0.12773233652114868, -0.3996259570121765, -0.23126208782196045, 0.004258275032043457, -0.3627464771270752, 0.15638065338134766, -0.17916417121887207, -0.2762296795845032, 0.3287162780761719, -0.10196024179458618, 0.3927152156829834, 0.217024564743042], [0.09816491603851318, 0.2915278673171997, 0.046159982681274414, 0.26880699396133423, -0.35074806213378906, -0.23558443784713745, 0.04949390888214111, -0.41210418939590454, 0.15774297714233398, -0.3732796311378479, -0.4417703151702881, 0.2969566583633423, -0.008482575416564941, -0.14263218641281128, -0.21071171760559082, 0.41605597734451294, -0.03420335054397583, 0.46308791637420654, 0.4238613247871399, -0.2013574242591858, -0.23461931943893433, 0.0019028186798095703, 0.41975539922714233, -0.46966028213500977], [-0.34611016511917114, 0.4805402159690857, 0.2947426438331604, 0.33351290225982666, -0.11888188123703003, 0.39989179372787476, -0.3738359212875366, 0.09549683332443237, -0.25101083517074585, 0.4169829487800598, 0.44392287731170654, -0.16830968856811523, -0.42062681913375854, -0.1124643087387085, -0.4795493483543396, -0.09167134761810303, -0.21172666549682617, -0.4649707078933716, 0.11699080467224121, -0.3755495548248291, 0.35662269592285156, -0.22373288869857788, -0.13555747270584106, 0.2527593970298767], [-0.23347342014312744, -0.49480319023132324, 0.41152435541152954, -0.24567145109176636, 0.36593109369277954, 0.011305689811706543, -0.1075562834739685, -0.039624571800231934, 0.4974481463432312, -0.12493467330932617, 0.4348892569541931, 0.11206525564193726, -0.2689235806465149, 0.16113251447677612, -0.2747657895088196, -0.15378212928771973, 0.24852746725082397, 0.07809591293334961, 0.4176000952720642, -0.2906419038772583, -0.05021947622299194, 0.20982462167739868, -0.3377714157104492, 0.4122837781906128], [0.16381430625915527, 0.03938394784927368, 0.28003376722335815, 0.31952524185180664, 0.07125985622406006, -0.14215606451034546, 0.07927095890045166, 0.23287755250930786, -0.09378039836883545, 0.21729177236557007, -0.4240788221359253, -0.17513293027877808, 0.35726165771484375, 0.21784353256225586, 0.005534648895263672, 0.0034679770469665527, 0.21420109272003174, -0.334949791431427, -0.21792346239089966, 0.1102561354637146, 0.49709129333496094, 0.4461643099784851, 0.0660390853881836, -0.16063350439071655], [-0.04639917612075806, -0.09143203496932983, -0.08653455972671509, 0.3495227098464966, -0.3011683225631714, -0.23636305332183838, -0.18911218643188477, 0.30917656421661377, 0.17904144525527954, 0.28969019651412964, 0.046746253967285156, -0.13874346017837524, -0.0514259934425354, 0.41401952505111694, -0.26625877618789673, -0.30484694242477417, -0.44779282808303833, 0.27868813276290894, 0.09022343158721924, 0.063129723072052, 0.09211605787277222, 0.18979758024215698, 0.3344852328300476, -0.18483436107635498], [0.4444233179092407, 0.435099720954895, 0.16832762956619263, -0.368233323097229, -0.14031463861465454, -0.363523006439209, 0.0427854061126709, 0.22465646266937256, 0.011770009994506836, -0.18633228540420532, -0.38144195079803467, -0.10503417253494263, -0.30748140811920166, -0.09130823612213135, -0.29225820302963257, -0.13915055990219116, -0.08700168132781982, -0.0267980694770813, -0.40225350856781006, 0.3159602880477905, 0.13381940126419067, -0.4614797830581665, -0.07252508401870728, -0.12793415784835815], [0.22018134593963623, 0.21502524614334106, 0.40945965051651, -0.19079720973968506, 0.4801980257034302, -0.46919000148773193, 0.13891446590423584, 0.48246294260025024, -0.3012063503265381, 0.2452746033668518, 0.31832945346832275, -0.12962597608566284, 0.3833554983139038, -0.26073336601257324, 0.10634243488311768, 0.018738746643066406, -0.24454045295715332, 0.008925795555114746, -0.15174740552902222, -0.2912294268608093, 0.357124388217926, 0.21421653032302856, 0.0799257755279541, -0.3291497826576233], [-0.16601818799972534, 0.14569956064224243, -0.426352322101593, 0.3673880100250244, -0.39895325899124146, 0.09696274995803833, 0.466987669467926, 0.14817768335342407, 0.20535743236541748, -0.008718311786651611, 0.25166720151901245, -0.2736698389053345, 0.47641438245773315, 0.2528170347213745, -0.22558969259262085, 0.059034109115600586, 0.4590883255004883, -0.46057212352752686, 0.35452377796173096, 0.2252451777458191, -0.38697218894958496, 0.05770498514175415, -0.23608392477035522, -0.1205296516418457], [-0.2878072261810303, 0.47777044773101807, -0.2299741506576538, 0.04568368196487427, 0.22461968660354614, 0.4841633439064026, 0.06964612007141113, -0.40301311016082764, -0.4200897812843323, -0.034770190715789795, -0.09764367341995239, -0.20960956811904907, 0.08938390016555786, -0.46302109956741333, -0.2773071527481079, 0.06972163915634155, -0.33318424224853516, 0.07354474067687988, 0.3687833547592163, -0.38624006509780884, 0.4875425100326538, 0.3634440302848816, 0.24829304218292236, -0.4827128052711487], [-0.19873464107513428, 0.14187926054000854, 0.06742960214614868, -0.11623865365982056, -0.3272477388381958, 0.21862834692001343, 0.06426477432250977, 0.09818089008331299, -0.24391436576843262, -0.48439866304397583, -0.3472674489021301, 0.3063663840293884, 0.48266416788101196, -0.47307658195495605, -0.09951311349868774, 0.3256050944328308, 0.22946828603744507, -0.047063469886779785, -0.1987883448600769, -0.07400596141815186, 0.39107614755630493, -0.25978320837020874, 0.40691524744033813, -0.25021636486053467], [-0.46545344591140747, 0.4925426244735718, 0.36179232597351074, 0.26677268743515015, -0.3682950735092163, 0.31982457637786865, 0.3407202959060669, 0.09736901521682739, 0.4513246417045593, -0.18252497911453247, 0.0727543830871582, -0.08883470296859741, 0.0795367956161499, 0.4333566427230835, 0.48702937364578247, -0.37991297245025635, -0.03658127784729004, 0.3078297972679138, 0.25003504753112793, 0.05978846549987793, -0.06262898445129395, 0.4560299515724182, -0.09268844127655029, -0.09107017517089844], [-0.41812723875045776, -0.06943762302398682, 0.02672630548477173, -0.28843092918395996, -0.22776848077774048, -0.11124551296234131, 0.40027058124542236, 0.2918981909751892, 0.43775057792663574, 0.18292617797851562, 0.332172691822052, 0.3293551802635193, -0.08946871757507324, -0.23932093381881714, -0.4220268130302429, -0.3720152974128723, 0.03882628679275513, 0.18583059310913086, 0.49198001623153687, 0.08933240175247192, -0.14491033554077148, -0.2786344289779663, 0.22049444913864136, -0.33797532320022583], [-0.25749242305755615, 0.22389131784439087, 0.19119948148727417, -0.25361955165863037, -0.17354732751846313, 0.12631356716156006, 0.42796027660369873, -0.09671956300735474, -0.04889792203903198, 0.4732588529586792, 0.2635069489479065, -0.18615180253982544, -0.09588366746902466, 0.410791277885437, 0.14235413074493408, 0.11401033401489258, -0.4759926199913025, -0.3569452166557312, -0.40694504976272583, -0.1500656008720398, -0.11818718910217285, -0.14758390188217163, 0.42119789123535156, -0.0870887041091919], [0.040669143199920654, 0.24046695232391357, 0.42313486337661743, 0.3668630123138428, 0.45166975259780884, 0.37555480003356934, -0.4415733218193054, 0.3730704188346863, 0.32585978507995605, -0.27838438749313354, 0.07067275047302246, -0.10211890935897827, -0.23650676012039185, 0.0048514604568481445, -0.4465740919113159, -0.0631970763206482, -0.46759968996047974, -0.33910107612609863, -0.12956613302230835, 0.05768626928329468, 0.06213843822479248, 0.08494603633880615, -0.12981528043746948, -0.011484980583190918], [0.15840494632720947, -0.006686747074127197, 0.07830560207366943, -0.22892463207244873, 0.37305551767349243, 0.16810423135757446, 0.28154313564300537, -0.20351439714431763, -0.479711651802063, 0.48195046186447144, 0.26324790716171265, -0.13675999641418457, -0.13061511516571045, 0.2646581530570984, -0.053717613220214844, -0.4460783004760742, 0.45175832509994507, 0.39405399560928345, 0.1888200044631958, 0.2855491638183594, 0.4488879442214966, 0.12225598096847534, -0.3809863328933716, -0.42593610286712646], [0.14762800931930542, -0.3902186155319214, 0.30797553062438965, -0.35166096687316895, -0.051026761531829834, -0.4736507534980774, 0.40198254585266113, -0.3167338967323303, 0.3128780722618103, -0.24380165338516235, 0.034867823123931885, -0.05117356777191162, -0.2956930994987488, -0.29542624950408936, 0.11591780185699463, 0.1776740550994873, -0.101573646068573, -0.2335847020149231, 0.0060669779777526855, 0.06814539432525635, -0.2377205491065979, 0.12671494483947754, -0.07225644588470459, -0.2908226251602173], [0.47007179260253906, -0.10772061347961426, -0.47416436672210693, -0.2817884683609009, 0.17975854873657227, -0.4018177390098572, 0.015441954135894775, -0.06397843360900879, -0.04267597198486328, 0.39241278171539307, -0.08733046054840088, 0.37281572818756104, 0.4546824097633362, -0.2629505395889282, 0.07594698667526245, 0.4003939628601074, 0.14734697341918945, -0.1343490481376648, -0.02424788475036621, -0.47692400217056274, 0.4574130177497864, -0.383991003036499, 0.3422374725341797, -0.45549023151397705], [0.4216611981391907, 0.15423494577407837, 0.004506587982177734, 0.3617779016494751, 0.26637840270996094, -0.4713575839996338, -0.09327375888824463, -0.09459042549133301, -0.10903608798980713, 0.15889251232147217, -0.38566094636917114, -0.24749886989593506, 0.4080246090888977, -0.3167898654937744, 0.19989508390426636, -0.49769091606140137, 0.19763392210006714, -0.2762242555618286, 0.06016963720321655, 0.3799944519996643, 0.4568030834197998, 0.2741506099700928, -0.3733660578727722, -0.4690864086151123], [0.2519453763961792, 0.4146328568458557, 0.1073676347732544, 0.020532071590423584, 0.06901508569717407, 0.4405862092971802, -0.006330251693725586, 0.0922427773475647, 0.03449857234954834, -0.4222114086151123, -0.4051508903503418, -0.24116003513336182, 0.31132906675338745, -0.03290480375289917, 0.4314698576927185, 0.34799718856811523, -0.11967569589614868, 0.13286179304122925, 0.2457403540611267, -0.012797236442565918, 0.4974094033241272, -0.4234634041786194, 0.0024409890174865723, -0.16498535871505737], [-0.27128398418426514, 0.08439546823501587, -0.19046896696090698, -0.36120593547821045, 0.4804331660270691, 0.48921531438827515, 0.0484805703163147, 0.24587976932525635, -0.3208913803100586, 0.44366908073425293, 0.19416016340255737, -0.16745871305465698, -0.2644692063331604, -0.328524649143219, 0.48309439420700073, 0.2546886205673218, -0.07371234893798828, 0.30758339166641235, -0.3384733200073242, -0.15941327810287476, -0.027767419815063477, 0.18102198839187622, -0.42367929220199585, -0.15958094596862793], [0.17141669988632202, 0.4278237223625183, 0.06796836853027344, 0.2965954542160034, 0.40905582904815674, 0.18501156568527222, -0.38159751892089844, 0.1441372036933899, -0.39536648988723755, 0.3307197690010071, 0.38584786653518677, -0.4603313207626343, 0.29081761837005615, -0.40810221433639526, 0.005883157253265381, -0.4585300087928772, -0.357485294342041, -0.1932489275932312, 0.4485741853713989, -0.025786876678466797, -0.3126261830329895, -0.33041518926620483, -0.01087123155593872, 0.006857752799987793], [-0.2711435556411743, 0.4140015244483948, 0.19862395524978638, 0.2462497353553772, 0.14784008264541626, -0.3851936459541321, -0.047876954078674316, 0.2984316945075989, 0.4649873375892639, -0.07210850715637207, 0.17110729217529297, -0.11108016967773438, 0.4243074059486389, -0.3922308683395386, 0.4652000665664673, -0.27011358737945557, -0.29922550916671753, -0.182345449924469, 0.2241954803466797, -0.1064576506614685, 0.4531821012496948, 0.3794809579849243, -0.4903813600540161, 0.33234721422195435], [-0.32406067848205566, -0.27907878160476685, -0.12934523820877075, -0.4758760929107666, -0.29532313346862793, -0.3966889977455139, -0.008488595485687256, 0.3437684178352356, 0.15640640258789062, 0.30056941509246826, -0.04118245840072632, 0.23203831911087036, 0.01694941520690918, -0.4391476511955261, 0.1579819917678833, -0.41047048568725586, 0.21785402297973633, -0.07711738348007202, -0.278015673160553, 0.39535701274871826, 0.42862945795059204, 0.021669447422027588, -0.036909520626068115, -0.016663730144500732]], "fc1.bias": [0.0, 0.0, 0.0, 0.0, 0.0, 0.0, 0.0, 0.0, 0.0, 0.0, 0.0, 0.0, 0.0, 0.0, 0.0, 0.0, 0.0, 0.0, 0.0, 0.0, 0.0, 0.0, 0.0, 0.0, 0.0, 0.0, 0.0, 0.0, 0.0, 0.0, 0.0, 0.0, 0.0, 0.0, 0.0, 0.0, 0.0, 0.0, 0.0, 0.0, 0.0, 0.0, 0.0, 0.0, 0.0, 0.0, 0.0, 0.0, 0.0, 0.0, 0.0, 0.0, 0.0, 0.0, 0.0, 0.0, 0.0, 0.0, 0.0, 0.0, 0.0, 0.0, 0.0, 0.0, 0.0, 0.0, 0.0, 0.0, 0.0, 0.0, 0.0, 0.0, 0.0, 0.0, 0.0, 0.0, 0.0, 0.0, 0.0, 0.0, 0.0, 0.0, 0.0, 0.0, 0.0, 0.0, 0.0, 0.0, 0.0, 0.0, 0.0, 0.0, 0.0, 0.0, 0.0, 0.0, 0.0, 0.0, 0.0, 0.0, 0.0, 0.0, 0.0, 0.0, 0.0, 0.0, 0.0, 0.0, 0.0, 0.0, 0.0, 0.0, 0.0, 0.0, 0.0, 0.0, 0.0, 0.0, 0.0, 0.0, 0.0, 0.0, 0.0, 0.0, 0.0, 0.0, 0.0, 0.0], "fc2.weight": [[-0.21387678384780884, -0.0932006686925888, -0.16425134241580963, 0.007114149164408445, -0.08911039680242538, -0.1772068738937378, -0.13659368455410004, 0.08256366848945618, 0.21291889250278473, 0.013171190395951271, 0.12753336131572723, 0.13206316530704498, 0.029543515294790268, 0.08851584792137146, 0.055517930537462234, -0.06814564764499664, 0.200922429561615, -0.21048717200756073, -0.039479296654462814, -0.21578623354434967, 0.05445145070552826, -0.03801044821739197, 0.1978694200515747, 0.008473461493849754, -0.17526297271251678, 0.06666311621665955, 0.1513039469718933, -0.17831376194953918, 0.02289169281721115, 0.006810035090893507, -0.10437038540840149, -0.18078140914440155, 0.07854942977428436, 0.1352914571762085, -0.14537370204925537, -0.018012110143899918, 0.19562160968780518, -0.08151009678840637, -0.10267020016908646, 0.18228836357593536, 0.14189042150974274, -0.18824902176856995, 0.0340663306415081, 0.008352363482117653, 0.2013597935438156, 0.07611267268657684, -0.1623009592294693, -0.12639003992080688, -0.1335412561893463, -0.17607568204402924, -0.071888267993927, -0.026854829862713814, 0.016200562939047813, -0.16831620037555695, 0.0024712919257581234, -0.09232538938522339, -0.18606938421726227, -0.04691232368350029, 0.15287479758262634, -0.11888080835342407, -0.16432727873325348, -0.05847012996673584, -0.16795431077480316, 0.029253080487251282, 0.10057338327169418, -0.1974715292453766, 0.2033867985010147, 0.01755104772746563, 0.024451004341244698, 0.04219740629196167, -0.15647339820861816, -0.2047787606716156, -0.07396472245454788, -0.11809954792261124, 0.04942766949534416, -0.13319429755210876, -0.0860181525349617, 0.04069294035434723, 0.21559250354766846, 0.1337815672159195, -0.0119639215990901, -0.13802450895309448, 0.19849883019924164, 0.13962681591510773, 0.1475139856338501, 0.1674710363149643, -0.02164558134973049, -0.20468001067638397, -0.13600553572177887, -0.056056909263134, -0.08282731473445892, -0.08893352746963501, -0.04046369716525078, 0.16501589119434357, 0.19047221541404724, 0.013962382450699806, -0.09632425010204315, -0.14758417010307312, 0.10649660229682922, 0.049023907631635666, -0.13058118522167206, -0.004640095867216587, 0.04130111634731293, 0.01700592413544655, -0.0845186710357666, -0.17364276945590973, -0.16722770035266876, -0.0036473048385232687, -0.21641728281974792, -0.17262053489685059, -0.16049303114414215, -0.0326257199048996, -0.036830589175224304, -0.05586633086204529, 0.13869349658489227, 0.06690456718206406, 0.045589350163936615, 0.07709842175245285, -0.09721047431230545, -0.16002793610095978, 0.21603672206401825, -0.1025683581829071, 0.14656378328800201, 0.12048979848623276, -0.19018889963626862, 0.06257904320955276, 0.07286381721496582, -0.21302388608455658], [0.039764441549777985, 0.1995604783296585, -0.21371550858020782, 0.0036860709078609943, -0.10391125828027725, -0.06992728263139725, -0.013116009533405304, -0.18146270513534546, 0.06488458067178726, -0.0007096082554198802, -0.07709606736898422, -0.1879766583442688, 0.07064586877822876, -0.02141394093632698, 0.05620092898607254, 0.08522438257932663, 0.07675883919000626, 0.1378779411315918, -0.1407628208398819, -0.06392668932676315, -0.20989549160003662, 0.06135357543826103, 0.14068485796451569, 0.04970654472708702, -0.202838733792305, 0.139852836728096, -0.008153294213116169, 0.04294877126812935, -0.20873740315437317, 0.21606838703155518, 0.16324590146541595, 0.1303611546754837, 0.0466965027153492, 0.0644252747297287, 0.11026552319526672, 0.02671889029443264, 0.14113543927669525, -0.13943392038345337, 0.044338151812553406, 0.060249339789152145, -0.067726269364357, -0.21394263207912445, 0.16396896541118622, 0.11553743481636047, -0.2062164843082428, -0.1636658012866974, 0.08925390243530273, 0.0017554893856868148, -0.04011712595820427, 0.20072287321090698, -0.1192241981625557, -0.07790780812501907, 0.04045115411281586, 0.015668034553527832, -0.20652303099632263, 0.0279174093157053, 0.005153035279363394, -0.08684767037630081, -0.1963506042957306, 0.18916822969913483, 0.16083009541034698, -0.15877053141593933, 0.04486355930566788, -0.00856779608875513, 0.16939647495746613, 0.12793704867362976, -0.06315147131681442, -0.17689351737499237, 0.20311647653579712, -0.18162469565868378, 0.0785849466919899, 0.017814770340919495, -0.20752228796482086, 0.054083485156297684, 0.09496408700942993, -0.09049554914236069, 0.06055056303739548, -0.0428343340754509, 0.1674051731824875, -0.20070186257362366, 0.07797124981880188, 0.18976691365242004, -0.0843115746974945, -0.06434141844511032, 0.1343279629945755, 0.11720119416713715, -0.06953327357769012, 0.15883174538612366, -0.007369018625468016, 0.0571516752243042, -0.19795912504196167, -0.017454545944929123, 0.04137149825692177, 0.08082059770822525, 0.1413337141275406, 0.1507442146539688, -0.17983296513557434, 0.11051313579082489, -0.13778941333293915, 0.034092579036951065, 0.0278327539563179, -0.07753782719373703, 0.1392260193824768, 0.13295483589172363, -0.13324227929115295, -0.0973561704158783, -0.18640895187854767, 0.1578882783651352, 0.19176554679870605, -0.11999082565307617, 0.11394846439361572, -0.18337921798229218, 0.19378097355365753, 0.2111191749572754, -0.046302828937768936, -0.10683690011501312, -0.21251218020915985, -0.15917609632015228, -0.05948831886053085, -0.21605823934078217, -0.09484156966209412, 0.13087670505046844, -0.19223307073116302, 0.1422269344329834, -0.13259679079055786, -0.08423755317926407, 0.10229996591806412, -0.037513382732868195], [-0.20782501995563507, -0.15198317170143127, -0.008594611659646034, -0.09057736396789551, 0.16092810034751892, 0.05795946344733238, 0.15254779160022736, -0.07987622171640396, 0.09524574130773544, -0.11201538145542145, -0.10684910416603088, 0.12014255672693253, -0.17955736815929413, -0.004807290155440569, -0.19671562314033508, 0.05626397952437401, -0.11058246344327927, 0.21377812325954437, -0.11741740256547928, -0.05084577947854996, -0.1806943565607071, 0.1250932216644287, 0.12070515751838684, -0.06890486180782318, 0.14076445996761322, 0.17311276495456696, 0.1146128848195076, -0.017037849873304367, 0.09405432641506195, -0.17355138063430786, 0.1669050008058548, -0.18580308556556702, 0.1410520225763321, 0.15412253141403198, 0.19804275035858154, 0.03675416484475136, -0.1845828741788864, 0.04649193584918976, 0.1351109743118286, -0.15828734636306763, 0.131056547164917, 0.15413561463356018, -0.03510439395904541, -0.09279623627662659, 0.03789634257555008, -0.00782956462353468, 0.04359414055943489, 0.023457542061805725, 0.18536609411239624, 0.06903891265392303, -0.06129372492432594, 0.04976833239197731, -0.013318898156285286, 0.11614638566970825, -0.049969904124736786, 0.18404798209667206, 0.049903858453035355, 0.19730697572231293, -0.10828016698360443, 0.12610077857971191, -0.023192813619971275, 0.12176448106765747, -0.05555039644241333, 0.18403096497058868, -0.18637233972549438, 0.07198192924261093, -0.03150925040245056, 0.1634971797466278, -0.07894349098205566, -0.12296970933675766, 0.08799173682928085, 0.07518306374549866, -0.13425564765930176, 0.14978072047233582, -0.1914730817079544, 0.08692280203104019, 0.1516697257757187, -0.13012951612472534, 0.09865348786115646, 0.06033796817064285, 0.09389807283878326, -0.01740003563463688, -0.10430978238582611, -0.12465262413024902, -0.1818128377199173, -0.021590426564216614, -0.10539460927248001, 0.20537805557250977, -0.188201904296875, -0.12225228548049927, -0.1570962518453598, -0.14954961836338043, -0.005700301378965378, 0.17734205722808838, 0.08302225917577744, 0.09081277251243591, -0.12318411469459534, -0.07842521369457245, -0.05299891531467438, 0.149669349193573, 0.1742272824048996, -0.08215701580047607, -0.12280579656362534, 0.171156644821167, 0.21544216573238373, -0.08279518038034439, -0.14503830671310425, 0.14273378252983093, -0.05887957289814949, -0.20900799334049225, 0.19039522111415863, 0.07845252007246017, -0.1088993176817894, 0.10990196466445923, 0.14099955558776855, 0.14455877244472504, 0.016367807984352112, -0.13427229225635529, 0.1764785498380661, -0.15660251677036285, -0.1705886274576187, -0.1994653195142746, -0.0002841891546268016, -0.18322975933551788, 0.10054713487625122, -0.0551404133439064, -0.1980668008327484, 0.14623317122459412], [-0.17725667357444763, 0.15076187252998352, 0.12789654731750488, -0.045049723237752914, -0.09370437264442444, -0.12323400378227234, 0.15341955423355103, 0.08357506990432739, 0.19198937714099884, -0.03130243718624115, 0.07959028333425522, 0.06761559844017029, -0.10956383496522903, 0.11756149679422379, -0.13846313953399658, -0.1664084494113922, 0.18500612676143646, -0.032546330243349075, 0.13100729882717133, 0.059546079486608505, -0.020174384117126465, -0.05243990570306778, 0.182214617729187, 0.1931135058403015, -0.16231819987297058, 0.02984357811510563, 0.1935778558254242, -0.12546944618225098, -0.10294948518276215, -0.025286149233579636, -0.0004372915136627853, 0.004295899532735348, 0.1603821963071823, 0.06743544340133667, -0.16394662857055664, 0.18266382813453674, 0.14153151214122772, 0.1986129879951477, -0.09855948388576508, 0.21306884288787842, 0.12408876419067383, -0.21523915231227875, 0.10481167584657669, 0.012432700954377651, -0.042988959699869156, 0.08996598422527313, -0.18656288087368011, 0.02216167002916336, -0.043808307498693466, 0.20488417148590088, 0.018313540145754814, 0.08500061184167862, -0.15378476679325104, -0.12877753376960754, 0.13555066287517548, -0.04287118837237358, 0.03487308695912361, -0.0969436764717102, -0.11487547308206558, -0.003488421207293868, -0.03807685524225235, -0.049822814762592316, -0.08139175921678543, 0.09838543087244034, 0.14590473473072052, -0.04525212198495865, -0.03493121266365051, -0.06862709671258926, -0.20296481251716614, -0.1118585616350174, 0.13280826807022095, 0.03517911210656166, -0.03154277801513672, -0.11061397194862366, -0.15087085962295532, 0.03377411514520645, -0.20246250927448273, -0.04087118059396744, -0.11418374627828598, -0.0185681264847517, 0.06934888660907745, 0.18752960860729218, -0.0761638805270195, -0.1284671276807785, -0.0009851770009845495, -0.09138860553503036, -0.11889652162790298, 0.20144282281398773, -0.01907476782798767, 0.08436169475317001, 0.1865376979112625, 0.10039111226797104, -0.15486323833465576, 0.11684788763523102, -0.07940050214529037, -0.12030007690191269, -0.16906432807445526, 0.1711326688528061, -0.14323703944683075, -0.059377748519182205, -0.12339368462562561, -0.014120466075837612, -0.007776525802910328, -0.1827010214328766, 0.14765232801437378, -0.043422918766736984, -0.15437214076519012, -0.20116348564624786, -0.08104366809129715, 0.19633160531520844, -0.06731385737657547, -0.15874610841274261, 0.19942840933799744, 0.1878194510936737, -0.01639779843389988, -0.004840894136577845, 0.07436655461788177, 0.0534362830221653, -0.03571886569261551, -0.20018762350082397, -0.08261136710643768, 0.09527911990880966, -0.022117741405963898, 0.09653235226869583, 0.11960235983133316, 0.05266333743929863, -0.1916346400976181, 0.1612652987241745], [0.0622858926653862, 0.10781513154506683, 0.15224406123161316, 0.045339565724134445, 0.15421666204929352, -0.1669565737247467, -0.13174499571323395, 0.15778765082359314, 0.03431585803627968, -0.16463330388069153, -0.140156090259552, 0.14170649647712708, -0.19071869552135468, 0.001247995882295072, 0.1886593997478485, 0.02328423038125038, -0.21409398317337036, -0.08918862789869308, 0.11918117851018906, -0.18947260081768036, 0.19619432091712952, -0.09162742644548416, -0.06911363452672958, -0.21563005447387695, -0.14859367907047272, 0.13605694472789764, 0.14540690183639526, -0.13456574082374573, 0.1480705440044403, -0.02958475984632969, -0.026023194193840027, -0.1510959416627884, -0.03861227631568909, -0.19897021353244781, -0.016387036070227623, -0.06833547353744507, -0.11318053305149078, -0.013130617327988148, -0.061963584274053574, 0.10546989738941193, 0.20039048790931702, 0.12600436806678772, -0.07867603003978729, -0.036363307386636734, -0.14016962051391602, 0.1612584888935089, -0.08479186147451401, -0.06693538278341293, -0.014504383318126202, -0.043624259531497955, 0.0417967364192009, -0.08093826472759247, 0.13511693477630615, 0.15976114571094513, -0.16648226976394653, 0.049731526523828506, -0.20747439563274384, 0.1630246341228485, -0.18438896536827087, -0.11669117212295532, -0.08167948573827744, 0.10378344357013702, -0.17875419557094574, 0.13122998178005219, 0.1899888813495636, 0.17223353683948517, -0.1673167496919632, -0.1011655330657959, 0.12592968344688416, 0.08654332906007767, 0.16482356190681458, -0.12804903090000153, 0.10612127929925919, 0.05180984362959862, 0.10933743417263031, -0.04178839921951294, -0.07838471233844757, -0.14977382123470306, 0.13368654251098633, -0.012491391971707344, -0.05310468375682831, -0.01787441596388817, 0.10568884015083313, -0.11810386180877686, 0.21392986178398132, 0.10344446450471878, 0.026586074382066727, -0.10746213793754578, -0.13449546694755554, 0.11846744269132614, -0.18828445672988892, 0.02615644782781601, -0.16823790967464447, 0.08520360291004181, -0.11765854060649872, 0.03553742542862892, -0.17507043480873108, -0.1235940158367157, 0.149097740650177, 0.11465350538492203, 0.023340599611401558, 0.044246476143598557, -0.036150068044662476, 0.003821932477876544, 0.19044306874275208, -0.0045260172337293625, 0.032011400908231735, -0.097240149974823, -0.1481819897890091, 0.09374868869781494, -0.09154408425092697, 0.17295053601264954, 0.1840059608221054, 0.17495618760585785, 0.19550076127052307, 0.0029853926971554756, -0.20186130702495575, 0.11603439599275589, 0.1912073940038681, 0.10438898950815201, 0.15045472979545593, -0.013032670132815838, 0.03002008982002735, -0.08714959025382996, -0.11477876454591751, -0.21195130050182343, 0.15319451689720154, -0.1289764940738678], [-0.12593938410282135, 0.17896364629268646, 0.040748532861471176, -0.05924934893846512, -0.008584907278418541, 0.060441724956035614, -0.03163837641477585, 0.030459729954600334, 0.03978230059146881, -0.040849242359399796, -0.0808427706360817, -0.1480981409549713, -0.05203738063573837, 0.005053332541137934, -0.10435572266578674, -0.14097632467746735, 0.13227103650569916, -0.09619422256946564, -0.004438858479261398, 0.16304998099803925, 0.025468623265624046, -0.08941774070262909, 0.07202503085136414, 0.00788619089871645, -0.03653770312666893, -0.0776958093047142, 0.1152188628911972, -0.18836039304733276, 0.05922578275203705, -0.14444172382354736, 0.20015041530132294, 0.11510277539491653, 0.10767385363578796, 0.03068762831389904, -0.1656237691640854, 0.11630521714687347, -0.10606005787849426, 0.15366098284721375, -0.06590284407138824, -0.04055692255496979, 0.1567152589559555, -0.17952080070972443, -0.04070473462343216, -0.08840445429086685, 0.13571734726428986, 0.1985975056886673, -0.04645729809999466, -0.20655646920204163, -0.10573472827672958, -0.000608615402597934, 0.2017335444688797, -0.04439529404044151, -0.0195236224681139, 0.1761670708656311, 0.0954086035490036, 0.12736546993255615, -0.0037453812547028065, 0.15825967490673065, -0.041471537202596664, 0.1813037246465683, -0.1108308807015419, 0.1850527673959732, 0.16810187697410583, -0.15173088014125824, -0.1737777590751648, 0.09752537310123444, -0.20034217834472656, 0.13900016248226166, -0.02064930647611618, -0.04528557136654854, -0.21421478688716888, 0.01725049503147602, 0.020327666774392128, 0.05670096352696419, 0.09052710980176926, 0.013927694410085678, 0.2112889438867569, 0.010366258211433887, 0.05171506851911545, -0.16783949732780457, -0.18101218342781067, 0.2019914835691452, -0.014228531159460545, 0.015893764793872833, -0.08614722639322281, 0.14654353260993958, 0.12066331505775452, -0.052220240235328674, 0.034228287637233734, 0.0979037657380104, 0.1607854962348938, -0.1429414451122284, 0.07808782905340195, -0.1952660083770752, 0.0019921630155295134, 0.21362659335136414, -0.0323454812169075, -0.10543931275606155, 0.1253245323896408, -0.04815058782696724, 0.1733923703432083, -0.047152843326330185, -0.03338994085788727, 0.2017568200826645, 0.06063542515039444, -0.0009117745794355869, -0.18837541341781616, 0.005483423359692097, 0.13450407981872559, -0.11175934970378876, 0.16810114681720734, -0.17345954477787018, 0.028154728934168816, 0.16548673808574677, -0.14330025017261505, -0.13071773946285248, -0.09108738601207733, 0.06925037503242493, 0.10402143746614456, 0.17583145201206207, 0.17706625163555145, 0.16127382218837738, 0.012765903025865555, -0.17670391499996185, -0.20718738436698914, -0.0754844918847084, -0.14720432460308075, -0.16975630819797516], [-0.21631500124931335, -0.07617335021495819, -0.08108112215995789, -0.016799885779619217, -0.051857125014066696, -0.18821442127227783, -0.07777336239814758, 0.19638460874557495, 0.1388797163963318, 0.1552872657775879, -0.1732042133808136, -0.1628689020872116, -0.19907154142856598, -0.06685924530029297, -0.032157301902770996, 0.20501011610031128, -0.05349275469779968, -0.12685036659240723, -0.06399082392454147, 0.16581574082374573, -0.1853606253862381, -0.21419721841812134, 0.045069001615047455, -0.016663817688822746, -0.06703531742095947, 0.02557266131043434, -0.13212637603282928, 0.008304408751428127, -0.15561272203922272, -0.11191322654485703, -0.09061620384454727, -0.2139258086681366, -0.07992730289697647, -0.09976278245449066, -0.015159559436142445, 0.013314768671989441, 0.06496882438659668, -0.0665903091430664, -0.15586695075035095, -0.1417113095521927, -0.1440429389476776, -0.12576785683631897, 0.08116602897644043, 0.1102636381983757, 0.08108305186033249, -0.08097509294748306, -0.023987645283341408, -0.16981464624404907, -0.04629955068230629, 0.10062618553638458, -0.09573114663362503, 0.15104275941848755, -0.0688667893409729, -0.03750641271471977, -0.02709927223622799, -0.13061697781085968, 0.14529426395893097, 0.1896989792585373, -0.19850389659404755, 0.06122594699263573, -0.15809831023216248, -0.1668725162744522, 0.052170686423778534, -0.191593736410141, -0.01611373946070671, 0.11941346526145935, -0.1561477780342102, -0.18017862737178802, -0.12367459386587143, 0.10060613602399826, 0.06815994530916214, 0.12249486893415451, -0.06580054014921188, -0.08445411920547485, -0.03540546074509621, -0.026568472385406494, -0.0007712673395872116, -0.07930134236812592, 0.156930610537529, -0.009778238832950592, 0.023894935846328735, -0.18057529628276825, 0.008834563195705414, 0.05842215195298195, -0.08786939829587936, 0.06922502815723419, -0.03272908553481102, -0.1630314290523529, 0.128661647439003, -0.06808705627918243, -0.11206868290901184, 0.18089210987091064, 0.06002848595380783, -0.17587493360042572, 0.21445684134960175, -0.14488783478736877, 0.007026913110166788, -0.20907366275787354, 0.11866860091686249, 0.15080150961875916, -0.1185975968837738, -0.16043570637702942, 0.0860304906964302, 0.13128627836704254, 0.0676284208893776, -0.198150634765625, 0.1460248827934265, 0.16007837653160095, 0.09758502244949341, 0.1527736932039261, -0.07864683866500854, -0.06478714942932129, -0.0645982027053833, -0.09046978503465652, 0.035759828984737396, -0.21441391110420227, -0.01332738995552063, 0.1568993777036667, -0.18181398510932922, -0.10682352632284164, 0.066237673163414, -0.18179066479206085, 0.058815669268369675, 0.21300160884857178, 0.0767885223031044, -0.039339225739240646, -0.15028700232505798, 0.040980223566293716], [0.18894590437412262, 0.009724993258714676, -0.07096823304891586, -0.031233293935656548, -0.13291354477405548, 0.1767110377550125, -0.20626862347126007, 0.015235749073326588, 0.16024990379810333, -0.15073412656784058, -0.184646338224411, -0.20204372704029083, -0.016270507127046585, 0.051532287150621414, 0.18278880417346954, -0.09977145493030548, 0.09219125658273697, -0.013322615064680576, 0.17075687646865845, -0.07369377464056015, 0.18363024294376373, 0.05424760654568672, 0.09641445428133011, 0.17212793231010437, 0.05253991857171059, -0.007809175178408623, 0.06892194598913193, 0.14624474942684174, 0.08259028196334839, 0.1727934032678604, 0.04610104858875275, 0.06040342152118683, 0.05114493519067764, -0.016297219321131706, -0.08760131150484085, 0.010857258923351765, 0.1393032968044281, 0.020785683766007423, -0.17473627626895905, -0.10697291791439056, -0.020627858117222786, -0.1616273671388626, 0.2058277726173401, -0.0908445194363594, 0.15799874067306519, -0.16128522157669067, -0.09471293538808823, 0.16673284769058228, 0.17806999385356903, 0.164755716919899, 0.0810854509472847, -0.18320506811141968, 0.02668905444443226, -0.11537104099988937, 0.0015580462059006095, 0.012290438637137413, -0.13742659986019135, -0.09893586486577988, 0.031296733766794205, -0.11989790946245193, -0.0054263584315776825, 0.20171785354614258, 0.06365269422531128, 0.04323675483465195, -0.044388893991708755, -0.2009577602148056, -0.14321917295455933, 0.0972781702876091, -0.05932298302650452, 0.13540272414684296, 0.018178323283791542, 0.1825670301914215, -0.08683278411626816, -0.18139168620109558, 0.19676414132118225, -0.07485244423151016, -0.16865646839141846, 0.1820535957813263, 0.09350037574768066, 0.16029752790927887, 0.1435232311487198, -0.0980367660522461, -0.06831683963537216, -0.10768603533506393, 0.07728990167379379, 0.13158109784126282, -0.21065407991409302, 0.2111184448003769, -0.19119593501091003, -0.07664035260677338, 0.2011524736881256, -0.1482088565826416, 0.09118670225143433, 0.10875499248504639, -0.1723613739013672, -0.003215846372768283, -0.02545946091413498, -0.016128605231642723, 0.20346681773662567, -0.11945658922195435, -0.04698680713772774, 0.00881956797093153, 0.189890056848526, -0.20002420246601105, -0.0423584058880806, 0.01758168451488018, -0.04247266426682472, -0.20201368629932404, -0.06762594729661942, -0.13938859105110168, 0.0849774107336998, 0.07782382518053055, 0.17723554372787476, 0.12056712806224823, -0.12727247178554535, -0.043661557137966156, -0.023519407957792282, -0.17526665329933167, 0.17816638946533203, -0.18880315124988556, 0.15478190779685974, -0.06451746821403503, 0.10298768430948257, 0.1099553108215332, 0.10672522336244583, 0.18745434284210205, -0.17410452663898468, 0.16348889470100403], [-0.11594422161579132, -0.08953612297773361, -0.09381300210952759, -0.1042102575302124, -0.18908149003982544, 0.14170123636722565, -0.08025815337896347, 0.030960511416196823, 0.15115956962108612, 0.11636821925640106, -0.0666467547416687, 0.1043754443526268, 0.05673278495669365, 0.15725970268249512, 0.14114682376384735, -0.1335170716047287, 0.05705561116337776, -0.008413015864789486, -0.16980576515197754, 0.021584386005997658, -0.007033159025013447, 0.14579243957996368, 0.18881629407405853, 0.04752545431256294, -0.11543187499046326, -0.20299629867076874, -0.040236830711364746, 0.049408260732889175, -0.18669232726097107, 0.005354014225304127, -0.12460887432098389, -0.1761522889137268, -0.033306680619716644, 0.04827640950679779, 0.11987850069999695, -0.07208186388015747, 0.141950324177742, -0.180910125374794, -0.10377330332994461, -0.09447313845157623, -0.012334727682173252, -0.059924449771642685, -0.14609196782112122, 0.0076230363920331, -0.12807877361774445, 0.1912456750869751, 0.00853359792381525, 0.16661487519741058, -0.035341016948223114, -0.019023509696125984, -0.024142347276210785, -0.11728603392839432, 0.17212919890880585, -0.01618574745953083, 0.01277065183967352, -0.21083146333694458, 0.08569008857011795, -0.049708299338817596, 0.15542900562286377, 0.07609236240386963, 0.12833432853221893, 0.10328029096126556, 0.1224127933382988, 0.0795106291770935, 0.11769134551286697, -0.14603902399539948, 0.04122908040881157, 0.18954001367092133, 0.05830691009759903, -0.21505045890808105, 0.18378902971744537, -0.09840372949838638, -0.08444660902023315, 0.12078023701906204, 0.07435811311006546, 0.1745986044406891, 0.1750209480524063, 0.06810835003852844, 0.11405273526906967, -0.027033638209104538, 0.18311509490013123, 0.1725102961063385, -0.031261786818504333, -0.0023809841368347406, -0.15572577714920044, -0.013562901876866817, -0.03200502693653107, -0.20646794140338898, 0.2106446623802185, -0.03137831762433052, 0.029830388724803925, -0.20343072712421417, -0.1988726556301117, 0.062101252377033234, 0.03581784665584564, -0.1821204125881195, 0.1175788938999176, -0.09200932830572128, 0.059293944388628006, -0.10251906514167786, -0.02655487135052681, -0.17638622224330902, -0.07951705902814865, -0.07779974490404129, 0.14564143121242523, 0.04460267722606659, -0.13365817070007324, -0.1089957132935524, -0.027576928958296776, -0.1505994200706482, -0.1499648094177246, 0.15738527476787567, -0.12216649204492569, -0.06740610301494598, -0.018079085275530815, -0.009132509119808674, -0.05175355076789856, 0.032479818910360336, 0.21155424416065216, 0.11818180233240128, 0.049296945333480835, -0.1370411068201065, 0.10003450512886047, -0.11143510788679123, 0.16445568203926086, -0.17650993168354034, -0.18513035774230957, 0.0828256905078888], [-0.09251222759485245, 0.20261238515377045, -0.180263489484787, -0.0481867715716362, -0.08938851952552795, 0.021921304985880852, 0.03466926887631416, 0.11861597001552582, 0.05916185304522514, -0.0032751825638115406, -0.17823323607444763, -0.15076543390750885, -0.07010433822870255, -0.18374907970428467, -0.16452574729919434, 0.11501370370388031, -0.12472060322761536, 0.055866409093141556, -0.019674917683005333, -0.11973551660776138, 0.19205710291862488, -0.07653427124023438, 0.09861095249652863, -0.17918705940246582, -0.20147410035133362, -0.13020934164524078, -0.06533152610063553, 0.024169782176613808, 0.11081428080797195, -0.021034643054008484, -0.17407529056072235, 0.029555361717939377, 0.20104868710041046, 0.10115291178226471, 0.024251753464341164, 0.16390925645828247, 0.09480994939804077, 0.08785579353570938, -0.1992778182029724, 0.04143994674086571, 0.17532819509506226, -0.0743105486035347, -0.03168173506855965, 0.1598007082939148, -0.005628034472465515, -0.11037544161081314, -0.09398505091667175, 0.11504710465669632, -0.12114900350570679, -0.17737385630607605, -0.013637285679578781, 0.09193634241819382, -0.115667924284935, -0.03763636201620102, 0.0964343249797821, 0.146847665309906, -0.042611829936504364, -0.11639725416898727, -0.18238267302513123, -0.04025053605437279, -0.05040972679853439, -0.021722029894590378, 0.11320541054010391, -0.06446858495473862, 0.07826002687215805, 0.06853645294904709, -0.11748123168945312, 0.11530724167823792, -0.0560215525329113, -0.11047837138175964, -0.19472183287143707, -0.1984979808330536, -0.1721775084733963, 0.0361173152923584, 0.029991542920470238, 0.010702711530029774, -0.10511284321546555, -0.0492708794772625, -0.06844384968280792, -0.19384965300559998, 0.1948494166135788, -0.11078932136297226, 0.008857043460011482, -0.1258016675710678, -0.06992952525615692, -0.15604490041732788, -0.04255731776356697, -0.005094085820019245, 0.048521265387535095, -0.15877653658390045, 0.20942102372646332, -0.1151253804564476, -0.06240513548254967, -0.1472325176000595, -0.2138904184103012, -0.07583501189947128, -0.013915512710809708, 0.17128205299377441, -0.10726528614759445, -0.14413826167583466, 0.15613766014575958, 0.02278205379843712, -0.04004973918199539, -0.12408192455768585, -0.17320050299167633, -0.025032415986061096, 0.14922504127025604, 0.10645143687725067, 0.007882216013967991, 0.008348749950528145, -0.11137355118989944, -0.0015050075016915798, 0.1648293435573578, -0.21466490626335144, 0.13335898518562317, 0.01806907169520855, 0.19074881076812744, -0.08005066961050034, -0.014021099545061588, 0.1272619515657425, -0.12781819701194763, -0.0956677794456482, -0.10850734263658524, 0.14082062244415283, 0.16350944340229034, -0.10336360335350037, 0.09268948435783386, 0.03717321157455444], [0.050802186131477356, -0.1328890025615692, 0.19876068830490112, 0.004736855626106262, 0.11926165223121643, 0.1414644867181778, -0.18164578080177307, -0.016793640330433846, -0.05549010634422302, -0.18421828746795654, -0.02409614808857441, -0.005513078533113003, 0.18806014955043793, -0.032864123582839966, -0.18209004402160645, 0.11015443503856659, 0.170052632689476, -0.10837184637784958, 0.1508042961359024, -0.052189216017723083, 0.15824422240257263, -0.13774323463439941, -0.0962364450097084, -0.13482007384300232, 0.11155424267053604, -0.03693563491106033, -0.10453182458877563, -0.10582245141267776, -0.1999247521162033, 0.1715949922800064, 0.16070689260959625, 0.09016750752925873, 0.06420770287513733, -0.026949292048811913, -0.09501126408576965, -0.19895713031291962, 0.18548329174518585, 0.07745985686779022, -0.0706239566206932, 0.16119776666164398, -0.07767397165298462, 0.15936394035816193, -0.18408408761024475, 0.1472497582435608, -0.040858302265405655, -0.10222534835338593, -0.17981114983558655, 0.05713038146495819, 0.022291027009487152, 0.20884904265403748, -0.031470250338315964, -0.035877104848623276, 0.13233625888824463, 0.059943702071905136, -0.08506862074136734, -0.04390055313706398, 0.04943118244409561, 0.13587446510791779, -0.16281495988368988, 0.09200506657361984, 0.026157764717936516, -0.1102471724152565, 0.18344442546367645, 0.05171806365251541, -0.10137804597616196, -0.028225239366292953, -0.17135189473628998, -0.057857695966959, 0.10377120971679688, -0.1777976006269455, 0.02461381070315838, -0.03846859186887741, 0.09074078500270844, -0.13676796853542328, 0.033031731843948364, 0.04603133723139763, -0.10015629976987839, 0.07161050289869308, -0.025104036554694176, 0.07002817094326019, 0.10419565439224243, 0.15256814658641815, -0.18987861275672913, 0.06693708896636963, 0.1087445616722107, 0.09716708958148956, -0.12018341571092606, 0.1469063013792038, -0.10529018193483353, -0.15656457841396332, -0.16502177715301514, 0.09072907269001007, -0.06924688816070557, 0.19958694279193878, 0.03537296876311302, -0.19536560773849487, -0.09749171882867813, -0.13976959884166718, -0.03928905352950096, -0.0018125027418136597, -0.0683830976486206, 0.01451130025088787, -0.004724492784589529, -0.08932598680257797, 0.16784341633319855, 0.08735846728086472, 0.10797806829214096, -0.07758738100528717, -0.07621505856513977, 0.21192613244056702, 0.1959199607372284, -0.16932973265647888, -0.053573694080114365, -0.062413834035396576, 0.0032202082220464945, -0.07593099772930145, -0.14397689700126648, -0.15376690030097961, 0.20695997774600983, -0.014308101497590542, 0.011366920545697212, -0.12885816395282745, -0.05961264297366142, -0.05577762424945831, -0.07608206570148468, -0.01417562086135149, -0.07307545840740204, -0.15138372778892517], [0.09327665716409683, 0.06778224557638168, 0.14251519739627838, 0.006176539231091738, 0.10097005218267441, 0.0759006217122078, 0.02814662456512451, 0.022875484079122543, 0.10368181020021439, -0.20301496982574463, 0.10925678163766861, 0.04631759226322174, 0.13383977115154266, -0.06193104013800621, 0.15736514329910278, 0.09709551930427551, -0.09547511488199234, -0.19541317224502563, 0.10575875639915466, -0.11915604025125504, 0.16564884781837463, 0.1876017451286316, 0.07899829000234604, 0.018768923357129097, 0.1870710253715515, 0.07140994071960449, -0.13889947533607483, 0.20041202008724213, -0.10524783283472061, -0.06543907523155212, -0.1462329626083374, -0.10629740357398987, 0.09410101175308228, 0.06943018734455109, 0.1797255128622055, 0.2162381112575531, -0.12893427908420563, -0.18558792769908905, -0.1730366051197052, 0.08310851454734802, 0.11613660305738449, -0.1805890053510666, 0.08656823635101318, 0.19595757126808167, -0.21015626192092896, 0.192428857088089, -0.1654025763273239, -0.022797049954533577, 0.030134012922644615, 0.116429902613163, -0.16434533894062042, -0.05134632810950279, -0.11205466836690903, 0.15291456878185272, -0.04930843040347099, -0.11713943630456924, 0.014078164473176003, 0.0029341347981244326, 0.2120865434408188, 0.13074417412281036, 0.0799713060259819, 0.060862962156534195, 0.08125045150518417, 0.2028946429491043, 0.09683798998594284, -0.13634562492370605, -0.13930295407772064, -0.19976706802845, -0.16817986965179443, -0.17932316660881042, 0.0017993140500038862, 0.14004439115524292, 0.027560541406273842, 0.11343251168727875, -0.07800614088773727, -0.1267358511686325, 0.0492059662938118, 0.007690270431339741, -0.15190592408180237, 0.15885445475578308, -0.06689607352018356, 0.11473395675420761, -0.0034758003894239664, -0.0867943987250328, -0.0401301346719265, -0.0473548024892807, 0.04023357853293419, 0.03759821876883507, 0.13996315002441406, -0.1839475780725479, -0.022484857589006424, 0.17868588864803314, 0.09000887721776962, 0.20272383093833923, 0.018413294106721878, -0.09236330538988113, -0.02496231719851494, 0.027905408293008804, -0.19502723217010498, 0.06336308270692825, 0.032750070095062256, 0.05376473814249039, 0.09986495971679688, -0.19056811928749084, -0.11082442849874496, 0.16997823119163513, 0.15509240329265594, 0.1330641359090805, -0.06347517669200897, 0.03345980867743492, -0.09512500464916229, 0.06255900859832764, 0.200520858168602, 0.040081847459077835, 0.02010539546608925, -0.14176155626773834, 0.18724779784679413, 0.21385858952999115, -0.1995823234319687, 0.08947302401065826, 0.19167576730251312, 0.002305672038346529, -0.17085397243499756, 0.016226476058363914, 0.017588987946510315, -0.16592508554458618, 0.10214157402515411, -0.0633024275302887], [-0.10118751972913742, 0.12909674644470215, 0.1949954330921173, 0.09632213413715363, 0.030193787068128586, 0.12929517030715942, -0.0923108384013176, 0.21045026183128357, 0.07107464224100113, -0.12108582258224487, 0.010418212972581387, -0.06923863291740417, 0.08994544297456741, -0.16528432071208954, -0.06492533534765244, -0.12150432169437408, 0.07914359122514725, 0.044496238231658936, 0.17242690920829773, 0.04420056194067001, 0.16879619657993317, 0.1925402730703354, 0.12131846696138382, -0.2125793695449829, -0.14369209110736847, 0.05886891484260559, 0.03615739941596985, 0.08609377592802048, 0.13464443385601044, 0.11001697182655334, -0.1968039721250534, 0.12470124661922455, 0.13215969502925873, 0.014202307909727097, 0.0459919273853302, 0.14666979014873505, -0.17222179472446442, -0.1413850486278534, -0.20451271533966064, -0.11829546838998795, -0.02300966903567314, -0.18777354061603546, -0.20923390984535217, 