{"_version": 2, "_n_features": 25, "fc1.weight": [[-0.09546643495559692, -0.13206250965595245, 0.4471636712551117, -0.10758901387453079, 0.3527148962020874, 0.3276110589504242, 0.2737119197845459, -0.24422059953212738, 0.13133084774017334, 0.28975823521614075, 0.10541968047618866, -0.21112477779388428, 0.3913193345069885, 0.26731300354003906, 0.2164735049009323, 0.30401870608329773, 0.12829595804214478, -0.19836802780628204, -0.012002727016806602, -0.016110502183437347, -0.20039494335651398, 0.3363548219203949, -0.09090109914541245, -0.3602299690246582, -0.15875248610973358], [-0.08801734447479248, 0.5181382298469543, -0.15407530963420868, -0.3012518286705017, 0.3369457423686981, -0.15315860509872437, 0.01583070494234562, 0.22613625228405, -0.3371017575263977, 0.40626275539398193, 0.1663154512643814, 0.05011844262480736, -0.4795319139957428, 0.6110458374023438, 0.41602376103401184, -0.3772217035293579, 0.3048827350139618, 0.3340812921524048, 0.1346554160118103, 0.14972145855426788, -0.37348929047584534, 0.20207488536834717, -0.06083125248551369, -0.16196903586387634, -0.23079799115657806], [-0.19952963292598724, 0.19228455424308777, -0.19676002860069275, -0.19818787276744843, 0.24561354517936707, 0.08652326464653015, 0.3305022120475769, 0.09904900938272476, -0.11085148900747299, 0.02298380620777607, 0.39077919721603394, 0.3462839722633362, 0.36678677797317505, -0.5188923478126526, 0.2900022864341736, -0.4753583073616028, 0.23578345775604248, 0.531921923160553, -0.1719103753566742, 0.33044177293777466, 0.24540802836418152, 0.04129181429743767, -0.044231634587049484, -0.06156241521239281, -0.1288236528635025], [-0.07941065728664398, 0.24865221977233887, -0.3265025317668915, -0.08021176606416702, 0.37684598565101624, -0.30162355303764343, -0.18109840154647827, 0.24892623722553253, -0.0306952316313982, -0.345290869474411, 0.45562490820884705, 0.2844199240207672, -0.3056435286998749, 0.047257114201784134, 0.32122230529785156, -0.166623055934906, -0.26435986161231995, 0.4116098880767822, 0.12095268070697784, -0.13271456956863403, 0.06926020979881287, -0.4244198203086853, 0.15250544250011444, -0.39010149240493774, -0.22615091502666473], [0.034673430025577545, 0.3832968771457672, 0.48748213052749634, 0.2526507079601288, 0.486788809299469, 0.0938432514667511, -0.006311304867267609, -0.17628881335258484, -0.1837170422077179, 0.5425488352775574, 0.29923349618911743, -0.45566287636756897, -0.08445115387439728, -0.11042342334985733, -0.17760366201400757, 0.45483672618865967, 0.137122243642807, 0.10044766962528229, 0.3803297281265259, -0.3207058310508728, 0.33619579672813416, 0.21728944778442383, -0.18823260068893433, 0.4434009790420532, -0.12844572961330414], [0.20640189945697784, 0.30069833993911743, 0.09802984446287155, -0.3217480480670929, 0.4678269922733307, 0.05716530606150627, 0.32766014337539673, 0.37250521779060364, -0.41544654965400696, -0.36842963099479675, -0.22125887870788574, -0.22128891944885254, 0.38342949748039246, 0.26924318075180054, -0.2156180888414383, -0.15715590119361877, -0.35186150670051575, -0.28968074917793274, -0.24766197800636292, -0.2537607252597809, -0.34592822194099426, 0.4053211510181427, 0.31294721364974976, -0.09872313588857651, 0.12517482042312622], [0.08437024801969528, 0.35731104016304016, -0.04992879927158356, -0.04851016774773598, -0.04372011125087738, -0.4620986580848694, -0.19522109627723694, -0.29510387778282166, 0.014431498944759369, 0.35609015822410583, -0.29148057103157043, -0.5482954382896423, 0.0638018548488617, -0.3504663407802582, 0.39207327365875244, 0.469985693693161, 0.3033798635005951, 0.07283877581357956, -0.16774088144302368, 0.11660612374544144, -0.2167244404554367, -0.35648536682128906, -0.23466338217258453, 0.05144192650914192, -0.19020907580852509], [-0.037705197930336, 0.32793256640434265, 0.15173955261707306, -0.3754810690879822, 0.09719648212194443, 0.1510743796825409, -0.15516886115074158, -0.3182908892631531, -0.13925309479236603, -0.33477747440338135, 0.1517632156610489, 0.40893927216529846, -0.354044646024704, 0.3374271094799042, -0.11750089377164841, 0.39585956931114197, 0.4074791371822357, -0.3977215886116028, -0.3289838433265686, 0.35020074248313904, -0.22960329055786133, -0.4123157858848572, -0.012518265284597874, -0.30678078532218933, -0.49742957949638367], [-0.2805117666721344, -0.37780725955963135, 0.17004646360874176, 0.369686096906662, 0.11296267062425613, 0.16282795369625092, -0.12022411078214645, -0.4264203608036041, 0.3386523723602295, -0.20565196871757507, -0.38147708773612976, -0.3110741376876831, -0.10458218306303024, -0.05541751906275749, 0.39034271240234375, 0.12182198464870453, 0.25749289989471436, 0.1330924928188324, 0.14303161203861237, 0.3303340971469879, -0.318380743265152, 0.19550646841526031, 0.06973612308502197, -0.17899389564990997, 0.26597997546195984], [-0.25033438205718994, -0.1757737249135971, 0.20496255159378052, -0.4041304290294647, 0.20315688848495483, -0.3825572729110718, -0.07199735194444656, 0.29565325379371643, -0.11191032081842422, 0.012445076368749142, 0.1643010526895523, -0.3890451490879059, -0.04902951046824455, -0.3265058100223541, -0.2396048903465271, 0.12700623273849487, -0.2526220977306366, 0.2587025463581085, -0.2647458016872406, 0.336539089679718, 0.06324689090251923, 0.14389045536518097, -0.3265380263328552, 0.054181262850761414, 0.14980201423168182], [-0.23555496335029602, -0.41997310519218445, -0.1751435101032257, -0.214487686753273, -0.085340715944767, -0.35842129588127136, -0.3859351575374603, -0.052934929728507996, -0.3673176169395447, -0.23487044870853424, -0.17193061113357544, 0.30729812383651733, 0.1403021514415741, 0.14158429205417633, 0.3417883813381195, -0.18114903569221497, -0.19029349088668823, -0.1883709877729416, -0.038688018918037415, -0.23258796334266663, -0.0947299674153328, -0.14168961346149445, 0.32869529724121094, -0.2118876427412033, 0.3998492956161499], [0.014353934675455093, 0.1070043072104454, -0.22181956470012665, 0.27294763922691345, 0.37087488174438477, -0.12318722158670425, 0.44999831914901733, 0.2527051270008087, 0.11711744219064713, -0.006324875168502331, 0.0018020814750343561, -0.16059450805187225, -0.29570165276527405, 0.03315313160419464, 0.33523228764533997, -0.08085557073354721, -0.27881309390068054, 0.36148950457572937, -0.17582711577415466, 0.28440573811531067, 0.07946190237998962, -0.37220945954322815, 0.03229556977748871, 0.2619081437587738, 0.33418551087379456], [-0.3043670952320099, 0.32842105627059937, 0.39352285861968994, 0.14021342992782593, -0.029779760167002678, 0.2715096175670624, -0.01385089848190546, 0.2527313828468323, -0.30163776874542236, -0.05048394575715065, -0.0845634862780571, 0.22300152480602264, -0.19855356216430664, -0.07000719010829926, -0.4042920172214508, -0.21537823975086212, -0.15989719331264496, 0.21337451040744781, -0.225749209523201, 0.19302433729171753, 0.42137986421585083, 0.038019780069589615, -0.016919855028390884, 0.39644864201545715, -0.06744717806577682], [-0.04773649573326111, -0.2655574679374695, -0.2131299078464508, 0.09119440615177155, -0.23944483697414398, -0.02396772801876068, -0.009917613118886948, 0.1868206113576889, -0.17981097102165222, 0.27324822545051575, -0.25130414962768555, -0.01642352156341076, -0.208439901471138, 0.24218373000621796, -0.5481057167053223, -0.38849779963493347, 0.13816864788532257, 0.24744050204753876, -0.04425610974431038, 0.10724621266126633, 0.25778594613075256, 0.35037922859191895, 0.3840370774269104, 0.3006582260131836, -0.34043365716934204], [0.2411419302225113, -0.19849012792110443, 0.27939292788505554, -0.47958821058273315, -0.21230195462703705, -0.2108011394739151, 0.2581687569618225, -0.35530123114585876, -0.39410966634750366, 0.4839887022972107, -0.0571368932723999, -0.15721434354782104, 0.10544604063034058, 0.40904688835144043, -0.1943439394235611, 0.22573694586753845, -0.3820553421974182, 0.1498793363571167, -0.09064389765262604, -0.3858009874820709, 0.3336517810821533, 0.3892476558685303, -0.24161338806152344, 0.11315153539180756, 0.13690410554409027], [0.1027967631816864, 0.16454371809959412, 0.01798861101269722, 0.3311527967453003, -0.48319169878959656, 0.23718594014644623, 0.4888465702533722, -0.27266767621040344, -0.24369175732135773, -0.33686134219169617, 0.18793781101703644, -0.15030677616596222, -0.20065100491046906, 0.15576086938381195, -0.15724626183509827, 0.11791838705539703, 0.07307545840740204, -0.25774049758911133, -0.39068979024887085, -0.019553279504179955, -0.39089274406433105, 0.027819542214274406, 0.07808661460876465, -0.21565693616867065, 0.23134438693523407], [0.034894295036792755, 0.20937223732471466, 0.14064979553222656, -0.16291670501232147, -0.0875912457704544, -0.28579267859458923, -0.37109166383743286, -0.42393967509269714, -0.23070083558559418, 0.012694247998297215, 0.37194374203681946, 0.29342174530029297, -0.21711573004722595, 0.038445547223091125, 0.34561407566070557, -0.18382257223129272, 0.032603517174720764, 0.3374791741371155, 0.29672813415527344, 0.1463620662689209, 0.27959752082824707, 0.3639386296272278, 0.24992114305496216, 0.23150411248207092, 0.17983762919902802], [-0.08060698956251144, -0.10079483687877655, -0.36974024772644043, 0.006296940613538027, -0.22110693156719208, 0.05591750144958496, -0.1027199774980545, -0.4517596364021301, 0.1838093250989914, 0.3102279305458069, -0.2908605933189392, -0.4622861444950104, -0.11542187631130219, 0.11508288234472275, -0.29399049282073975, -0.382372111082077, 0.41802260279655457, 0.1298684924840927, -0.014636700972914696, 0.4451122581958771, 0.33258071541786194, 0.1684349626302719, -0.15644697844982147, 0.13492049276828766, 0.29490625858306885], [0.10035739094018936, -0.38088172674179077, -0.008233018219470978, 0.44474202394485474, -0.26747795939445496, 0.3593921661376953, 0.2019614577293396, -0.25088798999786377, 0.257801353931427, 0.2230745553970337, -0.4541032016277313, 0.17490211129188538, 0.30444684624671936, 0.374418705701828, 0.31718677282333374, 0.3339088261127472, -0.006257747299969196, 0.13870707154273987, 0.05608450621366501, -0.2330995798110962, 0.2376987487077713, 0.22546735405921936, -0.26424074172973633, -0.1380128264427185, 0.09879888594150543], [0.11143296957015991, 0.3123387396335602, 0.5835703611373901, 0.24799202382564545, -0.2846510410308838, 0.29667842388153076, -0.39883291721343994, -0.4428710341453552, -0.13249965012073517, -0.16175273060798645, 0.19605277478694916, 0.20258614420890808, 0.303120493888855, -0.02976871468126774, 0.08455248922109604, -0.05728725716471672, 0.01210563350468874, 0.1689833253622055, -0.2791833281517029, -0.1677447259426117, -0.04193166270852089, 0.23436492681503296, -0.21995694935321808, -0.21554270386695862, -0.15527085959911346], [-0.10729467123746872, -0.4605306386947632, -0.20332373678684235, 0.39335915446281433, 0.031407810747623444, 0.2315593957901001, -0.11269279569387436, 0.02983495220541954, -0.005724206566810608, 0.3101922273635864, -0.12207339704036713, -0.14416758716106415, -0.3168276250362396, -0.2827833592891693, 0.30822789669036865, 0.2722075283527374, 0.09289732575416565, -0.20524147152900696, 0.14224885404109955, 0.04289731755852699, -0.18472719192504883, 0.5131368041038513, 0.06591510772705078, -0.20934641361236572, 0.22320815920829773], [0.3818134069442749, 0.14516989886760712, 0.18781770765781403, 0.1464105099439621, 0.38720205426216125, -0.04260164126753807, -0.31178414821624756, -0.20222315192222595, -0.14196161925792694, -0.3024193346500397, -0.12762656807899475, -0.17994776368141174, 0.23684926331043243, 0.27940553426742554, -0.008345051668584347, 0.2127676010131836, 0.07422345876693726, 0.09382587671279907, -0.14699694514274597, 0.23545993864536285, -0.20627571642398834, -0.31749626994132996, -0.045585982501506805, -0.014628845266997814, -0.3645600974559784], [-0.04086126387119293, 0.3994123637676239, 0.06067836284637451, 0.4145585894584656, 0.2385241538286209, 0.25305694341659546, -0.2365199327468872, -0.3166525959968567, -0.2440418004989624, -0.09634745121002197, 0.2664576768875122, -0.1514745056629181, -0.18278171122074127, 0.2685990035533905, 0.13157148659229279, -0.051245253533124924, -0.308197021484375, 0.0815620869398117, -0.061388030648231506, -0.41129395365715027, 0.2831825315952301, 0.05471595749258995, -0.38403698801994324, -0.1992235630750656, 0.0755239725112915], [0.2265625298023224, -0.021352646872401237, 0.34955164790153503, -0.35783204436302185, 0.19319726526737213, 0.10681072622537613, -0.31438568234443665, 0.019962869584560394, -0.33218422532081604, -0.11948749423027039, -0.33855608105659485, -0.306551069021225, 0.08537578582763672, -0.2539393901824951, -0.10913302004337311, 0.16176602244377136, 0.043289169669151306, 0.15352419018745422, 0.15482807159423828, -0.02754415012896061, 0.21017876267433167, -0.3583291172981262, 0.47073087096214294, -0.19409354031085968, 0.08110557496547699], [-0.15547706186771393, -0.41022974252700806, -0.48254212737083435, -0.25466930866241455, 0.22873376309871674, 0.3944704532623291, -0.07188864797353745, -0.35594531893730164, 0.27750253677368164, -0.2251884490251541, -0.36501187086105347, 0.4021400809288025, 0.04383193328976631, -0.4835647642612457, -0.31584352254867554, -0.34057193994522095, -0.1535158008337021, 0.0065254708752036095, 0.14825539290905, -0.3214351534843445, 0.34186166524887085, -0.24299931526184082, -0.031302645802497864, 0.2533523142337799, -0.277509868144989], [-0.38378944993019104, 0.1719965934753418, -0.17815499007701874, 0.268783837556839, 0.24977561831474304, 0.39104732871055603, 0.0656566470861435, 0.06799543648958206, 0.1896875947713852, 0.22489111125469208, -0.1346444934606552, 0.46339717507362366, -0.25121161341667175, -0.05528225377202034, 0.5174440145492554, 0.3185522258281708, 0.2676507830619812, -0.18794529139995575, -0.41516685485839844, 0.3909306526184082, 0.35589221119880676, -0.2056587189435959, 0.26293495297431946, 0.17079634964466095, -0.148587167263031], [0.014163844287395477, -0.07449961453676224, -0.15113495290279388, 0.22669829428195953, -0.06232452020049095, -0.02193807065486908, 0.3034297525882721, -0.25618359446525574, 0.14072833955287933, -0.5876979827880859, -0.3369225859642029, -0.3515496551990509, -0.3628634512424469, 0.27366238832473755, -0.3535241484642029, 0.12756182253360748, -0.11761467903852463, 0.03285125643014908, 0.1772758811712265, 0.20909425616264343, -0.04760001227259636, 0.5410817861557007, -0.25124505162239075, 0.056331127882003784, 0.12389235943555832], [-0.17906609177589417, -0.19312432408332825, 0.3465787172317505, -0.2540868818759918, 0.3743157386779785, 0.30967095494270325, -0.27549463510513306, 0.32087740302085876, -0.4024849534034729, -0.14795729517936707, 0.1259855031967163, 0.255641371011734, 0.16022199392318726, -0.08744562417268753, -0.36261576414108276, 0.12185150384902954, 0.40175360441207886, -0.03513290360569954, -0.054164331406354904, -0.22315019369125366, 0.16252394020557404, 0.0350571870803833, -0.1823698729276657, -0.439677894115448, 0.25862395763397217], [-0.18026697635650635, 0.37156784534454346, 0.07236393541097641, 0.14098167419433594, -0.20785674452781677, -0.233769029378891, 0.254070520401001, 0.04848535358905792, -0.07466839998960495, -0.07764136791229248, -0.3937273323535919, 0.42353564500808716, 0.43183624744415283, 0.3424854576587677, 0.019649052992463112, 0.2812667489051819, -0.1450248658657074, 0.38616445660591125, -0.019435320049524307, -0.37849363684654236, -0.1806311309337616, -0.1831764131784439, -0.31654706597328186, 0.2543734014034271, -0.26058462262153625], [0.28239232301712036, -0.3149639070034027, 0.0284039918333292, 0.4396536648273468, -0.1360483169555664, 0.3411904275417328, -0.2589120864868164, -0.17874231934547424, 0.4686816334724426, -0.3403961956501007, 0.008396057412028313, 0.1322740912437439, 0.3304496705532074, 0.323871910572052, -0.021046776324510574, -0.35313287377357483, 0.2948608696460724, -0.26117056608200073, 0.43011125922203064, 0.46549245715141296, 0.21950872242450714, 0.184214785695076, 0.36846598982810974, -0.21414196491241455, 0.2444947212934494], [0.404069721698761, -0.09985196590423584, -0.4799978733062744, -0.15693408250808716, -0.4281664788722992, 0.08718092739582062, 0.359743595123291, 0.24930576980113983, -0.24070122838020325, 0.3958897292613983, 0.15275268256664276, 0.021241161972284317, 0.23316451907157898, -0.1361287534236908, -0.06407042592763901, -0.09056612849235535, 0.2833244800567627, 0.061416469514369965, 0.27397680282592773, 0.1662251055240631, -0.4372789263725281, -0.17507605254650116, 0.1584334820508957, 0.4665186107158661, 0.5349432229995728], [0.09994708001613617, 0.3063170611858368, 0.09979810565710068, 0.4358024299144745, -0.3599373400211334, -0.5336386561393738, -0.2756190598011017, 0.2285839468240738, 0.27319684624671936, 0.2615906298160553, -0.3540865182876587, 0.19403386116027832, -0.19483128190040588, -0.3289744257926941, 0.44693049788475037, -0.4190588593482971, -0.28411030769348145, -0.33826127648353577, -0.29922205209732056, -0.13238854706287384, -0.10825472325086594, 0.3852119743824005, -0.12220442295074463, -0.14237752556800842, 0.08505444973707199], [0.3576970398426056, -0.40801629424095154, -0.23580914735794067, 0.41753655672073364, 0.32548147439956665, -0.003969924058765173, 0.1731652021408081, 0.32878491282463074, 0.48829904198646545, -0.18202409148216248, 0.057140737771987915, 0.027669981122016907, 0.4229227602481842, 0.37160438299179077, 0.39056238532066345, 0.00299073220230639, -0.3113865256309509, 0.0592004731297493, -0.45845484733581543, -0.36114880442619324, 0.2705000936985016, -0.45366716384887695, -0.13615231215953827, -0.16683746874332428, 0.19429630041122437], [-0.15503711998462677, -0.24521225690841675, 0.22457528114318848, 0.17995421588420868, -0.09918821603059769, -0.14801852405071259, 0.2416841983795166, 0.429232120513916, -0.15261141955852509, 0.0201859250664711, 0.38289427757263184, -0.21791750192642212, 0.44167181849479675, -0.21205854415893555, 0.12487685680389404, -0.34989315271377563, 0.19494746625423431, -0.23612576723098755, -0.2227974683046341, -0.21256369352340698, 0.06825233995914459, -0.3979586660861969, 0.38259002566337585, -0.2210332155227661, -0.08111131936311722], [-0.011555318720638752, -0.10682031512260437, 0.2660617530345917, -0.08308535814285278, 0.36417779326438904, 0.02656114287674427, -0.02024308778345585, -0.187644824385643, -0.4517993927001953, 0.2907002568244934, -0.34703803062438965, -0.35801583528518677, -0.3074404001235962, 0.21765963733196259, 0.2896403670310974, -0.17358705401420593, -0.17426569759845734, 0.01941196247935295, -0.13813477754592896, 0.4428981840610504, 0.30084848403930664, 0.2591395080089569, 0.043134525418281555, -0.3582994043827057, 0.2910764813423157], [0.3892807364463806, -0.324430376291275, 0.14925841987133026, -0.0014432695461437106, -0.49175775051116943, -0.2960871458053589, -0.19412696361541748, -0.31473052501678467, 0.3129641115665436, -0.1825748234987259, 0.285980761051178, 0.16948382556438446, -0.4078920781612396, 0.28020530939102173, 0.4901967942714691, -0.3990171551704407, -0.07904309034347534, -0.3197404146194458, -0.13391031324863434, 0.3833862245082855, -0.006151205860078335, 0.09476710110902786, -0.18254834413528442, -0.4170360863208771, 0.39626795053482056], [-0.22661595046520233, -0.039822086691856384, -0.2698994576931, 0.07572383433580399, -0.27342507243156433, 0.24765701591968536, -0.38080355525016785, 0.21569153666496277, -0.35932856798171997, 0.3046150505542755, -0.2738780081272125, -0.5372314453125, -0.1307104527950287, -0.10318346321582794, 0.05053870752453804, -0.3520824909210205, 0.25497183203697205, 0.29772403836250305, 0.44695717096328735, 0.07666143774986267, -0.09462937712669373, -0.2283487617969513, -0.015209437347948551, -0.17279380559921265, -0.16276851296424866], [0.35602977871894836, -0.5073687434196472, 0.4880216419696808, -0.325886607170105, 0.4914732277393341, 0.29581135511398315, -0.08387837558984756, 0.059222493320703506, -0.045085422694683075, 0.39094337821006775, -0.33642318844795227, 0.19106769561767578, -0.32311758399009705, 0.16239765286445618, 0.321514368057251, -0.08108968287706375, -0.030207227915525436, 0.2715332508087158, 0.3185053765773773, -0.3680763840675354, 0.3006514608860016, 0.1357995867729187, 0.041321977972984314, -0.29672151803970337, 0.1611957550048828], [-0.33401232957839966, -0.13267262279987335, -0.2876487076282501, -0.22125792503356934, 0.14899413287639618, -0.1923850178718567, 0.18962925672531128, -0.36724019050598145, 0.07042305916547775, -0.1622462421655655, -0.20187097787857056, -0.17624308168888092, -0.33599624037742615, -0.14750517904758453, -0.3854845464229584, -0.1912483274936676, 0.14356298744678497, 0.3632982075214386, 0.2973352074623108, -0.025366883724927902, -0.07960354536771774, 0.010573873296380043, 0.031155148521065712, -0.11971310526132584, -0.28154194355010986], [0.05238957703113556, -0.1192844808101654, -0.13774432241916656, -0.3677104413509369, 0.17730113863945007, -0.09614855796098709, -0.46344026923179626, 0.06797119975090027, -0.14020904898643494, -0.05273386463522911, 0.31949707865715027, 0.06144825741648674, -0.2302040159702301, -0.26485756039619446, -0.10799557715654373, 0.19740357995033264, -0.21250391006469727, 0.3722442388534546, 0.20975327491760254, 0.12962840497493744, -0.4157261550426483, -0.17471615970134735, -0.034217722713947296, -0.2830868065357208, -0.4246079921722412], [-0.232589989900589, -0.10840112715959549, -0.031386468559503555, 0.02162928692996502, 0.23497384786605835, -0.39479392766952515, 0.1779755800962448, -0.25599417090415955, 0.07155843079090118, 0.03046380914747715, 0.008785417303442955, -0.007622933480888605, 0.223959818482399, 0.02164052240550518, 0.10972538590431213, -0.20778146386146545, 0.2661568224430084, -0.2303006500005722, -0.2539946436882019, -0.03248150646686554, 0.07988634705543518, 0.06159663572907448, 0.38089409470558167, -0.2356683909893036, 0.04131424054503441], [0.5168161988258362, -0.1286974549293518, 0.07909873872995377, -0.32190340757369995, 0.38558441400527954, -0.09879905730485916, 0.29541638493537903, 0.049340568482875824, -0.3034893572330475, -0.1952008306980133, -0.13338115811347961, -0.16101562976837158, -0.4435635507106781, -0.07627461850643158, 0.4596710801124573, -0.038544781506061554, 0.4048783779144287, 0.0337243527173996, -0.39911994338035583, 0.35687845945358276, -0.40076857805252075, 0.39238953590393066, -0.07317427545785904, -0.03735557571053505, -0.2038082629442215], [0.24527236819267273, -0.16127373278141022, -0.30481576919555664, -0.42186176776885986, -0.008265639655292034, -0.08830461651086807, 0.15966551005840302, 0.32485154271125793, 0.2900833189487457, -0.1865684539079666, 0.13565987348556519, -0.29013922810554504, -0.1859072595834732, 0.08563520014286041, -0.07984280586242676, -0.3091049790382385, -0.009581858292222023, -0.10873480141162872, -0.16647395491600037, 0.010387282818555832, -0.071432925760746, 0.12327080219984055, -0.18538227677345276, -0.3073740303516388, 0.04912436753511429], [-0.20160751044750214, 0.4566749930381775, 0.24732942879199982, 0.3073059022426605, -0.2793422043323517, 0.4558830261230469, -0.21896041929721832, -0.186365008354187, 0.3436553180217743, -0.35713163018226624, -0.4828389883041382, -0.19901607930660248, 0.26030004024505615, -0.06649211794137955, -0.34902429580688477, 0.02484038658440113, 0.35777708888053894, 0.27141934633255005, 0.5265102982521057, 0.5121846199035645, -0.15771393477916718, -0.07783324271440506, 0.3939587473869324, -0.35730329155921936, 0.17081668972969055], [0.14113759994506836, 0.11995954811573029, -0.20070834457874298, 0.34610265493392944, 0.07809106260538101, -0.24190808832645416, 0.4176161289215088, 0.3749200105667114, 0.4242512583732605, 0.507584273815155, 0.2653277516365051, -0.284029096364975, 0.19228634238243103, -0.4094051718711853, -0.3741537034511566, 0.4074033796787262, 0.31952252984046936, -0.3849017918109894, 0.2324441373348236, -0.18659226596355438, 0.037772927433252335, -0.14000868797302246, -0.40015003085136414, -0.2493826150894165, -0.06808511167764664], [-0.11408128589391708, 0.4699751138687134, -0.3275775909423828, 0.12013165652751923, 0.27273866534233093, -0.06744303554296494, -0.3189481794834137, -0.08201294392347336, 0.3453754484653473, -0.11470280587673187, -0.2655937373638153, -0.08571407943964005, -0.06190509721636772, 0.35332030057907104, -0.19289252161979675, 0.07542631775140762, 0.03895321488380432, -0.3626643121242523, 0.27042725682258606, 0.10858877748250961, -0.11066699773073196, -0.00012666176189668477, 0.24882987141609192, 0.38187918066978455, -0.274675577878952], [-0.17085465788841248, -0.27441874146461487, 0.2917625904083252, -0.4048788249492645, -0.3240465819835663, -0.051417361944913864, -0.27123984694480896, 0.3946154713630676, 0.19347216188907623, -0.3074827492237091, 0.37748777866363525, 0.27646827697753906, -0.23167863488197327, 0.06745343655347824, 0.34116366505622864, 0.24783042073249817, 0.45728960633277893, -0.474587082862854, 0.36922377347946167, -0.26864829659461975, 0.2046840935945511, 0.05948701500892639, 0.23584391176700592, 0.042355701327323914, -0.11814234405755997], [0.10332043468952179, -0.060025736689567566, -0.25460711121559143, 0.16364789009094238, -0.3403092920780182, -0.1356130689382553, -0.13792411983013153, -0.03277495130896568, -0.40187758207321167, -0.4996809661388397, -0.37624403834342957, 0.11139792948961258, 0.03153333067893982, -0.24313901364803314, 0.21574392914772034, -0.45461633801460266, 0.25390100479125977, -0.08585522323846817, 0.0772748813033104, -0.300230473279953, 0.2593456506729126, 0.3747808337211609, -0.4002295732498169, 0.3942413628101349, 0.2541322708129883], [0.3571232855319977, 0.27570292353630066, -0.2643016576766968, -0.3624279499053955, -0.09558504819869995, 0.1688898205757141, 0.017081065103411674, -0.19776979088783264, -0.4434076249599457, 0.2139027863740921, -0.002215487649664283, -0.04452900588512421, -0.3833135962486267, -0.2596667408943176, -0.20831651985645294, -0.19208163022994995, 0.3972530663013458, 0.016848549246788025, -0.06213948130607605, -0.3535041809082031, -0.429096519947052, 0.20561109483242035, -0.15730662643909454, -0.29254233837127686, -0.3031606376171112], [0.06436531990766525, -0.3073320686817169, -0.35074582695961, 0.47328007221221924, 0.38558459281921387, 0.14770202338695526, -0.22441475093364716, -0.4538133442401886, 0.46207305788993835, -0.31356990337371826, 0.049182042479515076, -0.4064977169036865, -0.40097546577453613, -0.29927727580070496, 0.2546250522136688, -0.18895037472248077, -0.07982568442821503, -0.07733200490474701, -0.017331438139081, -0.2164219617843628, 0.033671945333480835, 0.14629366993904114, -0.1881253719329834, 0.27125754952430725, 0.18798835575580597], [0.03241415694355965, 0.23603130877017975, -0.06547939777374268, -0.2948838770389557, -0.26524004340171814, -0.013982436619699001, 0.2749522030353546, -0.26047345995903015, -0.23960091173648834, 0.2130662351846695, 0.35683107376098633, 0.11808282881975174, 0.30287182331085205, -0.2796485424041748, 0.003271837020292878, 0.019453590735793114, -0.16383323073387146, -0.0666169747710228, 0.21644602715969086, -0.12073157727718353, -0.08331755548715591, -0.29734763503074646, -0.10496341437101364, 0.01071824412792921, 0.34606632590293884], [-0.39304038882255554, 0.20454169809818268, -0.22347696125507355, 0.17170634865760803, 0.3035935163497925, 0.4249637722969055, -0.3034527897834778, 0.06918001919984818, -0.262978196144104, -0.08826645463705063, -0.06030220165848732, -0.19628773629665375, 0.2904391586780548, 0.1593296378850937, 0.29044100642204285, -0.021861350163817406, -0.013959252275526524, -0.14433535933494568, -0.1010318398475647, 0.06273560971021652, 0.32163891196250916, -0.003018063958734274, -0.327367901802063, 0.3439902365207672, 0.18476365506649017], [0.07825873792171478, 0.3015825152397156, -0.07341495901346207, 0.05224640667438507, -0.1072637215256691, -0.01642027124762535, -0.47521162033081055, 0.3155048191547394, 0.07287176698446274, 0.051320429891347885, 0.05993310734629631, -0.12046222388744354, -0.4065172076225281, -0.0850893035531044, 0.2477492243051529, -0.17472320795059204, 0.5388585925102234, -0.44952112436294556, 0.44538360834121704, -0.1554054468870163, -0.041871603578329086, 0.1867196410894394, 0.035577114671468735, 0.14431601762771606, -0.501899778842926], [0.4368439018726349, 0.3986983597278595, -0.29396888613700867, 0.00812767818570137, -0.2721954584121704, 0.07363110035657883, -0.1685541421175003, 0.3709850013256073, -0.12481311708688736, 0.33642494678497314, -0.13207446038722992, 0.26979193091392517, 0.37568435072898865, -0.07796579599380493, 0.5840221643447876, 0.4521663188934326, -0.45589104294776917, -0.4925558269023895, -0.46512940526008606, 0.0010831118561327457, 0.3881163001060486, 0.44059619307518005, 0.36217963695526123, -0.43738478422164917, -0.19934718310832977], [0.5070592164993286, -0.2337212711572647, 0.15557724237442017, 0.070072241127491, -0.018702706322073936, -0.42758744955062866, 0.20466727018356323, 0.16916343569755554, -0.08991832286119461, -0.4074985086917877, 0.2821589708328247, 0.28118062019348145, 0.31303733587265015, -0.24951539933681488, -0.030324000865221024, 0.36417609453201294, -0.39715996384620667, 0.3106346130371094, -0.28360608220100403, -0.15379077196121216, -0.12538392841815948, 0.0747484341263771, 0.08410431444644928, -0.31224945187568665, 0.18241405487060547], [-0.4350169599056244, -0.1866755485534668, -0.21535499393939972, 0.2622314989566803, 0.38412272930145264, 0.41482189297676086, 0.2113151252269745, -0.2305370569229126, 0.12045874446630478, 0.12074363231658936, 0.24989233911037445, 0.32093825936317444, 0.34418603777885437, 0.00999003741890192, 0.048522453755140305, -0.12212329357862473, -0.5429789423942566, -0.2792132794857025, 0.13416580855846405, -0.21270953118801117, 0.08127006888389587, -0.008676815778017044, 0.01615253835916519, 0.4771331250667572, -0.007821687497198582], [0.18268068134784698, -0.07902457565069199, 0.45397457480430603, 0.056504130363464355, 0.4016316831111908, 0.06540948897600174, -0.07611070573329926, -0.358886182308197, 0.24183975160121918, 0.2656683921813965, -0.23869267106056213, 0.09641820937395096, 0.04797086492180824, 0.14339543879032135, 0.33158567547798157, 0.38147515058517456, -0.11715918779373169, -0.07148908823728561, 0.19959676265716553, -0.3068108856678009, -0.21711982786655426, -0.3645789921283722, 0.12091848254203796, -0.27150604128837585, 0.23945240676403046], [0.15623600780963898, -0.15198223292827606, 0.36277535557746887, -0.18257345259189606, -0.1432972401380539, 0.23475180566310883, -0.0056770434603095055, 0.4180232882499695, 0.3226836025714874, -0.39532503485679626, 0.21569491922855377, -0.2229088693857193, -0.2333180159330368, -0.08794169872999191, -0.15975522994995117, -0.025758853182196617, -0.31733426451683044, 0.29488086700439453, -0.3054009675979614, -0.08847188949584961, -0.27436837553977966, -0.23234857618808746, 0.27692103385925293, 0.39245712757110596, 0.44601866602897644], [0.26828375458717346, 0.01807294227182865, -0.37058502435684204, -0.38948357105255127, -0.07061383873224258, -0.3318368196487427, 0.23229902982711792, 0.08438531309366226, 0.07485939562320709, 0.41185057163238525, -0.33210378885269165, 0.3262843191623688, -0.1431536078453064, 0.06512904167175293, 0.08917298913002014, -0.13592928647994995, -0.19529564678668976, 0.2621590793132782, -0.30452436208724976, -0.34065860509872437, 0.18799704313278198, -0.30542856454849243, 0.0629921481013298, 0.26084405183792114, -0.4549190104007721], [-0.38710910081863403, -0.32607901096343994, 0.20699073374271393, -0.440303236246109, -0.1656723916530609, 0.32228678464889526, 0.08497536182403564, -0.29838135838508606, -0.014099188148975372, 0.12149479240179062, -0.29905256628990173, -0.30501800775527954, 0.13142572343349457, 0.31505918502807617, 0.16718998551368713, 0.44715332984924316, 0.05482862517237663, 0.5701369643211365, 0.06566841155290604, 0.2407597303390503, -0.09556536376476288, 0.07740338891744614, 0.018663475289940834, -0.007494822610169649, 0.36862632632255554], [0.04503704607486725, -0.17649602890014648, -0.007527575828135014, 0.4023037254810333, 0.03624924644827843, -0.19918081164360046, -0.21685254573822021, 0.2037677764892578, 0.31417492032051086, -0.10680463910102844, 0.36262109875679016, 0.3677999675273895, 0.11460408568382263, -0.5346193909645081, -0.31954824924468994, 0.2676777243614197, 0.3994623124599457, 0.21337436139583588, -0.30341988801956177, 0.05652507022023201, 0.39395877718925476, -0.15452587604522705, -0.41896724700927734, -0.16251446306705475, 0.19891029596328735], [0.12401510030031204, -0.48375120759010315, 0.013057674281299114, -0.14003382623195648, 0.03146376833319664, -0.4663487672805786, 0.4016767144203186, 0.24928390979766846, 0.3917592763900757, 0.14548180997371674, -0.3848492503166199, 0.2843608558177948, 0.13491860032081604, 0.033036425709724426, -0.00869909767061472, -0.03079894557595253, -0.35001763701438904, -0.3144824206829071, 0.10371608287096024, -0.2110026776790619, 0.06676837056875229, -0.3910139501094818, 0.30278027057647705, 0.38009482622146606, -0.27448901534080505], [-0.11852803826332092, -0.2550184726715088, 0.23296107351779938, 0.10390497744083405, 0.42029255628585815, -0.005895447917282581, 0.2366696149110794, -0.1836562305688858, -0.035353776067495346, 0.01941615901887417, 0.2995735704898834, -0.27073273062705994, -0.06924069672822952, -0.13994300365447998, 0.034320056438446045, -0.25050607323646545, -0.10604685544967651, -0.3472272455692291, 0.08385850489139557, 0.4226529002189636, -0.04903236776590347, 0.23238365352153778, 0.2266833782196045, -0.3837859034538269, -0.30186381936073303], [-0.3042317032814026, -0.3638320565223694, -0.3436630368232727, -0.4377007782459259, -0.18108589947223663, 0.23907384276390076, -0.3851701021194458, -0.026489293202757835, -0.17344032227993011, 0.2913494408130646, -0.16571298241615295, -0.30348628759384155, -0.19602452218532562, 0.39667558670043945, -0.14328588545322418, 0.25410208106040955, -0.12119530886411667, 0.1279287487268448, 0.1438961923122406, -0.008140230551362038, -0.3161262273788452, 0.256844162940979, -0.23672686517238617, 0.40166187286376953, -0.3467891216278076], [-0.2636818587779999, -0.26990291476249695, 0.35504835844039917, 0.36390507221221924, -0.016193022951483727, 0.26408252120018005, -0.09351710975170135, -0.28963184356689453, 0.49720531702041626, 0.10581479221582413, -0.02412189356982708, 0.12959188222885132, 0.336322546005249, 0.23090416193008423, 0.4185146391391754, -0.25775259733200073, 0.46551045775413513, -0.4117151200771332, 0.177969291806221, 0.14682619273662567, 0.44818443059921265, -0.3259158730506897, -0.164165198802948, 0.23480714857578278, -0.012282345443964005], [0.1310541033744812, -0.2583363950252533, -0.3665916621685028, 0.2525058090686798, -0.292232483625412, 0.4195093512535095, -0.4225386083126068, -0.022002417594194412, 0.005581551697105169, -0.11429481208324432, 0.43833550810813904, -0.3329981565475464, 0.1574924886226654, 0.3905324637889862, -0.10156364738941193, -0.2276398092508316, 0.23869796097278595, 0.0005686209187842906, -0.4519328474998474, -0.42745375633239746, -0.5652673840522766, 0.0953867956995964, 0.048886511474847794, -0.2583497166633606, -0.2800717055797577], [0.11170588433742523, -0.3419036567211151, -0.1669185608625412, -0.07787328213453293, 0.07647954672574997, -0.1413690447807312, -0.045663490891456604, -0.031745389103889465, 0.08262645453214645, 0.13104209303855896, 0.373526006937027, -0.23382505774497986, -0.3660224378108978, 0.2803860902786255, 0.1279936581850052, 0.09881255030632019, -0.37779906392097473, -0.23914723098278046, 0.02115492708981037, 0.2603214979171753, 0.13552600145339966, -0.20918980240821838, 0.35197216272354126, -0.37092089653015137, 0.020331092178821564], [-0.025957725942134857, -0.1254020780324936, -0.08301040530204773, 0.29846271872520447, -0.31289687752723694, -0.34132179617881775, 0.3316785991191864, -0.07161661237478256, -0.26394131779670715, -0.3219855725765228, -0.35510891675949097, 0.30673861503601074, 0.1174636259675026, -0.05499740317463875, -0.1096673533320427, 0.052280500531196594, -0.11764374375343323, -0.024164292961359024, -0.006283464375883341, 0.07501336932182312, -0.2976633608341217, -0.09205556660890579, -0.42580899596214294, -0.06418419629335403, -0.40515002608299255], [-0.26882442831993103, -0.24072863161563873, 0.3760611414909363, 0.11873572319746017, -0.07740314304828644, 0.1933458149433136, 0.02195870876312256, -0.01124655269086361, 0.3666665554046631, -0.009612306952476501, 0.030545515939593315, 0.14691844582557678, 0.04884244501590729, -0.16601215302944183, 0.00560404546558857, 0.4948478639125824, 0.376371830701828, 0.1596064418554306, -0.48390886187553406, 0.1818351298570633, 0.1756691336631775, 0.03185712918639183, 0.07753198593854904, 0.035411398857831955, -0.24482829868793488], [0.25213491916656494, 0.09712464362382889, 0.38411059975624084, -0.2219751924276352, 0.21350792050361633, -0.07426723092794418, 0.07234597951173782, 0.33480244874954224, -0.2239520251750946, -0.46411773562431335, 0.1483413577079773, 0.1835138499736786, 0.3169773817062378, 0.008236114867031574, -0.09979485720396042, -0.12567953765392303, 0.15487131476402283, -0.3739476501941681, -0.042409345507621765, 0.102973572909832, 0.38721585273742676, -0.13564880192279816, 0.012100251391530037, 0.5727260708808899, 0.4018487334251404], [0.12053917348384857, 0.25454843044281006, -0.24883291125297546, -0.33080020546913147, 0.11879004538059235, 0.1758529245853424, 0.3607948422431946, 0.3205500543117523, 0.2042747139930725, 0.03243245556950569, -0.10129152983427048, -0.26312747597694397, 0.22767896950244904, 0.1285141408443451, 0.35843363404273987, -0.04238118603825569, 0.04214496538043022, -0.48299098014831543, -0.25111839175224304, -0.04851089417934418, -0.2755681574344635, -0.2651478350162506, -0.29856306314468384, 0.2892376780509949, -0.025084007531404495], [-0.4950256049633026, 0.10722112655639648, 0.3357505202293396, -0.2139512151479721, 0.5083118081092834, 0.18705175817012787, -0.4348377287387848, 0.29622510075569153, -0.29309311509132385, -0.41888338327407837, 0.1285018026828766, -0.5162962675094604, -0.19050082564353943, 0.3900613784790039, -0.22337818145751953, 0.29446685314178467, -0.0923096165060997, -0.013706101104617119, -0.35461631417274475, -0.3267919719219208, 0.252970427274704, 0.21199388802051544, 0.0249563567340374, -0.2127382904291153, 0.16667628288269043], [-0.3482961654663086, -0.36103299260139465, 0.02071581594645977, -0.3976897895336151, 0.06233028694987297, -0.01325780339539051, 0.28713977336883545, 0.14706455171108246, 0.13894875347614288, -0.050198886543512344, 0.06529007852077484, 0.02419399656355381, 0.3501928746700287, 0.0748385414481163, -0.2944389283657074, -0.2321510910987854, -0.44304656982421875, 0.09033656120300293, -0.12201214581727982, 0.09401988983154297, 0.17044132947921753, 0.32775503396987915, -0.28858518600463867, 0.03850148990750313, 0.322316437959671], [-0.4249321520328522, -0.335808664560318, 0.3275686800479889, 0.4311373829841614, -0.32200682163238525, 0.44046807289123535, -0.05616068094968796, -0.1759667843580246, -0.15833315253257751, 0.40086129307746887, 0.3341755270957947, -0.10027212649583817, 0.4239793121814728, 0.3683263063430786, 0.15686282515525818, -0.2315460443496704, 0.32176119089126587, 0.19309133291244507, -0.4443127512931824, 0.12049462646245956, 0.44044092297554016, 0.19009041786193848, -0.03241737186908722, -0.18049940466880798, -0.30105507373809814], [-0.01727886311709881, 0.11514866352081299, -0.15436951816082, 0.22172242403030396, -0.05452827736735344, -0.1779058426618576, 0.3464067876338959, 0.2642269432544708, -0.1803053468465805, 0.06828950345516205, 0.28351882100105286, 0.1397199183702469, -0.23614434897899628, -0.14026311039924622, -0.003085880074650049, -0.40805110335350037, 0.27780333161354065, -0.3989267647266388, -0.30424636602401733, -0.18423417210578918, -0.09433755278587341, -0.42984458804130554, -0.1991572380065918, 0.034168973565101624, 0.27885663509368896], [0.014775999821722507, -0.1929522156715393, -0.10900445282459259, 0.38985177874565125, -0.26429545879364014, -0.39056721329689026, 0.07084672152996063, -0.14496761560440063, -0.021683475002646446, 0.33957889676094055, 0.35232898592948914, -0.4810747802257538, 0.05419357866048813, 0.14069202542304993, -0.10565381497144699, -0.2157987654209137, -0.16707342863082886, -0.25521451234817505, -0.13926450908184052, 0.08582127839326859, -0.43653517961502075, -0.2349788099527359, -0.3041609823703766, -0.4456791877746582, 0.05736703798174858], [0.43236902356147766, 0.022873619571328163, 0.1617913693189621, -0.3232910633087158, -0.372935026884079, -0.34786248207092285, -0.00399005226790905, -0.04633587598800659, 0.2693750560283661, 0.13485564291477203, 0.4707026183605194, -0.4056364595890045, -0.0568745881319046, 0.32312488555908203, 0.24639753997325897, 0.36744463443756104, -0.4033469259738922, -0.4240013659000397, 0.2659376859664917, 0.010331462137401104, 0.4813908338546753, -0.45393049716949463, -0.24643349647521973, 0.2676503360271454, -0.21890217065811157], [-0.13141481578350067, -0.4999232292175293, -0.195367231965065, 0.2690756916999817, 0.42871323227882385, -0.2750081419944763, -0.5305622220039368, 0.5052511096000671, 0.07279565930366516, -0.18453067541122437, -0.19181202352046967, 0.10886488109827042, 0.3703949749469757, 0.20037272572517395, 0.13450059294700623, -0.08924853801727295, -0.04335230216383934, 0.0014353359583765268, 0.12313079833984375, 0.00705899391323328, 0.0011986751342192292, 0.44819343090057373, -0.26802051067352295, 0.16105295717716217, 0.34542423486709595], [-0.16848593950271606, 0.34292107820510864, -0.09410785138607025, -0.10524936020374298, -0.4997365176677704, -0.07191905379295349, -0.06643465161323547, -0.14439311623573303, 0.06994106620550156, 0.060818787664175034, 0.2864021956920624, 0.22358819842338562, -0.16209597885608673, -0.03684542700648308, -0.12634950876235962, -0.14426890015602112, 0.3032989501953125, 0.3216906487941742, -0.3438693881034851, 0.11023447662591934, -0.05972269922494888, 0.11807486414909363, -0.1279400736093521, -0.15160061419010162, 0.10127205401659012], [-0.18626540899276733, -0.1987060010433197, -0.16505803167819977, -0.4215688705444336, 0.12209784984588623, -0.24202971160411835, -0.24722567200660706, -0.1302814930677414, -0.12699741125106812, -0.2978839576244354, -0.2900106608867645, -0.3138120174407959, 0.3904573321342468, 0.28962233662605286, 0.22771663963794708, -0.34125736355781555, -0.14136601984500885, 0.09015704691410065, 0.09322590380907059, 0.31862086057662964, -0.10415493696928024, -0.1801140308380127, 0.3911159932613373, 0.07530790567398071, 0.27101659774780273], [0.2439180165529251, -0.44220614433288574, 0.018745126202702522, 0.03665083274245262, 0.31973445415496826, -0.0543363094329834, -0.1741401106119156, -0.11257517337799072, -0.16978321969509125, 0.3507288694381714, -0.14753630757331848, 0.27095529437065125, 0.37449705600738525, 0.026909787207841873, -0.035732999444007874, 0.3933608829975128, -0.26873621344566345, -0.4636864960193634, 0.4134814739227295, 0.3578343987464905, 0.12258844822645187, 0.06324559450149536, 0.2245904803276062, 0.4191986918449402, -0.14420199394226074], [0.142882838845253, -0.30920180678367615, -0.3679578900337219, -0.006020096130669117, 0.06834646314382553, -0.13137342035770416, -0.1088632345199585, -0.1212250366806984, -0.21503522992134094, -0.06892438977956772, -0.3438425064086914, 0.05989137664437294, 0.3011015057563782, -0.5390315651893616, -0.05776918679475784, 0.389794260263443, -0.4154645502567291, 0.0915801078081131, 0.2945640981197357, 0.110277459025383, -0.37437310814857483, -0.4546697437763214, -0.4222865700721741, -0.030081555247306824, 0.3032599985599518], [-0.15845002233982086, 0.35100165009498596, 0.27668488025665283, 0.10139377415180206, 0.4174509048461914, -0.03893677145242691, 0.04820704460144043, 0.1339537501335144, 0.5183093547821045, -0.33303558826446533, 0.11719316244125366, -0.3862655460834503, 0.19340582191944122, -0.14525608718395233, -0.07775579392910004, 0.07648013532161713, 0.1455235779285431, -0.15059179067611694, 0.5786930918693542, -0.09585768729448318, -0.20745088160037994, -0.15424717962741852, 0.3785457909107208, -0.4478554129600525, -0.06471695005893707], [0.36018243432044983, 0.22603201866149902, 0.3676983416080475, 0.42330676317214966, 0.20260609686374664, 0.560454785823822, 0.1802089959383011, -0.18813157081604004, 0.19169719517230988, 0.37492433190345764, -0.3605438768863678, 0.2952873110771179, -0.05891209840774536, 0.4319135844707489, -0.18924474716186523, -0.3389781415462494, 0.267533540725708, -0.1685653030872345, -0.23482173681259155, -0.16388343274593353, -0.1131361722946167, 0.08055748790502548, -0.2929811179637909, -0.07707410305738449, 0.28167179226875305], [-0.2013842761516571, 0.37393370270729065, -0.29158177971839905, -0.05274990200996399, -0.18969137966632843, -0.3355773985385895, -0.12138412892818451, -0.19402268528938293, -0.3474425673484802, 0.3083319067955017, -0.46295347809791565, 0.36754533648490906, 0.18760837614536285, -0.10048484802246094, -0.2081066370010376, -0.4500317871570587, 0.33770623803138733, -0.3686392307281494, -0.19124485552310944, -0.1130644753575325, 0.1746019721031189, 0.270944744348526, 0.11794096231460571, -0.003212435869500041, -0.4205246567726135], [-0.14059686660766602, 0.26777011156082153, -0.12591016292572021, -0.37584352493286133, -0.20259393751621246, 0.08183012902736664, 0.34765785932540894, -0.30049705505371094, 0.26674705743789673, 0.06952261924743652, 0.39217767119407654, 0.3117651045322418, 0.04395049065351486, -0.30855780839920044, 0.4393065869808197, -0.3386545181274414, 0.08814362436532974, -0.33281001448631287, 0.003320215502753854, 0.1350383758544922, -0.35959458351135254, -0.039738092571496964, -0.24019469320774078, 0.21274583041667938, -0.0881594866514206], [0.48019734025001526, 0.24110464751720428, -0.2894010841846466, 0.14905869960784912, 0.17429427802562714, 0.1035294160246849, 0.4802417755126953, 0.14430581033229828, 0.30459749698638916, -0.18651080131530762, -0.4644416272640228, 0.13631555438041687, 0.3380923271179199, 0.3102303743362427, -0.3706018924713135, -0.3510664999485016, -0.24282678961753845, -0.2959288954734802, 0.36518746614456177, -0.4757956862449646, -0.2073785364627838, 0.346708208322525, -0.11242249608039856, 0.25648972392082214, -0.2964652478694916], [-0.006599179934710264, 0.21322640776634216, -0.25385767221450806, -0.4415157437324524, 0.5122115612030029, -0.4373968541622162, 0.149678036570549, 0.06601092964410782, 0.48794782161712646, -0.24631370604038239, 0.0477803610265255, -0.1632385104894638, -0.012349173426628113, 0.20319798588752747, 0.08376743644475937, 0.08800242841243744, 0.18909382820129395, 0.3794684112071991, -0.09950628876686096, 0.309611439704895, -0.34550103545188904, -0.09188909083604813, -0.10840485244989395, -0.2240477204322815, -0.027085628360509872], [-0.06643842905759811, 0.03863205388188362, 0.118510901927948, 0.3503457307815552, 0.06307405978441238, 0.019866490736603737, -0.3656124770641327, -0.10678787529468536, 0.06598684191703796, 0.2182694971561432, 0.10013162344694138, 0.013128506019711494, -0.11489785462617874, 0.050712648779153824, 0.2145000547170639, -0.03278858959674835, 0.05992073565721512, -0.014106735587120056, 0.3444513976573944, 0.14495395123958588, -0.21936382353305817, -0.05347675085067749, 0.36753058433532715, -0.2825451195240021, -0.16016703844070435], [0.12216118723154068, -0.05786510929465294, -0.3790605664253235, 0.4468607008457184, 0.26845359802246094, 0.1607312113046646, -0.2119508981704712, 0.09460192173719406, 0.22736521065235138, -0.4253549873828888, -0.12409529089927673, -0.26193132996559143, 0.35946837067604065, 0.22939173877239227, -0.4746265709400177, -0.35656166076660156, 0.1627901792526245, -0.15128490328788757, -0.008692636154592037, -0.3265623152256012, -0.3972720205783844, -0.4153069853782654, 0.028834572061896324, -0.15570534765720367, 0.1504065990447998], [0.14949506521224976, 0.29819509387016296, 0.48248857259750366, -0.46320927143096924, -0.007008704822510481, 0.1974533200263977, 0.20619246363639832, -0.14419211447238922, -0.09496816992759705, -0.43438684940338135, -0.1357002556324005, 0.13727311789989471, -0.5636237263679504, 0.24809670448303223, 0.09032004326581955, -0.3913605809211731, 0.3337862491607666, -0.2656764090061188, 0.3907281756401062, -0.48700782656669617, -0.23533767461776733, 0.007004105485975742, 0.29956087470054626, 0.2058703601360321, 0.28096264600753784], [-0.39542078971862793, 0.20679330825805664, 0.3123248815536499, -0.20438212156295776, -0.24066969752311707, -0.18321558833122253, -0.40422573685646057, -0.2959945797920227, 0.0017375284805893898, -0.18738088011741638, 0.5626276731491089, 0.3982844352722168, -0.37021297216415405, 0.40916723012924194, 0.3084092140197754, -0.1608843207359314, -0.0858948677778244, 0.03253292664885521, 0.0435943640768528, 0.06332854926586151, -0.3897743225097656, -0.30291515588760376, -0.13958832621574402, 0.44055572152137756, 0.4863310158252716], [0.17955553531646729, 0.2798275947570801, -0.4799743592739105, 0.1891876608133316, 0.37672239542007446, 0.2737036943435669, -0.39829960465431213, -0.043106868863105774, 0.23011700809001923, 0.2651003301143646, 0.41935813426971436, -0.1161327138543129, -0.03413619473576546, -0.10057835280895233, 0.02257080003619194, -0.1031547263264656, 0.4391998052597046, 0.3729640543460846, -0.09366655349731445, -0.26261329650878906, -0.356219619512558, -0.2896038889884949, 0.0728612020611763, -0.2805734872817993, 0.241612046957016], [0.47046545147895813, 0.35065093636512756, -0.08276589959859848, 0.0862162634730339, -0.2269032746553421, -0.058840423822402954, -0.1686260849237442, -0.2682173550128937, 0.03874378651380539, -0.0003763899439945817, -0.13656824827194214, -0.2092178612947464, 0.08812186121940613, -0.21396754682064056, 0.43422725796699524, 0.0011349264532327652, -0.4159248173236847, 0.3122090697288513, -0.24383260309696198, -0.1331762969493866, -0.3650561571121216, -0.2134825587272644, 0.33689722418785095, 0.27016305923461914, -0.32359015941619873], [-0.44399920105934143, -0.010321671143174171, -0.30826207995414734, -0.15053094923496246, -0.22084656357765198, 0.035582367330789566, 0.2738740146160126, 0.13024066388607025, -0.20953883230686188, -0.24285463988780975, 0.08891565352678299, -0.4004298746585846, 0.3556162714958191, 0.3022282123565674, 0.03288976848125458, -0.11129184812307358, -0.2476399838924408, -0.08461147546768188, 0.07386312633752823, -0.04805213585495949, -0.42645251750946045, -0.0813557580113411, 0.02557378262281418, 0.35747861862182617, -0.3467543423175812], [-0.015334765426814556, -0.4929519593715668, 0.367198646068573, -0.4471732974052429, 0.24432620406150818, 0.053100310266017914, -0.4642728865146637, 0.06055609881877899, 0.364850252866745, 0.15867218375205994, 0.4910690486431122, -0.2326355278491974, 0.005785172339528799, 0.3335762917995453, -0.0554484985768795, -0.38329288363456726, 0.33927085995674133, 0.5612787008285522, -0.2630670368671417, -0.1068825051188469, 0.48474401235580444, -0.12462545931339264, 0.008301381953060627, -0.30321091413497925, 0.2660925090312958], [0.23106077313423157, -0.43021464347839355, -0.44289153814315796, -0.12060485780239105, -0.009416813030838966, 0.03845701366662979, 0.39143720269203186, 0.14299380779266357, 0.26252394914627075, 0.06726133823394775, 0.37127718329429626, -0.42016491293907166, -0.04040300101041794, 0.33865708112716675, -0.17727014422416687, -0.013360735028982162, -0.2912253439426422, 0.3143058717250824, 0.18353401124477386, -0.2597280442714691, -0.09695060551166534, 0.10258843004703522, -0.41098400950431824, -0.3228960335254669, 0.01015133410692215], [-0.3627306818962097, 0.14649130403995514, -0.021815959364175797, -0.31310704350471497, -0.15793275833129883, 0.2814074456691742, -0.26028427481651306, 0.2134017050266266, -0.10012871772050858, 0.1276257336139679, 0.1871994435787201, -0.12429504841566086, 0.44517478346824646, 0.09561979025602341, -0.35490143299102783, -0.18163102865219116, -0.45301806926727295, -0.3185645341873169, -0.3231849670410156, 0.16617517173290253, 0.18488401174545288, 0.07581529021263123, 0.16034984588623047, -0.39494383335113525, 0.3608504831790924], [-0.03239036723971367, 0.06487873196601868, -0.1004960909485817, -0.14206278324127197, -0.15565021336078644, -0.20763491094112396, 0.0914052277803421, -0.01802748069167137, -0.23608261346817017, 0.10512042045593262, 0.30499836802482605, 0.11875417083501816, 0.015339188277721405, 0.4168725907802582, -0.2250300943851471, -0.18233783543109894, 0.18284998834133148, -0.2648591995239258, 0.40984857082366943, 0.10806822031736374, -0.3410266041755676, 0.17561286687850952, -0.33679208159446716, -0.18300141394138336, -0.3650631308555603], [0.35611099004745483, -0.20760267972946167, -0.010647046379745007, 0.22001171112060547, -0.2416762113571167, -0.5503577589988708, -0.2690790295600891, 0.2581492066383362, 0.3852505385875702, 0.31657707691192627, 0.22400735318660736, -0.4278617799282074, -0.25029075145721436, -0.008679612539708614, 0.2703999876976013, -0.3914567232131958, 0.017136305570602417, 0.10771048069000244, 0.1995541751384735, -0.15108057856559753, 0.2909528315067291, 0.0012018679408356547, -0.5644447803497314, -0.28455471992492676, -0.3473775386810303], [0.12392416596412659, -0.2844071686267853, -0.0989808663725853, -0.30074891448020935, 0.3224634528160095, -0.0769321471452713, -0.43769997358322144, 0.38470685482025146, -0.41491228342056274, -0.4337746202945709, -0.2138323336839676, -0.30152013897895813, -0.12042288482189178, 0.06925449520349503, -0.14736151695251465, 0.22389595210552216, 0.06437648087739944, 0.32206061482429504, -0.3378962278366089, 0.14721103012561798, -0.1825442761182785, -0.1768687218427658, 0.4004472494125366, 0.2778070271015167, 0.3969942629337311], [0.018653512001037598, 0.2507159411907196, 0.27584195137023926, 0.40848031640052795, -0.24650228023529053, 0.19761450588703156, 0.19148269295692444, -0.23844170570373535, 0.2872526943683624, -0.28727665543556213, -0.2421138882637024, -0.15177956223487854, 0.23959068953990936, 0.13478030264377594, 0.02161577343940735, 0.021680980920791626, -0.26918211579322815, -0.4610382914543152, -0.31603431701660156, 0.028961140662431717, 0.01879008673131466, -0.10318303853273392, 0.2785583436489105, 0.415374219417572, -0.09939305484294891], [0.4385503828525543, -0.20006142556667328, -0.03299906477332115, -0.17922371625900269, -0.061855800449848175, -0.18122074007987976, 0.15480144321918488, -0.26813989877700806, 0.27504998445510864, 0.3502172529697418, 0.21378996968269348, 0.2429312765598297, -0.3045671582221985, -0.07108300924301147, -0.14422845840454102, -0.136549711227417, -0.3104284107685089, -0.10257460922002792, -0.17305006086826324, -0.38874533772468567, -0.27487608790397644, -0.5660861730575562, -0.04638080671429634, -0.4774322807788849, 0.2932002544403076], [-0.24623146653175354, -0.11450888961553574, -0.15433330833911896, 0.3210628628730774, 0.3894488215446472, -0.224059596657753, -0.17020340263843536, -0.23334383964538574, -0.4700342118740082, 0.1414664387702942, 0.2973218858242035, -0.03263229876756668, -0.42724189162254333, -0.004642612766474485, -0.1981138288974762, -0.16702325642108917, -0.14992032945156097, -0.0716376081109047, -0.18825526535511017, 0.39992088079452515, -0.46505284309387207, -0.3008936047554016, -0.36678916215896606, 0.047874316573143005, -0.018041102215647697], [0.24478945136070251, -0.31731703877449036, 0.10303987562656403, -0.1121869683265686, -0.09674013406038284, 0.21881389617919922, 0.006665645632892847, -0.31005173921585083, -0.3761921525001526, -0.19799482822418213, -0.3706178069114685, -0.04342605546116829, 0.01749074086546898, -0.3945586383342743, 0.238858163356781, 0.40690115094184875, 0.16239383816719055, 0.12371902912855148, 0.444408118724823, 0.11067607253789902, 0.18051066994667053, 0.13334442675113678, -0.09835873544216156, -0.12590068578720093, -0.18725425004959106], [0.2997584939002991, 0.09629001468420029, 0.2878311276435852, -0.291596382856369, -0.24806086719036102, 0.08556533604860306, -0.3152465522289276, -0.04969444498419762, 0.04291607439517975, 0.2661595642566681, 0.009305696934461594, -0.01413817796856165, 0.013352377340197563, -0.02274368889629841, 0.399283766746521, -0.24628108739852905, -0.40969809889793396, -0.03954041376709938, -0.3794309198856354, -0.11276008188724518, 0.1663099080324173, 0.16654855012893677, 0.14934547245502472, 0.3455209732055664, -0.22703757882118225], [0.38757726550102234, -0.2169182002544403, 0.06701630353927612, 0.38880372047424316, -0.3610403835773468, -0.4132678806781769, 0.6030920743942261, -0.1399684101343155, 0.09592079371213913, -0.3224879503250122, 0.37879160046577454, 0.018788913264870644, 0.22509077191352844, -0.17472675442695618, 0.04963316768407822, 0.20690998435020447, -0.5826117396354675, 0.3146304488182068, 0.2711522579193115, 0.008125323802232742, 0.18937323987483978, -0.3642246723175049, -0.439094603061676, -0.24986061453819275, -0.048237357288599014], [-0.08322735875844955, 0.06289975345134735, 0.1976315677165985, -0.09929954260587692, 0.1067957729101181, -0.4074293375015259, -0.07639281451702118, 0.11111215502023697, 0.06239740177989006, -0.1016930565237999, -0.3599621057510376, 0.48119446635246277, -0.4150454103946686, 0.16969481110572815, -0.1435597985982895, 0.31376513838768005, -0.20607535541057587, 0.3880566656589508, -0.22912873327732086, 0.1482739895582199, 0.320645272731781, -0.3711555004119873, 0.24012398719787598, 0.08627071231603622, 0.3314146399497986], [-0.2012123465538025, -0.017585989087820053, 0.34962981939315796, 0.1136149987578392, 0.15979920327663422, 0.061348479241132736, 0.09585118293762207, -0.1851411759853363, -0.1080285981297493, 0.007917012088000774, 0.3912432789802551, 0.07646971195936203, -0.3211551904678345, 0.3615013360977173, 0.3749072253704071, -0.43266186118125916, -0.3460239768028259, 0.29434430599212646, 0.3218814432621002, -0.35798901319503784, -0.0012734514893963933, -0.36051201820373535, -0.17002001404762268, -0.1808672547340393, -0.169932022690773], [0.08618175983428955, -0.3654150664806366, 0.1775476038455963, -0.03776557743549347, 0.5041426420211792, -0.2476525604724884, 0.020998425781726837, 0.14730295538902283, -0.3692794740200043, 0.25673002004623413, -0.34052154421806335, 0.46533745527267456, 0.25305789709091187, 0.11949408054351807, -0.2730970084667206, -0.19989874958992004, 0.03653958812355995, -0.4276711046695709, -0.2283545285463333, 0.22781223058700562, -0.24614623188972473, 0.508987545967102, 0.26796162128448486, 0.08095297962427139, 0.315434068441391], [-0.276687890291214, -0.22815459966659546, 0.31283265352249146, -0.4472041428089142, -0.30480092763900757, -0.20477980375289917, 0.27473315596580505, 0.13501988351345062, -0.1485929638147354, -0.3016231954097748, 0.37480518221855164, 0.15484869480133057, 0.18468111753463745, 0.037000205367803574, 0.19288064539432526, -0.4326234459877014, 0.31656771898269653, -0.04124026000499725, 0.2657811641693115, 0.01725274883210659, -0.09546149522066116, 0.14080043137073517, -0.2694130837917328, -0.3038274943828583, -0.3408243656158447], [-0.0021647762041538954, 0.049267251044511795, -0.1963605433702469, -0.1806335747241974, 0.321083664894104, -0.2050337940454483, -0.23409134149551392, -0.2713063657283783, 0.44473138451576233, -0.1462695449590683, 0.0026324826758354902, -0.4371025562286377, 0.007694900967180729, -0.2363595813512802, 0.2563292384147644, -0.1365615576505661, 0.3932496905326843, 0.15425387024879456, 0.32440075278282166, -0.3829326331615448, -0.15683117508888245, -0.39874640107154846, 0.21964702010154724, 0.04646080732345581, 0.25577518343925476], [-0.09137259423732758, 0.013981034979224205, 0.34164848923683167, -0.36967799067497253, 0.13277983665466309, 0.26047343015670776, -0.19753475487232208, 0.1642705798149109, -0.37561675906181335, 0.047711484134197235, -0.028618229553103447, -0.38759398460388184, -0.19454658031463623, -0.21490733325481415, -0.4466158151626587, 0.08591076731681824, 0.16436010599136353, -0.3674453794956207, -0.35837388038635254, -0.24958662688732147, 0.1634756326675415, -0.09231612831354141, 0.3586829602718353, -0.27876579761505127, 0.4169238805770874], [-0.3359009921550751, 0.04310673475265503, 0.11634650826454163, 0.14275823533535004, -0.12426207214593887, 0.23388130962848663, -0.1380929797887802, -0.44983744621276855, -0.06707817316055298, 0.2881728410720825, -0.12756602466106415, 0.2240188866853714, -0.24274775385856628, 0.19148609042167664, -0.026966646313667297, -0.2317761480808258, 0.21788018941879272, -0.24113008379936218, -0.026674022898077965, -0.20114193856716156, 0.1853352040052414, 0.3819837272167206, 0.40125057101249695, 0.021366141736507416, 0.23923496901988983], [0.05987526848912239, -0.40356355905532837, 0.49966102838516235, -0.2521207332611084, 0.15769949555397034, -0.22233693301677704, -0.4581456184387207, 0.3835084140300751, 0.21576599776744843, 0.1088532954454422, 0.01410840917378664, 0.22772718966007233, 0.20803290605545044, 0.04208703711628914, 0.14286082983016968, -0.3058249056339264, -0.3262476623058319, 0.15243828296661377, -0.03724325820803642, 0.13682283461093903, -0.1881573349237442, -0.3634340763092041, -0.1959884613752365, 0.31647080183029175, 0.04070837423205376], [-0.21381953358650208, -0.3409666419029236, 0.22270703315734863, -0.36759525537490845, -0.0306128840893507, -0.01832747831940651, 0.25800907611846924, 0.24519643187522888, 0.25589898228645325, -0.3289971947669983, -0.2242906391620636, 0.34390899538993835, 0.4660693407058716, 0.04421404376626015, 0.01949954219162464, 0.34517902135849, 0.4537229537963867, -0.2303771823644638, -0.02401919849216938, 0.29098474979400635, 0.005431247875094414, -0.46191078424453735, 0.13845643401145935, -0.35772719979286194, -0.31413534283638], [-0.049239467829465866, 0.3446427285671234, 0.11321811378002167, 0.28794050216674805, 0.32975566387176514, 0.31007301807403564, -0.3280271887779236, -0.04148310795426369, 0.3089798092842102, 0.10014064610004425, -0.05643134564161301, 0.03437815234065056, 0.11032269150018692, 0.2727607190608978, 0.1758916676044464, -0.18651147186756134, 0.5047286748886108, -0.1497194617986679, -0.102292999625206, 0.17356738448143005, -0.20995205640792847, 0.13042111694812775, -0.1577998399734497, 0.19351942837238312, 0.221979022026062], [-0.397823691368103, -0.47803157567977905, -0.15055154263973236, 0.40139254927635193, 0.45655158162117004, 0.05418330803513527, -0.14871375262737274, 0.023083539679646492, -0.06632594019174576, -0.20007438957691193, -0.23901906609535217, 0.27944839000701904, -0.32173219323158264, 0.3730955421924591, 0.04201420396566391, 0.23211514949798584, 0.2806752324104309, -0.35484084486961365, -0.10282417386770248, -0.38816332817077637, -0.2889021337032318, -0.22476252913475037, 0.36356011033058167, -0.13820424675941467, 0.32536250352859497], [0.25923842191696167, -0.07001365721225739, 0.343962699174881, 0.2761051058769226, 0.16349531710147858, -0.17244184017181396, 0.2801576256752014, -0.13159357011318207, 0.43863821029663086, 0.08659615367650986, -0.05138959363102913, 0.40830689668655396, 0.3897613286972046, 0.08427544683218002, 0.1300366371870041, -0.05080422759056091, 0.43692004680633545, 0.2954391539096832, 0.039330288767814636, -0.20714335143566132, -0.3022390305995941, 0.08750941604375839, -0.2543625831604004, -0.07154172658920288, 0.27255889773368835], [-0.2725795805454254, 0.20498712360858917, -0.1854720115661621, 0.447086900472641, -0.24234633147716522, -0.32904836535453796, -0.12947744131088257, -0.37751513719558716, 0.11269712448120117, -0.14901407063007355, -0.2506275475025177, 0.08813787251710892, -0.1683862954378128, 0.12729401886463165, -0.5222864151000977, 0.5824311971664429, -0.08612465858459473, -0.3029592037200928, 0.3027068078517914, -0.15543057024478912, 0.3096306324005127, -0.11585959792137146, 0.36196041107177734, 0.214023157954216, -0.32630443572998047], [-0.030526455491781235, 0.3185619115829468, 0.31219175457954407, 0.2896350920200348, -0.1885419487953186, 0.04192804545164108, 0.058602381497621536, 0.32694011926651, -0.03137701377272606, 0.20302407443523407, -0.27559295296669006, -0.056683387607336044, 0.10212341696023941, -0.4091798663139343, 0.19420839846134186, 0.12318522483110428, -0.30810463428497314, 0.07982807606458664, 0.4293600022792816, -0.18226493895053864, -0.2808816432952881, -0.07585125416517258, 0.15799468755722046, 0.4512639045715332, -0.32727083563804626], [0.2661042809486389, 0.3966574966907501, 0.22830623388290405, -0.39535805583000183, -0.2726854681968689, 0.296663373708725, 0.08841824531555176, -0.30735278129577637, 0.02027726173400879, -0.1360267698764801, 0.24702796339988708, 0.4186302125453949, 0.07833756506443024, 0.02978142537176609, 0.270676851272583, 0.4197474420070648, -0.12298768758773804, -0.28385603427886963, -0.47650671005249023, -0.4099116921424866, -0.30385851860046387, 0.2910458445549011, 0.1932067573070526, 0.13020825386047363, 0.17093238234519958], [0.3586643636226654, -0.3336420953273773, 0.1686757504940033, -0.4315803349018097, -0.1918666660785675, -0.10389669239521027, 0.2670953571796417, -0.10333655029535294, 0.2738206088542938, 0.09889733791351318, 0.20720835030078888, 0.22685667872428894, 0.013626910746097565, 0.20294873416423798, -0.004790160804986954, -0.15099811553955078, -0.4163045287132263, 0.39896702766418457, -0.03548380732536316, 0.024757524952292442, 0.44681793451309204, 0.149715855717659, 0.30098676681518555, 0.23663142323493958, -0.26898616552352905], [-0.424026221036911, 0.2324741631746292, 0.26167088747024536, 0.3363496661186218, 0.3122093379497528, -0.03628798946738243, 0.26597052812576294, 0.233785480260849, 0.2180861085653305, 0.10388153791427612, 0.3658279478549957, -0.010671630501747131, -0.14484408497810364, -0.2460276484489441, -0.12677043676376343, 0.29061490297317505, -0.2731672525405884, -0.2674129903316498, 0.34438231587409973, 0.3132033348083496, -0.16369405388832092, -0.19455783069133759, -0.351209819316864, 0.21906940639019012, 0.30085131525993347], [0.24053709208965302, 0.16718854010105133, 0.12539024651050568, -0.32798588275909424, -0.08774056285619736, -0.4166658818721771, 0.44571661949157715, 0.3985336422920227, 0.008606735616922379, -0.18728777766227722, 0.11992673575878143, 0.04988279938697815, 0.3440885543823242, 0.28845125436782837, -0.15149331092834473, 0.28754812479019165, -0.08558080345392227, -0.34242188930511475, 0.062111664563417435, 0.09937624633312225, -0.10353126376867294, -0.3170340657234192, 0.5213989615440369, -0.16714194416999817, -0.04288224130868912], [0.21556687355041504, -0.32302185893058777, -0.2641415596008301, 0.29850003123283386, -0.17320764064788818, -0.1397506296634674, 0.12427471578121185, 0.0753757432103157, 0.36510133743286133, 0.1055743396282196, 0.21938900649547577, 0.06618712842464447, -0.300517201423645, -0.3256312906742096, 0.27678176760673523, 0.36069220304489136, 0.4225747585296631, 0.20998983085155487, -0.3805483877658844, -0.3522563576698303, 0.1938391774892807, 0.14911538362503052, 0.2987379729747772, -0.16944582760334015, -0.2578912377357483], [-0.11041299253702164, 0.23836499452590942, -0.19571685791015625, -0.16626635193824768, -0.29827940464019775, 0.003297185990959406, 0.07022398710250854, 0.48454558849334717, 0.4357263147830963, -0.10279155522584915, -0.34992098808288574, -0.06659383326768875, -0.291343092918396, 0.05702574923634529, 0.35388919711112976, 0.5641191005706787, 0.23090335726737976, 0.06539522111415863, 0.22551357746124268, 0.45964667201042175, 0.05779595300555229, 0.05308414623141289, 0.4446118474006653, -0.3595481216907501, 0.056454382836818695], [-0.2012140303850174, 0.28361019492149353, 0.4446069896221161, 0.296095609664917, 0.24429215490818024, -0.16155487298965454, -0.16996154189109802, -0.08605378866195679, 0.3497184216976166, -0.10728360712528229, -0.023025454953312874, -0.020683521404862404, -0.3418295085430145, 0.3210277855396271, -0.48960962891578674, -0.205653116106987, -0.41104772686958313, 0.28336408734321594, -0.11931975930929184, 0.026635117828845978, -0.37690508365631104, -0.2424614429473877, 0.22094932198524475, -0.3375104069709778, 0.255837082862854]], "fc1.bias": [-0.03245478868484497, 0.00479564443230629, 0.12381894886493683, -0.03605825453996658, 0.20417271554470062, -0.005728676915168762, -0.005097100045531988, 0.0011877288343384862, -0.10085765272378922, -0.0826144590973854, 0.054623376578092575, 0.07635058462619781, 0.01249456312507391, 0.10772191733121872, 0.05356556922197342, 0.07300137728452682, -0.052445750683546066, 0.012587268836796284, -0.12077125906944275, 0.047510478645563126, 0.11235752701759338, -0.08280984312295914, 0.015341401100158691, -0.04757361486554146, 0.08190325647592545, -0.015130952000617981, 0.08504358679056168, -0.02331695519387722, 0.056646719574928284, -0.10801137238740921, 0.0423993319272995, 0.11345536261796951, -0.07744292169809341, -0.090465247631073, -0.10827701538801193, -0.0875890702009201, 0.007050720974802971, -0.15910789370536804, -0.1403455287218094, -0.1552056521177292, -0.2708132863044739, 0.016381194815039635, -0.07158251106739044, 0.01846119947731495, 0.1037822738289833, -0.060277003794908524, -0.018338514491915703, -0.010419794358313084, 0.009170975536108017, 0.08211638778448105, -0.14423295855522156, 0.040582288056612015, -0.11108505725860596, 0.0733402818441391, 0.11811160296201706, -0.06393580138683319, -0.10883618891239166, 0.0075754825957119465, -0.009576990269124508, 0.1198076382279396, 0.09169167280197144, -0.18464554846286774, 0.020955590531229973, -0.0483645461499691, 0.0035236473195254803, 0.05772203952074051, -0.04661723971366882, -0.0415344201028347, 0.09273148328065872, 0.014726245775818825, -0.1465681940317154, 0.11304571479558945, -0.15149393677711487, -0.04157140478491783, -0.09207165986299515, -0.2561722695827484, 0.1405140608549118, 0.12428148090839386, -0.030664529651403427, -0.21381253004074097, -0.03901434317231178, 0.015765758231282234, -0.007097311783581972, -0.025744106620550156, -0.0349065400660038, -0.10958798974752426, 0.16990165412425995, -0.006386164575815201, -0.2329443395137787, -0.04747195914387703, 0.06450597941875458, 0.0591546855866909, 0.017285576090216637, 0.019598042592406273, 0.0876377671957016, 0.09020102024078369, -0.022952880710363388, -0.034433186054229736, -0.1719759851694107, 0.08933469653129578, -0.138159841299057, -0.250249981880188, 0.09953252971172333, 0.004647939000278711, -0.005784287583082914, -0.15878278017044067, 0.029955608770251274, -0.09300056844949722, -0.023473156616091728, 0.04904286190867424, -0.06142575666308403, -0.08352101594209671, 0.08917573094367981, -0.21142902970314026, -0.07767506688833237, -0.13024075329303741, -0.023569416254758835, -0.04375389963388443, 0.053685978055000305, 0.015759995207190514, 0.0867893248796463, -0.03925272077322006, 0.0594639852643013, -0.15970133244991302, -0.13081642985343933, -0.166267529129982, 0.05303091183304787, 0.0521109513938427], "fc2.weight": [[0.10520566999912262, 0.029217394068837166, -0.1606234908103943, -0.17374779284000397, -0.09307347983121872, -0.20004688203334808, 0.04877103865146637, -0.10407976806163788, 0.07603134214878082, 0.09773830324411392, -0.11455290764570236, -0.1521831452846527, -0.2545379400253296, 0.09648846834897995, -0.07520763576030731, -0.15388046205043793, 0.14384856820106506, -0.00040820904541760683, -0.25856539607048035, 0.09276213496923447, -0.2918439507484436, 0.07562127709388733, -0.12677879631519318, -0.07318489998579025, 0.08127916604280472, 0.09557786583900452, -0.09915358573198318, 0.10463034361600876, 0.12955008447170258, -0.0025147453416138887, -0.018205365166068077, -0.20667995512485504, -0.11892034113407135, -0.2774466574192047, 0.07039657235145569, -0.2593495845794678, -0.02757101133465767, -0.06202755495905876, -0.009060824289917946, -0.13625545799732208, -0.08418342471122742, -0.0293731652200222, -0.05172499641776085, -0.07807853817939758, -0.06674812734127045, -0.033703289926052094, -0.23337595164775848, -0.26327839493751526, 0.134959876537323, 0.00471682520583272, 0.052538152784109116, 0.1051732748746872, -0.023769954219460487, -0.23446646332740784, -0.15105152130126953, -0.208613321185112, 0.08968377858400345, 0.00470228074118495, -0.1376853585243225, -0.263634592294693, -0.12279916554689407, -0.2685706317424774, -0.05676477402448654, -0.14172938466072083, -0.23718351125717163, -0.0600973479449749, -0.14426784217357635, 0.0007071552681736648, 0.13682594895362854, 0.12813593447208405, -0.07594399154186249, 0.023287458345294, 0.01961238496005535, -0.22911733388900757, -0.06891761720180511, 0.11754828691482544, 0.13295750319957733, -0.2578808069229126, -0.1932564526796341, 0.06066404655575752, -0.06806779652833939, 0.021926086395978928, 0.12056717276573181, 0.09850649535655975, -0.2783189117908478, -0.016694849357008934, -0.24618525803089142, -0.07952295243740082, -0.17414894700050354, 0.038084354251623154, -0.021687233820557594, 0.1348782181739807, -0.09451413154602051, -0.13290849328041077, -0.1489599198102951, 0.0690389946103096, 0.06735473871231079, -0.09334607422351837, -0.01310598012059927, 0.1076616421341896, 0.10117820650339127, -0.2767448127269745, -0.17807157337665558, 0.05533437058329582, 0.015164544805884361, -0.13621194660663605, -0.24875153601169586, -0.2090209275484085, -0.09915226697921753, 0.008287603966891766, -0.06171279028058052, -0.2279512733221054, -0.13539771735668182, -0.14868716895580292, 0.02031165175139904, -0.12545624375343323, -0.1978127360343933, -0.2086857557296753, 0.0927986279129982, -0.17227508127689362, 0.034241314977407455, -0.1330181211233139, -0.27753177285194397, -0.05992129072546959, -0.06631176918745041, 0.03061199188232422, -0.05650116130709648, -0.26323485374450684], [-0.20075036585330963, -0.11093838512897491, -0.1072453111410141, 0.09878423064947128, -0.27147433161735535, -0.20235201716423035, -0.20063267648220062, 0.04673848673701286, 0.001216743839904666, 0.13132645189762115, -0.20618440210819244, -0.06887630373239517, -0.08583526313304901, -0.08821168541908264, -0.017431145533919334, 0.11269810795783997, -0.17791861295700073, -0.19537603855133057, 0.08743070065975189, -0.2358962893486023, -0.18945671617984772, 0.13269729912281036, -0.014740342274308205, -0.23198653757572174, 0.14315718412399292, -0.181173637509346, 0.06642034649848938, 0.10966302454471588, 0.011778208427131176, 0.031242873519659042, 0.0037231429014354944, 0.14470067620277405, 0.07043957710266113, 0.04287120699882507, -0.19140949845314026, 0.15310563147068024, -0.07883904874324799, -0.03029193915426731, 0.000436632166383788, 0.008705451153218746, 0.09591641277074814, -0.0952448919415474, -0.14418885111808777, -0.20946404337882996, -0.08769909292459488, -0.06732172518968582, 0.04146237671375275, 0.11905909329652786, -0.21921643614768982, 0.1321287602186203, -0.22626256942749023, -0.011943594552576542, 0.05650351569056511, -0.272123247385025, 0.07536938041448593, -0.06285735219717026, 0.05158413201570511, 0.1228117048740387, -0.015891464427113533, -0.17737682163715363, -0.1403013914823532, -0.23740974068641663, -0.15751808881759644, -0.08995508402585983, 0.188734233379364, -0.18165989220142365, -0.19770759344100952, 0.11327334493398666, -0.2083972543478012, -0.23607130348682404, -0.20605207979679108, -0.12808766961097717, -0.08418282121419907, -0.18216444551944733, 0.035429392009973526, 0.03760024905204773, 0.09364299476146698, -0.10214187204837799, -0.18835881352424622, 0.07627290487289429, -0.21674469113349915, 0.17397697269916534, -0.17672879993915558, -0.12072437256574631, 0.007222022861242294, 0.14061187207698822, -0.22553183138370514, -0.024323968216776848, -0.16185171902179718, 0.01056600734591484, -0.20329149067401886, -0.08677525073289871, 0.0902942568063736, 0.05652489885687828, -0.10098502784967422, -0.12490947544574738, 0.02587198279798031, -0.13114556670188904, -0.19751738011837006, -0.19980746507644653, 0.11758875846862793, -0.30225950479507446, -0.2797356843948364, 0.035991568118333817, 0.0563078373670578, 0.10005298256874084, -0.19694767892360687, -0.04119802266359329, 0.11596845835447311, -0.15138913691043854, -0.007182233035564423, -0.10002582520246506, -0.19303762912750244, 0.1753542125225067, 0.09203150868415833, 0.03610192984342575, -0.1229194775223732, 0.1307307928800583, -0.2117815762758255, -0.26503509283065796, -0.2317790687084198, -0.2671119272708893, 0.12040361762046814, 0.07001885026693344, -0.23866356909275055, -0.2301841378211975, -0.19289298355579376, 0.099439337849617], [-0.022590111941099167, -0.09403236210346222, -0.0009380960837006569, -0.08880744129419327, -0.008052118122577667, -0.10449642688035965, 0.049805812537670135, -0.22689910233020782, -0.08631453663110733, -0.023256473243236542, -0.12630806863307953, 0.13140299916267395, 0.06236036866903305, -0.05695166438817978, -0.10470058023929596, -0.010820845142006874, 0.0800718367099762, -0.02739717625081539, 0.016729867085814476, -0.12901197373867035, -0.09340864419937134, -0.1011967882514, 0.14272290468215942, -0.04358898475766182, 0.04645548015832901, 0.016782639548182487, -0.20469194650650024, -0.14119328558444977, 0.023752205073833466, -0.00650373799726367, -0.155548557639122, -0.1029626801609993, 0.09293345361948013, 0.013190996833145618, -0.08300218731164932, 0.09855916351079941, -0.17192944884300232, -0.029528232291340828, 0.037338096648454666, -0.04280362278223038, 0.12395920604467392, -0.043868545442819595, 0.021774878725409508, 0.1366077959537506, 0.1215691789984703, 0.08045640587806702, 0.030444324016571045, 0.0752895399928093, 0.06832034140825272, -0.16994920372962952, 0.04131437465548515, -0.06229814514517784, -0.042403630912303925, -0.2013448178768158, -0.1059088334441185, 0.11902254074811935, 0.044872719794511795, -0.20511551201343536, 0.08049154281616211, -0.09463128447532654, 0.0534759983420372, -0.09663012623786926, -0.20451393723487854, 0.12884850800037384, -0.20785614848136902, 0.03607288375496864, 0.04909108579158783, -0.04402090236544609, -0.20486079156398773, -0.08335256576538086, 0.09057941287755966, -0.06992925703525543, -0.04086754843592644, -0.02417244017124176, 0.045411527156829834, -0.061430394649505615, 0.02476971596479416, -0.26152750849723816, 0.08715271949768066, 0.02880677953362465, 0.15931148827075958, 0.061558496206998825, -0.012134278193116188, -0.2538580894470215, -0.03506539762020111, 0.10894964635372162, -0.1619737595319748, 0.000917683879379183, -0.1544008105993271, -0.008183065801858902, 0.014047262258827686, -0.06012606620788574, -0.22112376987934113, 0.0621679462492466, -0.1068769246339798, -0.12271905690431595, -0.09248403459787369, -0.009002947248518467, 0.1517271101474762, 0.12481099367141724, 0.06599733233451843, -0.1774880588054657, -0.2040286511182785, -0.00720882648602128, 0.06479642540216446, 0.045180823653936386, -0.07136822491884232, -0.03764411807060242, -0.17575348913669586, -0.18483339250087738, -0.07486194372177124, 0.056245118379592896, -0.08910071104764938, -0.17597411572933197, 0.12822793424129486, 0.014261806383728981, -0.2167782336473465, -0.09906899929046631, -0.14373381435871124, -0.21834486722946167, -0.0319998636841774, 0.109523244202137, -0.06783521175384521, -0.14516042172908783, 0.011250600218772888, -0.1021076887845993, -0.06254231929779053, 0.10505768656730652], [-0.17455199360847473, 0.09930389374494553, -0.04971953108906746, -0.1667855679988861, -0.08423244208097458, 0.11861169338226318, -0.20397856831550598, 0.05889817327260971, -0.2221096009016037, 0.1529373675584793, -0.09652932733297348, 0.12128759175539017, -0.0971117615699768, -0.04032750427722931, 0.038568537682294846, 0.08201289176940918, -0.09251277148723602, -0.09553155303001404, -0.25653526186943054, -0.2755863070487976, -0.14991579949855804, -0.01403714157640934, -0.20957335829734802, -0.15933290123939514, -0.18340960144996643, 0.1314399242401123, -0.0320495180785656, -0.29794347286224365, 0.07912208884954453, -0.1790582537651062, 0.11765771359205246, -0.07729726284742355, -0.046035006642341614, -0.021937042474746704, 0.08944933861494064, -0.004613186232745647, -0.12627525627613068, 0.07617150247097015, -0.2610294222831726, -0.14554956555366516, 0.0490369088947773, -0.22542764246463776, -0.17824305593967438, 0.1029147058725357, -0.15301616489887238, 0.03996826335787773, -0.22947625815868378, -0.12814708054065704, -0.17296727001667023, -0.21594759821891785, 0.13978353142738342, -0.21234121918678284, 0.04015640914440155, -0.0007850349647924304, 0.006622985005378723, 0.10195988416671753, 0.15061001479625702, 0.05621727555990219, 0.10190142691135406, -0.05520617961883545, -0.20589861273765564, 0.12111785262823105, -0.24694788455963135, 0.06039919704198837, 0.13798551261425018, -0.24595174193382263, 0.006191384978592396, -0.19290028512477875, -0.028340615332126617, -0.060443226248025894, 0.03941059857606888, -0.03701008856296539, 0.09493191540241241, -0.2093421220779419, -0.0014492690097540617, -0.07293182611465454, 0.13914431631565094, -0.03447110950946808, -0.11279211938381195, -0.09417812526226044, -0.22045472264289856, 0.1088828518986702, 0.02799908071756363, 0.033778272569179535, -0.09111801534891129, -0.1438855528831482, -0.14097319543361664, -0.059928588569164276, 0.047674790024757385, -0.004715664777904749, -0.19618164002895355, -0.12261944264173508, -0.03402966260910034, -0.04133373126387596, 0.03933947533369064, 0.10914147645235062, -0.1762784868478775, -0.20161119103431702, 0.154333233833313, -0.07969799637794495, 0.08213634788990021, 0.03019164688885212, 0.12036259472370148, -0.26216617226600647, -0.17372995615005493, 0.013579654507339, -0.11416728049516678, 0.03170869126915932, 0.1777898520231247, 0.026062868535518646, -0.17161178588867188, -0.23806644976139069, 0.0865967646241188, 0.03882746770977974, -0.17237304151058197, 0.04184204339981079, 0.06148295849561691, -0.018181391060352325, -0.04852012172341347, 0.11640611290931702, -0.20317204296588898, -0.1591164767742157, -0.02436467446386814, 0.1553049236536026, 0.13685835897922516, 0.02928558923304081, -0.023066885769367218, -0.008273896761238575], [0.12690384685993195, -0.23479467630386353, 0.16392244398593903, -0.1550484448671341, -0.2516603469848633, -0.14283287525177002, 0.06186350807547569, 0.011066978797316551, -0.028785377740859985, -0.17578156292438507, -0.2510337233543396, 0.06657639145851135, -0.039617788046598434, 0.007226648740470409, -0.2331622987985611, -0.27448713779449463, -0.049639370292425156, 0.14113926887512207, 0.11964103579521179, -0.05497747287154198, 0.04347478225827217, 0.1334650069475174, -0.22375889122486115, 0.05927037075161934, -0.01811359077692032, -0.21355971693992615, -0.12816952168941498, -0.28482216596603394, -0.15533462166786194, 0.1529761254787445, -0.19019611179828644, -0.12701407074928284, -0.1318722814321518, 0.12162569165229797, -0.13710565865039825, 0.10066623985767365, -0.12504026293754578, 0.0606103390455246, 0.05040965974330902, -0.09178180247545242, -0.18247103691101074, 0.10476371645927429, -0.2335323542356491, -0.20020247995853424, 0.028591804206371307, -0.19419711828231812, -0.08273373544216156, -0.1878369152545929, -0.049367137253284454, -0.224611297249794, -0.009357617236673832, -0.19267451763153076, -0.07669246196746826, -0.07409901916980743, -0.002054785145446658, -0.23045699298381805, 0.06597662717103958, -0.02281768061220646, 0.07572676241397858, 0.0022890751715749502, -0.20485463738441467, -0.09043382108211517, 0.10894753038883209, -0.14988793432712555, -0.19507497549057007, -0.08542381972074509, -0.0969720259308815, 0.09507492184638977, -0.15957430005073547, 0.03481423109769821, -0.2147478461265564, 0.08346393704414368, -0.07592751085758209, -0.023484600707888603, -0.14977648854255676, -0.1050507053732872, -0.19158343970775604, -0.20686432719230652, -0.26001042127609253, -0.02854044735431671, -0.2237871140241623, 0.11159156262874603, -0.1208830401301384, 0.017470503225922585, -0.0899999588727951, 0.16050384938716888, 0.016694942489266396, 0.12401340901851654, 0.07894212752580643, 0.09313414245843887, -0.009756277315318584, -0.23865345120429993, -0.0900636538863182, -0.17868360877037048, -0.042354512959718704, -0.008718879893422127, 0.054756730794906616, 0.02091328427195549, 0.037881091237068176, -0.1503400057554245, -0.1338358372449875, -0.07924367487430573, 0.06702658534049988, 0.08317016065120697, 0.10478929430246353, -0.18480412662029266, -0.07730996608734131, 0.06457424908876419, 0.038970109075307846, 0.05676942691206932, -0.12166079133749008, -0.17278285324573517, -0.13339941203594208, -0.22512981295585632, 0.009168962016701698, -0.08853408694267273, -0.07978520542383194, -0.26650646328926086, -0.17925070226192474, 0.07132962346076965, -0.2280368059873581, -0.2628795802593231, 0.049360550940036774, -0.10238590091466904, 0.08880370110273361, -0.07459591329097748, -0.03914497420191765, 0.1410585194826126], [0.160676509141922, 0.039993468672037125, -0.12066228687763214, 0.10282383859157562, -0.10695510357618332, 0.04638934135437012, 0.16383320093154907, -0.012721269391477108, -0.28376102447509766, -0.21701432764530182, 0.028290623798966408, -0.06293729692697525, -0.09253863990306854, -0.23737294971942902, -0.09174139052629471, -0.1383974254131317, -0.0913332998752594, -0.0031954667065292597, -0.08061046898365021, -0.050052594393491745, -0.06404460966587067, 0.04831698164343834, -0.033369772136211395, 0.024555517360568047, -0.15664298832416534, -0.14156748354434967, -0.05443944036960602, -0.2036459743976593, 0.045791495591402054, 0.031309809535741806, 0.001442425767891109, 0.02871081978082657, -0.15854646265506744, 0.15497954189777374, -0.159440815448761, -0.10721474140882492, -0.031881868839263916, -0.032057031989097595, -0.195011168718338, 0.1123962327837944, -0.11110606789588928, 0.11044962704181671, 0.0946403443813324, 0.03679535910487175, -0.0794970840215683, -0.24948561191558838, 0.027943070977926254, 0.04091932997107506, -0.1643240749835968, -0.2735663652420044, -0.14268971979618073, 0.0931222140789032, -0.07723917067050934, -0.023611219599843025, -0.12114377319812775, 0.05634237080812454, -0.1363615244626999, -0.007860986515879631, -0.14359334111213684, 0.11313478648662567, -0.1944642961025238, -0.010181644931435585, 0.10173259675502777, -0.22650501132011414, -0.2986060678958893, 0.10390773415565491, -0.2775072753429413, -0.05997515097260475, -0.17576298117637634, 0.006326762493699789, 0.08935926854610443, -0.24703100323677063, -0.05420182645320892, -0.016063084825873375, 0.07089022547006607, 0.07785028964281082, 0.036804307252168655, 0.08698965609073639, -0.22567149996757507, -0.2770097851753235, -0.07497627288103104, -0.1579134166240692, 0.1244414895772934, -0.29271531105041504, -0.16844119131565094, 0.0820903480052948, -0.1097295880317688, 0.11979707330465317, -0.14016881585121155, -0.22005930542945862, -0.21250814199447632, -0.25485533475875854, -0.03746505826711655, -0.07015020400285721, 0.10939367860555649, -0.01914171315729618, 0.09962731599807739, -0.2137054055929184, -0.10487450659275055, -0.09558301419019699, 0.10812172293663025, -0.01737552508711815, -0.20199273526668549, -0.16311122477054596, 0.10295058786869049, 0.09766580909490585, 0.09456240385770798, -0.04888926446437836, 0.02373538911342621, -0.19930420815944672, -0.024761473760008812, 0.015299467369914055, -0.023623162880539894, 0.008594333194196224, -0.14992374181747437, 0.13689857721328735, -0.1083751916885376, -0.002700863406062126, -0.16183730959892273, -0.21340882778167725, -0.19981753826141357, 0.11054276674985886, -0.04888055473566055, -0.23657779395580292, -0.01736999675631523, 0.020620500668883324, -0.03001510165631771, 0.08309932798147202], [0.17573437094688416, 0.06918065994977951, 0.06797352433204651, -0.03221585974097252, -0.009362572804093361, 0.07821431756019592, 0.0405973382294178, 0.0549994558095932, -0.03550174459815025, -0.12138523906469345, -0.1382768154144287, -0.08322210609912872, -0.1761292666196823, -0.007665952667593956, -0.17675845324993134, 0.024668660014867783, 0.003959115128964186, 0.10307110846042633, 0.14168843626976013, -0.15098585188388824, -0.15841226279735565, 0.21849891543388367, -0.13889345526695251, -0.1426074206829071, 0.08432546257972717, 0.09775526821613312, -0.15243275463581085, -0.1739121675491333, -0.17019659280776978, 0.07175734639167786, 0.059100255370140076, 0.06529165059328079, -0.055361464619636536, 0.10291323810815811, 0.10336780548095703, 0.11560770124197006, -0.054186876863241196, 0.13765504956245422, 0.056479327380657196, 0.06368127465248108, -0.058817267417907715, -0.14607568085193634, -0.044870730489492416, -0.04903443530201912, -0.1990213692188263, 0.01208224706351757, -0.11360161751508713, 0.08642438799142838, 0.045058757066726685, -0.1148817390203476, 0.08922164142131805, -0.08773986250162125, 0.21622714400291443, 0.1319350153207779, 0.12425399571657181, -0.2197476476430893, 0.0023248486686497927, -0.035587068647146225, 0.056715089827775955, -0.14857067167758942, 0.09939709305763245, 0.10576394945383072, -0.1561664342880249, 0.11592885106801987, -0.05357389524579048, -0.14348039031028748, 0.042565904557704926, 0.05358094722032547, 0.13001520931720734, -0.0880289375782013, 0.041977159678936005, -0.22925491631031036, 0.1704438328742981, 0.0895894318819046, 0.19273976981639862, -0.06776464730501175, 0.21777094900608063, 0.04526108503341675, 0.12236294150352478, 0.16365045309066772, 0.08238650113344193, -0.001426414237357676, -0.13034994900226593, -0.14842525124549866, 0.014015045017004013, 0.007952357642352581, -0.03418666124343872, -0.033658187836408615, 0.011478596366941929, -0.0798083022236824, 0.04452376440167427, -0.20386123657226562, -0.13028950989246368, -0.20263288915157318, 0.21114647388458252, -0.13332223892211914, 0.061085961759090424, -0.13109475374221802, 0.05522725358605385, -0.07744411379098892, -0.21717388927936554, -0.06780131906270981, -0.02427886240184307, -0.145547017455101, 0.1984076350927353, 0.03604360297322273, -0.11783961951732635, -0.013094179332256317, -0.1798723191022873, -0.043437130749225616, -0.033568717539310455, -0.19332903623580933, 0.02656167559325695, 0.02858703024685383, 0.05122346431016922, 0.04928208887577057, -0.08157549798488617, -0.08891154825687408, 0.05646288022398949, -0.2341458648443222, -0.11079015582799911, -0.1925484985113144, 0.1911865770816803, -0.13639119267463684, -0.1886613965034485, 0.15533873438835144, 0.20491647720336914, 0.0281952116638422], [0.16811195015907288, 0.1527847945690155, 0.03880226984620094, 0.12029724568128586, 0.16790761053562164, -0.0720890462398529, -0.05320264771580696, 0.017081964761018753, -0.10417328774929047, 0.10444138944149017, 0.21450653672218323, 0.0406569242477417, 0.07264436781406403, -0.0734335258603096, 0.07495168596506119, -0.1689416468143463, -0.025077028200030327, -0.04752739146351814, 0.08131253719329834, -0.18915458023548126, 0.041901398450136185, -0.017571356147527695, -0.08645740151405334, 0.003264933591708541, 0.1531180888414383, -0.13495443761348724, 0.12181007117033005, 0.04357578605413437, -0.10760370641946793, -0.17501606047153473, 0.21700075268745422, 0.054731208831071854, -0.04318052902817726, 0.04119105264544487, 0.13776004314422607, 0.047604624181985855, 0.17764218151569366, 0.09050635248422623, -0.15809117257595062, -0.14868377149105072, -0.05474023148417473, -0.03715420886874199, 0.10207688808441162, 0.13090582191944122, 0.24177150428295135, -0.12013497203588486, -0.13081304728984833, 0.12826350331306458, 0.04174498841166496, 0.20998214185237885, 0.02779686078429222, 0.08732028305530548, -0.07021597027778625, 0.140941321849823, 0.04347522184252739, 0.15647435188293457, -0.09692158550024033, -0.08917970210313797, -0.14060454070568085, 0.09161195904016495, -0.16392278671264648, -0.17569519579410553, 0.2323421835899353, 0.022205736488103867, 0.0025224292185157537, 0.012796352617442608, 0.0575106181204319, 0.24584315717220306, 0.12296338379383087, 0.04847711697220802, 0.14227189123630524, -0.09470805525779724, 0.10391055792570114, 0.22585004568099976, -0.007062225602567196, -0.18100930750370026, -0.03095274604856968, 0.25387275218963623, -0.07662976533174515, 0.05954885110259056, 0.15030936896800995, -0.07961378246545792, 0.13279205560684204, 0.021013835445046425, 0.18905004858970642, 0.13644972443580627, 0.17135226726531982, -0.18927280604839325, 0.18317782878875732, -0.017832718789577484, 0.16235139966011047, 0.20765037834644318, 0.10400977730751038, 0.13142907619476318, 0.18272924423217773, -0.19188396632671356, 0.10017070919275284, 0.009131343103945255, -0.0834876000881195, 0.07775626331567764, 0.18940462172031403, -0.18727561831474304, -0.15082523226737976, -0.11421498656272888, -0.10300391912460327, 0.1730130910873413, -0.018450696021318436, 0.1167515441775322, 0.12445345520973206, 0.1872701346874237, 0.057244110852479935, -0.035380687564611435, -0.09050052613019943, 0.07628253102302551, 0.19047386944293976, 0.22076892852783203, -0.04997647553682327, 0.02144460938870907, -0.10787374526262283, 0.2164163589477539, 0.14898993074893951, -0.042650993913412094, -0.10175903886556625, 0.03816904127597809, -0.013037759810686111, 0.027423741295933723, 0.06444824486970901, 0.13573704659938812], [0.16498397290706635, -0.1636875420808792, 0.20490694046020508, -0.18477465212345123, 0.06079041212797165, 0.16940262913703918, -0.07072688639163971, 0.042911287397146225, 0.13653606176376343, 0.036766599863767624, -0.18713481724262238, -0.14350008964538574, 0.012650332413613796, -0.23166361451148987, 0.1907723844051361, -0.11350364983081818, 0.23987267911434174, 0.10746421664953232, -0.03855181857943535, 0.24140308797359467, -0.12883082032203674, 0.2102910280227661, -0.06194739043712616, -0.22862589359283447, 0.09597457945346832, -0.03243707865476608, 0.0758657231926918, 0.050796885043382645, -0.05668387562036514, -0.03943747654557228, 0.21426264941692352, -0.17150069773197174, -0.21547763049602509, 0.19827458262443542, -0.13663402199745178, -0.05409689620137215, 0.11046795547008514, -0.1739545613527298, -0.0616469644010067, 0.1444808393716812, 0.10939090698957443, -0.17294204235076904, -0.09190431982278824, 0.03698156028985977, 0.210410937666893, 0.004197956062853336, 0.0881958156824112, -0.011908589862287045, 0.04177160561084747, 0.09341554343700409, -0.06222466379404068, -0.04525885358452797, -0.09810715913772583, -0.11331921070814133, 0.1506045013666153, -0.1677834540605545, -0.11915382742881775, -0.09404391795396805, -0.20892101526260376, 0.18833981454372406, 0.10472510010004044, -0.08311743289232254, 0.11765408515930176, -0.19869853556156158, 0.15844154357910156, 0.08510558307170868, 0.10069838911294937, 0.06243385747075081, 0.02476198971271515, -0.1477605551481247, 0.08083474636077881, -0.06591062992811203, 0.12512563169002533, -0.18129950761795044, -0.04306028410792351, 0.02637482061982155, 0.057646505534648895, -0.07231798768043518, -0.16337159276008606, 0.1352815479040146, -0.01380937546491623, 0.16400565207004547, -0.029092667624354362, -0.14122967422008514, 0.14732159674167633, 0.15191978216171265, 0.08113045245409012, -0.09664351493120193, 0.16373832523822784, -0.14961043000221252, 0.14342446625232697, -0.04715508967638016, -0.04592347890138626, 0.052691373974084854, 0.06555214524269104, 0.11615677177906036, -0.0753200575709343, -0.13351769745349884, -0.10361432284116745, -0.11815652996301651, 0.07598081231117249, 0.06566813588142395, 0.1449536383152008, 0.21388469636440277, 0.10751280933618546, 0.10209392011165619, 0.09482668340206146, -0.16131946444511414, 0.17160332202911377, 0.11919735372066498, 0.13755325973033905, -0.09334821999073029, -0.10005275160074234, 0.2061673253774643, 0.02096729166805744, -0.2040148377418518, 0.046873196959495544, 0.057657789438962936, -0.05974676087498665, -0.19721612334251404, -0.06536900997161865, -0.1679253876209259, -0.11752945184707642, 0.1663660854101181, -0.018221314996480942, 0.15045276284217834, -0.0692969560623169, -0.16683253645896912], [-0.11183544993400574, -0.2003067433834076, 0.14314158260822296, 0.01461498811841011, -0.20187735557556152, -0.1420726329088211, 0.032140228897333145, 0.1497708261013031, 0.038735270500183105, 0.010012452490627766, -0.051650408655405045, -0.05196129158139229, -0.13868092000484467, -0.021495411172509193, 0.06804671883583069, -0.001782857347279787, -0.07004724442958832, 0.08930552005767822, -0.06501102447509766, 0.05201070383191109, -0.04296473413705826, 0.1759822517633438, 0.1225554421544075, 0.029900047928094864, 0.10693588107824326, 0.06721142679452896, -0.14300720393657684, 0.19254066050052643, 0.020641935989260674, 0.03161003068089485, 0.1481674760580063, 0.09160386025905609, -0.14534366130828857, -0.0021625792142003775, 0.17461222410202026, 0.1784432828426361, 0.035552915185689926, 0.2200508862733841, 0.12544459104537964, 0.04300810769200325, -0.0420568510890007, 0.12378612905740738, 0.14134463667869568, 0.13506363332271576, -0.0753961056470871, -0.19001249969005585, -0.1231372281908989, -0.22796311974525452, 0.06935848295688629, -0.22293926775455475, 0.02826426737010479, 0.131996288895607, 0.12123167514801025, 0.07851158082485199, -0.07707303017377853, -0.1457287222146988, 0.1809958666563034, 0.19460275769233704, 0.1345011442899704, 0.014957409352064133, 0.007279304321855307, -0.11061897873878479, -0.15394701063632965, -0.27247750759124756, 0.1949889361858368, 0.05405911058187485, 0.09690198302268982, -0.13760443031787872, 0.10237140953540802, 0.03201144188642502, 0.02214031293988228, 0.11528300493955612, 0.118135467171669, -0.1961677074432373, -0.0999569445848465, 0.015046249143779278, -0.003713579149916768, 0.1864849328994751, 0.036141205579042435, -0.025419775396585464, -0.17694725096225739, -0.15616820752620697, -0.1674608439207077, -0.11041222512722015, 0.06047993153333664, 0.06416618824005127, 0.06278107315301895, 0.17053283751010895, -0.17960788309574127, -0.12214794009923935, -0.09411800652742386, 0.06839806586503983, 0.03522660210728645, -0.07649708539247513, 0.05822976306080818, 0.2487560510635376, 0.006075343117117882, 0.14877435564994812, -0.0326889306306839, 0.17349092662334442, 0.041268736124038696, -0.08655574172735214, 0.10327322036027908, 0.06419790536165237, -0.05375293642282486, -0.03388754650950432, -0.004772108979523182, 0.1389317661523819, -0.13288536667823792, 0.1555052399635315, -0.15585125982761383, -0.12813490629196167, -0.004919512663036585, 0.06807161867618561, -0.14553524553775787, -0.06288275867700577, -0.1473703384399414, 0.1475888043642044, 0.08294954895973206, 0.0715753585100174, -0.03864529728889465, 0.019284281879663467, 0.15488314628601074, 0.07811115682125092, -0.1840798705816269, -0.007846917025744915, -0.1352735161781311, -0.20476756989955902], [-0.14656788110733032, -0.12724609673023224, -0.20840954780578613, 0.12438637018203735, -0.06420479714870453, -0.011722691357135773, -0.004810648504644632, -0.15046435594558716, -0.07188218832015991, 0.12265026569366455, 0.018075810745358467, 0.012193121016025543, -0.15258900821208954, 0.031750474125146866, -0.004018351435661316, -0.27796274423599243, 0.03150833770632744, -0.26989030838012695, -0.2042018473148346, 0.09599693864583969, -0.23971569538116455, -0.06524156779050827, 0.027609458193182945, 0.10281919687986374, -0.10909480601549149, 0.1266591101884842, -0.11139198392629623, -0.005870210938155651, 0.02240815758705139, -0.2638956308364868, -0.12441184371709824, -0.29772791266441345, -0.1559922695159912, -0.19483670592308044, -0.0318555012345314, -0.07522948086261749, -0.03405357897281647, -0.12009575217962265, 0.17569588124752045, 0.0933852568268776, 0.1637250781059265, -0.25997915863990784, -0.07389170676469803, 0.03002840094268322, 0.07717600464820862, -0.004971467424184084, -0.21640118956565857, -0.17457979917526245, -0.2360396832227707, -0.10763444006443024, -0.034922655671834946, -0.03742041438817978, -0.28859925270080566, -0.11422839760780334, 0.15162502229213715, -0.18265588581562042, 0.07415216416120529, 0.017884965986013412, -0.014959065243601799, -0.0018920473521575332, 0.12763287127017975, 0.0189923495054245, -0.06372064352035522, -0.06988561153411865, -0.23173607885837555, 0.12993253767490387, 0.10651368647813797, -0.10171674191951752, 0.09282290935516357, 