{
  "fc1.weight": [
    [
      0.15219935774803162,
      0.02970944344997406,
      0.1287292093038559,
      0.0231912974268198,
      -0.015936631709337234,
      0.13020166754722595,
      -0.14934676885604858,
      0.1613563597202301,
      -0.07268102467060089,
      -0.07765931636095047,
      0.11729398369789124,
      0.11787864565849304,
      0.07022462785243988,
      0.07323160022497177,
      -0.1676015704870224,
      -0.08635219186544418,
      -0.054315488785505295,
      -0.17856478691101074,
      0.0820789560675621,
      0.04991016164422035,
      -0.041925135999917984,
      -0.24441508948802948,
      -0.02013825997710228,
      -0.07427632063627243,
      -0.133863165974617
    ],
    [
      0.21742650866508484,
      0.0362379215657711,
      0.009991416707634926,
      0.2543494403362274,
      0.4168604910373688,
      0.16930851340293884,
      -0.15161916613578796,
      -0.36163607239723206,
      -0.1313439905643463,
      -0.09235751628875732,
      -0.30831149220466614,
      0.062131933867931366,
      -0.14186802506446838,
      -0.06710176914930344,
      -0.11167781800031662,
      0.10803944617509842,
      0.03553052246570587,
      0.4514707624912262,
      0.0684589371085167,
      0.2001168578863144,
      -0.04450836777687073,
      -0.1082000806927681,
      0.00809983629733324,
      -0.14494942128658295,
      0.017925474792718887
    ],
    [
      0.18596965074539185,
      0.2170923352241516,
      0.06148942932486534,
      0.001464720699004829,
      0.004829127341508865,
      0.2605956494808197,
      -0.16098497807979584,
      -0.1607968658208847,
      0.047742296010255814,
      -0.10900332778692245,
      -0.0934680625796318,
      -0.06206490099430084,
      0.29252755641937256,
      0.10012936592102051,
      -0.09216134995222092,
      -0.1389402598142624,
      0.0734691172838211,
      -0.10975535213947296,
      -0.1611962616443634,
      0.19121375679969788,
      0.0054152654483914375,
      0.11715161055326462,
      0.02151629328727722,
      0.05627291649580002,
      0.17333844304084778
    ],
    [
      0.049331337213516235,
      0.22609028220176697,
      0.04162058234214783,
      0.044457122683525085,
      -0.1517234742641449,
      0.004827582277357578,
      -0.14997999370098114,
      0.36171358823776245,
      -0.12906847894191742,
      0.14404262602329254,
      -0.10296804457902908,
      0.09959650784730911,
      -0.050198689103126526,
      -0.15999339520931244,
      0.05615726113319397,
      -0.022758841514587402,
      0.03181341663002968,
      -0.017290109768509865,
      -0.27264854311943054,
      0.16017618775367737,
      0.14355731010437012,
      0.21066147089004517,
      -0.12254927307367325,
      0.17713598906993866,
      -0.11341354995965958
    ],
    [
      0.12492482364177704,
      -0.04758777841925621,
      0.06181636452674866,
      0.05859144404530525,
      0.038702744990587234,
      0.02674494870007038,
      -0.10373204946517944,
      0.3942618668079376,
      0.05977323651313782,
      0.09147543460130692,
      -0.13522636890411377,
      0.14859753847122192,
      0.09947331249713898,
      0.004439132753759623,
      -0.0076062860898673534,
      0.026197217404842377,
      -0.22437678277492523,
      -0.12241175025701523,
      0.046721283346414566,
      -0.1341453641653061,
      -0.2881722152233124,
      0.1077822744846344,
      0.020776968449354172,
      0.14957204461097717,
      0.15941736102104187
    ],
    [
      0.15535947680473328,
      0.13091382384300232,
      0.18945562839508057,
      -0.3019375801086426,
      0.07670561969280243,
      -0.04862784594297409,
      0.05491885542869568,
      0.02128993533551693,
      0.0692344680428505,
      0.14117388427257538,
      -0.14013437926769257,
      -0.19265878200531006,
      0.06984995305538177,
      -0.2525607943534851,
      0.1519298404455185,
      0.017247412353754044,
      0.22849565744400024,
      -0.08351819217205048,
      -0.22170954942703247,
      0.07567430287599564,
      0.07629544287919998,
      0.09473240375518799,
      0.10963980108499527,
      0.021154319867491722,
      0.2790772020816803
    ],
    [
      -0.10934648662805557,
      0.022545812651515007,
      0.11064886301755905,
      0.0799504891037941,
      -0.2281678318977356,
      0.057119082659482956,
      0.2677612900733948,
      0.011114862747490406,
      -0.07707520574331284,
      -0.15765641629695892,
      -0.07397778332233429,
      0.14244376122951508,
      -0.008599108085036278,
      0.07621973752975464,
      0.09266310185194016,
      0.0985344722867012,
      -0.00573744997382164,
      -0.17965418100357056,
      0.05290995538234711,
      0.16356921195983887,
      -0.14537188410758972,
      0.19453319907188416,
      -0.09803377091884613,
      -0.030738646164536476,
      -0.13298292458057404
    ],
    [
      0.09431905299425125,
      -0.21840153634548187,
      0.09621378779411316,
      0.2647171914577484,
      -0.30982810258865356,
      0.04933971166610718,
      -0.0829303190112114,
      0.39149269461631775,
      -0.1283881813287735,
      -0.042302750051021576,
      0.06653310358524323,
      0.03558865934610367,
      -0.09969209134578705,
      -0.19096030294895172,
      -0.05759734660387039,
      0.031811606138944626,
      -0.029475120827555656,
      -0.20654556155204773,
      -0.08575531095266342,
      -0.007812883704900742,
      0.023915356025099754,
      0.05943603813648224,
      -0.14256900548934937,
      -0.06920481473207474,
      0.017395753413438797
    ],
    [
      0.15108081698417664,
      -0.06058983877301216,
      0.008619219996035099,
      0.21647216379642487,
      -0.022151604294776917,
      -0.17355431616306305,
      -0.46217551827430725,
      0.01543261669576168,
      -0.2719281315803528,
      -0.04243478551506996,
      -0.06771539896726608,
      0.09093855321407318,
      -0.15966278314590454,
      -0.15747565031051636,
      -0.17476728558540344,
      -0.018305078148841858,
      0.008590159937739372,
      -0.16990888118743896,
      -0.0782693549990654,
      0.3254055380821228,
      0.21834221482276917,
      -0.0003584431251510978,
      0.3854334354400635,
      -0.0006806788151152432,
      0.08711489289999008
    ],
    [
      -0.0660376027226448,
      0.13247500360012054,
      -0.02098642848432064,
      0.08305966854095459,
      -0.07481992244720459,
      0.22773773968219757,
      -0.16406695544719696,
      -0.11675354093313217,
      0.07424452900886536,
      0.1099700853228569,
      0.11678466200828552,
      -0.027586765587329865,
      -0.00387211749330163,
      -0.2118440419435501,
      -0.11609655618667603,
      0.36104917526245117,
      -0.08417581021785736,
      -0.26339489221572876,
      -0.057736609131097794,
      -0.1524069458246231,
      -0.045644644647836685,
      0.07861749827861786,
      0.07304994761943817,
      0.0427885577082634,
      -0.04325643554329872
    ],
    [
      0.04653124511241913,
      0.017033986747264862,
      0.13061518967151642,
      -0.1596348136663437,
      0.1388680636882782,
      -0.06885837763547897,
      0.014464670792222023,
      0.10770156234502792,
      0.038743313401937485,
      -0.05616380646824837,
      -0.14344072341918945,
      0.08527690172195435,
      0.14909707009792328,
      0.025131987407803535,
      -0.04847869649529457,
      0.14485663175582886,
      0.12300340086221695,
      0.006274397484958172,
      -0.12133961915969849,
      0.08110255002975464,
      0.09683718532323837,
      0.002569517120718956,
      0.13798557221889496,
      0.22381217777729034,
      -0.2456207275390625
    ],
    [
      -0.02183748036623001,
      -0.07605831325054169,
      -0.09444636851549149,
      0.03669704496860504,
      0.14099031686782837,
      -0.0814114362001419,
      0.1997019350528717,
      0.020129794254899025,
      -0.1363634169101715,
      0.11614765226840973,
      0.1396060734987259,
      0.18422959744930267,
      0.07306262850761414,
      -0.17240627110004425,
      -0.08484562486410141,
      0.045706603676080704,
      0.2153978943824768,
      -0.029344109818339348,
      0.03702175244688988,
      0.01004920806735754,
      0.026969630271196365,
      0.09421659260988235,
      0.10664286464452744,
      -0.09783141314983368,
      0.08510022610425949
    ],
    [
      -0.026095669716596603,
      0.1060190498828888,
      0.19046169519424438,
      0.05648757144808769,
      0.4824661910533905,
      -0.025240696966648102,
      -0.15448784828186035,
      -0.30445507168769836,
      -0.20863354206085205,
      -0.0942322164773941,
      0.12579602003097534,
      0.03722362965345383,
      -0.24490615725517273,
      -0.13711968064308167,
      -0.2611573338508606,
      0.0567493662238121,
      0.021159343421459198,
      -0.20212788879871368,
      -0.11361946910619736,
      0.17283588647842407,
      0.006686901208013296,
      0.23968082666397095,
      0.08469463884830475,
      -0.05379824340343475,
      0.07620816677808762
    ],
    [
      0.03865428641438484,
      0.35382378101348877,
      0.035991642624139786,
      0.11023465543985367,
      -0.16384629905223846,
      -0.04496077820658684,
      -0.03437589481472969,
      0.1201852485537529,
      0.1768423616886139,
      -0.16569094359874725,
      0.10299592465162277,
      -0.32035744190216064,
      -0.17418831586837769,
      -0.16406963765621185,
      0.3931664526462555,
      0.13205640017986298,
      0.008580694906413555,
      -0.12591981887817383,
      0.10697522014379501,
      -0.016512708738446236,
      0.06484957784414291,
      -0.030419277027249336,
      -0.06178564578294754,
      0.12952449917793274,
      0.06967730820178986
    ],
    [
      -0.20568281412124634,
      0.033094294369220734,
      0.08222135156393051,
      -0.09411599487066269,
      -0.16831481456756592,
      -0.04278470575809479,
      -0.014454212971031666,
      0.10298177599906921,
      -0.010330899618566036,
      -0.021163487806916237,
      0.14601966738700867,
      0.16364358365535736,
      -0.12021016329526901,
      0.1504804491996765,
      0.02664591185748577,
      0.4039549231529236,
      -0.11504305154085159,
      -0.11025118827819824,
      -0.11397922039031982,
      0.04704795032739639,
      0.06286772340536118,
      -0.26030129194259644,
      -0.004028436727821827,
      0.034727830439805984,
      -0.029302116483449936
    ],
    [
      -0.013114964589476585,
      -0.1869446337223053,
      0.09250365942716599,
      0.02782822959125042,
      -0.0811753123998642,
      0.17737197875976562,
      0.36478278040885925,
      0.07622644305229187,
      0.22321943938732147,
      -0.025068610906600952,
      -0.01997663825750351,
      0.055097829550504684,
      -0.10906543582677841,
      0.18875828385353088,
      0.39082199335098267,
      -0.05236987769603729,
      0.10953014343976974,
      -0.061462994664907455,
      -0.18542516231536865,
      0.06066945195198059,
      -0.010627985000610352,
      0.10600580275058746,
      -0.08456171303987503,
      -0.03035042993724346,
      0.4619051218032837
    ],
    [
      0.06495308130979538,
      0.4401833415031433,
      0.009932444430887699,
      0.03668459132313728,
      0.011556468904018402,
      0.10396603494882584,
      0.08518608659505844,
      0.24673889577388763,
      0.09774251282215118,
      0.37436342239379883,
      -0.07547709345817566,
      0.0033022272400557995,
      0.18264351785182953,
      -0.11646382510662079,
      0.06945404410362244,
      0.041864216327667236,
      0.03160887584090233,
      -0.10554646700620651,
      -0.1806442141532898,
      -0.061233457177877426,
      -0.08203370124101639,
      -0.013127889484167099,
      0.08067969977855682,
      0.005709073506295681,
      -0.12434139847755432
    ],
    [
      -0.1864183396100998,
      -0.049439094960689545,
      -0.05053258687257767,
      -0.015634192153811455,
      0.1998826116323471,
      -0.012583811767399311,
      -0.1146315336227417,
      0.28925639390945435,
      0.09190308302640915,
      0.09722273051738739,
      -0.024142449721693993,
      0.012859889306128025,
      0.12475468963384628,
      0.03223751485347748,
      0.3369978964328766,
      0.25176379084587097,
      0.02233237586915493,
      -0.03138137608766556,
      0.03206944465637207,
      0.07777242362499237,
      -0.11731500178575516,
      -0.038016971200704575,
      -0.14391817152500153,
      0.0054868608713150024,
      0.13337793946266174
    ],
    [
      -0.19306489825248718,
      0.14687547087669373,
      0.031854189932346344,
      0.14698608219623566,
      0.3991207182407379,
      0.09982117265462875,
      0.02556031569838524,
      -0.040537554770708084,
      -0.04980647191405296,
      0.18544209003448486,
      -0.025941593572497368,
      -0.107841856777668,
      -0.4712419807910919,
      -0.047520529478788376,
      -0.06874080747365952,
      -0.03594798222184181,
      -0.06024227291345596,
      0.4007611870765686,
      -0.06600456684827805,
      0.0056907422840595245,
      -0.022311445325613022,
      -0.04839993268251419,
      0.06800232827663422,
      -0.04466981440782547,
      0.12264131009578705
    ],
    [
      0.09279705584049225,
      -0.1686738133430481,
      -0.05267377570271492,
      0.06304706633090973,
      -0.2987039089202881,
      0.1135786771774292,
      -0.023184070363640785,
      0.4508746266365051,
      0.14330437779426575,
      0.2012922763824463,
      -0.10057532042264938,
      -0.2014905959367752,
      -0.016092881560325623,
      -0.09356145560741425,
      -0.1163841262459755,
      -0.050232525914907455,
      0.28840482234954834,
      -0.057065967470407486,
      0.1725170612335205,
      -0.0077212839387357235,
      -0.13789159059524536,
      0.010444533079862595,
      -0.025042785331606865,
      0.09458082169294357,
      -0.0034678459633141756
    ],
    [
      0.13829660415649414,
      0.24547824263572693,
      0.0020160996355116367,
      0.12874850630760193,
      -0.017333758994936943,
      -0.042468003928661346,
      0.2778829336166382,
      -0.001788900699466467,
      0.02927679382264614,
      0.19584588706493378,
      0.1620287448167801,
      0.09591540694236755,
      -0.15293674170970917,
      0.26086190342903137,
      -0.1010599434375763,
      0.010617316700518131,
      -0.1381121575832367,
      0.06112701818346977,
      -0.07987724989652634,
      0.1171136125922203,
      -0.11811400949954987,
      0.05512859299778938,
      0.14017172157764435,
      0.013198018074035645,
      0.0038705531042069197
    ],
    [
      0.22656342387199402,
      0.4010680913925171,
      0.03243681415915489,
      -0.09597643464803696,
      0.2099963128566742,
      0.04141763970255852,
      -0.042613252997398376,
      0.17957402765750885,
      -0.07369446009397507,
      0.2917897403240204,
      0.029733141884207726,
      0.33935558795928955,
      0.14544402062892914,
      -0.10876022279262543,
      0.0989489033818245,
      0.0432770773768425,
      0.008976615034043789,
      0.3787948787212372,
      -0.09691295772790909,
      0.16885076463222504,
      -0.18060772120952606,
      -0.23318646848201752,
      -0.05152825638651848,
      0.09533632546663284,
      0.07429986447095871
    ],
    [
      -0.1454116702079773,
      -0.09956838190555573,
      0.11538471281528473,
      0.05279473215341568,
      0.46824365854263306,
      0.34682440757751465,
      -0.092564158141613,
      -0.09110622107982635,
      -0.11214577406644821,
      0.15610097348690033,
      -0.06245064735412598,
      -0.2264227420091629,
      0.29030850529670715,
      -0.12034548819065094,
      -0.018780509009957314,
      0.08966821432113647,
      -0.0255139097571373,
      0.18993350863456726,
      0.12366928160190582,
      0.09724052250385284,
      0.14357490837574005,
      0.2627943754196167,
      0.06653688848018646,
      -0.3587002456188202,
      -0.07005318254232407
    ],
    [
      0.2575681507587433,
      0.164516419172287,
      0.0730837732553482,
      0.03876836970448494,
      0.4287794530391693,
      0.1289641559123993,
      0.13107731938362122,
      -0.32302993535995483,
      -0.11850304901599884,
      -0.06613833457231522,
      -0.25175535678863525,
      -0.13268373906612396,
      0.06345485895872116,
      0.07295402139425278,
      -0.18179510533809662,
      0.08145460486412048,
      0.047318633645772934,
      -0.09591034799814224,
      0.13260769844055176,
      0.04693564772605896,
      0.28833046555519104,
      -0.09746559709310532,
      -0.16637374460697174,
      0.1780591756105423,
      0.006518132518976927
    ],
    [
      -0.03690961003303528,
      0.18122722208499908,
      0.11428532749414444,
      0.04552656039595604,
      0.1764153093099594,
      -0.1625337302684784,
      0.32791668176651,
      -0.24604859948158264,
      -0.32408860325813293,
      -0.025748448446393013,
      0.07287390530109406,
      0.2240404486656189,
      -0.025712350383400917,
      -0.15032760798931122,
      0.2504780888557434,
      0.10121071338653564,
      0.20745833218097687,
      0.3744959831237793,
      -0.002946296473965049,
      0.18608643114566803,
      -0.019827861338853836,
      0.006205731071531773,
      -0.2134547084569931,
      -0.08276275545358658,
      -0.03211439400911331
    ],
    [
      0.0883319303393364,
      -0.16505438089370728,
      0.06310929358005524,
      0.074799083173275,
      0.1635928601026535,
      0.26318255066871643,
      -0.04913095757365227,
      0.07759693264961243,
      -0.2140837013721466,
      -0.010078687220811844,
      0.14511001110076904,
      0.0969633087515831,
      0.0953705906867981,
      0.02484254725277424,
      -0.13124170899391174,
      -0.07967798411846161,
      0.059053950011730194,
      -0.0007848559180274606,
      0.004371853545308113,
      0.1232210025191307,
      0.0666627362370491,
      0.05714917555451393,
      0.07295196503400803,
      -0.002348941285163164,
      0.12496890872716904
    ],
    [
      0.0823138877749443,
      -0.06416647136211395,
      0.05338338017463684,
      0.07632209360599518,
      -0.23109719157218933,
      0.03974934667348862,
      -0.11209754645824432,
      0.12068983167409897,
      -0.12313007563352585,
      0.1691407710313797,
      0.12489882111549377,
      -0.07939735800027847,
      -0.0825120136141777,
      -0.00230939919129014,
      -0.18000760674476624,
      0.17287924885749817,
      -0.15539933741092682,
      -0.0031760591082274914,
      -0.015079469420015812,
      -0.029665885493159294,
      0.013272074982523918,
      0.11984561383724213,
      -0.2049262374639511,
      0.09899382293224335,
      -0.07596944272518158
    ],
    [
      0.03158058226108551,
      -0.08301957696676254,
      0.11704071611166,
      0.10497027635574341,
      -0.19371333718299866,
      0.32081833481788635,
      -0.024737905710935593,
      0.022296661511063576,
      -0.1533089578151703,
      -0.07270393520593643,
      -0.075545534491539,
      -0.04224191606044769,
      -0.22169175744056702,
      0.011687101796269417,
      -0.19242723286151886,
      0.22274741530418396,
      -0.015207850374281406,
      -0.22031933069229126,
      -0.006540915463119745,
      0.021697521209716797,
      0.039539434015750885,
      0.1819353550672531,
      0.03821927681565285,
      0.11991924792528152,
      0.16196949779987335
    ],
    [
      0.004814207553863525,
      0.08687509596347809,
      -0.08008060604333878,
      0.24833747744560242,
      0.387279212474823,
      0.2190694659948349,
      -0.0326019786298275,
      -0.32003191113471985,
      0.2132033109664917,
      0.02071288973093033,
      0.04992818459868431,
      0.22589997947216034,
      0.05638318136334419,
      -0.09789729118347168,
      -0.1915091872215271,
      0.168760284781456,
      -0.006770294159650803,
      -0.10778608173131943,
      -0.05384587496519089,
      0.3532879650592804,
      -0.0527179054915905,
      0.04431960731744766,
      -0.03637384995818138,
      0.08675219863653183,
      0.2390795350074768
    ],
    [
      0.12744221091270447,
      -0.028514958918094635,
      -0.10383293032646179,
      0.1931266188621521,
      0.015764756128191948,
      0.15971991419792175,
      -0.005121654365211725,
      -0.150954931974411,
      0.18577100336551666,
      0.12708574533462524,
      -0.08161595463752747,
      0.1777101457118988,
      0.24007673561573029,
      0.293227881193161,
      0.23552298545837402,
      0.33193594217300415,
      -0.13257411122322083,
      -0.042415935546159744,
      -0.155242919921875,
      -0.05451955273747444,
      -0.13186714053153992,
      0.06972965598106384,
      0.10113991796970367,
      -0.07003705203533173,
      -0.05519958958029747
    ],
    [
      0.11329995095729828,
      0.10225720703601837,
      0.07603685557842255,
      -0.12660722434520721,
      0.1264115571975708,
      -0.11212484538555145,
      0.22324660420417786,
      -0.03246673196554184,
      0.14854535460472107,
      0.10970454663038254,
      -0.015775587409734726,
      0.23891133069992065,
      -0.0866321325302124,
      0.25713443756103516,
      -0.11229246109724045,
      -7.296056719496846e-05,
      -0.01334881130605936,
      0.04052027314901352,
      0.09819603711366653,
      0.007291117683053017,
      -0.02498331293463707,
      -0.010288999415934086,
      0.04469733312726021,
      -0.15206220746040344,
      0.07038717716932297
    ],
    [
      0.005146611947566271,
      0.15101702511310577,
      -0.031031837686896324,
      -0.05058347433805466,
      0.1625860333442688,
      -0.12884892523288727,
      -0.039884258061647415,
      -0.43056073784828186,
      -0.07432500272989273,
      0.048943500965833664,
      0.24180708825588226,
      0.06904011219739914,
      -0.04989907518029213,
      -0.05552840977907181,
      -0.09501226246356964,
      0.16142229735851288,
      0.24771922826766968,
      -0.04632953181862831,
      0.10915292799472809,
      0.029964055866003036,
      -0.0334506519138813,
      -0.006895359139889479,
      -0.15694043040275574,
      0.011535698547959328,
      -0.051853686571121216
    ],
    [
      -0.19162508845329285,
      -0.132554829120636,
      0.044103533029556274,
      0.0765959694981575,
      0.08943858742713928,
      -0.006581531837582588,
      0.014746077358722687,
      -0.05707741901278496,
      0.1360439956188202,
      -0.003919193055480719,
      0.1229553371667862,
      0.013366257771849632,
      0.17218825221061707,
      0.4028592109680176,
      -0.06347830593585968,
      0.12099109590053558,
      -0.1634274572134018,
      0.043740421533584595,
      -0.16130048036575317,
      0.11400951445102692,
      -0.00820609275251627,
      -0.1511354148387909,
      0.039028093218803406,
      0.2000097781419754,
      0.08554334938526154
    ],
    [
      -0.031572602689266205,
      -0.062481146305799484,
      0.03693045303225517,
      -0.037610992789268494,
      0.14088666439056396,
      0.05231991037726402,
      0.17863835394382477,
      -0.16545823216438293,
      -0.0018941183807328343,
      0.038488175719976425,
      0.051877763122320175,
      -0.056668635457754135,
      0.02517355978488922,
      0.015414586290717125,
      -0.15686394274234772,
      -0.019240612164139748,
      0.043512143194675446,
      0.11388945579528809,
      -0.2983120083808899,
      0.036178458482027054,
      -0.08931461721658707,
      0.17913556098937988,
      0.05996519699692726,
      -0.02160305343568325,
      0.04324008524417877
    ],
    [
      0.2328730970621109,
      0.21346424520015717,
      -0.020705996081233025,
      -0.057113323360681534,
      -0.008329756557941437,
      0.33102068305015564,
      0.30109283328056335,
      0.028906643390655518,
      -0.16736194491386414,
      0.2168572098016739,
      0.008257490582764149,
      0.18879957497119904,
      -0.35643312335014343,
      -0.02346251718699932,
      0.0849590077996254,
      0.161722794175148,
      0.10578269511461258,
      0.05137764289975166,
      -0.05040831118822098,
      0.03332286700606346,
      -0.22782479226589203,
      -0.10949881374835968,
      0.027881037443876266,
      0.10573979467153549,
      0.01743725687265396
    ],
    [
      0.0013625124702230096,
      0.19218391180038452,
      -0.007325455080717802,
      0.08137606829404831,
      -0.040834493935108185,
      0.20897868275642395,
      -0.17916981875896454,
      0.11929487437009811,
      -0.09494119137525558,
      0.13033702969551086,
      0.31170448660850525,
      -0.059469811618328094,
      -0.09228149801492691,
      -0.03813622519373894,
      0.09745603799819946,
      -0.12672089040279388,
      0.20441856980323792,
      -0.16672652959823608,
      -0.1633968949317932,
      0.04805643856525421,
      0.1153668463230133,
      0.020506994798779488,
      0.20773449540138245,
      -0.24090075492858887,
      -0.1964624971151352
    ],
    [
      0.0744980201125145,
      0.2457667738199234,
      -0.09318476915359497,
      0.028286635875701904,
      0.25304874777793884,
      0.019799143075942993,
      0.12229776382446289,
      0.061067670583724976,
      -0.21426905691623688,
      -0.022030675783753395,
      0.12166614085435867,
      -0.18915976583957672,
      0.12319814413785934,
      0.05693361535668373,
      0.04832863062620163,
      0.21658867597579956,
      -0.027743516489863396,
      -0.25853240489959717,
      -0.12101073563098907,
      0.04055758938193321,
      -0.05419078469276428,
      -0.05247875303030014,
      0.15442587435245514,
      -0.1839810013771057,
      0.2356681227684021
    ],
    [
      -0.1013655960559845,
      0.18330517411231995,
      0.11215832084417343,
      -0.027195263653993607,
      0.3403269052505493,
      -0.0033618202432990074,
      -0.02279672399163246,
      0.15232029557228088,
      0.14508062601089478,
      0.1975395381450653,
      0.11940693110227585,
      0.03186733275651932,
      0.19578008353710175,
      0.3096039295196533,
      0.05453447252511978,
      0.13824625313282013,
      0.09496070444583893,
      -0.2828507423400879,
      0.2285870760679245,
      0.07555446028709412,
      0.12775924801826477,
      -0.03224629908800125,
      0.02190518006682396,
      0.20485101640224457,
      -0.23286528885364532
    ],
    [
      0.26784101128578186,
      -0.1951867938041687,
      0.07184508442878723,
      0.0042753941379487514,
      -0.001942201517522335,
      0.173264279961586,
      0.4372274577617645,
      -0.21132855117321014,
      0.17225700616836548,
      0.02489108219742775,
      0.062141913920640945,
      -0.06735541671514511,
      -0.10234756022691727,
      -0.04767288640141487,
      0.5984649658203125,
      -0.03241614252328873,
      0.1981261968612671,
      -0.0015067484928295016,
      -0.05047577992081642,
      0.014841358177363873,
      0.02372518740594387,
      0.15982304513454437,
      -0.012554020620882511,
      0.22173097729682922,
      -0.40987300872802734
    ],
    [
      0.09841549396514893,
      -0.1284412145614624,
      0.07237814366817474,
      0.021310536190867424,
      -0.033596668392419815,
      -0.08843789249658585,
      0.18299908936023712,
      0.18014377355575562,
      -0.0512557253241539,
      0.19892002642154694,
      -0.0783083513379097,
      0.06257801502943039,
      -0.1662566065788269,
      -0.10350514948368073,
      0.32055577635765076,
      -0.023619109764695168,
      0.1147632822394371,
      -0.06415974348783493,
      -0.031349390745162964,
      0.008836925029754639,
      -0.11251433938741684,
      -0.14345820248126984,
      -0.21511772274971008,
      0.02064260095357895,
      0.02940230816602707
    ],
    [
      -0.08644624799489975,
      0.12496483325958252,
      0.037736598402261734,
      0.11193645745515823,
      0.33568719029426575,
      0.02930624410510063,
      0.07271523773670197,
      -0.2490430325269699,
      -0.13573099672794342,
      0.15003107488155365,
      0.2353021204471588,
      0.144611656665802,
      0.03136921674013138,
      -0.09449074417352676,
      0.052275292575359344,
      -0.0581887848675251,
      0.16661801934242249,
      0.11599533259868622,
      0.1985889971256256,
      0.018250148743391037,
      -0.044204384088516235,
      0.06919719278812408,
      -0.034024953842163086,
      0.1860343962907791,
      0.13802042603492737
    ],
    [
      0.04927205294370651,
      0.02420000173151493,
      0.060666315257549286,
      -0.07499170303344727,
      0.2342759221792221,
      -0.15850971639156342,
      -0.014107837341725826,
      -0.013356497511267662,
      0.1141645759344101,
      0.03336687758564949,
      -0.15545222163200378,
      0.09821587800979614,
      -0.025696374475955963,
      0.0343581959605217,
      -0.10894768685102463,
      0.18149380385875702,
      0.13171400129795074,
      -0.05536052957177162,
      -0.005819054786115885,
      0.11373493820428848,
      0.14809677004814148,
      -0.08605389297008514,
      0.12042338401079178,
      -0.06282825767993927,
      0.08167081326246262
    ],
    [
      -0.04230116307735443,
      0.05646873638033867,
      0.05353773757815361,
      0.13899213075637817,
      -0.1625494509935379,
      0.039935942739248276,
      0.08815895766019821,
      -0.07474256306886673,
      0.274406760931015,
      0.088260218501091,
      -0.2294766902923584,
      0.007956698536872864,
      0.01589532010257244,
      0.3488865792751312,
      -0.003158845007419586,
      0.14316879212856293,
      0.06291276216506958,
      0.11650208383798599,
      0.09112652391195297,
      0.17667675018310547,
      0.18539129197597504,
      0.15374892950057983,
      -0.001735883648507297,
      -0.04483059421181679,
      -0.14105628430843353
    ],
    [
      0.13696005940437317,
      0.1032189130783081,
      0.02133270539343357,
      -0.09153105318546295,
      0.03606130927801132,
      -0.0847061350941658,
      0.18355782330036163,
      0.0701620876789093,
      -0.17959830164909363,
      0.045089248567819595,
      -0.04826941341161728,
      0.06265943497419357,
      -0.026428112760186195,
      0.0709562674164772,
      0.3532773554325104,
      0.05289414897561073,
      0.08754679560661316,
      0.062001317739486694,
      0.025691663846373558,
      0.07423259317874908,
      -0.2329985499382019,
      0.13690614700317383,
      -0.020312748849391937,
      0.22148630023002625,
      0.11402492225170135
    ],
    [
      0.05383580923080444,
      0.10027680546045303,
      -0.020723238587379456,
      0.13791321218013763,
      0.014851448126137257,
      0.08408627659082413,
      0.02674424648284912,
      0.06487060338258743,
      0.08379293233156204,
      -0.11127447336912155,
      0.06772948056459427,
      0.21064132452011108,
      -0.07224942743778229,
      -0.1148633137345314,
      -0.013240354135632515,
      0.21996691823005676,
      -0.024145344272255898,
      -0.004065623506903648,
      -0.07234268635511398,
      0.003793040057644248,
      -0.11362597346305847,
      0.3795040547847748,
      -0.019568264484405518,
      -0.18998876214027405,
      -0.18295986950397491
    ],
    [
      -0.14035876095294952,
      0.05309043452143669,
      0.018755244091153145,
      -0.06972841173410416,
      0.0645270049571991,
      0.24570943415164948,
      0.0832216739654541,
      0.11658096313476562,
      -0.18396736681461334,
      -0.15156251192092896,
      -0.02251116931438446,
      0.11819986999034882,
      0.030299779027700424,
      0.04494212195277214,
      0.2754727303981781,
      0.12257078289985657,
      0.25556859374046326,
      -0.027763910591602325,
      -0.08867193013429642,
      -0.020262889564037323,
      0.17469853162765503,
      0.05210375785827637,
      0.022190913558006287,
      -0.10718843340873718,
      0.17824018001556396
    ],
    [
      0.13703075051307678,
      -0.032592084258794785,
      -0.06338048726320267,
      0.07109436392784119,
      -0.184967502951622,
      0.1776140183210373,
      -0.2050142139196396,
      0.16615037620067596,
      -0.1802847534418106,
      -0.05794563516974449,
      -0.06784164160490036,
      0.08860144019126892,
      -0.14038662612438202,
      0.023598158732056618,
      -0.04098456725478172,
      0.021246744319796562,
      0.15935607254505157,
      -0.18192633986473083,
      -0.23122888803482056,
      -0.02964782901108265,
      0.03458762168884277,
      -0.1318512260913849,
      -0.028084075078368187,
      0.06238952651619911,
      -0.14569512009620667
    ],
    [
      -0.16790363192558289,
      0.05321650579571724,
      0.059949226677417755,
      0.1040317714214325,
      -0.2838000953197479,
      -0.05791889503598213,
      -0.01458706334233284,
      0.2707887589931488,
      0.261481374502182,
      0.36764973402023315,
      0.022691061720252037,
      -0.11424568295478821,
      -0.05059995874762535,
      0.12204641103744507,
      -0.13560666143894196,
      0.047194954007864,
      0.23712292313575745,
      -0.2785172462463379,
      0.08760238438844681,
      0.03405824676156044,
      -0.03352917358279228,
      0.034807443618774414,
      0.10883937776088715,
      0.0519375279545784,
      0.07720747590065002
    ],
    [
      0.24490037560462952,
      0.16168130934238434,
      -0.10646644979715347,
      0.2516392767429352,
      -0.030659986659884453,
      -0.061068739742040634,
      -0.12432809174060822,
      0.2036752700805664,
      0.07273828238248825,
      0.252434104681015,
      -0.057862818241119385,
      0.24869203567504883,
      0.03307536616921425,
      -0.16591715812683105,
      -0.17461653053760529,
      -0.1096273809671402,
      -0.03435518220067024,
      -0.2938339412212372,
      0.2578960657119751,
      -0.2604692876338959,
      0.2054344266653061,
      0.13986311852931976,
      -0.08986114710569382,
      -0.15323364734649658,
      0.13839440047740936
    ],
    [
      0.28834080696105957,
      0.3133199214935303,
      0.1123637855052948,
      -0.1840440034866333,
      0.14253419637680054,
      0.13936737179756165,
      -0.12888355553150177,
      0.0459466315805912,
      0.007944387383759022,
      -0.054005227982997894,
      0.14155223965644836,
      0.23313245177268982,
      0.09498962014913559,
      -0.16238391399383545,
      0.01236543245613575,
      0.0745294988155365,
      0.013136882334947586,
      0.03641742467880249,
      0.018894629552960396,
      -0.06502433866262436,
      0.0924440547823906,
      0.015178855508565903,
      0.12817256152629852,
      -0.46521732211112976,
      0.036492377519607544
    ],
    [
      0.08198124170303345,
      0.10835623741149902,
      0.012835568748414516,
      0.2191249430179596,
      0.07439876347780228,
      -0.023356705904006958,
      -0.19784647226333618,
      -0.2648718059062958,
      0.23528742790222168,
      -0.1263822466135025,
      -0.10375312715768814,
      0.1321447491645813,
      0.12421626597642899,
      -0.036321528255939484,
      -0.1839684396982193,
      0.00399738410487771,
      0.15974651277065277,
      -0.2705235779285431,
      0.018246084451675415,
      0.08752860128879547,
      -0.09325508773326874,
      -0.08464021980762482,
      -0.08024577796459198,
      0.07659782469272614,
      0.023428795859217644
    ],
    [
      -0.1930374801158905,
      -0.011325419880449772,
      -0.046763963997364044,
      0.12917740643024445,
      -0.3435642123222351,
      0.2827532887458801,
      0.02740372344851494,
      0.09471346437931061,
      -0.11459341645240784,
      0.2519714832305908,
      -0.10393121838569641,
      -0.06501134485006332,
      -0.044243112206459045,
      -0.20344704389572144,
      -0.17910127341747284,
      0.06777887046337128,
      0.19061517715454102,
      -0.1717938333749771,
      0.11732915043830872,
      -0.1015702411532402,
      0.13908962905406952,
      -0.16305342316627502,
      0.09401507675647736,
      -0.040803972631692886,
      -0.017014149576425552
    ],
    [
      0.008028282783925533,
      0.1174371987581253,
      -0.13667461276054382,
      0.09682405740022659,
      0.05142153799533844,
      -0.04155799746513367,
      -0.05687405914068222,
      0.06543789058923721,
      0.0035102481488138437,
      0.26142916083335876,
      -0.07290828227996826,
      0.1501072645187378,
      0.07824666053056717,
      -0.09104136377573013,
      0.3021506667137146,
      0.07296435534954071,
      0.11084982752799988,
      0.07118353247642517,
      -0.06215599551796913,
      0.10316912084817886,
      0.07080603390932083,
      0.03249014541506767,
      -0.03899409621953964,
      0.00035722943721339107,
      -0.03271384537220001
    ],
    [
      -0.1309155970811844,
      -0.131832554936409,
      0.26814696192741394,
      -0.11409024894237518,
      0.1387663036584854,
      0.08682787418365479,
      -0.021647466346621513,
      -0.09181433171033859,
      0.3010353147983551,
      -0.10447422415018082,
      0.07028134912252426,
      0.01586100645363331,
      0.21357786655426025,
      0.06425229460000992,
      0.10350080579519272,
      0.04264663904905319,
      -0.12275882065296173,
      0.14628669619560242,
      -0.06266845017671585,
      -0.007562378887087107,
      0.21823252737522125,
      0.16274797916412354,
      -0.11229030787944794,
      -0.011970131658017635,
      -0.00043994723819196224
    ],
    [
      -0.12447655946016312,
      0.023439859971404076,
      -0.026198383420705795,
      0.029516685754060745,
      0.12931950390338898,
      0.04494049400091171,
      0.13701844215393066,
      0.060509100556373596,
      0.1650082916021347,
      0.047079700976610184,
      0.18564361333847046,
      -0.021264895796775818,
      0.07084384560585022,
      0.08594927936792374,
      -0.030405886471271515,
      0.09403108060359955,
      -0.019087012857198715,
      0.06067170575261116,
      -0.09118986874818802,
      -0.15677569806575775,
      -0.12573754787445068,
      0.01996884122490883,
      -0.23224321007728577,
      -0.2805428206920624,
      0.08287642896175385
    ],
    [
      0.24794553220272064,
      0.09663762897253036,
      -0.07048343122005463,
      0.023293301463127136,
      0.12799282371997833,
      0.0879257470369339,
      0.013325558044016361,
      0.14563097059726715,
      0.1902586817741394,
      0.06556171923875809,
      -0.12805859744548798,
      0.07492560148239136,
      0.11023104935884476,
      -0.21277134120464325,
      0.047339290380477905,
      0.01935766451060772,
      0.1586112380027771,
      -0.3396857678890228,
      -0.19594424962997437,
      0.24807216227054596,
      0.10809868574142456,
      0.05925576016306877,
      0.1303599327802658,
      0.13462285697460175,
      0.25719648599624634
    ],
    [
      -0.027109621092677116,
      0.19691193103790283,
      0.07895159721374512,
      0.14419099688529968,
      -0.10909108817577362,
      0.09703919291496277,
      -0.10667436569929123,
      0.2672105133533478,
      -0.2711685597896576,
      -0.12033884972333908,
      0.07583961635828018,
      -0.1824367195367813,
      0.054639190435409546,
      -0.011953368782997131,
      -0.08418314903974533,
      -0.05494001880288124,
      0.23324981331825256,
      -0.07865028083324432,
      0.03796492516994476,
      -0.08478409051895142,
      -0.07390142977237701,
      -0.11692307144403458,
      -0.04256376624107361,
      -0.0520949587225914,
      -0.018520180135965347
    ],
    [
      0.05576933175325394,
      0.030624639242887497,
      0.23799212276935577,
      -0.13192646205425262,
      -0.11002054810523987,
      -0.11217411607503891,
      0.04666319489479065,
      0.2221066802740097,
      0.09552589803934097,
      0.19351200759410858,
      -0.04307316988706589,
      -0.03146977722644806,
      -0.002395243151113391,
      0.16137608885765076,
      0.009256545454263687,
      0.1984129250049591,
      0.16925372183322906,
      0.16336774826049805,
      -0.07403932511806488,
      0.05671586096286774,
      -0.03499060869216919,
      0.1803111433982849,
      0.09547758102416992,
      -0.13912340998649597,
      0.015677809715270996
    ],
    [
      -0.19323883950710297,
      0.22210977971553802,
      -0.15547537803649902,
      0.30942073464393616,
      -0.19026364386081696,
      0.0687142014503479,
      0.14645616710186005,
      0.30296027660369873,
      -0.10284286737442017,
      -0.2900138199329376,
      -0.13486286997795105,
      -0.03643399477005005,
      -0.07680126279592514,
      -0.10868754982948303,
      0.04445222392678261,
      0.22330087423324585,
      -0.08657720685005188,
      -0.16519813239574432,
      -0.02653418481349945,
      0.00840278621762991,
      0.027623139321804047,
      -0.04846714809536934,
      0.2388172149658203,
      0.09171712398529053,
      -0.09572762995958328
    ],
    [
      0.15154370665550232,
      -0.11258801072835922,
      -0.11570197343826294,
      0.0815747082233429,
      0.13000434637069702,
      0.04629813879728317,
      -0.0889437198638916,
      0.10011106729507446,
      -0.06942128390073776,
      0.08047441393136978,
      0.05127474293112755,
      0.060409314930438995,
      0.19566158950328827,
      0.12563996016979218,
      0.15492069721221924,
      0.06401348114013672,
      0.11953847110271454,
      0.2357911467552185,
      0.13618578016757965,
      0.010066371411085129,
      -0.014967973344027996,
      -0.014205468818545341,
      -0.13196046650409698,
      0.017861586064100266,
      -0.0365290530025959
    ],
    [
      0.11294081807136536,
      0.21522751450538635,
      -0.12768392264842987,
      0.08810187131166458,
      -0.13112685084342957,
      0.11863961815834045,
      -0.09750495851039886,
      0.2825034558773041,
      0.3252686560153961,
      0.10331413149833679,
      -0.100411556661129,
      0.11944667249917984,
      -0.023061035200953484,
      0.2079012393951416,
      -0.00713737029582262,
      -0.03250966966152191,
      -0.007864926010370255,
      0.10692860186100006,
      0.12282008677721024,
      -0.0009404734009876847,
      0.010653727687895298,
      0.022178197279572487,
      0.0480802059173584,
      0.1010170504450798,
      0.19957946240901947
    ],
    [
      0.07214920967817307,
      -0.08238779753446579,
      0.06432659924030304,
      0.04398921877145767,
      -0.0814213901758194,
      0.07272689044475555,
      0.3103698790073395,
      -0.0003388334298506379,
      -0.03475822135806084,
      0.015638113021850586,
      0.29294005036354065,
      -0.043925780802965164,
      0.04323038458824158,
      0.36232641339302063,
      0.2486080676317215,
      0.28260013461112976,
      0.08783221244812012,
      0.40569835901260376,
      -0.12882372736930847,
      -0.0015909390058368444,
      0.08062167465686798,
      0.041688285768032074,
      -0.04949202761054039,
      0.204045832157135,
      0.17491620779037476
    ],
    [
      0.07221397012472153,
      0.20538078248500824,
      -0.12116039544343948,
      0.13579398393630981,
      0.42014577984809875,
      0.36200961470603943,
      0.11927449703216553,
      0.2209450602531433,
      -0.04237856715917587,
      0.11308838427066803,
      0.07826121151447296,
      0.28743186593055725,
      -0.007638045586645603,
      -0.12110564112663269,
      -0.18553774058818817,
      -0.025211378931999207,
      0.20951269567012787,
      -0.42042434215545654,
      -0.16752579808235168,
      0.0025443793274462223,
      0.09586039930582047,
      0.08994114398956299,
      -0.06624232977628708,
      0.04144266992807388,
      -0.09116829186677933
    ],
    [
      0.0142442611977458,
      0.02229226939380169,
      0.028087912127375603,
      -0.020728273317217827,
      0.4122317135334015,
      0.17773683369159698,
      0.03138810023665428,
      0.15414546430110931,
      0.02880551852285862,
      0.12495172023773193,
      -0.18656553328037262,
      -0.11695363372564316,
      -0.1675163060426712,
      0.1299482136964798,
      -0.06101159751415253,
      0.17615219950675964,
      -0.19473731517791748,
      0.0263631884008646,
      -0.1129184141755104,
      0.10213436931371689,
      0.06787492334842682,
      0.005033052526414394,
      -0.20055440068244934,
      0.03836746886372566,
      0.08801273256540298
    ],
    [
      0.05389952287077904,
      0.01878098025918007,
      0.2735385298728943,
      0.055138133466243744,
      -0.3637900650501251,
      0.16765224933624268,
      -0.0005241885082796216,
      -0.04078129678964615,
      0.1545124650001526,
      0.015542724169790745,
      0.1988316774368286,
      0.06801474839448929,
      0.08278266340494156,
      -0.011139506474137306,
      0.2379031628370285,
      -0.13196846842765808,
      -0.07601608335971832,
      0.08934371918439865,
      -0.15630915760993958,
      0.12939926981925964,
      -0.14773409068584442,
      0.09098415076732635,
      0.062334977090358734,
      -0.02337057515978813,
      -0.06139262765645981
    ],
    [
      0.048696450889110565,
      -0.046625178307294846,
      0.08938456326723099,
      0.05328182876110077,
      -0.04585092142224312,
      0.23530246317386627,
      0.2647187411785126,
      -0.15606719255447388,
      -0.13163955509662628,
      0.3659311830997467,
      -0.026065530255436897,
      0.032041843980550766,
      0.09880685061216354,
      -0.003613953245803714,
      0.3103702962398529,
      0.32197973132133484,
      -0.00472221290692687,
      0.3274093270301819,
      0.048860952258110046,
      -0.02894868515431881,
      -0.06015678122639656,
      0.06181085854768753,
      -0.0273139625787735,
      0.05043427646160126,
      0.02281399630010128
    ],
    [
      0.07151294499635696,
      0.03169560804963112,
      0.04801274463534355,
      0.015194015577435493,
      0.2172783613204956,
      0.11202393472194672,
      -0.056358788162469864,
      -0.08422131091356277,
      -0.028602195903658867,
      0.05570231005549431,
      -0.1084391176700592,
      0.05797535926103592,
      0.15716621279716492,
      -0.07919730991125107,
      -0.03635818138718605,
      -0.0954304039478302,
      0.029495472088456154,
      0.05469374358654022,
      -0.04122358560562134,
      0.2404865324497223,
      -0.035663291811943054,
      0.1936127096414566,
      0.08488122373819351,
      -0.08383417129516602,
      -0.12079127132892609
    ],
    [
      0.16918717324733734,
      -0.01460662018507719,
      0.2439657300710678,
      -0.1637362390756607,
      0.18926642835140228,
      -0.03468382731080055,
      0.26711270213127136,
      -0.4833865761756897,
      -0.0077747078612446785,
      0.0592200942337513,
      -0.13794006407260895,
      0.04959183186292648,
      0.07803285866975784,
      -0.14821738004684448,
      -0.11226902902126312,
      0.1540427803993225,
      0.1236606240272522,
      -0.09269385784864426,
      -0.03949841111898422,
      0.3016551733016968,
      0.0723055973649025,
      -0.020388741046190262,
      0.05519964173436165,
      -0.10593326389789581,
      0.09527851641178131
    ],
    [
      0.14501309394836426,
      0.08309654146432877,
      0.024635467678308487,
      0.03933442756533623,
      0.060407206416130066,
      0.07690571993589401,
      0.2869476079940796,
      -0.009733883664011955,
      -0.02379198744893074,
      0.14804032444953918,
      -0.01262581255286932,
      0.0804581493139267,
      0.061370376497507095,
      0.14348110556602478,
      -0.01175618264824152,
      -0.11932121217250824,
      -0.051557473838329315,
      -0.2133738398551941,
      -0.08758852630853653,
      -0.01987798698246479,
      0.1003611832857132,
      -0.00017621202277950943,
      0.037218522280454636,
      0.09028018265962601,
      -0.008136802352964878
    ],
    [
      0.18783456087112427,
      0.22627165913581848,
      -0.19545191526412964,
      0.08402281254529953,
      0.24697916209697723,
      -0.0560375340282917,
      -0.09618008881807327,
      -0.11713960021734238,
      0.11107637733221054,
      0.28561946749687195,
      0.15470504760742188,
      0.06245506927371025,
      0.2501887381076813,
      0.38125506043434143,
      0.03582925722002983,
      -0.09056798368692398,
      0.11113140732049942,
      -0.03296443074941635,
      -0.12324003875255585,
      0.2407175749540329,
      0.155427947640419,
      0.247062087059021,
      -0.2248869240283966,
      -0.014650565572082996,
      0.01187865063548088
    ],
    [
      -0.19948619604110718,
      0.04108785092830658,
      0.22360779345035553,
      -0.10724616795778275,
      0.004268822260200977,
      0.16365835070610046,
      -0.15290449559688568,
      0.07734987139701843,
      0.07836644351482391,
      -0.18046528100967407,
      -0.06270255893468857,
      0.20788849890232086,
      -0.08055124431848526,
      0.028370019048452377,
      -0.10679928958415985,
      0.01449959259480238,
      0.263740211725235,
      0.04966738820075989,
      0.055539097636938095,
      -0.012349261902272701,
      -0.19973205029964447,
      0.004410375375300646,
      -0.1244364008307457,
      0.049282051622867584,
      0.0215142872184515
    ],
    [
      0.26488766074180603,
      -0.06393653154373169,
      0.038734495639801025,
      0.08307686448097229,
      0.20785312354564667,
      -0.11130722612142563,
      0.053716760128736496,
      0.05726243183016777,
      -0.1278366893529892,
      0.13399873673915863,
      0.13312292098999023,
      0.07239478081464767,
      0.1693626195192337,
      -0.07810047268867493,
      -0.13349176943302155,
      -0.0014781418722122908,
      -0.04185781255364418,
      0.3357687294483185,
      0.10463424026966095,
      0.09210202842950821,
      -0.22268666326999664,
      0.08039133995771408,
      0.06133061647415161,
      -0.05502312257885933,
      -0.03340764716267586
    ],
    [
      0.20103172957897186,
      0.16221430897712708,
      0.23848995566368103,
      0.08884544670581818,
      0.25558751821517944,
      -0.2518376410007477,
      -0.08861514180898666,
      -0.05665548890829086,
      0.09307728707790375,
      -0.2458317130804062,
      0.09478455036878586,
      -0.0031678497325628996,
      0.06246494874358177,
      -0.28995004296302795,
      -0.04780646786093712,
      -0.14489465951919556,
      -0.027521051466464996,
      0.18925124406814575,
      -0.02832907997071743,
      -0.2435149848461151,
      -0.05834629014134407,
      0.09686274826526642,
      -0.1312400847673416,
      0.0009210060816258192,
      0.09803097695112228
    ],
    [
      0.06883329153060913,
      -0.047859013080596924,
      0.08612839877605438,
      -0.060375750064849854,
      -0.12388232350349426,
      0.029650550335645676,
      0.07729794085025787,
      0.058207206428050995,
      0.406261682510376,
      -0.04671783745288849,
      -0.1107986643910408,
      0.08389545232057571,
      0.10576341301202774,
      0.5450753569602966,
      -0.0107039175927639,
      -0.09801437705755234,
      0.17323939502239227,
      -0.10071886330842972,
      0.0067612831480801105,
      -0.05302469804883003,
      -0.008688312955200672,
      0.11431284993886948,
      0.08013536036014557,
      0.08814727514982224,
      -0.003275583265349269
    ],
    [
      -0.049240708351135254,
      0.11351155489683151,
      0.1429077833890915,
      -0.10702506452798843,
      -0.1689995378255844,
      0.11968254297971725,
      0.03130476549267769,
      0.054818931967020035,
      -0.12068295478820801,
      0.20727817714214325,
      -0.1958293914794922,
      0.07134142518043518,
      0.10165569931268692,
      -0.003605471458286047,
      0.1031746044754982,
      0.10493124276399612,
      -0.05018183961510658,
      0.3698873519897461,
      -0.37124136090278625,
      -0.15006831288337708,
      0.14953236281871796,
      -0.16587957739830017,
      -0.23210783302783966,
      0.03855084627866745,
      0.14238189160823822
    ],
    [
      0.14325150847434998,
      -0.03231365233659744,
      0.14423491060733795,
      -0.11327484995126724,
      -0.004927470814436674,
      0.21920013427734375,
      -0.04045862704515457,
      0.2666049003601074,
      0.17841310799121857,
      0.21023906767368317,
      -0.0036384426057338715,
      0.04756060987710953,
      -0.028681697323918343,
      -0.0999390184879303,
      0.029526302590966225,
      0.009189609438180923,
      0.15097260475158691,
      -0.04351404681801796,
      -0.08214602619409561,
      0.0986921489238739,
      -0.07388193905353546,
      -0.17175301909446716,
      -0.04096057638525963,
      0.1293671429157257,
      -0.004791296552866697
    ],
    [
      -0.05218588560819626,
      0.11141961812973022,
      -0.06226521357893944,
      0.08663271367549896,
      0.21743492782115936,
      0.0228403452783823,
      0.15923479199409485,
      0.041373372077941895,
      -0.0061325132846832275,
      -0.0036510031204670668,
      0.16347837448120117,
      0.21439142525196075,
      0.43200042843818665,
      -0.2422182708978653,
      0.01730184815824032,
      -0.058426618576049805,
      0.16263514757156372,
      0.30481523275375366,
      0.07065068930387497,
      0.003347893012687564,
      0.06944232434034348,
      0.04822305217385292,
      0.22200453281402588,
      0.33069539070129395,
      0.14057675004005432
    ],
    [
      0.09013473987579346,
      0.17965282499790192,
      -0.09462419897317886,
      0.1940157115459442,
      0.07107505947351456,
      0.0354207418859005,
      -0.09751817584037781,
      -0.19868731498718262,
      -0.1031327173113823,
      0.30441707372665405,
      0.021056484431028366,
      -0.10648639500141144,
      0.2651137709617615,
      -0.2376229465007782,
      -0.2282172441482544,
      0.13609378039836884,
      0.1423216462135315,
      -0.27741795778274536,
      -0.12526822090148926,
      -0.08746902644634247,
      -0.2001090794801712,
      -0.017895225435495377,
      -0.2516179084777832,
      -0.09137479960918427,
      0.035856105387210846
    ],
    [
      -0.23223665356636047,
      0.2610076367855072,
      0.008065023459494114,
      0.016009507700800896,
      -0.030592527240514755,
      0.25727754831314087,
      0.23076626658439636,
      0.18357284367084503,
      0.007767732720822096,
      -0.12303020805120468,
      0.04911750555038452,
      0.1946905106306076,
      0.06063442677259445,
      0.16313083469867706,
      0.05982939153909683,
      0.06734638661146164,
      0.03049411065876484,
      0.008101330138742924,
      -0.13414373993873596,
      -0.003851293120533228,
      0.05970326438546181,
      0.009997514076530933,
      0.14438167214393616,
      0.18486593663692474,
      0.024105271324515343
    ],
    [
      0.03983676806092262,
      0.08962388336658478,
      -0.12718120217323303,
      0.1090996190905571,
      -0.10161644220352173,
      0.15348942577838898,
      0.08454402536153793,
      -0.06164237856864929,
      0.04448004066944122,
      -0.06932225078344345,
      -0.08715558052062988,
      -0.1157500147819519,
      -0.11101744323968887,
      0.20054060220718384,
      0.31953972578048706,
      0.07818079739809036,
      0.09190534055233002,
      0.031311798840761185,
      0.0286580678075552,
      0.07223398983478546,
      -0.0013396750437095761,
      0.07970515638589859,
      0.08819247037172318,
      -0.06443977355957031,
      -0.09311169385910034
    ],
    [
      0.09249429404735565,
      -0.03412887454032898,
      0.05472567304968834,
      0.13499890267848969,
      0.18114738166332245,
      0.0675092339515686,
      -0.12288140505552292,
      -0.4954410493373871,
      0.3986711800098419,
      -0.03016706369817257,
      0.15412560105323792,
      -0.2605200707912445,
      -0.12799999117851257,
      0.47134163975715637,
      -0.0736602246761322,
      -0.036742180585861206,
      -0.06136089563369751,
      -0.030163733288645744,
      -0.0969812273979187,
      0.268559992313385,
      -0.05416492000222206,
      -0.06196865811944008,
      0.028535515069961548,
      -0.09863267838954926,
      -0.0044618952088057995
    ],
    [
      -0.10772821307182312,
      0.13847999274730682,
      0.11531741917133331,
      0.011624407023191452,
      0.05359277501702309,
      0.15865539014339447,
      0.43608754873275757,
      -0.0002608387148939073,
      0.24905377626419067,
      -0.04622412100434303,
      0.012335713021457195,
      -0.023835448548197746,
      -0.0587262287735939,
      0.13332539796829224,
      0.2574373483657837,
      0.08975332975387573,
      -0.022558879107236862,
      0.3212531805038452,
      -0.08730677515268326,
      0.020097719505429268,
      0.02938901074230671,
      0.0233851820230484,
      0.020336361601948738,
      -0.15738002955913544,
      0.06503915041685104
    ],
    [
      0.10513251274824142,
      0.07584226131439209,
      -0.15865151584148407,
      0.23243626952171326,
      -0.09175583720207214,
      0.012444313615560532,
      -0.0866854339838028,
      0.41450250148773193,
      -0.4605834484100342,
      0.04199932515621185,
      0.00396668491885066,
      0.10566844791173935,
      0.32204726338386536,
      -0.13451696932315826,
      -0.08293680101633072,
      -0.013117065653204918,
      0.1832541525363922,
      -0.07529556751251221,
      -0.1801222860813141,
      -0.05285164341330528,
      -0.20434792339801788,
      -0.037736766040325165,
      0.09402824938297272,
      -0.06539168208837509,
      -0.07383320480585098
    ],
    [
      0.1626514047384262,
      0.1756860911846161,
      0.06408027559518814,
      -0.12296758592128754,
      -0.01418622862547636,
      0.15903179347515106,
      -0.004323421511799097,
      0.11128734797239304,
      0.15510502457618713,
      0.0295809805393219,
      0.13576215505599976,
      0.22993691265583038,
      -0.004428372718393803,
      -0.05531629920005798,
      0.19208751618862152,
      0.06185939908027649,
      0.12109611928462982,
      0.23639626801013947,
      -0.23651981353759766,
      -0.011422361247241497,
      -0.07990345358848572,
      -0.16531464457511902,
      -0.18408678472042084,
      -0.004861898720264435,
      -0.10036303848028183
    ],
    [
      0.02190825529396534,
      -0.09085621684789658,
      -0.03827941417694092,
      0.14002999663352966,
      0.3840799629688263,
      -0.2656700611114502,
      -0.0800730437040329,
      -0.22174248099327087,
      0.24053573608398438,
      -0.04454447701573372,
      -0.04504930600523949,
      0.12310858815908432,
      -0.09065839648246765,
      0.2832232415676117,
      -0.10004698485136032,
      0.1971721053123474,
      0.246890589594841,
      -0.07673482596874237,
      -0.03229453042149544,
      0.08332379907369614,
      0.12185077369213104,
      0.1077607199549675,
      -0.24564631283283234,
      -0.162938192486763,
      -0.027711423113942146
    ],
    [
      -0.08691825717687607,
      0.1328660249710083,
      0.041489556431770325,
      0.038100466132164,
      -0.0558781698346138,
      0.20706011354923248,
      -0.21094883978366852,
      -0.02275877632200718,
      -0.09440682828426361,
      0.136215478181839,
      -0.23923414945602417,
      0.1393945813179016,
      0.05653047189116478,
      0.1195453405380249,
      0.013452466577291489,
      -0.08948489278554916,
      -0.04575837776064873,
      0.1492924988269806,
      -0.05946214124560356,
      0.014417196623980999,
      0.08595271408557892,
      0.2279369980096817,
      -0.07019546627998352,
      0.1418241560459137,
      0.008940538391470909
    ],
    [
      0.1268337368965149,
      0.027948934584856033,
      0.005013023503124714,
      0.19925785064697266,
      0.0683273896574974,
      -0.23625095188617706,
      -0.15162652730941772,
      0.17544522881507874,
      -0.14257189631462097,
      -0.20446573197841644,
      -0.06334526836872101,
      0.002799984300509095,
      0.11446598917245865,
      -0.18413129448890686,
      -0.11732746660709381,
      0.20347613096237183,
      -0.023242315277457237,
      -0.15191519260406494,
      -0.1492379754781723,
      0.04487847164273262,
      -0.19403454661369324,
      0.042201679199934006,
      0.027671795338392258,
      0.05498508736491203,
      -0.15980882942676544
    ],
    [
      -0.15896429121494293,
      -0.09417908638715744,
      0.048061713576316833,
      0.13811235129833221,
      -0.2895374894142151,
      -0.10154515504837036,
      -0.24377363920211792,
      0.5345101356506348,
      -0.055469293147325516,
      0.10762300342321396,
      0.053220611065626144,
      0.13819988071918488,
      -0.10278475284576416,
      -0.1306227296590805,
      0.17884208261966705,
      -0.04101511463522911,
      0.0826239287853241,
      0.25626641511917114,
      -0.061658408492803574,
      0.008448422886431217,
      -0.2593194246292114,
      0.03421206772327423,
      0.21171581745147705,
      0.11876165121793747,
      0.0695725530385971
    ],
    [
      0.21579387784004211,
      0.10000535100698471,
      -0.08481640368700027,
      0.06906452029943466,
      0.07172086834907532,
      0.09493646025657654,
      0.05940568074584007,
      0.14459775388240814,
      0.03998888283967972,
      0.03926849737763405,
      0.16103821992874146,
      0.29384860396385193,
      0.14437806606292725,
      -0.12712597846984863,
      -0.0776006355881691,
      0.15524186193943024,
      -0.0319882296025753,
      -0.3036671578884125,
      0.09504406899213791,
      0.2330082803964615,
      0.0694005936384201,
      -0.220100536942482,
      -0.04549336060881615,
      0.009891796857118607,
      0.16354282200336456
    ],
    [
      -0.007186635863035917,
      -0.07021237164735794,
      0.1162526085972786,
      0.014371133409440517,
      -0.11815106868743896,
      0.03994207829236984,
      -0.310840368270874,
      0.15899702906608582,
      0.0692858174443245,
      -0.11520139127969742,
      -0.02103385515511036,
      0.08442649990320206,
      -0.03580412268638611,
      0.3168589472770691,
      -0.1278667151927948,
      0.045269522815942764,
      -0.058225229382514954,
      -0.03692236915230751,
      0.026193207129836082,
      0.16188625991344452,
      0.2560350298881531,
      0.16692803800106049,
      -0.14657194912433624,
      0.15518665313720703,
      -0.026834644377231598
    ],
    [
      0.16001707315444946,
      -0.06770512461662292,
      -0.04498159885406494,
      0.1223318800330162,
      0.021233104169368744,
      -0.13616149127483368,
      0.08602737635374069,
      0.22488310933113098,
      0.1416431963443756,
      -0.03634519875049591,
      0.10525404661893845,
      0.07668055593967438,
      0.13855195045471191,
      0.23259052634239197,
      -0.1746290624141693,
      0.0030245662201195955,
      0.31814002990722656,
      -0.19068990647792816,
      -0.33174198865890503,
      0.15957216918468475,
      -0.06377536058425903,
      -0.013695711269974709,
      -0.0046094912104308605,
      0.1730753630399704,
      0.037111442536115646
    ],
    [
      0.16852964460849762,
      0.045574769377708435,
      -0.033466096967458725,
      0.12494676560163498,
      0.38553449511528015,
      -0.10484873503446579,
      -0.04837937280535698,
      -0.0342523455619812,
      0.08802016079425812,
      0.05877740681171417,
      -0.04130508005619049,
      0.02128751203417778,
      0.0960087925195694,
      -0.12340513616800308,
      -0.129872128367424,
      -0.06787022203207016,
      0.06131928414106369,
      0.1727904975414276,
      0.006458017975091934,
      -0.10375870764255524,
      -0.10646523535251617,
      0.10531208664178848,
      0.11421012133359909,
      0.2183830738067627,
      -0.023706184700131416
    ],
    [
      0.23009590804576874,
      0.022622494027018547,
      0.19245748221874237,
      -0.1420242339372635,
      0.2450399547815323,
      -0.1144990548491478,
      -0.14484591782093048,
      -0.20618318021297455,
      0.32904547452926636,
      0.04096098989248276,
      0.18908089399337769,
      -0.13287453353405,
      0.04284272342920303,
      0.33999496698379517,
      -0.09562958031892776,
      0.09809291362762451,
      -0.04274973273277283,
      -0.02880219742655754,
      -0.03265086188912392,
      -0.06326855719089508,
      0.3491012752056122,
      -0.0884631872177124,
      -0.007416822481900454,
      -0.03397984802722931,
      -0.06517135351896286
    ],
    [
      -0.02176090143620968,
      0.06489413976669312,
      0.14843103289604187,
      -0.03996466100215912,
      -0.2057792991399765,
      -0.030990593135356903,
      0.07128952443599701,
      0.0076187714003026485,
      0.009728147648274899,
      0.16113615036010742,
      0.06930091232061386,
      0.04582895711064339,
      0.029850181192159653,
      -0.09355314821004868,
      -0.11994410306215286,
      0.28945282101631165,
      0.057573352009058,
      -0.2703598737716675,
      -0.14164288341999054,
      0.09332341700792313,
      -0.1212199479341507,
      0.17520467936992645,
      0.09029071033000946,
      0.11906622350215912,
      -0.06239640712738037
    ],
    [
      0.13204164803028107,
      0.11200878769159317,
      0.13122433423995972,
      0.014291576109826565,
      0.4191186726093292,
      0.06637703627347946,
      -0.13082289695739746,
      0.052014000713825226,
      0.0630805566906929,
      -0.008458442986011505,
      0.25162822008132935,
      0.18507833778858185,
      -0.1365671008825302,
      -0.21629124879837036,
      -0.15617810189723969,
      -0.14092817902565002,
      0.20856809616088867,
      -0.07768584787845612,
      0.08174494653940201,
      0.418695330619812,
      0.03384825214743614,
      0.00017271778779104352,
      -0.2508549988269806,
      0.03241047263145447,
      -0.12319198995828629
    ],
    [
      -0.10249277949333191,
      0.00989433005452156,
      0.09319327026605606,
      -0.03991030901670456,
      0.4456460475921631,
      -0.07494738698005676,
      -0.1063106432557106,
      -0.3084884583950043,
      0.15498149394989014,
      0.08767693489789963,
      -0.22488871216773987,
      0.0023733105044811964,
      0.03317231684923172,
      0.06132590025663376,
      0.05123165249824524,
      0.06715740263462067,
      0.06900641322135925,
      0.04606783017516136,
      -0.061807867139577866,
      -0.09475090354681015,
      -0.06654798984527588,
      -0.014515687711536884,
      0.01651361770927906,
      -0.07809509336948395,
      -0.12512779235839844
    ],
    [
      -0.10142575204372406,
      0.05460457503795624,
      -0.04136655107140541,
      0.14339427649974823,
      0.12212322652339935,
      0.13615794479846954,
      0.19796651601791382,
      -0.09660573303699493,
      0.08221641182899475,
      0.02733783796429634,
      0.19477403163909912,
      0.202474907040596,
      0.09283124655485153,
      -0.2046610713005066,
      0.21996299922466278,
      0.052390262484550476,
      -0.13938334584236145,
      0.4319446086883545,
      -0.07161829620599747,
      0.26426830887794495,
      0.2769854664802551,
      0.004883313085883856,
      -0.2127237170934677,
      0.10708628594875336,
      0.007813221774995327
    ],
    [
      0.02087981067597866,
      -0.09687890112400055,
      0.012989236041903496,
      0.14409485459327698,
      -0.4092850089073181,
      0.028982754796743393,
      0.06008944287896156,
      0.31412044167518616,
      0.19387294352054596,
      -0.08995573222637177,
      0.03283106908202171,
      -0.2143235206604004,
      0.11171933263540268,
      0.1924000382423401,
      -0.14117740094661713,
      -0.043262895196676254,
      0.3279450535774231,
      0.03611452132463455,
      -0.1413922905921936,
      -0.05794493854045868,
      -0.0003928689693566412,
      -0.0037604346871376038,
      -0.0842241495847702,
      -0.012096517719328403,
      0.05715913325548172
    ],
    [
      0.1379622370004654,
      0.25765252113342285,
      0.07210744172334671,
      0.11112228035926819,
      -0.3099801540374756,
      0.22459493577480316,
      -0.2624550461769104,
      0.014437914825975895,
      -0.1972200870513916,
      0.14683280885219574,
      0.2155725657939911,
      0.22221745550632477,
      0.12337857484817505,
      -0.14318180084228516,
      -0.09968604892492294,
      0.034696370363235474,
      0.07639633119106293,
      -0.08947142958641052,
      0.26323336362838745,
      -0.12766188383102417,
      0.15671226382255554,
      0.048033587634563446,
      0.12882328033447266,
      0.16796410083770752,
      0.13975933194160461
    ],
    [
      -0.023793043568730354,
      0.04732877388596535,
      0.09519901871681213,
      -0.04271882399916649,
      -0.018925514072179794,
      0.26642727851867676,
      -0.10172213613986969,
      0.152371346950531,
      -0.06041411682963371,
      0.17013949155807495,
      0.07713761180639267,
      -0.10379010438919067,
      -0.11011900752782822,
      -0.028488464653491974,
      0.03899482265114784,
      -0.002793576568365097,
      -0.01330807339400053,
      0.057170622050762177,
      0.1664557158946991,
      0.02505909837782383,
      -0.1617978811264038,
      0.18364620208740234,
      -0.09732303768396378,
      0.0616825707256794,
      -0.017854515463113785
    ],
    [
      -0.15405431389808655,
      -0.009337865747511387,
      -0.10695929080247879,
      0.07812095433473587,
      -0.1541689932346344,
      -0.034321386367082596,
      0.04723401740193367,
      -0.03921421244740486,
      0.08235225826501846,
      0.13943523168563843,
      -0.23366132378578186,
      0.3270801305770874,
      -0.11428792774677277,
      -0.028577886521816254,
      0.09581504762172699,
      0.1678408831357956,
      0.10278674960136414,
      -0.03812909498810768,
      -0.03122776933014393,
      0.03501458466053009,
      0.2694803476333618,
      -0.019245214760303497,
      -0.07415305078029633,
      -0.0324205681681633,
      0.1451159119606018
    ],
    [
      0.13012245297431946,
      0.06690791249275208,
      0.01250658929347992,
      -0.13359446823596954,
      0.03687376528978348,
      0.22388644516468048,
      0.3007053732872009,
      0.23770344257354736,
      0.03596566244959831,
      0.03739038482308388,
      0.004049606621265411,
      0.07881273329257965,
      0.007186001166701317,
      0.08256880193948746,
      -0.04506944864988327,
      0.15708507597446442,
      0.05855727195739746,
      -0.03696148842573166,
      0.15439017117023468,
      0.07104300707578659,
      -0.02738337405025959,
      0.11465014517307281,
      -0.05831205099821091,
      0.13877259194850922,
      -0.22332708537578583
    ],
    [
      -0.0041269646026194096,
      -0.053282253444194794,
      0.1612122505903244,
      0.21736858785152435,
      -0.3233659863471985,
      0.01489234995096922,
      0.07733330875635147,
      0.534126877784729,
      -0.09800434112548828,
      -0.040151361376047134,
      -0.06601590663194656,
      0.08067605644464493,
      -0.03327661007642746,
      -0.10793300718069077,
      0.16852259635925293,
      -0.05612737312912941,
      -0.17619505524635315,
      0.10386074334383011,
      -0.08080332726240158,
      0.005014390684664249,
      -0.07754670083522797,
      0.014424044638872147,
      -0.039011288434267044,
      -0.24900047481060028,
      0.2313082218170166
    ],
    [
      -0.16892167925834656,
      -0.04835323989391327,
      0.14233799278736115,
      0.11682382971048355,
      -0.06678222864866257,
      -0.1415371149778366,
      0.05099686607718468,
      -0.06194337084889412,
      0.051333267241716385,
      -0.14374996721744537,
      -0.09560919553041458,
      -0.3236420154571533,
      0.027501804754137993,
      -0.2716951072216034,
      -0.18043659627437592,
      0.04260870814323425,
      -0.18665742874145508,
      0.08671477437019348,
      0.09129347652196884,
      0.06240752339363098,
      -0.10664534568786621,
      -0.24019424617290497,
      -0.16664324700832367,
      0.1147417277097702,
      -0.06744034588336945
    ],
    [
      0.1997469663619995,
      -0.008627457544207573,
      0.045786935836076736,
      0.09652778506278992,
      0.5914888978004456,
      -0.01161112729460001,
      0.10611492395401001,
      -0.1748649924993515,
      -0.11542317271232605,
      0.13605789840221405,
      -0.02265135757625103,
      0.013007447123527527,
      0.11845237761735916,
      -0.14365550875663757,
      -0.20557111501693726,
      -0.1173882856965065,
      0.026616910472512245,
      -0.09405365586280823,
      -0.2993285655975342,
      0.1261962503194809,
      0.159205824136734,
      -0.1526993364095688,
      -0.008109076879918575,
      -0.021677356213331223,
      -0.0871482789516449
    ],
    [
      0.22423747181892395,
      -0.060391563922166824,
      0.07794594764709473,
      -0.03985528647899628,
      0.4653705060482025,
      -0.3328302204608917,
      -0.3595546782016754,
      -0.1354438215494156,
      -0.27514034509658813,
      0.05572164058685303,
      0.1245933547616005,
      0.05729597061872482,
      -0.036877334117889404,
      0.08733025193214417,
      0.0020095689687877893,
      0.04564474895596504,
      0.11421274393796921,
      -0.014739126898348331,
      0.07503553479909897,
      0.052363522350788116,
      -0.008550248108804226,
      0.10539253056049347,
      0.06298176199197769,
      0.09137269854545593,
      0.10674972832202911
    ],
    [
      -0.07630514353513718,
      0.07721496373414993,
      0.10242863744497299,
      0.13217692077159882,
      -0.35279759764671326,
      0.041909024119377136,
      -0.15393950045108795,
      0.6036128401756287,
      0.09679842740297318,
      0.19226230680942535,
      0.10074702650308609,
      0.06339534372091293,
      0.1463635414838791,
      0.2708519697189331,
      -0.1259799748659134,
      0.0980999544262886,
      -0.19320541620254517,
      -0.16504673659801483,
      -0.07965536415576935,
      -0.03539213538169861,
      0.09192422777414322,
      0.21527265012264252,
      -0.24107983708381653,
      -0.03685900568962097,
      -0.06879601627588272
    ],
    [
      0.09282275289297104,
      -0.0029491628520190716,
      0.010448386892676353,
      0.14147980511188507,
      0.16066481173038483,
      0.006927856244146824,
      0.42867639660835266,
      -0.12025988847017288,
      -0.2311077117919922,
      -0.03364239260554314,
      -0.10242287069559097,
      -0.012104164808988571,
      0.08372242748737335,
      -0.06527148187160492,
      0.3248519003391266,
      0.04957693815231323,
      -0.1588718593120575,
      0.29476940631866455,
      -0.04636487737298012,
      -0.11913852393627167,
      0.02613893710076809,
      -0.07573961466550827,
      -0.12505649030208588,
      0.08930983394384384,
      -0.09900769591331482
    ],
    [
      0.02079370617866516,
      -0.11513286828994751,
      -0.03838634118437767,
      0.1402399241924286,
      0.1632189154624939,
      -0.03419164940714836,
      0.17543886601924896,
      -0.010628992691636086,
      0.12947683036327362,
      0.07304669171571732,
      -0.02334749326109886,
      0.06861845403909683,
      -0.06308451294898987,
      -0.0828370526432991,
      0.4638466536998749,
      0.12517598271369934,
      -0.036568254232406616,
      0.3801611661911011,
      -0.24601058661937714,
      0.0544586144387722,
      -0.0190473310649395,
      -0.08320087939500809,
      -0.01856745220720768,
      -0.06381051242351532,
      -0.08156874030828476
    ],
    [
      -0.14498935639858246,
      0.23337076604366302,
      -0.10349313914775848,
      0.006185508333146572,
      0.08982835710048676,
      0.000299754086881876,
      0.01929948478937149,
      -0.012816052883863449,
      0.13214895129203796,
      0.12918874621391296,
      -0.06328991800546646,
      -0.09628763049840927,
      -0.05762225762009621,
      0.31319549679756165,
      0.0733567401766777,
      0.1087392270565033,
      0.17087732255458832,
      -0.019014965742826462,
      -0.14920750260353088,
      0.04352409020066261,
      0.016921933740377426,
      -0.05640876665711403,
      0.017172453925013542,
      0.01127428188920021,
      -0.09109967201948166
    ],
    [
      0.29260411858558655,
      0.11744344979524612,
      -0.050664689391851425,
      -0.08391361683607101,
      0.1501990258693695,
      0.17493189871311188,
      -0.07287608087062836,
      0.13688766956329346,
      -0.18574079871177673,
      0.06926987320184708,
      -0.20139871537685394,
      0.2838028073310852,
      0.005462359637022018,
      -0.057449501007795334,
      0.12599889934062958,
      0.15411515533924103,
      0.0670875757932663,
      0.5040898323059082,
      0.08259217441082001,
      -0.019560132175683975,
      0.012184619903564453,
      0.07372317463159561,
      -0.039105355739593506,
      0.053817588835954666,
      -0.03526221588253975
    ],
    [
      -0.018521972000598907,
      0.12079191207885742,
      -0.030091091990470886,
      0.07089301943778992,
      0.0416048988699913,
      0.09048725664615631,
      -0.04726216197013855,
      -0.2047940343618393,
      0.18582861125469208,
      0.028129708021879196,
      0.08915728330612183,
      -0.09843150526285172,
      0.2588021159172058,
      0.3598160147666931,
      0.04188312590122223,
      -0.05231482535600662,
      0.13129262626171112,
      -0.23755250871181488,
      -0.06524322926998138,
      0.16026075184345245,
      -0.12186070531606674,
      -0.06423837691545486,
      -0.20833875238895416,
      0.008014008402824402,
      0.0885024145245552
    ],
    [
      -0.019309792667627335,
      -0.05096492916345596,
      0.08051083236932755,
      0.11906995624303818,
      0.04245876520872116,
      0.15103527903556824,
      -0.10736793279647827,
      0.051445502787828445,
      0.08666014671325684,
      0.1781669706106186,
      0.12879502773284912,
      0.1643982082605362,
      0.10408839583396912,
      -0.09951180964708328,
      -0.040697697550058365,
      0.23451034724712372,
      0.14136499166488647,
      -0.37967079877853394,
      0.029723145067691803,
      -0.11563605070114136,
      0.18712960183620453,
      -0.2787635624408722,
      0.258289635181427,
      -0.17826344072818756,
      -0.19211344420909882
    ],
    [
      0.1768641471862793,
      0.049215830862522125,
      -0.10792191326618195,
      0.034634124487638474,
      -0.19028055667877197,
      0.27083659172058105,
      0.16571086645126343,
      0.10630936175584793,
      -0.0254144836217165,
      0.04581770300865173,
      -0.07263443619012833,
      0.1345086693763733,
      0.02196427248418331,
      0.008025356568396091,
      0.10447105020284653,
      0.23310759663581848,
      0.10529105365276337,
      0.10032821446657181,
      0.04556988179683685,
      -0.003398725762963295,
      -0.10593966394662857,
      0.19653891026973724,
      -0.13591104745864868,
      -0.11145877093076706,
      0.04387707635760307
    ],
    [
      0.013292348012328148,
      -0.057767800986766815,
      0.03176666051149368,
      0.024159176275134087,
      -0.32131683826446533,
      0.1056794673204422,
      -0.1502215564250946,
      0.1497955471277237,
      0.42470306158065796,
      0.07308170944452286,
      0.08513157814741135,
      0.21788476407527924,
      0.06835766136646271,
      0.18662674725055695,
      -0.16396506130695343,
      -0.0706222802400589,
      0.08460956811904907,
      -0.15860803425312042,
      -0.2171424776315689,
      -0.20133934915065765,
      -0.04311514273285866,
      0.1109790951013565,
      0.007138324901461601,
      0.028565984219312668,
      -0.2734505236148834
    ],
    [
      0.028874097391963005,
      0.26781076192855835,
      0.06625562906265259,
      -0.03840598091483116,
      -0.04757365584373474,
      0.16678328812122345,
      0.14283150434494019,
      0.09059471637010574,
      -0.00754014914855361,
      0.14053943753242493,
      -0.15869304537773132,
      0.3742852509021759,
      0.11681393533945084,
      -0.0757228285074234,
      -0.03306424990296364,
      0.022524066269397736,
      -0.13600748777389526,
      -0.12919354438781738,
      -0.09041552245616913,
      0.035925619304180145,
      -0.09383278340101242,
      -0.0027278519701212645,
      0.0465257354080677,
      -0.07380321621894836,
      -0.23829486966133118
    ],
    [
      0.13576599955558777,
      -0.11964261531829834,
      0.17206497490406036,
      -0.051616113632917404,
      -0.2805943191051483,
      0.16345368325710297,
      -0.06982910633087158,
      0.19618143141269684,
      -0.089102603495121,
      0.28340423107147217,
      0.054341863840818405,
      0.16126926243305206,
      0.15360918641090393,
      -0.1385287046432495,
      -0.17629161477088928,
      0.20234915614128113,
      -0.04070700705051422,
      -0.15889136493206024,
      -0.034867506474256516,
      0.0031549325212836266,
      -0.08875101804733276,
      -0.0077575924806296825,
      0.13660548627376556,
      -0.0017298818565905094,
      -0.03755071386694908
    ],
    [
      0.11831483989953995,
      -0.0344846211373806,
      0.0583130344748497,
      0.019361482933163643,
      -0.10072414577007294,
      0.17262201011180878,
      0.23737914860248566,
      -0.050611235201358795,
      -0.0896197035908699,
      -0.09917524456977844,
      0.05865958705544472,
      -0.03055986389517784,
      -0.09098872542381287,
      0.030519604682922363,
      0.05075899884104729,
      0.20542411506175995,
      0.0583924762904644,
      0.2873682677745819,
      -0.05638962239027023,
      0.08608469367027283,
      0.07856319099664688,
      -0.07232896238565445,
      -0.16002805531024933,
      -0.12529048323631287,
      0.0919746458530426
    ],
    [
      -0.1267528384923935,
      0.09756916016340256,
      0.16702157258987427,
      -0.07484876364469528,
      -0.09690754860639572,
      0.1779414266347885,
      -0.38104012608528137,
      0.3019128143787384,
      0.19660145044326782,
      -0.22980494797229767,
      -0.10535525530576706,
      -0.12607619166374207,
      -0.014383923262357712,
      0.31130629777908325,
      -0.1225954219698906,
      0.06076516956090927,
      0.030501889064908028,
      -0.07858738303184509,
      0.054887354373931885,
      0.03361641243100166,
      -0.24832844734191895,
      -0.08225038647651672,
      -0.08413232117891312,
      -0.08144906163215637,
      0.08325816690921783
    ],
    [
      -0.04729360342025757,
      -0.045947227627038956,
      0.11211232841014862,
      -0.08434604108333588,
      -0.05777536705136299,
      0.0710587203502655,
      -0.1493186503648758,
      0.3349890112876892,
      -0.07312611490488052,
      0.16210860013961792,
      -0.05168217048048973,
      0.3119196593761444,
      0.10575728118419647,
      0.23395738005638123,
      -0.04935574531555176,
      -0.03686128184199333,
      0.26520371437072754,
      -0.03787611797451973,
      0.029949650168418884,
      -0.0020360671915113926,
      -0.1049690842628479,
      -0.07723429054021835,
      0.14366602897644043,
      -0.17761707305908203,
      0.03903327137231827
    ],
    [
      0.0614246129989624,
      0.1741112321615219,
      0.12376920878887177,
      -0.12228228151798248,
      0.1417311728000641,
      0.16202136874198914,
      -0.041486892849206924,
      0.006731752771884203,
      -0.012200758792459965,
      0.15219731628894806,
      0.003751362906768918,
      0.037153203040361404,
      0.08739055693149567,
      0.3114464282989502,
      0.004254363477230072,
      -0.038922931998968124,
      -0.15102389454841614,
      0.07448749244213104,
      0.07065512984991074,
      0.11131791025400162,
      -0.14184431731700897,
      -0.05956913158297539,
      -0.025713419541716576,
      -0.055036112666130066,
      0.032291002571582794
    ],
    [
      0.16516172885894775,
      0.3095044195652008,
      0.11376665532588959,
      -0.0711587592959404,
      -0.08715502917766571,
      0.021096566691994667,
      0.024613097310066223,
      0.3751004934310913,
      -0.023585354909300804,
      -0.047768883407115936,
      -0.0021446049213409424,
      -0.011247131042182446,
      0.07062916457653046,
      -0.04287910833954811,
      -0.049624066799879074,
      0.3206779956817627,
      -0.013230365701019764,
      -0.13380271196365356,
      0.016760200262069702,
      -0.07873820513486862,
      -0.06470435112714767,
      0.26565101742744446,
      0.26606065034866333,
      0.05202293023467064,
      -0.016214663162827492
    ],
    [
      0.014650349505245686,
      -0.13781332969665527,
      0.08489739149808884,
      0.07858631759881973,
      0.4015294015407562,
      -0.010785836726427078,
      -0.08144713193178177,
      -0.5331779718399048,
      0.003958838526159525,
      -0.013422148302197456,
      -0.007593098562210798,
      0.19055728614330292,
      0.041027382016181946,
      -0.1659349501132965,
      -0.1779719442129135,
      -0.1315012276172638,
      0.07492869347333908,
      -0.13536442816257477,
      0.056022096425294876,
      0.17354141175746918,
      -0.1751924455165863,
      -0.11682581156492233,
      0.03886912763118744,
      -0.03269340470433235,
      0.11168590933084488
    ],
    [
      -0.03901263326406479,
      0.0975073054432869,
      -0.015237989835441113,
      -0.04675464704632759,
      0.15429982542991638,
      -0.08602307736873627,
      0.0997319296002388,
      0.1645740568637848,
      0.08265043050050735,
      0.09823612123727798,
      0.132437601685524,
      0.03720772638916969,
      0.018517648801207542,
      -0.14275439083576202,
      -0.10940933227539062,
      0.14627686142921448,
      0.14056606590747833,
      0.08926209062337875,
      0.10491528362035751,
      0.06997893005609512,
      0.013649169355630875,
      0.208992600440979,
      -0.06321496516466141,
      -0.01591191254556179,
      0.1685342788696289
    ],
    [
      -0.013397984206676483,
      0.3224133849143982,
      0.004398374352604151,
      -0.05471855029463768,
      -0.17182186245918274,
      -0.06278833001852036,
      0.027916327118873596,
      0.4117234945297241,
      0.03645901381969452,
      -0.0033767905551940203,
      -0.1526539921760559,
      0.22989708185195923,
      0.25202444195747375,
      0.02509346604347229,
      -0.05838390067219734,
      0.050766218453645706,
      0.3954821527004242,
      0.47497114539146423,
      0.08276019990444183,
      0.006888739764690399,
      -0.11410566419363022,
      0.12098827213048935,
      -0.2447802871465683,
      -0.11577577143907547,
      -0.08958359062671661
    ],
    [
      0.10802608728408813,
      0.10335218906402588,
      0.048828743398189545,
      0.006777370814234018,
      0.012873893603682518,
      0.17827166616916656,
      -0.044770460575819016,
      0.16658136248588562,
      -0.17406027019023895,
      0.0051826355047523975,
      0.07087916135787964,
      0.09482952952384949,
      0.08832202851772308,
      -0.09611605852842331,
      -0.017635973170399666,
      -0.03768511489033699,
      0.07798377424478531,
      0.3894961178302765,
      -0.025016911327838898,
      0.06050682067871094,
      0.015545664355158806,
      -0.1941739022731781,
      -0.04550867900252342,
      0.025619979947805405,
      -0.03554335981607437
    ],
    [
      0.3499721884727478,
      0.04410684481263161,
      -0.19719290733337402,
      0.035365644842386246,
      0.2546892464160919,
      0.2172386795282364,
      -0.1782769113779068,
      0.25244900584220886,
      0.18033835291862488,
      0.06824073195457458,
      0.16461946070194244,
      0.05491519719362259,
      -0.022421857342123985,
      0.05833093076944351,
      0.09828819334506989,
      0.35340943932533264,
      0.1709962785243988,
      0.2841428518295288,
      -0.01975555531680584,
      -0.06579674780368805,
      0.04464457184076309,
      -0.0223800390958786,
      0.048258110880851746,
      -0.04488473758101463,
      0.036784861236810684
    ],
    [
      0.2535697817802429,
      0.13519611954689026,
      -0.24217651784420013,
      0.10005272924900055,
      -0.19411708414554596,
      0.039739880710840225,
      0.08528424799442291,
      0.32996320724487305,
      -0.023484094068408012,
      0.11067820340394974,
      -0.0894225537776947,
      0.027989450842142105,
      0.1064174473285675,
      0.04110223799943924,
      -0.04631450027227402,
      0.07331809401512146,
      0.2095596045255661,
      -0.05382952466607094,
      -0.007727297022938728,
      0.07243674993515015,
      -0.04644845426082611,
      0.01804102212190628,
      -0.02869541011750698,
      -0.18604859709739685,
      -0.09494083374738693
    ]
  ],
  "fc1.bias": [
    0.029907194897532463,
    -0.036575399339199066,
    -0.021521037444472313,
    0.048683907836675644,
    0.06271415948867798,
    -0.015947964042425156,
    -0.029172316193580627,
    0.015394696034491062,
    -0.014912166632711887,
    -0.009435833431780338,
    0.051177896559238434,
    0.07221433520317078,
    -0.01782960072159767,
    -0.0459320992231369,
    -0.014970819465816021,
    -0.03213260695338249,
    0.15558916330337524,
    0.04110004007816315,
    -0.008397940546274185,
    0.0801306888461113,
    0.10227110981941223,
    0.08718530088663101,
    0.06990738213062286,
    0.04798411577939987,
    0.0483451709151268,
    0.038865529000759125,
    -0.07783034443855286,
    -0.028870023787021637,
    0.024395015090703964,
    -0.012360915541648865,
    0.06444622576236725,
    0.03806643933057785,
    -0.021335843950510025,
    0.03208474442362785,
    0.05312670022249222,
    0.0604962594807148,
    0.05489600822329521,
    0.06762197613716125,
    0.00022689945762977004,
    0.06807322800159454,
    0.037917040288448334,
    0.0022175332996994257,
    0.01638580486178398,
    0.059488046914339066,
    0.04693243280053139,
    0.05923652648925781,
    0.05932173877954483,
    0.053979769349098206,
    0.06782959401607513,
    0.11022504419088364,
    -0.040915559977293015,
    -0.04567765071988106,
    0.06707155704498291,
    0.015449182130396366,
    0.05458252131938934,
    0.188449427485466,
    0.035623908042907715,
    0.058334458619356155,
    -0.05448749661445618,
    0.10306774824857712,
    0.07583732157945633,
    0.025500327348709106,
    0.12380267679691315,
    -0.029353328049182892,
    0.003262193873524666,
    -0.02994219772517681,
    0.07230699062347412,
    0.06585829704999924,
    0.02083873562514782,
    0.06281057000160217,
    0.07253819704055786,
    0.11704957485198975,
    0.05829942226409912,
    0.09411986172199249,
    0.1149010881781578,
    0.004403026774525642,
    0.1486700028181076,
    0.0552590973675251,
    -0.006837804336100817,
    0.05768987536430359,
    0.029569581151008606,
    0.02493891678750515,
    0.05554920807480812,
    -0.008361836895346642,
    0.02326754853129387,
    0.008884687907993793,
    0.04471326619386673,
    0.03661464527249336,
    0.1571786105632782,
    0.04135078936815262,
    0.039175763726234436,
    0.09732963889837265,
    0.0034658608492463827,
    0.016214611008763313,
    0.06414488703012466,
    0.040461465716362,
    0.06739684194326401,
    0.0570368655025959,
    0.06177468225359917,
    0.0394638366997242,
    0.054765086621046066,
    -0.006480163428932428,
    -0.042273618280887604,
    -0.009540705941617489,
    0.0636761486530304,
    0.036133550107479095,
    0.03155391663312912,
    0.043978944420814514,
    0.07225735485553741,
    0.037181705236434937,
    0.1791766881942749,
    0.08036337047815323,
    0.010898884385824203,
    0.09504972398281097,
    0.031538475304841995,
    0.120207279920578,
    0.08478213846683502,
    -0.02109183371067047,
    -0.01048436388373375,
    0.0030046841129660606,
    0.05539383739233017,
    0.04986846446990967,
    0.028813619166612625,
    0.08914010226726532,
    0.08872302621603012,
    0.16707772016525269,
    0.16096900403499603,
    0.09334898740053177
  ],
  "fc2.weight": [
    [
      0.11728987097740173,
      -0.1344624012708664,
      -0.00951779168099165,
      0.1563616544008255,
      0.31088942289352417,
      -0.17683669924736023,
      -0.06730738282203674,
      0.2888256907463074,
      0.31962311267852783,
      0.20227329432964325,
      0.14866681396961212,
      0.28601768612861633,
      0.002681196201592684,
      -0.018154574558138847,
      0.14731799066066742,
      -0.3508269488811493,
      0.05157572776079178,
      -0.02337777614593506,
      0.04665025323629379,
      -0.06743426620960236,
      -0.0992053672671318,
      -0.304889440536499,
      -0.235929474234581,
      0.019405458122491837,
      -0.10710880905389786,
      0.11271030455827713,
      0.04507433623075485,
      0.17736847698688507,
      -0.011602343991398811,
      0.13105508685112,
      -0.0034008368384093046,
      0.06639467179775238,
      -0.08364987373352051,
      -0.12047937512397766,
      -0.025880521163344383,
      0.03866513818502426,
      0.08626309037208557,
      -0.2453642040491104,
      -0.005220077000558376,
      -0.04242126643657684,
      -0.20493240654468536,
      0.015157531015574932,
      -0.2369760423898697,
      -0.15831604599952698,
      0.06784875690937042,
      0.04692738503217697,
      0.048365525901317596,
      0.2443099021911621,
      0.18497182428836823,
      0.05280198156833649,
      -0.032709576189517975,
      0.18400076031684875,
      -0.1090175062417984,
      -0.10506438463926315,
      -0.18795698881149292,
      0.13358855247497559,
      0.11876242607831955,
      -0.12315723299980164,
      0.2824580669403076,
      -0.2075284719467163,
      -0.016326213255524635,
      -0.16562259197235107,
      0.20111344754695892,
      -0.1498485803604126,
      0.018691712990403175,
      -0.22379741072654724,
      -0.18620665371418,
      0.0013515639584511518,
      -0.12211725115776062,
      -0.08329053968191147,
      -0.24738048017024994,
      -0.0999428778886795,
      0.1790865957736969,
      -0.056903161108493805,
      -0.16784939169883728,
      0.00453965226188302,
      -0.013347631320357323,
      0.07181454449892044,
      -0.12418000400066376,
      -0.05860980227589607,
      -0.057192619889974594,
      -0.2616698741912842,
      0.14637738466262817,
      -0.02116071619093418,
      -0.04796896502375603,
      -0.21977756917476654,
      -0.00789528340101242,
      -0.024204187095165253,
      0.39288753271102905,
      -0.2124844491481781,
      -0.20223934948444366,
      0.02190425992012024,
      -0.017360473051667213,
      0.14905421435832977,
      -0.0833098292350769,
      -0.41092902421951294,
      0.13563933968544006,
      0.06197333708405495,
      0.12771032750606537,
      -0.004367149900645018,
      0.1287165731191635,
      -0.06322170048952103,
      0.21098196506500244,
      0.05340859293937683,
      0.037335675209760666,
      -0.04853733256459236,
      0.055344611406326294,
      0.062445953488349915,
      0.03146984428167343,
      -0.11306530982255936,
      -0.0881873145699501,
      0.012811620719730854,
      0.19525295495986938,
      0.15621401369571686,
      -0.025032708421349525,
      0.21423546969890594,
      0.327975332736969,
      -0.29702338576316833,
      0.09004433453083038,
      0.06765765696763992,
      -0.04786846414208412,
      0.1958768218755722,
      -0.16425640881061554,
      -0.05809657275676727,
      0.07804267853498459,
      0.17848297953605652,
      -0.07490769028663635,
      0.201026052236557
    ],
    [
      -0.059851448982954025,
      0.14019663631916046,
      -0.10742570459842682,
      -0.03718389943242073,
      -0.24009929597377777,
      -0.25391077995300293,
      0.07878879457712173,
      0.017035115510225296,
      -0.23097696900367737,
      0.04230467602610588,
      -0.14109742641448975,
      -0.28638955950737,
      0.055547550320625305,
      0.0038621206767857075,
      0.20834219455718994,
      -0.20174339413642883,
      0.026166630908846855,
      -0.14314909279346466,
      -0.12533192336559296,
      -0.3381351828575134,
      -0.08298873156309128,
      0.009549465961754322,
      -0.1323361098766327,
      -0.06260048598051071,
      0.21292874217033386,
      -0.03864362835884094,
      0.11271215975284576,
      0.06641434878110886,
      0.26033100485801697,
      0.07956752926111221,
      -0.19592589139938354,
      0.23811852931976318,
      -0.09095408767461777,
      -0.28654274344444275,
      -0.0787491425871849,
      0.11433618515729904,
      0.1268543004989624,
      -0.24715295433998108,
      -0.18438801169395447,
      -0.31761401891708374,
      -0.045870598405599594,
      0.06527543067932129,
      -0.07872980087995529,
      -0.17443275451660156,
      0.21812856197357178,
      -0.0017252358375117183,
      0.20810215175151825,
      0.15008148550987244,
      -0.4963799715042114,
      -0.0477641262114048,
      -0.0018883643206208944,
      0.16213250160217285,
      -0.2312198281288147,
      -0.32337164878845215,
      -0.30215874314308167,
      0.19031298160552979,
      0.035370614379644394,
      0.20901039242744446,
      -0.05602378770709038,
      0.2347337007522583,
      -0.02535596862435341,
      0.24885505437850952,
      -0.19033828377723694,
      0.10632353276014328,
      -0.11098259687423706,
      -0.059523534029722214,
      -0.10816940665245056,
      -0.12105482816696167,
      -0.04361594840884209,
      0.03748204931616783,
      -0.019489141181111336,
      -0.13683225214481354,
      -0.152429461479187,
      0.026722896844148636,
      0.2504309117794037,
      0.0810488909482956,
      -0.23136623203754425,
      0.08444531261920929,
      -0.08080372959375381,
      -0.3873944878578186,
      -0.15533490478992462,
      0.039690520614385605,
      -0.0228414349257946,
      0.03549991548061371,
      -0.11878982931375504,
      0.06588295102119446,
      -0.14464859664440155,
      0.11569134891033173,
      -0.09168283641338348,
      -0.09251884371042252,
      -0.3317982256412506,
      -0.15589936077594757,
      0.024952029809355736,
      0.2650444805622101,
      -0.2710510492324829,
      -0.3117786645889282,
      -0.029685016721487045,
      -0.16331738233566284,
      0.22797170281410217,
      -0.0057973540388047695,
      -0.1649157702922821,
      0.10317329317331314,
      -0.09283071011304855,
      -0.01595313288271427,
      -0.124630868434906,
      -0.1184450164437294,
      0.14786216616630554,
      -0.015551682561635971,
      -0.16607049107551575,
      -0.2270665466785431,
      0.033228445798158646,
      0.0720326378941536,
      0.1813793033361435,
      0.1740112006664276,
      0.039993852376937866,
      -0.12903863191604614,
      -0.015727756544947624,
      0.300871342420578,
      -0.041201215237379074,
      -0.3172754645347595,
      -0.10358720272779465,
      0.05355503037571907,
      -0.24285222589969635,
      0.0227639339864254,
      0.19882847368717194,
      0.0007213377393782139,
      0.0377349928021431,
      0.042562492191791534
    ],
    [
      -0.18923106789588928,
      -0.2111835479736328,
      0.08536068350076675,
      0.13856449723243713,
      0.1126997172832489,
      -0.15286147594451904,
      0.1112198606133461,
      -0.01832047663629055,
      -0.12118947505950928,
      -0.11864647269248962,
