{
  "fc1.weight": [
    [
      0.2986134886741638,
      0.4447716176509857,
      0.3318648040294647,
      0.3139798939228058,
      0.35818350315093994,
      0.13992926478385925,
      0.11561740934848785,
      0.10069821029901505,
      0.3561873435974121,
      -0.31216952204704285,
      -0.47775259613990784,
      -0.03484055772423744,
      0.5381879210472107,
      0.5367346405982971,
      0.48579445481300354,
      0.0030099584255367517,
      0.36734816431999207,
      -0.4620699882507324,
      0.293648362159729,
      -0.40103235840797424,
      -0.32714003324508667,
      0.4438733160495758,
      0.39797037839889526,
      -0.33794474601745605,
      0.14036208391189575
    ],
    [
      0.47730115056037903,
      0.16808946430683136,
      -0.344799280166626,
      -0.038427289575338364,
      -0.5826334357261658,
      -0.24808967113494873,
      0.49081557989120483,
      -0.25762221217155457,
      -0.15618163347244263,
      -0.06781263649463654,
      -0.2784256637096405,
      -0.4011998772621155,
      -0.20047445595264435,
      0.12761570513248444,
      0.07174315303564072,
      -0.09959902614355087,
      0.09154663234949112,
      0.21494634449481964,
      0.38036444783210754,
      -0.022996552288532257,
      0.40005239844322205,
      0.0630144476890564,
      -0.1631934642791748,
      0.44216445088386536,
      0.29832351207733154
    ],
    [
      -0.12869246304035187,
      0.34754177927970886,
      0.064395010471344,
      -0.01858743652701378,
      -0.2593546211719513,
      -0.21413405239582062,
      0.41071680188179016,
      -0.38881075382232666,
      0.40662094950675964,
      0.1376390904188156,
      -0.052201636135578156,
      0.08769194036722183,
      0.42314425110816956,
      0.31321603059768677,
      0.5225620865821838,
      -0.3240135908126831,
      0.21182452142238617,
      -0.08454746752977371,
      -0.34328120946884155,
      -0.07454651594161987,
      0.041725028306245804,
      -0.09843733161687851,
      -0.11250363290309906,
      0.3391673266887665,
      -0.04797013849020004
    ],
    [
      0.10992381721735,
      -0.022423796355724335,
      -0.255222350358963,
      0.49481669068336487,
      0.23345479369163513,
      -0.317950576543808,
      -0.2761234641075134,
      -0.005421791225671768,
      -0.2628038823604584,
      0.13541536033153534,
      0.19230252504348755,
      0.25315842032432556,
      0.5338689684867859,
      0.4181676506996155,
      -0.5426048636436462,
      -0.4973129332065582,
      0.23228664696216583,
      -0.3205800950527191,
      0.39774224162101746,
      0.2761528789997101,
      0.17929288744926453,
      0.09532073885202408,
      -0.3154262900352478,
      -0.3913782238960266,
      -0.41671881079673767
    ],
    [
      0.3220980167388916,
      -0.30689385533332825,
      0.25758978724479675,
      -0.28856685757637024,
      -0.34375447034835815,
      0.47773364186286926,
      0.20640899240970612,
      0.022835012525320053,
      -0.3924552798271179,
      -0.11373024433851242,
      0.1524776816368103,
      0.12629841268062592,
      -0.28347504138946533,
      -0.31722477078437805,
      -0.2788918912410736,
      0.47370225191116333,
      0.26624205708503723,
      0.05540282279253006,
      -0.4888535737991333,
      0.12397852540016174,
      -0.03736100345849991,
      0.14062540233135223,
      0.37746524810791016,
      -0.062217049300670624,
      -0.36315709352493286
    ],
    [
      -0.11842258274555206,
      0.4127693772315979,
      0.059671271592378616,
      -0.3789082467556,
      0.6670801639556885,
      -0.31709423661231995,
      0.47529011964797974,
      -0.25855377316474915,
      -0.266766220331192,
      0.2535863220691681,
      0.06733696162700653,
      0.3360709249973297,
      0.25416579842567444,
      0.20541135966777802,
      -0.3052603304386139,
      0.03717612475156784,
      0.3695925176143646,
      -0.2310340404510498,
      -0.33611786365509033,
      0.35937249660491943,
      0.0961950346827507,
      -0.2479240447282791,
      -0.2978067100048065,
      -0.29531505703926086,
      -0.23025354743003845
    ],
    [
      -0.20565509796142578,
      0.07802172750234604,
      -0.29918134212493896,
      -0.3961852192878723,
      0.5388152003288269,
      -0.0719766765832901,
      -0.26934683322906494,
      -0.08013831079006195,
      -0.1936594396829605,
      -0.3614155948162079,
      0.39276257157325745,
      -0.2605392336845398,
      -0.33782052993774414,
      -0.2757565379142761,
      -0.3552010953426361,
      -0.22291985154151917,
      -0.28920048475265503,
      0.47313809394836426,
      -0.08442902565002441,
      0.2518925964832306,
      0.30394595861434937,
      0.5218707323074341,
      -0.19747765362262726,
      -0.387905091047287,
      0.35867011547088623
    ],
    [
      0.30568927526474,
      -0.0901508629322052,
      -0.24485836923122406,
      0.19259324669837952,
      0.4292597770690918,
      0.09094088524580002,
      0.11671039462089539,
      0.06177104264497757,
      -0.38916540145874023,
      0.24847137928009033,
      -0.17784492671489716,
      -0.3132239282131195,
      -0.17645050585269928,
      -0.4764704704284668,
      -0.12899291515350342,
      0.27886712551116943,
      -0.5193350315093994,
      -0.04571384936571121,
      0.07192842662334442,
      -0.09079361706972122,
      -0.5024993419647217,
      -0.022940227761864662,
      0.26046666502952576,
      -0.1642967313528061,
      -0.5191377401351929
    ],
    [
      0.059453852474689484,
      -0.23517869412899017,
      -0.29390838742256165,
      0.38639116287231445,
      0.45959270000457764,
      0.28923115134239197,
      -0.16115380823612213,
      0.250297486782074,
      0.19110745191574097,
      0.1931997686624527,
      -0.13871286809444427,
      0.16557230055332184,
      -0.2972322106361389,
      -0.4053027033805847,
      -0.4045907258987427,
      0.24341930449008942,
      0.38751956820487976,
      0.2368994802236557,
      0.2929810583591461,
      0.4676305055618286,
      -0.10984700173139572,
      0.44024476408958435,
      -0.3544348478317261,
      -0.47015008330345154,
      0.22434554994106293
    ],
    [
      0.10736790299415588,
      0.044326137751340866,
      0.16869470477104187,
      0.2896362841129303,
      0.41418421268463135,
      -0.04320646822452545,
      -0.1081993356347084,
      -0.2665528357028961,
      0.16121701896190643,
      0.26749685406684875,
      0.13066324591636658,
      -0.31905597448349,
      0.3608368933200836,
      0.13206276297569275,
      0.501208484172821,
      -0.35430479049682617,
      0.08913501352071762,
      0.07282812148332596,
      0.14215856790542603,
      -0.43244269490242004,
      -0.12252292782068253,
      -0.23531295359134674,
      -0.1799737811088562,
      0.4060157239437103,
      -0.29048097133636475
    ],
    [
      -0.248610258102417,
      -0.10577209293842316,
      -0.3803262710571289,
      -0.3254778981208801,
      0.03905239701271057,
      0.17040129005908966,
      -0.46277737617492676,
      -0.06312281638383865,
      -0.29532700777053833,
      0.2943519055843353,
      -0.018738815560936928,
      -0.3410643935203552,
      -0.3968963623046875,
      0.3022066354751587,
      -0.18469886481761932,
      0.31394439935684204,
      -0.4174482226371765,
      -0.3711390495300293,
      0.3457336723804474,
      -0.29348495602607727,
      -0.17952091991901398,
      -0.3881649971008301,
      -0.2693327069282532,
      -0.057138118892908096,
      -0.26817625761032104
    ],
    [
      0.13353128731250763,
      -0.41648438572883606,
      0.19949771463871002,
      0.07210768014192581,
      0.40477630496025085,
      -0.04922255501151085,
      -0.3371427357196808,
      -0.4151698350906372,
      0.32928115129470825,
      0.09591616690158844,
      0.2478637993335724,
      0.05134483799338341,
      0.45862314105033875,
      0.4911738932132721,
      -0.40918880701065063,
      -0.5840973854064941,
      0.1833033412694931,
      0.48685434460639954,
      -0.2317071408033371,
      -0.07772781699895859,
      -0.1282285898923874,
      -0.38305172324180603,
      0.3309943675994873,
      0.28575849533081055,
      0.09710776060819626
    ],
    [
      0.44233953952789307,
      0.2588197588920593,
      0.20302051305770874,
      -0.1792541742324829,
      -0.20124727487564087,
      -0.0022296712268143892,
      0.028702160343527794,
      -0.22901707887649536,
      0.4916364252567291,
      -0.2788820266723633,
      0.22088943421840668,
      0.4366206228733063,
      0.2864505648612976,
      -0.12055520713329315,
      0.5641223192214966,
      0.37818989157676697,
      -0.3723117411136627,
      -0.051117416471242905,
      -0.20221717655658722,
      0.4013184607028961,
      -0.21925057470798492,
      0.09838718175888062,
      -0.09513572603464127,
      0.34188058972358704,
      0.41465476155281067
    ],
    [
      -0.12381277233362198,
      0.3388350009918213,
      0.04255472123622894,
      -0.12085957080125809,
      -0.22301098704338074,
      -0.207048699259758,
      0.5053322315216064,
      0.0031359954737126827,
      0.35173866152763367,
      0.30796146392822266,
      0.06199594587087631,
      -0.07438813894987106,
      -0.28941452503204346,
      0.04941327124834061,
      0.1370636373758316,
      0.20245882868766785,
      0.05729899927973747,
      0.14410243928432465,
      -0.027046971023082733,
      0.19130699336528778,
      0.35224199295043945,
      0.025328930467367172,
      -0.3049342632293701,
      0.4349822402000427,
      -0.10129217058420181
    ],
    [
      0.39588767290115356,
      -0.08462800830602646,
      0.27650633454322815,
      -0.1961519867181778,
      -0.4629237651824951,
      -0.09674033522605896,
      0.47176578640937805,
      0.572774350643158,
      0.09482993930578232,
      0.24286460876464844,
      -0.10162666440010071,
      0.2700011432170868,
      -0.29030677676200867,
      -0.3648044466972351,
      0.14200840890407562,
      -0.17015279829502106,
      -0.2655084729194641,
      -0.4037548005580902,
      0.15876150131225586,
      0.07236029952764511,
      0.25635337829589844,
      0.07732604444026947,
      0.22939860820770264,
      -0.3715026080608368,
      -0.3631822168827057
    ],
    [
      -0.21963326632976532,
      0.27198898792266846,
      -0.2302248328924179,
      0.45573776960372925,
      -0.1452375203371048,
      -0.1822444051504135,
      -0.23880425095558167,
      -0.19592995941638947,
      -0.22923053801059723,
      0.352557510137558,
      0.015973864123225212,
      -0.05585864558815956,
      0.041409630328416824,
      -0.5374821424484253,
      -0.32338693737983704,
      -0.27502772212028503,
      -0.4416535496711731,
      0.5294334888458252,
      0.26169684529304504,
      -0.4192149043083191,
      0.0815928727388382,
      0.30339255928993225,
      -0.09196300059556961,
      -0.01740195043385029,
      0.3414682447910309
    ],
    [
      -0.29919424653053284,
      -0.2715837359428406,
      0.07642659544944763,
      0.289902001619339,
      0.341840922832489,
      0.22731900215148926,
      0.25458526611328125,
      0.21699488162994385,
      0.07331628352403641,
      0.30720993876457214,
      -0.03266974911093712,
      0.07806669175624847,
      0.002831578953191638,
      0.4681713879108429,
      -0.40570804476737976,
      0.23585009574890137,
      -0.01026766374707222,
      -0.4206506013870239,
      -0.41426390409469604,
      0.3837171494960785,
      -0.40486815571784973,
      -0.16660954058170319,
      0.4522360861301422,
      -0.21922145783901215,
      -0.20475685596466064
    ],
    [
      0.4936237633228302,
      0.47269245982170105,
      -0.2752487361431122,
      0.08696389943361282,
      -0.5009024739265442,
      0.4734176993370056,
      -0.17138946056365967,
      -0.1427612453699112,
      0.48279088735580444,
      -0.28686612844467163,
      -0.25363025069236755,
      -0.3921077847480774,
      -0.14881540834903717,
      -0.1686020791530609,
      -0.2915852963924408,
      0.5496819019317627,
      0.41027623414993286,
      0.05030697584152222,
      0.3639504909515381,
      -0.3366170823574066,
      0.05005921050906181,
      -0.11882075667381287,
      0.21651609241962433,
      -0.04207253456115723,
      0.3918941915035248
    ],
    [
      -0.39144423604011536,
      -0.21959875524044037,
      0.30314135551452637,
      0.16306568682193756,
      0.5341108441352844,
      0.20379076898097992,
      -0.13330362737178802,
      -0.4330424666404724,
      0.18970395624637604,
      0.1117585077881813,
      0.20446448028087616,
      -0.07757141441106796,
      0.23611332476139069,
      0.036819182336330414,
      -0.12933120131492615,
      -0.2657245993614197,
      -0.029429195448756218,
      -0.07306215912103653,
      -0.3373783826828003,
      -0.04100186005234718,
      -0.2259199619293213,
      0.31891879439353943,
      0.016711518168449402,
      0.2922413647174835,
      0.24864432215690613
    ],
    [
      -0.027312779799103737,
      -0.06839163601398468,
      0.052517957985401154,
      0.4443089962005615,
      0.0476924329996109,
      -0.48182398080825806,
      0.35220417380332947,
      0.003923152107745409,
      0.3302156925201416,
      -0.4358412027359009,
      0.4700044095516205,
      -0.29504653811454773,
      0.509136974811554,
      0.5683132410049438,
      -0.1093173399567604,
      0.22072871029376984,
      -0.1485348641872406,
      -0.12880408763885498,
      0.4558398127555847,
      -0.3298999071121216,
      0.03280574083328247,
      -0.1952100545167923,
      -0.4799373745918274,
      0.3136223256587982,
      0.18331469595432281
    ],
    [
      -0.089494489133358,
      0.393125981092453,
      -0.04446004703640938,
      0.41584843397140503,
      -0.021017754450440407,
      0.1646166741847992,
      0.3204156756401062,
      0.28147900104522705,
      0.46436816453933716,
      -0.1168036162853241,
      -0.09875382483005524,
      0.4520331919193268,
      -0.18782642483711243,
      -0.5353831648826599,
      0.46920308470726013,
      -0.2961874306201935,
      -0.2067127525806427,
      -0.12593549489974976,
      -0.06124693527817726,
      0.20411092042922974,
      -0.43350520730018616,
      -0.1343076378107071,
      0.36545127630233765,
      -0.27585333585739136,
      0.18003858625888824
    ],
    [
      -0.37872907519340515,
      0.36955758929252625,
      -0.11455217748880386,
      -0.14158956706523895,
      0.009344937279820442,
      -0.4733497202396393,
      0.10168178379535675,
      -0.16710662841796875,
      -0.28470227122306824,
      -0.40358805656433105,
      0.1879265457391739,
      -0.4895820617675781,
      0.4246746301651001,
      -0.3017916977405548,
      -0.3002254068851471,
      -0.11597662419080734,
      0.39032644033432007,
      -0.30552417039871216,
      0.0788654014468193,
      -0.47013208270072937,
      -0.2702512741088867,
      -0.06377952545881271,
      -0.3478555381298065,
      0.1415732204914093,
      0.049891915172338486
    ],
    [
      -0.5072475075721741,
      0.26367056369781494,
      -0.32766252756118774,
      0.42238086462020874,
      -0.22485457360744476,
      -0.40161633491516113,
      -0.417207807302475,
      -0.3265673816204071,
      0.0489119216799736,
      -0.19695334136486053,
      0.3975779414176941,
      -0.27548685669898987,
      0.255533903837204,
      -0.04654204100370407,
      -0.10043664276599884,
      0.0639377161860466,
      0.027517572045326233,
      -0.2994838356971741,
      -0.4157513976097107,
      -0.3358321189880371,
      -0.23725362122058868,
      -0.10479039698839188,
      0.22128842771053314,
      0.19690871238708496,
      0.31983986496925354
    ],
    [
      -0.18267816305160522,
      0.270173579454422,
      -0.0046565718948841095,
      0.15920685231685638,
      0.342058390378952,
      0.29491326212882996,
      0.017617354169487953,
      -0.47722670435905457,
      -0.3164328932762146,
      -0.04919373244047165,
      -0.23403535783290863,
      0.5798965096473694,
      -0.3513445258140564,
      -0.37467488646507263,
      -0.46945467591285706,
      0.4010101854801178,
      -0.23436769843101501,
      0.32080957293510437,
      -0.32747653126716614,
      0.31528908014297485,
      -0.17343294620513916,
      0.428783655166626,
      0.14163397252559662,
      -0.1553744226694107,
      -0.10232412815093994
    ],
    [
      -0.39137527346611023,
      -0.4160420894622803,
      0.04118134453892708,
      -0.4671088755130768,
      -0.07318452000617981,
      0.24221253395080566,
      -0.27323368191719055,
      -0.2204536348581314,
      0.39809802174568176,
      0.07438848167657852,
      -0.2766135036945343,
      0.41914767026901245,
      -0.10707395523786545,
      -0.033895641565322876,
      -0.10481251776218414,
      0.17087283730506897,
      -0.036052603274583817,
      0.06823644042015076,
      0.19294022023677826,
      -0.28681567311286926,
      -0.4511212110519409,
      -0.2520589828491211,
      0.27450332045555115,
      0.14559538662433624,
      0.2706613838672638
    ],
    [
      -0.2519804835319519,
      -0.4931875169277191,
      0.22787122428417206,
      0.04445456713438034,
      0.21213482320308685,
      0.4007786512374878,
      -0.49187788367271423,
      0.1293785274028778,
      0.1203511580824852,
      0.26184725761413574,
      0.41900524497032166,
      0.32445088028907776,
      -0.061712078750133514,
      -0.11076726019382477,
      0.07518535107374191,
      -0.033496659249067307,
      0.09324115514755249,
      -0.17002201080322266,
      -0.03555795177817345,
      0.43785449862480164,
      -0.2562781274318695,
      -0.4424448013305664,
      -0.35324594378471375,
      -0.07248597592115402,
      0.38513532280921936
    ],
    [
      -0.0510270819067955,
      0.09307073801755905,
      0.4464101493358612,
      -0.163743793964386,
      0.44873782992362976,
      -0.4231843948364258,
      0.3341905176639557,
      -0.2236204296350479,
      -0.13035014271736145,
      -0.26216602325439453,
      0.05891432985663414,
      0.25896090269088745,
      -0.16256621479988098,
      -0.00033453930518589914,
      0.3851890563964844,
      -0.47614786028862,
      0.3170619308948517,
      0.38669925928115845,
      0.15808634459972382,
      0.4024682343006134,
      0.1733345240354538,
      -0.37393027544021606,
      -0.1729283183813095,
      0.21157048642635345,
      0.3613447844982147
    ],
    [
      0.022661855444312096,
      0.08390894532203674,
      0.3163611590862274,
      0.4508325457572937,
      0.014312978833913803,
      0.25735658407211304,
      -0.20248951017856598,
      0.08328047394752502,
      0.06974009424448013,
      0.19555307924747467,
      -0.1667919158935547,
      -0.09996673464775085,
      0.03734033182263374,
      0.5162320733070374,
      0.12407566606998444,
      0.1414480358362198,
      -0.20952236652374268,
      -0.4279593527317047,
      -0.1515255868434906,
      -0.3401053845882416,
      0.40221408009529114,
      -0.016315100714564323,
      -0.3771974444389343,
      0.2046206146478653,
      0.06657371670007706
    ],
    [
      -0.476011723279953,
      0.19254110753536224,
      0.12037405371665955,
      -0.35686033964157104,
      0.1528424471616745,
      -0.11101609468460083,
      -0.287372350692749,
      -0.05855841562151909,
      0.007284747436642647,
      -0.35272541642189026,
      -0.17270979285240173,
      -0.10252473503351212,
      0.05643929913640022,
      -0.17080692946910858,
      -0.423967182636261,
      0.019149543717503548,
      -0.3322190046310425,
      0.13456955552101135,
      -0.3532097339630127,
      -0.22991064190864563,
      0.33071833848953247,
      0.07367885857820511,
      0.11153089255094528,
      -0.1317148208618164,
      0.1556251049041748
    ],
    [
      -0.4145262837409973,
      -0.3977215588092804,
      0.1365245133638382,
      -0.3407817780971527,
      -0.46351152658462524,
      -0.16227184236049652,
      -0.28812694549560547,
      0.3900672197341919,
      -0.09897077828645706,
      0.4830513596534729,
      -0.2106691151857376,
      0.23490895330905914,
      0.22036129236221313,
      -0.3174610435962677,
      0.15743055939674377,
      -0.2487497180700302,
      -0.4638313353061676,
      -0.019024217501282692,
      -0.14162415266036987,
      -0.4270634353160858,
      -0.135542094707489,
      -0.3564346134662628,
      0.17526836693286896,
      -0.05367520824074745,
      0.22736671566963196
    ],
    [
      0.3083707094192505,
      0.3166797459125519,
      -0.44092822074890137,
      0.2603660523891449,
      0.22599610686302185,
      -0.5273872017860413,
      0.45063140988349915,
      0.443477064371109,
      0.3470091223716736,
      0.12331744283437729,
      -0.4282054603099823,
      -0.25658372044563293,
      0.49210870265960693,
      0.02917308360338211,
      0.2570721209049225,
      0.1876794993877411,
      0.063560850918293,
      0.2280450165271759,
      0.28961458802223206,
      -0.4814203679561615,
      0.5015142560005188,
      0.09619192779064178,
      -0.3596111834049225,
      0.07215942442417145,
      0.2090865820646286
    ],
    [
      0.1349768340587616,
      0.2012317031621933,
      0.16646845638751984,
      0.16804659366607666,
      -0.44052886962890625,
      -0.2954982817173004,
      0.2929428815841675,
      -0.22643719613552094,
      0.6308994889259338,
      0.15389233827590942,
      -0.3587677478790283,
      0.42456507682800293,
      0.1581859588623047,
      0.011920521967113018,
      -0.550925076007843,
      -0.25911322236061096,
      0.5189066529273987,
      -0.11005794256925583,
      0.16477715969085693,
      -0.0485558919608593,
      0.1404060423374176,
      0.04631810635328293,
      -0.31892937421798706,
      0.0119243822991848,
      -0.17862477898597717
    ],
    [
      -0.4861370027065277,
      0.06268049031496048,
      -0.08300288766622543,
      -0.45509079098701477,
      -0.13399606943130493,
      0.16648297011852264,
      -0.41002601385116577,
      0.29338279366493225,
      0.26591756939888,
      -0.3017037510871887,
      -0.41813433170318604,
      0.42774370312690735,
      0.013981110416352749,
      0.3856830298900604,
      -0.39107590913772583,
      0.2929634153842926,
      0.020406555384397507,
      -0.47724127769470215,
      0.02165824919939041,
      0.19643494486808777,
      -0.04745335131883621,
      0.06299521028995514,
      -0.20717471837997437,
      0.05500492826104164,
      0.13613538444042206
    ],
    [
      0.2982999086380005,
      0.03887312114238739,
      0.2901807129383087,
      -0.2136903703212738,
      0.3968924582004547,
      -0.12281899154186249,
      -0.43072575330734253,
      0.08047567307949066,
      -0.13946488499641418,
      0.3061647117137909,
      -0.12241093069314957,
      0.42697468400001526,
      0.43159574270248413,
      -0.5915669798851013,
      0.14308108389377594,
      0.031228719279170036,
      0.02110561542212963,
      0.3613860607147217,
      0.10839024186134338,
      0.2627195715904236,
      -0.37986910343170166,
      -0.2242020070552826,
      -0.12737661600112915,
      0.4713776409626007,
      -0.40086308121681213
    ],
    [
      -0.2697505056858063,
      0.2477436065673828,
      -0.0676165521144867,
      -0.16824403405189514,
      -0.34895509481430054,
      -0.4407949447631836,
      0.21893300116062164,
      0.04935942217707634,
      -0.05392732471227646,
      0.100425124168396,
      -0.03692130744457245,
      -0.22725020349025726,
      0.19638198614120483,
      -0.4324897825717926,
      -0.1594366729259491,
      0.3207167387008667,
      -0.3146142065525055,
      0.18043220043182373,
      -0.21642184257507324,
      0.3637884259223938,
      -0.35459038615226746,
      -0.13639958202838898,
      -0.308646023273468,
      -0.28688231110572815,
      -0.0989944338798523
    ],
    [
      0.26292482018470764,
      -0.2255435585975647,
      -0.005324471741914749,
      0.4549304246902466,
      0.14294958114624023,
      0.04230061545968056,
      -0.15567831695079803,
      0.36392107605934143,
      0.24025818705558777,
      0.1697475016117096,
      -0.12345561385154724,
      0.19920237362384796,
      -0.048257976770401,
      0.35200420022010803,
      -0.3566339910030365,
      0.4159308671951294,
      -0.39000385999679565,
      -0.06385409086942673,
      -0.09358019381761551,
      0.27321866154670715,
      0.3979746699333191,
      0.06424995511770248,
      -0.21189187467098236,
      -0.2440611720085144,
      0.13325652480125427
    ],
    [
      -0.23634125292301178,
      -0.006914888974279165,
      -0.3121013343334198,
      -0.24622803926467896,
      -0.5485267639160156,
      0.29379454255104065,
      0.1799628734588623,
      0.1564897894859314,
      0.6522058844566345,
      -0.2195328027009964,
      0.45825305581092834,
      -0.31807127594947815,
      -0.21769896149635315,
      0.2881292998790741,
      -0.5200031995773315,
      -0.3404112160205841,
      -0.07401479035615921,
      0.43921706080436707,
      -0.05764660984277725,
      0.17695976793766022,
      0.41455546021461487,
      -0.23793616890907288,
      0.29015880823135376,
      0.2723047435283661,
      0.17942404747009277
    ],
    [
      0.09683356434106827,
      0.08490709215402603,
      0.40365540981292725,
      -0.023675281554460526,
      -0.3852517008781433,
      -0.3591215908527374,
      -0.33646348118782043,
      -0.0976642519235611,
      -0.33689337968826294,
      -0.09780114144086838,
      -0.13899746537208557,
      -0.23894570767879486,
      0.0011713365092873573,
      -0.11940647661685944,
      0.12294337898492813,
      -0.332183837890625,
      -0.22714199125766754,
      -0.01453112531453371,
      0.33380064368247986,
      0.31009039282798767,
      0.445992112159729,
      -0.3981972336769104,
      0.3479853570461273,
      -0.15316914021968842,
      -0.07019510120153427
    ],
    [
      0.03712507337331772,
      -0.18320521712303162,
      -0.12279775738716125,
      -0.047613948583602905,
      0.6587749719619751,
      0.1554446667432785,
      0.4062492549419403,
      0.014895404689013958,
      -0.40659990906715393,
      0.4999293386936188,
      -0.3898698687553406,
      0.010989327915012836,
      -0.005119079723954201,
      -0.19092679023742676,
      -0.4760921895503998,
      -0.33309581875801086,
      -0.25496214628219604,
      0.21369178593158722,
      0.4293892979621887,
      0.049563705921173096,
      -0.19075679779052734,
      -0.16229937970638275,
      0.38796213269233704,
      0.46378201246261597,
      0.3373650312423706
    ],
    [
      -0.054394446313381195,
      0.39950641989707947,
      -0.06626588106155396,
      0.4401244521141052,
      -0.08636409789323807,
      -0.24254612624645233,
      0.37779662013053894,
      0.6214924454689026,
      0.2340412139892578,
      -0.2562517523765564,
      -0.25158628821372986,
      0.454558402299881,
      -0.3962569236755371,
      -0.1286076456308365,
      -0.11676205694675446,
      0.3185667097568512,
      -0.24392084777355194,
      0.35922515392303467,
      0.26790446043014526,
      0.44772258400917053,
      -0.051616791635751724,
      0.19310283660888672,
      0.11162015050649643,
      0.19038571417331696,
      0.1708904504776001
    ],
    [
      0.21201379597187042,
      -0.3987201154232025,
      -0.10078826546669006,
      0.10988996177911758,
      -0.054882630705833435,
      0.2594241499900818,
      -2.0549581677187234e-05,
      -0.08948422968387604,
      -0.20652930438518524,
      -0.0607524998486042,
      -0.21267952024936676,
      0.12169743329286575,
      0.05743604153394699,
      0.09766228497028351,
      0.24598775804042816,
      -0.47240757942199707,
      0.3058779835700989,
      0.30634447932243347,
      0.026118462905287743,
      0.10003594309091568,
      -0.4331929385662079,
      -0.1001785472035408,
      -0.44749975204467773,
      0.3585267663002014,
      0.4083452522754669
    ],
    [
      -0.2951577603816986,
      -0.3811105191707611,
      -0.22628198564052582,
      -0.2971595525741577,
      -0.19038671255111694,
      0.39680662751197815,
      0.26570042967796326,
      -0.2697959840297699,
      -0.46713894605636597,
      -0.2849103808403015,
      -0.3906365633010864,
      0.3890545964241028,
      -0.19718405604362488,
      0.011189104989171028,
      -0.17272381484508514,
      -0.3096039295196533,
      -0.10845670104026794,
      -0.393413245677948,
      -0.46240654587745667,
      -0.3402271568775177,
      -0.03922059014439583,
      0.2923368513584137,
      0.46505388617515564,
      -0.2321760505437851,
      -0.45900797843933105
    ],
    [
      0.41567617654800415,
      0.4353986084461212,
      -0.2904186248779297,
      0.41266313195228577,
      0.3850043714046478,
      0.11518656462430954,
      -0.14565911889076233,
      -0.35318511724472046,
      -0.016913609579205513,
      0.08343485742807388,
      -0.030098792165517807,
      -0.1136784628033638,
      -0.41978129744529724,
      0.20239311456680298,
      0.17292377352714539,
      0.588623046875,
      -0.31082883477211,
      -0.45999062061309814,
      0.22478921711444855,
      -0.4403487741947174,
      0.3033425211906433,
      0.08636829257011414,
      0.18323907256126404,
      0.41770726442337036,
      -0.3581789433956146
    ],
    [
      -0.4339812695980072,
      0.179033100605011,
      -0.18727119266986847,
      -0.26897862553596497,
      -0.3024497628211975,
      0.436738520860672,
      -0.147512286901474,
      0.542159378528595,
      -0.5203416347503662,
      0.11503814160823822,
      0.5193507075309753,
      0.4044452905654907,
      -0.270510196685791,
      -0.09456675499677658,
      -0.4113842844963074,
      -0.07375889271497726,
      0.11162959784269333,
      0.12598633766174316,
      -0.3007998764514923,
      -0.04764712229371071,
      -0.05227702856063843,
      0.45048511028289795,
      -0.18065403401851654,
      -0.018732547760009766,
      -0.38479721546173096
    ],
    [
      0.04788469895720482,
      -0.4533752501010895,
      -0.08565185219049454,
      -0.08473354578018188,
      0.14246982336044312,
      0.2351863980293274,
      -0.26418256759643555,
      -0.45601919293403625,
      -0.019967665895819664,
      -0.17182175815105438,
      0.020372457802295685,
      -0.29296189546585083,
      -0.04769518971443176,
      -0.11656062304973602,
      0.014367523603141308,
      0.5400069952011108,
      -0.3737015724182129,
      -0.03839019313454628,
      0.4275263845920563,
      -0.22098758816719055,
      0.4042293429374695,
      0.45020779967308044,
      0.36688217520713806,
      0.35770702362060547,
      0.2648973762989044
    ],
    [
      0.4180627763271332,
      0.2797408998012543,
      0.16675430536270142,
      0.13479042053222656,
      0.4427856504917145,
      -0.40643784403800964,
      -0.23200936615467072,
      0.2693377137184143,
      -0.37077033519744873,
      -0.1825927495956421,
      0.2590012848377228,
      -0.19988247752189636,
      0.32810184359550476,
      -0.2111608237028122,
      0.4506766200065613,
      0.42866742610931396,
      0.17871250212192535,
      -0.44503018260002136,
      0.3732573091983795,
      0.43292030692100525,
      0.15197768807411194,
      0.26263177394866943,
      -0.392405241727829,
      0.3854835331439972,
      0.12609733641147614
    ],
    [
      0.2677515149116516,
      -0.08902940899133682,
      -0.3588673770427704,
      0.41552531719207764,
      -0.48403358459472656,
      0.045731738209724426,
      0.32321012020111084,
      0.3360016345977783,
      -0.3753299415111542,
      0.43665507435798645,
      -0.13808943331241608,
      -0.21028408408164978,
      0.22925522923469543,
      -0.1288134753704071,
      0.0685797780752182,
      0.4483567476272583,
      -0.2934379279613495,
      0.3555183410644531,
      -0.2791253924369812,
      0.1187543198466301,
      -0.01924213394522667,
      -0.1931672990322113,
      0.2793982923030853,
      0.17290914058685303,
      -0.44977426528930664
    ],
    [
      0.21204712986946106,
      0.3516042232513428,
      -0.2570720613002777,
      0.20644398033618927,
      0.5422442555427551,
      -0.13568630814552307,
      -0.13026095926761627,
      -0.22584538161754608,
      0.53167724609375,
      0.024224739521741867,
      -0.40346047282218933,
      0.0836954265832901,
      -0.22266830503940582,
      0.5814585089683533,
      -0.02745828405022621,
      -0.0047419751062989235,
      -0.4004765450954437,
      0.3787670135498047,
      -0.26875266432762146,
      -0.20320472121238708,
      0.1890120655298233,
      0.21430805325508118,
      -0.35341325402259827,
      0.3625757396221161,
      -0.4299556314945221
    ],
    [
      0.34848687052726746,
      0.0012900144793093204,
      0.2633301317691803,
      0.4133261442184448,
      0.11999235302209854,
      -0.12453398108482361,
      0.34714770317077637,
      -0.22428679466247559,
      -0.1976565420627594,
      -0.35042068362236023,
      0.19722193479537964,
      0.23729802668094635,
      -0.09129513055086136,
      -0.5185844302177429,
      -0.35975390672683716,
      0.5401545166969299,
      0.25664690136909485,
      -0.1307189166545868,
      0.4021534025669098,
      -0.04420517757534981,
      -0.044435083866119385,
      -0.37081918120384216,
      0.2570076286792755,
      0.4548216164112091,
      -0.4539271891117096
    ],
    [
      -0.21547670662403107,
      -0.3647128939628601,
      -0.27814677357673645,
      0.17245212197303772,
      0.24654939770698547,
      -0.2204817682504654,
      0.39162901043891907,
      -0.47117480635643005,
      -0.06022033467888832,
      -0.338026225566864,
      0.08204491436481476,
      -0.3240438997745514,
      0.22765348851680756,
      0.42999356985092163,
      0.2170235812664032,
      0.019598351791501045,
      0.2744106948375702,
      0.20855596661567688,
      -0.3714991509914398,
      -0.04441536217927933,
      -0.22524724900722504,
      -0.24373172223567963,
      -0.15188659727573395,
      -0.20656780898571014,
      -0.35548287630081177
    ],
    [
      0.3400120437145233,
      -0.3090163767337799,
      -0.4970601499080658,
      -0.33402660489082336,
      -0.3502731919288635,
      -0.31747493147850037,
      -0.04802824556827545,
      0.2735449969768524,
      -0.402357816696167,
      -0.32030144333839417,
      -0.04567704722285271,
      -0.13818158209323883,
      -0.3244432508945465,
      -0.3792772591114044,
      -0.17404833436012268,
      -0.34472566843032837,
      -0.41605743765830994,
      0.16251453757286072,
      0.3377682566642761,
      -0.20100699365139008,
      -0.057259704917669296,
      0.3230839967727661,
      -0.38005775213241577,
      -0.16061162948608398,
      0.16129979491233826
    ],
    [
      -0.09500183910131454,
      -0.3057858645915985,
      0.2893525958061218,
      0.31724244356155396,
      -0.09614881873130798,
      0.048657093197107315,
      0.2782071530818939,
      0.09158600121736526,
      0.6565937995910645,
      -0.02869109995663166,
      -0.23113249242305756,
      -0.045864690095186234,
      0.3450438380241394,
      0.3719628155231476,
      -0.27819785475730896,
      -0.0178912915289402,
      -0.26938000321388245,
      0.05917836353182793,
      0.1884058266878128,
      0.06482063233852386,
      -0.2183169573545456,
      0.34977173805236816,
      -0.061421725898981094,
      0.18777664005756378,
      0.4589690566062927
    ],
    [
      0.2032136619091034,
      0.4590608775615692,
      0.3421570956707001,
      0.26867273449897766,
      0.11354056745767593,
      0.05974292382597923,
      -0.31453630328178406,
      0.021146753802895546,
      -0.35529354214668274,
      0.3261910080909729,
      0.26152998208999634,
      -0.13687221705913544,
      -0.1191839724779129,
      0.21387715637683868,
      -0.055663079023361206,
      0.06547447293996811,
      -0.06090639904141426,
      0.4940999448299408,
      0.45948493480682373,
      -0.006894106976687908,
      0.43846002221107483,
      -0.32353729009628296,
      0.196726992726326,
      0.4618062674999237,
      -0.25099432468414307
    ],
    [
      -0.38459697365760803,
      0.3698762059211731,
      0.28572043776512146,
      0.011408340185880661,
      -0.12848417460918427,
      0.20424962043762207,
      -0.465655118227005,
      0.05811358243227005,
      -0.09408050775527954,
      -0.11767186969518661,
      -0.369790643453598,
      -0.42219746112823486,
      -0.340549111366272,
      0.35006359219551086,
      -0.31874772906303406,
      -0.2077772468328476,
      -0.43399912118911743,
      0.26940932869911194,
      -0.20692862570285797,
      0.2234402745962143,
      0.23716431856155396,
      -0.47380390763282776,
      0.26128950715065,
      0.18235935270786285,
      -0.46907609701156616
    ],
    [
      -0.316636323928833,
      0.08202427625656128,
      -0.28762170672416687,
      -0.26045700907707214,
      -0.4793117642402649,
      0.31271544098854065,
      0.23515324294567108,
      0.20029480755329132,
      -0.39648139476776123,
      -0.12836334109306335,
      -0.2867812216281891,
      -0.15498463809490204,
      -0.38258349895477295,
      -0.0002642617328092456,
      -0.3279537856578827,
      -0.34238529205322266,
      -0.39325159788131714,
      0.16983556747436523,
      -0.05928876996040344,
      -0.33802586793899536,
      0.18417005240917206,
      -0.3970301151275635,
      -0.3429686427116394,
      -0.1992553323507309,
      0.3825029134750366
    ],
    [
      -0.1340038925409317,
      -0.1499926894903183,
      0.29545828700065613,
      -0.28791388869285583,
      -0.10215926915407181,
      -0.31921976804733276,
      -0.05385321378707886,
      0.40931907296180725,
      0.029362428933382034,
      0.05291255936026573,
      -0.38319215178489685,
      0.10971750319004059,
      -0.4767548143863678,
      -0.4291810989379883,
      0.04147128015756607,
      0.08329460024833679,
      -0.23718860745429993,
      0.13374534249305725,
      -0.11229932308197021,
      -0.29694288969039917,
      -0.05490243434906006,
      0.20182472467422485,
      -0.23292380571365356,
      -0.30995771288871765,
      -0.3059806525707245
    ],
    [
      0.15787936747074127,
      0.09039896726608276,
      0.3273918330669403,
      0.2796218991279602,
      0.5672957301139832,
      -0.11225009709596634,
      0.3255344033241272,
      -0.17378145456314087,
      -0.42871275544166565,
      0.3298768401145935,
      -0.1801811009645462,
      -0.16071616113185883,
      0.30269038677215576,
      -0.02850658819079399,
      -0.1295049488544464,
      0.20253220200538635,
      0.34165212512016296,
      -0.4214361011981964,
      0.18228307366371155,
      -0.026010364294052124,
      -0.37259358167648315,
      -0.13048923015594482,
      0.40322768688201904,
      0.35128530859947205,
      -0.0769534632563591
    ],
    [
      0.00792212039232254,
      0.381061851978302,
      0.48554477095603943,
      0.07989847660064697,
      -0.0980667769908905,
      0.45892584323883057,
      -0.13040243089199066,
      -0.009101539850234985,
      0.5141051411628723,
      -0.26210108399391174,
      0.1815311461687088,
      0.08539019525051117,
      0.20359443128108978,
      -0.21814678609371185,
      -0.3505265712738037,
      0.022143183276057243,
      0.07125787436962128,
      -0.07648784667253494,
      0.3971400856971741,
      -0.18353337049484253,
      -0.17622895538806915,
      -0.33785876631736755,
      0.0278509259223938,
      -0.3918832838535309,
      0.4763163924217224
    ],
    [
      -0.3946107029914856,
      0.15042945742607117,
      -0.12677915394306183,
      0.29909586906433105,
      -0.10493741184473038,
      0.5188010334968567,
      -0.26679083704948425,
      -0.2592383325099945,
      0.39171117544174194,
      -0.22358550131320953,
      -0.41495418548583984,
      0.3633871376514435,
      0.35566574335098267,
      -0.2564812898635864,
      0.3810523748397827,
      0.1642666757106781,
      0.32949119806289673,
      0.4351113736629486,
      0.19301970303058624,
      0.251781165599823,
      -0.2854316532611847,
      0.5401476621627808,
      0.3479481637477875,
      -0.1166304349899292,
      -0.4534333348274231
    ],
    [
      -0.19445361196994781,
      -0.32556450366973877,
      -0.18111222982406616,
      -0.44399556517601013,
      -0.3435078561306,
      0.42960721254348755,
      0.1865762174129486,
      -0.2201841026544571,
      0.07435290515422821,
      0.24157512187957764,
      0.07407776266336441,
      0.22610710561275482,
      0.14435836672782898,
      -0.26494988799095154,
      0.042275652289390564,
      -0.2884412705898285,
      0.2856067419052124,
      0.24206319451332092,
      -0.16439387202262878,
      0.08684032410383224,
      0.0342840701341629,
      -0.037045422941446304,
      0.34438884258270264,
      -0.2056078165769577,
      -0.36333397030830383
    ],
    [
      0.18886390328407288,
      -0.16811129450798035,
      0.22974394261837006,
      0.41639208793640137,
      0.35974833369255066,
      0.2291214019060135,
      0.25472500920295715,
      -0.10491323471069336,
      -0.39582720398902893,
      0.2668360769748688,
      0.15617255866527557,
      -0.154146209359169,
      0.10627426207065582,
      -0.2069951444864273,
      0.3196641206741333,
      -0.12392669916152954,
      -0.4823995530605316,
      0.12209810316562653,
      -0.21270611882209778,
      -0.08889765292406082,
      -0.33049413561820984,
      -0.1852501481771469,
      -0.25044476985931396,
      0.2026708573102951,
      -0.17849229276180267
    ],
    [
      -0.27837833762168884,
      -0.05920666083693504,
      -0.08694952726364136,
      0.4855925440788269,
      -0.28746411204338074,
      -0.05398286134004593,
      -0.40882185101509094,
      0.022297384217381477,
      -0.2474806308746338,
      -0.33790323138237,
      -0.2689954340457916,
      -0.39795172214508057,
      0.15177004039287567,
      0.40830564498901367,
      0.266382098197937,
      -0.2568509578704834,
      -0.47022148966789246,
      0.2012292742729187,
      0.36865919828414917,
      -0.4787929952144623,
      -0.3557203710079193,
      0.09150686115026474,
      -0.2354358434677124,
      0.38358861207962036,
      0.20208840072155
    ],
    [
      0.22388263046741486,
      0.2138235867023468,
      0.43617725372314453,
      0.2146727740764618,
      0.014116005040705204,
      0.33325275778770447,
      -0.09611361473798752,
      -0.053892627358436584,
      0.30615153908729553,
      -0.13854940235614777,
      -0.22247928380966187,
      0.05363887920975685,
      0.0019162888638675213,
      0.24404221773147583,
      0.1877475082874298,
      -0.3912748098373413,
      0.27196815609931946,
      0.06505009531974792,
      -0.19013798236846924,
      -0.4044479429721832,
      0.2200881391763687,
      -0.1481856405735016,
      0.337931752204895,
      -0.2662314772605896,
      -0.357109397649765
    ],
    [
      -0.2126217782497406,
      -0.425769180059433,
      -0.3933204710483551,
      -0.2887025475502014,
      0.42838266491889954,
      -0.30967313051223755,
      0.013801062479615211,
      -0.43041160702705383,
      -0.44462448358535767,
      0.07418805360794067,
      -0.24664655327796936,
      0.03801228478550911,
      -0.05269332230091095,
      -0.14510995149612427,
      -0.3306318521499634,
      -0.2521681785583496,
      0.29715925455093384,
      0.10429946333169937,
      0.4424516558647156,
      0.12994873523712158,
      -0.4375755190849304,
      -0.4115618169307709,
      -0.24823854863643646,
      0.34542912244796753,
      0.04927871376276016
    ],
    [
      0.19091928005218506,
      -0.009675318375229836,
      0.3680378198623657,
      0.23364096879959106,
      0.09800609201192856,
      -0.41012582182884216,
      0.18280959129333496,
      0.5859425663948059,
      0.007909509353339672,
      -0.15386322140693665,
      -0.3166777789592743,
      -0.4061625599861145,
      -0.29972442984580994,
      -0.07203411310911179,
      0.36178815364837646,
      0.06355573236942291,
      0.17889916896820068,
      0.372343510389328,
      -0.18969905376434326,
      -0.06004330515861511,
      -0.37742340564727783,
      0.3986753523349762,
      -0.2665241062641144,
      0.3936876654624939,
      -0.5036852359771729
    ],
    [
      -0.2515983283519745,
      -0.37127187848091125,
      -0.2848004698753357,
      0.3153473734855652,
      -0.17194302380084991,
      0.16513775289058685,
      -0.13841493427753448,
      -0.1204577088356018,
      0.35917696356773376,
      0.0996638685464859,
      -0.39132705330848694,
      0.19317199289798737,
      0.4890199303627014,
      -0.18960115313529968,
      -0.2155580222606659,
      0.5086744427680969,
      -0.00993501115590334,
      0.09166096150875092,
      0.34540480375289917,
      0.43410593271255493,
      -0.0394013375043869,
      0.5236126780509949,
      0.2593323886394501,
      0.09501070529222488,
      -0.010552803054451942
    ],
    [
      -0.3004145622253418,
      0.47492972016334534,
      0.3420887589454651,
      -0.44710081815719604,
      0.5429383516311646,
      0.3072899281978607,
      -0.3435515761375427,
      -0.4066356420516968,
      -0.18120571970939636,
      0.24866263568401337,
      0.48264139890670776,
      0.31164005398750305,
      -0.5073503851890564,
      -0.49389708042144775,
      0.08636843413114548,
      0.23999054729938507,
      -0.4719689190387726,
      -0.36551952362060547,
      0.25818315148353577,
      0.023848965764045715,
      0.0281814057379961,
      0.4580329358577728,
      0.4580308496952057,
      -0.3107771575450897,
      -0.03980553150177002
    ],
    [
      0.024438852444291115,
      0.3486829698085785,
      -0.25822538137435913,
      0.36554059386253357,
      0.18086674809455872,
      -0.05630413815379143,
      0.2746865153312683,
      0.34647682309150696,
      0.29556262493133545,
      0.1476137489080429,
      -0.48326611518859863,
      -0.12035337835550308,
      -0.32448169589042664,
      -0.3111744225025177,
      -0.20007428526878357,
      0.06063320115208626,
      0.4673004448413849,
      -0.009842975996434689,
      0.26993295550346375,
      0.2335996776819229,
      -0.04066704213619232,
      0.24651531875133514,
      0.17650960385799408,
      0.010736859403550625,
      -0.4906957447528839
    ],
    [
      -0.15912559628486633,
      -0.40920865535736084,
      -0.0754389613866806,
      0.3242286145687103,
      0.5291023850440979,
      0.49357450008392334,
      -0.4780614674091339,
      -0.18660032749176025,
      -0.3469344675540924,
      -0.303228497505188,
      -0.16695915162563324,
      -0.034709107130765915,
      0.43233710527420044,
      0.16917894780635834,
      -0.00579689210280776,
      -0.12492270022630692,
      0.45994219183921814,
      -0.14914290606975555,
      0.45642057061195374,
      0.427150160074234,
      0.19589820504188538,
      0.4095328748226166,
      0.2976725399494171,
      0.05312807485461235,
      -0.2003059983253479
    ],
    [
      -0.4391736686229706,
      0.35714229941368103,
      0.22058537602424622,
      0.17586460709571838,
      -0.4432193636894226,
      0.5069371461868286,
      0.5827249884605408,
      0.42091310024261475,
      -0.20890870690345764,
      -0.06763854622840881,
      -0.18617689609527588,
      0.33901697397232056,
      0.20574168860912323,
      -0.10160081088542938,
      0.08195431530475616,
      0.10813971608877182,
      -0.11662828922271729,
      0.1247517541050911,
      0.4304850697517395,
      0.0027255460154265165,
      0.42714983224868774,
      -0.21432508528232574,
      -0.32966291904449463,
      0.012008537538349628,
      0.34790948033332825
    ],
    [
      0.22976982593536377,
      -0.20037983357906342,
      -0.04875632002949715,
      0.24443820118904114,
      0.30952659249305725,
      0.09681382030248642,
      0.44103264808654785,
      0.07387765496969223,
      -0.15178126096725464,
      -0.4848630130290985,
      -0.4189307689666748,
      0.1893814653158188,
      -0.05782070383429527,
      0.08087139576673508,
      0.025452114641666412,
      0.05205675959587097,
      -0.0237492173910141,
      0.17165683209896088,
      0.07731007784605026,
      -0.09343542158603668,
      -0.09674058854579926,
      -0.4122106432914734,
      -0.2691512107849121,
      -0.45527368783950806,
      0.4810486435890198
    ],
    [
      0.14488855004310608,
      0.35516247153282166,
      0.24682530760765076,
      -0.14208482205867767,
      -0.2233148068189621,
      -0.009747274219989777,
      0.12085780501365662,
      -0.028891026973724365,
      -0.4064483642578125,
      -0.23506459593772888,
      -0.052392810583114624,
      -0.27851706743240356,
      -0.17027637362480164,
      0.16197606921195984,
      -0.5335411429405212,
      0.0980452299118042,
      0.2268693596124649,
      0.40930256247520447,
      0.418230265378952,
      -0.1666465550661087,
      0.38212016224861145,
      0.3257030248641968,
      -0.057449646294116974,
      0.22348187863826752,
      -0.4523419141769409
    ],
    [
      0.38903138041496277,
      0.23211213946342468,
      -0.3737419545650482,
      -0.11129891872406006,
      -0.4627285897731781,
      0.29424232244491577,
      0.1185227483510971,
      0.06278365850448608,
      0.3684169054031372,
      0.43522030115127563,
      -0.1838068813085556,
      0.040923524647951126,
      0.4567134380340576,
      0.07638848572969437,
      0.43845388293266296,
      -0.3066132664680481,
      0.37524664402008057,
      0.06033722683787346,
      0.20655235648155212,
      -0.07156167179346085,
      -0.16541187465190887,
      -0.05761211737990379,
      -0.13144181668758392,
      -0.2952544093132019,
      0.08913267403841019
    ],
    [
      0.12013674527406693,
      0.04095146805047989,
      0.3205041289329529,
      -0.016148658469319344,
      0.38177037239074707,
      0.2596234679222107,
      -0.045416515320539474,
      -0.48073503375053406,
      0.019703103229403496,
      0.00660480372607708,
      -0.30722299218177795,
      -0.3821427524089813,
      0.048132412135601044,
      -0.0012623827205970883,
      -0.11098158359527588,
      -0.056120842695236206,
      -0.3141064941883087,
      0.19001753628253937,
      0.3807513415813446,
      0.1256445199251175,
      0.28758174180984497,
      -0.4795030951499939,
      -0.07590186595916748,
      0.06013727933168411,
      -0.25010547041893005
    ],
    [
      0.33169129490852356,
      0.019439175724983215,
      0.41181302070617676,
      0.4769943356513977,
      -0.04083137959241867,
      -0.5112621188163757,
      0.27856963872909546,
      0.017639825120568275,
      0.2801174819469452,
      -0.16076171398162842,
      -0.10722716152667999,
      0.4418465197086334,
      -0.33319318294525146,
      -0.32306233048439026,
      0.45005568861961365,
      -0.09395676851272583,
      0.2924264669418335,
      0.4814912974834442,
      0.06202547252178192,
      -0.2380056232213974,
      -0.11305220425128937,
      0.46124544739723206,
      -0.18140368163585663,
      0.14797958731651306,
      -0.03083307296037674
    ],
    [
      0.41252779960632324,
      -0.3273840546607971,
      0.17120161652565002,
      -0.31820687651634216,
      -0.4121742248535156,
      -0.3862588107585907,
      -0.20060193538665771,
      -0.5037973523139954,
      -0.11275136470794678,
      0.29703471064567566,
      0.06566056609153748,
      -0.11815652996301651,
      -0.036640942096710205,
      -0.4481251537799835,
      -0.3030136823654175,
      0.22230572998523712,
      0.08007249236106873,
      0.1435178816318512,
      -0.03575335815548897,
      0.08721151202917099,
      -0.02448299340903759,
      0.178950235247612,
      0.3758465051651001,
      0.07319879531860352,
      -0.4256284832954407
    ],
    [
      0.47527849674224854,
      -0.2612231373786926,
      -0.35113248229026794,
      -0.14312385022640228,
      -0.37597230076789856,
      0.3796108067035675,
      0.17432209849357605,
      -0.27101558446884155,
      0.07778836041688919,
      -0.17337048053741455,
      0.28516754508018494,
      0.02934139408171177,
      -0.12400565296411514,
      -0.42553138732910156,
      -0.02986457385122776,
      0.224876269698143,
      0.44689786434173584,
      -0.43140727281570435,
      0.06373543292284012,
      -0.4279210567474365,
      -0.35687023401260376,
      -0.39881595969200134,
      0.24275512993335724,
      0.49930644035339355,
      0.17061565816402435
    ],
    [
      0.16235987842082977,
      -0.004967201501131058,
      -0.06116345524787903,
      0.4465297758579254,
      -0.5862008333206177,
      0.10124631971120834,
      0.05487072467803955,
      0.4344407320022583,
      0.29786446690559387,
      0.41876959800720215,
      -0.12623381614685059,
      0.1229395642876625,
      -0.002429431537166238,
      0.07945381104946136,
      0.44124579429626465,
      -0.28586581349372864,
      -0.24817025661468506,
      -0.03298589587211609,
      -0.1456339806318283,
      -0.23817569017410278,
      0.2972075045108795,
      0.1430496871471405,
      -0.2983511686325073,
      -0.1279314160346985,
      0.258770227432251
    ],
    [
      -0.25831228494644165,
      -0.19000066816806793,
      0.21457992494106293,
      -0.1425241231918335,
      -0.33977243304252625,
      0.23587177693843842,
      -0.43368086218833923,
      0.560498833656311,
      0.6950578689575195,
      0.09990710020065308,
      0.23956571519374847,
      0.3668263554573059,
      0.5101500153541565,
      0.6389582753181458,
      -0.21594050526618958,
      0.49795812368392944,
      0.10685554146766663,
      0.37237313389778137,
      -0.3350488543510437,
      -0.47166135907173157,
      -0.0038615716621279716,
      -0.16727234423160553,
      -0.06492803245782852,
      0.02886749617755413,
      -0.0923084244132042
    ],
    [
      -0.17271649837493896,
      0.2686328887939453,
      -0.180059552192688,
      -0.14371009171009064,
      -0.3082142174243927,
      0.046082135289907455,
      -0.3215106427669525,
      -0.1905117928981781,
      0.25838977098464966,
      0.45923298597335815,
      0.2725689113140106,
      -0.34482014179229736,
      0.2859334349632263,
      0.26089099049568176,
      -0.41244015097618103,
      -0.40627092123031616,
      0.21597079932689667,
      0.20183205604553223,
      -0.2863617241382599,
      -0.21495552361011505,
      0.0797509029507637,
      -0.27116721868515015,
      0.1055484414100647,
      -0.0008444924606010318,
      0.47019708156585693
    ],
    [
      -0.014015894383192062,
      0.4079506993293762,
      -0.321887344121933,
      0.17275278270244598,
      -0.01305255014449358,
      -0.486986368894577,
      0.04960831254720688,
      0.08050664514303207,
      0.26621323823928833,
      -0.21459881961345673,
      0.2684286832809448,
      0.16597892343997955,
      0.4105432331562042,
      0.32542234659194946,
      -0.002892115619033575,
      0.1410648375749588,
      -0.13475653529167175,
      0.409101665019989,
      0.40112951397895813,
      0.06652025878429413,
      -0.1894061416387558,
      -0.28973278403282166,
      -0.06696399301290512,
      0.11898965388536453,
      0.3011757731437683
    ],
    [
      0.3988093435764313,
      0.2306625097990036,
      -0.20105083286762238,
      0.30639609694480896,
      -0.2243110090494156,
      -0.07140778750181198,
      0.08072008192539215,
      0.2306126356124878,
      -0.26363807916641235,
      0.3413853943347931,
      0.01076450478285551,
      -0.22718745470046997,
      -0.5079408884048462,
      0.022274192422628403,
      -0.04775327071547508,
      0.25854265689849854,
      -0.10816364735364914,
      0.28624942898750305,
      0.12543778121471405,
      -0.0834544450044632,
      0.07869897037744522,
      -0.10621369630098343,
      -0.37679818272590637,
      -0.31675922870635986,
      0.3452717065811157
    ],
    [
      -0.2437397837638855,
      -0.061691831797361374,
      -0.43823501467704773,
      -0.1549856811761856,
      0.2760099768638611,
      0.3271055221557617,
      0.3313450515270233,
      -0.18208247423171997,
      -0.17609620094299316,
      -0.42993107438087463,
      0.3897794783115387,
      0.05368233472108841,
      0.2411990761756897,
      0.46604010462760925,
      -0.007260511163622141,
      -0.21659913659095764,
      -0.16564223170280457,
      -0.347493439912796,
      -0.018048638477921486,
      -0.1344565451145172,
      -0.09320888668298721,
      -0.4861086308956146,
      -0.3791862726211548,
      -0.07808166742324829,
      -0.3112855553627014
    ],
    [
      0.09495975822210312,
      -0.35892245173454285,
      -0.1615506112575531,
      -0.29809850454330444,
      0.48118406534194946,
      0.0717768669128418,
      -0.3194621801376343,
      0.2950042486190796,
      -0.204830601811409,
      0.1706017255783081,
      -0.07392170280218124,
      0.06152724847197533,
      -0.40970489382743835,
      -0.0017724516801536083,
      -0.22289243340492249,
      0.10738154500722885,
      -0.20186550915241241,
      -0.013717740774154663,
      -0.27883321046829224,
      0.17996907234191895,
      -0.08779899775981903,
      -0.33664101362228394,
      -0.4004916548728943,
      0.09337767213582993,
      -0.4003455340862274
    ],
    [
      -0.1390126645565033,
      0.3748624920845032,
      -0.2537030577659607,
      0.02192429080605507,
      0.20638547837734222,
      -0.09698788076639175,
      -0.4591400623321533,
      -0.30950209498405457,
      0.2851400077342987,
      0.2685354948043823,
      0.2879751920700073,
      0.06858207285404205,
      -0.08297143131494522,
      -0.11003968119621277,
      -0.4790050685405731,
      -0.5609205365180969,
      0.4802802503108978,
      0.08888967335224152,
      0.0672958716750145,
      0.302363783121109,
      -0.3032456040382385,
      -0.015510577708482742,
      0.48326677083969116,
      -0.26120108366012573,
      -0.3399423658847809
    ],
    [
      0.46220847964286804,
      -0.21584007143974304,
      0.3701529800891876,
      0.37256288528442383,
      0.6050114631652832,
      0.5411906242370605,
      -0.3816721737384796,
      -0.3240993320941925,
      -0.44074660539627075,
      -0.34999924898147583,
      -0.2913452982902527,
      0.04438585042953491,
      0.4877651631832123,
      -0.4448590576648712,
      -0.008955657482147217,
      0.34450680017471313,
      0.5454733371734619,
      -0.3621700704097748,
      0.16884048283100128,
      0.20929548144340515,
      0.308896541595459,
      -0.19222328066825867,
      0.483870267868042,
      -0.09490621089935303,
      -0.22250935435295105
    ],
    [
      0.17790229618549347,
      -0.1511012464761734,
      -0.009586656466126442,
      -0.2797602117061615,
      0.24649272859096527,
      -0.22413396835327148,
      0.13607646524906158,
      0.23857784271240234,
      -0.15112027525901794,
      -0.04553910344839096,
      -0.3915247619152069,
      -0.025857238098978996,
      0.2885897159576416,
      0.3612370491027832,
      0.1348220258951187,
      0.4507557153701782,
      0.09218448400497437,
      -0.4772113263607025,
      -0.04822808876633644,
      -0.4470936059951782,
      -0.36628979444503784,
      0.2869344651699066,
      -0.20933343470096588,
      0.1889508217573166,
      -0.06181715801358223
    ],
    [
      -0.2189692109823227,
      0.035284653306007385,
      0.5021666288375854,
      0.19912958145141602,
      -0.20855407416820526,
      0.023380445316433907,
      0.2971280515193939,
      0.5674808025360107,
      0.36649268865585327,
      0.3198994994163513,
      -0.24135245382785797,
      0.04503493010997772,
      0.18814143538475037,
      -0.37890222668647766,
      -0.3788675367832184,
      -0.40519648790359497,
      -0.09858084470033646,
      0.21913786232471466,
      -0.3377380073070526,
      0.00047695593093521893,
      0.08505303412675858,
      -0.398685097694397,
      0.22148936986923218,
      0.29933884739875793,
      0.03566683083772659
    ],
    [
      -0.32696306705474854,
      0.2945352792739868,
      -0.08528587967157364,
      0.30367207527160645,
      -0.4407530725002289,
      0.23727691173553467,
      -0.08093539625406265,
      -0.3565604090690613,
      0.41872310638427734,
      -0.3563433289527893,
      -0.1961633861064911,
      -0.26712995767593384,
      -0.06144701689481735,
      -0.20674827694892883,
      0.32508474588394165,
      -0.12268338352441788,
      -0.05632810667157173,
      -0.39686909317970276,
      0.08870264887809753,
      -0.1465209573507309,
      0.3681507110595703,
      -0.35216835141181946,
      -0.3699028491973877,
      -0.47102415561676025,
      -0.05219113826751709
    ],
    [
      0.5142900943756104,
      0.4826509356498718,
      -0.14093372225761414,
      -0.357037216424942,
      -0.3460538685321808,
      -0.323434054851532,
      0.37211593985557556,
      0.05631815269589424,
      0.38809505105018616,
      0.2405281960964203,
      -0.11859411001205444,
      -0.21091312170028687,
      0.5912496447563171,
      0.5507856607437134,
      -0.449831485748291,
      -0.24379529058933258,
      0.07882294058799744,
      0.11889823526144028,
      0.1085066869854927,
      0.13027210533618927,
      -0.43370774388313293,
      -0.01358497142791748,
      -0.05013618245720863,
      0.4060139060020447,
      0.0984429344534874
    ],
    [
      0.15833629667758942,
      -0.4092297852039337,
      0.3410934507846832,
      -0.17214956879615784,
      -0.1736462265253067,
      -0.41359004378318787,
      0.20050707459449768,
      0.22080297768115997,
      0.31355705857276917,
      0.010342604480683804,
      0.023559246212244034,
      -0.30815228819847107,
      0.03851909935474396,
      -0.11666727066040039,
      0.2388140857219696,
      0.3155943751335144,
      -0.23240314424037933,
      -0.12202934920787811,
      -0.2744359076023102,
      0.3498747646808624,
      0.4362179934978485,
      0.24424529075622559,
      0.05823526531457901,
      -0.08298241347074509,
      0.07091213017702103
    ],
    [
      0.37436825037002563,
      0.4345114231109619,
      -0.37987443804740906,
      0.07436413317918777,
      0.08874747157096863,
      0.5739686489105225,
      0.3837878406047821,
      -0.219419464468956,
      -0.11556537449359894,
      0.20854200422763824,
      0.013390139676630497,
      -0.3755051791667938,
      -0.10190135985612869,
      -0.32364290952682495,
      0.4054262638092041,
      -0.0988045185804367,
      -0.11372663080692291,
      0.3460559844970703,
      0.44870761036872864,
      0.1643020659685135,
      0.21984273195266724,
      0.47733843326568604,
      -0.23945729434490204,
      -0.16409456729888916,
      -0.46760281920433044
    ],
    [
      -0.22649046778678894,
      0.4664471447467804,
      -0.07071248441934586,
      -0.20574873685836792,
      0.194588303565979,
      -0.4182988107204437,
      -0.0027874025981873274,
      -0.35840755701065063,
      0.3985503911972046,
      -0.28247708082199097,
      -0.1201423853635788,
      -0.22523687779903412,
      -0.42640188336372375,
      -0.14487352967262268,
      0.1087750717997551,
      0.0005710389814339578,
      0.07495265454053879,
      -0.0010733327362686396,
      0.24256610870361328,
      0.41524723172187805,
      -0.41699403524398804,
      0.18518394231796265,
      0.13251341879367828,
      -0.07130385935306549,
      0.3279373049736023
    ],
    [
      -0.3955506682395935,
      -0.24957263469696045,
      0.41702961921691895,
      0.3176127076148987,
      0.40836551785469055,
      0.19921590387821198,
      -0.3996383249759674,
      -0.16724535822868347,
      -0.41309216618537903,
      -0.1497923880815506,
      0.39541128277778625,
      0.4092007577419281,
      -0.0032118738163262606,
      0.26241248846054077,
      -0.4677477180957794,
      -0.5656156539916992,
      0.0054139322601258755,
      -0.05272533372044563,
      -0.4539113938808441,
      0.1777397096157074,
      0.4954276382923126,
      -0.1294887512922287,
      0.12943489849567413,
      0.19977308809757233,
      0.33621129393577576
    ],
    [
      -0.26137086749076843,
      -0.28846433758735657,
      0.3527379333972931,
      -0.4064943194389343,
      0.13891837000846863,
      -0.16108958423137665,
      0.1546468585729599,
      -0.058285873383283615,
      0.051463305950164795,
      0.10864077508449554,
      0.042055681347846985,
      -0.46645820140838623,
      0.03498954325914383,
      0.07708323001861572,
      -0.288247674703598,
      -0.35458484292030334,
      0.24026274681091309,
      -0.09422340244054794,
      -0.2115013748407364,
      0.11656664311885834,
      0.4291040897369385,
      0.228170707821846,
      -0.49543091654777527,
      -0.25424492359161377,
      0.27301573753356934
    ],
    [
      -0.08505655825138092,
      0.32464906573295593,
      -0.3770778775215149,
      -0.187735915184021,
      0.25750449299812317,
      0.2409975528717041,
      -0.12945599853992462,
      -0.3007013201713562,
      0.37742772698402405,
      0.2258688062429428,
      -0.36320626735687256,
      0.43794015049934387,
      0.5070713758468628,
      0.4511127173900604,
      -0.22710618376731873,
      0.135109543800354,
      -0.263329416513443,
      -0.2660851776599884,
      -0.12961117923259735,
      -0.4418901801109314,
      0.17881223559379578,
      -0.11406665295362473,
      0.018209729343652725,
      -0.1211165115237236,
      0.07076120376586914
    ],
    [
      0.19552895426750183,
      -0.22074566781520844,
      0.017360767349600792,
      -0.11713507771492004,
      -0.2475224733352661,
      -0.08510615676641464,
      -0.32137539982795715,
      0.6233534812927246,
      -0.3605828285217285,
      0.0603097639977932,
      -0.14958712458610535,
      -0.3484841585159302,
      0.3375111520290375,
      0.45649799704551697,
      -0.42174839973449707,
      0.2540702223777771,
      0.3623271584510803,
      0.38415512442588806,
      0.469481498003006,
      -0.2675991356372833,
      0.24991092085838318,
      -0.30682194232940674,
      0.1835232973098755,
      0.4228317439556122,
      0.055015549063682556
    ],
    [
      -0.05752848833799362,
      0.13424134254455566,
      -0.2760137915611267,
      -0.47248587012290955,
      0.36275625228881836,
      -0.42495760321617126,
      0.019466394558548927,
      0.1854899376630783,
      0.26691967248916626,
      0.16739189624786377,
      0.21290497481822968,
      0.2960098087787628,
      -0.2688623368740082,
      0.29951801896095276,
      0.38253405690193176,
      0.2447509765625,
      0.18505840003490448,
      -0.42444464564323425,
      -0.04097849875688553,
      -0.04195652902126312,
      -0.036889106035232544,
      0.3084113299846649,
      0.08594290912151337,
      -0.25067800283432007,
      0.32891297340393066
    ],
    [
      0.12941335141658783,
      0.4971415102481842,
      -0.20518271625041962,
      -0.1978655308485031,
      0.07110998034477234,
      0.34341511130332947,
      -0.14888131618499756,
      0.4496784508228302,
      -0.2247544527053833,
      0.051383890211582184,
      -0.020759323611855507,
      0.5125945210456848,
      -0.3766816556453705,
      -0.44738125801086426,
      0.33372271060943604,
      0.20009611546993256,
      0.4328536093235016,
      -0.17876705527305603,
      0.0882783755660057,
      0.3115674555301666,
      -0.15259280800819397,
      0.08530251681804657,
      -0.16655798256397247,
      -0.15660050511360168,
      0.519490659236908
    ],
    [
      -0.3046322166919708,
      0.39003294706344604,
      -0.12855683267116547,
      0.14028291404247284,
      0.031355470418930054,
      0.37341901659965515,
      -0.42158883810043335,
      -0.2812192440032959,
      -0.379116415977478,
      0.13189008831977844,
      -0.11152175813913345,
      -0.018140705302357674,
      -0.12350168079137802,
      0.4178091585636139,
      0.15878665447235107,
      0.40233391523361206,
      -0.0566280223429203,
      -0.06040803715586662,
      -0.440802663564682,
      -0.4842568039894104,
      0.13527911901474,
      -0.4450918138027191,
      0.448625773191452,
      0.24052022397518158,
      0.4405114948749542
    ],
    [
      -0.44148996472358704,
      0.46128299832344055,
      0.11780006438493729,
      0.23062807321548462,
      0.21024486422538757,
      0.47669142484664917,
      -0.480502724647522,
      -0.31135326623916626,
      0.26993200182914734,
      -0.04218607023358345,
      0.2008560448884964,
      -0.24939443171024323,
      -0.10544463992118835,
      0.40699049830436707,
      -0.2915385663509369,
      0.18865333497524261,
      0.29371848702430725,
      0.01693401299417019,
      -0.24168163537979126,
      -0.38149088621139526,
      -0.10436109453439713,
      -0.18810096383094788,
      0.44954338669776917,
      -0.03275035321712494,
      0.4061814844608307
    ],
    [
      0.004755639471113682,
      -0.07572729140520096,
      -0.22393593192100525,
      0.29453229904174805,
      0.44467294216156006,
      0.2359742820262909,
      0.05515024811029434,
      -0.2819727659225464,
      0.17300094664096832,
      -0.25788646936416626,
      -0.17678578197956085,
      0.04245820268988609,
      0.22321447730064392,
      -0.017067503184080124,
      0.4003351032733917,
      -0.10898104310035706,
      0.26698732376098633,
      0.20260079205036163,
      0.3481605052947998,
      0.44470304250717163,
      -0.07346651703119278,
      -0.22992582619190216,
      -0.12817810475826263,
      0.36924877762794495,
      0.31249552965164185
    ],
    [
      0.35338735580444336,
      0.02635038085281849,
      0.4083998203277588,
      -0.032810427248477936,
      -0.12060991674661636,
      -0.42659494280815125,
      0.45676663517951965,
      -0.5123946666717529,
      -0.06505191326141357,
      0.06318014860153198,
      -0.24261082708835602,
      0.150722473859787,
      -0.3862873613834381,
      -0.27877435088157654,
      0.2561698853969574,
      0.20734292268753052,
      0.041681308299303055,
      0.2966383099555969,
      -0.06522604823112488,
      0.2891010046005249,
      -0.3804049491882324,
      0.018346447497606277,
      0.444669246673584,
      0.2622217535972595,
      0.16789370775222778
    ],
    [
      -0.3192681670188904,
      -0.026089511811733246,
      0.36367741227149963,
      -0.35077789425849915,
      -0.23994705080986023,
      -0.06274997442960739,
      -0.39560166001319885,
      0.5115411877632141,
      -0.14110934734344482,
      0.3342498242855072,
      0.47528505325317383,
      0.1511649340391159,
      -0.24494993686676025,
      0.1997678279876709,
      -0.4735686779022217,
      -0.2901221811771393,
      -0.03698443993926048,
      0.15542563796043396,
      0.37910616397857666,
      0.08936327695846558,
      -0.3763396143913269,
      0.3540858030319214,
      0.11940548568964005,
      0.4033176600933075,
      -0.34580323100090027
    ],
    [
      -0.34723860025405884,
      -0.454089492559433,
      -0.40843483805656433,
      -0.23386427760124207,
      -0.07487904280424118,
      0.07306811213493347,
      -0.3360745906829834,
      -0.020580705255270004,
      -0.30509576201438904,
      0.04265458881855011,
      -0.463990181684494,
      -0.2437339425086975,
      -0.10381252318620682,
      0.2879776656627655,
      0.051372893154621124,
      -0.4762587547302246,
      -0.425471693277359,
      0.2673605978488922,
      0.10125400125980377,
      -0.3503742814064026,
      0.46360287070274353,
      -0.3162623643875122,
      -0.05098925903439522,
      -0.18089653551578522,
      0.4102024435997009
    ],
    [
      -0.18924450874328613,
      0.4629397988319397,
      0.13157612085342407,
      -0.0848436951637268,
      -0.3043162226676941,
      0.37131112813949585,
      -0.29081612825393677,
      0.40152648091316223,
      0.4231492578983307,
      -0.4110396206378937,
      -0.09978526085615158,
      0.08628099411725998,
      0.23436453938484192,
      0.4777612090110779,
      -0.3530403673648834,
      -0.5354065299034119,
      -0.198275625705719,
      0.4223399758338928,
      0.03811775520443916,
      0.48664554953575134,
      0.39595213532447815,
      0.22114776074886322,
      -0.4050554037094116,
      -0.025940489023923874,
      0.27439412474632263
    ],
    [
      -0.07212281972169876,
      -0.43347057700157166,
      0.31913185119628906,
      0.1496870219707489,
      -0.42224326729774475,
      0.0891701728105545,
      0.329353928565979,
      -0.06078718975186348,
      0.3711077868938446,
      0.27105429768562317,
      0.4211563467979431,
      -0.3261619806289673,
      -0.05979974567890167,
      0.18124935030937195,
      0.10410187393426895,
      0.4433046877384186,
      -0.3088734745979309,
      -0.1344859004020691,
      -0.4355712831020355,
      -0.12392690032720566,
      -0.37615805864334106,
      0.036772385239601135,
      0.44761911034584045,
      0.4098799228668213,
      0.26572757959365845
    ],
    [
      0.39310312271118164,
      0.3168374300003052,
      0.4413176476955414,
      -0.4289577305316925,
      0.3703635632991791,
      -0.3734324872493744,
      -0.500498354434967,
      0.3774091303348541,
      -0.15131312608718872,
      -0.25420525670051575,
      -0.4091947674751282,
      -0.46294471621513367,
      0.061914920806884766,
      -0.35943546891212463,
      -0.05291019007563591,
      -0.43444934487342834,
      0.23774293065071106,
      0.34903186559677124,
      -0.13734199106693268,
      0.050597336143255234,
      -0.3988189101219177,
      0.24355359375476837,
      0.3222533166408539,
      0.18092983961105347,
      -0.4868253171443939
    ],
    [
      0.13092730939388275,
      0.2871653437614441,
      0.25449225306510925,
      -0.2310282289981842,
      -0.4538544714450836,
      -0.32811790704727173,
      -0.07927239686250687,
      -0.24658988416194916,
      0.42628222703933716,
      -0.15770481526851654,
      -0.2473793774843216,
      -0.36426854133605957,
      -0.15076744556427002,
      0.0035288254730403423,
      0.40243732929229736,
      -0.40258702635765076,
      0.5578896403312683,
      -0.35240763425827026,
      -0.4651278257369995,
      -0.29399770498275757,
      0.42495474219322205,
      0.5725362300872803,
      -0.37847626209259033,
      -0.02939661405980587,
      -0.0736183300614357
    ],
    [
      0.2060752511024475,
      0.32469606399536133,
      0.2414223551750183,
      0.25983259081840515,
      0.14210167527198792,
      0.16845212876796722,
      -0.21241703629493713,
      -0.3826783299446106,
      0.05350308120250702,
      0.09859152138233185,
      -0.10175526142120361,
      0.4443187415599823,
      0.009987718425691128,
      0.5282526016235352,
      0.3290897607803345,
      -0.35297343134880066,
      0.17328043282032013,
      -0.29205480217933655,
      0.2940030097961426,
      -0.10670655220746994,
      0.1316194236278534,
      -0.4360995292663574,
      -0.3276304006576538,
      -0.40915119647979736,
      -0.14266516268253326
    ],
    [
      0.3318856954574585,
      -0.0677366778254509,
      -0.12307851761579514,
      -0.16591374576091766,
      0.32379835844039917,
      -0.27222567796707153,
      -0.17974786460399628,
      -0.3568938076496124,
      -0.30738866329193115,
      0.11760500073432922,
      -0.48732271790504456,
      -0.020892037078738213,
      0.2580784261226654,
      -0.303467720746994,
      0.0740484744310379,
      -0.054508406668901443,
      0.2553432881832123,
      -0.03744381666183472,
      0.24735617637634277,
      0.11915267258882523,
      -0.23244024813175201,
      -0.35996946692466736,
      -0.35318082571029663,
      0.23396776616573334,
      0.3930898904800415
    ],
    [
      0.31240832805633545,
      0.4545383155345917,
      0.37009328603744507,
      0.22394287586212158,
      0.09238763153553009,
      -0.4762471616268158,
      0.35004889965057373,
      -0.02234909124672413,
      0.12554112076759338,
      0.11172368377447128,
      -0.2508149743080139,
      -0.08894842863082886,
      -0.11049924045801163,
      -0.10636018216609955,
      0.4826124906539917,
      0.1719379872083664,
      0.37687599658966064,
      0.41249242424964905,
      -0.015199342742562294,
      0.1504376381635666,
      0.41722896695137024,
      -0.2602803409099579,
      0.2145923674106598,
      0.07257497310638428,
      -0.21039094030857086
    ],
    [
      -0.14963600039482117,
      0.3364291787147522,
      -0.2561226785182953,
      0.287144273519516,
      0.4301145076751709,
      0.2438136786222458,
      -0.15974941849708557,
      0.09889258444309235,
      -0.533309280872345,
      0.4322095513343811,
      0.37691745162010193,
      -0.10050873458385468,
      0.11135443300008774,
      -0.09709415584802628,
      -0.29432687163352966,
      -0.5055297017097473,
      -0.26063308119773865,
      0.2983737587928772,
      -0.46827420592308044,
      -0.22654256224632263,
      0.3530098795890808,
      -0.45531824231147766,
      0.23378802835941315,
      0.24635811150074005,
      0.47420015931129456
    ],
    [
      0.2995285987854004,
      0.29302290081977844,
      -0.12327704578638077,
      0.33069801330566406,
      0.6158323884010315,
      -0.5331127643585205,
      -0.21688610315322876,
      -0.09044946730136871,
      0.5293401479721069,
      0.5128872394561768,
      -0.19070620834827423,
      -0.03858301416039467,
      0.17264427244663239,
      -0.1255171000957489,
      -0.2955628037452698,
      0.03002907894551754,
      -0.3322313129901886,
      -0.13728678226470947,
      0.4515962302684784,
      0.2904835045337677,
      0.0434013232588768,
      -0.15414275228977203,
      -0.18463292717933655,
      0.32251691818237305,
      -0.35247862339019775
    ],
    [
      0.2370588630437851,
      -0.43169423937797546,
      0.30833864212036133,
      -0.1391066461801529,
      -0.348051518201828,
      0.13649313151836395,
      -0.2120504230260849,
      0.3583950996398926,
      -0.5304409861564636,
      0.2686082720756531,
      0.4693385064601898,
      -0.11706571280956268,
      -0.41947638988494873,
      -0.011201903223991394,
      0.46211329102516174,
      -0.4413639307022095,
      -0.2919282913208008,
      -0.19363850355148315,
      -0.3456922471523285,
      -0.4535689353942871,
      0.0745076984167099,
      0.3335033357143402,
      0.3652624785900116,
      -0.10592043399810791,
      -0.21406438946723938
    ],
    [
      0.46706724166870117,
      -0.10035885870456696,
      -0.33720138669013977,
      0.4187563359737396,
      0.5109050869941711,
      -0.13019706308841705,
      -0.05227308347821236,
      0.4216071665287018,
      -0.31728285551071167,
      0.2320837527513504,
      0.03368263691663742,
      0.19858044385910034,
      0.08612411469221115,
      -0.2198169231414795,
      -0.335236519575119,
      -0.3505558371543884,
      0.15264944732189178,
      -0.4277973175048828,
      0.06166893616318703,
      -0.23572784662246704,
      0.26952293515205383,
      0.1183292418718338,
      -0.3726191818714142,
      -0.17922134697437286,
      0.30109164118766785
    ],
    [
      0.37051641941070557,
      0.16005370020866394,
      -0.3860008120536804,
      0.36589640378952026,
      0.40099626779556274,
      -0.020391227677464485,
      0.2544620633125305,
      -0.2613578140735626,
      0.41481101512908936,
      0.31567543745040894,
      -0.10177186876535416,
      0.03822821378707886,
      0.4985487461090088,
      0.09034643322229385,
      0.38848042488098145,
      -0.02421850711107254,
      0.38668230175971985,
      -0.4138377010822296,
      -0.4806651771068573,
      0.3603532016277313,
      0.2693329155445099,
      -0.3940541744232178,
      0.10295161604881287,
      -0.3430212438106537,
      -0.43279731273651123
    ],
    [
      0.3389475643634796,
      0.15331804752349854,
      -0.011328021064400673,
      -0.32641807198524475,
      -0.09207125008106232,
      -0.3961181044578552,
      0.04277978837490082,
      -0.29365864396095276,
      0.5912942886352539,
      -0.009950485080480576,
      0.17242243885993958,
      0.43749189376831055,
      -0.23487713932991028,
      0.3077041506767273,
      -0.22355249524116516,
      0.11015662550926208,
      0.045609358698129654,
      -0.10154528170824051,
      0.2879045605659485,
      0.36886197328567505,
      0.4695049524307251,
      -0.14209049940109253,
      0.059646300971508026,
      0.2915125787258148,
      0.17397378385066986
    ],
    [
      0.0007430060650222003,
      -0.05451999232172966,
      -0.06897953897714615,
      0.16498985886573792,
      -0.36389151215553284,
      -0.45750054717063904,
      0.0694378986954689,
      0.04693187400698662,
      0.15049400925636292,
      0.41121706366539,
      -0.2608277201652527,
      -0.06759925931692123,
      0.02663532830774784,
      0.11166962236166,
      -0.1807437539100647,
      -0.12338196486234665,
      0.15561233460903168,
      -0.38817480206489563,
      -0.2617549002170563,
      -0.3236295282840729,
      -0.04439621418714523,
      -0.47181299328804016,
      -0.3852432072162628,
      -0.24377784132957458,
      0.050511304289102554
    ],
    [
      0.39880746603012085,
      -0.14291934669017792,
      -0.37100276350975037,
      0.2326374650001526,
      0.19472061097621918,
      -0.08625812828540802,
      -0.4079819321632385,
      -0.4493536353111267,
      -0.3105875551700592,
      -0.21049606800079346,
      -0.11458348482847214,
      0.4674604535102844,
      0.030308282002806664,
      0.06797419488430023,
      0.3367880582809448,
      -0.4716009795665741,
      -0.17352640628814697,
      -0.42603203654289246,
      0.18254172801971436,
      0.20406250655651093,
      -0.09451127052307129,
      -0.31438159942626953,
      0.14184033870697021,
      -0.27990591526031494,
      0.16863244771957397
    ],
    [
      0.3722696900367737,
      0.20905008912086487,
      0.06975499540567398,
      0.09487712383270264,
      -0.34363681077957153,
      0.06830386072397232,
      0.2640566825866699,
      0.06456220895051956,
      0.11267286539077759,
      0.49207332730293274,
      0.3660348355770111,
      -0.1187366247177124,
      -0.06006902828812599,
      0.23927731812000275,
      -0.4378497302532196,
      -0.2519855201244354,
      -0.298850417137146,
      0.06082910671830177,
      -0.08603614568710327,
      0.16978007555007935,
      -0.13950499892234802,
      -0.36350780725479126,
      0.05552000552415848,
      0.46610090136528015,
      0.20260611176490784
    ],
    [
      -0.43776217103004456,
      -0.10842685401439667,
      0.2319137305021286,
      0.27862805128097534,
      -0.3095044493675232,
      -0.48403656482696533,
      -0.34846067428588867,
      0.38713592290878296,
      0.08387266844511032,
      0.1643930822610855,
      -0.03229305148124695,
      -0.4199390709400177,
      -0.48782631754875183,
      -0.3559207022190094,
      0.4266675114631653,
      0.104522705078125,
      -0.2024080902338028,
      0.4077411890029907,
      0.33899572491645813,
      0.2712550163269043,
      -0.2281440943479538,
      -0.0588301457464695,
      0.20310357213020325,
      0.36649084091186523,
      0.2913222312927246
    ],
    [
      -0.09266006201505661,
      0.4859890043735504,
      -0.192390576004982,
      0.4033202826976776,
      -0.07209350168704987,
      -0.0223590899258852,
      -0.28397607803344727,
      0.2947162091732025,
      0.04433866962790489,
      -0.42567479610443115,
      0.25462210178375244,
      0.12341368943452835,
      0.30073070526123047,
      -0.3439672589302063,
      -0.09193475544452667,
      -0.414251446723938,
      0.07022470235824585,
      -0.14480488002300262,
      -0.32541805505752563,
      -0.18602198362350464,
      0.18648900091648102,
      0.22249777615070343,
      0.1320972740650177,
      -0.2460263967514038,
      0.3921509087085724
    ],
    [
      -0.3207071125507355,
      -0.19370900094509125,
      0.014901289716362953,
      0.3631758689880371,
      0.03250722587108612,
      0.2870158553123474,
      0.004826840478926897,
      -0.06423758715391159,
      -0.2631703019142151,
      -0.45921754837036133,
      0.4063110947608948,
      -0.3405296802520752,
      0.04139725863933563,
      -0.3157905042171478,
      0.2218649685382843,
      0.13766944408416748,
      -0.09849634021520615,
      0.35612279176712036,
      -0.21396347880363464,
      -0.06912783533334732,
      0.12950202822685242,
      0.2419920712709427,
      -0.012212704867124557,
      0.21420873701572418,
      0.17334116995334625
    ],
    [
      -0.23099367320537567,
      0.11406087875366211,
      0.006881203036755323,
      0.20005322992801666,
      -0.13114972412586212,
      -0.39345812797546387,
      0.21556895971298218,
      -0.41432154178619385,
      -0.22760644555091858,
      0.316918283700943,
      -0.2362249195575714,
      0.40066641569137573,
      0.14476436376571655,
      0.14196932315826416,
      -0.031305503100156784,
      -0.35985785722732544,
      -0.35284873843193054,
      0.003019986441358924,
      0.030318092554807663,
      -0.41315925121307373,
      -0.43670397996902466,
      -0.11434570699930191,
      0.08267529308795929,
      0.24491824209690094,
      -0.2097042202949524
    ],
    [
      -0.1741109937429428,
      0.41661784052848816,
      -0.11251303553581238,
      0.04512922093272209,
      -0.4345495402812958,
      0.24962230026721954,
      0.04445750266313553,
      -0.025806227698922157,
      0.6014705300331116,
      -0.06021225452423096,
      -0.14796161651611328,
      -0.14453479647636414,
      -0.3406009376049042,
      0.5773557424545288,
      -0.10939742624759674,
      0.36982524394989014,
      0.16314467787742615,
      0.4969661831855774,
      -0.1537977010011673,
      0.32164040207862854,
      0.38738536834716797,
      -0.1252654641866684,
      -0.22480952739715576,
      -0.4005836248397827,
      -0.03996670991182327
    ],
    [
      0.19719065725803375,
      0.0629597008228302,
      -0.41173338890075684,
      -0.1425521820783615,
      -0.4712088704109192,
      0.4887380003929138,
      -0.2774970829486847,
      -0.2451154738664627,
      0.31291094422340393,
      -0.38754886388778687,
      -0.3415551781654358,
      -0.45846259593963623,
      -0.2488691508769989,
      0.2674190402030945,
      -0.09534329921007156,
      -0.03617991507053375,
      -0.07682541757822037,
      -0.2319338023662567,
      -0.10987728834152222,
      0.15139219164848328,
      -0.23250828683376312,
      -0.08273231983184814,
      -0.23151874542236328,
      -0.4666381776332855,
      0.468702107667923
    ],
    [
      0.38251033425331116,
      0.4284742772579193,
      0.11594820767641068,
      0.14613206684589386,
      -0.24160276353359222,
      0.129129096865654,
      0.1023620069026947,
      0.021966082975268364,
      -0.26294443011283875,
      0.31065675616264343,
      0.45845869183540344,
      0.12343957275152206,
      0.2582249641418457,
      0.4171154499053955,
      0.32569620013237,
      0.17813324928283691,
      0.36166825890541077,
      -0.3276681900024414,
      -0.0971677303314209,
      0.40094125270843506,
      -0.327829509973526,
      0.43740248680114746,
      -0.35165899991989136,
      -0.30449536442756653,
      -0.3641296923160553
    ]
  ],
  "fc1.bias": [
    -0.008526889607310295,
    0.02283305488526821,
    0.15077391266822815,
    0.0873742327094078,
    0.014825413003563881,
    0.05274946615099907,
    0.06381803005933762,
    -0.042476046830415726,
    0.018464399501681328,
    0.026097796857357025,
    0.0,
    0.05595659092068672,
    -0.0023303122725337744,
    -0.0035325123462826014,
    0.052995841950178146,
    0.07944690436124802,
    0.00044888979755342007,
    -0.005388262216001749,
    0.08637338876724243,
    -0.010992620140314102,
    0.02839331515133381,
    0.0,
    -0.027127064764499664,
    0.10866907984018326,
    -0.00942944921553135,
    -0.028574539348483086,
    0.03823784738779068,
    -0.03395519778132439,
    0.0,
    0.0,
    0.03185243532061577,
    0.09542947262525558,
    0.0,
    0.020776567980647087,
    0.0,
    0.018457544967532158,
    0.08991340547800064,
    0.0,
    0.0861499235033989,
    0.017495667561888695,
    0.007271101698279381,
    0.0,
    -0.0036755427718162537,
    0.044501893222332,
    0.0001132977195084095,
    -0.02609512396156788,
    0.0021805630531162024,
    -0.020491762086749077,
    -0.025200488045811653,
    -0.036549657583236694,
    -0.010648430325090885,
    0.04874442145228386,
    0.013843957334756851,
    0.0,
    0.0,
    0.0,
    0.01724804751574993,
    0.052720580250024796,
    0.05704490840435028,
    0.014865176752209663,
    -0.007753992918878794,
    0.0,
    0.03493928164243698,
    0.0,
    0.00308272079564631,
    0.06432684510946274,
    0.015792200341820717,
    -0.02555486373603344,
    0.028383074328303337,
    0.04031598940491676,
    0.0,
    -0.03166203200817108,
    0.05207175761461258,
    -0.005346581339836121,
    -0.00013028101238887757,
    0.014635484665632248,
    0.008514265529811382,
    0.0020305567886680365,
    0.030306607484817505,
    0.0806853398680687,
    -0.037833258509635925,
    -0.014105601236224174,
    0.0,
    -0.005558720789849758,
    0.07588056474924088,
    0.07466806471347809,
    0.0,
    0.0827828124165535,
    0.0,
    0.04393642023205757,
    0.007621855940669775,
    -0.012974834069609642,
    -0.023003045469522476,
    0.03324092552065849,
    0.0071995933540165424,
    -0.013886285945773125,
    0.11888210475444794,
    0.0001557168725412339,
    0.06626921147108078,
    0.028701428323984146,
    0.02157767489552498,
    0.026874851435422897,
    0.07080169022083282,
    0.0587824247777462,
    0.0,
    0.02435324527323246,
    0.05792443826794624,
    -0.03278220072388649,
    0.07461154460906982,
    0.0034036950673907995,
    0.0,
    -0.013093885965645313,
    0.000540751323569566,
    0.05318383499979973,
    -0.002959764562547207,
    0.020688721910119057,
    0.014635388739407063,
    -0.003031717147678137,
    -0.01232118345797062,
    0.0,
    0.031153978779911995,
    0.004389742389321327,
    0.04403706640005112,
    0.010992558673024178,
    -0.022126922383904457,
    0.05949368327856064,
    0.0,
    -0.010960881598293781
  ],
  "fc2.weight": [
    [
      0.19215430319309235,
      0.18973825871944427,
      0.17734478414058685,
      0.16376140713691711,
      -0.18496127426624298,
      0.09410488605499268,
      0.22296185791492462,
      0.12671801447868347,
      -0.0770336464047432,
      -0.04533775523304939,
      -0.05354566499590874,
      0.20929208397865295,
      0.22674083709716797,
      0.21615979075431824,
      -0.008020948618650436,
      0.19107380509376526,
      -0.2049272656440735,
      0.13137641549110413,
      0.2207913100719452,
      0.26010236144065857,
      -0.18374544382095337,
      0.07046926021575928,
      0.058404341340065,
      0.1202518418431282,
      0.08451828360557556,
      0.03905084356665611,
      -0.14280448853969574,
      -0.06461188942193985,
      0.10313738137483597,
      0.19204765558242798,
      -0.052398864179849625,
      -0.03282901644706726,
      -0.05729953944683075,
      -0.14676083624362946,
      -0.013306302949786186,
      0.13867022097110748,
      0.19659554958343506,
      0.07117633521556854,
      0.085808165371418,
      -0.22725731134414673,
      -0.11860259622335434,
      0.20240120589733124,
      0.19197413325309753,
      0.0025950807612389326,
      0.08577583730220795,
      0.02817494235932827,
      -0.24446292221546173,
      0.05007873848080635,
      -0.07914239168167114,
      0.05168056860566139,
      0.015724297612905502,
      0.18269804120063782,
      -0.14085201919078827,
      -0.03618168458342552,
      0.00786595605313778,
      0.11281795799732208,
      0.14755788445472717,
      0.14444874227046967,
      0.1711825728416443,
      0.23385877907276154,
      0.03660961613059044,
      0.08398358523845673,
      0.15827752649784088,
      -0.03812439739704132,
      -0.20434068143367767,
      0.04358408972620964,
      0.261541485786438,
      -0.00048479108954779804,
      0.2327047884464264,
      -0.2430012971162796,
      -0.12667877972126007,
      -0.1544264405965805,
      0.228216290473938,
      -0.11267319321632385,
      0.1648835837841034,
      -0.04236522689461708,
      -0.09039311110973358,
      -0.15943455696105957,
      -0.03956971317529678,
      0.06127511337399483,
      0.003338687354698777,
      -0.05625823885202408,
      0.13167960941791534,
      -0.06140116974711418,
      0.010735146701335907,
      -0.11784213781356812,
      0.19029566645622253,
      -0.011830341070890427,
      -0.013277138583362103,
      -0.05542118847370148,
      0.05531487613916397,
      0.09930229932069778,
      -0.13754236698150635,
      -0.11861482262611389,
      0.2613038122653961,
      -0.0700046718120575,
      -0.002272494602948427,
      -0.06282854825258255,
      -0.27116939425468445,
      0.0911010205745697,
      0.23536716401576996,
      0.051680464297533035,
      -0.10029008239507675,
      -0.058672595769166946,
      -0.1165110245347023,
      -0.06681278347969055,
      0.15692363679409027,
      -0.10979963093996048,
      -0.03293442353606224,
      -0.12703748047351837,
      -0.05400850623846054,
      0.07642952352762222,
      -0.1115923747420311,
      0.25561776757240295,
      -0.17740364372730255,
      0.20559000968933105,
      0.2664007544517517,
      0.23748469352722168,
      0.05135486647486687,
      0.07677365839481354,
      -0.02364027313888073,
      -0.00881617609411478,
      0.05170070007443428,
      -0.004371008835732937,
      0.0623365193605423,
      0.14670394361019135,
      -0.03214037045836449,
      -0.18887370824813843
    ],
    [
      0.13274256885051727,
      -0.07097714394330978,
      0.19720837473869324,
      -0.10693076997995377,
      -0.0027748725842684507,
      0.08287081867456436,
      -0.09089630842208862,
      0.055204857140779495,
      -0.1508137583732605,
      -0.16953472793102264,
      -0.01972183957695961,
      0.1822700798511505,
      0.21658900380134583,
      0.1333855241537094,
      0.21739418804645538,
      -0.04979526996612549,
      -0.10120322555303574,
      -0.009679957292973995,
      0.08936338871717453,
      -0.1701430231332779,
      0.26948586106300354,
      -0.07559674233198166,
      0.26288625597953796,
      0.0225746538490057,
      0.022228196263313293,
      -0.12341009080410004,
      0.2422732412815094,
      -0.12303898483514786,
      -0.05634332075715065,
      -0.05832337588071823,
      0.0023463130928575993,
      0.0223200935870409,
      0.11274062842130661,
      -0.11981454491615295,
      -0.09643296152353287,
      0.18711145222187042,
      0.1218179315328598,
      0.052432626485824585,
      -0.03441903740167618,
      0.20360763370990753,
      0.06970486789941788,
      0.03427639603614807,
      0.046807270497083664,
      0.15448296070098877,
      -0.13156433403491974,
      0.01804005354642868,
      0.19503431022167206,
      -0.11028675734996796,
      0.12126848846673965,
      0.14208625257015228,
      -0.05518583953380585,
      0.17994438111782074,
      0.12896357476711273,
      -0.2114347666501999,
      0.043544381856918335,
      -0.1535089910030365,
      -0.19731907546520233,
      0.0664626955986023,
      -0.06658995896577835,
      0.05823884159326553,
      -0.012968799099326134,
      -0.02387857250869274,
      0.06133025884628296,
      0.11064943671226501,
      -0.07481168210506439,
      -0.011313472874462605,
      0.1776638925075531,
      -0.14597584307193756,
      -0.07424942404031754,
      -0.07806465774774551,
      0.14339491724967957,
      0.05842512473464012,
      0.24321036040782928,
      0.13939021527767181,
      0.06153744459152222,
      -0.03342592343688011,
      0.022767651826143265,
      -0.18823951482772827,
      -0.08041322976350784,
      -0.13204669952392578,
      0.20892281830310822,
      -0.22143180668354034,
      0.19857120513916016,
      0.025431301444768906,
      -0.23548169434070587,
      0.02304036356508732,
      0.08512036502361298,
      -0.06954050064086914,
      -0.0026215293910354376,
      0.1514497846364975,
      -0.10734103620052338,
      0.052171673625707626,
      -0.13609085977077484,
      -0.06081525981426239,
      -0.03132129833102226,
      0.08583839237689972,
      -0.21376679837703705,
      0.194705531001091,
      -0.0007747273775748909,
      -0.10426514595746994,
      0.16171400249004364,
      0.02047334611415863,
      0.3305671513080597,
      -0.02525237202644348,
      0.03360496088862419,
      -0.011013219133019447,
      0.28523486852645874,
      -0.2138955146074295,
      0.26623430848121643,
      -0.1330653578042984,
      -0.02228403277695179,
      -0.1564858853816986,
      0.10517962276935577,
      -0.208188995718956,
      0.13344594836235046,
      0.024476410821080208,
      0.22844034433364868,
      0.09882429242134094,
      0.0099997129291296,
      -0.20274998247623444,
      -0.1304655820131302,
      -0.06297923624515533,
      -0.11659026145935059,
      -0.019597943872213364,
      -0.010493941605091095,
      0.10106048732995987,
      -0.2109455019235611,
      0.05298131704330444
    ],
    [
      0.0684627965092659,
      -0.07305970788002014,
      0.07203619927167892,
      -0.1951189637184143,
      0.09689290821552277,
      0.203079953789711,
      0.1393258273601532,
      0.006882397923618555,
      -0.10380333662033081,
      -0.19981123507022858,
      -0.06957198679447174,
      0.02997174859046936,
      0.05863747000694275,
      0.17168353497982025,
      -0.004724553786218166,
      -0.006531718652695417,
      0.21352052688598633,
      -0.052634015679359436,
      -0.0791870504617691,
      -0.17387549579143524,
      -0.07874442636966705,
      0.049400802701711655,
      0.11809935420751572,
      0.36012357473373413,
      -0.02672130987048149,
      0.034962985664606094,
      0.12858814001083374,
      0.1582312285900116,
      -0.11231402307748795,
      -0.09907080233097076,
      0.008260935544967651,
      -0.34881144762039185,
      -0.18822462856769562,
      -0.0963115319609642,
      -0.13769648969173431,
      -0.19586636126041412,
      -0.10263331979513168,
      0.05110242962837219,
      -0.0278177373111248,
      0.04949619248509407,
      0.01767686940729618,
      0.18223516643047333,
      0.12608781456947327,
      0.1240631639957428,
      0.1565035730600357,
      -0.013685427606105804,
      0.03560095652937889,
      0.0748770609498024,
      0.2107325792312622,
      -0.09382767230272293,
      -0.10576171427965164,
      0.0836663544178009,
      0.07455945014953613,
      0.06995624303817749,
      0.04947337880730629,
