{
  "fc1.weight": [
    [
      0.3880869746208191,
      -0.07339277863502502,
      -0.05192844942212105,
      -0.35030412673950195,
      0.46475541591644287,
      0.13905712962150574,
      0.36072835326194763,
      0.508001446723938,
      0.3723263442516327,
      0.031498782336711884,
      -0.16101430356502533,
      0.08878602087497711,
      0.5086954236030579,
      0.34284552931785583,
      -0.08657357841730118,
      0.04371717572212219,
      -0.08137243241071701,
      -0.37879323959350586,
      0.3998442590236664,
      0.10318034142255783,
      -0.16591200232505798,
      -0.19691933691501617,
      0.43617942929267883,
      0.5077558755874634,
      0.07629143446683884
    ],
    [
      -0.2210603505373001,
      -0.3421839773654938,
      0.5050159096717834,
      -0.3512095510959625,
      0.406425803899765,
      -0.29824092984199524,
      0.5142797231674194,
      -0.026974590495228767,
      -0.14587707817554474,
      -0.040919385850429535,
      -0.02891031838953495,
      0.09193438291549683,
      0.44640785455703735,
      -0.17354045808315277,
      0.5188766717910767,
      -0.15447162091732025,
      0.4854515492916107,
      0.3792549669742584,
      0.05669223144650459,
      -0.4761672616004944,
      -0.05321040004491806,
      -0.08741703629493713,
      0.4598304033279419,
      0.3743884265422821,
      -0.2363380640745163
    ],
    [
      0.06846261769533157,
      0.19286423921585083,
      0.08918125182390213,
      0.4803243577480316,
      -0.24586230516433716,
      0.15088911354541779,
      0.2426052838563919,
      -0.40195468068122864,
      -0.24632729589939117,
      0.10515216737985611,
      -0.220759317278862,
      0.05028221756219864,
      0.20690417289733887,
      -0.3200069069862366,
      0.017465902492403984,
      -0.2889861464500427,
      -0.2973792552947998,
      -0.2206224799156189,
      0.34773510694503784,
      -0.1508350521326065,
      0.13386788964271545,
      0.3783569931983948,
      0.4619623124599457,
      0.12114176154136658,
      0.34837692975997925
    ],
    [
      -0.33762219548225403,
      -0.3047424554824829,
      0.4564628303050995,
      0.06283160299062729,
      0.176577627658844,
      0.3159728944301605,
      -0.43394216895103455,
      -0.026895657181739807,
      -0.38842111825942993,
      0.20524606108665466,
      0.11513984203338623,
      -0.38645273447036743,
      0.3788863718509674,
      0.13526611030101776,
      -0.28434669971466064,
      0.5932087302207947,
      0.41993552446365356,
      0.041082367300987244,
      -0.3447672426700592,
      -0.4777873754501343,
      0.29723265767097473,
      0.3227870762348175,
      -0.17754331231117249,
      -0.3258809745311737,
      -0.29083627462387085
    ],
    [
      -0.05092309042811394,
      -0.16880665719509125,
      0.011349063366651535,
      -0.16517679393291473,
      0.10064120590686798,
      -0.2928878664970398,
      -0.118185855448246,
      -0.4458838403224945,
      -0.15877902507781982,
      0.13844722509384155,
      -0.16394612193107605,
      0.3845389783382416,
      0.412160724401474,
      -0.30102968215942383,
      -0.06353553384542465,
      -0.3555513024330139,
      -0.09021124988794327,
      -0.45442384481430054,
      0.11949408054351807,
      0.2929981052875519,
      0.28930312395095825,
      -0.2509958744049072,
      0.24462753534317017,
      -0.3168905973434448,
      -0.4215635359287262
    ],
    [
      0.3112291693687439,
      -0.3739546835422516,
      0.16392627358436584,
      -0.0378047414124012,
      0.4648713767528534,
      0.378421425819397,
      0.44596388936042786,
      -0.1272030770778656,
      -0.46304261684417725,
      -0.4606751799583435,
      0.02153744362294674,
      -0.1710854470729828,
      -0.1797202080488205,
      -0.38475143909454346,
      -0.09673954546451569,
      0.21674217283725739,
      0.2618143856525421,
      0.28385454416275024,
      0.2602340281009674,
      0.18389101326465607,
      -0.043540146201848984,
      0.29957541823387146,
      0.32331472635269165,
      -0.4003547132015228,
      0.012371586635708809
    ],
    [
      -0.42023852467536926,
      0.3982941508293152,
      -0.21682611107826233,
      0.28690195083618164,
      0.11477254331111908,
      -0.18942897021770477,
      0.43318796157836914,
      -0.35298264026641846,
      0.20839524269104004,
      -0.34906521439552307,
      -0.15719187259674072,
      -0.40413281321525574,
      -0.09846657514572144,
      0.23011918365955353,
      0.4406120479106903,
      -0.2747843265533447,
      -0.2314894199371338,
      -0.3208579123020172,
      -0.07583214342594147,
      0.028744259849190712,
      -0.4594941735267639,
      -0.25907719135284424,
      0.4382757246494293,
      0.08848805725574493,
      0.03305460512638092
    ],
    [
      0.21743306517601013,
      0.42998433113098145,
      -0.14656856656074524,
      -0.4059590995311737,
      -0.40933480858802795,
      -0.37438303232192993,
      -0.2507842481136322,
      0.057798221707344055,
      -0.4849485754966736,
      0.20479369163513184,
      0.30102863907814026,
      -0.40186840295791626,
      0.27079710364341736,
      -0.010680912993848324,
      0.12942342460155487,
      0.43699562549591064,
      0.1439545750617981,
      -0.02149217389523983,
      0.4508335590362549,
      -0.336797297000885,
      -0.4114173948764801,
      0.08917345851659775,
      -0.4161517024040222,
      0.044923488050699234,
      -0.19565774500370026
    ],
    [
      -0.27895402908325195,
      0.04818239435553551,
      0.31498634815216064,
      0.04370199516415596,
      0.04318910464644432,
      -0.46265876293182373,
      0.5396021604537964,
      -0.08642323315143585,
      -0.008341836743056774,
      -0.2941444516181946,
      0.33199700713157654,
      0.25202706456184387,
      0.14219138026237488,
      -0.3400241434574127,
      0.15658524632453918,
      -0.5521067380905151,
      0.30675292015075684,
      0.10827428102493286,
      -0.09861915558576584,
      0.03445786237716675,
      0.31866416335105896,
      0.3299991190433502,
      0.05307668820023537,
      0.40737906098365784,
      0.13271024823188782
    ],
    [
      0.36856287717819214,
      -0.0803559198975563,
      -0.17711912095546722,
      -0.2819719612598419,
      0.16479621827602386,
      -0.03262415528297424,
      0.0697556808590889,
      -0.5122438073158264,
      0.20875850319862366,
      0.523237407207489,
      0.2019137293100357,
      -0.13617746531963348,
      0.06985732167959213,
      0.5301039814949036,
      -0.29108336567878723,
      -0.4093763530254364,
      -0.33153635263442993,
      0.46398112177848816,
      -0.42226889729499817,
      0.4817294776439667,
      -0.07877346128225327,
      -0.09356854856014252,
      0.07357731461524963,
      0.02819250337779522,
      -0.1336691826581955
    ],
    [
      0.1053173765540123,
      -0.06127025932073593,
      0.4739091098308563,
      -0.10862335562705994,
      -0.47211578488349915,
      0.3903907835483551,
      -0.1337994784116745,
      -0.2761004567146301,
      0.2203158587217331,
      -0.0424385741353035,
      -0.2797164022922516,
      -0.35184788703918457,
      0.004260070621967316,
      0.44833308458328247,
      -0.23166364431381226,
      0.14280880987644196,
      -0.38630759716033936,
      0.35133594274520874,
      -0.32904142141342163,
      0.14317169785499573,
      -0.3644801080226898,
      -0.01690027303993702,
      0.41504478454589844,
      0.07613765448331833,
      0.43891194462776184
    ],
    [
      0.4277292788028717,
      -0.07918254286050797,
      -0.26213690638542175,
      0.1664714813232422,
      -0.17406858503818512,
      0.22527681291103363,
      0.47174134850502014,
      0.44389379024505615,
      -0.026659052819013596,
      -0.07167438417673111,
      0.27977049350738525,
      0.34833255410194397,
      0.46528828144073486,
      0.41285327076911926,
      -0.21440812945365906,
      -0.4278472661972046,
      -0.16916018724441528,
      -0.33775976300239563,
      -0.46469780802726746,
      -0.20519804954528809,
      -0.195888951420784,
      -0.42189937829971313,
      0.20044369995594025,
      -0.302298903465271,
      0.2603643238544464
    ],
    [
      0.026062406599521637,
      -0.31041476130485535,
      -0.22216887772083282,
      0.32527706027030945,
      -0.2611720860004425,
      0.20157885551452637,
      -0.08932062983512878,
      -0.43969446420669556,
      -0.4930869936943054,
      -0.3222826421260834,
      0.04583703354001045,
      0.05315473675727844,
      -0.1552520990371704,
      0.2939783036708832,
      0.35723042488098145,
      0.3097521662712097,
      -0.3978283405303955,
      -0.19411537051200867,
      -0.16744546592235565,
      0.1659470945596695,
      -0.3791005611419678,
      -0.005801478400826454,
      0.3203299045562744,
      -0.267965167760849,
      0.2986862063407898
    ],
    [
      0.1525888741016388,
      -0.3869635760784149,
      -0.27003800868988037,
      0.4967982769012451,
      -0.29570332169532776,
      -0.31869080662727356,
      -0.23321174085140228,
      0.3114149570465088,
      0.1585703343153,
      -0.042312927544116974,
      0.4621586501598358,
      -0.26788169145584106,
      -0.3814033269882202,
      -0.34093448519706726,
      -0.16215156018733978,
      -0.11715466529130936,
      -0.0878235474228859,
      0.3708667457103729,
      -0.4004919230937958,
      0.47044792771339417,
      0.007289921399205923,
      0.019972437992691994,
      -0.1409272700548172,
      0.37186551094055176,
      -0.08078592270612717
    ],
    [
      0.048858944326639175,
      -0.3511106073856354,
      -0.2047857791185379,
      -0.5747101306915283,
      -0.27839481830596924,
      0.10840236395597458,
      -0.4488939642906189,
      0.4856188893318176,
      0.14261190593242645,
      -0.058035414665937424,
      0.4143085777759552,
      0.20648889243602753,
      -0.23659725487232208,
      -0.03939660266041756,
      0.4937160909175873,
      0.44049394130706787,
      -0.2696051299571991,
      -0.18090669810771942,
      -0.07393272966146469,
      0.04558856785297394,
      -0.4169260859489441,
      0.047512754797935486,
      -0.34219449758529663,
      -0.4332501292228699,
      -0.16241581737995148
    ],
    [
      -0.34138384461402893,
      0.3852006494998932,
      -0.3427932560443878,
      -0.05471080169081688,
      -0.30369892716407776,
      0.16335350275039673,
      0.37605398893356323,
      0.18595844507217407,
      -0.12826848030090332,
      -0.4372301995754242,
      0.31378108263015747,
      -0.4332258403301239,
      -0.49545374512672424,
      -0.03932652622461319,
      0.0416947565972805,
      0.3587668538093567,
      0.085767462849617,
      -0.0440092608332634,
      -0.026990380138158798,
      0.32883867621421814,
      -0.41589948534965515,
      -0.0076618497259914875,
      -0.14773812890052795,
      -0.47070538997650146,
      0.2461390644311905
    ],
    [
      0.380490779876709,
      0.04097419232130051,
      -0.33789515495300293,
      0.23175515234470367,
      -0.5475699305534363,
      -0.22088249027729034,
      0.3149428367614746,
      0.2143590748310089,
      -0.12488963454961777,
      0.25600364804267883,
      0.475713849067688,
      -0.19957205653190613,
      0.16126245260238647,
      0.23860886693000793,
      -0.3297324478626251,
      -0.23916031420230865,
      -0.06574539840221405,
      -0.36696717143058777,
      0.24564042687416077,
      0.21969594061374664,
      0.3871149718761444,
      -0.2407975196838379,
      -0.09421920776367188,
      0.19573691487312317,
      -0.45025232434272766
    ],
    [
      0.3796199858188629,
      -0.0958145409822464,
      0.4229757487773895,
      -0.014232317917048931,
      0.20133358240127563,
      -0.21249549090862274,
      0.5548380017280579,
      0.0723588839173317,
      -0.1359093189239502,
      0.08985817432403564,
      0.4192795753479004,
      -0.3165239095687866,
      -0.37139445543289185,
      -0.03865417465567589,
      0.4411328434944153,
      0.05909783020615578,
      -0.03729945421218872,
      -0.34340840578079224,
      -0.16879715025424957,
      0.38429397344589233,
      0.29582878947257996,
      -0.21873688697814941,
      -0.13034243881702423,
      -0.2834821939468384,
      -0.09817604720592499
    ],
    [
      -0.32841578125953674,
      -0.12434510886669159,
      0.2888307571411133,
      -0.4534930884838104,
      0.386899471282959,
      0.45017150044441223,
      -0.3529798090457916,
      -0.3504634201526642,
      -0.14632442593574524,
      0.161293625831604,
      0.4265461564064026,
      -0.11513853073120117,
      0.3216541111469269,
      0.28396642208099365,
      0.006441750563681126,
      -0.4938412606716156,
      0.15498067438602448,
      0.42820632457733154,
      -0.19030869007110596,
      0.3379206359386444,
      -0.1579636037349701,
      -0.2014695703983307,
      -0.3193769156932831,
      0.0875493586063385,
      0.23683828115463257
    ],
    [
      -0.46609973907470703,
      -0.25554102659225464,
      0.28396254777908325,
      0.3975699543952942,
      0.19015005230903625,
      -0.5012177228927612,
      0.17476744949817657,
      0.39708298444747925,
      0.6197988390922546,
      0.1552845537662506,
      0.204731747508049,
      0.035041749477386475,
      0.2800857722759247,
      0.3457762897014618,
      -0.2522980272769928,
      0.35334667563438416,
      0.3999326229095459,
      0.14205484092235565,
      -0.09572126716375351,
      -0.24742771685123444,
      -0.34137848019599915,
      -0.29737594723701477,
      0.2678481936454773,
      -0.0389842763543129,
      0.2473922073841095
    ],
    [
      -0.17363928258419037,
      -0.26251503825187683,
      -0.1588461846113205,
      -0.21463893353939056,
      0.3641855716705322,
      -0.32977867126464844,
      -0.2883422374725342,
      -0.11616480350494385,
      0.5946406722068787,
      -0.29924172163009644,
      -0.35492488741874695,
      0.2111511081457138,
      -0.1460740715265274,
      0.533907413482666,
      -0.16060614585876465,
      0.25652262568473816,
      -0.1737738698720932,
      0.40427714586257935,
      -0.3831125497817993,
      0.21435901522636414,
      0.38900595903396606,
      0.2704055905342102,
      0.03367863595485687,
      0.3380484879016876,
      -0.2534952163696289
    ],
    [
      0.08451176434755325,
      0.07518424093723297,
      0.28333595395088196,
      -0.018466562032699585,
      0.5891514420509338,
      -0.1321016401052475,
      -0.31617119908332825,
      -0.2329074740409851,
      0.19259290397167206,
      -0.1969332993030548,
      0.23948314785957336,
      0.06019912660121918,
      -0.01786535419523716,
      0.16052629053592682,
      0.16704389452934265,
      -0.13108693063259125,
      -0.453318327665329,
      0.45950037240982056,
      0.17575496435165405,
      0.21771575510501862,
      0.4309898018836975,
      -0.10216554254293442,
      -0.4341096580028534,
      -0.3443918228149414,
      0.2920086979866028
    ],
    [
      0.2773300111293793,
      -0.014238151721656322,
      -0.2946940064430237,
      0.16681593656539917,
      0.3138018548488617,
      0.5146965980529785,
      -0.31561917066574097,
      -0.16141407191753387,
      -0.3336201608181,
      0.14178836345672607,
      -0.41744837164878845,
      0.07399372011423111,
      0.08631603419780731,
      0.2369583249092102,
      -0.34427621960639954,
      0.29400351643562317,
      -0.194773867726326,
      -0.029234686866402626,
      0.4126911163330078,
      -0.35347458720207214,
      0.30266374349594116,
      -0.0649707093834877,
      0.1942228078842163,
      -0.03800537437200546,
      0.15457259118556976
    ],
    [
      -0.36642009019851685,
      -0.0982329398393631,
      0.09112588316202164,
      -0.2720242142677307,
      -0.17956456542015076,
      -0.10972802340984344,
      -0.07800191640853882,
      -0.18881012499332428,
      -0.3374174237251282,
      -0.07543721050024033,
      0.31228262186050415,
      0.10636705905199051,
      0.2821126878261566,
      0.26073893904685974,
      -0.33048778772354126,
      0.44979992508888245,
      0.036072950810194016,
      -0.00614439370110631,
      -0.39729583263397217,
      0.3116866946220398,
      0.022634731605648994,
      -0.16740421950817108,
      -0.14398863911628723,
      -0.24764467775821686,
      0.4273413121700287
    ],
    [
      0.07476688176393509,
      -0.08554772287607193,
      -0.03031269460916519,
      0.4985926151275635,
      0.5146732330322266,
      0.1895517259836197,
      0.40979236364364624,
      0.10255154222249985,
      -0.169366255402565,
      -0.30178597569465637,
      0.31581902503967285,
      0.1318838894367218,
      0.33939531445503235,
      -0.3717745244503021,
      -0.2928978204727173,
      -0.16084188222885132,
      0.1908310055732727,
      -0.2443227916955948,
      0.1204601377248764,
      0.48229992389678955,
      0.3891166150569916,
      0.1016746461391449,
      0.20095761120319366,
      -0.4005338251590729,
      -0.2084958553314209
    ],
    [
      0.08065523952245712,
      0.1336241215467453,
      -0.20304204523563385,
      -0.2204209566116333,
      -0.1301780641078949,
      -0.43543991446495056,
      0.22340908646583557,
      0.18632681667804718,
      -0.42028167843818665,
      0.19570505619049072,
      0.16122335195541382,
      -0.09431260079145432,
      -0.2680063247680664,
      0.34472084045410156,
      0.532937228679657,
      -0.14156070351600647,
      -0.2284630686044693,
      -0.19602613151073456,
      0.013919906690716743,
      0.4758836627006531,
      0.08352122455835342,
      0.0789070799946785,
      -0.21088755130767822,
      0.06790193915367126,
      0.4072975814342499
    ],
    [
      0.29292505979537964,
      -0.3228478729724884,
      0.46950361132621765,
      0.34953099489212036,
      -0.43088120222091675,
      0.14069871604442596,
      -0.02673846296966076,
      0.22687068581581116,
      0.4777366816997528,
      -0.19576844573020935,
      0.011146186850965023,
      0.4804755747318268,
      0.11321472376585007,
      0.4571307599544525,
      -0.5596866011619568,
      -0.47926270961761475,
      0.04115951433777809,
      0.1657959669828415,
      0.15974216163158417,
      0.025350673124194145,
      0.23636354506015778,
      0.2754569947719574,
      -0.18742193281650543,
      -0.267993301153183,
      -0.3800215721130371
    ],
    [
      0.4530683755874634,
      0.13698485493659973,
      0.06161949411034584,
      -0.40935584902763367,
      0.6090022325515747,
      -0.4211900532245636,
      0.06660639494657516,
      -0.13220010697841644,
      -0.5651295185089111,
      -0.07162660360336304,
      0.4664323031902313,
      -0.11196335405111313,
      -0.20935474336147308,
      -0.3811074197292328,
      -0.5644176602363586,
      -0.2367403358221054,
      0.1543300449848175,
      0.36493057012557983,
      0.021135974675416946,
      -0.2254425436258316,
      0.404356986284256,
      0.2947985827922821,
      -0.14738933742046356,
      0.1407814621925354,
      0.37642166018486023
    ],
    [
      0.1890883594751358,
      -0.3482474386692047,
      -0.27793118357658386,
      0.13258768618106842,
      -0.44620469212532043,
      0.40490347146987915,
      -0.12991966307163239,
      -0.41615191102027893,
      -0.016011517494916916,
      0.09289071708917618,
      -0.44312867522239685,
      0.20145954191684723,
      -0.20502185821533203,
      0.1843482255935669,
      0.17488789558410645,
      -0.24863800406455994,
      -0.28429821133613586,
      -0.2568686604499817,
      -0.437808632850647,
      -0.36324816942214966,
      -0.06864270567893982,
      -0.22152060270309448,
      0.14886772632598877,
      0.4387664198875427,
      -0.018268341198563576
    ],
    [
      0.28659987449645996,
      -0.3734237253665924,
      -0.33216771483421326,
      0.3867078125476837,
      -0.4375899136066437,
      -0.047391198575496674,
      -0.4151126742362976,
      0.40918830037117004,
      0.4975665807723999,
      -0.23540067672729492,
      5.6793396652210504e-05,
      -0.22627121210098267,
      0.30093976855278015,
      -0.31849461793899536,
      -0.28406262397766113,
      0.12571953237056732,
      -0.0350017324090004,
      -0.19644777476787567,
      -0.30459100008010864,
      -0.05158213898539543,
      0.23342876136302948,
      0.23207831382751465,
      0.24966557323932648,
      0.264430433511734,
      -0.16404414176940918
    ],
    [
      -0.3636557459831238,
      -0.17678259313106537,
      0.5186929702758789,
      0.00978883821517229,
      -0.3031662702560425,
      -0.30998334288597107,
      0.11452285945415497,
      0.5698686838150024,
      0.13646277785301208,
      0.25482621788978577,
      -0.29275286197662354,
      0.35046815872192383,
      -0.006968658417463303,
      0.416265606880188,
      0.37434133887290955,
      -0.3804871737957001,
      -0.0811939463019371,
      0.005682305432856083,
      0.24265721440315247,
      -0.24143590033054352,
      0.3173959255218506,
      0.3209184408187866,
      0.1803080141544342,
      0.02214215323328972,
      0.10601150989532471
    ],
    [
      0.37793204188346863,
      0.06491788476705551,
      -0.03314315527677536,
      0.03523876890540123,
      -0.4350942373275757,
      -0.3156232237815857,
      -0.23334184288978577,
      -0.13305318355560303,
      -0.11459612846374512,
      0.11394229531288147,
      0.08196894079446793,
      0.25935685634613037,
      0.4653289020061493,
      -0.20416298508644104,
      -0.0866052433848381,
      0.5296650528907776,
      -0.14893613755702972,
      -0.22670328617095947,
      -0.24290986359119415,
      -0.09042102098464966,
      -0.178029403090477,
      -0.19630585610866547,
      0.2492067515850067,
      0.23919126391410828,
      -0.4820844829082489
    ],
    [
      0.007608985994011164,
      -0.39678600430488586,
      -0.1409388780593872,
      -0.21868549287319183,
      0.3893398344516754,
      0.13339757919311523,
      -0.03815490007400513,
      -0.30109450221061707,
      0.48949864506721497,
      -0.1259818971157074,
      -0.41476327180862427,
      -0.27093082666397095,
      0.05340060964226723,
      -0.237002432346344,
      0.07665318995714188,
      -0.37436458468437195,
      0.08008579164743423,
      0.13091182708740234,
      -0.12159182131290436,
      0.44024422764778137,
      -0.46420490741729736,
      0.11646140366792679,
      0.24369364976882935,
      -0.31465479731559753,
      -0.18574732542037964
    ],
    [
      0.1431913822889328,
      -0.2940097153186798,
      -0.27975553274154663,
      -0.19391870498657227,
      0.13007108867168427,
      -0.43377819657325745,
      -0.18456092476844788,
      0.021914510056376457,
      0.131193608045578,
      0.21419426798820496,
      -0.3970312774181366,
      -0.22903919219970703,
      -0.203937828540802,
      -0.40381449460983276,
      0.2241792231798172,
      -0.2055201232433319,
      -0.13557398319244385,
      0.11264196038246155,
      -0.39726346731185913,
      0.15935643017292023,
      -0.42189931869506836,
      -0.36636126041412354,
      0.004711509682238102,
      0.38097235560417175,
      -0.11539174616336823
    ],
    [
      -0.14611874520778656,
      0.02588089555501938,
      -0.09377802163362503,
      0.10664741694927216,
      0.475887268781662,
      0.5960640907287598,
      -0.307620644569397,
      0.43448466062545776,
      -0.3784475326538086,
      -0.3673868775367737,
      -0.07778026163578033,
      0.3778962194919586,
      0.028081649914383888,
      -0.10354473441839218,
      -0.1395988166332245,
      0.14989988505840302,
      -0.1317117065191269,
      0.09021790325641632,
      0.11024013161659241,
      -0.07674102485179901,
      -0.26326504349708557,
      0.36420971155166626,
      -0.06852559745311737,
      0.2944414019584656,
      0.0857059434056282
    ],
    [
      0.04033803939819336,
      -0.35002365708351135,
      -0.18950185179710388,
      -0.254675954580307,
      0.6671789288520813,
      -0.2741531729698181,
      0.00047421350609511137,
      0.38228151202201843,
      -0.33110660314559937,
      0.07363680005073547,
      0.2687693238258362,
      -0.04094820097088814,
      -0.3408908247947693,
      0.0176568403840065,
      -0.46421873569488525,
      0.19623519480228424,
      0.20593541860580444,
      0.14382009208202362,
      0.09940014034509659,
      -0.37891727685928345,
      0.19976767897605896,
      -0.15938255190849304,
      0.17681342363357544,
      -0.36610448360443115,
      0.43282756209373474
    ],
    [
      0.2585481107234955,
      0.43868929147720337,
      -0.24507509171962738,
      0.32815539836883545,
      0.21424712240695953,
      -0.38722556829452515,
      0.49041593074798584,
      0.35398900508880615,
      -0.2861178517341614,
      -0.4041360318660736,
      0.08155421167612076,
      -0.32696813344955444,
      -0.04051933065056801,
      0.042625267058610916,
      0.2543748617172241,
      0.4364323616027832,
      0.3075045347213745,
      -0.062355078756809235,
      -0.011378789320588112,
      0.40148040652275085,
      -0.4009406268596649,
      -0.2653180658817291,
      0.13750140368938446,
      0.36337098479270935,
      0.4275023639202118
    ],
    [
      -0.37974581122398376,
      0.37309733033180237,
      -0.01706027053296566,
      0.12099384516477585,
      -0.20547519624233246,
      -0.482489675283432,
      -0.0658477395772934,
      -0.2868542969226837,
      0.4220762252807617,
      0.4025019407272339,
      0.4166952073574066,
      -0.08654431253671646,
      -0.011926071718335152,
      0.47551220655441284,
      -0.2887953817844391,
      0.2862633466720581,
      0.3661046028137207,
      -0.3319133222103119,
      -0.16616719961166382,
      -0.12620820105075836,
      -0.3593745827674866,
      0.40271344780921936,
      0.0558898039162159,
      0.20880889892578125,
      -0.2362968921661377
    ],
    [
      -0.13002437353134155,
      -0.20219309628009796,
      0.03568018227815628,
      0.38004663586616516,
      0.13055163621902466,
      -0.0866205170750618,
      0.14255736768245697,
      -0.25798797607421875,
      0.5444458723068237,
      -0.12864238023757935,
      -0.1348467767238617,
      0.21816569566726685,
      0.37787696719169617,
      0.17314882576465607,
      0.36956948041915894,
      -0.23307247459888458,
      -0.312571257352829,
      0.4698657691478729,
      0.37033697962760925,
      -0.1490298956632614,
      0.07683681696653366,
      0.026551643386483192,
      -0.3938763737678528,
      -0.472804456949234,
      0.2606163024902344
    ],
    [
      0.2957969903945923,
      0.4208413064479828,
      -0.3909015655517578,
      0.3547276556491852,
      -0.3622214198112488,
      -0.30611106753349304,
      -0.029565809294581413,
      -0.1258455216884613,
      -0.12416205555200577,
      0.23082654178142548,
      -0.0711013451218605,
      0.01466736476868391,
      0.08358760178089142,
      -0.11185247451066971,
      0.17479442059993744,
      -0.4312328100204468,
      0.09513171017169952,
      -0.2870720624923706,
      0.3051484227180481,
      -0.34563782811164856,
      0.18240104615688324,
      0.24725264310836792,
      0.3017752468585968,
      0.17978236079216003,
      0.35462912917137146
    ],
    [
      0.24403701722621918,
      0.2398330569267273,
      0.09079483151435852,
      -0.31980660557746887,
      -0.2509276270866394,
      -0.09083357453346252,
      -0.16625961661338806,
      -0.4008307456970215,
      0.23566283285617828,
      0.01007899921387434,
      0.13376487791538239,
      0.06058405712246895,
      -0.459194540977478,
      -0.41200581192970276,
      -0.4506666958332062,
      0.061254825443029404,
      0.34754469990730286,
      0.3462793231010437,
      -0.2384844571352005,
      -0.12318819761276245,
      0.4558929204940796,
      -0.473886102437973,
      -0.4352976977825165,
      0.0031110113486647606,
      0.1288895308971405
    ],
    [
      0.08925695717334747,
      0.09852215647697449,
      -0.358001172542572,
      -0.14428037405014038,
      -0.18422023952007294,
      -0.35725268721580505,
      -0.001868534367531538,
      0.13588134944438934,
      -0.4212450087070465,
      0.22095522284507751,
      -0.2535814642906189,
      -0.19007901847362518,
      -0.4568519592285156,
      0.11905248463153839,
      -0.20894652605056763,
      -0.2911415100097656,
      -0.1363186091184616,
      0.053828164935112,
      -0.23411370813846588,
      0.09655522555112839,
      0.41463252902030945,
      0.33619800209999084,
      -0.4479730427265167,
      -0.459603875875473,
      -0.05204802006483078
    ],
    [
      0.4518769681453705,
      -0.3906039297580719,
      0.45084479451179504,
      -0.1935718059539795,
      -0.4764958918094635,
      -0.17058202624320984,
      0.2068888247013092,
      0.4955267012119293,
      -0.42799732089042664,
      0.13337573409080505,
      0.29590514302253723,
      0.19383876025676727,
      0.38135161995887756,
      -0.08208629488945007,
      -0.2318440079689026,
      -0.03107292950153351,
      0.22100748121738434,
      -0.43850237131118774,
      0.10820020735263824,
      0.08183780312538147,
      -0.3279188573360443,
      -0.23615223169326782,
      0.3403143882751465,
      0.27689871191978455,
      0.14928314089775085
    ],
    [
      -0.21974825859069824,
      0.1782657355070114,
      0.2953735888004303,
      0.33872073888778687,
      -0.0580691322684288,
      -0.4212295711040497,
      0.1459088772535324,
      -0.049568191170692444,
      -0.5098302364349365,
      0.08631478995084763,
      0.38020089268684387,
      -0.014464864507317543,
      0.08673041313886642,
      0.0031440225429832935,
      0.041379164904356,
      -0.04871166869997978,
      -0.1480700820684433,
      -0.12016166001558304,
      0.3780445456504822,
      0.0724598690867424,
      -0.08075755834579468,
      0.08906767517328262,
      -0.016463030129671097,
      0.32286739349365234,
      0.44144877791404724
    ],
    [
      -0.2561562657356262,
      0.03896024823188782,
      0.29323047399520874,
      0.11840470135211945,
      -0.3612343370914459,
      -0.4831705093383789,
      -0.08055377751588821,
      0.4187201261520386,
      -0.003614031244069338,
      0.2294626235961914,
      -0.11837246268987656,
      0.13892994821071625,
      -0.2876824140548706,
      -0.24818742275238037,
      0.36264681816101074,
      -0.13361242413520813,
      0.1132783517241478,
      -0.13461804389953613,
      -0.48740890622138977,
      0.21720200777053833,
      0.04918647184967995,
      0.4672950208187103,
      0.1151154413819313,
      -0.21410362422466278,
      0.12330196052789688
    ],
    [
      0.41725707054138184,
      -0.34144607186317444,
      0.37959182262420654,
      -0.44098395109176636,
      0.26706650853157043,
      -0.12364618480205536,
      -0.3288736939430237,
      0.06212401017546654,
      0.040332794189453125,
      -0.27861228585243225,
      0.3106362223625183,
      0.36684781312942505,
      0.0808270275592804,
      -0.45738446712493896,
      0.3733987510204315,
      0.310823917388916,
      0.421423077583313,
      -0.45007503032684326,
      -0.03503205627202988,
      -0.39398548007011414,
      -0.3712306618690491,
      0.10615158826112747,
      -0.2069443315267563,
      -0.19774648547172546,
      0.240401491522789
    ],
    [
      -0.37098708748817444,
      0.17230869829654694,
      0.14182616770267487,
      0.39247700572013855,
      -0.3548922538757324,
      -0.4036250114440918,
      -0.1965552419424057,
      -0.2776508033275604,
      -0.26076677441596985,
      0.3033964931964874,
      0.07967033237218857,
      -0.2410455346107483,
      0.0752185583114624,
      -0.003715093480423093,
      0.43971556425094604,
      -0.37028834223747253,
      -0.4458536207675934,
      0.015419213101267815,
      -0.13707323372364044,
      0.316456139087677,
      0.22087407112121582,
      -0.20801405608654022,
      0.41963064670562744,
      0.07841315120458603,
      -0.1176784485578537
    ],
    [
      -0.021950986236333847,
      0.1413707584142685,
      0.4326738119125366,
      0.03852492943406105,
      0.5923188924789429,
      -0.4526873826980591,
      -0.10000412166118622,
      -0.4553495943546295,
      0.2170346975326538,
      0.15240100026130676,
      0.11543823033571243,
      -0.4377514719963074,
      0.17120330035686493,
      0.013172145932912827,
      -0.20027035474777222,
      0.13864648342132568,
      -0.4446908235549927,
      -0.02801164612174034,
      0.23700931668281555,
      -0.09765397012233734,
      -0.015575968660414219,
      0.31859248876571655,
      -0.07279033958911896,
      0.39477941393852234,
      0.11410565674304962
    ],
    [
      0.10431346297264099,
      0.1696779727935791,
      -0.3628719449043274,
      -0.19945639371871948,
      0.07546842098236084,
      -0.034463196992874146,
      0.4527873694896698,
      0.39582884311676025,
      -0.3547588586807251,
      -0.2496030628681183,
      0.32952880859375,
      0.10107804089784622,
      -0.26120755076408386,
      0.23164620995521545,
      -0.3883439302444458,
      -0.3506115972995758,
      0.12606339156627655,
      0.2293749749660492,
      0.23330843448638916,
      0.2515132427215576,
      -0.08592721074819565,
      0.13695716857910156,
      -0.3127591013908386,
      -0.21710939705371857,
      -0.23145291209220886
    ],
    [
      0.0070478166453540325,
      0.3050447702407837,
      0.38509196043014526,
      0.3262372314929962,
      0.04626326635479927,
      -0.4780031144618988,
      -0.45246002078056335,
      0.33008936047554016,
      -0.44089025259017944,
      -0.4647258520126343,
      -0.3385518193244934,
      -0.4189704954624176,
      0.3541720509529114,
      0.12635430693626404,
      0.10183070600032806,
      -0.4086288511753082,
      -0.24570834636688232,
      -0.17432987689971924,
      -0.28997209668159485,
      0.07220880687236786,
      -0.2492373138666153,
      -0.4193252623081207,
      0.2301441729068756,
      -0.24730782210826874,
      -0.1970062255859375
    ],
    [
      -0.17517609894275665,
      -0.3904094398021698,
      -0.23066335916519165,
      0.39066365361213684,
      -0.04047643020749092,
      -0.33941584825515747,
      0.4159497320652008,
      -0.3379582464694977,
      0.20608602464199066,
      -0.2244667261838913,
      -0.32377296686172485,
      0.30273154377937317,
      -0.2400093525648117,
      -0.305887371301651,
      0.19193823635578156,
      0.012130869552493095,
      0.17946846783161163,
      0.4297504425048828,
      0.009905172511935234,
      -0.026295006275177002,
      -0.4845934212207794,
      -0.45604655146598816,
      -0.27824804186820984,
      -0.4196265637874603,
      -0.17023460566997528
    ],
    [
      -0.17398719489574432,
      0.23488394916057587,
      -0.3492225706577301,
      -0.10932516306638718,
      -0.576042652130127,
      0.3021591007709503,
      -0.06794503331184387,
      -0.3530692160129547,
      -0.18899527192115784,
      -0.07570742070674896,
      0.5144413709640503,
      -0.15217766165733337,
      -0.03159482404589653,
      -0.0063847992569208145,
      0.5522576570510864,
      -0.02596038393676281,
      0.2935696244239807,
      -0.2524951100349426,
      0.10809624940156937,
      -0.30754050612449646,
      -0.061090607196092606,
      0.35777759552001953,
      -0.14041084051132202,
      0.2699410617351532,
      -0.1348913609981537
    ],
    [
      0.17678950726985931,
      0.12143954634666443,
      0.2579333186149597,
      -0.08219955116510391,
      0.2721751034259796,
      0.07662352174520493,
      -0.3462989330291748,
      0.26447173953056335,
      -0.1652517169713974,
      0.2418503612279892,
      -0.12721051275730133,
      -0.05423000454902649,
      -0.2302338033914566,
      0.20722126960754395,
      -0.0316825695335865,
      0.40607017278671265,
      0.09824659675359726,
      0.2677341103553772,
      -0.12399289757013321,
      -0.4790128767490387,
      0.4903367757797241,
      -0.358524352312088,
      -0.30872172117233276,
      -0.12662354111671448,
      -0.31085866689682007
    ],
    [
      0.03466396778821945,
      -0.1338578462600708,
      0.18759801983833313,
      0.10140407830476761,
      -0.21123933792114258,
      0.029648877680301666,
      -0.06271026283502579,
      0.07560671120882034,
      0.06551676243543625,
      -0.14308835566043854,
      0.14803072810173035,
      -0.3910878896713257,
      0.33078697323799133,
      0.5533406734466553,
      0.1258341521024704,
      -0.25614485144615173,
      -0.163998544216156,
      -0.3239283859729767,
      0.15013039112091064,
      0.3674609363079071,
      -0.01674189232289791,
      0.20609831809997559,
      0.3055680990219116,
      0.2356792688369751,
      0.11958789825439453
    ],
    [
      -0.04781040921807289,
      -0.002616220386698842,
      -0.3277057111263275,
      0.22871103882789612,
      0.4851524829864502,
      -0.43423062562942505,
      0.10362733900547028,
      -0.16292305290699005,
      -0.4534432590007782,
      0.29194188117980957,
      -0.22150827944278717,
      0.2231750786304474,
      0.13813209533691406,
      -0.1327177882194519,
      0.1189209371805191,
      -0.18336015939712524,
      0.016405077651143074,
      -0.25741663575172424,
      -0.32919415831565857,
      0.441513329744339,
      -0.04465661197900772,
      -0.4613134562969208,
      -0.16656659543514252,
      -0.40410035848617554,
      0.02195790223777294
    ],
    [
      -0.051317740231752396,
      0.254178524017334,
      -0.06978238373994827,
      0.03263331949710846,
      -0.2799992859363556,
      0.3656785190105438,
      0.19066543877124786,
      -0.15326465666294098,
      -0.00792071595788002,
      -0.30228421092033386,
      -0.07223127782344818,
      -0.4172348380088806,
      0.28147175908088684,
      -0.07452673465013504,
      0.20098574459552765,
      0.36254292726516724,
      0.018716372549533844,
      -0.22866171598434448,
      -0.10371137410402298,
      -0.3408428728580475,
      0.32533395290374756,
      -0.050861064344644547,
      0.2675682604312897,
      -0.2758171260356903,
      -0.4770415425300598
    ],
    [
      -0.2835061252117157,
      -0.37648457288742065,
      0.2461492121219635,
      0.12813185155391693,
      0.09391418099403381,
      0.04374311491847038,
      0.20914900302886963,
      -0.004556748550385237,
      -0.10066550225019455,
      0.09957095980644226,
      -0.32927414774894714,
      -0.08997759222984314,
      -0.18569926917552948,
      0.1812870055437088,
      -0.050725698471069336,
      -0.2030716836452484,
      0.4862765967845917,
      -0.1880783885717392,
      -0.24637563526630402,
      -0.3723337650299072,
      0.08522199094295502,
      -0.2928829491138458,
      0.30467718839645386,
      -0.1082073301076889,
      -0.3072245121002197
    ],
    [
      0.3142450153827667,
      -0.20272280275821686,
      -0.2967948913574219,
      0.08418735861778259,
      0.2643234431743622,
      0.5509383678436279,
      0.3182724714279175,
      0.5687741041183472,
      -0.28492286801338196,
      -0.23992298543453217,
      0.07837924361228943,
      0.48809030652046204,
      -0.10525429993867874,
      -0.2815549075603485,
      -0.3899301290512085,
      0.47702687978744507,
      -0.060051847249269485,
      -0.24091067910194397,
      -0.0016255746595561504,
      -0.34542316198349,
      -0.25080209970474243,
      0.3553369343280792,
      0.2786579132080078,
      -0.4023701846599579,
      0.2041148692369461
    ],
    [
      -0.12736926972866058,
      -0.22310934960842133,
      -0.40702715516090393,
      0.09588334709405899,
      0.026320410892367363,
      0.36844590306282043,
      -0.5542430281639099,
      0.1620815545320511,
      -0.24420364201068878,
      -0.4795117974281311,
      -0.03736916556954384,
      -0.23229250311851501,
      0.03042924776673317,
      0.1607753485441208,
      -0.12495045363903046,
      -0.4622844457626343,
      0.24703994393348694,
      0.20966197550296783,
      -0.25898241996765137,
      0.4033389389514923,
      0.4636370837688446,
      0.2768208682537079,
      -0.13052327930927277,
      0.44047248363494873,
      0.2595120072364807
    ],
    [
      -0.14026238024234772,
      -0.18272000551223755,
      -0.031954120844602585,
      0.45965197682380676,
      -0.11011061072349548,
      -0.2511826157569885,
      -0.33545368909835815,
      -0.4809236228466034,
      -0.09531357884407043,
      -0.033724892884492874,
      -0.08472607284784317,
      -0.03926917910575867,
      -0.3364361822605133,
      -0.45720937848091125,
      0.27026239037513733,
      -0.2208070605993271,
      -0.4525572955608368,
      -0.43608564138412476,
      -0.4299359917640686,
      0.3974108099937439,
      0.42134571075439453,
      -0.39363718032836914,
      0.2827073931694031,
      -0.07390183955430984,
      -0.33720627427101135
    ],
    [
      -0.3625331521034241,
      -0.2948465049266815,
      0.39162981510162354,
      0.4018251299858093,
      -0.43427711725234985,
      -0.15350571274757385,
      -0.10144082456827164,
      0.4300195872783661,
      0.6026614308357239,
      -0.1972966194152832,
      -0.26325052976608276,
      0.4273536503314972,
      0.32576310634613037,
      0.5563167333602905,
      -0.310579389333725,
      -0.14144767820835114,
      0.2536025941371918,
      0.2288566380739212,
      0.0072857984341681,
      -0.05864362418651581,
      0.3961406350135803,
      0.04572008177638054,
      -0.16005635261535645,
      0.5102866291999817,
      -0.2529650926589966
    ],
    [
      0.3173769414424896,
      -0.11029411852359772,
      0.17200104892253876,
      0.43098410964012146,
      0.6149601936340332,
      0.0033457367680966854,
      -0.09999494254589081,
      -0.5451273322105408,
      -0.4415574371814728,
      -0.3536076247692108,
      0.47510918974876404,
      0.41832026839256287,
      0.28908026218414307,
      -0.31794700026512146,
      -0.4209701418876648,
      -0.5096844434738159,
      0.22460898756980896,
      0.0724797248840332,
      0.15219298005104065,
      0.15700125694274902,
      0.11279845982789993,
      -0.2643981873989105,
      -0.45132508873939514,
      0.26652801036834717,
      -0.4597438871860504
    ],
    [
      -0.30069324374198914,
      0.3004398047924042,
      -0.4898216426372528,
      -0.09731186181306839,
      -0.6596730947494507,
      0.026228979229927063,
      -0.04634680971503258,
      -0.2561650574207306,
      -0.26981326937675476,
      0.2665649354457855,
      0.405483603477478,
      0.32279396057128906,
      -0.3732929825782776,
      0.3506336212158203,
      -0.056120507419109344,
      -0.17756715416908264,
      -0.05655544623732567,
      0.0439973883330822,
      0.42131638526916504,
      0.3934629559516907,
      0.38235411047935486,
      -0.061477530747652054,
      -0.31407302618026733,
      0.009620173834264278,
      -0.12905797362327576
    ],
    [
      0.011282755061984062,
      0.4593281149864197,
      0.04778751730918884,
      0.1272006630897522,
      -0.29433587193489075,
      0.2097960263490677,
      0.10390490293502808,
      -0.5211665630340576,
      0.44467175006866455,
      0.31552186608314514,
      0.24565353989601135,
      0.41067448258399963,
      -0.2357964962720871,
      -0.45283985137939453,
      0.040491729974746704,
      -0.005056902300566435,
      -0.12932422757148743,
      -0.16236889362335205,
      -0.42368200421333313,
      -0.011224962770938873,
      -0.25464344024658203,
      -0.3264707624912262,
      -0.132175475358963,
      -0.19901016354560852,
      0.44768860936164856
    ],
    [
      0.20958290994167328,
      -0.3116939067840576,
      0.10806208103895187,
      0.02534608542919159,
      -0.577837347984314,
      -0.29483357071876526,
      -0.13859423995018005,
      0.5688756108283997,
      -0.4276391565799713,
      0.10791996866464615,
      -0.06036780774593353,
      0.28550827503204346,
      0.14100337028503418,
      0.18057867884635925,
      -0.14618967473506927,
      0.3323287069797516,
      0.3503234386444092,
      -0.35570472478866577,
      -0.0568719282746315,
      0.03266631439328194,
      0.2879776954650879,
      0.4437539279460907,
      0.04948043078184128,
      -0.2233341932296753,
      0.24944263696670532
    ],
    [
      0.09893033653497696,
      0.06387645751237869,
      -0.42708471417427063,
      -0.21893838047981262,
      0.43417468667030334,
      -0.17138643562793732,
      0.5402857661247253,
      0.07311549782752991,
      0.3889361023902893,
      0.09716587513685226,
      0.2019290179014206,
      0.39277711510658264,
      0.3551495671272278,
      -0.3389432430267334,
      0.4613882601261139,
      0.40884581208229065,
      -0.06858649104833603,
      0.3972458839416504,
      0.18247346580028534,
      0.19566664099693298,
      -0.3094039857387543,
      -0.40203338861465454,
      0.3384050726890564,
      -0.19534382224082947,
      -0.1248072013258934
    ],
    [
      0.012295486405491829,
      0.14826354384422302,
      -0.179798886179924,
      -0.07852941751480103,
      0.27335885167121887,
      0.4201599955558777,
      0.034202951937913895,
      -0.4321911931037903,
      0.026287369430065155,
      0.3521184027194977,
      0.38201719522476196,
      0.07454288005828857,
      -0.29249638319015503,
      0.44225525856018066,
      -0.49516746401786804,
      0.4654884338378906,
      0.3388180434703827,
      0.24453100562095642,
      0.1302441954612732,
      -0.14342322945594788,
      0.3638952374458313,
      -0.31772854924201965,
      -0.14005425572395325,
      -0.3737582266330719,
      -0.2684614360332489
    ],
    [
      0.14221368730068207,
      0.4045489728450775,
      0.13353830575942993,
      -0.07630286365747452,
      0.06020164489746094,
      -0.3264630436897278,
      0.503258228302002,
      -0.17934243381023407,
      -0.46389785408973694,
      -0.2741760015487671,
      0.4962051808834076,
      -0.2324851155281067,
      -0.08761048316955566,
      0.032462164759635925,
      -0.09279321879148483,
      0.01087634451687336,
      0.0691932961344719,
      0.058109916746616364,
      0.0006613259320147336,
      -0.17709222435951233,
      0.4411892294883728,
      0.11912881582975388,
      -0.13570086658000946,
      -0.19817493855953217,
      0.3526251018047333
    ],
    [
      -0.1718202531337738,
      0.1529657542705536,
      -0.030695198103785515,
      0.1732179820537567,
      0.49505823850631714,
      0.17216603457927704,
      -0.28761371970176697,
      -0.3809574544429779,
      -0.4338940680027008,
      0.24362801015377045,
      0.11268927156925201,
      -0.1822405308485031,
      0.2422315776348114,
      -0.020398646593093872,
      0.42562535405158997,
      0.31875699758529663,
      -0.06848850101232529,
      0.4265283942222595,
      -0.1580687016248703,
      0.17839635908603668,
      0.0691380575299263,
      -0.43329715728759766,
      -0.2100171446800232,
      -0.0478326752781868,
      0.13788695633411407
    ],
    [
      -0.1028614416718483,
      0.2889358699321747,
      0.31255853176116943,
      -0.4937364161014557,
      0.36521705985069275,
      -0.014239714480936527,
      0.4006657898426056,
      -0.16188837587833405,
      -0.3910771310329437,
      -0.20454491674900055,
      -0.11783803999423981,
      -0.4885740280151367,
      0.12101737409830093,
      0.2722221910953522,
      0.2345859855413437,
      -0.4225199520587921,
      -0.2577703595161438,
      0.21664196252822876,
      -0.03165879100561142,
      0.4851287305355072,
      -0.469857782125473,
      -0.25927573442459106,
      0.4321590065956116,
      0.19274012744426727,
      0.2202732414007187
    ],
    [
      -0.02003740519285202,
      -0.4515962302684784,
      -0.2083323895931244,
      0.14421549439430237,
      -0.06557925045490265,
      0.39884915947914124,
      0.4227966070175171,
      0.23420271277427673,
      0.0805094838142395,
      -0.18176226317882538,
      -0.3944009244441986,
      0.4825027585029602,
      0.04823363572359085,
      -0.4314262568950653,
      -0.4350217878818512,
      -0.01633429527282715,
      -0.44077035784721375,
      -0.48078688979148865,
      0.018179047852754593,
      0.43631792068481445,
      -0.3826324939727783,
      -0.13207942247390747,
      0.13421249389648438,
      0.28399568796157837,
      0.3151218891143799
    ],
    [
      0.4333527982234955,
      -0.34130123257637024,
      0.4046180546283722,
      -0.3400029242038727,
      -0.32885056734085083,
      -0.3542894721031189,
      -0.4098944365978241,
      -0.4487544894218445,
      0.15449780225753784,
      0.342439740896225,
      0.4675908088684082,
      -0.29303503036499023,
      0.47749388217926025,
      -0.40913712978363037,
      -0.367159903049469,
      0.22732333838939667,
      0.1213361993432045,
      0.3415544927120209,
      0.14623847603797913,
      0.26989778876304626,
      -0.3383848965167999,
      -0.2848943769931793,
      -0.4538666307926178,
      -0.10542718321084976,
      0.2998814284801483
    ],
    [
      -0.40318620204925537,
      0.5519054532051086,
      0.12752500176429749,
      0.11063548177480698,
      0.6406069397926331,
      0.11617806553840637,
      0.34875112771987915,
      0.23900537192821503,
      0.05741559714078903,
      -0.07823367416858673,
      -0.30373212695121765,
      -0.3977017104625702,
      0.3914254903793335,
      0.2233061045408249,
      0.37829482555389404,
      -0.5169674158096313,
      0.27193811535835266,
      0.4577401578426361,
      -0.27617204189300537,
      0.26547250151634216,
      0.5335574746131897,
      0.3543550670146942,
      -0.18874135613441467,
      -0.3526962995529175,
      -0.33391690254211426
    ],
    [
      0.3160870373249054,
      0.37188175320625305,
      0.18647341430187225,
      -0.13033127784729004,
      0.04293505847454071,
      -0.34358030557632446,
      0.268782377243042,
      -0.4233480989933014,
      -0.003857984207570553,
      -0.42481738328933716,
      0.21302160620689392,
      0.4724298417568207,
      0.5317815542221069,
      -0.04412990063428879,
      0.09018190205097198,
      -0.07917256653308868,
      0.35817354917526245,
      0.18250396847724915,
      -0.4107622504234314,
      -0.32469597458839417,
      -0.39283448457717896,
      -0.44479742646217346,
      0.46383264660835266,
      -0.35874101519584656,
      0.028168732300400734
    ],
    [
      0.5340241193771362,
      -0.09775462001562119,
      0.2875683009624481,
      -0.1905907243490219,
      0.4448640048503876,
      -0.15928052365779877,
      0.4954226613044739,
      -0.3961471915245056,
      -0.4505033493041992,
      -0.003946730401366949,
      -0.2746541500091553,
      -0.24157053232192993,
      -0.42078709602355957,
      0.2775209844112396,
      0.32943129539489746,
      0.01569315604865551,
      0.3563832640647888,
      0.27890071272850037,
      -0.21955209970474243,
      0.4632861614227295,
      -0.04611804336309433,
      0.36867403984069824,
      -0.05083448439836502,
      0.15057314932346344,
      0.42237967252731323
    ],
    [
      0.22015731036663055,
      -0.15152335166931152,
      -0.10916033387184143,
      -0.0016036959132179618,
      0.49432265758514404,
      0.09492973238229752,
      0.22286544740200043,
      0.4549872577190399,
      0.23367339372634888,
      -0.3292408883571625,
      -0.41279497742652893,
      0.3693970739841461,
      -0.004038746003061533,
      -0.4337233603000641,
      -0.3225237727165222,
      -0.37692776322364807,
      0.3792726695537567,
      -0.18019039928913116,
      -0.25151732563972473,
      0.4576793909072876,
      0.48364385962486267,
      -0.12775357067584991,
      0.19007594883441925,
      0.11529127508401871,
      0.19120796024799347
    ],
    [
      -0.08231058716773987,
      0.05843624845147133,
      0.097618468105793,
      -0.02136266976594925,
      -0.4583258032798767,
      0.5341001749038696,
      -0.07390274852514267,
      0.35609012842178345,
      0.3103293180465698,
      -0.13433656096458435,
      0.27278417348861694,
      0.4621853232383728,
      0.09902796149253845,
      -0.3744353652000427,
      -0.16233155131340027,
      0.15444675087928772,
      0.0024954292457550764,
      -0.24668920040130615,
      -0.3901846408843994,
      -0.22747744619846344,
      -0.2902352213859558,
      0.42827630043029785,
      0.44544509053230286,
      0.4035033583641052,
      -0.022620614618062973
    ],
    [
      0.5474767088890076,
      0.19765351712703705,
      -0.36748772859573364,
      0.26075103878974915,
      -0.1705610305070877,
      -0.1709745079278946,
      -0.0093959029763937,
      -0.3760644495487213,
      0.4657266139984131,
      0.05104175582528114,
      -0.29718056321144104,
      0.17751558125019073,
      -0.16083219647407532,
      0.6239232420921326,
      -0.3220749497413635,
      0.49324703216552734,
      -0.36125344038009644,
      0.13919073343276978,
      0.3847006857395172,
      0.02156270667910576,
      -0.2701316773891449,
      -0.29337388277053833,
      0.26454535126686096,
      0.3657820522785187,
      0.1616811901330948
    ],
    [
      -0.307418555021286,
      0.36295953392982483,
      -0.2048020213842392,
      -0.13763341307640076,
      -0.19710782170295715,
      -0.44671404361724854,
      -0.46751296520233154,
      -0.23132973909378052,
      -0.24084773659706116,
      -0.09719157218933105,
      0.24126414954662323,
      0.12186530977487564,
      -0.20971429347991943,
      0.47543221712112427,
      -0.2721118628978729,
      0.031748902052640915,
      0.06547611951828003,
      0.177813321352005,
      0.2893330156803131,
      -0.45468389987945557,
      0.06674240529537201,
      -0.4202730059623718,
      -0.030809663236141205,
      -0.4219939410686493,
      -0.10124889016151428
    ],
    [
      -0.4497716724872589,
      0.020880743861198425,
      -0.4780040383338928,
      -0.2120143473148346,
      0.522419810295105,
      -0.5036367177963257,
      -0.30382293462753296,
      -0.27358072996139526,
      -0.3199574053287506,
      0.2638048827648163,
      0.4673928916454315,
      0.2925695776939392,
      0.1750316470861435,
      -0.17930276691913605,
      0.2895413637161255,
      -0.03229431435465813,
      0.04636221006512642,
      0.4283371865749359,
      0.2314661294221878,
      0.08399137854576111,
      -0.10557305067777634,
      0.1503765881061554,
      0.41355618834495544,
      -0.06256129592657089,
      0.4066646993160248
    ],
    [
      0.3796725273132324,
      -0.04266069456934929,
      0.09749788045883179,
      -0.37439578771591187,
      0.44196727871894836,
      -0.4993574619293213,
      0.048082008957862854,
      0.3791089653968811,
      -0.06642550230026245,
      0.129082590341568,
      0.09024598449468613,
      -0.23713716864585876,
      -0.022371931001544,
      -0.003535415278747678,
      -0.13697364926338196,
      0.2960522770881653,
      0.1333954632282257,
      -0.26064351201057434,
      0.10066568106412888,
      0.18176120519638062,
      0.29662370681762695,
      -0.3700517416000366,
      0.18568775057792664,
      0.43755874037742615,
      -0.23340041935443878
    ],
    [
      -0.20055830478668213,
      0.18682508170604706,
      -0.3731112778186798,
      0.37663039565086365,
      -0.2988765835762024,
      0.2030036896467209,
      0.24105817079544067,
      0.29889002442359924,
      0.07606719434261322,
      -0.22094669938087463,
      -0.2221279740333557,
      -0.17928197979927063,
      0.5092373490333557,
      0.007832461036741734,
      -0.4779868423938751,
      0.08020241558551788,
      0.31004446744918823,
      0.33936139941215515,
      0.07284437865018845,
      -0.32135289907455444,
      0.1557372510433197,
      -0.26252907514572144,
      -0.35886943340301514,
      -0.07071384787559509,
      0.4647703766822815
    ],
    [
      -0.4083081781864166,
      0.2228710800409317,
      -0.0728812888264656,
      0.4566510319709778,
      0.5779868960380554,
      0.4722330570220947,
      0.25785231590270996,
      -0.19330371916294098,
      -0.38970211148262024,
      0.11046330630779266,
      -0.13129466772079468,
      -0.0478767454624176,
      -0.19636790454387665,
      -0.5216894745826721,
      0.5057884454727173,
      0.039343658834695816,
      0.3331814408302307,
      0.04575789347290993,
      -0.07084766775369644,
      -0.24728843569755554,
      -0.3704986274242401,
      0.47557297348976135,
      -0.1946249008178711,
      0.5034399032592773,
      -0.18485550582408905
    ],
    [
      -0.22503168880939484,
      -0.36754101514816284,
      -0.04372261464595795,
      0.4104582965373993,
      -0.08805627375841141,
      -0.17733801901340485,
      -0.2733016610145569,
      -0.392287015914917,
      -0.17066064476966858,
      -0.0038277364801615477,
      -0.4302235543727875,
      -0.2171815186738968,
      -0.4764636158943176,
      -0.1073324903845787,
      -0.41955888271331787,
      0.2035711258649826,
      0.15904106199741364,
      0.13792209327220917,
      -0.11348368972539902,
      -0.21552300453186035,
      -0.48620936274528503,
      0.24479630589485168,
      0.2556299865245819,
      -0.30344459414482117,
      -0.12232363224029541
    ],
    [
      -0.3776198625564575,
      0.1817771941423416,
      0.011782709509134293,
      -0.08170616626739502,
      -0.29690125584602356,
      0.1308199018239975,
      0.3581118583679199,
      0.3896453380584717,
      0.45064932107925415,
      -0.10832124948501587,
      0.20035582780838013,
      -0.21574169397354126,
      0.1649269312620163,
      0.26734688878059387,
      -0.40884578227996826,
      0.14253981411457062,
      -0.1653001755475998,
      -0.2855246663093567,
      -0.3538271486759186,
      -0.033792972564697266,
      0.2769685387611389,
      -0.08100460469722748,
      0.32933685183525085,
      -0.027553996071219444,
      0.4677789807319641
    ],
    [
      0.508625864982605,
      0.12164986878633499,
      -0.3720710873603821,
      0.2987389862537384,
      0.03490905463695526,
      0.42329803109169006,
      -0.12407134473323822,
      -0.43590569496154785,
      -0.34890711307525635,
      0.0036438864190131426,
      0.39884698390960693,
      -0.3606000244617462,
      0.33091452717781067,
      -0.21596327424049377,
      0.3769339621067047,
      -0.22442179918289185,
      -0.236332967877388,
      -0.02990812622010708,
      -0.07661306858062744,
      -0.18383203446865082,
      -0.2970741093158722,
      -0.261360764503479,
      -0.4282812774181366,
      0.37030741572380066,
      0.47047027945518494
    ],
    [
      0.36670878529548645,
      0.3178365230560303,
      0.20727010071277618,
      -0.028431348502635956,
      0.03251536935567856,
      0.13772884011268616,
      -0.31047385931015015,
      0.5877812504768372,
      -0.3099099099636078,
      -0.20480667054653168,
      -0.2496098279953003,
      -0.44419386982917786,
      0.4349951446056366,
      0.3474576473236084,
      -0.4687972068786621,
      -0.13925966620445251,
      0.44540703296661377,
      0.4675091803073883,
      -0.2687431573867798,
      0.3126165568828583,
      -0.3071416914463043,
      0.07971707731485367,
      0.21030193567276,
      -0.2553647458553314,
      0.2960870563983917
    ],
    [
      0.06053836643695831,
      -0.15225645899772644,
      -0.27156034111976624,
      -0.3751741051673889,
      -0.08847325295209885,
      0.38738685846328735,
      -0.2230493426322937,
      -0.20917709171772003,
      -0.3802492320537567,
      -0.154399573802948,
      -0.3890846371650696,
      -0.15495572984218597,
      -0.2179730087518692,
      -0.47183820605278015,
      0.3498588800430298,
      -0.4587182104587555,
      -0.13875365257263184,
      -0.29766517877578735,
      -0.29276469349861145,
      -0.12544122338294983,
      -0.012833250686526299,
      -0.2981490194797516,
      0.2311265915632248,
      0.07491017132997513,
      -0.4340166449546814
    ],
    [
      0.2261117398738861,
      0.13445790112018585,
      0.20839978754520416,
      -0.26322856545448303,
      -0.10021504014730453,
      -0.18942156434059143,
      -0.3590388894081116,
      -0.32597342133522034,
      0.29527053236961365,
      -0.37713074684143066,
      0.4125048816204071,
      -0.16713553667068481,
      0.03153223544359207,
      -0.0024880520068109035,
      0.4287140667438507,
      -0.2873407304286957,
      0.44776514172554016,
      0.4647465944290161,
      0.3676665127277374,
      -0.10143119096755981,
      -0.059506457298994064,
      0.0038667223416268826,
      0.2934424579143524,
      0.2481624335050583,
      -0.29068809747695923
    ],
    [
      0.34275195002555847,
      -0.42143121361732483,
      0.13413220643997192,
      0.31165120005607605,
      -0.029773421585559845,
      -0.04215647652745247,
      -0.39808982610702515,
      -0.29941344261169434,
      0.18659354746341705,
      0.3576655387878418,
      0.316328763961792,
      0.3755817413330078,
      0.17903591692447662,
      -0.19464011490345,
      0.13211731612682343,
      0.05797125771641731,
      -0.06964436173439026,
      -0.3527950942516327,
      0.12054476141929626,
      -0.4102625846862793,
      -0.29666003584861755,
      0.35390371084213257,
      0.050979312509298325,
      0.3808305263519287,
      0.45676714181900024
    ],
    [
      -0.12214356660842896,
      0.4424823820590973,
      0.31810930371284485,
      0.4257315993309021,
      0.13662856817245483,
      -0.36334604024887085,
      0.025733422487974167,
      -0.004162700846791267,
      0.37597471475601196,
      0.2849082350730896,
      0.07521142065525055,
      0.23688621819019318,
      -0.2666108012199402,
      -0.31510627269744873,
      0.3783552050590515,
      0.1127258688211441,
      -0.3630574941635132,
      0.14804433286190033,
      0.483047217130661,
      -0.14716260135173798,
      0.4449911415576935,
      0.3094540536403656,
      -0.38322725892066956,
      -0.1190810278058052,
      0.16722016036510468
    ],
    [
      -0.45250096917152405,
      0.11709776520729065,
      0.28473061323165894,
      0.06014231964945793,
      0.47052353620529175,
      0.16540922224521637,
      0.2754938304424286,
      0.14196474850177765,
      0.4099627137184143,
      -0.27401649951934814,
      0.056212056428194046,
      0.015327300876379013,
      -0.4639752507209778,
      -0.19695164263248444,
      -0.028320375829935074,
      0.2601144015789032,
      0.3259967863559723,
      -0.3744310736656189,
      0.14549754559993744,
      -0.3605180084705353,
      0.15469413995742798,
      -0.005276814568787813,
      -0.11690504103899002,
      -0.050877466797828674,
      0.2922382354736328
    ],
    [
      0.4222550392150879,
      0.4758053421974182,
      -0.2312820553779602,
      -0.43813204765319824,
      -0.23831097781658173,
      -0.005718827247619629,
      0.1904306709766388,
      -0.43678003549575806,
      0.6241478323936462,
      -0.3690339922904968,
      0.29694613814353943,
      -0.06892796605825424,
      0.12484835833311081,
      0.33397555351257324,
      0.1908898949623108,
      -0.1002759337425232,
      -0.09563838690519333,
      0.510242223739624,
      0.2426443099975586,
      0.3774881660938263,
      -0.19692175090312958,
      0.19920387864112854,
      -0.15462380647659302,
      -0.09933216124773026,
      0.051303617656230927
    ],
    [
      -0.31879645586013794,
      0.3153857886791229,
      0.09311328828334808,
      -0.24740973114967346,
      -0.2508271336555481,
      0.37895315885543823,
      0.38987240195274353,
      -0.22751308977603912,
      -0.2524004876613617,
      -0.15528006851673126,
      -0.23939335346221924,
      0.5338141322135925,
      0.24209550023078918,
      -0.20063970983028412,
      0.401442289352417,
      0.33220815658569336,
      -0.029781142249703407,
      0.05951565131545067,
      -0.4031358063220978,
      -0.3726753294467926,
      0.18659734725952148,
      -0.15939995646476746,
      0.08027149736881256,
      0.3762926459312439,
      0.3468035161495209
    ],
    [
      0.09941966086626053,
      -0.23475119471549988,
      -0.26461631059646606,
      0.16860772669315338,
      0.16297198832035065,
      0.30375614762306213,
      -0.3078722357749939,
      -0.318106085062027,
      -0.21211934089660645,
      -0.08473245799541473,
      -0.1507909893989563,
      0.46709224581718445,
      0.1418076604604721,
      0.03561236336827278,
      -0.4068649113178253,
      -0.44369739294052124,
      -0.04747700318694115,
      -0.22426849603652954,
      -0.46587756276130676,
      0.41053152084350586,
      -0.24356451630592346,
      0.3279407024383545,
      -0.37854239344596863,
      -0.07467968761920929,
      0.05459880828857422
    ],
    [
      -0.3275473117828369,
      0.2545602023601532,
      0.42622026801109314,
      -0.2027750164270401,
      -0.31325510144233704,
      0.10718987882137299,
      0.03907814994454384,
      -0.44319671392440796,
      0.30839040875434875,
      -0.4609764814376831,
      -0.3643479645252228,
      0.14548686146736145,
      0.21851858496665955,
      -0.15049651265144348,
      -0.27490234375,
      0.10797950625419617,
      0.005151673220098019,
      -0.4481705129146576,
      0.08910976350307465,
      0.17241568863391876,
      -0.18542495369911194,
      0.48801323771476746,
      -0.3374282419681549,
      -0.48239484429359436,
      -0.32290518283843994
    ],
    [
      0.2319846898317337,
      0.3834489583969116,
      0.14645065367221832,
      0.3739589750766754,
      -0.45006394386291504,
      0.1623748391866684,
      -0.27667349576950073,
      -0.3393494784832001,
      0.29805541038513184,
      0.41926029324531555,
      0.0014590363716706634,
      -0.1090703085064888,
      0.4962548315525055,
      0.34007832407951355,
      -0.0692853182554245,
      0.380710631608963,
      0.418362021446228,
      0.054028429090976715,
      0.09336685389280319,
      -0.20098060369491577,
      0.3234143853187561,
      0.0008426168351434171,
      -0.44441112875938416,
      -0.3364068865776062,
      -0.40835607051849365
    ],
    [
      0.21608251333236694,
      0.3643496632575989,
      -0.48980093002319336,
      -0.3855980336666107,
      0.13541477918624878,
      0.306097149848938,
      0.1896127164363861,
      -0.0016115717589855194,
      -0.1578681319952011,
      -0.05947023630142212,
      0.01772361807525158,
      0.20609527826309204,
      0.2163044959306717,
      0.06366085261106491,
      -0.39080870151519775,
      -0.36972951889038086,
      0.16556932032108307,
      0.10141901671886444,
      -0.4703766107559204,
      -0.38509732484817505,
      0.36611810326576233,
      0.3314380943775177,
      -0.232561856508255,
      -0.06628081947565079,
      0.10007911175489426
    ],
    [
      -0.11531665176153183,
      -0.16888807713985443,
      -0.41236522793769836,
      -0.18114744126796722,
      -0.036387551575899124,
      0.4350339472293854,
      -0.4441295564174652,
      0.24187947809696198,
      0.29028433561325073,
      -0.2089805006980896,
      0.31085145473480225,
      -0.027051392942667007,
      0.45520564913749695,
      -0.030117027461528778,
      0.38569527864456177,
      0.17601700127124786,
      0.004523527342826128,
      0.18261300027370453,
      0.16652946174144745,
      0.11203249543905258,
      0.18427270650863647,
      0.3226458728313446,
      0.12167683243751526,
      -0.3421851396560669,
      0.26448696851730347
    ],
    [
      -0.06861986219882965,
      0.03506350889801979,
      0.19516032934188843,
      -0.44718191027641296,
      0.35006752610206604,
      -0.24141034483909607,
      -0.4951030910015106,
      -0.33777564764022827,
      0.4136177897453308,
      0.469490647315979,
      0.05042204260826111,
      -0.3797024190425873,
      0.13366363942623138,
      0.06645117700099945,
      0.012524248100817204,
      -0.013255929574370384,
      -0.35593798756599426,
      0.4632878303527832,
      -0.10086137801408768,
      -0.1949034035205841,
      0.210317462682724,
      -0.44276392459869385,
      -0.34744176268577576,
      0.04419170320034027,
      0.10039074718952179
    ],
    [
      -0.21569155156612396,
      -0.15753711760044098,
      -0.13368859887123108,
      0.020479409024119377,
      -0.28689172863960266,
      0.02502693422138691,
      0.3980542719364166,
      -0.37275204062461853,
      0.25143709778785706,
      0.44971442222595215,
      -0.1670583337545395,
      0.3431316912174225,
      0.5601926445960999,
      0.4931143522262573,
      -0.3467143774032593,
      0.2316255271434784,
      0.536673367023468,
      -0.26300984621047974,
      -0.009023092687129974,
      0.03084871917963028,
      -0.3342246115207672,
      0.15137110650539398,
      -0.2274875044822693,
      -0.3415347635746002,
      0.20692385733127594
    ],
    [
      -0.38532066345214844,
      0.4232218563556671,
      0.48853614926338196,
      -0.22261391580104828,
      0.4224887192249298,
      -0.44683128595352173,
      -0.3291323184967041,
      0.12884631752967834,
      -0.3882690668106079,
      0.27911606431007385,
      -0.11125203222036362,
      0.03629105165600777,
      -0.15417030453681946,
      -0.18304012715816498,
      0.2533207833766937,
      0.3953322470188141,
      -0.07336892932653427,
      -0.4856877326965332,
      0.30682194232940674,
      -0.0018838212126865983,
      -0.13900768756866455,
      -0.17417261004447937,
      -0.2866811156272888,
      -0.4830615222454071,
      -0.07372412085533142
    ],
    [
      -0.4194797873497009,
      0.06445880234241486,
      -0.2021423578262329,
      0.2609233856201172,
      0.37621647119522095,
      -0.23863933980464935,
      0.4941611588001251,
      -0.36840176582336426,
      0.5120701193809509,
      -0.24027478694915771,
      -0.02661951072514057,
      0.4513246417045593,
      0.3504040837287903,
      -0.00461953692138195,
      0.1104530468583107,
      -0.33385834097862244,
      0.22800199687480927,
      0.12021749466657639,
      -0.2975381016731262,
      -0.015291265211999416,
      0.14042119681835175,
      0.187883198261261,
      0.08463592827320099,
      -0.1526889055967331,
      -0.08208006620407104
    ],
    [
      -0.219540536403656,
      -0.30372148752212524,
      -0.3094561696052551,
      -0.23963722586631775,
      0.034976400434970856,
      -0.23287346959114075,
      -0.4673409163951874,
      -0.14455975592136383,
      0.06715548038482666,
      -0.3642769455909729,
      -0.14805187284946442,
      -0.1938377171754837,
      0.21308694779872894,
      -0.3028493821620941,
      0.20520389080047607,
      0.26656249165534973,
      -0.3627743721008301,
      0.35729730129241943,
      -0.12354180961847305,
      0.4217158854007721,
      -0.053276628255844116,
      -0.16114096343517303,
      -0.031030694022774696,
      -0.12774330377578735,
      -0.2359200417995453
    ],
    [
      -0.003171503311023116,
      -0.30850446224212646,
      -0.02389383688569069,
      -0.21733658015727997,
      0.2039223611354828,
      -0.0997805967926979,
      0.4661225378513336,
      -0.026148756965994835,
      0.19723021984100342,
      -0.36895376443862915,
      0.12250888347625732,
      0.21010252833366394,
      0.14044073224067688,
      -0.32202306389808655,
      0.2046196460723877,
      -0.09827589243650436,
      0.3597567081451416,
      0.18343421816825867,
      0.2216266542673111,
      0.3970394432544708,
      0.4007459878921509,
      0.46630987524986267,
      0.27218925952911377,
      -0.1745312362909317,
      0.45032450556755066
    ],
    [
      0.2740815579891205,
      -0.33285555243492126,
      0.34623631834983826,
      0.01869904436171055,
      0.1559133231639862,
      -0.26356738805770874,
      -0.46454918384552,
      0.055709358304739,
      -0.40696579217910767,
      -0.0184742771089077,
      -0.15131551027297974,
      -0.09144797176122665,
      -0.4069177806377411,
      -0.3666878938674927,
      0.22120419144630432,
      -0.4660945236682892,
      -0.23265258967876434,
      0.3121640384197235,
      0.4158683121204376,
      0.3693612813949585,
      -0.4546893239021301,
      0.05546919256448746,
      0.06112346798181534,
      -0.12383610010147095,
      0.455194354057312
    ],
    [
      -0.26190465688705444,
      0.42060351371765137,
      0.265819787979126,
      0.030400019139051437,
      -0.18752722442150116,
      -0.1281418353319168,
      -0.025039352476596832,
      -0.028273291885852814,
      0.5879861116409302,
      0.4360583424568176,
      0.2611939609050751,
      0.05105248838663101,
      -0.2765512764453888,
      0.399012953042984,
      0.3185974955558777,
      0.3583469092845917,
      0.19890648126602173,
      -0.4383883476257324,
      -0.2611214816570282,
      -0.4611654281616211,
      -0.1964598447084427,
      0.33629581332206726,
      -0.1479922980070114,
      -0.12528197467327118,
      0.1007806807756424
    ],
    [
      0.3147611916065216,
      0.26932114362716675,
      -0.23343339562416077,
      0.432900071144104,
      0.2551564872264862,
      -0.43619829416275024,
      0.3075631260871887,
      -0.3601589500904083,
      -0.3474571704864502,
      -0.37537264823913574,
      -0.4701615869998932,
      -0.09984327107667923,
      0.10049833357334137,
      0.3589557111263275,
      -0.07885623723268509,
      0.17381002008914948,
      -0.05033493414521217,
      0.26223212480545044,
      -0.21927960216999054,
      -0.41715097427368164,
      0.24081775546073914,
      0.06743527948856354,
      -0.3202834129333496,
      0.11527541279792786,
      0.17209435999393463
    ],
    [
      0.31638067960739136,
      0.25863778591156006,
      -0.28516048192977905,
      0.3109528720378876,
      -0.27831166982650757,
      0.4827735424041748,
      0.3601205050945282,
      0.48875144124031067,
      -0.3729838728904724,
      -0.22678272426128387,
      0.10826226323843002,
      0.13771621882915497,
      -0.46024009585380554,
      0.4140280485153198,
      -0.43042004108428955,
      0.3672967851161957,
      -0.19322575628757477,
      -0.002151169814169407,
      0.04161985218524933,
      0.06646215170621872,
      0.07432234287261963,
      0.3610268831253052,
      -0.1560773402452469,
      -0.05279066413640976,
      -0.4112325608730316
    ],
    [
      0.2455308437347412,
      0.11842861026525497,
      0.3781547546386719,
      -0.23147228360176086,
      -0.5983471274375916,
      -0.1984696090221405,
      0.05354149267077446,
      -0.22491155564785004,
      -0.2519438862800598,
      0.25601431727409363,
      -0.2023414820432663,
      0.19606855511665344,
      -0.29526159167289734,
      0.15570083260536194,
      -0.22371216118335724,
      0.47774606943130493,
      0.19098219275474548,
      0.3627181053161621,
      -0.21307502686977386,
      0.1661601960659027,
      0.15745854377746582,
      -0.04900028184056282,
      -0.3440512418746948,
      0.42705127596855164,
      -0.15343870222568512
    ],
    [
      0.4357662796974182,
      0.29585716128349304,
      0.09455601125955582,
      0.10383876413106918,
      0.3089069128036499,
      -0.4292260408401489,
      -0.3104391396045685,
      0.20165088772773743,
      0.3997310698032379,
      0.4969753921031952,
      -0.0946190133690834,
      -0.17812024056911469,
      0.46378079056739807,
      -0.39007529616355896,
      -0.37228649854660034,
      -0.1329803764820099,
      0.04045795649290085,
      -0.3856649696826935,
      -0.3755277991294861,
      -0.42983660101890564,
      -0.03194338455796242,
      0.06868445128202438,
      -0.10668566823005676,
      -0.204231396317482,
      -0.06292170286178589
    ],
    [
      0.0982305034995079,
      -0.037823256105184555,
      -0.2827714681625366,
      0.15074127912521362,
      0.1462329775094986,
      0.046611085534095764,
      -0.28234151005744934,
      0.19888761639595032,
      0.4135189652442932,
      -0.11823859810829163,
      -0.1007574126124382,
      0.23154641687870026,
      -0.006907460745424032,
      0.04195936769247055,
      -0.09759025275707245,
      0.5018680691719055,
      0.04663227126002312,
      -0.27860668301582336,
      -0.32549336552619934,
      -0.2289688140153885,
      -0.41113412380218506,
      0.5070729851722717,
      -0.015749795362353325,
      -0.26087942719459534,
      -0.26848122477531433
    ],
    [
      -0.3341144025325775,
      -0.3285098969936371,
      0.12517760694026947,
      -0.2299419343471527,
      0.035762183368206024,
      0.08173032850027084,
      0.19922307133674622,
      0.43495500087738037,
      -0.20388682186603546,
      -0.3895253837108612,
      0.34515058994293213,
      0.26311618089675903,
      -0.26383498311042786,
      0.03270363807678223,
      -0.255639910697937,
      -0.17912384867668152,
      0.395929217338562,
      -0.35231348872184753,
      0.08187605440616608,
      0.0003668712161015719,
      -0.09533395618200302,
      -0.330833375453949,
      0.2708922028541565,
      0.10376351326704025,
      0.21666313707828522
    ],
    [
      -0.21382755041122437,
      0.14569245278835297,
      0.3226723074913025,
      -0.19740164279937744,
      0.35479193925857544,
      0.3651842474937439,
      -0.17423880100250244,
      0.30082452297210693,
      -0.22802875936031342,
      0.3094537854194641,
      0.4238634407520294,
      -0.08858216553926468,
      0.269400954246521,
      -0.3515757918357849,
      -0.25862473249435425,
      -0.08033006638288498,
      -0.29548630118370056,
      0.4428410828113556,
      0.4533100426197052,
      0.09614875912666321,
      -0.2218182533979416,
      0.35795798897743225,
      0.1732129156589508,
      0.08428017050027847,
      0.003361464710906148
    ],
    [
      -0.044512730091810226,
      0.2214648574590683,
      0.3826560974121094,
      -0.07307510077953339,
      0.11145608872175217,
      0.22951337695121765,
      0.28540265560150146,
      -0.29328590631484985,
      0.6339762210845947,
      -0.3872922360897064,
      0.3656318187713623,
      0.06325817108154297,
      -0.31838545203208923,
      0.18769270181655884,
      -0.5240384340286255,
      -0.31209731101989746,
      0.03334568813443184,
      0.34551528096199036,
      -0.1588348001241684,
      0.4332396388053894,
      0.3482627868652344,
      0.1012621819972992,
      0.18450920283794403,
      -0.2046014368534088,
      0.5039108395576477
    ],
    [
      -0.040479835122823715,
      0.3948614299297333,
      -0.35354116559028625,
      0.40660127997398376,
      0.48997822403907776,
      0.4694388210773468,
      -0.3782822787761688,
      0.3256654143333435,
      0.07440445572137833,
      -0.3704533278942108,
      -0.33973342180252075,
      0.40298405289649963,
      -0.042910315096378326,
      0.156822070479393,
      -0.25047433376312256,
      0.3605460822582245,
      -0.0071083540096879005,
      -0.3020975887775421,
      -0.07096937298774719,
      0.12957608699798584,
      0.028773726895451546,
      0.21203283965587616,
      0.2886876165866852,
      -0.022476907819509506,
      -0.34775084257125854
    ],
    [
      -0.36710605025291443,
      -0.35601481795310974,
      -0.0884522870182991,
      -0.32073327898979187,
      0.4343176484107971,
      -0.19263967871665955,
      -0.15356048941612244,
      -0.009907158091664314,
      -0.13671518862247467,
      0.27411559224128723,
      -0.48237690329551697,
      0.22960631549358368,
      0.32903939485549927,
      -0.15544167160987854,
      0.48698362708091736,
      0.3305644094944,
      -0.41770243644714355,
      -0.05698809027671814,
      0.2971051335334778,
      -0.18084391951560974,
      -0.05485145375132561,
      -0.34670019149780273,
      0.08175031840801239,
      0.3662317395210266,
      0.41725224256515503
    ],
    [
      -0.008990295231342316,
      0.09779666364192963,
      -0.24681836366653442,
      0.3706667125225067,
      -0.00876828096807003,
      0.36962395906448364,
      -0.44958487153053284,
      0.1822216808795929,
      0.393086314201355,
      0.07854307442903519,
      0.10287567973136902,
      0.34113699197769165,
      -0.3283286988735199,
      -0.09081851691007614,
      -0.23050463199615479,
      0.5175939202308655,
      0.1846819818019867,
      0.009320387616753578,
      0.07098566740751266,
      0.1792878359556198,
      0.29288923740386963,
      0.46652448177337646,
      -0.4643001854419708,
      -0.4154331386089325,
      0.4628334641456604
    ],
    [
      -0.14172939956188202,
      -0.0008803773671388626,
      0.4721706807613373,
      0.13917984068393707,
      0.42654603719711304,
      -0.1934892237186432,
      -0.3524082899093628,
      -0.5118510127067566,
      0.28947532176971436,
      0.09444829076528549,
      -0.4120590388774872,
      -0.08456436544656754,
      -0.0901951715350151,
      -0.06916101276874542,
      -0.3789218068122864,
      -0.25940603017807007,
      0.41223064064979553,
      -0.1983243227005005,
      0.07111333310604095,
      0.26266467571258545,
      0.19012458622455597,
      0.2717629075050354,
      0.1615474373102188,
      0.40378567576408386,
      0.2246578186750412
    ],
    [
      -0.13019444048404694,
      -0.4446779489517212,
      -0.039768025279045105,
      0.31275808811187744,
      -0.04375573247671127,
      0.43178126215934753,
      0.06789331138134003,
      0.36106061935424805,
      -0.33466699719429016,
      -0.06085267290472984,
      -0.4308556616306305,
      0.4669530391693115,
      -0.2391776144504547,
      0.12123706936836243,
      -0.2783185839653015,
      0.305103600025177,
      0.04804355651140213,
      0.10042694956064224,
      0.11480832099914551,
      0.16581159830093384,
      -0.3935169577598572,
      -0.2582927346229553,
      0.38236016035079956,
      0.08044552803039551,
      0.2945544421672821
    ],
    [
      -0.1854792684316635,
      -0.2581653296947479,
      -0.23890507221221924,
      -0.24473530054092407,
      0.3918629586696625,
      0.4227210581302643,
      -0.38780027627944946,
      0.6003723740577698,
      -0.27088212966918945,
      0.38350290060043335,
      -0.07511657476425171,
      0.4955894649028778,
      -0.1273607611656189,
      -0.3929014801979065,
      -0.05104604363441467,
      -0.1932186633348465,
      0.3696414530277252,
      -0.17762187123298645,
      -0.30244874954223633,
      -0.2775123119354248,
      0.10565322637557983,
      -0.18289774656295776,
      0.10956049710512161,
      0.4311891496181488,
      -0.3434300124645233
    ],
    [
      -0.44680243730545044,
      0.10699959099292755,
      -0.11796921491622925,
      0.1331588476896286,
      -0.5221284031867981,
      0.38564109802246094,
      -0.3980495035648346,
      -0.45644405484199524,
      -0.15022681653499603,
      0.1956457644701004,
      -0.16584758460521698,
      -0.2991829514503479,
      0.16296371817588806,
      -0.05945862457156181,
      0.3429834246635437,
      -0.3798190653324127,
      0.2628565728664398,
      -0.20797981321811676,
      -0.11694805324077606,
      -0.3336828052997589,
      0.14614860713481903,
      -0.5114314556121826,
      0.43635469675064087,
      0.24264180660247803,
      0.46050551533699036
    ],
    [
      0.11715283244848251,
      -0.03640902042388916,
      0.1353330761194229,
      0.41107848286628723,
      -0.38812434673309326,
      -0.19706720113754272,
      -0.009696168825030327,
      0.17256145179271698,
      0.1996113657951355,
      0.36951035261154175,
      0.3841438591480255,
      0.11683081090450287,
      0.29349231719970703,
      0.06186135113239288,
      -0.14521734416484833,
      0.05225062742829323,
      -0.3713265359401703,
      0.500865638256073,
      0.46448782086372375,
      0.12082642316818237,
      0.22717203199863434,
      -0.36559540033340454,
      0.4434727430343628,
      -0.39347028732299805,
      -0.3158804476261139
    ],
    [
      -0.04769925773143768,
      0.42844530940055847,
      -0.42734837532043457,
      0.014806527644395828,
      0.4664473235607147,
      0.22515255212783813,
      -0.25438931584358215,
      0.2793232202529907,
      -0.1342187076807022,
      0.1914239227771759,
      -0.03449222445487976,
      0.06398824602365494,
      -0.5070335268974304,
      0.18093156814575195,
      0.05368751659989357,
      -0.3938736021518707,
      0.025821007788181305,
      0.2813268303871155,
      0.23766860365867615,
      0.14060062170028687,
      0.2960408627986908,
      0.00336524099111557,
      -0.43376925587654114,
      -0.30654680728912354,
      0.48628494143486023
    ],
    [
      -0.07128387689590454,
      0.1944122612476349,
      0.23311401903629303,
      -0.1970241516828537,
      -0.3863823413848877,
      -0.1992347240447998,
      0.3046557605266571,
      0.4366858899593353,
      0.40657052397727966,
      -0.19984525442123413,
      -0.47071072459220886,
      0.32366663217544556,
      -0.2020936906337738,
      0.4558873772621155,
      -0.5668886303901672,
      0.31024613976478577,
      0.4808737635612488,
      -0.18623648583889008,
      0.2773054242134094,
      -0.04917651042342186,
      0.06293009221553802,
      0.3117123246192932,
      0.38476133346557617,
      0.3656281530857086,
      -0.01580457016825676
    ],
    [
      -0.5171313285827637,
      -0.3222343921661377,
      0.16596347093582153,
      -0.42794618010520935,
      0.045255146920681,
      -0.07713285833597183,
      0.3509690761566162,
      0.431796133518219,
      -0.19013239443302155,
      0.2978668808937073,
      0.351560115814209,
      0.280029296875,
      0.36827701330184937,
      0.4211111068725586,
      -0.07296739518642426,
      -0.029820885509252548,
      -0.46013742685317993,
      0.32341834902763367,
      -0.20909182727336884,
      -0.34159260988235474,
      0.4514673948287964,
      0.34423741698265076,
      -0.4942110776901245,
      0.03390839323401451,
      -0.03995262458920479
    ],
    [
      0.17613530158996582,
      -0.30133557319641113,
      -0.3944384455680847,
      -0.2328149676322937,
      0.45053762197494507,
      0.38799887895584106,
      0.5091593861579895,
      -0.09277252852916718,
      -0.28471747040748596,
      0.3638922870159149,
      0.21820756793022156,
      -0.2693365216255188,
      0.3212028741836548,
      -0.04882536455988884,
      -0.44398099184036255,
      -0.12510792911052704,
      0.000640342477709055,
      0.3419584631919861,
      -0.3473263680934906,
      0.21954625844955444,
      -0.2474788874387741,
      0.1829066127538681,
      -0.31779906153678894,
      -0.21277494728565216,
      -0.14243341982364655
    ],
    [
      0.341648131608963,
      0.3626982569694519,
      -0.2181992381811142,
      0.08607661724090576,
      -0.05415691062808037,
      0.36521610617637634,
      -0.46951916813850403,
      0.37415412068367004,
      0.27045345306396484,
      0.020130371674895287,
      -0.20836880803108215,
      0.0916454866528511,
      -0.39052465558052063,
      -0.5422460436820984,
      -0.13670389354228973,
      0.030232232064008713,
      0.2968785762786865,
      0.039713356643915176,
      0.3571048080921173,
      -0.30301010608673096,
      0.39617595076560974,
      -0.36561062932014465,
      0.1890796720981598,
      0.34075456857681274,
      0.042483724653720856
    ]
  ],
  "fc1.bias": [
    0.039166368544101715,
    0.050579722970724106,
    0.007403093855828047,
    0.007095055188983679,
    0.0,
    -0.004383441526442766,
    -0.014469551853835583,
    0.002545743715018034,
    -0.004393400624394417,
    0.07185065001249313,
    0.03036763332784176,
    0.0026622219011187553,
    -0.023946672677993774,
    0.016476452350616455,
    0.036227669566869736,
    -0.027095980942249298,
    -0.013144781813025475,
    0.0224253311753273,
    0.022526517510414124,
    0.028242453932762146,
    0.07426971942186356,
    -0.013622380793094635,
    0.016377070918679237,
    -0.022639496251940727,
    0.025291787460446358,
    -0.00043622919474728405,
    0.030342552810907364,
    -0.01152249425649643,
    0.0,
    0.05506933107972145,
    0.0963863804936409,
    -0.01700129546225071,
    0.0,
    0.0,
    0.07749233394861221,
    0.1003907173871994,
    0.027460623532533646,
    -0.013062695041298866,
    0.004921996034681797,
    0.03673980012536049,
    -0.041468437761068344,
    -0.009304223582148552,
    0.013312297873198986,
    0.06027184799313545,
    0.03498333692550659,
    -0.04036301374435425,
    0.04848703742027283,
    -0.018732454627752304,
    0.03558763489127159,
    0.0,
    0.0,
    0.07055770605802536,
    0.019163237884640694,
    0.051054149866104126,
    0.0,
    -0.014355609193444252,
    0.0,
    0.02623741514980793,
    -0.015406087040901184,
    -0.009269668720662594,
    0.049746256321668625,
    -0.0035160842817276716,
    -0.01863393932580948,
    0.00415384117513895,
    0.03196761757135391,
    0.0004476319591049105,
    -0.010303070768713951,
    0.022767338901758194,
    -0.01047905720770359,
    -0.044128406792879105,
    0.0,
    0.004628635942935944,
    0.07429812848567963,
    0.005257905460894108,
    0.04434196278452873,
    0.017206979915499687,
    -0.025547033175826073,
    0.08387243002653122,
    -0.00799790769815445,
    -0.0065690032206475735,
    0.014288866892457008,
    0.03806326165795326,
    0.05394376441836357,
    0.0,
    0.03176363930106163,
    0.03211701661348343,
    0.03660963475704193,
    0.0,
    -0.001132606528699398,
    0.003414297476410866,
    0.005820875987410545,
    -0.025258049368858337,
    0.026401376351714134,
    0.05633539706468582,
    -0.013421385549008846,
    0.0,
    -3.62534228770528e-05,
    0.011090182699263096,
    0.006712084170430899,
    0.016447387635707855,
    0.049779463559389114,
    0.0,
    0.024434614926576614,
    0.0,
    -0.026576966047286987,
    -0.006005479022860527,
    0.00387383671477437,
    -0.02106960117816925,
    0.0011085527949035168,
    -0.015551221556961536,
    0.015032907947897911,
    0.06286322325468063,
    0.03874310478568077,
    -0.02427702769637108,
    0.030807511880993843,
    0.06779434531927109,
    0.0,
    -0.022196559235453606,
    0.02800322137773037,
    -0.026424488052725792,
    0.014442146755754948,
    -0.02582850493490696,
    0.013223755173385143,
    -0.019102780148386955,
    -0.008745847269892693,
    -0.023795872926712036,
    0.05423663929104805,
    0.0019100881181657314
  ],
  "fc2.weight": [
    [
      -0.16981163620948792,
      -0.09197214245796204,
      -0.18189097940921783,
      -0.04858115687966347,
      0.18431206047534943,
      -0.05797944590449333,
      0.15918585658073425,
      0.060606904327869415,
      0.0245068296790123,
      0.15832757949829102,
      -0.11917220056056976,
      -0.11825539171695709,
      0.04233146086335182,
      0.0440119244158268,
      -0.16300559043884277,
      -0.16652624309062958,
      -0.0617508701980114,
      0.05261236056685448,
      0.11209593713283539,
      -0.0992891937494278,
      -0.014364552684128284,
      0.13319876790046692,
      -0.14584971964359283,
      -0.002382687758654356,
      -0.04898378998041153,
      -0.13452088832855225,
      0.03286559879779816,
      -0.21213117241859436,
      -0.07123128324747086,
      0.022371290251612663,
      0.08407681435346603,
      -0.08584654331207275,
      0.1862538903951645,
      -0.11198872327804565,
      -0.18644240498542786,
      -0.19840535521507263,
      0.19852615892887115,
      0.026777252554893494,
      -0.2347695231437683,
      0.12413343787193298,
      -0.19493700563907623,
      -0.1421307623386383,
      0.030481167137622833,
      0.08804725110530853,
      -0.16886892914772034,
      -0.03408677130937576,
      -0.05302802845835686,
      0.19597876071929932,
      0.13390447199344635,
      -0.16257689893245697,
      0.06658218055963516,
      -0.17281240224838257,
      -0.03491661325097084,
      -0.031675226986408234,
      0.1058545857667923,
      0.1845686286687851,
      0.1924659013748169,
      0.1366834193468094,
      -0.20958183705806732,
      0.14150182902812958,
      0.006260630674660206,
      0.12211737036705017,
      -0.017097702249884605,
      -0.061792172491550446,
      -0.10762152075767517,
      -0.001204711734317243,
      -0.020763250067830086,
      0.019538631662726402,
      0.07984394580125809,
      -0.1820114701986313,
      0.05817866325378418,
      -0.15791399776935577,
      0.15502968430519104,
      0.0005235546268522739,
      -0.18567629158496857,
      0.056491635739803314,
      0.0465000681579113,
      0.042728811502456665,
      -0.15660536289215088,
      0.07696331292390823,
      -0.11531506478786469,
      0.1293092519044876,
      -0.14249387383460999,
      0.07648864388465881,
      -0.087934710085392,
      0.17165836691856384,
      0.18442238867282867,
      -0.14695802330970764,
      0.04141412302851677,
      -0.2290825992822647,
      -0.10783722996711731,
      -0.018519921228289604,
      -0.1694720834493637,
      -0.12160495668649673,
      -0.1863326132297516,
      -0.21473145484924316,
      -0.21357674896717072,
      -0.11416130512952805,
      0.07253589481115341,
      0.029964525252580643,
      -0.11620356142520905,
      0.06849218904972076,
      -0.03203398361802101,
      0.12041528522968292,
      -0.21570919454097748,
      0.01392782386392355,
      -0.14801308512687683,
      0.0625547394156456,
      -0.06628518551588058,
      0.07704153656959534,
      -0.08207523077726364,
      -0.05029967427253723,
      -0.14003829658031464,
      0.005620707292109728,
      0.15762943029403687,
      -0.19125279784202576,
      -0.16250625252723694,
      0.1341000646352768,
      -0.024346746504306793,
      0.08351831138134003,
      -0.21914878487586975,
      0.031075159087777138,
      -0.19560520350933075,
      -0.08497130870819092,
      0.029764588922262192,
      0.1500381976366043,
      0.11469090729951859,
      0.058056700974702835
    ],
    [
      0.1854982227087021,
      -0.06449594348669052,
      -0.011273541487753391,
      -0.044284623116254807,
      -0.011715969070792198,
      0.07838987559080124,
      0.01599111780524254,
      -0.09669585525989532,
      -0.020254289731383324,
      -0.07351899147033691,
      -0.21062184870243073,
      -0.11104535311460495,
      -0.111585833132267,
      -0.12843114137649536,
      -0.07409387826919556,
      -0.03246593102812767,
      -0.007675016764551401,
      -0.04384813457727432,
      0.1292722225189209,
      -0.004022704903036356,
      0.163982093334198,
      -0.17015713453292847,
      -0.05845110863447189,
      -0.17777524888515472,
      -0.1023627296090126,
      -0.17105363309383392,
      -0.1427382379770279,
      0.20999521017074585,
      0.02505866438150406,
      -0.1869056671857834,
      -0.07218830287456512,
      0.054236020892858505,
      -0.16378094255924225,
      -0.1831873059272766,
      0.06199721619486809,
      0.21015675365924835,
      -0.15328381955623627,
      -0.1786431223154068,
      -0.020869383588433266,
      0.1830051690340042,
      0.030979327857494354,
      -0.11842864751815796,
      0.1306532472372055,
      0.17681095004081726,
      0.1049283817410469,
      0.07507626712322235,
      -0.11134534329175949,
      -0.16657690703868866,
      0.07982742041349411,
      -0.10960125923156738,
      0.07892795652151108,
      -0.07759527862071991,
      0.16116802394390106,
      -0.04147638753056526,
      0.020680509507656097,
      -0.05578092858195305,
      -0.06732023507356644,
      0.078569695353508,
      -0.053864773362874985,
      0.13924939930438995,
      0.12813051044940948,
      -0.04075867682695389,
      -0.041802387684583664,
      -0.08940106630325317,
      -0.20190179347991943,
      -0.13890866935253143,
      0.17570188641548157,
      -0.1884533017873764,
      -0.14114999771118164,
      -0.11631422489881516,
      -0.10018239170312881,
      -0.21269406378269196,
      0.0352633036673069,
      -0.20460765063762665,
      -0.14847031235694885,
      -0.045290011912584305,
      -0.1794108748435974,
      0.13201263546943665,
      0.12315695732831955,
      -0.032974276691675186,
      -0.18302078545093536,
      0.08082114160060883,
      -0.0007904954254627228,
      -0.1077902540564537,
      -0.09840501844882965,
      -0.18652799725532532,
      -0.12058994174003601,
      0.18102146685123444,
      0.06604015082120895,
      -0.15825089812278748,
      -0.020697595551609993,
      0.05005713924765587,
      -0.08850761502981186,
      0.0897994115948677,
      0.11351579427719116,
      -0.14939755201339722,
      -0.18836292624473572,
      -0.13408708572387695,
      0.21464449167251587,
      0.06283656507730484,
      -0.013904388062655926,
      -0.10696633160114288,
      -0.001828917651437223,
      -0.04421290010213852,
      0.02527420036494732,
      -0.0676744133234024,
      0.010807963088154793,
      0.00013712623331230134,
      0.033857740461826324,
      0.10475368052721024,
      0.04617127776145935,
      -0.10710495710372925,
      0.1880982518196106,
      0.031040133908391,
      -0.14961321651935577,
      -0.19623373448848724,
      0.0029137195087969303,
      -0.07892529666423798,
      0.11285612732172012,
      -0.08569073677062988,
      -0.03658026084303856,
      -0.04447837546467781,
      0.17203065752983093,
      -0.20671223104000092,
      0.030849995091557503,
      -0.07713960856199265,
      0.19409166276454926,
      -0.11215759068727493
    ],
    [
      -0.16152244806289673,
      0.00023618275008630008,
      0.17424045503139496,
      -0.033678751438856125,
      -0.13890418410301208,
      -0.18731184303760529,
      -0.05944276228547096,
      -0.18879063427448273,
      -0.12954753637313843,
      -0.14759935438632965,
      0.20359064638614655,
      0.025230558589100838,
      -0.18872472643852234,
      -0.18817810714244843,
      -0.17268036305904388,
      -0.16490940749645233,
      -0.19701609015464783,
      -0.021167324855923653,
      0.20613090693950653,
      0.052806224673986435,
      0.10873666405677795,
      -0.19825951755046844,
      0.08227083832025528,
      -0.0570947639644146,
      0.15982842445373535,
      0.023346010595560074,
      -0.2017872929573059,
      -0.1832389384508133,
      0.1075800359249115,
      0.20849360525608063,
      0.10644955188035965,
      0.08872614800930023,
      -0.14980585873126984,
      -0.033763740211725235,
      -0.1801699995994568,
      -0.013971548527479172,
      -0.16716067492961884,
      0.11759668588638306,
      -0.0022331629879772663,
      0.18571440875530243,
      -0.07767977565526962,
      0.0741891860961914,
      0.1303700953722,
      -0.200431227684021,
      0.20304520428180695,
      -0.016545729711651802,
      0.0981079712510109,
      0.015912892296910286,
      0.19606465101242065,
      -0.040887750685214996,
