{
  "fc1.weight": [
    [
      0.24230298399925232,
      0.09450183063745499,
      0.28462111949920654,
      0.2708299160003662,
      0.20582535862922668,
      -0.275236576795578,
      0.036713145673274994,
      -0.14563140273094177,
      0.29232972860336304,
      0.15929938852787018,
      0.1524619162082672,
      0.2754824161529541,
      -0.17266885936260223,
      0.15362583100795746,
      0.01761302538216114,
      -0.6042540669441223,
      0.2925507724285126,
      0.11145538091659546,
      -0.03991467505693436,
      -0.21701468527317047,
      -0.021720368415117264,
      -0.04664807766675949,
      -0.0545063242316246,
      -0.028242552652955055,
      0.37711378931999207
    ],
    [
      0.4801673889160156,
      0.2016185224056244,
      0.3545588254928589,
      0.16133472323417664,
      0.10188212245702744,
      -0.27197954058647156,
      -0.05334264412522316,
      -0.47528356313705444,
      0.12168826907873154,
      0.02321036159992218,
      0.028232945129275322,
      0.0865497887134552,
      0.009351418353617191,
      0.05505988746881485,
      0.08283081650733948,
      -0.1909792125225067,
      0.14028438925743103,
      0.10459160804748535,
      0.18676981329917908,
      -0.04777421057224274,
      -0.04820888116955757,
      0.00611521489918232,
      0.008315847255289555,
      0.2302842140197754,
      0.004753307439386845
    ],
    [
      -0.08310572057962418,
      0.062189944088459015,
      -0.05024858936667442,
      0.08610785752534866,
      0.07083887606859207,
      0.21244221925735474,
      0.23067781329154968,
      0.5078956484794617,
      0.17536582052707672,
      0.1563158631324768,
      0.010513163171708584,
      -0.012171789072453976,
      0.09375488758087158,
      0.27615225315093994,
      0.19240978360176086,
      -0.13107624650001526,
      0.27905210852622986,
      -0.05529605597257614,
      -0.18231898546218872,
      -0.07402034103870392,
      0.1702151745557785,
      -0.04656742513179779,
      -0.06501542031764984,
      0.08905430883169174,
      0.08358263969421387
    ],
    [
      0.2385540008544922,
      0.17454272508621216,
      0.05815574526786804,
      -0.014837080612778664,
      0.10389792174100876,
      0.29654109477996826,
      0.06474011391401291,
      0.05576768517494202,
      0.0006043112371116877,
      -0.04824426770210266,
      0.07333812862634659,
      -0.11992261558771133,
      0.018868226557970047,
      -0.36882755160331726,
      -0.39370957016944885,
      0.39661481976509094,
      0.26967430114746094,
      0.13102085888385773,
      -0.15438485145568848,
      0.016378112137317657,
      -0.03203672170639038,
      -0.15589897334575653,
      0.07778269052505493,
      0.2276567965745926,
      0.04982814937829971
    ],
    [
      0.062056321650743484,
      0.0925893560051918,
      -0.3125723600387573,
      -0.12746630609035492,
      0.1788724809885025,
      0.383852481842041,
      0.06859511882066727,
      0.3972797393798828,
      0.2661218047142029,
      -0.0873037576675415,
      0.10002252459526062,
      0.1791423112154007,
      0.09314905107021332,
      -0.2381346970796585,
      -0.088897205889225,
      0.5474756956100464,
      0.28543296456336975,
      0.03433356061577797,
      -0.047286488115787506,
      -0.18812449276447296,
      -0.07332272082567215,
      -0.030212515965104103,
      -0.032822322100400925,
      0.05816042795777321,
      -0.07586537301540375
    ],
    [
      0.022961335256695747,
      0.1218608096241951,
      -0.330442875623703,
      -0.11494793742895126,
      0.1618456244468689,
      0.37424173951148987,
      0.07216891646385193,
      -0.15556292235851288,
      0.0020302697084844112,
      0.05837713181972504,
      0.2809603214263916,
      -0.06395331025123596,
      -0.06323995441198349,
      0.07168297469615936,
      -0.4259321987628937,
      0.523374080657959,
      0.019613133743405342,
      0.03208507224917412,
      0.04429740831255913,
      0.08418121188879013,
      -0.06082981824874878,
      -0.06981997191905975,
      -0.0390804260969162,
      -0.10122627764940262,
      -0.09980560094118118
    ],
    [
      -0.1285204291343689,
      -0.0010387382935732603,
      -0.09848221391439438,
      -0.10019306093454361,
      0.00822017528116703,
      0.1195058599114418,
      0.18174132704734802,
      0.30478280782699585,
      -0.161655455827713,
      0.21723094582557678,
      0.060542404651641846,
      -0.14231432974338531,
      0.1102396622300148,
      0.1626875400543213,
      0.04257328808307648,
      0.04995274916291237,
      0.1341981440782547,
      0.29891154170036316,
      0.04598274454474449,
      -0.12348908185958862,
      -0.008867808617651463,
      0.028431113809347153,
      0.018305741250514984,
      -0.07979456335306168,
      0.05577534809708595
    ],
    [
      0.05051577091217041,
      -0.2872317433357239,
      0.20100440084934235,
      0.018593164160847664,
      0.15166111290454865,
      0.19919365644454956,
      0.12125822901725769,
      0.3183800280094147,
      -0.18745145201683044,
      -0.02288583666086197,
      -0.07134737819433212,
      -0.09238068759441376,
      0.1863020807504654,
      0.1815289556980133,
      0.14877688884735107,
      0.022824726998806,
      0.10800594836473465,
      0.08029808849096298,
      -0.04404721409082413,
      0.0748424157500267,
      -0.13758933544158936,
      0.16104312241077423,
      -0.026906343176960945,
      0.2069101482629776,
      -0.009748268872499466
    ],
    [
      0.09119623899459839,
      0.04126061871647835,
      0.14955200254917145,
      0.026036648079752922,
      0.0934940055012703,
      0.10907468944787979,
      -0.02341313473880291,
      -0.07373663783073425,
      0.1763729304075241,
      -0.09957394003868103,
      0.24821840226650238,
      -0.3049059212207794,
      -0.13546229898929596,
      0.09994823485612869,
      0.07152721285820007,
      -0.2625293433666229,
      0.014123937115073204,
      0.029080284759402275,
      -0.031828057020902634,
      -0.12135598808526993,
      0.20044663548469543,
      0.14526338875293732,
      -0.009539108723402023,
      -0.08239723742008209,
      0.011014268733561039
    ],
    [
      -0.02440941520035267,
      -0.0775439664721489,
      0.10585466027259827,
      0.09511875361204147,
      -0.06711044162511826,
      0.09346301108598709,
      0.12970320880413055,
      0.20385660231113434,
      0.024120859801769257,
      0.027947843074798584,
      0.08211394399404526,
      0.02533157914876938,
      0.01264799665659666,
      0.3275270164012909,
      0.21064992249011993,
      -0.17021410167217255,
      0.07771121710538864,
      0.06190481781959534,
      -0.007524614222347736,
      0.009146601893007755,
      0.053019583225250244,
      0.03580588474869728,
      -0.17956875264644623,
      -0.06714898347854614,
      -0.01758386753499508
    ],
    [
      0.05291217193007469,
      -0.16065841913223267,
      -0.011153874918818474,
      0.24953721463680267,
      0.0005034951609559357,
      0.2733915150165558,
      -0.13817179203033447,
      0.48784735798835754,
      0.26499998569488525,
      -0.1764337718486786,
      0.024002525955438614,
      -0.11378373950719833,
      -0.08292698860168457,
      0.3917745351791382,
      0.2814192473888397,
      0.37051326036453247,
      0.34381887316703796,
      0.19380702078342438,
      0.061965979635715485,
      -0.04879099130630493,
      0.1899990439414978,
      0.013250422663986683,
      0.12461797147989273,
      0.12129837274551392,
      0.0777677521109581
    ],
    [
      0.08115094155073166,
      0.2879621386528015,
      0.161149263381958,
      -0.05460851639509201,
      0.13220636546611786,
      0.05262026563286781,
      0.11432900279760361,
      -0.24256645143032074,
      -0.017690282315015793,
      0.11697669327259064,
      0.10913515836000443,
      0.21238160133361816,
      -0.08698343485593796,
      -0.10559220612049103,
      -0.184829443693161,
      0.025206362828612328,
      0.07628126442432404,
      0.11929626762866974,
      -0.28121086955070496,
      -0.0916602686047554,
      -0.12493860721588135,
      0.17006269097328186,
      0.22798965871334076,
      0.043598439544439316,
      0.05242209509015083
    ],
    [
      -0.2586684226989746,
      0.29371288418769836,
      -0.046580053865909576,
      -0.030282597988843918,
      -0.14035269618034363,
      -0.14009319245815277,
      -0.31025776267051697,
      0.16332288086414337,
      -0.0413588285446167,
      -0.15188761055469513,
      0.09660005569458008,
      -0.01267249882221222,
      0.075314000248909,
      0.3020530343055725,
      0.22399422526359558,
      -0.0009044538019225001,
      0.14542609453201294,
      0.09628710895776749,
      0.0699167400598526,
      0.1490761786699295,
      0.08660527318716049,
      -0.17335055768489838,
      -0.04421636462211609,
      0.030686497688293457,
      0.02385600470006466
    ],
    [
      -0.07073439657688141,
      0.002176569076254964,
      0.04732624441385269,
      0.02140032686293125,
      0.030101442709565163,
      0.03369404748082161,
      -0.24589607119560242,
      0.2749653160572052,
      0.028842680156230927,
      -0.024498211219906807,
      0.07983768731355667,
      0.08485712856054306,
      0.03310433775186539,
      0.10333117842674255,
      -0.079879030585289,
      0.2710951864719391,
      0.08571524173021317,
      -0.19516855478286743,
      -0.05622979998588562,
      -0.18556776642799377,
      0.2427809238433838,
      0.12092562019824982,
      -0.03420095145702362,
      0.08892979472875595,
      -0.008179545402526855
    ],
    [
      0.22677956521511078,
      -0.21204936504364014,
      0.03477684408426285,
      -0.06638479977846146,
      0.4052364230155945,
      -0.25781670212745667,
      -0.058380573987960815,
      -0.19386951625347137,
      0.1316203624010086,
      0.07842028141021729,
      0.17828622460365295,
      0.10798609256744385,
      -0.14890922605991364,
      -0.1780022233724594,
      -0.20363442599773407,
      -0.35684385895729065,
      0.11948782205581665,
      0.038232702761888504,
      0.11266116052865982,
      0.18057020008563995,
      0.2538294196128845,
      0.0026667374186217785,
      0.23161286115646362,
      0.11384676396846771,
      -0.07579945027828217
    ],
    [
      -0.034335147589445114,
      -0.06049714609980583,
      -0.018064042553305626,
      0.26947498321533203,
      -0.0983169674873352,
      0.044012729078531265,
      -0.02283048816025257,
      -0.031532932072877884,
      0.031448449939489365,
      0.025045616552233696,
      0.0016611689934507012,
      0.0927535817027092,
      -0.051803309470415115,
      0.29959893226623535,
      0.18933582305908203,
      -0.1778692901134491,
      0.11688278615474701,
      0.21520429849624634,
      -0.15192991495132446,
      -0.05776359140872955,
      0.20226220786571503,
      0.2656126320362091,
      0.16709120571613312,
      0.01045475248247385,
      -0.02816506288945675
    ],
    [
      0.11711426824331284,
      0.06997357308864594,
      0.005729349795728922,
      -0.18857181072235107,
      0.20128734409809113,
      -0.11103769391775131,
      0.2755933105945587,
      -0.03779531642794609,
      0.06217923387885094,
      0.027364755049347878,
      0.11177431792020798,
      0.1492994874715805,
      0.047877416014671326,
      -0.1536763459444046,
      -0.2419286072254181,
      0.3231913149356842,
      -0.04892633110284805,
      -0.07778475433588028,
      -0.05927930027246475,
      -0.07254493236541748,
      0.1290987879037857,
      0.06018019840121269,
      0.057210665196180344,
      -0.060298774391412735,
      0.0015352197224274278
    ],
    [
      -0.25045350193977356,
      -0.19672556221485138,
      0.09600739926099777,
      -0.04284805431962013,
      -0.13432757556438446,
      0.4299119710922241,
      0.07889136672019958,
      0.4659508466720581,
      -0.021758083254098892,
      -0.03632081672549248,
      0.006717657204717398,
      -0.058149076998233795,
      0.11910689622163773,
      -0.0038941551465541124,
      -0.05319821834564209,
      0.36824092268943787,
      0.07544786483049393,
      -0.08358500897884369,
      0.03538789972662926,
      0.03665124252438545,
      0.35090371966362,
      -0.07176828384399414,
      -0.11894959211349487,
      0.12806309759616852,
      0.32350558042526245
    ],
    [
      0.22270794212818146,
      -0.07561356574296951,
      0.03844714164733887,
      0.16605277359485626,
      0.1601521223783493,
      -0.23220184445381165,
      -0.17142777144908905,
      -0.303157240152359,
      0.21959662437438965,
      0.017452199012041092,
      0.18418940901756287,
      -0.018204649910330772,
      0.046342406421899796,
      -0.23269592225551605,
      0.0719381645321846,
      -0.1353067010641098,
      -0.03452010825276375,
      0.13653995096683502,
      -0.03219400718808174,
      -0.06330655515193939,
      -0.2740054130554199,
      -0.06511978060007095,
      0.04883158579468727,
      -0.02558448724448681,
      0.07440388202667236
    ],
    [
      0.05595826357603073,
      -0.03424087166786194,
      -0.1896773874759674,
      0.030190331861376762,
      -0.20646339654922485,
      -0.268297016620636,
      0.035616569221019745,
      0.37692299485206604,
      -0.21886074542999268,
      -0.03528411686420441,
      0.07868413627147675,
      0.0620640330016613,
      0.1611039787530899,
      0.2330658733844757,
      0.053541019558906555,
      -0.08843044936656952,
      -0.03843522444367409,
      0.01605910435318947,
      0.1440439075231552,
      -0.028099553659558296,
      -0.20305733382701874,
      0.07313991338014603,
      -0.051473550498485565,
      0.02990541234612465,
      -0.02256886474788189
    ],
    [
      -0.14624886214733124,
      0.09000686556100845,
      0.007063696626573801,
      0.10052238404750824,
      -0.14402325451374054,
      0.2991448640823364,
      0.16113363206386566,
      0.44261282682418823,
      0.15528504550457,
      -0.012031227350234985,
      0.021437404677271843,
      0.020020706579089165,
      0.09985414147377014,
      0.08034219592809677,
      0.07810480892658234,
      0.041021961718797684,
      -0.017169948667287827,
      0.2639384865760803,
      0.0006520904134958982,
      -0.10670880228281021,
      0.0054154465906322,
      0.040720559656620026,
      0.055422212928533554,
      -0.09110571444034576,
      -0.051621705293655396
    ],
    [
      0.07106602191925049,
      0.11324922740459442,
      -0.0009868154302239418,
      0.09260182082653046,
      -0.11800568550825119,
      0.012148859910666943,
      0.20578105747699738,
      0.12824800610542297,
      0.09660894423723221,
      -0.02505999058485031,
      0.12073100358247757,
      -0.00680914893746376,
      0.09564031660556793,
      0.024600815027952194,
      0.0210193432867527,
      0.16748324036598206,
      0.014590549282729626,
      -0.15633639693260193,
      -0.03819849342107773,
      -0.1595294326543808,
      0.1132265031337738,
      0.03764518350362778,
      -0.0004206206649541855,
      -0.2889856696128845,
      0.016873393207788467
    ],
    [
      0.14610563218593597,
      0.2846909165382385,
      -0.06846973299980164,
      -0.20246419310569763,
      0.05507946386933327,
      0.23315057158470154,
      0.09793192893266678,
      0.3365783095359802,
      0.21339666843414307,
      -0.10202445089817047,
      0.20675817131996155,
      -0.05615975335240364,
      -0.10489518195390701,
      -0.03231219947338104,
      -0.19463446736335754,
      0.241377055644989,
      0.04109124839305878,
      0.06438113749027252,
      -0.13350263237953186,
      0.1469210833311081,
      0.17732107639312744,
      0.032812800258398056,
      0.1780598759651184,
      -0.017265433445572853,
      -0.11055681109428406
    ],
    [
      -0.01832781732082367,
      -0.08723345398902893,
      0.08006874471902847,
      0.12712664902210236,
      -0.1989000141620636,
      0.19552764296531677,
      0.02938641980290413,
      -0.005769632291048765,
      -0.04395638778805733,
      -0.0028560557402670383,
      -0.10194455087184906,
      0.01840260811150074,
      0.20272305607795715,
      0.07279573380947113,
      0.33748382329940796,
      0.1412459909915924,
      0.022744446992874146,
      -0.20504148304462433,
      0.02746819145977497,
      0.021470393985509872,
      0.1377861350774765,
      -0.029121918603777885,
      0.13791416585445404,
      0.10499408096075058,
      -0.14741934835910797
    ],
    [
      0.032073695212602615,
      0.19145672023296356,
      -0.06265107542276382,
      0.39895111322402954,
      -0.006989721674472094,
      -0.0378543958067894,
      0.14179560542106628,
      0.17934642732143402,
      0.09239550679922104,
      0.041780706495046616,
      0.051952362060546875,
      -0.022992733865976334,
      0.0031576724722981453,
      0.16814780235290527,
      0.06254903227090836,
      -0.29200389981269836,
      0.0116383396089077,
      -0.12413277477025986,
      -0.056716423481702805,
      0.19199398159980774,
      0.26868098974227905,
      -0.11290808022022247,
      0.04735366255044937,
      0.21193328499794006,
      0.24646107852458954
    ],
    [
      -0.057226311415433884,
      0.1266249567270279,
      0.15948140621185303,
      0.2249164581298828,
      0.046603765338659286,
      0.3059968054294586,
      -0.10814788192510605,
      0.3992377519607544,
      -0.011612189933657646,
      -0.07209872454404831,
      0.031926725059747696,
      0.059759702533483505,
      0.028463508933782578,
      0.2866489887237549,
      0.027684325352311134,
      0.12237123399972916,
      0.20818044245243073,
      0.09122414886951447,
      -0.2008850872516632,
      0.12518098950386047,
      0.04186102747917175,
      0.12799455225467682,
      0.1442437469959259,
      -0.006179829593747854,
      -0.13498112559318542
    ],
    [
      0.04146071523427963,
      0.056892797350883484,
      0.04937524348497391,
      0.015561374835669994,
      0.11610819399356842,
      -0.21363599598407745,
      0.0011048411251977086,
      0.08452370762825012,
      -0.16896024346351624,
      -0.03964952751994133,
      0.12071447819471359,
      -0.23260840773582458,
      -0.12204843759536743,
      0.168296217918396,
      0.3488597571849823,
      -0.04755871742963791,
      0.05012333765625954,
      -0.0046937293373048306,
      0.0224565789103508,
      -0.05358261615037918,
      -0.06193538010120392,
      -0.10540764778852463,
      0.15393687784671783,
      0.18560297787189484,
      -0.1642819344997406
    ],
    [
      -0.038439489901065826,
      0.04560470208525658,
      0.2625477612018585,
      0.07885630428791046,
      0.03326333686709404,
      0.2897646129131317,
      0.07899501174688339,
      -0.1222192645072937,
      0.0460859090089798,
      0.10008601099252701,
      0.015771033242344856,
      -0.05435369163751602,
      -0.04567985236644745,
      0.24397407472133636,
      0.10794417560100555,
      -0.07455819100141525,
      0.2080959528684616,
      0.15922226011753082,
      0.0722590982913971,
      -0.10931682586669922,
      0.19018365442752838,
      0.04797414690256119,
      0.027167908847332,
      0.07829586416482925,
      0.16676460206508636
    ],
    [
      0.25024691224098206,
      0.17326350510120392,
      0.3271504342556,
      0.3730666935443878,
      0.2745912969112396,
      -0.23880741000175476,
      0.043615810573101044,
      -0.3307056725025177,
      0.02649649605154991,
      -0.06837395578622818,
      0.03366389870643616,
      0.27963757514953613,
      0.03131736069917679,
      0.17145392298698425,
      0.21751706302165985,
      -0.44399604201316833,
      0.10353174805641174,
      0.04407286271452904,
      0.1705171763896942,
      0.21024835109710693,
      0.10725276917219162,
      0.3701218366622925,
      -0.010012120939791203,
      -0.042705584317445755,
      0.11932893097400665
    ],
    [
      0.038031306117773056,
      0.1335943341255188,
      -0.24661557376384735,
      -0.24996143579483032,
      0.016278082504868507,
      0.1813262701034546,
      0.030157078057527542,
      -0.3111897110939026,
      -0.014970644377171993,
      0.04350344091653824,
      0.09779133647680283,
      0.17718113958835602,
      0.04284428060054779,
      -0.3889552652835846,
      -0.06030707433819771,
      0.16392628848552704,
      0.10960481315851212,
      -0.11877872049808502,
      0.01649307645857334,
      -0.08293657749891281,
      0.07548842579126358,
      0.009878079406917095,
      -0.15269137918949127,
      0.13339033722877502,
      0.2658616900444031
    ],
    [
      0.10428642481565475,
      0.01605857163667679,
      -0.037788115441799164,
      0.06778699904680252,
      -0.04894021525979042,
      -0.022715924307703972,
      0.004788202699273825,
      -0.13428951799869537,
      0.06516759842634201,
      0.10116344690322876,
      0.030077049508690834,
      0.1702568680047989,
      0.15979056060314178,
      0.17846354842185974,
      0.41851726174354553,
      -0.12983393669128418,
      -0.001137594343163073,
      0.08279527723789215,
      0.19743956625461578,
      0.0791972354054451,
      -0.07411015778779984,
      -0.09323202073574066,
      0.11126208305358887,
      -0.037604328244924545,
      0.03785741701722145
    ],
    [
      0.050499074161052704,
      0.1998269259929657,
      -0.033650144934654236,
      0.055374134331941605,
      -0.0911649689078331,
      0.17534500360488892,
      0.011639327742159367,
      0.32574281096458435,
      0.01709514483809471,
      0.15848658978939056,
      -0.06804268807172775,
      -0.14562755823135376,
      0.14641410112380981,
      0.18970626592636108,
      0.2405921071767807,
      0.10313373804092407,
      -0.12594713270664215,
      0.4641856849193573,
      -0.1275050789117813,
      -0.13469719886779785,
      0.25290563702583313,
      0.023570213466882706,
      0.13779984414577484,
      0.0027188004460185766,
      0.07817249745130539
    ],
    [
      0.1356174647808075,
      0.22340844571590424,
      -0.04134920984506607,
      -0.1500736027956009,
      0.21178829669952393,
      0.39442312717437744,
      0.18453359603881836,
      0.21220475435256958,
      0.11615874618291855,
      -0.3040041923522949,
      0.0020892524626106024,
      0.37322333455085754,
      0.07758351415395737,
      -0.35679692029953003,
      -0.20244257152080536,
      0.7104809880256653,
      0.29414090514183044,
      0.23641718924045563,
      0.008997233584523201,
      0.15176336467266083,
      0.16054868698120117,
      0.2596414089202881,
      0.26638302206993103,
      -0.19131097197532654,
      0.17767733335494995
    ],
    [
      -0.1382341831922531,
      0.11996490508317947,
      0.16702717542648315,
      -0.06463117152452469,
      0.210418701171875,
      -0.08788127452135086,
      -0.023303702473640442,
      -0.29187721014022827,
      -0.04611444100737572,
      -0.04340898245573044,
      0.17468607425689697,
      0.17040863633155823,
      -0.051733747124671936,
      -0.1584177017211914,
      0.017947616055607796,
      -0.28517013788223267,
      0.07272186130285263,
      -0.02802291512489319,
      0.1713356375694275,
      0.009624915197491646,
      -0.024436067789793015,
      0.03420686349272728,
      0.13515570759773254,
      0.17128479480743408,
      -0.005628154147416353
    ],
    [
      -0.14785732328891754,
      -0.08072804659605026,
      -0.011777854524552822,
      0.09404364228248596,
      -0.007708986755460501,
      -0.14989525079727173,
      -0.21816161274909973,
      0.22800055146217346,
      0.001023486373014748,
      -0.0808110386133194,
      0.1949407309293747,
      0.22413381934165955,
      0.08317319303750992,
      0.04895681142807007,
      0.0878027006983757,
      -0.03851593658328056,
      -0.12991978228092194,
      0.07573538273572922,
      0.2489214390516281,
      -0.19421130418777466,
      0.00987764447927475,
      -0.05127498134970665,
      -0.12696395814418793,
      0.07311471551656723,
      -0.15731589496135712
    ],
    [
      0.34244611859321594,
      0.07302716374397278,
      0.14120368659496307,
      0.05451683700084686,
      -0.09864681214094162,
      -0.3865450322628021,
      -0.03817034885287285,
      -0.1863010972738266,
      0.06516571342945099,
      -0.1285119503736496,
      0.14845073223114014,
      -0.08711615949869156,
      -0.1410219371318817,
      0.005320696625858545,
      0.1170315071940422,
      -0.30804455280303955,
      0.005179346539080143,
      -0.11551670730113983,
      0.08244822174310684,
      -0.044261109083890915,
      0.12679623067378998,
      0.06745263189077377,
      0.039400454610586166,
      0.22800591588020325,
      0.16846729815006256
    ],
    [
      0.06482136249542236,
      0.35856330394744873,
      -0.011313380673527718,
      0.23348522186279297,
      -0.11746349930763245,
      0.2777465283870697,
      0.1930849701166153,
      0.6045951247215271,
      -0.030004816129803658,
      0.11555775254964828,
      -0.20287686586380005,
      0.002375115407630801,
      -0.029313787817955017,
      0.3637860417366028,
      0.34733617305755615,
      -0.06412298232316971,
      0.04173608869314194,
      0.12164894491434097,
      0.016161954030394554,
      0.060685787349939346,
      -0.05362062156200409,
      0.36601752042770386,
      0.348847895860672,
      0.39948463439941406,
      0.21535775065422058
    ],
    [
      -0.04480275511741638,
      0.028482604771852493,
      0.09677138924598694,
      -0.17958684265613556,
      0.03985645994544029,
      -0.038143888115882874,
      0.1755543351173401,
      -0.3748750686645508,
      0.36821720004081726,
      -0.08328541368246078,
      0.19112703204154968,
      0.048741165548563004,
      -0.0010051493300125003,
      -0.03549767658114433,
      -0.02667464129626751,
      -0.26811957359313965,
      0.24275745451450348,
      -0.01479116640985012,
      -0.028013339266180992,
      0.1362757533788681,
      -0.07387112081050873,
      -0.1561681032180786,
      0.23857612907886505,
      -0.020670775324106216,
      0.04800859093666077
    ],
    [
      0.25986939668655396,
      0.1139306053519249,
      0.06513474881649017,
      -0.22320307791233063,
      -0.03729443624615669,
      0.14176036417484283,
      0.027061669155955315,
      0.11196338385343552,
      0.1704038381576538,
      0.20622962713241577,
      0.0629066452383995,
      0.10585317760705948,
      -0.002087253611534834,
      0.041166651993989944,
      0.026022709906101227,
      -0.01877768337726593,
      0.09266678988933563,
      0.21172849833965302,
      0.0332002155482769,
      0.026182856410741806,
      0.06618303060531616,
      0.3556358516216278,
      0.04053979739546776,
      0.12520548701286316,
      -0.06306570023298264
    ],
    [
      -0.14458046853542328,
      0.09939204156398773,
      0.30625060200691223,
      -0.1802804172039032,
      -0.15396229922771454,
      -0.09016216546297073,
      0.10994885116815567,
      -0.05555124580860138,
      0.022723417729139328,
      -0.04874197766184807,
      0.11956838518381119,
      -0.08470468968153,
      0.1892879456281662,
      0.07043596357107162,
      0.21708060801029205,
      -0.03494274988770485,
      -0.20825542509555817,
      -0.09771250188350677,
      0.055971790105104446,
      0.16249121725559235,
      -0.0765586569905281,
      -0.09301961958408356,
      -0.16484692692756653,
      -0.20986436307430267,
      0.0769413411617279
    ],
    [
      0.09519470483064651,
      0.12855122983455658,
      0.058744195848703384,
      0.09763482213020325,
      0.03331468254327774,
      0.035109393298625946,
      -0.016087060794234276,
      -0.01563720405101776,
      -0.007901475764811039,
      -0.1659616380929947,
      0.10155989229679108,
      0.31609395146369934,
      0.08587031066417694,
      -0.15633493661880493,
      -0.18024873733520508,
      0.3647119402885437,
      -0.16794630885124207,
      -0.019993038848042488,
      -0.13029244542121887,
      0.164944127202034,
      -0.15419603884220123,
      0.012718424201011658,
      -0.2511231303215027,
      -0.019288206472992897,
      -0.027685625478625298
    ],
    [
      -0.062170252203941345,
      -0.0049933926202356815,
      0.024227838963270187,
      0.20285767316818237,
      -0.014331435784697533,
      0.05370296537876129,
      0.0003856079129036516,
      0.5257150530815125,
      -0.0922878310084343,
      -0.013850505463778973,
      -0.016931986436247826,
      0.01150420680642128,
      0.09120412915945053,
      0.2204282283782959,
      0.05959470942616463,
      0.1018826812505722,
      -0.05670524761080742,
      0.16835550963878632,
      -0.02942054346203804,
      -0.1341533660888672,
      0.084717757999897,
      -0.023742342367768288,
      0.03969517722725868,
      0.01074802502989769,
      0.1241631880402565
    ],
    [
      -0.18180234730243683,
      0.01079561561346054,
      -0.1594497710466385,
      -0.21974408626556396,
      -0.055794376879930496,
      0.2565680742263794,
      -0.09429309517145157,
      0.06988466531038284,
      -0.17442341148853302,
      0.09674898535013199,
      0.024318385869264603,
      -0.04402785748243332,
      0.19977936148643494,
      0.12808728218078613,
      0.18231257796287537,
      -0.06891138851642609,
      -0.09043402969837189,
      0.05548927187919617,
      -0.029056813567876816,
      -0.03555092215538025,
      0.09490064531564713,
      -0.10226169228553772,
      0.005196625366806984,
      -0.040065567940473557,
      -0.08984201401472092
    ],
    [
      0.252814382314682,
      -0.20020072162151337,
      0.17524686455726624,
      0.05953481048345566,
      -0.23610080778598785,
      -0.0008524828590452671,
      -0.07523655146360397,
      0.19282940030097961,
      0.13612063229084015,
      0.08589933067560196,
      -0.015335111878812313,
      -0.0287830401211977,
      0.1369432806968689,
      0.11669912189245224,
      0.28685227036476135,
      0.07818294316530228,
      -0.021306956186890602,
      0.11439625918865204,
      0.16931964457035065,
      0.15964312851428986,
      0.021465996280312538,
      0.10543598234653473,
      -0.04818301647901535,
      0.0713135302066803,
      -0.09519035369157791
    ],
    [
      0.05344821885228157,
      0.10827159136533737,
      -0.18352361023426056,
      0.12797653675079346,
      0.224502295255661,
      0.1418081670999527,
      0.06493531167507172,
      -0.4165506958961487,
      -0.12481335550546646,
      -0.09449341893196106,
      0.04851417988538742,
      -0.06277234852313995,
      0.03173157200217247,
      -0.18543919920921326,
      -0.06404281407594681,
      0.15256068110466003,
      0.018112339079380035,
      -0.14722386002540588,
      0.09878519177436829,
      -0.12530222535133362,
      -0.07641588896512985,
      0.0059534707106649876,
      0.2095753401517868,
      0.2609943151473999,
      0.028530558571219444
    ],
    [
      0.2202732264995575,
      0.23741918802261353,
      0.052745915949344635,
      0.2805939316749573,
      0.02155400812625885,
      -0.32139894366264343,
      -0.09589351713657379,
      -0.17890574038028717,
      -0.046032436192035675,
      0.073483906686306,
      0.12403808534145355,
      -0.1510223150253296,
      -0.051801279187202454,
      0.13073307275772095,
      0.22885695099830627,
      -0.09221606701612473,
      0.11333394795656204,
      0.04430767521262169,
      -0.13334381580352783,
      -0.06292552500963211,
      0.20000068843364716,
      0.1161196157336235,
      -0.17619523406028748,
      0.1137567088007927,
      0.11913952976465225
    ],
    [
      0.16497266292572021,
      0.08069124072790146,
      0.06858814507722855,
      -0.13199767470359802,
      -0.031407326459884644,
      0.07606171816587448,
      0.06408295035362244,
      0.19632470607757568,
      0.1614227592945099,
      -0.15233618021011353,
      -0.07780022919178009,
      0.16573897004127502,
      0.07717584073543549,
      0.19283156096935272,
      0.02114512026309967,
      -0.1124340072274208,
      -0.0703451856970787,
      -0.036754123866558075,
      0.11765283346176147,
      -0.11306989938020706,
      0.1207297295331955,
      0.06751469522714615,
      0.3942584693431854,
      0.1611752212047577,
      0.11414392292499542
    ],
    [
      -0.013709526509046555,
      0.03767671808600426,
      -0.022654172033071518,
      -0.036918967962265015,
      0.23839713633060455,
      0.4002254605293274,
      0.19474777579307556,
      -0.008208241313695908,
      0.10826287418603897,
      -0.10922043025493622,
      0.09703249484300613,
      -0.06049741059541702,
      -0.0984816774725914,
      -0.2753969132900238,
      -0.44323208928108215,
      0.49157989025115967,
      -0.03147547319531441,
      0.14630143344402313,
      0.02558182179927826,
      -0.16292765736579895,
      -0.12089592218399048,
      0.06184493750333786,
      0.0027003425639122725,
      0.12484733760356903,
      0.19470427930355072
    ],
    [
      0.16298864781856537,
      -0.0814998522400856,
      -0.03936601057648659,
      0.19875414669513702,
      0.06245749816298485,
      -0.1348092257976532,
      0.07505355030298233,
      -0.2357630580663681,
      0.08025428652763367,
      -0.03391938656568527,
      0.12942162156105042,
      -0.00652580289170146,
      -0.11337051540613174,
      -0.07733716815710068,
      -0.23327410221099854,
      -0.3465668261051178,
      0.16642102599143982,
      0.11333435028791428,
      0.09351637214422226,
      0.2793978750705719,
      0.11458959430456161,
      0.23312540352344513,
      0.28240665793418884,
      0.07639026641845703,
      0.048537857830524445
    ],
    [
      0.15797708928585052,
      -0.1259421855211258,
      0.06427865475416183,
      0.03164631500840187,
      0.1752820461988449,
      0.06878834217786789,
      0.005272804293781519,
      0.1288708746433258,
      0.05769822746515274,
      -0.1990160495042801,
      -0.013836821541190147,
      -0.12746328115463257,
      0.17223955690860748,
      0.1347164362668991,
      0.09235545247793198,
      0.014584753662347794,
      -0.08294710516929626,
      -0.05812372267246246,
      -0.13946415483951569,
      -0.10466828942298889,
      -0.11418356746435165,
      -0.021214134991168976,
      0.17211677134037018,
      0.08248265832662582,
      -0.030545711517333984
    ],
    [
      0.010531475767493248,
      -0.04716610535979271,
      0.01747850328683853,
      -0.0935070589184761,
      -0.009843778796494007,
      -0.05046132579445839,
      0.036968834698200226,
      0.14912451803684235,
      -0.0004716187249869108,
      0.014985865913331509,
      0.08924505114555359,
      -0.07935643196105957,
      -0.005108581390231848,
      0.3335598111152649,
      0.2711741328239441,
      -0.10343021899461746,
      0.19024331867694855,
      0.07232284545898438,
      -0.19659247994422913,
      0.10076112300157547,
      0.007034469395875931,
      0.23770037293434143,
      0.0798669308423996,
      -0.16858117282390594,
      0.15861527621746063
    ],
    [
      0.12078282237052917,
      0.051434800028800964,
      -0.19578547775745392,
      -0.06890193372964859,
      0.27762898802757263,
      -0.09366242587566376,
      -0.05607091262936592,
      -0.11124181002378464,
      0.012499003671109676,
      0.19854488968849182,
      0.1343809962272644,
      0.00037991334102116525,
      0.06859363615512848,
      -0.09129635244607925,
      -0.0207055676728487,
      0.17986227571964264,
      -0.0826035887002945,
      0.028518453240394592,
      -0.21508421003818512,
      -0.18463999032974243,
      0.06283604353666306,
      0.28669029474258423,
      0.14760911464691162,
      0.02739919163286686,
      -0.05241457000374794
    ],
    [
      -0.12140347063541412,
      -0.004917509388178587,
      0.1107664406299591,
      0.007467994000762701,
      0.03794272243976593,
      0.26216986775398254,
      -0.06234032288193703,
      0.28296297788619995,
      0.19787459075450897,
      0.14067748188972473,
      -0.08821188658475876,
      0.064991295337677,
      0.10311760008335114,
      0.3030153810977936,
      0.1646261215209961,
      0.06027470901608467,
      0.04260452091693878,
      0.07264167815446854,
      -0.11450080573558807,
      -0.12936247885227203,
      0.07143584638834,
      0.23525327444076538,
      0.1725025326013565,
      0.13908402621746063,
      0.11688484996557236
    ],
    [
      -0.08351952582597733,
      -0.09033996611833572,
      -0.0867282897233963,
      -0.15157550573349,
      0.016898319125175476,
      0.19876781105995178,
      0.05209192633628845,
      0.30053409934043884,
      0.03263353928923607,
      -0.11838740855455399,
      0.05599210411310196,
      -0.005048851948231459,
      -0.01812533102929592,
      0.0970090925693512,
      -0.02409202791750431,
      0.1998370736837387,
      0.029406582936644554,
      0.2529301941394806,
      -0.281788170337677,
      0.07114170491695404,
      0.06561446934938431,
      0.253978967666626,
      0.054250746965408325,
      0.26377779245376587,
      0.2060822695493698
    ],
    [
      0.1182708665728569,
      -0.02592935785651207,
      0.20827318727970123,
      0.3587799370288849,
      -0.026998598128557205,
      -0.14242534339427948,
      0.194668248295784,
      -0.25656047463417053,
      0.06838058680295944,
      -0.2363513708114624,
      0.0590326227247715,
      0.03001329116523266,
      -0.20715314149856567,
      -0.09249163419008255,
      -0.01646638847887516,
      -0.11300601065158844,
      -0.019371397793293,
      0.2441805899143219,
      -0.09468140453100204,
      -0.02735215239226818,
      0.019704747945070267,
      0.07421755790710449,
      0.06351736187934875,
      0.316537082195282,
      0.1602926403284073
    ],
    [
      0.18336807191371918,
      -0.03607059642672539,
      0.14699728786945343,
      0.15998299419879913,
      -0.06207532063126564,
      -0.3865676522254944,
      -0.05673445016145706,
      -0.10772810131311417,
      0.08131468296051025,
      -0.07492244988679886,
      0.15921954810619354,
      0.011651985347270966,
      0.05588050186634064,
      0.1665433794260025,
      0.2231796383857727,
      -0.5931824445724487,
      -0.011486133560538292,
      0.06429377943277359,
      0.03089071996510029,
      -0.2672399580478668,
      -0.17613822221755981,
      0.09378096461296082,
      0.030583685263991356,
      0.03414059430360794,
      -0.04799610376358032
    ],
    [
      0.2714778482913971,
      -0.19060760736465454,
      0.16442422568798065,
      -0.06555549800395966,
      -0.05613288655877113,
      0.07549586892127991,
      -0.15941151976585388,
      0.1263813078403473,
      -0.0320054329931736,
      0.09587837010622025,
      -0.044131673872470856,
      -0.18787196278572083,
      0.3101554811000824,
      0.22985221445560455,
      0.44165873527526855,
      0.0012864959426224232,
      -0.02844948321580887,
      -0.15835343301296234,
      -0.21559864282608032,
      0.017796050757169724,
      -0.00378537573851645,
      0.030376633629202843,
      0.07717305421829224,
      -0.10549607127904892,
      0.26181212067604065
    ],
    [
      -0.20044371485710144,
      -0.07712578773498535,
      0.030201759189367294,
      -0.008866038173437119,
      -0.036149535328149796,
      -0.17364777624607086,
      0.11470343172550201,
      0.10666170716285706,
      -0.07813318073749542,
      -0.01833251863718033,
      0.2111406773328781,
      -0.10544321686029434,
      -0.031207550317049026,
      0.17534177005290985,
      0.19807963073253632,
      -0.2592605948448181,
      -0.20916222035884857,
      -0.07808666676282883,
      -0.13002996146678925,
      -0.19583266973495483,
      -0.1534714698791504,
      0.24757413566112518,
      -0.030613772571086884,
      -0.17287367582321167,
      -0.12653058767318726
    ],
    [
      -0.21227723360061646,
      -0.051023028790950775,
      0.07526703923940659,
      -0.16234098374843597,
      -0.17248915135860443,
      0.0005550689529627562,
      0.0656740590929985,
      0.3719324469566345,
      -0.00947499182075262,
      0.12824007868766785,
      0.04103652387857437,
      -0.018154652789235115,
      -0.10151530802249908,
      0.2573588490486145,
      0.14142708480358124,
      0.036532994359731674,
      0.125249445438385,
      0.04029109328985214,
      0.17459167540073395,
      0.10193707048892975,
      0.08063357323408127,
      0.05090639740228653,
      0.3329713046550751,
      0.20818781852722168,
      0.035485200583934784
    ],
    [
      0.126848503947258,
      -0.0318569540977478,
      0.028546322137117386,
      0.20842979848384857,
      -0.033182963728904724,
      -0.06605299562215805,
      0.07145798206329346,
      0.008460409007966518,
      -0.06290654838085175,
      0.14960238337516785,
      0.09728670120239258,
      0.07524042576551437,
      0.016529422253370285,
      0.1648692637681961,
      0.20170259475708008,
      -0.0289694182574749,
      -0.15313206613063812,
      0.20378583669662476,
      0.023611338809132576,
      0.11603245139122009,
      0.11078894138336182,
      -0.19789467751979828,
      -0.09888947010040283,
      0.08035911619663239,
      -0.1398770660161972
    ],
    [
      -0.07804878801107407,
      -0.03738776594400406,
      0.15046031773090363,
      0.060638073831796646,
      -0.20974783599376678,
      0.20354241132736206,
      -0.016820888966321945,
      0.2329532504081726,
      -0.1630488932132721,
      0.07544538378715515,
      -0.008078712038695812,
      -0.059336353093385696,
      0.12437788397073746,
      0.2610110938549042,
      0.10640498250722885,
      -0.062260545790195465,
      0.12757354974746704,
      -0.039492614567279816,
      0.032513752579689026,
      0.014173176139593124,
      0.0816052034497261,
      0.12307777255773544,
      -0.11090944707393646,
      0.09727495908737183,
      -0.0904591828584671
    ],
    [
      -0.13297808170318604,
      -0.04019791632890701,
      -0.10475990176200867,
      0.08180887252092361,
      -0.21139535307884216,
      -0.07028103619813919,
      0.1283402442932129,
      0.2655070126056671,
      0.053192347288131714,
      0.3217374384403229,
      0.14327068626880646,
      -0.1251063346862793,
      0.084568552672863,
      0.00475670862942934,
      -0.047399554401636124,
      -0.0831630751490593,
      0.07451000809669495,
      0.0954272523522377,
      0.07715719193220139,
      0.2390453964471817,
      -0.04249607399106026,
      0.033844273537397385,
      -0.02204839140176773,
      -0.1381659209728241,
      0.017375366762280464
    ],
    [
      0.05733030289411545,
      0.08894182741641998,
      0.16097737848758698,
      0.142805814743042,
      -0.06931433081626892,
      0.13224145770072937,
      0.20221151411533356,
      0.38728058338165283,
      0.24139660596847534,
      0.01541359256953001,
      0.08494390547275543,
      0.05402665585279465,
      -0.04804137349128723,
      0.5095791220664978,
      0.3021305501461029,
      0.028802884742617607,
      -0.14554236829280853,
      0.06286711990833282,
      -0.05331021547317505,
      0.10648584365844727,
      0.0998087003827095,
      0.3105880320072174,
      0.008731153793632984,
      -0.020541884005069733,
      0.1285627782344818
    ],
    [
      -0.1661066859960556,
      0.10287534445524216,
      0.107880137860775,
      -0.02597968466579914,
      -0.017295479774475098,
      -0.06496721506118774,
      -0.039307862520217896,
      0.2528345286846161,
      0.12114541977643967,
      -0.27989915013313293,
      -0.005924862343817949,
      -0.17044782638549805,
      0.06372379511594772,
      0.17492875456809998,
      0.17400717735290527,
      0.06992965191602707,
      0.2630527913570404,
      0.13843241333961487,
      -0.1841963529586792,
      -0.19329188764095306,
      0.024082396179437637,
      0.16524173319339752,
      -0.08792036771774292,
      0.13112454116344452,
      0.042513832449913025
    ],
    [
      0.09699837118387222,
      0.1959749162197113,
      -0.1206304058432579,
      0.06468187272548676,
      0.3498152792453766,
      0.2376922070980072,
      -0.044587310403585434,
      -0.07076828181743622,
      0.06548446416854858,
      0.18170681595802307,
      0.061248600482940674,
      0.08610888570547104,
      -0.020381484180688858,
      0.09709776937961578,
      -0.08403865993022919,
      0.27654382586479187,
      -0.07092119753360748,
      0.061462853103876114,
      0.2952992916107178,
      -0.24181878566741943,
      0.0005452006589621305,
      0.1528087854385376,
      -0.06220865249633789,
      0.005066111218184233,
      0.07331570237874985
    ],
    [
      -0.16535720229148865,
      0.013812635093927383,
      -0.1259119212627411,
      0.15974187850952148,
      0.11358746141195297,
      -0.3172706365585327,
      -0.14243443310260773,
      -0.1460815966129303,
      0.19716660678386688,
      -0.16045424342155457,
      0.02343720942735672,
      -0.024606311693787575,
      0.24828727543354034,
      -0.07188481092453003,
      0.23424306511878967,
      -0.07369554042816162,
      0.0013288514455780387,
      0.1432807892560959,
      -0.17707838118076324,
      -0.0533168725669384,
      0.05200254172086716,
      0.009563334286212921,
      0.0935567170381546,
      -0.02249143086373806,
      -0.013963300734758377
    ],
    [
      -0.2203628420829773,
      -0.14310941100120544,
      -0.1032615453004837,
      0.12973105907440186,
      -0.026018746197223663,
      -0.07489199936389923,
      0.1009874939918518,
      0.16803598403930664,
      -0.03520182520151138,
      -0.023194558918476105,
      0.02532060258090496,
      0.04462173208594322,
      0.09257558733224869,
      0.22494365274906158,
      0.12652209401130676,
      0.14780378341674805,
      -0.08057408779859543,
      0.0979948341846466,
      -0.06714514642953873,
      -0.010943123139441013,
      -0.15605418384075165,
      -0.08892222493886948,
      0.15468855202198029,
      0.12590952217578888,
      0.14733555912971497
    ],
    [
      0.030700886622071266,
      0.1240515410900116,
      -0.030484242364764214,
      0.0719558373093605,
      0.057498179376125336,
      -0.2251962125301361,
      0.19329938292503357,
      -0.22140292823314667,
      0.08890591561794281,
      0.22917363047599792,
      0.1583397090435028,
      0.06373374164104462,
      0.022557193413376808,
      0.0553242452442646,
      -0.06335584074258804,
      0.08069559931755066,
      -0.1122470498085022,
      0.05010203644633293,
      0.2511069178581238,
      0.10182678699493408,
      0.08613265305757523,
      -0.08017388731241226,
      0.07704687118530273,
      -0.1103673204779625,
      0.09224390238523483
    ],
    [
      -0.08232051134109497,
      -0.04289209842681885,
      0.0669034868478775,
      0.30636775493621826,
      0.08834438771009445,
      -0.0759352371096611,
      0.1890980750322342,
      0.0729929655790329,
      -0.08670364320278168,
      -0.10362575203180313,
      -0.015192320570349693,
      0.08795804530382156,
      -0.009087509475648403,
      0.1761956661939621,
      0.048239920288324356,
      -0.317745566368103,
      -0.02955053746700287,
      0.1439833641052246,
      0.1182304322719574,
      -0.04507236182689667,
      0.1656445562839508,
      0.05046572536230087,
      -0.02991439588367939,
      0.2455674260854721,
      0.04269080609083176
    ],
    [
      0.12231802940368652,
      -0.0060894000343978405,
      -0.19205360114574432,
      0.05608301982283592,
      -0.15490786731243134,
      0.15977396070957184,
      -0.07747165858745575,
      0.37312278151512146,
      0.15165476500988007,
      -0.028683098033070564,
      0.15577439963817596,
      -0.04016629233956337,
      0.07010330259799957,
      0.09351880103349686,
      0.05484941229224205,
      0.0858767181634903,
      0.008576334454119205,
      -0.07053078711032867,
      0.10317511111497879,
      0.06530312448740005,
      -0.19275236129760742,
      -0.0786384716629982,
      -0.07404261082410812,
      -0.13676191866397858,
      0.10684791207313538
    ],
    [
      0.21270883083343506,
      0.11038452386856079,
      0.0515788309276104,
      -0.05808604508638382,
      -0.19693592190742493,
      -0.0003141552733723074,
      0.21078209578990936,
      0.01985364593565464,
      0.10539490729570389,
      -0.24697186052799225,
      0.10535339266061783,
      -0.08711565285921097,
      -0.03999339044094086,
      0.20630623400211334,
      -0.015789901837706566,
      -0.1403786689043045,
      -0.07860089838504791,
      0.21105894446372986,
      -0.014884931035339832,
      -0.20509086549282074,
      0.22133868932724,
      0.09510931372642517,
      0.08484340459108353,
      0.09108678251504898,
      0.0679832324385643
    ],
    [
      0.06730161607265472,
      -0.011571119539439678,
      -0.07348062098026276,
      0.02509279176592827,
      -0.21116414666175842,
      0.04787600785493851,
      0.19564956426620483,
      -0.003397766500711441,
      0.01729765348136425,
      -0.09148070961236954,
      0.07210062444210052,
      0.10863497108221054,
      0.014016568660736084,
      0.4098506271839142,
      0.03979300335049629,
      0.07710780948400497,
      0.13825033605098724,
      0.0050467029213905334,
      -0.11143581569194794,
      0.010636297054588795,
      0.10631372034549713,
      -0.20646080374717712,
      -0.01888091489672661,
      0.16744878888130188,
      -0.16314008831977844
    ],
    [
      0.12420021742582321,
      0.15514753758907318,
      0.14590895175933838,
      0.020926209166646004,
      0.07687481492757797,
      -0.09270446002483368,
      0.007907111197710037,
      -0.17786484956741333,
      0.257540762424469,
      0.1785135418176651,
      0.0825309008359909,
      0.07114502042531967,
      0.09156063199043274,
      -0.3449542224407196,
      -0.11499172449111938,
      -0.1313020884990692,
      0.04278863966464996,
      0.02089935727417469,
      -0.12712518870830536,
      0.06420104205608368,
      -0.036270804703235626,
      0.07516252249479294,
      0.0021557332947850227,
      0.09331505745649338,
      0.08919403702020645
    ],
    [
      -0.08150912821292877,
      0.01762606017291546,
      0.07969187945127487,
      0.06958372890949249,
      0.02886464260518551,
      -0.08877705037593842,
      -0.17240537703037262,
      0.15553109347820282,
      0.13667640089988708,
      -0.13012206554412842,
      0.012402085587382317,
      0.04443798214197159,
      0.08259399980306625,
      -0.2171628773212433,
      0.25396397709846497,
      -0.3361070156097412,
      0.11599365621805191,
      0.14694157242774963,
      0.07476058602333069,
      0.09188961237668991,
      -0.0489015206694603,
      -0.007816862314939499,
      0.06258253008127213,
      0.07663003355264664,
      0.04828603193163872
    ],
    [
      0.1500684916973114,
      -0.024587716907262802,
      0.252177894115448,
      -0.0442873053252697,
      0.0659872442483902,
      -0.07870659232139587,
      -0.04933709278702736,
      0.05699170380830765,
      -0.07988449931144714,
      0.031814757734537125,
      -0.014898797497153282,
      0.0017729909159243107,
      0.09958227723836899,
      0.10367827862501144,
      -0.09646491706371307,
      0.013236267492175102,
      -0.29555583000183105,
      -0.02297976240515709,
      0.0002312785218236968,
      -0.14582955837249756,
      0.2245001196861267,
      -0.061705343425273895,
      0.38925355672836304,
      -0.13220998644828796,
      0.18346427381038666
    ],
    [
      0.06722159683704376,
      -0.1468983292579651,
      0.009768911637365818,
      -0.07385654002428055,
      0.016706492751836777,
      0.48288896679878235,
      0.18223853409290314,
      0.3880853056907654,
      -0.157184436917305,
      -0.22223246097564697,
      -0.10720512270927429,
      0.01630139723420143,
      0.2203778624534607,
      0.014004739001393318,
      -0.14819921553134918,
      0.3435366749763489,
      0.05555078759789467,
      0.1849539428949356,
      -0.13026513159275055,
      0.20155756175518036,
      0.2015361785888672,
      0.2772766053676605,
      0.03812073916196823,
      0.16297884285449982,
      0.028119143098592758
    ],
    [
      0.12281244993209839,
      0.05504566431045532,
      0.3143710494041443,
      -0.005133237689733505,
      -0.042883459478616714,
      -0.20299018919467926,
      -0.07470355182886124,
      0.1053662821650505,
      -0.07904917746782303,
      0.03402796387672424,
      0.05161464586853981,
      -0.04749278351664543,
      0.03151552379131317,
      0.22418992221355438,
      0.1592792123556137,
      -0.11559003591537476,
      0.07783278822898865,
      0.20334187150001526,
      0.03819980472326279,
      0.04474963620305061,
      0.0700329840183258,
      -0.06759978085756302,
      0.14361286163330078,
      -0.1417737752199173,
      -0.0593537911772728
    ],
    [
      -0.11625881493091583,
      -0.012845924124121666,
      -0.02762223593890667,
      0.11657149344682693,
      0.09275758266448975,
      -0.015256749466061592,
      -0.12267304956912994,
      -0.17864005267620087,
      0.06369271874427795,
      0.07077658176422119,
      0.0752437561750412,
      0.04605648294091225,
      0.15803785622119904,
      0.13370734453201294,
      0.25330403447151184,
      -0.37536507844924927,
      -0.0665668249130249,
      -0.008357829414308071,
      0.07215702533721924,
      0.08634431660175323,
      -0.05674157291650772,
      -0.05006333440542221,
      -0.17287389934062958,
      0.11733469367027283,
      -0.10605047643184662
    ],
    [
      -0.09525798261165619,
      -0.15766958892345428,
      -0.08518357574939728,
      0.0008887547301128507,
      0.1506960093975067,
      -0.04659530147910118,
      0.10623528063297272,
      0.22499534487724304,
      0.12230393290519714,
      -0.0233372263610363,
      0.0037969870027154684,
      -0.12940508127212524,
      0.022020170465111732,
      0.3177972435951233,
      0.2614172399044037,
      0.07868997007608414,
      0.03887692838907242,
      -0.08651134371757507,
      0.08603908866643906,
      0.0202475693076849,
      0.1534690111875534,
      0.2506146728992462,
      0.12588787078857422,
      0.160267174243927,
      0.12743091583251953
    ],
    [
      -0.07756349444389343,
      0.006065272260457277,
      0.04084263741970062,
      0.15123216807842255,
      -0.0852237269282341,
      -0.09119565784931183,
      -0.06928760558366776,
      0.1507747769355774,
      -0.06589289009571075,
      0.04472370073199272,
      0.15778033435344696,
      0.06487323343753815,
      -0.014094551093876362,
      0.08698038011789322,
      0.0236190278083086,
      -0.13261142373085022,
      -0.03671441227197647,
      -0.25948044657707214,
      -0.14068467915058136,
      -0.12407776713371277,
      -0.191650390625,
      -0.12161439657211304,
      0.10065256804227829,
      0.03163072094321251,
      -0.06440576910972595
    ],
    [
      -0.024728603661060333,
      -0.11587799340486526,
      -0.02956966683268547,
      0.00035527770523913205,
      0.08553402125835419,
      -0.09264378994703293,
      0.09154413640499115,
      0.1462479531764984,
      -0.20361584424972534,
      0.001178247039206326,
      0.06862292438745499,
      -0.19853170216083527,
      0.008398720994591713,
      0.2784259617328644,
      0.1258549690246582,
      -0.19437578320503235,
      -0.11231998354196548,
      0.27579158544540405,
      -0.16778402030467987,
      0.050395116209983826,
      -0.09609993547201157,
      -0.05530510097742081,
      -0.12754322588443756,
      0.17830973863601685,
      0.1738741248846054
    ],
    [
      0.1544644832611084,
      0.08261461555957794,
      0.1806972175836563,
      -0.1212487518787384,
      -0.0022852213587611914,
      0.04460952430963516,
      0.03082970343530178,
      0.05923449993133545,
      -0.007615779060870409,
      -0.11928655952215195,
      0.11188448220491409,
      0.041576579213142395,
      -0.0004886753158643842,
      0.3582724928855896,
      0.1638706624507904,
      0.03339008241891861,
      0.3213682770729065,
      0.16448205709457397,
      0.060594797134399414,
      -0.05099178105592728,
      -0.19506610929965973,
      -0.0859868973493576,
      0.0157119482755661,
      -0.09756644070148468,
      -0.1442306637763977
    ],
    [
      -0.22639316320419312,
      -0.2365797460079193,
      0.10999175906181335,
      0.05012702941894531,
      -0.2912338078022003,
      0.18548958003520966,
      -0.0703631341457367,
      -0.02182622440159321,
      0.09779537469148636,
      0.09107641875743866,
      0.15996918082237244,
      -0.003416441148146987,
      -0.09716884791851044,
      0.07544244825839996,
      0.12948207557201385,
      0.14929792284965515,
      -0.0044173081405460835,
      0.14384230971336365,
      -0.1694149374961853,
      0.14464594423770905,
      -0.14205661416053772,
      0.10021672397851944,
      -0.046124305576086044,
      0.0756319984793663,
      -0.10676444321870804
    ],
    [
      0.19749455153942108,
      -0.1043562963604927,
      -0.19851329922676086,
      0.04666111245751381,
      -0.027239594608545303,
      0.16028591990470886,
      0.0009309629094786942,
      0.08893078565597534,
      -0.06335218250751495,
      0.02316771075129509,
      0.01840890944004059,
      0.03398270905017853,
      0.2241302728652954,
      0.12626142799854279,
      0.018709588795900345,
      -0.062298644334077835,
      0.0863361582159996,
      -0.2013578563928604,
      -0.2052024006843567,
      -0.0082999337464571,
      -0.01194822508841753,
      -0.26466691493988037,
      0.13033121824264526,
      0.011863034218549728,
      -0.15376898646354675
    ],
    [
      0.10869034379720688,
      -0.16617737710475922,
      -0.0392422154545784,
      0.18465010821819305,
      0.17746490240097046,
      0.002503798110410571,
      0.006476431153714657,
      -0.05350875481963158,
      0.14285093545913696,
      -0.0576787106692791,
      -0.01539295818656683,
      0.24903680384159088,
      0.15688583254814148,
      0.016930365934967995,
      -0.17006495594978333,
      -0.1203497052192688,
      -0.09941737353801727,
      0.10291606932878494,
      0.05184278264641762,
      -0.04532849043607712,
      0.14163461327552795,
      -0.018568437546491623,
      -0.0548102930188179,
      -0.09041581302881241,
      0.09741650521755219
    ],
    [
      0.05755987763404846,
      0.1338522732257843,
      0.00033999825245700777,
      0.2106456607580185,
      -0.11313898116350174,
      -0.27283725142478943,
      0.19187815487384796,
      0.15658894181251526,
      0.15294291079044342,
      -0.047763172537088394,
      -0.0162044670432806,
      -0.14859086275100708,
      0.01589409075677395,
      0.10991945117712021,
      0.24735118448734283,
      -0.0677662268280983,
      0.06156476214528084,
      -0.03503401577472687,
      0.2291170060634613,
      -0.07924974709749222,
      0.3028227984905243,
      0.19529101252555847,
      0.11421485245227814,
      0.007379337679594755,
      0.04659043997526169
    ],
    [
      0.000286870141280815,
      0.04890264943242073,
      0.02040627785027027,
      0.04258136823773384,
      0.06307507306337357,
      -0.1405259072780609,
      0.10529812425374985,
      0.30565598607063293,
      0.17251376807689667,
      0.059044018387794495,
      -0.15921558439731598,
      0.032854050397872925,
      0.12638475000858307,
      0.43985316157341003,
      0.1633896678686142,
      0.16981884837150574,
      0.2959957420825958,
      0.15068146586418152,
      0.013298828154802322,
      -0.08419076353311539,
      -0.0924355685710907,
      0.2740670442581177,
      0.10372068732976913,
      0.21823516488075256,
      0.2668019235134125
    ],
    [
      0.10705836117267609,
      -0.015176719054579735,
      -0.04919707775115967,
      -0.09283287078142166,
      0.04315969720482826,
      -0.005734055768698454,
      0.047701649367809296,
      -0.16503013670444489,
      0.16158494353294373,
      0.22129027545452118,
      0.2473488301038742,
      0.12513040006160736,
      -0.124041348695755,
      -0.28210511803627014,
      -0.1063070148229599,
      0.020265119150280952,
      -0.17326928675174713,
      0.05167762562632561,
      -0.12798085808753967,
      -0.0762958973646164,
      0.06946975737810135,
      -0.1397600919008255,
      -0.09160571545362473,
      0.16084837913513184,
      -0.14273472130298615
    ],
    [
      0.03165125101804733,
      0.08881361782550812,
      -0.1242637038230896,
      -0.262076199054718,
      0.27986982464790344,
      0.4275050163269043,
      0.1460709124803543,
      0.3384210169315338,
      0.017437666654586792,
      -0.09748539328575134,
      0.02455005794763565,
      0.05267958343029022,
      0.06783366203308105,
      0.2157682180404663,
      0.16646696627140045,
      0.053277406841516495,
      0.014076626859605312,
      0.1627046763896942,
      0.14253458380699158,
      -0.007650965359061956,
      0.044713664799928665,
      -0.06662890315055847,
      0.12490112334489822,
      0.11608188599348068,
      -0.04374566301703453
    ],
    [
      -0.054724059998989105,
      -0.1103031262755394,
      -0.03763999044895172,
      0.305646687746048,
      -0.09781091660261154,
      0.001507361652329564,
      -0.07206083089113235,
      0.31211063265800476,
      0.06218329444527626,
      0.0464518740773201,
      0.09728511422872543,
      -0.2216876596212387,
      -0.04100541025400162,
      0.4242437779903412,
      0.24380679428577423,
      -0.06816554069519043,
      0.1897752285003662,
      0.137224018573761,
      0.10446841269731522,
      -0.00835284125059843,
      -0.09925288707017899,
      0.19647812843322754,
      0.47533169388771057,
      -0.04113920405507088,
      0.024137970060110092
    ],
    [
      -0.0762692391872406,
      0.009842284955084324,
      0.0794667974114418,
      -0.0737389624118805,
      0.09171619266271591,
      0.048303212970495224,
      -0.05772251635789871,
      0.18459144234657288,
      0.16177091002464294,
      -0.012728518806397915,
      0.08955900371074677,
      0.15410520136356354,
      -0.03318975865840912,
      0.32808247208595276,
      0.20002178847789764,
      -0.09328775852918625,
      0.021902762353420258,
      -0.07102737575769424,
      0.019355878233909607,
      -0.03389223664999008,
      0.15688063204288483,
      0.330780953168869,
      -0.11444979161024094,
      0.05465978384017944,
      -0.14151982963085175
    ],
    [
      0.03398637846112251,
      -0.12681905925273895,
      0.01912156492471695,
      -0.038111962378025055,
      -0.04088640585541725,
      0.32035958766937256,
      0.03340817242860794,
      0.4070254862308502,
      -0.2001342624425888,
      -0.04305722936987877,
      0.10858895629644394,
      0.01423554215580225,
      0.06723927706480026,
      0.18396078050136566,
      -0.006919495761394501,
      0.39017537236213684,
      0.11431507766246796,
      -0.05479498580098152,
      -0.11505784839391708,
      -0.11087750643491745,
      0.2358691245317459,
      0.2022801786661148,
      -0.09789201617240906,
      -0.0889342650771141,
      0.11221393197774887
    ],
    [
      0.26569053530693054,
      0.1478155553340912,
      -0.13671422004699707,
      0.2083875685930252,
      -0.11893192678689957,
      0.20478887856006622,
      0.11052554100751877,
      0.3057697117328644,
      0.09447424113750458,
      0.09889350086450577,
      -0.12864069640636444,
      -0.1399136185646057,
      0.08623495697975159,
      0.017382469028234482,
      0.10644473880529404,
      0.19572106003761292,
      0.06899140030145645,
      0.16286049783229828,
      0.09270262718200684,
      -0.08652006089687347,
      0.2620163559913635,
      0.16222761571407318,
      0.2157910019159317,
      0.17572224140167236,
      0.19674189388751984
    ],
    [
      0.24666395783424377,
      -0.07317475229501724,
      -0.1901741772890091,
      -0.16134989261627197,
      -0.30646663904190063,
      0.07272758334875107,
      0.02994387224316597,
      -0.037405695766210556,
      0.28565821051597595,
      -0.08293154090642929,
      0.12527912855148315,
      0.07738099247217178,
      -0.006412378512322903,
      0.21404361724853516,
      0.039977651089429855,
      -0.045020271092653275,
      -0.09039466828107834,
      0.055171895772218704,
      0.0885106548666954,
      0.030646435916423798,
      -0.030825188383460045,
      0.024255935102701187,
      0.043585896492004395,
      0.18283478915691376,
      0.1655137687921524
    ],
    [
      0.06687626242637634,
      -0.005517227575182915,
      -0.10756204277276993,
      -0.249248668551445,
      0.11662017554044724,
      0.28482845425605774,
      0.032642751932144165,
      0.17878560721874237,
      -0.14106567203998566,
      -0.014449943788349628,
      0.18795284628868103,
      0.1370115578174591,
      -0.02584150806069374,
      -0.1594136506319046,
      -0.18453817069530487,
      0.4939996600151062,
      -0.2591607868671417,
      -0.13443273305892944,
      0.12548120319843292,
      0.21350477635860443,
      -0.29323023557662964,
      0.18778680264949799,
      -0.027986597269773483,
      0.22238962352275848,
      0.1426520198583603
    ],
    [
      -0.16630446910858154,
      -0.14219683408737183,
      0.2474747896194458,
      0.06088588014245033,
      0.04760449379682541,
      0.1268249899148941,
      0.17315272986888885,
      0.2844586670398712,
      0.04417308419942856,
      0.03220750018954277,
      -0.008675859309732914,
      -0.15057307481765747,
      -0.0337771438062191,
      0.2970191538333893,
      0.09184214472770691,
      -0.1609920710325241,
      -0.08973297476768494,
      0.36842864751815796,
      0.13984976708889008,
      -0.07578887045383453,
      0.11030656844377518,
      -0.030811704695224762,
      0.29833754897117615,
      0.0670219138264656,
      0.003926408011466265
    ],
    [
      0.07368021458387375,
      -0.21391922235488892,
      -0.06867119669914246,
      -0.019522350281476974,
      0.08376265317201614,
      0.29753580689430237,
      0.03389232978224754,
      0.2150394171476364,
      0.15212281048297882,
      0.1500420719385147,
      0.025309495627880096,
      0.34103113412857056,
      0.029312806203961372,
      -0.1778782308101654,
      -0.02886965125799179,
      0.4606277048587799,
      0.04766470193862915,
      0.3851635754108429,
      -0.11148317158222198,
      0.07901681959629059,
      0.1953442096710205,
      0.0848463624715805,
      0.03443105146288872,
      -0.03634263575077057,
      0.21193577349185944
    ],
    [
      0.11581107974052429,
      -0.06352664530277252,
      0.026318196207284927,
      0.1487272083759308,
      0.11189428716897964,
      0.32067906856536865,
      0.028874848037958145,
      0.45978641510009766,
      0.09790904074907303,
      0.07390831410884857,
      0.12840786576271057,
      0.11653588712215424,
      -0.13942603766918182,
      0.2780703604221344,
      0.12860044836997986,
      0.0345928780734539,
      -0.020716354250907898,
      0.12408296763896942,
      -0.009958915412425995,
      0.0227142795920372,
      0.13063709437847137,
      -0.11957983672618866,
      0.11390134692192078,
      -0.02049112133681774,
      -0.08461138606071472
    ],
    [
      0.05257294327020645,
      -0.06167806312441826,
      -0.1030983030796051,
      -0.16585901379585266,
      0.27034443616867065,
      0.33073878288269043,
      0.07196208834648132,
      0.6187768578529358,
      -0.18685944378376007,
      0.010337598621845245,
      0.06283370405435562,
      -0.04228682070970535,
      -0.09498318284749985,
      0.4119561016559601,
      0.31726372241973877,
      0.28356364369392395,
      0.1836291402578354,
      0.1380366086959839,
      -0.022555625066161156,
      -0.058499742299318314,
      0.3334338366985321,
      0.09830036759376526,
      0.019202502444386482,
      0.07394082099199295,
      0.3019639849662781
    ],
    [
      -0.2444818913936615,
      0.1277123987674713,
      -0.14352905750274658,
      0.1690586358308792,
      -0.12845633924007416,
      0.386191189289093,
      -0.21781060099601746,
      0.31760597229003906,
      -0.043002255260944366,
      -0.012729303911328316,
      0.04783027619123459,
      -0.1812548190355301,
      0.045769382268190384,
      0.3578284978866577,
      0.21790321171283722,
      0.21830853819847107,
      -0.12932921946048737,
      0.10384295135736465,
      -0.07096776366233826,
      0.05977708473801613,
      0.178711399435997,
      0.0070387800224125385,
      0.1387554407119751,
      -0.034295160323381424,
      0.05742618441581726
    ],
    [
      -0.028581341728568077,
      -0.050415217876434326,
      -0.022678004577755928,
      -0.07873115688562393,
      0.1653120219707489,
      0.22869688272476196,
      -0.03702570125460625,
      0.21961255371570587,
      0.13761605322360992,
      -0.06349541991949081,
      0.05204416811466217,
      0.014861215837299824,
      0.11398923397064209,
      -0.08307036012411118,
      -0.11024844646453857,
      0.10124251246452332,
      -0.055150698870420456,
      -0.1834084689617157,
      0.016156727448105812,
      0.047818031162023544,
      -0.1069231703877449,
      -0.009971408173441887,
      -0.12176507711410522,
      0.11281474679708481,
      0.3285430073738098
    ],
    [
      0.02742202766239643,
      -0.11075862497091293,
      -0.12019095569849014,
      0.10637135803699493,
      -0.08521735668182373,
      0.16743507981300354,
      0.25732681155204773,
      0.24981947243213654,
      0.01753704808652401,
      0.12724845111370087,
      -0.046905890107154846,
      -0.025917652994394302,
      0.20273269712924957,
      0.0467161126434803,
      0.36138737201690674,
      0.18997246026992798,
      0.10627572983503342,
      -0.09602677822113037,
      -0.12396050989627838,
      0.04694738611578941,
      -0.03138994798064232,
      0.1618526130914688,
      0.137299045920372,
      -0.09063580632209778,
      0.029062101617455482
    ],
    [
      0.10312732309103012,
      0.15883663296699524,
      0.02763921022415161,
      0.14713622629642487,
      -0.0065227169543504715,
      0.3077123463153839,
      0.018192382529377937,
      0.6890292167663574,
      0.1442471146583557,
      -0.08666778355836868,
      -0.07827821373939514,
      0.0763760432600975,
      0.16470031440258026,
      -0.12310032546520233,
      -0.07828006893396378,
      0.41288936138153076,
      0.2325514554977417,
      0.15817397832870483,
      0.17474043369293213,
      -0.10646448284387589,
      0.053813863545656204,
      0.32890164852142334,
      -0.03623248264193535,
      0.20620402693748474,
      -0.22784076631069183
    ],
    [
      0.08608559519052505,
      -0.014284079894423485,
      0.16059906780719757,
      0.036400020122528076,
      0.0613783597946167,
      0.24591201543807983,
      0.08900411427021027,
      0.0864686518907547,
      -0.015225999057292938,
      0.12639814615249634,
      0.08899591863155365,
      -0.13378091156482697,
      -0.07553346455097198,
      0.048079244792461395,
      -0.1258043646812439,
      0.6543347239494324,
      0.24184435606002808,
      -0.04188987985253334,
      0.05454958975315094,
      -0.04128318652510643,
      0.013498934917151928,
      0.10975886136293411,
      0.13764075934886932,
      0.073501817882061,
      0.11549846082925797
    ],
    [
      -0.02487093210220337,
      -0.017658768221735954,
      -0.09639561176300049,
      0.18452876806259155,
      -0.07015223056077957,
      -0.2878491282463074,
      -0.07676699757575989,
      -0.20764492452144623,
      -0.29887455701828003,
      -0.016061723232269287,
      0.3134777247905731,
      0.13829946517944336,
      -0.06848689168691635,
      0.06710842996835709,
      0.32274529337882996,
      -0.5223811268806458,
      0.048143357038497925,
      -0.1515033096075058,
      0.0038508023135364056,
      0.02575821429491043,
      0.0036190745886415243,
      0.19497060775756836,
      -0.020718226209282875,
      -0.1641455739736557,
      0.03363976255059242
    ],
    [
      0.29091325402259827,
      0.19479669630527496,
      0.2999168038368225,
      0.06797145307064056,
      -0.1196872666478157,
      -0.20750869810581207,
      -0.06281351298093796,
      -0.34498974680900574,
      -0.01903497241437435,
      0.1957348883152008,
      0.1062031015753746,
      0.22684119641780853,
      -0.1120130866765976,
      0.02317829057574272,
      0.053038597106933594,
      -0.390587717294693,
      0.08468417078256607,
      0.21644753217697144,
      -0.11740627884864807,
      -0.2504648268222809,
      -0.01732112467288971,
      0.09632133692502975,
      0.02845665253698826,
      0.06363358348608017,
      0.3701474666595459
    ],
    [
      -0.18622314929962158,
      -0.26429250836372375,
      -0.06560509651899338,
      -0.13490337133407593,
      -0.15338675677776337,
      0.453319787979126,
      -0.1562395691871643,
      0.4939168095588684,
      0.07157076150178909,
      -0.12721103429794312,
      0.04445003345608711,
      0.030780397355556488,
      0.06606506556272507,
      0.01679454930126667,
      0.06169537454843521,
      0.6976146101951599,
      0.05267032980918884,
      0.12707208096981049,
      0.05762834474444389,
      -0.25274839997291565,
      0.14568479359149933,
      0.16801618039608002,
      0.25634127855300903,
      -0.01984545961022377,
      0.1562742292881012
    ],
    [
      -0.12283636629581451,
      -0.0821210965514183,
      -0.012786653824150562,
      -0.05888734385371208,
      -0.1238950788974762,
      0.40259307622909546,
      0.040403813123703,
      0.27088820934295654,
      0.015495909377932549,
      0.2634458839893341,
      0.18997862935066223,
      0.03136008232831955,
      0.045935630798339844,
      -0.06346417963504791,
      0.057511307299137115,
      0.20155178010463715,
      0.04351063445210457,
      -0.1388297975063324,
      0.17665022611618042,
      -0.2905345857143402,
      0.09111690521240234,
      -0.05937918648123741,
      -0.02281053550541401,
      0.01363383699208498,
      -0.01641235686838627
    ],
    [
      -0.06586291640996933,
      0.004075453616678715,
      -0.1565442830324173,
      -0.023592688143253326,
      -0.1774951070547104,
      -0.06615213304758072,
      -0.34504470229148865,
      -0.2804787755012512,
      0.21846361458301544,
      -0.12049717456102371,
      0.18383198976516724,
      -0.17761778831481934,
      -0.0016249915352091193,
      0.06412185728549957,
      0.08989027887582779,
      -0.3993467688560486,
      -0.2334652841091156,
      0.0168059803545475,
      -0.007422885857522488,
      0.008014452643692493,
      0.05937374010682106,
      0.17542916536331177,
      -0.12051934003829956,
      0.09269528836011887,
      -0.07340788096189499
    ],
    [
      0.056924108415842056,
      0.15144574642181396,
      0.18332108855247498,
      0.15723218023777008,
      0.14024829864501953,
      0.01682775467634201,
      -0.024994712322950363,
      0.2110353410243988,
      0.3254319429397583,
      0.297569215297699,
      -0.05021566152572632,
      0.055597513914108276,
      -0.12166550010442734,
      0.09343179315328598,
      0.1796426624059677,
      0.005533426534384489,
      0.09741871058940887,
      -0.12453825026750565,
      -0.06589804589748383,
      0.1389939785003662,
      0.0817747637629509,
      0.22361765801906586,
      0.19424548745155334,
      0.19263967871665955,
      0.21463732421398163
    ],
    [
      -0.07972531765699387,
      -0.043565575033426285,
      -0.10806932300329208,
      -0.06038897857069969,
      -0.04036661982536316,
      0.3003934919834137,
      0.10602883249521255,
      0.22339147329330444,
      -0.08469583094120026,
      0.04995837062597275,
      0.026920514181256294,
      -0.2230236828327179,
      0.11757931113243103,
      0.033444844186306,
      0.0605684332549572,
      0.05839979276061058,
      -0.018609467893838882,
      0.11113478243350983,
      0.31178539991378784,
      0.0005833966424688697,
      -0.06531471759080887,
      0.2946762144565582,
      -0.15040621161460876,
      0.054567307233810425,
      -0.00027241092175245285
    ],
    [
      -0.07474160939455032,
      -0.1663939356803894,
      0.01693039946258068,
      -0.17882496118545532,
      -0.2022540420293808,
      -0.117444708943367,
      0.21431733667850494,
      0.17053382098674774,
      0.09317230433225632,
      -0.09136214107275009,
      0.0926046296954155,
      0.04966697841882706,
      0.004389666020870209,
      0.3122485876083374,
      0.2782509922981262,
      0.20558927953243256,
      0.1897316426038742,
      -0.03781531751155853,
      0.026975827291607857,
      0.12393604964017868,
      0.23633113503456116,
      -0.049384210258722305,
      -0.03590827435255051,
      0.17987501621246338,
      0.11354057490825653
    ],
    [
      0.09503812342882156,
      0.15496490895748138,
      -0.1858588606119156,
      -0.04689775034785271,
      0.2038249522447586,
      0.3322280943393707,
      0.3946453034877777,
      0.5260128974914551,
      0.2680109441280365,
      -0.1296413093805313,
      0.09844991564750671,
      -0.20091593265533447,
      0.0027340450324118137,
      -0.02309809997677803,
      0.005536316893994808,
      0.473274827003479,
      -0.1120595932006836,
      0.1447979360818863,
      -0.2261797934770584,
      0.10750740766525269,
      0.1999533772468567,
      0.11471299082040787,
      -0.0141599765047431,
      0.08330044895410538,
      0.04968097060918808
    ],
    [
      -0.14483074843883514,
      0.14382681250572205,
      -0.10629476606845856,
      -0.038442667573690414,
      -0.1641901135444641,
      -0.1132398173213005,
      -0.07493419200181961,
      0.22840291261672974,
      -0.304415225982666,
      -0.07166314125061035,
      0.02192610874772072,
      -0.013368116691708565,
      0.12219447642564774,
      0.13972166180610657,
      0.20363856852054596,
      0.10588020831346512,
      0.17752166092395782,
      0.09162711352109909,
      -0.09822152554988861,
      0.11134736984968185,
      0.15501432120800018,
      0.06728722155094147,
      0.023080721497535706,
      0.03614290803670883,
      -0.04982147738337517
    ],
    [
      0.0414823554456234,
      0.19981779158115387,
      0.2563213109970093,
      -0.08426189422607422,
      0.15755419433116913,
      -0.16179098188877106,
      0.2962290048599243,
      -0.2864038944244385,
      0.24299170076847076,
      -0.026604456827044487,
      0.09731119126081467,
      -0.05489480867981911,
      0.0012383077992126346,
      -0.1650364100933075,
      -0.13946063816547394,
      -0.09384505450725555,
      0.08335092663764954,
      0.1064879298210144,
      -0.019231127575039864,
      -0.018178964033722878,
      -0.008266516029834747,
      0.15190774202346802,
      0.06319855898618698,
      0.071034736931324,
      0.13222859799861908
    ],
    [
      0.04407070577144623,
      0.02392103523015976,
      0.13935106992721558,
      0.2019723504781723,
      0.17109337449073792,
      -0.11014050990343094,
      -0.016813678666949272,
      -0.16705292463302612,
      0.025572415441274643,
      0.1242983490228653,
      0.16766665875911713,
      0.003572063520550728,
      -0.04869483783841133,
      0.22890301048755646,
      0.08836770802736282,
      -0.1158464252948761,
      0.07007590681314468,
      -0.18913859128952026,
      -0.05703551322221756,
      0.20629805326461792,
      0.020604699850082397,
      0.08399215340614319,
      0.08703264594078064,
      0.02023024670779705,
      -0.1229623556137085
    ],
    [
      0.0973905548453331,
      0.012257867492735386,
      0.020807964727282524,
      -0.06353365629911423,
      0.3812962472438812,
      -0.19353851675987244,
      0.2325168401002884,
      0.07577753812074661,
      0.0773622915148735,
      -0.1514316201210022,
      0.0765141099691391,
      0.02515348605811596,
      -0.005831995978951454,
      0.06958460807800293,
      0.19350962340831757,
      -0.17109595239162445,
      0.05655683949589729,
      0.0678374320268631,
      0.1809699833393097,
      -0.1657910943031311,
      0.12978781759738922,
      -0.09030439704656601,
      -0.05947759002447128,
      0.03838711231946945,
      0.1484534591436386
    ],
    [
      -0.14502954483032227,
      0.1542888879776001,
      0.12163113057613373,
      -0.15868407487869263,
      0.05618662014603615,
      0.14588488638401031,
      0.09921852499246597,
      0.2964937090873718,
      0.08810724318027496,
      0.26273593306541443,
      -0.07388996332883835,
      -0.18578124046325684,
      0.11460758745670319,
      0.10690203309059143,
      -0.03800424188375473,
      0.2225360870361328,
      0.13220474123954773,
      -0.025939930230379105,
      -0.0212112870067358,
      -0.06943097710609436,
      0.28774189949035645,
      0.1258648782968521,
      -0.019497139379382133,
      0.38057446479797363,
      -0.22994425892829895
    ],
    [
      0.02241348661482334,
      0.3112601339817047,
      0.14442965388298035,
      0.07719992846250534,
      0.0024883304722607136,
      0.20857316255569458,
      -0.31586015224456787,
      0.34914451837539673,
      0.1751757562160492,
      -0.1097923293709755,
      -0.036495186388492584,
      -0.3179517984390259,
      0.08733676373958588,
      0.5433147549629211,
      0.1242271214723587,
      0.01545347273349762,
      0.06512382626533508,
      0.14101335406303406,
      0.23402172327041626,
      0.1529538333415985,
      0.005851498804986477,
      0.013466020114719868,
      -0.023592883720993996,
      -0.022046934813261032,
      0.3576357364654541
    ],
    [
      -0.04067542776465416,
      0.07048667222261429,
      0.13907255232334137,
      -0.0019796269480139017,
      0.14378221333026886,
      0.3521995544433594,
      0.07345090061426163,
      0.12967979907989502,
      0.2963946759700775,
      -0.09428627789020538,
      0.1149098202586174,
      0.1529262661933899,
      -0.12566544115543365,
      -0.2596766948699951,
      -0.231584832072258,
      0.6270537376403809,
      -0.28934502601623535,
      -0.12505875527858734,
      -0.17493459582328796,
      -0.08930261433124542,
      0.06967844069004059,
      -0.043103571981191635,
      0.19225192070007324,
      0.2593350112438202,
      -0.045282844454050064
    ],
    [
      0.32227587699890137,
      0.1414373219013214,
      0.25795575976371765,
      0.10754160583019257,
      0.11508585512638092,
      -0.17279307544231415,
      -0.04035921394824982,
      -0.13572357594966888,
      -0.04858667775988579,
      -0.1363915055990219,
      0.14017300307750702,
      -0.033225636929273605,
      0.03901883587241173,
      0.05330433323979378,
      0.48695018887519836,
      -0.6586863398551941,
      -0.10413841903209686,
      -0.059730276465415955,
      -0.03527188301086426,
      0.07622045278549194,
      0.11355358362197876,
      0.06053918972611427,
      0.18623170256614685,
      -0.10551899671554565,
      -0.05844055488705635
    ],
    [
      0.09507394582033157,
      -0.21756550669670105,
      0.024493811652064323,
      0.09118624031543732,
      -0.15769194066524506,
      0.03372533246874809,
      0.12155041843652725,
      0.1679902821779251,
      -0.11236940324306488,
      -0.012419510632753372,
      0.022091452032327652,
      -0.12662272155284882,
      -0.030434150248765945,
      0.3035320043563843,
      0.20948132872581482,
      -0.020078998059034348,
      0.1801789253950119,
      0.09599485248327255,
      0.12676586210727692,
      -0.14254599809646606,
      0.265260249376297,
      0.181967630982399,
      0.03846492990851402,
      -0.024219447746872902,
      -0.01189545076340437
    ],
    [
      0.17863206565380096,
      -0.03515276312828064,
      0.04159468784928322,
      0.253933310508728,
      -0.0978241115808487,
      0.24232259392738342,
      0.14955244958400726,
      -0.011674017645418644,
      -0.008568941615521908,
      -0.30980727076530457,
      0.06335944682359695,
      -0.027447974309325218,
      0.02182319201529026,
      0.2124328911304474,
      0.19597487151622772,
      -0.30565008521080017,
      0.10212112218141556,
      -0.08729288727045059,
      0.06759574264287949,
      0.006462368182837963,
      0.05613743141293526,
      0.15697069466114044,
      -0.030624104663729668,
      -0.11032379418611526,
      0.027194632217288017
    ],
    [
      0.11102894693613052,
      -0.1460818201303482,
      0.09374377876520157,
      -0.050882738083601,
      0.06040813773870468,
      0.07714325934648514,
      -0.06077917665243149,
      0.4374667704105377,
      -0.015542158856987953,
      0.12510865926742554,
      0.07880236953496933,
      -0.24710072576999664,
      -0.014341237023472786,
      0.24776935577392578,
      0.24032461643218994,
      0.4101858139038086,
      -0.06464975327253342,
      0.2525799870491028,
      -0.005803979933261871,
      0.33813759684562683,
      0.21661870181560516,
      0.0687595084309578,
      -0.037860795855522156,
      0.0865204706788063,
      -0.013142296113073826
    ],
    [
      -0.12301094830036163,
      0.34972089529037476,
      0.20278534293174744,
      0.09965628385543823,
      0.20465430617332458,
      -0.11348974704742432,
      0.1343218833208084,
      -0.3799915909767151,
      -0.03680640086531639,
      -0.1680760383605957,
      0.17679576575756073,
      0.27958768606185913,
      -0.06331250071525574,
      -0.2814755439758301,
      -0.10859689861536026,
      -0.21655066311359406,
      -0.17573507130146027,
      -0.027387894690036774,
      0.11538705974817276,
      0.06601028889417648,
      0.07870225608348846,
      0.059497490525245667,
      0.13055796921253204,
      -0.11649751663208008,
      0.09813568741083145
    ],
    [
      0.05697852000594139,
      0.075536347925663,
      -0.07799496501684189,
      -0.09912903606891632,
      0.04293819144368172,
      0.3977343738079071,
      -0.18507561087608337,
      0.3177563548088074,
      -0.24024765193462372,
      -0.014205431565642357,
      -0.014730620197951794,
      0.017720213159918785,
      0.12055964767932892,
      0.01431577280163765,
      0.1753768026828766,
      0.45496001839637756,
      -0.03933551535010338,
      0.17875885963439941,
      -0.1246272400021553,
      0.0602458156645298,
      0.11992000788450241,
      -0.014320197515189648,
      -0.07936980575323105,
      0.25334012508392334,
      0.1103799045085907
    ],
    [
      -0.10868643969297409,
      -0.0669451579451561,
      -0.03975748270750046,
      -0.1553998738527298,
      -0.1629423350095749,
      0.05059061944484711,
      -0.06708396226167679,
      0.3572637140750885,
      0.014655104838311672,
      -0.07543305307626724,
      -0.033642809838056564,
      0.020093098282814026,
      0.16774573922157288,
      0.3634227216243744,
      -0.05562153831124306,
      0.17976738512516022,
      -0.10480505228042603,
      0.07926064729690552,
      0.15732288360595703,
      -0.04892690107226372,
      0.017374306917190552,
      0.020897194743156433,
      0.021281398832798004,
      0.0542188435792923,
      -0.10176559537649155
    ],
    [
      0.005381403490900993,
      0.10180764645338058,
      0.00861173216253519,
      0.13587932288646698,
      -0.0766265019774437,
      0.04764091968536377,
      -0.03427407145500183,
      0.23325425386428833,
      0.030091067776083946,
      -0.011449554935097694,
      -0.09622206538915634,
      -0.015094541944563389,
      0.04857862368226051,
      0.48977431654930115,
      0.1672218292951584,
      -0.10745839029550552,
      0.2077561765909195,
      0.13068418204784393,
      0.0005067464662715793,
      0.10727409273386002,
      0.18950669467449188,
      0.07808730006217957,
      0.2814266085624695,
      0.06059139594435692,
      0.41001585125923157
    ]
  ],
  "fc1.bias": [
    0.14528483152389526,
    0.06677059084177017,
    0.10143470764160156,
    0.015515768900513649,
    0.05391857028007507,
    0.016454149037599564,
    0.04376618191599846,
    0.0770690068602562,
    0.08003505319356918,
    0.052920468151569366,
    0.14334528148174286,
    -0.0015547352377325296,
    0.007029013708233833,
    0.0489497184753418,
    0.02921423316001892,
    0.06523612141609192,
    0.03444875031709671,
    0.057045407593250275,
    -0.017413679510354996,
    -0.002876903396099806,
    0.0913151279091835,
    -0.01188213936984539,
    0.08018899708986282,
    0.04648422822356224,
    0.0667312815785408,
    0.07060549408197403,
    0.025674382224678993,
    0.048598356544971466,
    0.07068204134702682,
    0.036341842263936996,
    -0.02707895077764988,
    0.10685700923204422,
    0.10931158810853958,
    0.0028773988597095013,
    0.03745855763554573,
    0.09171666204929352,
    0.19546735286712646,
    0.02498178742825985,
    0.09149131923913956,
    -0.021509438753128052,
    0.017707958817481995,
    0.12024345993995667,
    0.046847641468048096,
    0.006236999295651913,
    -0.011401970870792866,
    0.05703975632786751,
    0.018447797745466232,
    0.04895862936973572,
    0.10099951177835464,
    0.08635057508945465,
    0.06730522215366364,
    0.0031634559854865074,
    0.08964010328054428,
    0.09507720172405243,
    0.09345152229070663,
    0.0031196121126413345,
    -0.003293465357273817,
    -0.018471887335181236,
    0.1373387575149536,
    -0.06288864463567734,
    0.05298113822937012,
    -0.016777994111180305,
    0.1323985755443573,
    0.06897415965795517,
    0.07703473418951035,
    0.006140244659036398,
    0.09806812554597855,
    -0.02947121486067772,
    0.01729157194495201,
    -0.007907251827418804,
    0.061023298650979996,
    0.04362581670284271,
    0.04038394242525101,
    -0.030057471245527267,
    0.049169089645147324,
    0.12465152889490128,
    0.027435602620244026,
    -0.003700275206938386,
    0.0599747933447361,
    -0.028645940124988556,
    0.024463685229420662,
    0.055049389600753784,
    0.00040839938446879387,
    0.008173268288373947,
    -0.033738233149051666,
    0.08444899320602417,
    0.13420528173446655,
    -0.046875376254320145,
    0.08395933359861374,
    0.13993386924266815,
    0.08289133757352829,
    0.10522522032260895,
    0.19060908257961273,
    0.023099012672901154,
    -0.038189273327589035,
    0.1074143722653389,
    0.08364130556583405,
    0.13650602102279663,
    0.1049361526966095,
    0.013861294835805893,
    -0.0023692885879427195,
    0.118955098092556,
    0.10722243040800095,
    0.07845880836248398,
    -0.08410324156284332,
    0.05893164873123169,
    0.03990296274423599,
    0.017038263380527496,
    -0.04605523869395256,
    0.16348746418952942,
    0.03175993636250496,
    0.07298222184181213,
    0.1291089802980423,
    -0.02438322640955448,
    0.05439562723040581,
    0.03690611943602562,
    0.029635630548000336,
    0.011028340086340904,
    0.1534092128276825,
    0.016676802188158035,
    0.03174621984362602,
    0.0938354879617691,
    0.013388643972575665,
    0.10333303362131119,
    0.07205310463905334,
    0.09483633190393448,
    0.0005051479092799127,
    0.10895826667547226
  ],
  "fc2.weight": [
    [
      -0.055630527436733246,
      -0.06724271923303604,
      -0.023870406672358513,
      -0.05557449162006378,
      0.02992403879761696,
      -0.12011374533176422,
      -0.1748468428850174,
      0.059073999524116516,
      0.131618469953537,
      -0.007009480614215136,
      -0.01414094865322113,
      -0.2550829350948334,
      -0.11059842258691788,
      0.07826751470565796,
      0.04826764762401581,
      -0.15880084037780762,
      0.19012607634067535,
      -0.06402064114809036,
      0.009407233446836472,
      0.0966358333826065,
      0.012465237639844418,
      -0.04041215032339096,
      -0.044279471039772034,
      0.24462608993053436,
      0.04487629979848862,
      -0.03494109585881233,
      -0.07033609598875046,
      -0.20005400478839874,
      -0.06408372521400452,
      -0.0035843236837536097,
      -0.14501266181468964,
      -0.10536763072013855,
      -0.17481452226638794,
      0.043589312583208084,
      -0.16006262600421906,
      -0.16254357993602753,
      0.05158435180783272,
      0.04789113625884056,
      -0.20179656147956848,
      -0.13276247680187225,
      -0.035602107644081116,
      0.11641230434179306,
      -0.05797327309846878,
      0.02600972354412079,
      -0.10818396508693695,
      -0.1780632585287094,
      -0.16746625304222107,
      0.08057229965925217,
      -0.1948826014995575,
      -0.21761326491832733,
      -0.05569736659526825,
      -0.20573540031909943,
      -0.0012379147810861468,
      -0.06592568755149841,
      -0.21301144361495972,
      -0.08301942050457001,
      -0.06747505068778992,
      -0.0747365653514862,
      -0.0942661464214325,
      0.10536283999681473,
      0.05267563834786415,
      0.07347489148378372,
      0.13204355537891388,
      0.1685829758644104,
      -0.016379499807953835,
      -0.05737481266260147,
      0.05024445801973343,
      -0.08146889507770538,
      -0.008680583909153938,
      -0.04074383154511452,
      -0.06137363985180855,
      -0.06242690235376358,
      -0.024168144911527634,
      0.043375395238399506,
      0.039423730224370956,
      0.12585163116455078,
      -0.17920982837677002,
      -0.08243654668331146,
      -0.21637289226055145,
      0.15450304746627808,
      -0.09210732579231262,
      -0.13910739123821259,
      0.12323097139596939,
      0.2404627799987793,
      -0.1965516358613968,
      -0.05541316792368889,
      -0.04306492954492569,
      -0.2792801856994629,
      0.24618864059448242,
      0.11490800231695175,
      -0.0555964820086956,
      0.033201053738594055,
      0.03225197270512581,
      0.04900834336876869,
      -0.029877426102757454,
      0.031006822362542152,
      0.10353626310825348,
      -0.04398325830698013,
      0.29584836959838867,
      -0.0824478417634964,
      -0.34792855381965637,
      -0.19216637313365936,
      -0.009549915790557861,
      0.03897084668278694,
      -0.08804772794246674,
      0.049693599343299866,
      0.05645455792546272,
      -0.0707368478178978,
      -0.11179352551698685,
      -0.07909121364355087,
      -0.12002978473901749,
      -0.22242775559425354,
      -0.041087761521339417,
      0.08932804316282272,
      -0.03411838412284851,
      -0.056636009365320206,
      -0.003970528952777386,
      0.08380187302827835,
      -0.07358317077159882,
      0.062354493886232376,
      -0.024151943624019623,
      -0.10632878541946411,
      -0.08805069327354431,
      -0.014650213532149792,
      -0.2176687866449356,
      0.17722468078136444,
      0.009996126405894756,
      0.14242607355117798
    ],
    [
      -0.2007753700017929,
      -0.13950976729393005,
      0.031488772481679916,
      0.14242050051689148,
      -0.18010815978050232,
      0.19545869529247284,
      -0.02803473360836506,
      0.08367347717285156,
      -0.07100855559110641,
      0.0016510995337739587,
      -0.024511951953172684,
      -0.14355625212192535,
      -0.046686649322509766,
      0.07290049642324448,
      -0.13094308972358704,
      0.058184560388326645,
      0.010239078663289547,
      0.011563921347260475,
      -0.03179371729493141,
      -0.12185141444206238,
      -0.04461517557501793,
      0.18881575763225555,
      0.011848511174321175,
      0.07262491434812546,
      0.05907265469431877,
      -0.019326644018292427,
      -0.23116858303546906,
      -0.041287634521722794,
      -0.13664531707763672,
      0.2080201506614685,
      -0.12830612063407898,
      -0.11403115838766098,
      0.15461069345474243,
      -0.09493503719568253,
      -0.23319607973098755,
      -0.0227675624191761,
      -0.042007189244031906,
      0.061496373265981674,
      -0.013718231581151485,
      -0.0925929918885231,
      0.13080818951129913,
      -0.11323382705450058,
      -0.10332846641540527,
      0.013875940814614296,
      0.10345988720655441,
      0.049545373767614365,
      0.012337962165474892,
      0.013595008291304111,
      -0.11020483076572418,
      -0.027710124850273132,
      0.05460677668452263,
      -0.03163931146264076,
      -0.017797335982322693,
      -0.17809978127479553,
      0.07827689498662949,
      0.07463296502828598,
      0.14197951555252075,
      0.15696537494659424,
      -0.008806778118014336,
      0.18275204300880432,
      0.0771220326423645,
      -0.061309102922677994,
      -0.015435761772096157,
      0.02362518012523651,
      -0.3177446722984314,
      -0.17227263748645782,
      0.13784761726856232,
      -0.15431076288223267,
      0.0880572572350502,
      0.026463927701115608,
      -0.00484416913241148,
      0.08732252568006516,
      -0.06121760606765747,
      0.03327447921037674,
      0.11684621870517731,
      -0.156958669424057,
      -0.29082486033439636,
      0.08578968793153763,
      0.0861123576760292,
      -0.061075590550899506,
      -0.15905675292015076,
      -0.011560022830963135,
      0.06892277300357819,
      -0.015109142288565636,
      0.07702121883630753,
      0.04798512905836105,
      -0.1846819967031479,
      -0.018928442150354385,
      0.15526501834392548,
      -0.08573617786169052,
      0.12799279391765594,
      -0.10070228576660156,
      0.14699098467826843,
      -0.023462921380996704,
      -0.18468669056892395,
      -0.08988451212644577,
      0.12510386109352112,
      -0.012652760371565819,
      0.11927666515111923,
      -0.07765055447816849,
      0.10211488604545593,
      -0.02160067670047283,
      0.06154067814350128,
      -0.05110350251197815,
      -0.0643404945731163,
      -0.13156338036060333,
      0.008916042745113373,
      -0.2324727326631546,
      0.06398950517177582,
      -0.16905076801776886,
      -0.1516205221414566,
      0.09854874759912491,
      0.1705499291419983,
      0.0067705255933105946,
      -0.21863551437854767,
      0.005704832728952169,
      -0.0946492999792099,
      -0.2559114992618561,
      0.14167742431163788,
      0.1544739305973053,
      0.005483680870383978,
      0.05215221270918846,
      -0.1181495264172554,
      -0.09655102342367172,
      0.0019941343925893307,
      0.07304322719573975,
      0.20736923813819885,
      0.1550358086824417
    ],
    [
      -0.2537751793861389,
      -0.06857604533433914,
      0.09150434285402298,
      0.11296585202217102,
      0.1808898150920868,
      -0.0073850094340741634,
      0.08260464668273926,
      0.0040565067902207375,
      -0.07993318885564804,
      0.13187621533870697,
      0.019640857353806496,
      -0.03375442326068878,
      -0.12677475810050964,
      0.12600095570087433,
      -0.16308163106441498,
      0.02445380948483944,
      0.1580943763256073,
      0.17459392547607422,
      -0.12454647570848465,
