{
  "fc1.weight": [
    [
      -0.34006643295288086,
      0.13722963631153107,
      -0.08427873998880386,
      0.11944905668497086,
      0.1461048275232315,
      0.2793195843696594,
      -0.3969809114933014,
      0.05649374797940254,
      -0.2772935926914215,
      -0.3469272255897522,
      0.256992369890213,
      -0.4987085461616516,
      -0.4863952696323395,
      0.3315616548061371,
      0.42433005571365356,
      -0.30308082699775696,
      -0.33929961919784546,
      0.09176994860172272,
      0.3515346348285675,
      -0.015525683760643005,
      -0.019451644271612167,
      0.2292039841413498,
      -0.391956090927124,
      -0.17678436636924744,
      -0.017070889472961426
    ],
    [
      -0.3491937220096588,
      -0.33585914969444275,
      0.4652438759803772,
      -0.044739339500665665,
      -0.3564918637275696,
      0.01302426028996706,
      0.3334583342075348,
      -0.19087541103363037,
      0.17955581843852997,
      0.24419528245925903,
      -0.1344711035490036,
      -0.06723690032958984,
      -0.3593204617500305,
      0.5456960201263428,
      0.49186640977859497,
      -0.29804301261901855,
      0.22324387729167938,
      -0.1953253448009491,
      -0.30303651094436646,
      -0.33634164929389954,
      0.3672611117362976,
      -0.1330564320087433,
      0.4083186984062195,
      0.20034167170524597,
      0.41692110896110535
    ],
    [
      -0.11336051672697067,
      -0.381104052066803,
      0.22623123228549957,
      0.39755547046661377,
      0.010862640105187893,
      0.047026779502630234,
      -0.13948829472064972,
      -0.5467604398727417,
      0.14825205504894257,
      0.27656498551368713,
      0.15656231343746185,
      0.48340344429016113,
      0.04935053735971451,
      0.35020801424980164,
      -0.1121407002210617,
      -0.25278231501579285,
      -0.3468828499317169,
      0.12008433789014816,
      0.3897957503795624,
      -0.3426735997200012,
      0.2930002808570862,
      -0.2397041618824005,
      0.14555926620960236,
      0.06480732560157776,
      -0.35847142338752747
    ],
    [
      0.0374474935233593,
      0.033036280423402786,
      -0.24736547470092773,
      -0.0028054204303771257,
      0.513149619102478,
      -0.3931576609611511,
      -0.3169236183166504,
      -0.4591345489025116,
      0.33613941073417664,
      0.3313315808773041,
      -0.018591081723570824,
      -0.19086167216300964,
      -0.1907373070716858,
      0.41509950160980225,
      0.02695377729833126,
      -0.0015267407288774848,
      0.42295295000076294,
      -0.2356744259595871,
      0.35394132137298584,
      -0.2951427102088928,
      -0.22122611105442047,
      -0.007260878570377827,
      0.31533029675483704,
      0.42736560106277466,
      0.004676725249737501
    ],
    [
      -0.3020288050174713,
      0.2935621440410614,
      0.1534506380558014,
      0.04471280425786972,
      -0.032022103667259216,
      0.08800206333398819,
      -0.21282058954238892,
      0.16737443208694458,
      0.1456741988658905,
      0.41958412528038025,
      -0.1786905825138092,
      -0.032729946076869965,
      -0.10356537252664566,
      -0.17760764062404633,
      0.29339951276779175,
      0.4645479917526245,
      -0.3640516400337219,
      0.2510966658592224,
      -0.14462557435035706,
      -0.42493680119514465,
      0.2959705889225006,
      -0.46235013008117676,
      0.4197188913822174,
      0.2548797130584717,
      -0.27306950092315674
    ],
    [
      -0.2004851996898651,
      0.04192814230918884,
      0.14502902328968048,
      0.015213877893984318,
      -0.007019038777798414,
      -0.3341999351978302,
      -0.2558882236480713,
      0.4824085831642151,
      -0.3848174810409546,
      0.187397301197052,
      0.44912344217300415,
      0.48860111832618713,
      -0.24060577154159546,
      -0.34260037541389465,
      -0.427776038646698,
      -0.17672787606716156,
      0.48116207122802734,
      0.4914321303367615,
      -0.2490357756614685,
      -0.4193696677684784,
      0.3180462121963501,
      0.2247665971517563,
      0.10529210418462753,
      0.2811861038208008,
      -0.06815724074840546
    ],
    [
      0.281515896320343,
      -0.0060025667771697044,
      -0.22694091498851776,
      0.37333011627197266,
      0.002237902721390128,
      -0.13773415982723236,
      -0.22954095900058746,
      0.16487707197666168,
      -0.45917612314224243,
      -0.44824403524398804,
      0.31143587827682495,
      0.4767279028892517,
      0.061380207538604736,
      0.38350149989128113,
      -0.32679301500320435,
      0.2064567506313324,
      -0.4708557426929474,
      -0.26173293590545654,
      0.09103428572416306,
      0.41891711950302124,
      -0.2654937505722046,
      -0.4456382691860199,
      -0.4366051256656647,
      -0.2835778594017029,
      -0.24452948570251465
    ],
    [
      0.4882231056690216,
      -0.2309797704219818,
      -0.3405553996562958,
      0.3555212914943695,
      0.22853991389274597,
      0.10517486184835434,
      0.3382036089897156,
      -0.30706340074539185,
      0.09494443237781525,
      -0.03933831676840782,
      -0.3391943871974945,
      0.357331246137619,
      -0.19940687716007233,
      0.39122140407562256,
      0.0103988042101264,
      -0.46444469690322876,
      0.34619954228401184,
      0.0290973000228405,
      -0.42650356888771057,
      -0.0294802226126194,
      -0.1741015613079071,
      0.07774341851472855,
      -0.02597375214099884,
      0.36888352036476135,
      -0.13058467209339142
    ],
    [
      0.2752751111984253,
      -0.3747159242630005,
      0.4741904139518738,
      -0.051307473331689835,
      0.6010565757751465,
      -0.32883426547050476,
      -0.15166158974170685,
      0.044202160090208054,
      -0.4831918478012085,
      0.06541365385055542,
      -0.425127774477005,
      -0.0652158334851265,
      -0.4324592053890228,
      0.36633577942848206,
      -0.2682861387729645,
      -0.0517224445939064,
      0.35936659574508667,
      0.3976232707500458,
      0.48021212220191956,
      0.02534220553934574,
      0.35792991518974304,
      0.5140075087547302,
      0.2743140459060669,
      -0.10221683979034424,
      -0.46222299337387085
    ],
    [
      0.05185437574982643,
      -0.04366086795926094,
      0.34776759147644043,
      0.2399997115135193,
      0.30884358286857605,
      -0.15184903144836426,
      -0.061527930200099945,
      0.36282849311828613,
      0.23613224923610687,
      0.35804852843284607,
      0.19902941584587097,
      0.4740230441093445,
      -0.1407816857099533,
      0.06702133268117905,
      -0.06707844138145447,
      0.5023429989814758,
      0.4955523610115051,
      0.22321319580078125,
      0.36408260464668274,
      -0.22460530698299408,
      -0.111981600522995,
      0.33791983127593994,
      0.39443016052246094,
      -0.4486957788467407,
      0.35096073150634766
    ],
    [
      -0.06899344176054001,
      0.2935648560523987,
      -0.2461431324481964,
      0.16250517964363098,
      0.41622403264045715,
      -0.09358522295951843,
      -0.13644348084926605,
      -0.3338136672973633,
      -0.3854025602340698,
      0.3251512348651886,
      0.08353244513273239,
      -0.4038889408111572,
      0.2356996238231659,
      0.3380100429058075,
      -0.1331973820924759,
      0.2721087336540222,
      -0.027219204232096672,
      -0.14723922312259674,
      0.36004748940467834,
      -0.19364318251609802,
      0.005428247153759003,
      -0.3015297055244446,
      -0.38728535175323486,
      0.39333775639533997,
      0.14393889904022217
    ],
    [
      0.030656788498163223,
      0.5461937189102173,
      -0.17653782665729523,
      0.4385480284690857,
      0.4133414328098297,
      0.47451096773147583,
      -0.48964834213256836,
      0.48683133721351624,
      0.3465173542499542,
      -0.1318475753068924,
      0.38553357124328613,
      -0.07850384712219238,
      0.22946667671203613,
      -0.40538710355758667,
      -0.046369519084692,
      -0.44157591462135315,
      0.27899372577667236,
      -0.22848209738731384,
      0.15442685782909393,
      0.1360013633966446,
      -0.15302906930446625,
      -0.016752449795603752,
      -0.013703171163797379,
      -0.146161288022995,
      0.23071284592151642
    ],
    [
      0.23901624977588654,
      -0.15171456336975098,
      -0.286213219165802,
      -0.3246154487133026,
      -0.056641656905412674,
      0.07631552219390869,
      -0.4121062755584717,
      0.022729430347681046,
      -0.05422096326947212,
      -0.23110446333885193,
      -0.3935914933681488,
      -0.41355466842651367,
      0.20259904861450195,
      -0.05379306152462959,
      -0.01587340049445629,
      0.23366186022758484,
      0.2077772468328476,
      0.09947524219751358,
      0.03227228671312332,
      -0.39671820402145386,
      -0.33303192257881165,
      -0.08062955737113953,
      -0.18020525574684143,
      0.327365517616272,
      0.3138808608055115
    ],
    [
      -0.409164160490036,
      -0.1382727473974228,
      0.16046400368213654,
      -0.19689278304576874,
      0.17772570252418518,
      -0.5193156599998474,
      0.49257904291152954,
      0.28311893343925476,
      -0.050688568502664566,
      0.17143294215202332,
      0.29352718591690063,
      0.4357570707798004,
      -0.29385125637054443,
      -0.44995996356010437,
      0.41947513818740845,
      0.10530998557806015,
      -0.1296275556087494,
      0.4103560745716095,
      -0.4358696937561035,
      -0.1430903524160385,
      -0.41065531969070435,
      0.1303456425666809,
      0.3173980116844177,
      0.0075857555493712425,
      0.449747234582901
    ],
    [
      -0.030103938654065132,
      -0.3267209231853485,
      -0.1555759757757187,
      -0.19929161667823792,
      0.5235356688499451,
      0.36988043785095215,
      0.2461635023355484,
      -0.46586906909942627,
      -0.10249156504869461,
      0.4632544219493866,
      0.1649138480424881,
      -0.4138590097427368,
      0.045238081365823746,
      0.25754398107528687,
      0.23863083124160767,
      0.29299426078796387,
      -0.09028051793575287,
      0.3356489837169647,
      -0.15876337885856628,
      0.07274340093135834,
      -0.3634862005710602,
      -0.36028188467025757,
      0.4483335614204407,
      0.12969960272312164,
      0.2744755744934082
    ],
    [
      -0.4326971173286438,
      0.3627449870109558,
      0.4408920705318451,
      0.30283495783805847,
      -0.05992285907268524,
      0.4000912308692932,
      0.06725165992975235,
      -0.3219861686229706,
      -0.3209952712059021,
      0.21494176983833313,
      -0.048968277871608734,
      -0.3881058692932129,
      -0.25243356823921204,
      -0.3257704973220825,
      -0.2881695628166199,
      0.1140136569738388,
      -0.11717580258846283,
      0.42208197712898254,
      0.3118044435977936,
      0.16139063239097595,
      0.06598784774541855,
      0.13374030590057373,
      -0.06485090404748917,
      0.05151224136352539,
      -0.3598344326019287
    ],
    [
      0.2695872187614441,
      -0.016754325479269028,
      0.12453606724739075,
      -0.14302411675453186,
      -0.4947967827320099,
      0.2688426375389099,
      0.044950876384973526,
      0.25761038064956665,
      0.3057156503200531,
      -0.07250466197729111,
      -0.14692823588848114,
      -0.16070854663848877,
      -0.10322735458612442,
      -0.12060543149709702,
      -0.3084602952003479,
      -0.4118567705154419,
      -0.3476282060146332,
      0.31335821747779846,
      0.23411202430725098,
      0.44787296652793884,
      0.06113262474536896,
      0.054421525448560715,
      0.11097431182861328,
      0.42910632491111755,
      0.39739271998405457
    ],
    [
      -0.16922707855701447,
      0.0271675493568182,
      -0.16894464194774628,
      -0.07438725233078003,
      0.6273216009140015,
      0.13588348031044006,
      -0.4418724477291107,
      -0.20683979988098145,
      0.4730612337589264,
      0.1306101530790329,
      -0.2768890857696533,
      0.5080931782722473,
      -0.19225400686264038,
      -0.12472107261419296,
      -0.39319372177124023,
      -0.2827128767967224,
      -0.325328528881073,
      -0.03348445147275925,
      0.4591522216796875,
      0.03370730206370354,
      0.42831605672836304,
      0.4541947841644287,
      0.1073344424366951,
      0.48127108812332153,
      0.5031956434249878
    ],
    [
      -0.2704952657222748,
      0.37856030464172363,
      -0.3847028613090515,
      0.01852179691195488,
      0.0071417647413909435,
      0.18478426337242126,
      0.0065443990752100945,
      -0.11458348482847214,
      -0.02001863531768322,
      -0.32407259941101074,
      -0.023655137047171593,
      -0.30875706672668457,
      0.14271332323551178,
      -0.3730400502681732,
      0.3366384208202362,
      -0.3604990839958191,
      -0.440336674451828,
      -0.3675164580345154,
      0.2693926692008972,
      0.19302208721637726,
      0.4314314126968384,
      -0.08658870309591293,
      0.08408713340759277,
      -0.4450059235095978,
      -0.10307338833808899
    ],
    [
      -0.1422930508852005,
      -0.32130375504493713,
      -0.2875765860080719,
      -0.42895135283470154,
      0.21289004385471344,
      -0.2628726065158844,
      0.11528842896223068,
      -0.09711848199367523,
      -0.13120613992214203,
      0.22841675579547882,
      0.3333258628845215,
      0.4668058454990387,
      0.18285323679447174,
      0.3744494318962097,
      0.2905692458152771,
      -0.1683569699525833,
      0.276463121175766,
      0.40018361806869507,
      0.04362514615058899,
      0.19291433691978455,
      -0.3456762135028839,
      -0.13589096069335938,
      -0.3170750141143799,
      -0.09402281790971756,
      0.43251386284828186
    ],
    [
      0.26405954360961914,
      0.47392335534095764,
      -0.10754174739122391,
      -0.278829425573349,
      -0.38306963443756104,
      0.3953934907913208,
      -0.28740420937538147,
      0.14166349172592163,
      -0.30542245507240295,
      -0.10246691852807999,
      0.36662936210632324,
      -0.5058723092079163,
      -0.09952414780855179,
      -0.4847624599933624,
      -0.3203711211681366,
      -0.2589975595474243,
      0.4201532304286957,
      -0.13017141819000244,
      -0.09840412437915802,
      0.18605947494506836,
      0.4685123562812805,
      -0.38751330971717834,
      -0.09982464462518692,
      0.266991525888443,
      0.05578501150012016
    ],
    [
      -0.1395256221294403,
      -0.3721623122692108,
      0.43312305212020874,
      0.2064121514558792,
      0.6348943710327148,
      0.42979735136032104,
      -0.3225167691707611,
      -0.16103383898735046,
      -0.045549653470516205,
      -0.0564458854496479,
      0.4961828291416168,
      -0.3182125687599182,
      0.14946122467517853,
      -0.38745152950286865,
      -0.18169714510440826,
      -0.189962700009346,
      -0.025353677570819855,
      0.24375125765800476,
      -0.3842379152774811,
      0.317499577999115,
      -0.1449417918920517,
      0.12099392712116241,
      -0.3271958827972412,
      0.1598021537065506,
      0.1055004894733429
    ],
    [
      -0.08472549915313721,
      -0.2540782690048218,
      -0.04014365375041962,
      0.14953331649303436,
      -0.4253578186035156,
      0.49263468384742737,
      0.14749817550182343,
      -0.2665829360485077,
      -0.47708961367607117,
      0.377088725566864,
      0.4970340430736542,
      0.07206215709447861,
      -0.34024760127067566,
      0.17479504644870758,
      0.4723426103591919,
      -0.44659197330474854,
      -0.10176072269678116,
      -0.03577886521816254,
      0.43650543689727783,
      0.232436865568161,
      -0.25940901041030884,
      -0.2767150104045868,
      -0.43974873423576355,
      0.013395978137850761,
      0.25315210223197937
    ],
    [
      -0.45025914907455444,
      0.07685929536819458,
      -0.3008497357368469,
      0.13546305894851685,
      0.33399295806884766,
      -0.09996863454580307,
      -0.5031418204307556,
      -0.3075205087661743,
      -0.41907820105552673,
      0.1970851570367813,
      -0.36927467584609985,
      0.12247581034898758,
      0.27141687273979187,
      0.1839558631181717,
      0.34466618299484253,
      -0.0815243050456047,
      -0.007968749850988388,
      0.4805603623390198,
      -0.05464249476790428,
      -0.15527762472629547,
      0.07265160977840424,
      0.0005803428357467055,
      0.0784933790564537,
      0.17507797479629517,
      0.20002895593643188
    ],
    [
      -0.005339871626347303,
      0.0005655703134834766,
      -0.13047556579113007,
      0.002419094555079937,
      0.5662804841995239,
      -0.35599789023399353,
      -0.1332928091287613,
      0.21601776778697968,
      -0.03327934443950653,
      0.4667055904865265,
      0.37753066420555115,
      0.11940914392471313,
      0.30652618408203125,
      -0.40332382917404175,
      -0.4751359522342682,
      0.18156935274600983,
      -0.24569173157215118,
      0.4597824811935425,
      0.37826570868492126,
      0.013009503483772278,
      0.05293009430170059,
      0.3593136966228485,
      0.4627978503704071,
      -0.18090878427028656,
      0.016453681513667107
    ],
    [
      -0.10896004736423492,
      -0.03709102049469948,
      -0.278249055147171,
      -0.41609907150268555,
      0.13611085712909698,
      0.2956621050834656,
      0.3943108022212982,
      -0.11558078229427338,
      0.1946772187948227,
      -0.42173317074775696,
      -0.07855289429426193,
      0.0396709144115448,
      -0.0921376422047615,
      0.20928186178207397,
      0.29294058680534363,
      -0.19020023941993713,
      -0.2938174307346344,
      -0.4474187195301056,
      -0.24786724150180817,
      0.39225804805755615,
      -0.39730221033096313,
      -0.2096327394247055,
      0.46488505601882935,
      -0.17516979575157166,
      -0.41397544741630554
    ],
    [
      -0.06902869790792465,
      0.03557738661766052,
      -0.45009738206863403,
      0.026684219017624855,
      0.1319652944803238,
      -0.26972946524620056,
      -0.09600083529949188,
      0.10963762551546097,
      0.4274701476097107,
      -0.40106481313705444,
      -0.23112857341766357,
      0.17053011059761047,
      0.18799501657485962,
      0.4102599620819092,
      0.3322186768054962,
      0.4581257402896881,
      -0.42692458629608154,
      -0.33730557560920715,
      -0.38194072246551514,
      -0.40373003482818604,
      -0.2981971502304077,
      -0.06297784298658371,
      -0.4644503891468048,
      -0.09458345174789429,
      0.3857731819152832
    ],
    [
      0.4475010335445404,
      0.050074491649866104,
      0.4227631092071533,
      -0.1584470272064209,
      0.5651389956474304,
      -0.5130302906036377,
      0.41134217381477356,
      0.1612657606601715,
      0.16498404741287231,
      -0.07185906916856766,
      -0.33393606543540955,
      -0.2350221425294876,
      0.3623778820037842,
      0.43534427881240845,
      -0.45314639806747437,
      -0.291864275932312,
      0.1026754379272461,
      0.1402038186788559,
      -0.16145913302898407,
      -0.21163195371627808,
      0.3138200044631958,
      0.2060273289680481,
      0.4295315742492676,
      0.16633780300617218,
      0.136269211769104
    ],
    [
      0.4509468078613281,
      0.339228093624115,
      -0.0013195793144404888,
      0.0115997064858675,
      0.6691953539848328,
      0.47349223494529724,
      0.038359787315130234,
      -0.32837000489234924,
      0.27509838342666626,
      0.13421384990215302,
      -0.19480068981647491,
      0.5128434300422668,
      -0.5138158202171326,
      0.12661467492580414,
      -0.46145257353782654,
      -0.1555911749601364,
      0.0774449035525322,
      -0.1880568265914917,
      -0.37649670243263245,
      0.08075862377882004,
      -0.17956605553627014,
      0.27127063274383545,
      -0.37088721990585327,
      -0.1784834861755371,
      -0.1633296012878418
    ],
    [
      0.33733123540878296,
      0.4566163420677185,
      0.14050613343715668,
      -0.018869752064347267,
      -0.4237017333507538,
      -0.3976648449897766,
      0.07629627734422684,
      -0.5025810599327087,
      0.6700134873390198,
      0.16146188974380493,
      -0.07434653490781784,
      -0.30847227573394775,
      -0.3110155761241913,
      0.4641111195087433,
      -0.3478112518787384,
      0.421465665102005,
      0.27520889043807983,
      0.2365669161081314,
      0.24108922481536865,
      -0.07851739227771759,
      0.30412518978118896,
      -0.3477638065814972,
      -0.1934015452861786,
      -0.23487062752246857,
      0.49105069041252136
    ],
    [
      0.09250102192163467,
      0.036293160170316696,
      -0.20129095017910004,
      -0.17806021869182587,
      0.1988646239042282,
      0.3596028685569763,
      0.40486660599708557,
      -0.014232195913791656,
      -0.3102273941040039,
      -0.3349742889404297,
      -0.5100851058959961,
      -0.34057021141052246,
      0.07088662683963776,
      0.36431705951690674,
      0.048875175416469574,
      -0.4289413094520569,
      0.015409331768751144,
      0.18251991271972656,
      -0.24686577916145325,
      -0.03225044533610344,
      0.06348700076341629,
      0.17107050120830536,
      -0.08242208510637283,
      -0.24147671461105347,
      0.38840699195861816
    ],
    [
      0.40775027871131897,
      0.31461799144744873,
      0.1138870120048523,
      0.11773055046796799,
      0.003124670358374715,
      0.5272489786148071,
      -0.4202348291873932,
      0.41940921545028687,
      -0.008871141821146011,
      0.11429408192634583,
      -0.06743362545967102,
      -0.1986687183380127,
      0.45027145743370056,
      -0.12876947224140167,
      -0.14189517498016357,
      0.03245344012975693,
      -0.3513885736465454,
      0.40489351749420166,
      0.23188112676143646,
      0.44428735971450806,
      0.435233473777771,
      0.26618263125419617,
      0.28415393829345703,
      0.03304298594594002,
      -0.10845142602920532
    ],
    [
      -0.11262033879756927,
      0.4028344750404358,
      -0.3058674931526184,
      -0.17198343575000763,
      0.1438337117433548,
      -0.3947509825229645,
      0.29201093316078186,
      -0.5765944719314575,
      -0.2772364914417267,
      0.5078141689300537,
      0.2777595818042755,
      -0.3854058086872101,
      0.36039456725120544,
      0.23748719692230225,
      0.05182681232690811,
      -0.4007999002933502,
      0.45771583914756775,
      0.08406753838062286,
      0.114252470433712,
      0.15005254745483398,
      -0.32073062658309937,
      0.40156620740890503,
      -0.012626315467059612,
      0.19241677224636078,
      0.04596976563334465
    ],
    [
      -0.10013364255428314,
      -0.21077924966812134,
      0.27565011382102966,
      0.018851714208722115,
      -0.07198555022478104,
      0.43199849128723145,
      0.27888965606689453,
      0.4309399425983429,
      0.3241002857685089,
      0.4228607714176178,
      -0.27424323558807373,
      -0.1585063338279724,
      0.2484753578901291,
      -0.07721434533596039,
      -0.20920564234256744,
      0.38422834873199463,
      -0.40591761469841003,
      0.08155988156795502,
      -0.3601503372192383,
      0.07893267273902893,
      0.0901276022195816,
      -0.27715006470680237,
      0.26114943623542786,
      -0.4323013424873352,
      -0.42699888348579407
    ],
    [
      0.3530043363571167,
      0.3517855703830719,
      0.1082974523305893,
      0.08068457245826721,
      -0.24928106367588043,
      0.0014839558862149715,
      -0.33781173825263977,
      -0.4517916738986969,
      0.3841579258441925,
      -0.28304699063301086,
      -0.07625307887792587,
      -0.16104814410209656,
      0.07845183461904526,
      -0.14182570576667786,
      -0.1112673282623291,
      0.5514657497406006,
      -0.3930235505104065,
      0.3471238911151886,
      0.06180822104215622,
      -0.14830578863620758,
      0.13994257152080536,
      0.4732052683830261,
      0.024065522477030754,
      -0.31638747453689575,
      -0.10443562269210815
    ],
    [
      -0.07131055742502213,
      0.48561903834342957,
      -0.34394705295562744,
      0.1691577285528183,
      0.49296581745147705,
      -0.36287376284599304,
      -0.40691113471984863,
      0.2250305861234665,
      0.3031156063079834,
      0.012491840869188309,
      -0.06573539972305298,
      -0.42100420594215393,
      -0.34787142276763916,
      -0.3809364140033722,
      -0.2565329670906067,
      0.20298413932323456,
      -0.1459505707025528,
      -0.14840209484100342,
      -0.3743079900741577,
      0.1659976691007614,
      0.27845507860183716,
      -0.24497416615486145,
      0.09220016747713089,
      -0.28720057010650635,
      0.1314217746257782
    ],
    [
      0.22390274703502655,
      0.36285513639450073,
      0.24188277125358582,
      -0.08868986368179321,
      -0.18086634576320648,
      -0.4706667363643646,
      -0.4318985342979431,
      -0.34582582116127014,
      0.03251926228404045,
      -0.3469139337539673,
      0.1704227775335312,
      -0.044992417097091675,
      0.04108928516507149,
      -0.3369470238685608,
      -0.04677794873714447,
      0.24752138555049896,
      -0.18536865711212158,
      -0.1767696738243103,
      -0.06225953996181488,
      -0.03305315971374512,
      -0.4180792570114136,
      -0.3632839024066925,
      0.05187390744686127,
      -0.3414488434791565,
      -0.4055604338645935
    ],
    [
      -0.3721702992916107,
      -0.14892418682575226,
      0.20728790760040283,
      -0.39375174045562744,
      -0.010594647377729416,
      -0.3255288898944855,
      0.46460816264152527,
      -0.444857120513916,
      -0.09031619876623154,
      -0.21352337300777435,
      -0.13695351779460907,
      -0.24601051211357117,
      -0.09918032586574554,
      0.434189110994339,
      -0.3561095595359802,
      -0.4360344409942627,
      -0.33486902713775635,
      -0.26409396529197693,
      0.3559608459472656,
      0.31610745191574097,
      -0.02697005681693554,
      0.30844226479530334,
      0.1616167575120926,
      0.04487181827425957,
      -0.4874272048473358
    ],
    [
      -0.41193729639053345,
      0.18567892909049988,
      -0.20733250677585602,
      0.37710604071617126,
      0.0425596721470356,
      0.23405218124389648,
      -0.13756465911865234,
      0.09409026056528091,
      0.09261219948530197,
      0.4124099910259247,
      -0.28798288106918335,
      0.414438396692276,
      -0.20815351605415344,
      -0.23153045773506165,
      0.3549255430698395,
      0.3284623324871063,
      -0.3596515953540802,
      0.45031511783599854,
      -0.33039432764053345,
      0.33278974890708923,
      -0.3848775327205658,
      0.35302188992500305,
      0.1844439059495926,
      -0.15182669460773468,
      -0.2500728666782379
    ],
    [
      0.12481330335140228,
      0.05406573414802551,
      -0.06738901883363724,
      -0.33423182368278503,
      0.3625611662864685,
      0.2193901538848877,
      0.2649018168449402,
      -0.03935858979821205,
      -0.4854159355163574,
      -0.43327927589416504,
      -0.3785162568092346,
      -0.3554491102695465,
      -0.34049659967422485,
      0.3853447139263153,
      0.23702917993068695,
      0.3269254267215729,
      0.4743894934654236,
      -0.39956462383270264,
      0.035251230001449585,
      0.3991309404373169,
      -0.2378440946340561,
      0.03716302663087845,
      -0.41151222586631775,
      0.3198682963848114,
      -0.11599279940128326
    ],
    [
      -0.39189258217811584,
      -0.34991273283958435,
      -0.4288216531276703,
      -0.3336358070373535,
      -0.018868638202548027,
      0.05576314032077789,
      0.3747623860836029,
      -0.21295017004013062,
      -0.48854100704193115,
      -0.4801643490791321,
      -0.38926011323928833,
      0.2362721860408783,
      0.45673972368240356,
      0.059552449733018875,
      -0.09805751591920853,
      0.2882184088230133,
      -0.23867221176624298,
      -0.14791573584079742,
      0.08026379346847534,
      -0.22109580039978027,
      0.22648048400878906,
      -0.2184676080942154,
      0.08301316946744919,
      -0.3164929449558258,
      -0.3982413411140442
    ],
    [
      -0.16066336631774902,
      -0.268392413854599,
      0.4683721959590912,
      -0.10500657558441162,
      0.2645832896232605,
      -0.237409308552742,
      -0.08104133605957031,
      -0.06200777739286423,
      0.21604101359844208,
      -0.22802238166332245,
      -0.014076711609959602,
      0.20623593032360077,
      -0.12054312229156494,
      -0.28405988216400146,
      -0.048240236937999725,
      0.21199281513690948,
      -0.46326977014541626,
      0.15252499282360077,
      0.27972936630249023,
      0.00632411940023303,
      -0.2566383183002472,
      0.04078571870923042,
      0.33030784130096436,
      -0.4762710928916931,
      -0.29278331995010376
    ],
    [
      0.09394031018018723,
      -0.34597048163414,
      0.20992808043956757,
      0.4560026228427887,
      -0.27789902687072754,
      -0.28735578060150146,
      0.09391476958990097,
      0.15600600838661194,
      0.4396650493144989,
      0.417132705450058,
      0.16949620842933655,
      0.347974568605423,
      0.1966874599456787,
      0.21340583264827728,
      -0.441697895526886,
      -0.17953863739967346,
      -0.2509435713291168,
      -0.09935730695724487,
      0.45138829946517944,
      -0.13968151807785034,
      -0.1063925176858902,
      -0.07258813083171844,
      -0.19779430329799652,
      0.20071424543857574,
      -0.31674984097480774
    ],
    [
      0.19683556258678436,
      0.33007189631462097,
      0.3300028443336487,
      -0.35322198271751404,
      0.11167485266923904,
      -0.385210782289505,
      0.039733897894620895,
      0.06632453203201294,
      0.36804813146591187,
      -0.32300707697868347,
      -0.06884419918060303,
      0.13593515753746033,
      0.42676663398742676,
      0.21162521839141846,
      0.30349159240722656,
      -0.3677472770214081,
      -0.012463144958019257,
      0.017734430730342865,
      0.13717491924762726,
      0.30993160605430603,
      -0.42528286576271057,
      -0.08755164593458176,
      0.419081449508667,
      0.10533414781093597,
      -0.04189528897404671
    ],
    [
      0.31931132078170776,
      -0.26476728916168213,
      -0.02050153724849224,
      0.2418031543493271,
      -0.36649835109710693,
      0.3899884819984436,
      -0.09015558660030365,
      0.11503394693136215,
      -0.06160531938076019,
      0.06447701156139374,
      -0.10356108844280243,
      0.3976137638092041,
      -0.43726086616516113,
      -0.35558855533599854,
      0.26619207859039307,
      0.49616992473602295,
      -0.389750212430954,
      0.061783384531736374,
      -0.22142331302165985,
      0.3588304817676544,
      -0.13189344108104706,
      0.4505167603492737,
      0.02515871822834015,
      -0.32411858439445496,
      0.0023883827961981297
    ],
    [
      0.48356351256370544,
      -0.40287086367607117,
      0.22044022381305695,
      -0.36092090606689453,
      -0.07245313376188278,
      0.16031840443611145,
      0.10183290392160416,
      0.21168264746665955,
      0.162896990776062,
      -0.3125602900981903,
      -0.12023463100194931,
      0.12525102496147156,
      -0.44374433159828186,
      0.44635191559791565,
      0.07867658883333206,
      0.048015110194683075,
      -0.13632668554782867,
      -0.19877010583877563,
      0.13020336627960205,
      -0.0769529640674591,
      0.3216308057308197,
      0.09057480841875076,
      -0.43764224648475647,
      -0.20109376311302185,
      0.5299012660980225
    ],
    [
      0.31543949246406555,
      -0.2159978300333023,
      -0.21064096689224243,
      0.32635217905044556,
      -0.11039432883262634,
      -0.05815689265727997,
      0.14046892523765564,
      -0.4476805627346039,
      0.6258878707885742,
      0.3890382945537567,
      -0.42475447058677673,
      0.32503047585487366,
      -0.3231750428676605,
      0.273380845785141,
      0.30465495586395264,
      0.1980518251657486,
      -0.3806245028972626,
      -0.1422347128391266,
      -0.18291287124156952,
      0.25196903944015503,
      0.17308084666728973,
      0.2989872097969055,
      0.296379417181015,
      0.33390143513679504,
      -0.3399781882762909
    ],
    [
      -0.2023380696773529,
      -0.21005186438560486,
      0.3433957099914551,
      0.4506027102470398,
      0.4603153169155121,
      -0.4869596064090729,
      -0.22761841118335724,
      -0.16568373143672943,
      0.28921425342559814,
      -0.095611572265625,
      0.3631252944469452,
      0.4208836555480957,
      0.4412410855293274,
      0.17682424187660217,
      0.34279683232307434,
      0.10237716883420944,
      -0.045538611710071564,
      0.24946542084217072,
      0.0801464095711708,
      -0.38149625062942505,
      -0.11079193651676178,
      -0.3712775409221649,
      -0.09723377972841263,
      -0.21142542362213135,
      0.47045859694480896
    ],
    [
      -0.14658193290233612,
      0.08118373900651932,
      0.07858540862798691,
      0.05475854501128197,
      -0.27607616782188416,
      0.2790226936340332,
      -0.3736330270767212,
      0.3204523026943207,
      -0.5399646162986755,
      0.2804109454154968,
      -0.30456334352493286,
      0.1395113170146942,
      0.19595246016979218,
      -0.38258978724479675,
      -0.2399936020374298,
      0.606628954410553,
      0.020048389211297035,
      0.3369278609752655,
      0.30596789717674255,
      0.22017201781272888,
      0.4100336730480194,
      -0.1996820718050003,
      0.2985914647579193,
      0.08858922123908997,
      -0.253713458776474
    ],
    [
      0.3034501373767853,
      -0.06533671915531158,
      -0.013306766748428345,
      0.22858373820781708,
      0.1814487874507904,
      0.10084838420152664,
      0.42029228806495667,
      -0.2595979869365692,
      0.29549452662467957,
      0.09756533801555634,
      0.05607336759567261,
      -0.00212799571454525,
      -0.16860270500183105,
      -0.5235810279846191,
      -0.25083810091018677,
      -0.39610177278518677,
      -0.01653675176203251,
      -0.35152095556259155,
      -0.13075390458106995,
      -0.44589290022850037,
      -0.34437546133995056,
      -0.2138795554637909,
      0.3248099982738495,
      0.15401947498321533,
      0.2626957297325134
    ],
    [
      -0.25356659293174744,
      -0.028301121667027473,
      0.41132646799087524,
      -0.11730179935693741,
      0.1583423912525177,
      -0.2930145859718323,
      0.2971647083759308,
      0.5684955716133118,
      -0.5429856777191162,
      0.08831897377967834,
      0.5572202801704407,
      -0.0853273868560791,
      0.006379777565598488,
      -0.25309881567955017,
      0.5635532736778259,
      -0.5735601186752319,
      -0.1162712424993515,
      0.24255044758319855,
      -0.1650012880563736,
      -0.3375414311885834,
      0.02772117592394352,
      -0.3144269585609436,
      0.03511858731508255,
      0.11765257269144058,
      0.34201779961586
    ],
    [
      -0.17622660100460052,
      0.03999527171254158,
      -0.15493597090244293,
      -0.38936516642570496,
      -0.2508871853351593,
      -0.2946705222129822,
      -0.3935038149356842,
      -0.21470314264297485,
      -0.23884251713752747,
      -0.3781651258468628,
      -0.43323928117752075,
      0.31015467643737793,
      -0.0043464587070047855,
      -0.2257165014743805,
      -0.35894668102264404,
      0.42201346158981323,
      0.17483209073543549,
      0.31952565908432007,
      -0.37534692883491516,
      0.2929214537143707,
      0.23230405151844025,
      0.3747817873954773,
      -0.29139041900634766,
      -0.32969141006469727,
      -0.2682165801525116
    ],
    [
      0.024492299184203148,
      0.05635865777730942,
      -0.17806388437747955,
      -0.1626177579164505,
      0.1316869854927063,
      -0.061154887080192566,
      -0.006334678269922733,
      0.3698013126850128,
      -0.1489466428756714,
      -0.30946221947669983,
      -0.07710117846727371,
      0.4419267773628235,
      -0.12494678050279617,
      0.02950170822441578,
      -0.3310111463069916,
      0.5545235872268677,
      0.03618016093969345,
      -0.10584351420402527,
      0.1389087587594986,
      0.20207549631595612,
      0.10014817863702774,
      0.31189849972724915,
      0.07932139933109283,
      0.15847472846508026,
      0.3969247043132782
    ],
    [
      0.4127415120601654,
      -0.43210139870643616,
      -0.37890562415122986,
      -0.2669258415699005,
      0.12915390729904175,
      -0.21178577840328217,
      0.29731741547584534,
      -0.3678610324859619,
      0.057476725429296494,
      -0.34200814366340637,
      -0.2810397744178772,
      -0.12891937792301178,
      0.06903298944234848,
      0.041296374052762985,
      -0.16977611184120178,
      0.14688526093959808,
      -0.34920260310173035,
      -0.38229838013648987,
      0.4565492868423462,
      0.11408667266368866,
      -0.4028891324996948,
      -0.13836656510829926,
      0.08595287054777145,
      -0.06815219670534134,
      0.19832326471805573
    ],
    [
      -0.4352310299873352,
      -0.5015485882759094,
      -0.011860470287501812,
      0.2607227861881256,
      -0.45067572593688965,
      0.052355315536260605,
      0.21380506455898285,
      -0.03984728828072548,
      0.4571024179458618,
      0.20350994169712067,
      -0.35237398743629456,
      -0.3341391682624817,
      0.15785975754261017,
      -0.3887530267238617,
      -0.1678038239479065,
      -0.3495478630065918,
      -0.49300047755241394,
      0.474567711353302,
      0.15888625383377075,
      0.3889074921607971,
      -0.25341346859931946,
      0.2084534764289856,
      -0.03650783374905586,
      0.35634756088256836,
      -0.021572085097432137
    ],
    [
      0.3597898483276367,
      0.2740289270877838,
      -0.35680267214775085,
      -0.429470032453537,
      0.10245039314031601,
      0.3551426827907562,
      0.12023565918207169,
      -0.22301563620567322,
      0.047117818146944046,
      -0.33787453174591064,
      -0.2572841942310333,
      -0.09020952135324478,
      0.22078947722911835,
      -0.13036902248859406,
      -0.2988356053829193,
      -0.21424530446529388,
      -0.025011999532580376,
      0.4320942461490631,
      -0.48497670888900757,
      -0.3432595431804657,
      -0.11653615534305573,
      0.13648521900177002,
      -0.22143252193927765,
      -0.0949162021279335,
      0.0784325897693634
    ],
    [
      -0.4534868597984314,
      0.1580357551574707,
      -0.2269713282585144,
      -0.261339008808136,
      0.001549848122522235,
      -0.14556272327899933,
      0.052804820239543915,
      -0.102275051176548,
      0.43110790848731995,
      0.269234836101532,
      0.29428303241729736,
      0.26712486147880554,
      -0.22119984030723572,
      0.172392800450325,
      -0.17300811409950256,
      -0.35441526770591736,
      0.40209272503852844,
      0.16033853590488434,
      -0.37586522102355957,
      0.39054790139198303,
      -0.34332510828971863,
      0.2038360834121704,
      0.4054126441478729,
      -0.2954423129558563,
      0.21361635625362396
    ],
    [
      -0.3441339135169983,
      -0.2643906772136688,
      0.2468927651643753,
      -0.32928070425987244,
      0.0008444695849902928,
      0.37201687693595886,
      -0.23076146841049194,
      -0.1296136975288391,
      -0.4073895812034607,
      -0.1476079672574997,
      -0.3358374238014221,
      0.2077254354953766,
      0.051128484308719635,
      0.16802199184894562,
      0.25593671202659607,
      -0.18069587647914886,
      0.053470633924007416,
      0.03308253362774849,
      -0.17769800126552582,
      -0.30773207545280457,
      0.21045921742916107,
      -0.07309643179178238,
      -0.09475252032279968,
      -0.14332880079746246,
      0.3099113404750824
    ],
    [
      -0.0720931813120842,
      -0.03187139332294464,
      0.40846896171569824,
      -0.09746997058391571,
      -0.019438540562987328,
      0.18908528983592987,
      -0.26520153880119324,
      0.13821156322956085,
      0.3056298792362213,
      0.41179317235946655,
      -0.0710209533572197,
      -0.15246707201004028,
      -0.14196452498435974,
      0.1970451921224594,
      -0.41630205512046814,
      -0.2880833148956299,
      -0.1472168117761612,
      0.08285374939441681,
      0.4555777311325073,
      -0.15712331235408783,
      0.3161332309246063,
      -0.47726136445999146,
      -0.13231979310512543,
      -0.23660244047641754,
      0.03330983594059944
    ],
    [
      0.03826253116130829,
      -0.10040310770273209,
      -0.1851731389760971,
      -0.3849479556083679,
      0.4083552956581116,
      -0.3300532102584839,
      -0.2337965965270996,
      -0.4225877523422241,
      -0.3935384154319763,
      -0.2176014631986618,
      -0.3680977523326874,
      0.39502206444740295,
      -0.059670768678188324,
      -0.022144433110952377,
      -0.15396006405353546,
      0.038113199174404144,
      -0.34865573048591614,
      -0.27814981341362,
      -0.09888995438814163,
      -0.1310221403837204,
      -0.3790714144706726,
      -0.23035039007663727,
      -5.3436353482538834e-05,
      0.21803666651248932,
      -0.2473621964454651
    ],
    [
      -0.07179698348045349,
      0.0748608410358429,
      0.32761436700820923,
      -0.08971983939409256,
      -0.2513948082923889,
      -0.30762892961502075,
      0.02994118444621563,
      -0.18268334865570068,
      0.7554780840873718,
      -0.33347851037979126,
      0.15349286794662476,
      -0.25370126962661743,
      -0.05662428215146065,
      -0.31613731384277344,
      -0.12431643158197403,
      -0.22462399303913116,
      0.1286923885345459,
      0.2908846437931061,
      0.025451647117733955,
      -0.47812318801879883,
      0.2929733395576477,
      -0.04387286305427551,
      0.5344638228416443,
      -0.3511647880077362,
      0.26557686924934387
    ],
    [
      -0.00012016487016808242,
      -0.45882973074913025,
      -0.1878509372472763,
      0.40623772144317627,
      -0.26717671751976013,
      -0.19276176393032074,
      -0.5032786726951599,
      -0.22677014768123627,
      0.024098016321659088,
      0.16510574519634247,
      0.18818508088588715,
      0.008396008051931858,
      0.5181827545166016,
      0.02413453720510006,
      -0.3842412829399109,
      -0.08102914690971375,
      -0.013643880374729633,
      -0.1384897232055664,
      -0.35718679428100586,
      0.211678147315979,
      0.39420515298843384,
      -0.36423882842063904,
      -0.03770672529935837,
      0.30452486872673035,
      -0.16688284277915955
    ],
    [
      0.13670939207077026,
      0.2060232311487198,
      0.4439719617366791,
      0.3879302442073822,
      -0.11979015916585922,
      0.176116943359375,
      0.21685270965099335,
      -0.1568998396396637,
      -0.35474732518196106,
      0.12772005796432495,
      0.4504460394382477,
      0.3119041919708252,
      0.4827590584754944,
      0.377227783203125,
      0.07084467262029648,
      -0.055508580058813095,
      0.4476151764392853,
      0.22672952711582184,
      0.07058977335691452,
      0.0012876116670668125,
      -0.17766183614730835,
      0.009444727562367916,
      -0.09839947521686554,
      0.14949610829353333,
      0.2634699046611786
    ],
    [
      -0.15041542053222656,
      0.3332769274711609,
      -0.29269397258758545,
      -0.03809982165694237,
      0.05684678256511688,
      0.3057723939418793,
      -0.09414160251617432,
      0.6782523989677429,
      -0.605948269367218,
      -0.31495025753974915,
      0.17476239800453186,
      -0.20564396679401398,
      0.21228145062923431,
      0.0966680571436882,
      -0.32738468050956726,
      0.14079011976718903,
      0.28961291909217834,
      -0.1304570734500885,
      -0.2804526090621948,
      0.19941605627536774,
      0.2576800286769867,
      0.39362654089927673,
      -0.30239322781562805,
      0.05199672281742096,
      -0.03177414834499359
    ],
    [
      -0.2344714105129242,
      -0.13527993857860565,
      -0.5033667087554932,
      -0.14076080918312073,
      -0.1244296133518219,
      0.1681198626756668,
      -0.07043565809726715,
      0.2829490005970001,
      0.46914705634117126,
      -0.46743714809417725,
      0.06820755451917648,
      0.3548693358898163,
      0.36057695746421814,
      -0.33975526690483093,
      -0.11179795861244202,
      0.44897422194480896,
      -0.3020288050174713,
      -0.05455536022782326,
      0.184629425406456,
      -0.11851207911968231,
      -0.3057892322540283,
      0.2346755564212799,
      -0.4410315155982971,
      0.09936439990997314,
      -0.4492889642715454
    ],
    [
      0.18224912881851196,
      0.4063700735569,
      -0.1897452026605606,
      0.4367779791355133,
      0.3319011926651001,
      0.3253152072429657,
      -0.48571914434432983,
      -0.2059309333562851,
      -0.3188113570213318,
      -0.02644922025501728,
      0.4618959128856659,
      -0.3696310818195343,
      -0.21984374523162842,
      0.22483791410923004,
      -0.23502591252326965,
      0.3109023869037628,
      0.426170289516449,
      0.02458297275006771,
      -0.17203567922115326,
      -0.31359681487083435,
      0.4930914640426636,
      0.2545379102230072,
      0.1893421709537506,
      0.1314089149236679,
      -0.2488071471452713
    ],
    [
      -0.0555657260119915,
      -0.12545520067214966,
      0.13582751154899597,
      -0.22421422600746155,
      -0.2120228111743927,
      -0.25698819756507874,
      -0.33941471576690674,
      -0.09534046798944473,
      0.36823636293411255,
      0.27866342663764954,
      -0.2048887461423874,
      0.308552622795105,
      -0.25313079357147217,
      -0.37568968534469604,
      -0.1451103687286377,
      0.4730941653251648,
      -0.36264774203300476,
      0.04816299304366112,
      -0.03318806365132332,
      -0.423430472612381,
      0.32613319158554077,
      -0.22936443984508514,
      -0.3359449505805969,
      -0.16254977881908417,
      0.06383765488862991
    ],
    [
      -0.35824668407440186,
      -0.12759800255298615,
      0.4211944043636322,
      0.25522011518478394,
      -0.19042940437793732,
      -0.03211455047130585,
      0.0072389766573905945,
      -0.30677521228790283,
      -0.29213032126426697,
      0.2597617208957672,
      0.37071117758750916,
      -0.31945154070854187,
      -0.4799789786338806,
      -0.4544285535812378,
      0.08163584768772125,
      0.2882585823535919,
      0.427439421415329,
      0.31857889890670776,
      -0.33939674496650696,
      -0.18075363337993622,
      -0.2828621566295624,
      0.02444692701101303,
      0.4019356071949005,
      -0.46860021352767944,
      0.09802666306495667
    ],
    [
      -0.32818418741226196,
      0.26148486137390137,
      0.19840483367443085,
      -0.05594414472579956,
      -0.10143600404262543,
      -0.3038104474544525,
      0.3369388282299042,
      -0.5121088027954102,
      -0.33782556653022766,
      -0.3525617718696594,
      0.2936626374721527,
      0.3525479733943939,
      -0.28068140149116516,
      0.4479132294654846,
      -0.08466241508722305,
      -0.6633621454238892,
      0.3015265464782715,
      0.3797202408313751,
      0.40085452795028687,
      0.04409468546509743,
      0.513821005821228,
      0.019902626052498817,
      0.2908253073692322,
      0.32821905612945557,
      -0.09763424098491669
    ],
    [
      0.2606392800807953,
      -0.18992803990840912,
      -0.028768807649612427,
      -0.06966692954301834,
      -0.0746363177895546,
      0.16105234622955322,
      -0.2956711947917938,
      0.4787564277648926,
      -0.23599345982074738,
      0.41899213194847107,
      0.04666951298713684,
      0.4402373731136322,
      0.09299927204847336,
      0.2625027298927307,
      0.25221994519233704,
      -0.4185904860496521,
      -0.42993834614753723,
      0.4068857729434967,
      -0.03734435886144638,
      0.18242749571800232,
      -0.11854470521211624,
      0.30512547492980957,
      -0.20982813835144043,
      0.36576682329177856,
      0.231320321559906
    ],
    [
      -0.30357420444488525,
      -0.3440954387187958,
      -0.14647816121578217,
      -0.15881980955600739,
      -0.1038275957107544,
      -0.451752245426178,
      -0.05149068310856819,
      -0.4287039637565613,
      0.1918400228023529,
      0.054129935801029205,
      0.08095800876617432,
      -0.13161751627922058,
      0.3702456057071686,
      -0.15248622000217438,
      -0.024026822298765182,
      0.3000759482383728,
      0.01768628880381584,
      -0.30008891224861145,
      -0.41961634159088135,
      0.2684158682823181,
      -0.034822627902030945,
      0.46502044796943665,
      -0.3175133764743805,
      -0.20708303153514862,
      0.3116433918476105
    ],
    [
      0.417427659034729,
      0.25631335377693176,
      0.37480148673057556,
      0.17757873237133026,
      -0.1680193543434143,
      0.1408037394285202,
      0.3414359986782074,
      0.4897700548171997,
      0.2958643138408661,
      0.23262090981006622,
      -0.44619694352149963,
      0.24069978296756744,
      0.14190010726451874,
      0.1888396143913269,
      -0.2630304992198944,
      -0.5609084963798523,
      0.3343147337436676,
      -0.15108515322208405,
      0.21564429998397827,
      0.40820521116256714,
      -0.40780410170555115,
      0.40226277709007263,
      -0.4012988805770874,
      -0.19396567344665527,
      0.15640701353549957
    ],
    [
      -0.12272711843252182,
      -0.14889632165431976,
      0.40397778153419495,
      0.026279330253601074,
      -0.2929261028766632,
      -0.44916537404060364,
      -0.47821786999702454,
      0.10330156236886978,
      -0.08185240626335144,
      -0.08824946731328964,
      0.016271580010652542,
      -0.04470232129096985,
      0.3770298957824707,
      0.4560084044933319,
      -0.06976387649774551,
      0.4365856945514679,
      -0.06318420171737671,
      -0.20019076764583588,
      -0.22957348823547363,
      0.137144073843956,
      -0.4273914396762848,
      -0.13678152859210968,
      -0.5045130252838135,
      0.1376761943101883,
      0.3119889497756958
    ],
    [
      -0.18881729245185852,
      -0.02681679278612137,
      0.4169653058052063,
      0.017783744260668755,
      0.04989055171608925,
      -0.031280163675546646,
      -0.06389721482992172,
      0.07911480963230133,
      -0.2930983006954193,
      0.22984686493873596,
      0.13952702283859253,
      0.05228462070226669,
      0.22001606225967407,
      -0.3458895683288574,
      0.26717761158943176,
      -0.471030592918396,
      -0.253258615732193,
      0.45984289050102234,
      0.4626520574092865,
      0.4015583097934723,
      0.24774238467216492,
      -0.24649445712566376,
      0.29163965582847595,
      -0.4424978792667389,
      -0.2318006455898285
    ],
    [
      -0.24155789613723755,
      0.3991163671016693,
      -0.013131342828273773,
      0.10765381902456284,
      -0.0351899228990078,
      -0.37707021832466125,
      -0.4081166982650757,
      -0.22496935725212097,
      -0.31626731157302856,
      -0.05110831558704376,
      0.3221285939216614,
      -0.36033394932746887,
      -0.34018945693969727,
      -0.4209522604942322,
      -0.3244709372520447,
      -0.24934059381484985,
      -0.3246862590312958,
      0.2772068381309509,
      -0.17859245836734772,
      0.24464726448059082,
      0.05560997873544693,
      0.27105098962783813,
      -0.34338563680648804,
      0.39083319902420044,
      0.23340745270252228
    ],
    [
      0.3093910813331604,
      0.2828502357006073,
      0.4055463373661041,
      -0.3972989320755005,
      -0.26110830903053284,
      0.42926228046417236,
      -0.026826346293091774,
      0.15254200994968414,
      0.6239778399467468,
      0.10658930987119675,
      0.4474512040615082,
      0.15593014657497406,
      -0.37386512756347656,
      0.5617170333862305,
      -0.3547999858856201,
      -0.13087430596351624,
      0.14610449969768524,
      -0.38085418939590454,
      -0.3392714858055115,
      -0.10035370290279388,
      -0.043509941548109055,
      0.3894333243370056,
      -0.3284068703651428,
      -0.07130051404237747,
      -0.44953832030296326
    ],
    [
      -0.3153303563594818,
      -0.06925477832555771,
      0.05071937292814255,
      -0.4278501868247986,
      -0.32757681608200073,
      0.15292340517044067,
      -0.146677628159523,
      0.20864857733249664,
      0.16105864942073822,
      -0.4052581489086151,
      0.08865096420049667,
      -0.1788855940103531,
      -0.07516535371541977,
      0.49986955523490906,
      -0.0030256989412009716,
      -0.027873918414115906,
      0.257852703332901,
      0.21672171354293823,
      -0.011076158843934536,
      0.37227383255958557,
      -0.3449346423149109,
      -0.41167429089546204,
      0.4114266335964203,
      -0.2778935134410858,
      0.5261330008506775
    ],
    [
      0.4207302927970886,
      0.3586678206920624,
      0.24774664640426636,
      0.3866741359233856,
      -0.18329893052577972,
      -0.2980930209159851,
      -0.4470900595188141,
      0.5869097709655762,
      0.12216360121965408,
      -0.3740836977958679,
      -0.014004458673298359,
      -0.18071578443050385,
      0.4006965458393097,
      -0.06389731913805008,
      0.19213828444480896,
      0.03528842329978943,
      -0.02934814989566803,
      -0.269892156124115,
      -0.19621337950229645,
      0.31706881523132324,
      0.24556955695152283,
      0.31841766834259033,
      0.3580196499824524,
      -0.1404603123664856,
      0.04521395266056061
    ],
    [
      -0.4235859811306,
      0.3516603410243988,
      -0.18968699872493744,
      0.035054173320531845,
      -0.5473884344100952,
      -0.024402912706136703,
      0.6004845499992371,
      0.4721482992172241,
      0.17668583989143372,
      0.3843662440776825,
      0.2816831171512604,
      0.38174083828926086,
      0.5507107973098755,
      0.35590797662734985,
      0.3557795584201813,
      0.3256298303604126,
      0.32895395159721375,
      -0.021871954202651978,
      0.3659604787826538,
      0.23472528159618378,
      0.001809278386645019,
      -0.4121159613132477,
      -0.2692253291606903,
      -0.15615756809711456,
      -0.19107210636138916
    ],
    [
      0.3855710029602051,
      -0.05012021213769913,
      0.43856021761894226,
      0.35573264956474304,
      -0.11234164983034134,
      0.14019832015037537,
      -0.12964677810668945,
      -0.28794100880622864,
      -0.025736287236213684,
      -0.4572162926197052,
      -0.45132195949554443,
      -0.41832929849624634,
      0.4103671610355377,
      -0.3738131523132324,
      0.3279038965702057,
      -0.11017880588769913,
      0.33529892563819885,
      0.32053542137145996,
      0.434812992811203,
      0.4060445725917816,
      0.45766133069992065,
      -0.24643449485301971,
      0.21391426026821136,
      -0.14300735294818878,
      -0.04608408361673355
    ],
    [
      -0.46569547057151794,
      0.15823765099048615,
      -0.36715424060821533,
      -0.4489699602127075,
      -0.4118909537792206,
      -0.35426369309425354,
      0.12490972131490707,
      -0.44375696778297424,
      -0.07073244452476501,
      -0.1399046629667282,
      -0.07493779808282852,
      -0.34105977416038513,
      -0.4371153712272644,
      0.07855243235826492,
      0.30603617429733276,
      0.23795272409915924,
      0.10655710846185684,
      0.38195130228996277,
      0.40786847472190857,
      -0.26259845495224,
      -0.41330769658088684,
      -0.34884098172187805,
      -0.2944030463695526,
      0.1573268473148346,
      0.09644239395856857
    ],
    [
      -0.14907091856002808,
      -0.3026803135871887,
      -0.18919982016086578,
      -0.3227434754371643,
      0.23474065959453583,
      0.37033990025520325,
      0.05917219817638397,
      -0.04992826282978058,
      -0.16115011274814606,
      -0.022376565262675285,
      0.1352115422487259,
      0.2419864684343338,
      0.2892184853553772,
      0.11024132370948792,
      0.09300775825977325,
      0.47298499941825867,
      -0.12017925083637238,
      0.08245771378278732,
      -0.26736924052238464,
      -0.4740276336669922,
      0.38239407539367676,
      0.04970308765769005,
      0.15276098251342773,
      -0.4294988512992859,
      -0.0691947266459465
    ],
    [
      -0.17486649751663208,
      0.1475401073694229,
      -0.011553658172488213,
      0.4513857960700989,
      -0.4023265540599823,
      0.26771584153175354,
      0.4288621246814728,
      -0.24371910095214844,
      0.21377506852149963,
      -0.39152196049690247,
      0.2359950840473175,
      -0.2052946537733078,
      0.03389502689242363,
      0.4338687062263489,
      -0.0899544507265091,
      -0.06196955218911171,
      0.2744276523590088,
      0.1590176522731781,
      0.07695068418979645,
      0.025237608700990677,
      0.4592522978782654,
      -0.43930044770240784,
      0.03611341491341591,
      -0.4186931252479553,
      -0.22140420973300934
    ],
    [
      -0.3505863547325134,
      0.38968363404273987,
      -0.2422313094139099,
      -0.39789968729019165,
      0.1918729990720749,
      0.4755474030971527,
      0.47824397683143616,
      -0.5335902571678162,
      -0.17026205360889435,
      0.0012620711931958795,
      0.4066390097141266,
      -0.16179266571998596,
      0.16283796727657318,
      -0.3494308888912201,
      0.4712575376033783,
      0.26430743932724,
      0.46133700013160706,
      -0.4531041383743286,
      -0.17998053133487701,
      -0.0748000293970108,
      0.05796225741505623,
      0.4730130434036255,
      0.43790340423583984,
      0.39720675349235535,
      -0.4258839190006256
    ],
    [
      0.06489795446395874,
      -0.17771878838539124,
      0.20870031416416168,
      -0.4510807693004608,
      0.4195919930934906,
      0.010560775175690651,
      -0.017747467383742332,
      0.412668377161026,
      -0.285393089056015,
      -0.40830084681510925,
      -0.3796268105506897,
      -0.21011453866958618,
      -0.3966234028339386,
      -0.14425981044769287,
      -0.0898844376206398,
      -0.04770172759890556,
      -0.13724832236766815,
      -0.36789363622665405,
      0.03359166905283928,
      -0.13375388085842133,
      0.4717426598072052,
      -0.2120063602924347,
      -0.1330859512090683,
      0.04403499886393547,
      0.343563050031662
    ],
    [
      -0.04142887517809868,
      0.008565039373934269,
      0.27594104409217834,
      -0.17214547097682953,
      -0.3790404796600342,
      -0.17241135239601135,
      0.21479491889476776,
      0.23479095101356506,
      -0.48595917224884033,
      -0.15149740874767303,
      -0.06004730239510536,
      -0.39182257652282715,
      -0.45349252223968506,
      0.42145344614982605,
      0.3766785264015198,
      -0.19379588961601257,
      -0.49213895201683044,
      -0.46050137281417847,
      0.059483129531145096,
      0.4856889545917511,
      -0.3094129264354706,
      0.1331447958946228,
      -0.49878549575805664,
      0.3537769317626953,
      0.30291831493377686
    ],
    [
      0.1907789558172226,
      0.33804211020469666,
      -0.21254581212997437,
      -0.021059922873973846,
      -0.2860984802246094,
      -0.16919848322868347,
      -0.2698477506637573,
      0.2108592689037323,
      -0.36384013295173645,
      0.34261876344680786,
      0.007535557262599468,
      0.03815171867609024,
      0.25222110748291016,
      0.23876960575580597,
      0.3285335898399353,
      -0.22480300068855286,
      0.40944623947143555,
      -0.4400199055671692,
      0.18862850964069366,
      0.4379465878009796,
      -0.4679044187068939,
      0.31503406167030334,
      0.4628315269947052,
      0.4387197494506836,
      -0.3439461290836334
    ],
    [
      0.12200454622507095,
      0.22705401480197906,
      -0.022523382678627968,
      -0.2652047872543335,
      -0.2580588459968567,
      0.26379066705703735,
      0.3117602467536926,
      0.15366587042808533,
      -0.5550393462181091,
      -0.42725038528442383,
      0.4118780493736267,
      -0.2925668954849243,
      0.3094779849052429,
      -0.033922336995601654,
      0.34112656116485596,
      -0.36523520946502686,
      0.03865973651409149,
      -0.2673407793045044,
      -0.15897344052791595,
      -0.0913313701748848,
      0.15360958874225616,
      -0.22697456181049347,
      0.2809927463531494,
      -0.22358670830726624,
      0.4805618226528168
    ],
    [
      0.2329423725605011,
      -0.3916889429092407,
      -0.21472488343715668,
      0.2558532655239105,
      -0.08264768868684769,
      -0.008871130645275116,
      0.370876669883728,
      -0.3095848858356476,
      0.18638113141059875,
      -0.17226964235305786,
      -0.02183586359024048,
      0.1384713351726532,
      0.510489821434021,
      0.1733826994895935,
      -0.2539713382720947,
      0.05695675313472748,
      0.3247171640396118,
      -0.42770394682884216,
      0.11219905316829681,
      -0.40515604615211487,
      -0.19602076709270477,
      0.3288441300392151,
      0.1596689075231552,
      -0.1250973641872406,
      0.5020777583122253
    ],
    [
      -0.48063912987709045,
      -0.2779235243797302,
      0.23348136246204376,
      0.4447667896747589,
      -0.42908811569213867,
      0.2882591187953949,
      -0.3048210144042969,
      0.32273510098457336,
      0.23099647462368011,
      0.08440369367599487,
      -0.4011022448539734,
      -0.49952971935272217,
      -0.020671306177973747,
      -0.29381221532821655,
      0.44799137115478516,
      -0.040470998734235764,
      -0.17378121614456177,
      -0.4503651559352875,
      0.358600378036499,
      -0.3464740216732025,
      -0.023124439641833305,
      -0.2742502987384796,
      0.3566833436489105,
      0.2415059506893158,
      -0.29501447081565857
    ],
    [
      0.3737301528453827,
      0.07484626024961472,
      -0.3797893524169922,
      -0.08936150372028351,
      0.25728097558021545,
      -0.02214580960571766,
      0.2842648923397064,
      -0.5452383756637573,
      0.5762802958488464,
      0.18635807931423187,
      -0.2049160748720169,
      0.41909605264663696,
      -0.3612731397151947,
      0.31662240624427795,
      0.09182164072990417,
      -0.015900887548923492,
      0.23211240768432617,
      0.26389485597610474,
      0.3959607481956482,
      0.035180799663066864,
      -0.005045138765126467,
      -0.08214648813009262,
      0.015178082510828972,
      -0.16471879184246063,
      -0.0597463995218277
    ],
    [
      -0.22910545766353607,
      0.5113958716392517,
      -0.12051352858543396,
      -0.1768054962158203,
      0.5905033946037292,
      -0.1784413754940033,
      0.39367279410362244,
      -0.33418846130371094,
      -0.3853074610233307,
      0.12759946286678314,
      0.08502359688282013,
      -0.08317618817090988,
      0.4759819209575653,
      -0.45779678225517273,
      0.17430710792541504,
      0.16652484238147736,
      0.1477292776107788,
      -0.3212895691394806,
      0.16119633615016937,
      0.28283557295799255,
      0.41176652908325195,
      -0.17572355270385742,
      -0.018027562648057938,
      -0.037931449711322784,
      -0.3069944977760315
    ],
    [
      -0.3128761351108551,
      -0.08785898983478546,
      -0.25461825728416443,
      0.3465939462184906,
      -0.007281328085809946,
      -0.30502256751060486,
      0.5367844700813293,
      0.2012430876493454,
      -0.3277547061443329,
      -0.026546988636255264,
      -0.30031779408454895,
      -0.3150336742401123,
      0.16749387979507446,
      -0.06870661675930023,
      0.46342629194259644,
      -0.45860832929611206,
      0.2783713638782501,
      -0.20856748521327972,
      -0.314664363861084,
      0.03502983599901199,
      0.18194158375263214,
      0.47003552317619324,
      -0.2208605855703354,
      0.14047563076019287,
      0.1357804536819458
    ],
    [
      -0.22114594280719757,
      -0.398833692073822,
      -0.005743317771703005,
      -0.22755885124206543,
      0.37073391675949097,
      -0.019700080156326294,
      0.10731517523527145,
      -0.15441936254501343,
      -0.07412585616111755,
      -0.2643450200557709,
      -0.3140255808830261,
      0.20418548583984375,
      -0.06369450688362122,
      -0.30207857489585876,
      0.28750765323638916,
      -0.35750657320022583,
      0.11890991032123566,
      0.3260180354118347,
      -0.4634974002838135,
      -0.3709471523761749,
      0.4013179540634155,
      0.28743183612823486,
      0.32110413908958435,
      -0.3672962784767151,
      -0.1783744841814041
    ],
    [
      0.10191868990659714,
      0.05257284268736839,
      -0.5147565007209778,
      -0.28078848123550415,
      0.1501878798007965,
      0.34515073895454407,
      0.21658529341220856,
      0.2804986536502838,
      -0.3462214767932892,
      0.3775918483734131,
      -0.10004162788391113,
      -0.3459380269050598,
      0.030967485159635544,
      0.23611019551753998,
      0.135101318359375,
      -0.4124954640865326,
      -0.39532437920570374,
      -0.31523776054382324,
      0.38757550716400146,
      0.28465399146080017,
      -0.16394728422164917,
      0.03941363841295242,
      -0.30970844626426697,
      0.14469242095947266,
      0.17017334699630737
    ],
    [
      0.14678910374641418,
      0.4915905296802521,
      -0.061153631657361984,
      -0.04239630326628685,
      0.4528867304325104,
      0.23673118650913239,
      0.08381210267543793,
      0.14129652082920074,
      -0.3924427330493927,
      0.08788149058818817,
      0.05557979643344879,
      0.08835101872682571,
      0.1736147105693817,
      0.10155091434717178,
      -0.08555621653795242,
      -0.18202398717403412,
      -0.22847041487693787,
      -0.2851306200027466,
      0.4639768600463867,
      -0.27920669317245483,
      0.510927140712738,
      -0.28682586550712585,
      -0.36767059564590454,
      0.12820090353488922,
      -0.44820675253868103
    ],
    [
      -0.0019578856881707907,
      -0.297681987285614,
      0.0798027366399765,
      -0.1522437036037445,
      0.38994094729423523,
      0.3132418096065521,
      0.2763381898403168,
      0.15856562554836273,
      0.10989372432231903,
      -0.40846601128578186,
      -0.04441233351826668,
      0.20014439523220062,
      -0.37335148453712463,
      -0.13655267655849457,
      -0.4262021780014038,
      0.15904055535793304,
      -0.25338345766067505,
      0.23854801058769226,
      -0.2947434186935425,
      -0.05910685285925865,
      0.25404587388038635,
      0.42046403884887695,
      -0.289244145154953,
      -0.16507020592689514,
      0.11247539520263672
    ],
    [
      -0.2811334729194641,
      0.230241060256958,
      -0.25063034892082214,
      0.3331104516983032,
      0.04965698719024658,
      -0.08016624301671982,
      -0.03461697697639465,
      0.5438498854637146,
      -0.022433634847402573,
      0.3844301700592041,
      0.3439806401729584,
      0.13305364549160004,
      -0.3504549264907837,
      -0.20429426431655884,
      0.2888208329677582,
      0.5356073975563049,
      0.3371192216873169,
      0.07702668756246567,
      0.29405447840690613,
      0.11068017780780792,
      -0.04131718724966049,
      -0.4321398437023163,
      -0.48818740248680115,
      0.05559542030096054,
      0.42944374680519104
    ],
    [
      -0.27125802636146545,
      -0.29229700565338135,
      0.30245694518089294,
      0.24012988805770874,
      0.4047359824180603,
      0.19231370091438293,
      0.23951396346092224,
      -0.16477878391742706,
      0.3967854380607605,
      -0.09085533022880554,
      0.29140064120292664,
      0.3805610239505768,
      0.28582605719566345,
      0.019173385575413704,
      -0.39665475487709045,
      -0.36940130591392517,
      0.33351507782936096,
      0.2350544035434723,
      0.3464970886707306,
      -0.09075933694839478,
      0.3414800763130188,
      -0.2533247470855713,
      0.10086067020893097,
      -0.12402752041816711,
      -0.4317149817943573
    ],
    [
      -0.1804545372724533,
      0.3648020327091217,
      0.31012704968452454,
      0.11859621107578278,
      -0.01286329422146082,
      -0.41595783829689026,
      -0.22816379368305206,
      0.5389850735664368,
      0.4326813220977783,
      0.34164950251579285,
      -0.26509082317352295,
      0.04207072779536247,
      -0.2715216279029846,
      0.25863343477249146,
      -0.223462775349617,
      0.07567828893661499,
      0.5166749954223633,
      -0.13998185098171234,
      0.009622572921216488,
      -0.26002269983291626,
      0.21862003207206726,
      -0.31462788581848145,
      0.18569472432136536,
      0.3111305832862854,
      -0.2351236492395401
    ],
    [
      -0.06640103459358215,
      0.1414383500814438,
      -0.3639337718486786,
      0.21624530851840973,
      0.30721747875213623,
      0.2893596589565277,
      0.03751467913389206,
      -0.34743428230285645,
      -0.47950810194015503,
      -0.05692773312330246,
      0.01540304347872734,
      0.3293411135673523,
      -0.446474552154541,
      -0.31156691908836365,
      -0.026387056335806847,
      -0.3068910539150238,
      0.34854915738105774,
      0.3009144365787506,
      -0.2926225960254669,
      -0.14381930232048035,
      -0.14145977795124054,
      0.07307526469230652,
      -0.4134332239627838,
      -0.23788714408874512,
      0.3096010088920593
    ],
    [
      0.3050044775009155,
      0.45070046186447144,
      0.015338576398789883,
      0.10082471370697021,
      -0.261904776096344,
      0.4691968560218811,
      0.40975117683410645,
      -0.06491879373788834,
      0.12217720597982407,
      -0.3728085458278656,
      0.24050083756446838,
      0.42160260677337646,
      0.034351177513599396,
      -0.16994845867156982,
      0.03120563179254532,
      -0.10357941687107086,
      -0.3737068772315979,
      -0.2578062415122986,
      -0.32320040464401245,
      -0.36541512608528137,
      0.18969273567199707,
      -0.2599297761917114,
      0.09527307748794556,
      0.2155885100364685,
      0.2116287797689438
    ],
    [
      -0.11355417221784592,
      0.1267337054014206,
      -0.19569048285484314,
      0.04372210055589676,
      -0.16074660420417786,
      0.5155082941055298,
      0.6610912680625916,
      -0.3418985903263092,
      0.19140180945396423,
      0.35092324018478394,
      -0.30642545223236084,
      0.2724762260913849,
      -0.4172741174697876,
      -0.3420351445674896,
      0.5855802297592163,
      0.5047405362129211,
      0.11054861545562744,
      0.45629069209098816,
      -0.31195464730262756,
      0.11903861165046692,
      0.21157026290893555,
      -0.13580292463302612,
      0.4016346037387848,
      0.10132182389497757,
      -0.23718291521072388
    ],
    [
      0.3985832929611206,
      -0.17109443247318268,
      0.08960424363613129,
      0.21874520182609558,
      0.48182955384254456,
      -0.007816221565008163,
      -0.32448911666870117,
      0.041759755462408066,
      -0.3700138032436371,
      0.24854877591133118,
      0.19796478748321533,
      -0.38476645946502686,
      -0.07082117348909378,
      0.41309064626693726,
      0.21723023056983948,
      0.07550648599863052,
      0.01984197273850441,
      0.25955313444137573,
      0.20917096734046936,
      -0.41858312487602234,
      -0.23214691877365112,
      -0.34569838643074036,
      -0.27517011761665344,
      0.006567240227013826,
      0.1711992770433426
    ],
    [
      -0.07872603833675385,
      -0.06390265375375748,
      -0.3387477695941925,
      0.18301399052143097,
      0.11429805308580399,
      -0.43067634105682373,
      -0.022383252158761024,
      0.10419225692749023,
      -0.043651845306158066,
      -0.09389105439186096,
      -0.19968509674072266,
      0.24586457014083862,
      0.4867880940437317,
      -0.09223832935094833,
      -0.4193529486656189,
      -0.30400222539901733,
      -0.11931386590003967,
      0.4177019000053406,
      0.3059375286102295,
      -0.45982781052589417,
      -0.06685081124305725,
      -0.13332310318946838,
      -0.2845805585384369,
      -0.07983548939228058,
      0.22713220119476318
    ],
    [
      -0.14277958869934082,
      0.5078524351119995,
      -0.2733668386936188,
      -0.24503110349178314,
      -0.32092636823654175,
      -0.2191123515367508,
      0.4967219829559326,
      0.12947200238704681,
      0.43107566237449646,
      -0.10424274206161499,
      0.4931289851665497,
      -0.3827742338180542,
      -0.2625919580459595,
      0.4357735216617584,
      -0.4203532636165619,
      -0.1359088122844696,
      0.3554651737213135,
      -0.026449942961335182,
      0.02647184394299984,
      -0.21853435039520264,
      -0.3201708197593689,
      -0.34814032912254333,
      0.1498931497335434,
      -0.26399075984954834,
      -0.31221404671669006
    ],
    [
      -0.09987103939056396,
      0.26159244775772095,
      -0.00441827392205596,
      0.46046581864356995,
      -0.3611385226249695,
      0.14624853432178497,
      -0.24712373316287994,
      0.15457604825496674,
      -0.18304964900016785,
      0.35303983092308044,
      0.4371066391468048,
      -0.03214527666568756,
      -0.29873356223106384,
      0.3687986135482788,
      0.23063459992408752,
      -0.15691135823726654,
      0.3514290153980255,
      -0.33697831630706787,
      0.30928900837898254,
      -0.12739776074886322,
      -0.42552000284194946,
      -0.1788887083530426,
      0.27563223242759705,
      -0.2795831561088562,
      -0.2251962572336197
    ],
    [
      0.09941823035478592,
      -0.2670380175113678,
      0.2796461284160614,
      0.3013152480125427,
      -0.1164129301905632,
      0.27465730905532837,
      -0.13389599323272705,
      -0.3735739588737488,
      0.023347362875938416,
      -0.024470319971442223,
      0.2956139147281647,
      -0.02970663271844387,
      0.05866061523556709,
      0.3121783137321472,
      -0.3280121684074402,
      0.5729844570159912,
      0.4512890577316284,
      -0.058551717549562454,
      -0.1646719127893448,
      -0.452409565448761,
      -0.2732619643211365,
      -0.4184235632419586,
      0.4186639189720154,
      -0.13331803679466248,
      -0.00619920901954174
    ],
    [
      -0.34911954402923584,
      -0.2890694737434387,
      0.11094243079423904,
      -0.306161105632782,
      -0.14579235017299652,
      0.5892003178596497,
      0.07771240174770355,
      0.05475148558616638,
      -0.12596547603607178,
      0.05837465822696686,
      -0.1030748263001442,
      -0.050978582352399826,
      0.42435166239738464,
      -0.3010752499103546,
      -0.09523964673280716,
      0.5945370197296143,
      -0.02539512701332569,
      0.22233286499977112,
      0.022138768807053566,
      -0.3027006983757019,
      0.5390424132347107,
      0.33349451422691345,
      -0.4039742350578308,
      -0.2889702618122101,
      -0.06982110440731049
    ],
    [
      -0.1058492362499237,
      -0.1256568878889084,
      -0.3767189085483551,
      -0.3121311664581299,
      -0.46403369307518005,
      -0.34608426690101624,
      -0.37398073077201843,
      -0.18334859609603882,
      0.4066992998123169,
      0.047136202454566956,
      0.3305967450141907,
      0.47614023089408875,
      0.1853756308555603,
      0.29904958605766296,
      0.3685412108898163,
      -0.025650212541222572,
      0.07795152068138123,
      -0.05976717174053192,
      0.3759811520576477,
      -0.21443097293376923,
      -0.41233155131340027,
      0.19111521542072296,
      0.30005645751953125,
      0.16478362679481506,
      0.4776056706905365
    ],
    [
      -0.13542258739471436,
      -0.45598140358924866,
      0.24324190616607666,
      0.33017802238464355,
      -0.3408568203449249,
      -0.45063677430152893,
      -0.22452998161315918,
      0.3161957561969757,
      -0.1692485213279724,
      -0.18276043236255646,
      0.3549685776233673,
      -0.36160701513290405,
      0.22443421185016632,
      -0.19136406481266022,
      0.41127461194992065,
      -0.40755122900009155,
      -0.41728100180625916,
      -0.046288758516311646,
      -0.35784998536109924,
      0.47858303785324097,
      -0.16743631660938263,
      -0.19080011546611786,
      -0.04292944446206093,
      0.24644650518894196,
      -0.08213481307029724
    ],
    [
      0.1377163827419281,
      -0.012366303242743015,
      -0.49269184470176697,
      -0.032964613288640976,
      0.216161847114563,
      0.24650566279888153,
      -0.29871007800102234,
      0.4302898645401001,
      0.09018488973379135,
      -0.43578800559043884,
      0.30478787422180176,
      0.29810240864753723,
      0.1485333889722824,
      0.380705326795578,
      0.3415827453136444,
      -0.5156128406524658,
      -0.05704321339726448,
      0.06931548565626144,
      0.31929540634155273,
      -0.13981109857559204,
      0.1518031805753708,
      0.38041943311691284,
      -0.27569854259490967,
      0.22671185433864594,
      -0.2698529362678528
    ],
    [
      -0.13382108509540558,
      -0.040200673043727875,
      -0.015200507827103138,
      -0.07071425765752792,
      -0.2762155830860138,
      0.09423452615737915,
      -0.3706221282482147,
      -0.36206671595573425,
      -0.2416979819536209,
      0.1594512015581131,
      0.34224241971969604,
      0.21324390172958374,
      -0.13499800860881805,
      0.24066723883152008,
      0.15729917585849762,
      0.2075493335723877,
      0.18302799761295319,
      0.3221435546875,
      -0.035777535289525986,
      0.18319079279899597,
      -0.3493155241012573,
      0.2999829947948456,
      0.2613695561885834,
      -0.4071343243122101,
      0.45883944630622864
    ],
    [
      -0.467110276222229,
      0.4753292500972748,
      -0.06949528306722641,
      0.09914620220661163,
      0.023081062361598015,
      0.35168352723121643,
      -0.04028422385454178,
      -0.46062713861465454,
      -0.30660581588745117,
      0.021373119205236435,
      0.15454114973545074,
      0.4251970648765564,
      -0.20624274015426636,
      -0.2866935431957245,
      0.31152597069740295,
      -0.44782042503356934,
      0.06444191187620163,
      -0.1314813494682312,
      -0.3888751268386841,
      0.41459912061691284,
      0.14663463830947876,
      0.49757200479507446,
      -0.31611472368240356,
      0.03739465773105621,
      -0.3450906574726105
    ],
    [
      -0.39224642515182495,
      -0.21726706624031067,
      0.14279793202877045,
      0.22829090058803558,
      0.2067338526248932,
      0.16058394312858582,
      -0.38369840383529663,
      0.18610532581806183,
      -0.4898204505443573,
      -0.4079155921936035,
      0.29143673181533813,
      -0.3979758620262146,
      -0.3223873972892761,
      -0.41215062141418457,
      0.27071335911750793,
      0.2478184700012207,
      -0.43440693616867065,
      -0.0765380859375,
      -0.07621676474809647,
      -0.30530452728271484,
      -0.10258138924837112,
      0.07158029824495316,
      0.010597859509289265,
      -0.12767452001571655,
      -0.1085871085524559
    ],
    [
      -0.07951799035072327,
      0.4239784777164459,
      0.24858304858207703,
      -0.09332791715860367,
      0.15328863263130188,
      -0.5142650008201599,
      0.14540617167949677,
      -0.35662004351615906,
      0.06100034341216087,
      -0.08975675702095032,
      0.18075986206531525,
      -0.07013269513845444,
      -0.2851726710796356,
      0.5070140957832336,
      0.17849518358707428,
      0.1880577653646469,
      -0.1790063977241516,
      0.15444418787956238,
      -0.06379459798336029,
      -0.03532487526535988,
      0.16003036499023438,
      0.2782216966152191,
      -0.1972874253988266,
      0.04155682027339935,
      -0.3505845367908478
    ],
    [
      0.3707377314567566,
      0.37543076276779175,
      0.20291762053966522,
      0.0319613516330719,
      -0.6188790202140808,
      0.4107932448387146,
      -0.19832578301429749,
      0.5816487669944763,
      -0.13271017372608185,
      0.1394227296113968,
      -0.02042250707745552,
      -0.06728819757699966,
      -0.052895188331604004,
      -0.43341919779777527,
      0.34057146310806274,
      -0.0690753161907196,
      -0.38421282172203064,
      -0.37534162402153015,
      -0.24345426261425018,
      -0.4772995710372925,
      -0.23600205779075623,
      0.40227609872817993,
      0.37679553031921387,
      0.11902086436748505,
      -0.11506929993629456
    ],
    [
      0.28457123041152954,
      0.2032364010810852,
      0.46090054512023926,
      0.3359294831752777,
      0.3638854920864105,
      0.18074484169483185,
      0.3954750895500183,
      0.2179807424545288,
      -0.33607420325279236,
      0.3611014485359192,
      0.017346607521176338,
      0.11273270100355148,
      0.1506005823612213,
      -0.5052991509437561,
      -0.24900421500205994,
      -0.42137226462364197,
      -0.06230957806110382,
      -0.3986501395702362,
      0.17587333917617798,
      0.28183528780937195,
      0.0008773718727752566,
      0.48430582880973816,
      0.027802912518382072,
      0.10086748003959656,
      0.047942910343408585
    ],
    [
      -0.4239124059677124,
      0.19609393179416656,
      -0.16691188514232635,
      0.21189939975738525,
      -0.19031253457069397,
      -0.0930325910449028,
      -0.48146119713783264,
      0.3376777768135071,
      0.40735161304473877,
      0.31809255480766296,
      0.42174363136291504,
      0.32108819484710693,
      0.35573598742485046,
      -0.19466130435466766,
      0.20636741816997528,
      0.09904804825782776,
      0.36097657680511475,
      -0.228496253490448,
      0.31922048330307007,
      0.14398106932640076,
      -0.4080355763435364,
      0.0765802338719368,
      0.3726072311401367,
      -0.39697906374931335,
      -0.01692941039800644
    ],
    [
      -0.03809862211346626,
      -0.11729872971773148,
      0.012080936692655087,
      -0.21381604671478271,
      -0.2186278998851776,
      0.37029722332954407,
      0.45191094279289246,
      -0.19798608124256134,
      -0.33501142263412476,
      0.371519535779953,
      -0.2861657738685608,
      0.3184387981891632,
      -0.29506659507751465,
      0.05699065700173378,
      -0.2479071170091629,
      -0.013556599617004395,
      -0.042353130877017975,
      -0.4700355529785156,
      -0.07502785325050354,
      -0.18713970482349396,
      0.43004491925239563,
      -0.20983533561229706,
      -0.2901631295681,
      0.30952927470207214,
      -0.3097063899040222
    ],
    [
      0.4064768850803375,
      0.42314401268959045,
      -0.25758662819862366,
      -0.04816697537899017,
      -0.49012821912765503,
      -0.4456724226474762,
      0.41354796290397644,
      0.18086129426956177,
      0.020920906215906143,
      0.23177383840084076,
      0.12520329654216766,
      0.4296090602874756,
      0.11358359456062317,
      0.11797375977039337,
      -0.16945503652095795,
      -0.41317325830459595,
      -0.23505528271198273,
      0.41598618030548096,
      0.08595911413431168,
      -0.05136360600590706,
      0.372188538312912,
      -0.16148094832897186,
      -0.08440709114074707,
      -0.4318526089191437,
      0.10012795031070709
    ],
    [
      0.17598465085029602,
      0.2616218626499176,
      -0.32578498125076294,
      0.23774543404579163,
      -0.1412847340106964,
      -0.4520384967327118,
      -0.20660462975502014,
      -0.29436540603637695,
      -0.16940252482891083,
      -0.21048304438591003,
      -0.24952758848667145,
      -0.21388044953346252,
      -0.19077879190444946,
      -0.31920307874679565,
      -0.45220112800598145,
      -0.11197006702423096,
      -0.34892478585243225,
      0.10120634734630585,
      -0.20301802456378937,
      0.46916183829307556,
      -0.002934710355475545,
      -0.08731424808502197,
      0.40794363617897034,
      -0.21014918386936188,
      0.3802463114261627
    ],
    [
      0.45468708872795105,
      0.42912808060646057,
      -7.390454993583262e-05,
      -0.39788949489593506,
      -0.18281257152557373,
      0.4262753427028656,
      -0.3393583595752716,
      0.24289517104625702,
      -0.2516126036643982,
      0.022529123350977898,
      0.37001147866249084,
      -0.10760606825351715,
      -0.0864984318614006,
      0.3219212591648102,
      0.42849716544151306,
      -0.44838741421699524,
      -0.5255049467086792,
      -0.36330363154411316,
      -0.18317782878875732,
      -0.46237850189208984,
      -0.41204628348350525,
      0.08636103570461273,
      -0.28925836086273193,
      0.106600821018219,
      0.37023720145225525
    ],
    [
      0.32752853631973267,
      -0.22862428426742554,
      0.12033604830503464,
      -0.15372823178768158,
      0.11236409842967987,
      -0.08585269749164581,
      0.18828104436397552,
      0.25988849997520447,
      0.408799409866333,
      0.3249664902687073,
      -0.07376305758953094,
      0.2801992893218994,
      -0.0537581704556942,
      0.4639805853366852,
      -0.28179359436035156,
      -0.09134066104888916,
      0.08331699669361115,
      0.027253083884716034,
      -0.2898676097393036,
      -0.2868081331253052,
      0.1590893417596817,
      0.39808493852615356,
      -0.02450423873960972,
      -0.16778826713562012,
      0.2404748499393463
    ],
    [
      -0.304706871509552,
      0.3508166968822479,
      0.008108277805149555,
      -0.3217064142227173,
      -0.35450878739356995,
      0.46057435870170593,
      -0.11074264347553253,
      0.24650265276432037,
      -0.00042185571510344744,
      0.47292178869247437,
      0.2878281772136688,
      0.21603231132030487,
      0.16001135110855103,
      0.20747090876102448,
      -0.40317463874816895,
      -0.08048225939273834,
      -0.0905090719461441,
      -0.3287458121776581,
      0.2105514407157898,
      0.40522217750549316,
      0.15983539819717407,
      -0.348524272441864,
      0.038764551281929016,
      -0.00604505417868495,
      0.4149811863899231
    ],
    [
      0.4056347608566284,
      0.4701915383338928,
      0.3621780574321747,
      -0.19355100393295288,
      0.13554318249225616,
      0.05805141106247902,
      -0.5450708866119385,
      0.27928146719932556,
      0.49009042978286743,
      -0.18481437861919403,
      0.3038466274738312,
      -0.483934611082077,
      -0.020070964470505714,
      0.35908323526382446,
      0.27198275923728943,
      -0.15942083299160004,
      0.28488755226135254,
      0.1588335484266281,
      0.24197281897068024,
      0.2530769109725952,
      -0.2411474883556366,
      0.32733696699142456,
      -0.4279315769672394,
      -0.4078226387500763,
      0.2677554190158844
    ],
    [
      -0.18531343340873718,
      0.4431016147136688,
      0.2731091380119324,
      -0.21791872382164001,
      -0.20972077548503876,
      0.249117910861969,
      -0.4107263684272766,
      -0.21036411821842194,
      0.4841555058956146,
      0.256539523601532,
      -0.023926671594381332,
      0.4526365399360657,
      0.09555722773075104,
      0.13379210233688354,
      -0.4526939392089844,
      0.24096491932868958,
      -0.4185284376144409,
      0.1390204280614853,
      0.4787786304950714,
      0.2817952334880829,
      0.20981474220752716,
      0.11215933412313461,
      0.46740010380744934,
      0.37574833631515503,
      0.4091596305370331
    ],
    [
      -0.2688758671283722,
      0.1453704833984375,
      0.04990772157907486,
      0.09968256950378418,
      0.17357905209064484,
      -0.06449324637651443,
      0.03753754124045372,
      -0.16825786232948303,
      -0.12422893941402435,
      -0.38873568177223206,
      0.2462557554244995,
      -0.211579829454422,
      0.3166905641555786,
      -0.21942074596881866,
      0.18215036392211914,
      -0.15181532502174377,
      -0.1436191201210022,
      0.34917789697647095,
      -0.09598652273416519,
      0.257766455411911,
      -0.3285079002380371,
      -0.24299834668636322,
      -0.024852249771356583,
      -0.3258051872253418,
      0.36290687322616577
    ]
  ],
  "fc1.bias": [
    -0.031219979748129845,
    0.01186672504991293,
    0.026037737727165222,
    0.054668016731739044,
    -0.01821569725871086,
    0.00965924747288227,
    0.0,
    0.05945062264800072,
    0.02965712547302246,
    0.015560702420771122,
    0.006543807219713926,
    0.04545547813177109,
    0.0,
    -0.019089508801698685,
    0.06539896130561829,
    0.03162021189928055,
    0.005942135583609343,
    0.03736378625035286,
    -0.005346980411559343,
    -0.012331574223935604,
    -0.008691010065376759,
    0.040641821920871735,
    0.08527456969022751,
    0.027184849604964256,
    0.003701257985085249,
    0.0,
    -0.007541452068835497,
    -0.0036766452249139547,
    0.0512767992913723,
    0.04501532018184662,
    -0.029486412182450294,
    0.0003725800779648125,
    0.014316419139504433,
    0.04329701140522957,
    0.0061089592054486275,
    0.04398664832115173,
    0.0,
    0.0,
    -0.042018283158540726,
    0.0,
    0.0,
    0.0,
    0.01108580268919468,
    0.05072065070271492,
    -0.009274975396692753,
    0.05962279438972473,
    0.03408775478601456,
    -0.019079776480793953,
    0.09300456941127777,
    0.04678985849022865,
    0.08009863644838333,
    -0.042024534195661545,
    -0.015731103718280792,
    0.0,
    -0.014643063768744469,
    -0.018146401271224022,
    -0.021843820810317993,
    0.0,
    0.00319053721614182,
    0.0,
    0.060581449419260025,
    -0.029717477038502693,
    -0.011115494184195995,
    0.06828051805496216,
    -0.01171818096190691,
    0.002114493865519762,
    -0.01143869012594223,
    -0.002256350126117468,
    0.035544127225875854,
    0.005432272329926491,
    -0.015987956896424294,
    0.002227292163297534,
    -0.02586471661925316,
    0.04552155360579491,
    0.008683161810040474,
    -0.007867308333516121,
    0.0401444211602211,
    -0.012731675989925861,
    0.037822458893060684,
    -0.03164666146039963,
    0.0,
    0.06517751514911652,
    0.03507336229085922,
    0.015422975644469261,
    0.0,
    -0.021375780925154686,
    -0.016622284427285194,
    0.001449292409233749,
    0.01259577926248312,
    -0.017550334334373474,
    -0.023168373852968216,
    0.09026466310024261,
    0.05529724806547165,
    0.03706297650933266,
    -0.045768242329359055,
    0.01064297091215849,
    0.035472381860017776,
    -0.019714543595910072,
    -0.020275207236409187,
    0.06465879082679749,
    0.05940934270620346,
    -0.025005973875522614,
    0.0008823323296383023,
    0.012890834361314774,
    -0.011522414162755013,
    0.05401349440217018,
    0.017725713551044464,
    0.03929079324007034,
    0.08646578341722488,
    0.06929256021976471,
    0.009500688873231411,
    -0.017713816836476326,
    -0.02511952631175518,
    0.01026158407330513,
    0.0,
    -0.0030575781129300594,
    0.015188470482826233,
    0.009448030963540077,
    -0.0286613330245018,
    -0.002952245995402336,
    -0.04513605684041977,
    -0.006338743958622217,
    -0.040182098746299744,
    -0.010149223729968071,
    0.02503572590649128,
    -0.007965204305946827,
    0.02130604349076748,
    -0.022520888596773148
  ],
  "fc2.weight": [
    [
      0.018155893310904503,
      0.04896174371242523,
      -0.10398618131875992,
      0.04086786136031151,
      0.10045350342988968,
      0.04956045374274254,
      -0.059408437460660934,
      -0.005124429706484079,
      -0.20525066554546356,
      0.17940518260002136,
      0.16447573900222778,
      -0.008820419199764729,
      0.052474334836006165,
      -0.094093456864357,
      -0.10050677508115768,
      0.0634644478559494,
      0.1819692999124527,
      -0.024124568328261375,
      0.1166999489068985,
      0.08154990524053574,
      -0.03564409166574478,
      0.014100641943514347,
      -0.09027200937271118,
      0.019964726641774178,
      0.17801927030086517,
      0.03833717107772827,
      0.0420900359749794,
      -0.2000458836555481,
      0.02310340292751789,
      0.07809410244226456,
      0.1718280017375946,
      -0.06739804893732071,
      -0.004449193831533194,
      0.06778811663389206,
      -0.06945935636758804,
      0.16199955344200134,
      0.034572821110486984,
      0.11318380385637283,
      -0.0476052425801754,
      0.06322866678237915,
      0.12201762199401855,
      -0.19323834776878357,
      -0.17849943041801453,
      -0.21907812356948853,
      0.1989569514989853,
      0.2104189544916153,
      -0.07412304729223251,
      0.04060020670294762,
      0.017479972913861275,
      0.20072123408317566,
      0.1937188357114792,
      0.1427289843559265,
      -0.1169654130935669,
      -0.1639804244041443,
      0.02437971718609333,
      -0.025160333141684532,
      0.101767398416996,
      -0.09883647412061691,
      -0.03737420588731766,
      -0.08336805552244186,
      0.1552809476852417,
      -0.18565525114536285,
      -0.20685777068138123,
      0.07258889824151993,
      0.007228350732475519,
      -0.13126052916049957,
      -0.1702566295862198,
      0.05216431990265846,
      -0.21338309347629547,
      0.007623147219419479,
      -0.05799619108438492,
      -0.044712889939546585,
      0.026884019374847412,
      -0.04087359458208084,
      0.044975802302360535,
      -0.09064150601625443,
      0.1443423330783844,
      0.0641217902302742,
      0.08174650371074677,
      0.2098275125026703,
      -0.2124141901731491,
      -0.06622132658958435,
      -0.0028219374362379313,
      0.016768429428339005,
      -0.1999288946390152,
      0.19635647535324097,
      -0.05365661904215813,
      -0.09031513333320618,
      -0.13331662118434906,
      -0.19999581575393677,
      0.13008856773376465,
      -0.1191483810544014,
      -0.14627359807491302,
      -0.05687896907329559,
      -0.13566574454307556,
      -0.07393316924571991,
      0.11813731491565704,
      -0.204837828874588,
      0.17985591292381287,
      -0.04329612851142883,
      -0.12479807436466217,
      -0.04472048953175545,
      -0.13490155339241028,
      0.08759291470050812,
      -0.0645178034901619,
      0.10118506103754044,
      -0.011445657350122929,
      0.16825290024280548,
      -0.15628866851329803,
      -0.002983502112329006,
      0.16376106441020966,
      0.017664453014731407,
      0.11591484397649765,
      0.017497023567557335,
      0.17111265659332275,
      -0.05033980309963226,
      0.12031092494726181,
      -0.2100985199213028,
      -0.12797944247722626,
      0.05139490216970444,
      -0.11324206739664078,
      0.12289300560951233,
      0.07866585999727249,
      -0.06434961408376694,
      -0.16295817494392395,
      0.11712981015443802,
      -0.1203642338514328,
      -0.10859748721122742
    ],
    [
      0.1205017939209938,
      0.15737459063529968,
      -0.08709370344877243,
      0.02887159027159214,
      -0.2350795567035675,
      -0.06802753359079361,
      -0.06078937649726868,
      0.016837768256664276,
      -0.1339055448770523,
      -0.20966237783432007,
      -0.15180078148841858,
      -0.03611075505614281,
      0.18857789039611816,
      0.029102826490998268,
      0.004598745610564947,
      -0.11831070482730865,
      -0.2051471769809723,
      0.06582991778850555,
      -0.03215464949607849,
      -0.09464818984270096,
      -0.12591423094272614,
      -0.1428254097700119,
      0.13839201629161835,
      0.04423769935965538,
      -0.06394730508327484,
      -0.07987240701913834,
      -0.19138117134571075,
      0.17985863983631134,
      -0.19328956305980682,
      0.14913088083267212,
      -0.06696128845214844,
      0.05266157165169716,
      0.0382973775267601,
      -0.17552503943443298,
      -0.0009054734255187213,
      0.001066631986759603,
      -0.2083314210176468,
      -0.07745856791734695,
      0.17911657691001892,
      -0.09587712585926056,
      0.0032946430146694183,
      -0.19803982973098755,
      0.021774495020508766,
      0.02801554650068283,
      0.028449704870581627,
      -0.14666098356246948,
      0.03049476072192192,
      0.13205693662166595,
      0.11834819614887238,
      0.09664802998304367,
      0.08607304096221924,
      0.1700506955385208,
      -0.08329097926616669,
      0.06058352068066597,
      0.007631096988916397,
      0.03681196644902229,
      0.1332474797964096,
      -0.038248952478170395,
      -0.1587730497121811,
      0.1607196182012558,
      -0.051678504794836044,
      0.09003385901451111,
      0.18857212364673615,
      -0.12162720412015915,
      -0.1821747124195099,
      -0.08320359885692596,
      -0.057057056576013565,
      0.13185621798038483,
      -0.0025385585613548756,
      0.06967190653085709,
      -0.07778403908014297,
      0.09257370233535767,
      0.206417053937912,
      -0.06019720062613487,
      0.11013191938400269,
      -0.047441184520721436,
      -0.013533479534089565,
      -0.20829816162586212,
      0.02021542564034462,
      0.05080391839146614,
      0.19479915499687195,
      -0.21598826348781586,
      0.06269674748182297,
      0.09182506054639816,
      -0.20626139640808105,
      -0.007830239832401276,
      -0.23378801345825195,
      -0.06653782725334167,
      -0.1617380529642105,
      0.20475181937217712,
      0.09402626007795334,
      0.008396271616220474,
      0.15098817646503448,
      0.007825617678463459,
      0.03522153198719025,
      -0.11205065995454788,
      -0.16701428592205048,
      -0.2021687626838684,
      -0.1679675579071045,
      -0.13463760912418365,
      -0.25719135999679565,
      -0.18763265013694763,
      -0.04236337170004845,
      -0.13702411949634552,
      -0.006602087989449501,
      0.12788480520248413,
      -0.021143602207303047,
      0.07597658783197403,
      0.14681127667427063,
      -0.1816924661397934,
      -0.1700807511806488,
      -0.17770428955554962,
      -0.17706608772277832,
      0.053084369748830795,
      0.07623883336782455,
      -0.10725495964288712,
      -0.04550643637776375,
      0.15416499972343445,
      0.1604759395122528,
      -0.1988368034362793,
      -0.06076690927147865,
      -0.07654733210802078,
      -0.12940791249275208,
      -0.1895565390586853,
      0.20215921103954315,
      -0.005193050485104322,
      -0.04843950644135475,
      -0.017638543620705605
    ],
    [
      -0.010511534288525581,
      0.159580260515213,
      -0.10556088387966156,
      -0.005606163293123245,
      -0.11899520456790924,
      0.037401601672172546,
      0.055659133940935135,
      0.032008253037929535,
      -0.15262380242347717,
      0.07609773427248001,
      -0.3229888677597046,
      0.11300938576459885,
      -0.18914298713207245,
      -0.06055702641606331,
      0.01301679015159607,
      -0.06146848946809769,
      -0.06404615193605423,
      -0.09621194750070572,
      -0.01529900822788477,
      -0.07521002739667892,
      -0.16505937278270721,
      -0.2299066036939621,
      0.14658288657665253,
      -0.20192056894302368,
      0.060742609202861786,
      -0.02273242175579071,
      -0.15905927121639252,
      0.08860715478658676,
      -0.23543687164783478,
      -0.034777574241161346,
      0.141473650932312,
      0.09191600978374481,
      0.06782443821430206,
      -0.1710556000471115,
      0.17175959050655365,
      0.002168071921914816,
      -0.19365468621253967,
      -0.17517417669296265,
      -0.0861310064792633,
      -0.04791068658232689,
      -0.14751514792442322,
      -0.03275925666093826,
      -0.17527194321155548,
      -0.1709490269422531,
      -0.16570813953876495,
      -0.0030827054288238287,
      0.06114942952990532,
      -0.07931506633758545,
